0.359244
-0.160015
0.179681
-0.239077
-0.259351
0.258813
0.242505
-0.079412
-0.266666
-0.227088
-0.275761
0.158318
-0.106829
0.226256
0.084169
-0.084148
0.027179
-0.269175
-0.002883
-0.126276
0.254252
0.230870
0.007649
-0.165831
0.117015
0.096979
0.228310
-0.000308
0.082628
-0.044890
0.010305
0.020445
-0.001068
0.108313
0.165248
-0.151277
-0.187716
0.091432
0.221665
0.003082
0.096413
-0.234080
0.343398
0.159619
0.202330
0.124545
0.024530
0.130440
-0.201390
-0.277389
0.132530
0.109936
0.172312
-0.010212
0.006017
-0.221507
0.223115
-0.140970
0.234206
-0.032075
-0.197534
0.192853
-0.024716
-0.101490
-0.242492
0.097996
-0.200650
0.131322
-0.277291
0.227499
-0.113512
0.226924
0.030996
0.010285
0.234268
0.225690
-0.155325
-0.070217
-0.179785
0.239714
0.031435
-0.148709
0.077196
0.045083
0.092548
-0.047004
0.193201
0.244120
-0.169408
0.044682
0.146652
0.153417
-0.047229
0.071120
0.038928
-0.104355
0.120015
0.246012
0.019867
0.246042
-0.184720
-0.165034
-0.028135
0.002745
-0.478939
-0.191266
0.119383
0.089869
-0.213097
-0.278299
-0.195242
0.091649
0.184762
-0.108657
-0.171084
0.175882
-0.096364
-0.269337
-0.042477
0.004630
-0.100231
-0.178081
0.514795
-0.001621
-0.525617
0.143073
0.103591
-0.248103
0.330895
0.113148
-0.115814
0.024378
-0.224714
0.066055
0.235017
-0.136130
0.054907
0.032532
0.019895
0.267393
0.089566
0.003185
0.113233
-0.173816
-0.141122
-0.129269
-0.374129
-0.068822
0.131592
-0.153947
0.226187
0.255037
0.233254
0.148845
-0.139298
0.184475
-0.177075
-0.270090
-0.264343
-0.097541
0.066864
-0.236089
-0.117671
0.249192
0.217703
-0.204896
-0.130973
0.225874
0.144733
-0.275018
-0.034631
-0.090393
-0.268493
0.185457
0.029961
0.119361
-0.189000
-0.147165
0.243208
-0.267613
0.162498
0.072337
0.154540
-0.079263
-0.154862
0.086889
0.023169
-0.088405
0.289283
0.188167
-0.243723
-0.109023
-0.073261
-0.071334
-0.231558
-0.264877
-0.255217
-0.161155
-0.123641
-0.230243
0.160868
0.207126
-0.034507
0.090255
0.159751
-0.035764
0.173641
-0.098068
-0.085532
-0.052835
0.184770
0.001773
0.049039
-0.171216
0.197612
0.213520
-0.284088
0.004086
-0.244646
-0.285382
-0.063090
-0.097821
-0.039638
0.181871
0.093849
0.148266
0.240022
0.097222
0.276383
-0.047762
-0.113807
0.239063
0.152819
0.108708
-0.152217
0.018800
-0.176334
-0.191877
0.191816
0.047041
0.017538
0.126389
-0.154883
0.100007
0.214245
0.056252
-0.246583
0.107882
-0.038055
-0.240035
0.112837
-0.133861
0.295456
-0.108928
0.248150
-0.119191
0.276329
-0.035900
0.136507
0.171496
-0.101914
-0.167422
-0.015318
0.072114
-0.290948
-0.237132
0.084862
0.150782
-0.211297
-0.071708
-0.139897
0.012879
0.150631
0.247383
-0.017472
-0.207257
-0.168515
0.116330
0.162255
-0.147876
0.075983
-0.243692
-0.058403
-0.202828
-0.072430
-0.243109
-0.053014
-0.063785
-0.038409
-0.086359
0.088705
-0.198522
-0.069944
-0.145219
0.202911
0.150409
-0.017334
0.169050
-0.065977
-0.247797
-0.137835
-0.131120
-0.198089
0.063962
-0.272229
-0.225468
-0.263214
-0.183233
-0.173769
0.028647
0.044468
-0.187285
-0.043851
0.010054
0.023354
0.159165
0.269831
0.159719
-0.244962
-0.003729
-0.198048
-0.067423
0.219512
-0.162630
0.197639
0.207165
-0.018569
-0.005699
-0.149189
-0.086823
0.171433
-0.261790
0.175187
0.183585
0.218294
0.091968
-0.240492
-0.265478
-0.072721
-0.258297
-0.082214
-0.035422
0.097728
0.192211
0.253541
-0.077933
0.182260
0.092933
0.234553
0.212229
0.123682
0.014551
0.109443
0.176866
-0.087913
0.093688
0.062589
0.219058
-0.045521
0.149102
0.392016
-0.257929
-0.364947
0.258254
0.089552
-0.182416
0.191946
-0.012209
-0.244323
-0.040228
-0.045638
0.038189
0.170990
0.249003
-0.021943
0.147787
-0.105882
-0.273803
0.106053
-0.046239
0.282495
0.230475
-0.087953
0.023223
0.023423
0.044512
0.144904
0.060037
-0.011884
-0.073647
-0.090369
-0.060602
0.014601
0.269150
-0.145512
-0.093909
-0.234637
-0.025854
-0.118694
0.206723
0.015782
-0.037570
0.190966
-0.183324
-0.104811
0.224889
0.043590
-0.012637
0.077909
0.263562
-0.173267
-0.107054
-0.023915
-0.254461
0.262993
0.159594
0.057775
0.114216
-0.223529
0.191667
-0.171548
-0.018427
0.172624
-0.110428
-0.513949
0.242042
-0.235920
-0.022970
-0.204516
0.265114
-0.266942
-0.064494
0.182101
-0.117206
0.176938
0.095974
-0.220740
0.081201
-0.082056
0.258434
-0.056138
0.039876
-0.025533
-0.042768
0.487222
-0.133158
-0.053373
0.277056
0.053190
0.075357
0.110470
-0.168627
-0.156956
0.072935
-0.156655
-0.241181
-0.286291
-0.198941
0.091540
-0.189301
0.029179
0.245024
0.031565
0.157641
0.249870
-0.135619
0.533495
0.017397
-0.137335
-0.178885
-0.137524
0.191161
0.024467
0.171252
-0.121409
0.172018
0.112517
0.283153
0.022605
0.150696
0.104179
-0.196197
0.230882
0.061493
-0.068885
0.202553
0.088923
0.259933
0.116562
-0.097252
0.025656
-0.052979
0.138303
0.236715
0.009332
0.123164
-0.735831
0.156599
-0.200761
0.033847
0.038943
0.045376
0.076449
0.157467
-0.222408
-0.071701
-0.123901
0.085861
0.128319
-0.218783
-0.197860
0.267157
-0.136521
0.278304
0.102210
-0.245626
-0.213342
-0.224504
-0.222115
-0.137249
-0.109288
-0.148208
-0.265999
0.227324
-0.051383
-0.210159
-0.093820
0.075303
0.049957
0.158665
-0.234396
0.233026
0.004620
0.204570
0.215760
-0.209537
-0.049830
0.233281
0.085100
-0.161532
-0.123410
0.268700
-0.259573
-0.066650
0.085449
0.141058
0.002600
-0.256689
0.090406
0.116749
0.208535
-0.255130
0.144576
0.006888
0.659198
-0.019144
0.052791
-0.077300
-0.233004
0.214380
0.043404
-0.010757
-0.061616
-0.138336
0.186948
0.080791
-0.228550
-0.130742
-0.228481
0.051182
0.014848
-0.138341
-0.417981
-0.204871
0.175177
0.087695
-0.195769
0.041744
-0.235137
0.145897
-0.030079
-0.169278
0.182300
-0.242768
-0.005587
-0.004480
0.257958
-0.232319
0.180540
-0.170983
-0.155227
-0.086560
0.178187
-0.104681
0.124109
0.068132
0.155407
0.254672
-0.237301
0.154252
-0.016251
0.181964
0.274423
0.065576
0.152884
0.249757
-0.075300
-0.100902
0.190588
-0.028102
0.248371
0.174902
-0.070175
0.227051
-0.063521
0.201330
-0.205845
0.177539
0.410010
-0.228723
-0.267993
-0.022650
-0.046427
-0.255922
0.155888
0.167852
-0.091467
0.164567
-0.224740
-0.156895
-0.049011
0.242592
0.237703
0.272024
-0.317426
-0.148395
-0.426844
-0.185554
-0.114074
-0.220252
