-0.101518
0.021199
-0.025697
-0.070192
-0.051819
0.022756
-0.026990
0.011623
0.019178
0.043828
-0.038400
-0.024255
0.007442
0.019413
-0.089789
0.005148
0.078967
-0.075191
-0.063323
0.022296
0.088510
-0.051511
0.009822
0.104873
-0.091364
-0.029055
-0.015151
0.094900
-0.064118
-0.004559
0.058240
0.002595
0.003474
-0.016567
0.048968
0.068632
-0.057187
0.047253
0.038941
-0.020255
-0.008974
-0.043953
-0.186629
0.013032
0.100046
-0.138277
-0.041345
-0.112726
-0.061682
-0.016016
-0.099062
-0.122052
-0.035531
0.145168
0.005846
-0.041822
-0.133554
0.115745
-0.063312
-0.106883
0.248434
0.100669
-0.030904
0.142301
0.070344
0.012984
-0.102869
0.148794
0.109603
-0.189726
0.066471
0.086629
0.085117
0.012134
-0.007929
0.025901
0.008497
0.003046
-0.154502
0.062264
0.189610
-0.122651
-0.050690
-0.013191
-0.154237
-0.086743
-0.114568
0.037155
-0.065116
0.019096
-0.058595
-0.054610
0.021305
-0.059616
0.026478
0.024318
0.013821
-0.028885
-0.022201
0.056205
0.060903
0.011230
0.022481
-0.026667
0.048740
-0.008779
0.045289
-0.053060
-0.010611
0.068713
0.031237
-0.125849
0.006565
0.048006
-0.069303
-0.024621
0.063023
-0.020363
-0.124005
0.170557
-0.094101
-0.115016
-0.021971
-0.096949
-0.075109
-0.039739
-0.043792
-0.033790
-0.094383
-0.048461
-0.124906
-0.122677
0.016631
-0.147653
-0.191474
0.081034
-0.015132
-0.024486
-0.026574
0.112763
0.038805
0.162931
0.180985
0.063792
0.043253
-0.042523
-0.052916
0.077959
0.002203
-0.019819
-0.038575
-0.068588
0.005831
-0.039147
0.033870
-0.034366
0.018745
0.009450
0.110906
0.000347
0.151027
0.066990
-0.261507
-0.207415
-0.028032
-0.106202
0.008380
-0.067349
0.141078
0.011465
-0.136715
0.108524
0.065077
-0.058988
0.173295
0.276718
0.111006
0.134005
0.216117
0.164242
-0.032957
0.011917
0.061057
-0.049283
-0.084868
0.135810
-0.163612
-0.120166
0.245355
0.057405
-0.057028
-0.246763
0.078551
0.081676
-0.140556
0.211416
0.032883
-0.058284
0.019283
-0.026645
0.042392
0.111915
0.039238
-0.192098
0.134780
0.043694
-0.018001
0.116994
-0.075101
0.028208
-0.049193
-0.004277
-0.081358
0.098354
0.012394
0.075434
-0.061004
0.026366
0.055779
-0.051984
0.030591
0.066646
0.071995
-0.011662
0.064288
0.154304
0.024007
0.091631
0.073240
0.118268
0.054863
-0.102618
0.014622
0.242292
-0.223733
-0.140661
0.014493
-0.116334
-0.049083
-0.111405
-0.112377
-0.089687
-0.047976
0.059588
0.116763
0.028914
-0.023264
0.096474
0.062587
0.005499
-0.085934
0.212521
-0.029264
-0.105746
-0.070841
-0.156797
-0.226367
-0.182621
-0.050515
-0.196596
-0.100389
-0.107192
-0.087950
-0.269049
0.046841
0.054397
-0.065111
0.143662
0.072108
0.002957
0.095404
0.061230
-0.118021
0.084230
0.107702
0.008981
0.125390
0.223865
0.060622
-0.023254
-0.044049
0.208177
-0.110460
-0.043483
0.153497
-0.270118
-0.154761
0.007194
0.117508
-0.076585
-0.039897
0.187594
0.082906
0.126632
0.022000
0.118286
0.043592
0.134718
0.011234
-0.039319
0.018580
-0.042200
-0.009228
-0.114334
-0.079984
-0.025213
-0.041806
0.121773
0.009664
0.106250
0.207927
0.034293
0.031508
0.053877
-0.095524
-0.143838
-0.032674
-0.112831
-0.168693
-0.014759
-0.117666
-0.238389
-0.180284
-0.133683
0.158021
0.199201
0.038139
0.074223
-0.024779
-0.086395
-0.018161
-0.040845
-0.033700
0.024663
-0.047920
-0.183459
0.065654
0.012178
-0.100035
-0.038119
-0.073882
-0.177051
0.146989
-0.092246
0.019247
-0.040060
-0.139101
-0.049624
0.008915
-0.108706
-0.003731
0.068915
0.015501
0.003328
0.094680
0.191419
0.026675
0.018519
-0.045918
0.059557
-0.080052
0.026488
0.032340
-0.026395
0.032141
0.180614
0.067575
0.007710
0.109771
0.033154
-0.033785
-0.127557
0.092389
-0.026641
-0.020972
0.019707
0.034383
0.040004
0.074135
0.097395
0.063432
-0.155115
-0.048122
-0.006659
-0.072303
0.151042
0.182888
-0.026461
-0.062324
-0.226732
-0.017229
-0.154445
-0.133848
-0.065115
-0.053843
-0.158299
-0.084267
-0.034705
-0.012117
0.028730
0.100501
-0.017266
0.076743
0.130820
-0.035265
0.013306
-0.017658
-0.095364
0.047360
-0.037076
0.121802
-0.042134
0.025831
0.012896
0.148394
-0.119418
-0.093545
-0.045988
-0.111697
0.072288
-0.112094
-0.061140
0.009110
-0.099798
-0.000218
-0.155272
-0.136616
0.097898
-0.094716
-0.211646
-0.048147
-0.036376
-0.004858
-0.009509
-0.147762
0.000374
-0.134281
-0.010289
-0.177637
-0.074825
-0.083153
0.019171
0.035232
0.081591
-0.027190
-0.137905
0.038853
-0.174034
-0.126988
0.055654
0.040815
-0.101069
-0.051958
0.097827
-0.007145
0.019212
-0.083345
0.020886
0.023370
-0.049838
-0.077590
-0.032831
-0.178997
-0.109753
-0.147832
-0.185989
-0.133477
-0.038717
-0.131893
-0.029080
0.031022
0.097215
0.124463
0.129789
-0.002407
0.069759
0.078491
-0.033628
-0.016786
0.093754
-0.007349
-0.098468
-0.066659
-0.270041
-0.219946
-0.098926
-0.007095
0.011444
0.010430
0.037418
-0.034635
0.074802
-0.016669
-0.176872
-0.034830
0.042743
0.113606
0.063202
0.021561
0.076389
0.128587
-0.154590
-0.076897
-0.055044
-0.072875
0.033384
0.174555
-0.207982
-0.056309
0.130354
-0.188412
-0.015329
0.129552
0.035822
0.123391
-0.043883
0.163927
0.195208
0.055373
0.193491
0.135299
-0.066990
0.069077
0.027670
-0.166813
0.121994
0.079112
0.036651
0.058579
0.122216
-0.013835
0.055019
-0.049673
-0.043845
-0.063315
0.048492
0.008068
-0.013108
0.003517
-0.012779
0.141333
0.004665
-0.035707
0.145236
-0.084371
-0.019246
-0.132878
-0.248757
-0.240546
0.176707
0.152594
-0.065329
-0.019454
0.052111
0.101851
-0.219939
-0.008240
0.059871
0.120687
-0.114099
-0.179723
0.206103
-0.061619
-0.033893
0.090838
0.088465
0.177337
-0.013270
-0.005782
0.095380
0.206944
0.358360
0.072045
0.158240
0.138337
-0.080288
-0.126424
-0.019667
-0.268259
-0.069967
0.030205
-0.215422
-0.102769
0.017958
0.027973
-0.000118
0.118579
-0.049373
-0.026147
0.278386
-0.079286
-0.093505
0.102042
-0.168206
-0.002338
-0.027436
0.048077
0.020335
-0.058104
0.048574
-0.020287
-0.018028
0.075618
0.042485
-0.059456
-0.046116
0.039696
-0.135431
-0.069512
0.243750
0.045534
0.175092
-0.007941
-0.027329
-0.109872
-0.026926
-0.067583
-0.015708
0.003091
0.031324
0.077310
-0.020392
-0.036488
0.079180
-0.041962
-0.164278
-0.039370
-0.227321
-0.114726
-0.042529
0.137845
0.084113
0.064253
-0.075618
-0.086439
0.093707
-0.005080
-0.063357
-0.122091
-0.026358
0.069571
-0.057223
0.049107
0.005877
-0.077690
-0.042208
-0.038621
-0.156944
0.053221
-0.010384
0.058091
-0.075675
-0.055707
-0.082976
-0.122394
-0.056907
-0.058096
0.062020
0.183437
0.082050
0.211113
0.258866
-0.022389
0.063949
0.236645
-0.039516
0.059244
-0.023202
0.115921
0.207797
0.092917
0.181029
0.174984
0.076056
0.209808
0.012456
-0.061478
-0.078360
-0.110263
-0.080186
-0.104297
0.044499
-0.039594
-0.125027
0.039195
0.038721
-0.088399
0.007471
-0.117788
-0.136069
0.023918
-0.102299
-0.006316
0.064997
0.072286
0.066979
0.118365
-0.059641
0.074141
0.077512
0.006246
0.054569
-0.030947
-0.080768
-0.121458
0.029646
0.025277
0.042446
0.016162
-0.008905
0.194887
-0.081933
-0.003161
-0.071271
0.109687
0.093952
-0.075936
0.170938
0.190123
-0.053194
-0.092525
-0.092001
-0.003354
-0.089987
-0.113065
-0.126937
-0.026666
-0.105975
-0.181390
-0.016399
0.036132
-0.088218
-0.082976
-0.106346
-0.152973
-0.117918
-0.044049
-0.102808
0.020536
0.067903
0.124366
-0.000729
0.143385
0.056373
-0.049169
0.001548
-0.081838
0.020083
0.076450
-0.050998
0.035037
-0.003472
-0.071103
-0.014640
0.035373
0.069783
0.061903
0.017549
-0.055337
-0.073764
-0.012605
-0.114422
-0.128775
-0.100460
-0.153127
-0.153535
-0.086755
-0.200788
0.034979
-0.045823
-0.034997
-0.002185
-0.048726
0.096417
-0.079418
-0.281381
-0.009256
-0.076753
-0.281985
-0.094845
-0.081343
-0.097544
0.105028
-0.042970
-0.104332
-0.107678
0.041684
-0.044017
-0.002694
0.002967
0.046892
0.051864
0.049578
-0.011006
0.077350
0.090199
-0.002987
0.079992
0.019184
-0.073146
0.096670
0.088896
0.045860
0.052442
-0.046444
0.014716
-0.069419
-0.012455
-0.037205
0.053382
-0.029772
0.179039
0.057841
-0.014512
0.127994
0.023112
-0.118763
0.109280
-0.142604
-0.141665
0.214885
-0.011839
-0.001315
0.261527
-0.137027
0.010593
0.076924
-0.042758
0.066146
-0.125326
-0.110757
0.081470
-0.154470
0.064559
-0.129434
0.012992
0.115104
-0.080263
0.017729
-0.014289
-0.083849
-0.096016
0.003912
0.014074
-0.056759
-0.015822
-0.082236
0.159408
-0.069293
-0.119719
0.112033
-0.048914
-0.150215
0.205938
-0.114488
0.082435
0.070325
0.119019
0.034708
0.021898
0.044658
0.004296
-0.008217
-0.051141
-0.141033
0.082548
0.185274
-0.096444
-0.150939
-0.183579
0.063843
-0.023120
-0.101304
0.000062
-0.218744
-0.197255
-0.221169
-0.300741
-0.197883
-0.170573
-0.132967
-0.028035
0.029197
0.034411
-0.020411
-0.031310
-0.079382
-0.099906
-0.019131
-0.019478
0.073175
-0.102045
-0.093953
-0.048708
-0.070093
-0.119126
-0.099960
0.062439
0.019886
0.050436
-0.215288
-0.244902
-0.101781
-0.011866
0.051673
-0.084702
0.026876
0.002484
-0.146998
0.089290
-0.013985
-0.123690
0.112542
-0.066887
-0.016978
0.021437
-0.102718
-0.011561
0.058308
0.009246
0.072106
-0.026393
-0.037841
0.109163
0.031054
0.059579
0.053215
-0.022142
0.027917
0.100624
0.006478
0.007202
0.039818
0.030766
-0.004959
0.020494
0.014616
-0.117252
-0.066556
-0.100016
-0.152390
-0.059033
0.141850
0.009240
0.085459
-0.120648
-0.366370
-0.236841
-0.248040
-0.309320
-0.245223
-0.060248
-0.272294
-0.140731
-0.031141
-0.211032
-0.048691
-0.021247
-0.106391
-0.045519
-0.001023
0.029594
-0.001732
0.062025
-0.005812
-0.000957
0.005795
-0.069574
-0.001834
0.005553
0.004287
-0.011820
0.103240
0.109088
0.063441
-0.038136
-0.077528
0.074060
0.070893
-0.023763
-0.044823
-0.180895
-0.212632
-0.073386
-0.071223
-0.152293
-0.054684
-0.065045
-0.082216
0.043569
-0.093602
-0.226677
-0.116026
-0.136099
-0.186316
-0.242024
0.030118
-0.173463
-0.110936
-0.014614
-0.146881
0.025178
-0.026069
-0.143431
-0.136052
0.042465
-0.070873
-0.121368
0.097079
0.044938
-0.027252
0.131367
0.005175
-0.070643
0.119126
0.027166
-0.035058
-0.064968
-0.002350
0.087777
0.035576
-0.002297
-0.001271
-0.039971
0.017475
-0.026508
-0.161933
-0.081207
0.074715
-0.002747
0.055132
-0.055040
0.065501
0.107532
-0.105567
-0.061431
-0.159566
0.010931
-0.009152
-0.218930
-0.051411
0.068042
0.022982
0.029228
0.026285
-0.079519
0.073199
-0.121430
-0.038586
0.119371
-0.072545
-0.048268
0.073002
0.030456
-0.038331
0.104017
0.049349
-0.099537
0.054493
0.045633
-0.016890
0.178401
-0.057376
-0.025498
0.044720
0.005616
-0.036401
-0.012539
0.004992
-0.009070
0.027179
-0.078669
-0.122122
-0.121228
-0.124999
-0.076816
-0.209619
-0.059909
-0.072671
-0.102093
-0.054575
-0.227263
-0.288694
-0.147283
-0.069361
-0.080735
0.124058
-0.109901
-0.152833
0.100788
0.047467
0.146243
0.014375
0.049736
-0.060699
0.021297
-0.019028
-0.097414
-0.127748
-0.216314
-0.012948
-0.036954
-0.017494
-0.046719
0.051116
-0.037927
0.016909
0.031138
-0.131613
-0.110718
-0.170201
-0.187915
-0.086461
-0.057723
-0.019156
-0.050572
0.077215
-0.147608
-0.122962
-0.148180
-0.194661
-0.124135
-0.013354
-0.040039
0.034600
0.070892
0.014525
0.066429
0.037661
0.002064
0.039188
0.001466
0.074891
0.101764
-0.027070
-0.198222
0.008478
-0.115432
-0.048764
-0.010750
0.162602
0.042605
0.182090
-0.057369
-0.093638
0.023935
0.011830
-0.018845
-0.052958
0.066776
-0.049183
-0.019401
-0.143505
-0.035749
-0.199046
-0.281589
-0.195239
-0.287204
-0.353929
-0.221560
-0.290157
-0.112480
-0.072741
-0.061223
-0.113323
-0.023846
-0.062227
-0.056859
-0.012214
0.045398
0.113723
0.057442
0.020371
0.009336
0.079723
-0.002251
0.016859
-0.080094
0.019115
0.088677
-0.024323
0.082922
-0.024906
0.027096
0.097828
-0.124520
-0.095429
0.017192
0.100362
0.055877
0.186091
-0.006726
-0.032936
0.063975
-0.000025
0.020576
0.027035
0.058467
0.070081
0.043374
0.005901
0.031922
-0.037518
0.103201
-0.071137
-0.010067
0.116307
0.175878
0.084486
-0.000721
0.059675
0.047980
-0.005648
0.038678
-0.025830
-0.012528
-0.062926
0.054219
-0.105809
-0.112519
-0.037648
-0.199539
-0.175782
-0.085047
0.001537
0.037038
0.016334
-0.017669
-0.017070
-0.111469
-0.108809
-0.048954
-0.041256
-0.176685
-0.133133
-0.178445
-0.021409
0.007687
-0.009324
0.053480
0.061330
0.040444
0.196602
0.084999
0.186245
-0.010203
0.051237
0.081144
0.093604
-0.107938
-0.041200
-0.049547
0.047333
0.054250
-0.002430
-0.086683
0.051575
-0.056835
-0.038623
-0.151727
0.026096
0.015242
0.002561
0.102301
0.022776
-0.011469
0.053608
-0.054382
0.026029
0.215971
-0.045286
0.003423
0.043224
0.050396
0.136140
0.049520
-0.039802
-0.054105
-0.120150
-0.087671
-0.161689
-0.248375
-0.150027
-0.271830
-0.279220
-0.174194
-0.345848
-0.160192
-0.253186
-0.279358
-0.140107
-0.161324
-0.146731
-0.105468
-0.067232
-0.128155
0.123030
0.131269
0.034085
-0.077117
-0.008376
0.069175
-0.000842
-0.083737
-0.019790
-0.009516
0.144023
0.005974
0.030752
-0.005022
-0.026350
-0.067956
0.005512
0.007148
0.189518
0.058353
0.078485
0.154572
0.013586
-0.008786
0.051410
0.020868
-0.043724
0.216645
-0.016058
0.155913
0.073835
0.052878
0.189227
-0.053445
-0.004744
0.035586
-0.052826
0.067732
0.074871
-0.053983
-0.010263
0.006998
-0.150314
-0.036356
-0.065071
0.199092
0.062592
0.187370
0.199458
0.057608
0.249379
0.150102
0.078807
0.174711
0.089894
0.101015
-0.037111
-0.010952
-0.011284
0.111723
0.010611
-0.065708
0.092637
0.070323
0.028995
-0.022635
0.110209
0.105550
0.038341
0.095025
0.131412
0.095974
0.143035
0.137465
0.067853
0.096771
0.031836
0.055609
0.025995
0.030060
-0.030193
-0.048800
0.001273
-0.008371
-0.037835
-0.076214
0.051948
-0.085174
-0.133064
-0.083969
-0.055120
-0.124651
-0.032901
0.031594
-0.023881
-0.040827
0.018788
0.074833
0.018763
-0.234144
-0.060436
-0.179639
-0.131612
-0.157394
-0.187539
-0.051665
-0.058756
0.024020
-0.032253
0.101652
0.136297
0.006716
-0.027539
0.065112
-0.010260
0.091549
0.101569
-0.123029
-0.135963
-0.060600
-0.101242
-0.096570
0.006047
-0.014660
-0.137259
-0.149665
0.127929
0.032075
0.011802
0.018755
-0.020931
0.023445
-0.119254
-0.110696
-0.012391
0.080993
0.025801
0.035270
-0.067871
-0.023269
0.020311
0.037256
-0.009722
0.056583
-0.026699
-0.283510
-0.208520
0.124545
-0.063907
-0.181194
0.079165
0.051005
-0.003710
-0.019859
-0.089144
-0.099188
-0.158584
-0.218365
-0.097862
0.022204
-0.125067
-0.148692
-0.086966
0.091348
0.088383
-0.063747
0.069938
0.134233
-0.138280
-0.010421
-0.036270
0.016578
0.000665
0.095369
-0.013480
0.043200
0.167549
-0.171483
0.153624
0.120202
0.060655
0.055981
-0.018569
0.108757
0.069730
0.093748
0.018826
-0.015109
-0.063495
-0.160364
-0.007669
-0.077201
-0.216843
-0.171577
-0.168871
-0.103880
-0.015072
-0.048269
0.036749
0.040153
0.138846
-0.063068
-0.139604
-0.025083
0.162846
-0.036324
0.057454
-0.009696
-0.104854
-0.264834
0.097921
-0.132057
-0.159662
0.207580
0.233722
-0.074808
0.010237
-0.070151
-0.160784
0.115983
-0.069584
-0.090056
0.186793
0.125092
-0.007372
0.022106
-0.156237
-0.172952
0.100284
-0.083674
-0.221365
0.223854
0.096975
0.018713
-0.094959
-0.010831
0.018013
0.035469
-0.043536
-0.038467
0.008382
0.013376
-0.008443
-0.074748
-0.028901
-0.020748
-0.104317
-0.133352
0.034578
-0.055835
-0.117504
-0.090469
0.011163
-0.048893
0.011440
-0.004738
0.079195
-0.016021
-0.090819
0.019118
0.056043
0.046992
0.055528
-0.057615
0.190955
0.020418
0.035777
0.178532
0.089664
0.027462
-0.080285
-0.151520
-0.166810
0.008298
-0.027698
-0.010847
0.106105
0.058192
-0.043077
0.071770
-0.132667
-0.157605
0.161285
0.046643
-0.068093
0.112712
0.069011
-0.032936
-0.022626
-0.133786
-0.136205
0.030203
-0.021573
-0.077438
0.146791
0.156949
0.038114
-0.038068
-0.059796
-0.149897
-0.117442
-0.085000
-0.172145
0.129484
0.087287
0.001294
-0.050033
0.014725
-0.073198
0.090825
-0.030193
-0.098433
0.129787
-0.038802
0.006161
-0.206520
-0.059522
-0.058104
-0.096571
0.031357
-0.062777
-0.110433
0.063692
0.035581
-0.050591
-0.084686
-0.030960
0.019374
-0.052627
-0.071262
-0.029216
0.143984
0.021145
-0.078119
0.046643
0.106277
-0.018889
0.155521
0.136695
-0.205773
0.050485
-0.034345
-0.005874
0.008919
0.041101
0.022743
0.093506
0.085689
-0.111349
0.133631
0.065005
0.128885
0.116310
0.009210
0.052388
0.032291
0.083188
0.106369
0.095800
0.207082
0.110496
-0.007657
-0.012082
0.078604
-0.004293
0.085956
0.155114
0.029895
-0.036507
0.049398
0.052838
0.015528
0.001952
0.008048
-0.079918
-0.095917
0.165166
0.051473
0.047462
-0.114652
-0.179566
0.061315
-0.158735
-0.144256
-0.001126
-0.102903
-0.118409
-0.061806
-0.125658
-0.155770
0.043119
-0.032175
-0.114549
0.051977
0.009770
-0.007831
0.032976
0.022211
0.025148
0.065444
0.081585
0.207433
-0.090913
-0.188620
-0.091312
0.061599
-0.031339
-0.007135
-0.040529
0.013346
0.025588
-0.147758
-0.074665
0.007255
0.024976
-0.240950
-0.242933
0.110138
-0.159925
-0.263672
0.265193
0.030494
-0.096849
-0.023869
0.066909
-0.021079
-0.068902
-0.079442
-0.074240
-0.143972
0.086267
-0.056952
0.065289
0.105180
0.155515
0.093401
0.159066
0.185538
0.085142
0.144502
0.115054
-0.004053
0.023753
-0.073397
-0.006869
0.010604
0.005311
-0.052252
0.011905
0.086793
0.007716
-0.004822
0.097422
0.065962
0.018304
0.030334
-0.089380
-0.035518
-0.112796
0.040523
-0.043070
0.012289
-0.115680
-0.027268
0.036052
-0.033229
-0.078581
-0.025702
-0.034752
0.098671
-0.002824
-0.107884
0.017534
0.024730
-0.142982
0.007209
0.119243
0.064291
-0.008105
-0.087711
0.086577
0.050208
0.094818
0.025555
0.082253
0.050218
-0.250583
-0.209140
-0.202661
-0.195960
-0.294393
-0.311591
-0.218765
-0.238327
-0.244758
-0.132477
-0.054663
-0.197497
-0.007837
0.073461
0.078577
-0.101699
-0.118369
0.069264
-0.055607
0.026959
-0.025319
-0.061878
-0.161478
0.028179
-0.050893
-0.044832
-0.099845
-0.001546
-0.068520
-0.028015
-0.045742
-0.015504
0.151937
-0.073307
-0.014466
0.083346
0.094373
-0.007568
0.077006
0.093597
-0.001197
-0.056995
-0.068000
0.058339
-0.071468
-0.097051
-0.095392
-0.167369
-0.043904
-0.159022
-0.179732
-0.001598
0.002951
-0.153931
-0.018683
0.080410
0.100533
0.033593
0.009389
0.014583
0.046076
0.009150
0.186700
0.104207
0.195010
-0.009178
0.007467
0.085167
0.153666
0.026975
0.036464
-0.004872
0.006987
0.057758
0.153672
-0.048884
0.174196
0.126855
-0.005136
0.190533
0.009376
0.065000
0.043885
-0.229244
0.003699
0.073590
-0.083093
-0.098972
-0.110254
-0.009593
0.059429
0.025325
-0.134264
0.056716
-0.050037
-0.088721
-0.044888
-0.095165
-0.026782
0.069151
0.048052
0.057589
0.097520
-0.010647
0.117693
0.060146
0.042116
-0.025755
-0.137653
0.042203
-0.069227
-0.167419
-0.136303
-0.072153
-0.090632
-0.027693
-0.054351
0.090454
0.003477
-0.052250
0.013908
0.014644
0.082156
0.095743
0.038200
0.152760
-0.061738
0.023956
-0.059504
0.115033
0.075176
0.175410
0.086443
0.021183
0.002742
0.083193
0.004484
0.103993
0.123319
0.027645
0.107123
0.132882
0.086039
0.074660
-0.039014
0.061445
-0.100986
-0.060595
0.007112
-0.005601
-0.067245
-0.051151
-0.044836
0.112297
0.141140
0.135791
0.077920
0.024195
0.193833
-0.020058
0.015281
0.030552
0.015194
-0.045793
-0.165091
-0.074867
0.090653
0.047135
0.006096
0.006053
0.027320
-0.039548
-0.033649
-0.030580
-0.049270
-0.010448
0.000992
-0.028453
0.037355
-0.038279
-0.183198
0.056531
0.091034
-0.070071
-0.040493
0.081013
-0.036798
0.100672
0.170493
0.036966
-0.037166
-0.111644
-0.053295
0.036279
-0.043068
0.084667
-0.064103
-0.024768
0.092717
0.101520
0.239635
0.003795
0.101805
0.159959
-0.124892
-0.089221
-0.130922
0.080275
0.018988
-0.144168
0.029707
-0.075449
-0.032720
-0.029070
-0.007044
-0.079889
0.005499
-0.082805
0.021557
-0.015621
-0.033375
0.026845
-0.090177
-0.066022
0.013572
0.111918
-0.026692
0.099575
0.077230
0.053149
0.033576
-0.075835
-0.123494
0.025540
-0.062976
0.035376
0.138140
0.134203
0.103664
-0.036606
-0.127234
0.005018
0.001737
0.023191
0.059886
-0.114829
0.113444
-0.123637
-0.151453
0.065383
0.051813
-0.031585
0.004196
-0.157703
-0.191369
0.004072
-0.021513
-0.045637
0.000505
-0.166952
-0.098154
-0.044622
0.106424
-0.033378
0.002123
-0.114494
0.077665
0.097135
0.029283
-0.132479
-0.122393
-0.108360
0.217517
-0.138222
-0.227343
-0.031921
0.010518
-0.170128
0.009531
0.000422
-0.046874
-0.035592
-0.029223
-0.137897
-0.025278
0.123088
0.053495
0.023755
-0.098421
0.019383
0.033326
-0.157100
-0.102621
0.057527
-0.118950
-0.130727
-0.046308
-0.281063
0.175979
0.110764
-0.187314
0.024290
0.098976
-0.121597
0.020391
0.004327
0.033359
-0.014919
0.024733
0.018104
-0.113654
-0.045474
-0.109854
-0.023103
-0.142431
-0.099056
-0.038065
-0.064892
-0.049638
-0.093413
-0.132218
0.024154
-0.042676
-0.118698
0.019505
0.021439
-0.065936
-0.036751
-0.037207
-0.074819
0.107030
0.001013
0.043655
-0.023990
0.077426
-0.143210
-0.040016
0.049438
-0.051757
-0.001693
-0.052631
-0.124246
-0.086297
-0.134481
-0.086833
0.081467
-0.165960
-0.144579
0.052175
-0.243640
-0.217555
-0.020407
0.000786
-0.092784
-0.149512
0.044106
0.178011
-0.111712
-0.034023
-0.012293
0.135878
-0.092431
0.034103
0.230629
-0.098442
0.021280
0.052664
-0.091784
-0.129785
0.056311
0.270887
-0.144621
-0.194153
0.155987
0.311392
-0.070574
-0.128303
-0.040445
-0.049260
-0.017919
-0.064963
-0.014789
0.031218
0.013305
-0.001193
0.006063
0.089653
-0.006287
0.100556
-0.003756
-0.040262
-0.000628
-0.022263
-0.029351
-0.040812
-0.074260
0.159553
0.008893
-0.036156
0.000022
0.012056
0.072251
-0.059349
0.064762
0.066678
0.016175
0.001735
-0.008840
0.024136
0.037387
0.139950
0.049850
0.028092
0.123965
-0.024395
-0.050187
0.033544
-0.082976
-0.028367
-0.197414
-0.038178
0.029814
-0.103836
-0.036716
0.039650
0.023154
0.156561
-0.099276
0.047422
0.073810
0.128517
0.005307
-0.085089
0.014236
0.218659
-0.114168
-0.073066
-0.008234
-0.146603
-0.113681
-0.064844
-0.123333
-0.056967
0.096323
-0.081999
0.099393
0.048962
-0.018000
-0.074033
-0.039707
-0.178317
0.098031
-0.045488
-0.136214
-0.122643
0.303776
-0.140629
-0.276014
-0.133906
-0.037514
-0.184837
-0.069932
-0.063450
-0.084554
-0.037697
0.034234
-0.079640
-0.064953
0.106139
0.045429
-0.155167
0.111582
0.044412
0.058177
0.079908
0.134896
0.046043
0.058981
0.121368
0.068159
0.037589
0.048399
-0.010425
0.109025
0.094406
0.059334
0.040106
-0.119052
0.004400
0.115787
-0.109606
0.005778
-0.024085
0.031872
0.001998
0.060889
0.093604
-0.232589
-0.015985
0.037869
0.026842
-0.008446
0.011099
-0.038940
0.019149
-0.030834
-0.121081
0.083372
0.066958
-0.061651
0.038892
-0.021841
0.048936
-0.014359
-0.102592
-0.147479
0.007916
-0.012224
0.041107
-0.016432
-0.140646
-0.129557
0.078186
0.117138
0.023643
0.036871
0.028120
-0.014742
-0.046854
0.028376
0.018891
0.014092
-0.070775
-0.077221
-0.035859
0.099692
-0.183489
0.128975
0.169193
0.079959
0.069483
-0.003763
0.143829
-0.116198
-0.158654
0.075938
-0.166677
-0.208033
-0.067310
0.218131
0.031974
0.171607
0.002223
-0.089628
-0.056961
-0.241440
-0.109808
-0.146789
0.109972
-0.066315
-0.025936
-0.051733
-0.125607
0.005117
0.028153
0.024006
-0.126405
0.129472
0.050474
-0.017519
0.023793
0.051384
0.038781
-0.163426
-0.056409
-0.035054
0.006691
-0.131023
-0.101330
0.119917
0.053407
-0.031474
0.158173
0.049972
0.123905
0.090200
0.066344
-0.162848
0.023729
0.047201
-0.052860
-0.066344
0.025935
-0.017765
0.156192
0.264002
0.086337
-0.055656
0.092325
0.045360
-0.291319
-0.104114
0.022833
-0.091628
-0.132280
-0.153907
-0.088579
-0.128012
-0.161619
-0.087291
-0.106833
-0.126989
-0.024555
-0.030031
-0.211221
0.050093
-0.030596
-0.123810
0.106934
0.020019
-0.084059
-0.097394
0.016812
-0.150364
-0.128170
-0.002193
-0.050673
-0.058693
-0.033356
-0.055606
0.026058
0.183414
0.041236
-0.159228
-0.071196
-0.092788
-0.214117
-0.055436
-0.163643
-0.008131
-0.002390
-0.114916
-0.080660
-0.064306
-0.072325
-0.048711
-0.018202
-0.077052
0.014400
0.146632
-0.105920
-0.140115
-0.044658
-0.010545
0.013603
-0.003462
0.105494
-0.001385
-0.055564
0.180232
-0.052847
-0.153152
-0.079827
0.027338
-0.044556
-0.051447
-0.048658
0.080482
0.228511
-0.284551
-0.034746
0.122049
-0.244032
-0.188696
-0.017998
0.177798
0.076810
-0.041545
-0.031274
0.185702
0.059255
-0.087656
0.074385
0.149659
-0.083435
0.050696
0.137377
-0.072880
-0.164104
0.143105
0.013389
0.033017
-0.072796
0.001697
0.030282
0.064946
0.129290
0.050455
0.135629
-0.035193
0.042903
-0.091118
0.066949
0.100111
-0.041647
0.016529
0.096487
0.020104
-0.188267
0.012424
-0.010090
-0.110214
-0.038057
0.026260
-0.050247
-0.028625
-0.012846
-0.032420
-0.036764
-0.145448
-0.064853
0.058365
0.055967
-0.045603
-0.002454
0.079241
-0.155378
-0.087560
-0.026467
-0.058875
0.023474
0.131178
-0.009486
-0.015642
0.294513
-0.207082
-0.136849
-0.011808
0.041844
-0.009489
-0.176874
0.082424
0.065133
-0.072556
-0.079456
0.062528
0.017126
-0.092019
0.040985
0.129830
-0.024522
-0.080046
-0.038232
-0.108720
-0.122016
-0.050681
-0.024591
0.182083
0.138384
-0.062676
0.087892
0.071607
0.019924
0.167229
0.063366
0.032241
0.022614
-0.209256
0.121835
0.077456
0.028115
-0.051574
0.147905
0.112140
-0.114782
0.013408
0.027334
0.070434
-0.026938
-0.036075
-0.042720
-0.001784
-0.117633
-0.060475
0.003521
0.103524
-0.014640
-0.158228
-0.141948
0.139387
-0.034220
-0.147598
0.008342
-0.077134
-0.005485
0.115481
0.006679
-0.113961
0.108894
0.084105
-0.139230
0.067909
0.207383
0.162926
-0.051342
-0.029326
0.137667
-0.181489
-0.102030
-0.100160
0.061690
0.108438
0.122999
0.170438
0.068470
-0.073050
0.094852
-0.073790
-0.130780
0.032593
-0.001910
0.135000
0.056735
0.028552
-0.035815
0.057853
-0.142581
-0.004983
0.011134
-0.007828
-0.040189
0.007322
0.006023
-0.035263
0.044310
-0.024725
-0.012845
-0.058283
-0.027345
0.004357
-0.020662
-0.033739
-0.055754
0.065685
-0.099915
0.043819
0.060636
0.017142
-0.066815
-0.086890
-0.045026
-0.051628
0.010101
-0.063352
-0.001141
0.154773
-0.059100
-0.011734
-0.089673
0.025888
0.067703
-0.006103
0.050442
0.051877
0.121594
0.063635
-0.019231
0.079560
0.022252
0.047594
-0.024823
0.108098
0.163081
-0.154465
-0.002350
0.039410
-0.052115
-0.163837
-0.179508
0.078371
-0.155369
-0.031355
-0.017791
-0.100582
0.018297
-0.000863
0.037854
0.125381
0.136550
0.093093
0.131187
-0.165591
-0.179564
-0.055995
-0.268863
-0.190325
-0.269490
-0.086612
-0.117785
-0.180476
0.081345
-0.042091
-0.085995
-0.015349
0.026509
-0.054599
-0.045265
0.113645
-0.004252
0.054777
-0.013667
0.033662
-0.102669
0.095786
0.125940
0.156946
0.131938
0.024391
0.120415
0.053658
0.057958
0.130242
0.085513
-0.019260
0.021725
-0.056080
0.051696
-0.143124
-0.077151
-0.204288
-0.118561
-0.114598
-0.009237
-0.132532
0.009209
-0.147719
0.173872
0.107097
0.021347
0.151871
0.074614
-0.020457
0.163065
0.008906
-0.084565
-0.105468
-0.215924
-0.313276
-0.196375
-0.327604
-0.358178
-0.121735
-0.205854
-0.088075
-0.122752
-0.043492
-0.046800
-0.010773
-0.018388
-0.021885
0.154153
0.065379
0.134826
0.038279
0.052788
0.014339
0.125262
0.085445
0.099074
0.097873
0.152961
0.097911
-0.015041
0.016539
-0.152921
-0.178806
-0.104088
-0.125732
-0.100570
-0.096060
0.063437
-0.070450
-0.048697
-0.042324
-0.004597
0.050158
-0.092747
0.027462
0.024020
0.096118
-0.124374
-0.013099
0.153745
0.065157
-0.043969
-0.034014
-0.013567
-0.026207
-0.082521
-0.186255
0.038804
-0.006511
-0.014222
-0.040146
-0.046319
0.147767
0.030968
0.133860
0.005249
-0.078006
-0.030546
0.023433
0.030236
-0.018671
0.107078
-0.053123
0.028692
0.017302
-0.045405
-0.044761
0.076987
-0.015474
0.029716
0.166150
-0.023333
-0.067325
-0.001942
-0.016725
0.019738
-0.065036
-0.029091
-0.103151
-0.149480
-0.215343
-0.144725
0.059439
0.021134
-0.087797
0.013330
-0.031222
0.030986
0.042649
-0.047321
0.033338
0.051497
0.039733
-0.034886
0.076897
-0.010318
0.011754
0.038255
0.103767
0.135038
-0.109249
-0.042370
0.098740
-0.045382
0.019630
0.017483
0.010109
-0.004437
-0.053129
-0.029140
0.207336
0.165728
0.195618
0.138573
0.083592
0.241823
0.074310
0.076761
0.154108
-0.036574
0.023315
0.020734
-0.040590
0.049828
0.011455
0.081823
0.139853
-0.012490
0.093201
-0.043202
-0.018877
-0.108462
-0.012434
-0.079569
-0.132467
0.095048
-0.027818
-0.005466
0.050010
-0.058451
-0.038774
-0.053193
0.028786
-0.096513
-0.103210
-0.087988
0.080542
0.100564
-0.010277
-0.024679
0.058535
-0.071660
-0.060555
-0.032456
-0.188984
-0.080439
-0.210828
-0.192207
-0.244886
-0.158666
-0.097927
-0.164520
-0.121108
-0.013990
0.039668
0.015122
-0.048639
-0.037585
-0.100886
0.091697
-0.009394
0.043256
0.164043
0.254919
0.147307
-0.090830
0.072966
0.034442
0.020505
-0.040333
-0.078518
0.116162
0.094338
0.051475
0.050305
0.064626
0.062797
0.024976
-0.051215
0.046637
-0.084269
-0.069755
-0.024903
-0.040468
0.015359
-0.060914
-0.029547
0.025838
-0.053160
-0.146382
-0.179078
-0.216380
0.010425
0.085486
-0.023282
0.202898
0.042311
0.142528
-0.115769
-0.058084
-0.099625
-0.052983
-0.027762
0.082179
0.147505
0.071164
0.157275
0.070924
0.087749
0.052832
-0.098137
-0.077521
-0.080056
0.092750
0.111411
0.037334
-0.034096
-0.090029
-0.030208
-0.129682
-0.172753
-0.170338
-0.178077
-0.282653
-0.224239
-0.139964
-0.065932
0.090556
-0.125663
-0.126843
-0.066806
-0.076667
-0.115274
0.034268
-0.037608
-0.074922
0.053532
-0.028815
-0.050041
-0.147960
0.019719
-0.007061
-0.104660
-0.028153
0.038019
0.074037
-0.097116
-0.059455
-0.030539
0.062857
-0.002135
0.065540
0.083287
0.125323
0.164749
-0.033327
0.092486
-0.055604
-0.041869
-0.011782
-0.096015
0.035282
0.086780
0.194596
-0.140086
-0.182307
-0.086658
-0.056292
-0.184733
-0.136377
0.125488
0.106439
0.120469
-0.194645
-0.109255
-0.131131
-0.106074
-0.286384
-0.266820
-0.025004
0.045766
0.031502
0.026699
0.045402
0.070605
0.080860
-0.012048
0.020907
-0.084217
-0.043791
-0.024449
0.058465
-0.037372
-0.008126
-0.002156
-0.035282
0.063599
-0.089945
-0.026376
-0.123846
-0.105441
-0.041158
-0.072512
0.048792
-0.071970
-0.021678
0.057654
0.128529
0.015105
-0.001615
0.049196
0.039895
0.074822
-0.046336
0.000281
0.089156
0.037819
-0.011887
-0.056576
-0.080414
-0.061876
0.045748
-0.056914
-0.070214
0.003619
-0.078922
0.054437
-0.076910
-0.076913
0.100945
0.015508
-0.116373
-0.026274
0.145584
0.043279
-0.033782
0.025287
-0.027137
0.113334
0.040863
-0.021332
-0.039537
0.173959
0.186038
0.085735
0.175357
0.159011
0.187812
0.239025
0.093019
0.099008
-0.065835
0.002983
0.081297
0.170857
0.066337
0.213637
0.045631
0.061501
0.076415
-0.028951
-0.041962
0.018997
-0.040685
-0.032811
-0.050063
-0.001950
-0.003556
0.150555
-0.055710
-0.137997
-0.013298
-0.056620
-0.051490
-0.114237
0.040359
0.019206
-0.066844
-0.015809
-0.022139
0.008146
-0.106720
-0.193378
-0.302319
-0.040342
-0.130841
-0.109538
0.034257
0.070964
-0.050784
-0.020016
-0.094963
-0.036559
0.009804
-0.047419
-0.002064
-0.016554
0.050588
-0.008113
-0.085018
0.002755
0.014197
-0.111832
-0.069751
-0.030880
-0.037792
-0.062953
-0.046720
-0.084774
-0.055308
0.028308
0.075795
-0.045693
0.074773
-0.065971
0.012543
0.045998
-0.014094
-0.094229
-0.039432
0.049374
-0.051304
0.052371
-0.134785
-0.176630
0.031572
-0.017090
-0.013741
0.168441
0.150291
0.065340
0.074664
-0.090315
-0.221371
-0.140021
-0.051810
-0.109258
0.055593
0.041341
-0.073032
-0.011092
0.069624
-0.052410
0.042205
-0.042967
-0.104003
0.012291
-0.115181
-0.067866
-0.072860
0.201659
0.081467
0.105121
0.021094
-0.075566
-0.172479
0.224991
0.199674
0.150660
0.155004
0.134776
0.092855
0.190759
0.102406
0.208893
0.151122
0.157161
0.146714
-0.210559
-0.100854
-0.122820
-0.155574
0.010371
0.022059
-0.094625
0.031871
-0.004601
-0.013915
-0.017146
0.024821
-0.027530
-0.179707
-0.057021
0.126859
0.000664
-0.003088
0.070796
-0.180573
0.072293
0.049034
-0.046117
0.068347
0.035265
-0.064958
0.049606
0.042347
-0.078051
-0.087602
0.014437
0.026972
-0.005558
0.001716
0.010959
0.006367
0.171489
-0.073080
0.011044
0.094761
-0.045872
0.076115
0.173928
-0.048931
0.082912
-0.079146
0.089355
0.058395
-0.013649
0.051186
0.061610
0.023662
0.081495
0.109782
-0.053133
-0.116383
0.096815
-0.029916
-0.086236
0.116595
-0.080518
-0.064093
-0.103299
0.049637
0.008171
0.110374
0.098775
-0.044343
0.079969
-0.052709
-0.072632
0.095092
0.129179
0.116204
0.084327
-0.046731
-0.049066
0.005061
0.175658
0.224106
0.220349
0.022419
-0.035659
-0.009369
0.027833
-0.077972
0.074904
0.182793
-0.029341
0.101423
0.007928
-0.047087
-0.047240
0.097280
-0.006354
-0.043677
0.004028
0.062953
0.007211
-0.008633
-0.017722
-0.050794
0.010125
0.035424
-0.003742
-0.065801
-0.014474
-0.085443
-0.130725
-0.061787
-0.068070
-0.027465
0.021256
0.019711
-0.116143
-0.032139
-0.154076
-0.069409
-0.050743
-0.048459
0.027553
-0.004817
-0.066819
-0.036792
-0.001142
0.004303
-0.153058
-0.113839
-0.030998
-0.051880
0.069544
-0.051910
-0.113399
-0.042576
-0.113976
-0.077195
-0.098280
-0.077577
0.060934
-0.032477
0.032832
-0.056204
-0.077361
-0.179396
-0.110105
-0.047098
0.001562
0.019835
-0.037936
-0.054665
-0.079021
-0.040571
-0.029447
0.012842
0.029346
0.094925
0.004466
0.131863
0.038227
0.000678
0.006053
-0.137263
0.052131
0.043339
0.090909
0.101728
0.041547
-0.011473
0.109044
0.123261
0.067363
0.040211
0.165505
0.161686
-0.000463
-0.093776
-0.083651
0.124779
0.142782
0.077337
-0.006748
-0.071795
-0.055610
-0.072220
0.054789
-0.081114
-0.114218
-0.041244
-0.069551
-0.175622
-0.192262
-0.090129
-0.141261
-0.252849
-0.046385
-0.132574
-0.110006
-0.030673
-0.132753
-0.244012
-0.287242
-0.087135
-0.180832
-0.101631
0.098550
-0.146782
-0.138458
-0.050680
0.082225
-0.012939
0.071424
0.162858
0.153192
-0.013179
0.033695
-0.076098
-0.199189
-0.095634
-0.121803
-0.216932
-0.042729
0.020817
-0.064672
0.052827
0.004703
-0.051041
-0.107210
-0.097524
-0.128299
-0.125179
-0.194901
-0.041544
-0.044281
-0.098187
-0.076133
-0.038271
-0.054682
-0.097203
-0.056408
-0.017007
-0.110648
-0.146256
-0.131273
0.091131
0.058568
0.044413
0.006839
0.038496
-0.019911
-0.069949
-0.158922
-0.083713
0.012889
0.026449
0.089145
-0.068301
0.023396
0.020920
-0.015952
0.061250
0.043982
-0.024105
0.063685
0.087425
0.078293
0.051739
0.079654
0.051133
0.143886
0.073425
-0.092795
-0.067617
0.012724
0.048719
0.058844
-0.009432
0.042173
0.009092
-0.002562
0.209321
0.193281
0.194761
0.060369
0.050305
0.023055
-0.064243
-0.110650
-0.000184
-0.130545
0.048123
0.066771
-0.002407
0.000427
-0.010697
-0.126171
0.015581
-0.108006
0.246818
0.142126
0.135339
0.031618
0.048840
0.051949
-0.073190
-0.146956
-0.100148
0.068538
0.097319
-0.034786
-0.028722
-0.024112
-0.064250
0.019732
-0.058466
-0.100563
0.079630
0.022715
0.026260
-0.113689
-0.097173
-0.077264
-0.191515
-0.056191
-0.198783
0.071166
-0.060102
0.004058
-0.022125
0.025846
0.053993
-0.106772
-0.025117
0.094363
0.083912
0.179501
0.103192
0.068237
0.016834
-0.061493
-0.047787
0.031162
0.070498
0.015158
0.164948
0.164887
0.024191
0.011739
-0.037037
-0.102324
-0.217159
-0.047720
0.018041
0.056266
0.158671
0.097735
0.116655
0.186222
0.172103
0.140954
0.156984
-0.031214
0.162088
0.073623
0.024524
0.017420
0.049533
0.090194
0.106532
0.119204
-0.045376
0.039148
0.036832
0.047967
0.013325
-0.046369
0.051953
0.060371
-0.010369
-0.033402
-0.166194
-0.140048
0.004530
-0.120022
-0.093895
0.079700
-0.032348
-0.001044
0.049393
0.091247
0.065462
-0.083937
-0.112043
-0.125950
-0.291689
-0.130321
-0.226325
0.113081
0.083635
0.031672
0.058138
-0.033153
-0.093496
-0.166411
-0.099330
-0.193017
0.055863
0.016731
0.093177
0.039371
0.047960
-0.016713
-0.061716
-0.135306
-0.110442
0.050448
0.009486
-0.003071
0.088265
-0.024165
0.051879
0.028010
0.063600
0.135896
0.051867
-0.029548
-0.164743
-0.042006
-0.161071
-0.125632
-0.079566
-0.167138
-0.057263
-0.074805
-0.030246
-0.059402
0.054678
0.056204
0.055014
0.102434
0.125741
0.187622
0.044919
0.056764
-0.118129
-0.016970
-0.055898
-0.123108
-0.078817
-0.120185
-0.167658
-0.167992
-0.164651
-0.086430
0.072467
0.031317
0.024668
-0.067308
0.026737
0.047650
0.205905
0.167646
0.043517
0.332200
0.142483
0.050293
0.107415
-0.014191
0.022884
0.014257
0.059540
0.071500
0.066970
0.112963
0.143521
0.114467
0.127273
0.167925
-0.108088
-0.097090
-0.023492
0.034008
-0.039135
-0.083463
-0.014226
0.000190
0.023667
-0.211083
-0.125010
-0.195174
-0.096667
-0.159677
-0.067588
-0.048088
0.034345
0.080489
0.016643
-0.058050
0.031031
0.039963
0.079842
0.047894
0.027988
-0.051265
-0.007064
0.095475
0.074421
0.159679
0.088648
0.010099
-0.041413
0.027895
-0.057122
-0.017698
-0.006424
0.143401
0.112767
0.005294
-0.110137
-0.107756
-0.131981
-0.042960
-0.065553
0.080286
-0.003463
-0.057736
-0.046374
-0.028045
-0.079921
-0.019036
0.036292
0.041832
-0.171453
-0.329761
-0.160934
-0.170293
-0.102812
-0.057604
0.118555
0.039738
0.127533
-0.050464
-0.025937
0.002689
0.005512
0.003925
-0.058009
0.141964
0.061611
0.073164
0.051922
0.053843
0.122062
-0.069096
0.027472
-0.015623
0.008604
0.062129
0.028566
0.115325
0.019552
0.042755
-0.046514
-0.158845
0.016167
0.096549
0.062219
0.026754
-0.100056
0.072625
-0.021943
0.133443
0.233845
-0.006729
0.161842
0.058486
0.049353
0.033240
0.063928
-0.053957
-0.135550
-0.003864
-0.135910
0.055872
-0.003679
0.095541
0.152352
0.061838
0.086078
0.031113
0.010071
0.058879
-0.141243
-0.109735
-0.163977
-0.125342
-0.084726
-0.023690
-0.096281
-0.069569
0.070428
0.059384
0.114210
0.194210
0.240588
0.155315
0.034478
-0.090126
-0.046877
0.035330
0.009136
-0.077316
-0.000962
0.049962
-0.045229
-0.000669
-0.026658
0.005021
0.026014
0.243367
0.065092
0.185745
0.042263
-0.098004
0.035615
0.092874
0.089919
-0.009668
0.236288
0.020723
0.140720
-0.067736
0.077790
0.042876
-0.008197
0.025541
-0.073464
0.067362
-0.104187
-0.086223
0.004760
-0.113991
-0.158092
-0.125148
0.064248
-0.074124
0.295728
0.108942
0.109933
0.245841
0.183935
0.199837
0.020299
0.006923
0.059656
0.022917
0.100612
0.032429
-0.058135
-0.136210
-0.149286
-0.108706
-0.074567
0.032249
0.211325
0.009444
0.176435
0.004470
-0.147960
-0.006097
-0.032766
-0.042719
0.041512
0.028318
-0.009654
-0.040233
-0.061617
-0.059658
0.086376
-0.014822
0.018245
-0.002455
0.080415
-0.017802
-0.032016
-0.073426
-0.084369
-0.085220
0.009539
-0.060463
-0.037482
0.097466
-0.067999
-0.053177
0.175565
-0.088576
0.107798
0.059892
0.073124
0.073989
0.156130
-0.090969
0.019383
-0.093057
-0.012278
-0.024502
-0.045611
0.065170
0.077087
0.086453
0.164904
-0.001173
-0.052826
-0.124230
0.012711
-0.094265
-0.113005
-0.067151
-0.056101
0.017691
-0.020181
-0.215565
-0.071807
-0.167310
-0.061387
0.044058
-0.136920
-0.052377
-0.027771
-0.041506
0.018897
0.012267
0.013002
0.003814
-0.037838
0.014530
-0.008886
-0.236032
-0.151115
-0.117076
-0.121995
0.009144
-0.136350
-0.098748
-0.043074
0.082457
-0.034673
-0.103034
0.061151
-0.010103
0.098393
-0.003374
-0.125796
0.131832
0.064043
0.061277
0.117547
0.016114
0.002256
-0.195233
-0.060323
-0.051163
-0.056039
-0.042210
0.035169
-0.032106
0.069868
0.010652
-0.098473
-0.052265
0.028078
-0.049452
0.091146
0.008209
0.176322
-0.153095
-0.076466
-0.055971
-0.066565
-0.013826
-0.064150
0.119288
0.061801
0.146282
-0.118227
0.002089
0.024778
0.092561
-0.056316
0.036354
-0.018344
-0.080841
-0.009437
-0.071978
-0.186179
-0.146175
0.117537
-0.220923
-0.107187
0.169645
-0.072765
-0.093931
0.022482
0.071732
-0.109217
-0.005979
-0.036300
-0.122373
0.060408
0.049518
-0.051650
-0.020840
-0.024739
0.082705
0.026745
0.079529
-0.090332
-0.047852
-0.025237
-0.026699
0.153374
0.149064
-0.024214
0.120135
0.035309
0.022110
0.022682
0.064916
0.035371
-0.020655
0.073984
-0.041135
0.000757
-0.107592
0.091961
0.038388
0.089727
0.073428
-0.266451
-0.351899
-0.260959
-0.178949
-0.363122
-0.303785
-0.012843
-0.043116
-0.040898
-0.118114
-0.047223
0.072419
-0.191601
-0.095619
-0.174793
-0.126907
-0.224841
-0.271478
-0.019662
0.105975
-0.029724
0.009875
0.155561
-0.002399
0.006103
0.046578
0.003209
-0.064849
0.009084
-0.075087
-0.103957
-0.187322
-0.121780
0.010983
-0.087254
-0.121581
-0.077610
-0.051771
-0.063234
-0.121425
0.054079
-0.084191
-0.026690
-0.072956
-0.066039
0.020415
-0.045949
-0.036243
0.096965
0.026330
0.113832
0.024679
0.057315
0.047171
-0.148822
-0.018212
-0.103220
-0.031472
-0.178561
-0.214527
-0.105634
-0.238818
-0.125934
0.074752
0.048577
0.044010
0.110341
-0.144901
0.090027
0.014416
0.116956
0.039494
-0.080785
-0.161633
-0.064394
-0.001921
-0.007210
-0.050714
0.024710
0.059282
0.039852
0.026682
-0.149682
-0.160823
-0.075851
-0.037391
-0.120428
-0.151766
-0.103614
-0.091901
0.001982
0.032476
-0.076524
-0.036486
0.000318
0.002230
0.055054
0.056764
0.001903
0.100204
0.111935
0.143153
0.103352
0.007366
0.146306
0.104749
0.113742
0.040145
-0.090043
0.095725
-0.079627
0.096900
0.076738
0.126453
0.051555
0.046763
0.072995
0.022805
0.047099
0.026770
-0.016832
0.048069
-0.013041
0.107207
-0.083344
-0.075154
0.082733
-0.042513
0.047465
0.083074
0.114594
-0.003416
0.038138
0.057030
0.009277
0.060819
-0.083943
-0.011086
0.015013
-0.062364
-0.039721
0.059074
0.011313
0.012712
0.012207
-0.012669
-0.010222
0.141781
0.070554
0.034810
0.044741
0.100276
-0.105580
-0.002316
0.015783
0.002548
0.048059
-0.086868
-0.107476
0.152858
0.143256
-0.029189
-0.020231
-0.056491
0.063537
-0.242762
-0.122376
-0.065733
-0.058624
-0.174184
-0.066723
0.032498
0.010397
0.094639
-0.005270
0.055074
0.080087
-0.006271
0.069890
-0.057155
0.139409
0.103808
0.112704
0.152995
0.098183
0.157182
0.007790
0.064969
0.000327
0.109544
0.149654
0.160571
0.101498
0.127711
0.135043
0.052867
0.133812
-0.034426
0.039346
-0.030666
0.012037
0.018538
0.125641
-0.044498
0.184113
0.050217
0.073586
-0.107763
-0.097717
-0.129587
-0.338299
-0.169943
-0.063738
-0.073996
0.001037
-0.005451
-0.075754
0.008749
0.093853
0.134446
0.003830
0.000700
0.086577
-0.000810
0.043188
-0.025417
-0.019704
0.020441
0.030416
0.029665
0.087574
0.043399
0.139374
-0.005683
0.160985
-0.015739
0.109622
0.074689
0.066476
0.020336
0.027229
0.014146
-0.012485
-0.134676
0.018468
0.065760
-0.029753
0.089235
0.091535
-0.051853
0.095408
-0.037626
-0.027282
-0.011475
-0.030359
-0.030453
-0.042170
-0.122397
-0.120183
-0.007402
-0.109494
-0.116733
-0.302757
-0.190871
-0.160200
-0.280961
-0.298553
-0.158969
-0.174033
-0.222988
0.073022
0.110974
0.085117
0.105304
-0.068872
-0.194333
0.003018
-0.045858
0.067103
-0.085536
0.041707
0.153569
-0.131472
-0.150578
-0.017140
-0.120368
-0.151269
-0.035677
0.051111
-0.019213
-0.004709
0.067661
0.030110
0.058309
0.045623
0.140783
0.113239
-0.089571
0.011623
-0.097401
0.048504
0.083478
0.007706
0.082334
0.103788
0.168832
0.067472
0.114039
0.018577
0.091871
0.011020
0.070648
-0.024409
0.031346
0.090411
-0.067093
-0.090486
0.011239
-0.050895
-0.099849
0.038735
-0.067322
0.067833
0.043309
-0.000868
-0.210988
-0.352396
-0.343397
-0.416086
-0.509211
-0.205127
-0.328845
-0.214037
0.098915
0.107590
0.101084
-0.091044
-0.206267
-0.100789
-0.050544
-0.070802
-0.082856
-0.044564
-0.109163
-0.125386
-0.039862
-0.062130
-0.032532
-0.028102
-0.047402
0.005663
0.127461
0.047526
0.165339
0.118939
0.001492
0.109988
-0.023804
-0.019601
-0.050556
-0.140192
-0.012142
-0.003132
-0.113843
0.028581
-0.076578
-0.101268
0.041429
-0.001796
-0.036811
-0.133855
0.011418
0.005019
-0.013517
-0.011469
0.007613
-0.062252
0.055079
0.098141
0.154822
0.052188
0.152967
-0.038757
0.011916
-0.002102
0.141453
0.097549
0.201399
0.075109
0.099434
-0.057876
-0.049754
0.102227
0.130124
0.074460
0.047257
-0.156220
-0.052944
0.051450
-0.028983
-0.077244
-0.175993
-0.086532
-0.084506
0.088401
0.078614
0.127473
0.000923
-0.019092
0.039029
-0.060236
0.066297
0.125588
0.053400
0.036272
0.070744
0.102144
0.000128
-0.021574
-0.015736
0.010760
0.119400
0.046648
-0.020877
0.124999
0.119571
0.056830
0.022146
0.079408
0.122304
0.035812
0.096202
-0.103381
-0.140341
-0.074003
-0.193260
-0.270331
-0.137615
-0.277828
-0.203978
-0.213370
0.020837
-0.002702
-0.064207
-0.147988
0.030123
-0.007581
-0.071629
0.174905
-0.026231
-0.079957
-0.045234
0.096800
0.001352
0.020625
0.080963
-0.092118
-0.060336
0.088665
-0.010316
-0.058773
-0.004025
-0.054980
0.101618
0.042618
0.026119
0.065930
0.018962
0.040517
-0.160789
-0.163363
0.029721
-0.160429
-0.054893
0.029538
-0.043002
-0.245597
0.013306
-0.006949
-0.052957
0.093315
0.008333
0.038067
0.117394
0.165110
-0.013121
0.127800
0.049155
0.080146
-0.000284
-0.081358
-0.104969
-0.095897
-0.075407
-0.095000
0.007202
-0.070614
-0.070009
-0.063340
-0.140474
-0.185615
-0.077507
-0.020035
-0.086077
-0.091111
-0.079324
-0.101772
0.018803
-0.017548
-0.012307
-0.105517
0.020593
0.030160
-0.064711
0.063093
0.033002
-0.150175
0.012054
-0.034561
-0.123545
-0.007368
0.002999
0.017728
0.101018
0.014876
0.085113
0.013310
0.053159
0.074681
0.012657
0.034308
0.024516
-0.032383
-0.144760
-0.116604
0.038718
-0.048457
0.006056
0.117674
0.091802
0.019800
-0.065691
-0.123455
-0.183933
-0.186060
-0.184679
-0.199414
-0.123303
-0.100148
-0.121719
0.049610
0.010492
0.179867
0.013660
-0.086747
0.106816
-0.005075
-0.094127
-0.078842
-0.085844
0.038403
-0.086672
-0.122068
0.004476
-0.050903
-0.191129
-0.168677
-0.045088
0.070642
-0.119161
-0.043721
0.158273
0.026313
0.027559
0.144534
0.108808
0.116022
-0.030458
-0.099589
-0.086774
-0.179522
-0.130322
-0.033380
-0.085806
-0.076882
-0.001087
-0.048143
0.003964
-0.013244
0.020802
-0.102252
-0.130720
-0.055963
0.068096
-0.012928
-0.116302
-0.075145
0.027649
0.094509
0.111904
0.102030
0.206927
0.103489
-0.113835
-0.099896
-0.058124
-0.049151
0.079451
-0.007449
-0.011740
0.110015
0.125755
-0.042442
-0.043662
0.017439
0.049833
0.077860
0.054241
0.034803
0.038596
-0.003654
-0.107720
-0.065332
-0.016329
-0.080511
-0.045134
0.167095
0.048080
0.039364
0.005992
0.032584
0.198159
0.237366
0.207376
0.204694
0.119994
0.128954
-0.126830
-0.164069
0.021759
0.219628
0.112308
0.046958
0.122070
0.025364
0.068392
0.118183
0.001673
-0.102348
-0.023069
-0.023132
-0.003320
0.048823
-0.049403
-0.044944
0.030993
0.071025
-0.067819
-0.028142
-0.044390
0.020701
0.071791
0.019524
0.093559
-0.026840
0.082921
-0.106782
-0.113308
-0.240193
-0.203522
-0.119874
-0.062632
-0.137767
0.010605
0.174202
-0.022476
0.098648
0.137679
0.174137
0.206831
0.165861
0.085032
0.140908
0.171304
0.054687
0.106795
0.035696
0.003997
0.024250
-0.021333
-0.061046
-0.126999
-0.017296
0.103852
0.062497
0.090547
0.071034
-0.025629
0.025295
-0.027192
0.036449
0.048987
-0.094255
-0.126053
-0.091784
-0.193996
0.067155
0.070541
-0.098854
0.136329
0.092542
-0.120453
0.017700
0.013052
0.051310
0.034582
0.093129
-0.010503
0.129576
0.007184
-0.184494
-0.084575
0.014766
0.007733
0.108841
0.147289
0.027540
0.168472
0.135522
0.081287
0.017376
0.102120
-0.114911
-0.083091
0.021354
-0.188015
-0.141207
-0.088742
0.089616
0.202686
0.014605
0.067011
0.108190
0.093969
0.063091
0.007606
-0.069285
0.027610
-0.157318
-0.166584
-0.165229
-0.243297
-0.206061
-0.235108
-0.176377
-0.095546
-0.128727
-0.143104
-0.045222
-0.065416
0.037552
0.064828
0.050668
0.009032
0.063423
0.027819
-0.060707
0.022986
-0.045479
-0.098775
0.032819
-0.019123
0.042360
0.058379
-0.083853
-0.085114
0.036508
0.031982
0.147228
0.127912
-0.083656
0.198844
0.218065
0.032533
-0.042362
-0.004414
-0.078363
-0.194752
-0.108157
-0.017663
-0.122093
-0.118368
-0.087371
-0.049568
0.069745
-0.089299
0.049778
0.145504
-0.008720
0.055363
0.063988
0.091104
0.075795
0.025857
-0.001692
0.058914
0.141076
0.027266
-0.016862
-0.029056
0.124958
0.122589
-0.040020
0.127448
0.044526
-0.018051
-0.070645
-0.031482
0.088041
-0.074914
-0.202391
-0.225874
-0.051627
-0.051932
-0.154946
-0.085003
-0.039092
-0.012899
-0.117458
-0.110311
-0.085816
0.104175
0.017210
0.098439
0.042717
-0.085386
-0.029111
0.182903
0.014018
0.063430
0.177847
0.011531
0.125508
0.066342
-0.036548
-0.155704
-0.092625
-0.122750
-0.018124
-0.112219
-0.152009
-0.129163
0.030329
-0.063526
0.005953
0.031983
-0.022746
0.053824
0.011498
0.094997
0.120714
0.077009
0.215638
0.168364
0.008855
0.098816
-0.062430
0.074755
0.015812
-0.112330
0.011016
-0.108788
-0.149426
-0.175041
0.046499
0.051341
-0.112274
-0.007674
0.109598
-0.150982
-0.032424
0.042689
-0.094152
-0.201708
-0.219835
-0.139192
-0.125451
-0.171760
-0.038889
-0.107794
-0.029977
-0.091494
-0.022468
0.062112
-0.069004
0.008633
0.106543
0.079832
0.143172
0.103258
-0.053963
-0.100380
0.060903
-0.024564
0.000061
-0.039671
-0.064105
-0.045486
0.126389
-0.062850
-0.079442
-0.129040
-0.018972
-0.093947
-0.174577
-0.051325
-0.231103
-0.140536
-0.121186
0.061952
0.190100
-0.069447
0.081823
0.075258
0.085861
0.100153
-0.100565
-0.147227
-0.095602
0.129690
-0.238411
0.055557
0.102750
0.089085
0.177770
0.115085
-0.030060
0.070757
0.084752
0.095936
0.039946
0.012608
-0.037499
0.075846
-0.009061
-0.039302
0.071094
0.027589
-0.052724
-0.015654
0.090041
-0.012082
0.053014
0.148280
0.077561
0.038890
-0.104715
0.016330
-0.019589
-0.143353
-0.032620
-0.043229
-0.132977
-0.215957
-0.080979
-0.001064
-0.135632
-0.147368
0.008784
-0.046317
-0.059905
0.031434
-0.175955
-0.144179
0.084635
-0.170826
0.018730
0.125904
0.034054
0.154411
0.029937
-0.115803
-0.143844
-0.097362
-0.125219
-0.184586
-0.178988
-0.155477
-0.141161
-0.185103
-0.065067
-0.044349
0.121485
-0.014306
0.037331
0.106384
0.067828
-0.025366
-0.030747
-0.013290
0.006736
-0.032872
-0.063757
-0.008227
-0.068891
0.079073
-0.076835
-0.090829
-0.132450
-0.005541
0.081005
0.065873
-0.000926
0.036679
0.080290
0.056891
0.154027
0.057084
0.068400
0.069649
0.055563
0.150364
0.160842
0.069099
0.009326
0.067957
0.032809
0.109149
-0.054604
0.146534
0.009997
-0.011847
0.131362
0.115324
0.021407
0.039741
-0.059689
0.038108
0.029846
0.106825
0.101714
0.148709
0.185903
0.137734
-0.185057
-0.055693
0.027250
-0.002468
0.042670
0.027434
0.087314
-0.084739
-0.100919
-0.192886
-0.111045
-0.047741
-0.160027
-0.019404
-0.044522
0.017062
-0.004167
-0.158300
-0.064223
-0.079308
0.055390
-0.033528
-0.028944
0.180692
-0.201392
-0.091185
-0.017958
0.142279
0.010157
-0.060215
0.114163
-0.006580
-0.170747
0.043670
-0.105350
-0.139798
0.028499
0.140032
0.109332
0.028760
0.131346
0.152751
0.114038
0.144677
0.207625
0.001088
0.035614
0.025595
0.017971
0.061912
0.113598
0.138136
0.179465
0.040100
-0.119421
-0.038200
-0.036731
0.016350
0.147170
0.162103
0.008236
0.189328
0.062077
-0.078641
-0.065747
0.085069
-0.035641
0.060910
0.071062
0.107397
0.177319
0.106734
0.040440
0.055369
-0.005428
0.118493
0.001858
-0.070847
0.063294
0.074875
-0.067370
0.061611
0.057234
-0.082928
0.002900
0.129313
-0.157573
0.039632
0.049253
-0.163000
0.114739
0.128470
0.071039
0.137244
0.078508
0.066226
0.074400
0.006375
0.117464
0.042225
-0.031673
0.057384
-0.010198
0.083661
0.211504
0.031225
0.038300
0.117151
-0.031519
-0.039078
-0.097544
-0.065353
-0.166502
-0.146947
-0.077233
-0.084490
-0.079746
0.034719
0.093901
-0.098902
0.050673
-0.016798
0.052837
0.111141
0.064204
0.054154
-0.096772
-0.065145
-0.094532
0.030335
0.068005
-0.020900
0.003534
0.068267
0.083479
-0.149229
-0.061106
-0.094809
0.012286
0.068797
0.040262
0.060516
0.058627
0.104848
-0.011858
-0.061262
-0.079082
0.037586
-0.041364
-0.035262
0.008149
-0.085986
-0.005003
-0.071049
-0.059322
-0.082106
-0.155328
-0.014298
0.062848
-0.011428
0.006248
-0.120491
-0.071647
-0.043097
-0.163689
-0.120941
-0.127636
-0.112730
-0.125857
-0.129750
-0.113333
0.068246
-0.002041
0.191558
0.090705
-0.050702
0.116050
0.035082
0.044809
0.130627
-0.103432
-0.138632
0.004979
-0.057426
0.056721
-0.005594
0.021384
-0.025344
0.124597
-0.015702
-0.044943
0.037842
0.036167
0.037395
-0.072504
-0.075621
0.037107
-0.020572
-0.030849
0.048553
-0.088059
-0.006758
0.010130
-0.083820
-0.022169
-0.057941
0.027071
-0.012165
-0.095537
0.047970
0.051928
0.035307
-0.113701
0.135225
0.093579
0.064348
0.197844
0.088498
0.208826
0.264334
0.190516
0.161469
0.129335
0.107769
-0.021610
0.092353
0.122050
-0.005527
0.070261
0.062832
0.076459
0.010897
0.036283
-0.123186
-0.131171
-0.085245
-0.060030
-0.104649
0.058184
-0.051399
0.008725
-0.073451
-0.002254
-0.154227
0.028670
-0.072321
-0.001116
0.093428
-0.020181
0.007602
0.054148
-0.007909
-0.154910
0.022282
-0.054235
-0.092447
0.084505
0.011378
-0.037899
-0.059049
-0.072780
0.053973
-0.060785
-0.065269
-0.187724
-0.188998
-0.034232
-0.024971
0.014514
-0.127305
-0.030934
-0.038597
0.092236
-0.143060
-0.096800
0.003719
0.039542
-0.056677
-0.063857
-0.062394
-0.134340
-0.142581
-0.168194
-0.144573
-0.082005
-0.022229
-0.021239
-0.045875
0.000260
0.044846
-0.000037
0.080315
0.006861
-0.054159
-0.096001
-0.134452
0.027779
0.039673
-0.007012
0.023629
0.015786
-0.156645
0.008093
-0.070650
-0.042560
-0.059371
-0.044291
-0.113082
-0.122421
-0.159363
-0.116369
-0.072552
0.028780
-0.093520
-0.063469
-0.101533
-0.075605
0.080725
-0.205551
-0.136376
-0.228175
-0.194021
-0.047395
-0.214283
-0.120683
-0.155713
-0.182959
-0.034634
-0.071183
-0.160339
-0.060823
-0.150600
-0.032693
-0.088253
0.032365
-0.010341
-0.216385
-0.096787
-0.070681
-0.255048
-0.165464
-0.122657
0.037494
-0.048997
-0.014554
-0.073275
0.100669
0.029066
0.050739
0.119509
0.058602
-0.033224
0.065724
0.102974
0.135323
0.203639
0.023638
-0.043892
0.048767
0.129278
-0.131398
-0.097278
-0.047114
-0.100986
-0.184595
-0.223101
-0.205169
-0.227893
-0.256902
-0.017951
-0.119423
0.008567
-0.112863
-0.211401
-0.224544
-0.028845
-0.111846
-0.077482
0.082265
0.006263
-0.029355
0.141548
0.058265
-0.045622
-0.015388
-0.249177
-0.102993
0.141040
0.011238
0.006360
-0.017382
-0.135258
-0.127513
-0.138743
-0.159410
-0.045624
0.044247
0.119270
0.000929
-0.013541
-0.010108
0.040634
-0.038384
0.007329
-0.024914
-0.169468
-0.008802
-0.174626
0.062697
0.151336
0.097263
0.134398
0.069479
-0.015741
-0.011029
0.032075
-0.036933
0.094033
0.025444
-0.009925
-0.052013
-0.050166
-0.161857
0.028259
-0.083759
0.052476
0.003654
-0.036363
-0.058988
-0.005821
0.025355
-0.086827
0.163827
0.070865
0.002684
-0.268274
-0.279658
-0.192239
-0.001488
0.107828
0.180610
0.104024
0.006753
0.020147
-0.053768
-0.130242
-0.117760
-0.083584
-0.054889
-0.017141
-0.212469
-0.157612
-0.153548
-0.033145
0.069560
-0.017317
0.151854
0.201731
0.148261
0.027574
-0.060900
-0.056506
-0.085332
-0.089432
-0.005253
0.057800
0.019293
0.038415
-0.090326
0.028819
0.097041
0.071317
0.055248
0.120511
-0.002840
-0.049739
0.004919
-0.099772
-0.120272
-0.091511
-0.206847
-0.134420
-0.049550
0.076649
0.018386
-0.061503
0.086334
0.061759
-0.048567
0.039500
0.041478
-0.038999
-0.148121
-0.040465
-0.072526
-0.052766
-0.108111
-0.032590
0.117837
0.073819
-0.020612
0.049343
0.087007
-0.064396
0.021775
0.027976
-0.049937
0.183684
0.182436
0.077537
0.071334
-0.047764
-0.132903
-0.123802
0.069578
-0.022916
0.098526
0.042252
-0.004154
-0.086438
0.013106
0.060114
-0.151605
0.011048
-0.104080
-0.190905
-0.079407
0.101626
0.096577
0.164845
0.131116
0.147735
0.133769
-0.015773
-0.176176
-0.153410
0.026159
0.082486
0.148312
0.162923
0.027414
-0.026412
0.020001
-0.147560
-0.029547
-0.045839
-0.107083
0.037371
0.101587
-0.127665
0.039180
0.048217
0.047968
0.142491
0.122469
0.046490
0.181375
0.193796
-0.100816
-0.002761
-0.072656
-0.115104
-0.036086
-0.070259
-0.020438
-0.075028
0.103919
-0.062968
-0.009458
0.009818
0.030067
-0.068362
0.057893
-0.076183
-0.083435
0.023442
-0.269578
-0.098940
-0.213492
-0.030851
-0.044248
-0.029412
0.195252
0.200870
0.121650
-0.196935
-0.182921
-0.060037
0.021517
0.046869
0.088702
0.323859
0.220878
0.196384
0.116691
0.071371
0.042023
0.036852
0.044195
-0.106354
-0.029760
-0.101098
-0.082827
0.042844
0.065241
0.005405
0.023131
-0.041252
0.058638
-0.031861
0.037496
0.066639
0.029671
0.057773
-0.001520
-0.057467
0.062328
0.133513
-0.000152
0.076175
0.045644
0.095746
-0.122521
-0.055430
0.062922
-0.009556
-0.072731
-0.070118
-0.077034
-0.041169
-0.170769
-0.222820
-0.089283
0.056438
-0.021659
0.018021
0.137817
-0.030923
0.028211
-0.032062
-0.021705
-0.004313
-0.116289
-0.125304
-0.040154
-0.188528
-0.071365
-0.098626
-0.054171
0.006396
-0.034260
-0.057183
0.098830
0.111353
-0.026607
0.016790
0.042976
0.027857
0.011224
-0.044148
-0.056362
-0.074147
-0.113567
-0.054304
-0.051757
0.023230
0.160345
-0.057682
0.104159
-0.013679
0.358964
-0.212941
0.154155
-0.008367
0.171547
-0.060728
0.044483
-0.098904
-0.106860
-0.034475
-0.005343
-0.089643
0.167379
0.005398
0.049387
0.012865
-0.151553
0.121957
0.008770
-0.030868
-0.020344
0.020500
-0.101236
0.028007
0.007900
0.060086
-0.046963
-0.038501
-0.021649
-0.019907
-0.092908
0.076064
-0.038584
0.081555
0.109748
-0.112548
-0.158428
-0.098565
0.017720
-0.106646
-0.037545
0.058185
-0.027049
-0.055492
-0.039555
-0.040566
-0.055640
-0.090486
-0.032916
0.003799
0.082803
0.010028
-0.056018
0.035734
0.076046
0.091710
-0.075552
-0.011584
-0.011175
0.170704
-0.071230
0.083071
0.039101
0.102640
-0.066845
-0.020914
0.000416
0.056023
0.068181
0.074144
0.015582
-0.061536
0.067295
0.056835
-0.024192
-0.053798
0.006830
0.047742
-0.118169
0.030161
0.090648
-0.001849
0.174547
-0.092099
0.251709
0.113341
0.030650
0.014591
0.044184
-0.035455
0.047767
-0.088989
-0.005203
0.121147
-0.047289
0.082459
0.004073
-0.026927
0.032133
0.047425
-0.039556
0.033076
-0.021900
0.014510
0.062013
-0.118039
0.080786
-0.027595
0.040943
-0.105910
0.119242
0.063699
-0.036735
0.062057
0.162541
0.052560
0.050015
-0.036268
0.000150
0.009734
-0.026351
0.028561
0.099782
-0.149500
-0.052627
0.079643
0.163412
-0.050400
0.040555
0.072253
0.086507
-0.005074
0.146776
-0.046528
0.109838
-0.057299
0.267110
-0.165798
0.365809
0.076939
-0.027931
0.046548
0.019312
-0.149791
-0.097044
-0.132552
-0.060014
-0.081643
0.029446
-0.052996
-0.047780
0.092699
-0.023323
-0.032447
-0.016184
-0.098712
-0.097880
-0.086247
-0.054542
-0.108695
-0.079236
-0.152338
-0.112132
0.026137
-0.072636
-0.236321
-0.021888
-0.129639
-0.043935
0.026599
-0.057552
-0.037282
0.040336
-0.120934
-0.140173
-0.100058
-0.057697
-0.133201
-0.124815
-0.010015
-0.092330
-0.132201
-0.085379
-0.201926
-0.186076
-0.106962
-0.013635
-0.076435
-0.106735
-0.046937
0.054602
-0.067063
-0.038904
-0.052583
-0.057284
0.106507
0.013470
-0.180586
-0.008569
-0.034811
-0.115769
-0.011176
0.086262
0.007201
0.080765
0.087541
-0.088071
-0.094512
0.003892
-0.016513
-0.074329
0.039213
0.024444
0.054414
0.171193
-0.145934
0.157964
-0.022745
-0.241825
0.107139
-0.059328
0.116407
-0.099663
0.018534
0.084301
-0.007591
-0.092264
0.169760
-0.067118
-0.005721
-0.053601
0.022935
-0.134496
0.039966
-0.224581
0.001123
0.000973
-0.137341
-0.035580
0.002076
-0.122137
-0.032557
-0.023981
-0.032286
0.077644
-0.098117
0.014355
-0.129848
0.169477
-0.007443
-0.100875
0.155856
-0.023468
-0.040413
0.085853
-0.016532
-0.034262
-0.073764
0.034647
-0.141229
0.031159
-0.152924
0.051864
-0.138191
0.085131
0.015481
-0.006798
0.018500
0.046606
0.026534
0.059459
0.045410
0.123814
-0.010395
-0.068760
-0.017732
-0.120893
0.025712
0.076655
-0.078366
-0.075210
0.082384
0.013617
-0.027602
0.078231
0.092162
-0.007269
0.019163
0.103106
0.104894
0.016183
0.100898
0.086570
-0.127550
-0.117658
-0.161844
0.023275
-0.189032
-0.061808
-0.067578
-0.084886
-0.076659
0.041815
-0.011286
-0.087212
-0.010605
0.057340
-0.047438
0.061028
-0.057588
-0.052692
-0.073922
0.082494
0.099961
-0.000544
-0.122628
-0.131692
0.066234
-0.041585
-0.075258
0.021636
-0.082351
-0.183460
0.002814
-0.108779
-0.047910
-0.078383
-0.113397
-0.027368
-0.009463
-0.079423
0.001427
-0.053687
0.004212
-0.074813
-0.027441
0.013512
-0.077428
-0.041110
-0.002631
-0.069522
0.013429
-0.063153
0.012393
0.064364
-0.039964
-0.013038
0.114633
0.195585
-0.022844
-0.012510
0.083881
0.198012
-0.005484
0.039398
0.169071
-0.209982
0.018238
-0.073820
0.028252
0.080039
-0.043431
0.070492
0.010020
0.000103
0.037369
0.025323
0.058225
-0.023522
-0.024400
-0.090443
-0.061401
-0.098430
0.024009
0.047852
-0.002142
-0.237902
-0.059378
-0.054036
-0.093519
-0.008518
-0.159724
0.133758
-0.068887
-0.065241
-0.104408
0.023638
-0.102874
-0.086692
0.116711
-0.002946
0.051379
-0.155011
0.074015
-0.059878
-0.038830
-0.041514
-0.016963
-0.153246
-0.035378
0.069076
-0.012204
-0.033789
0.024142
-0.041925
-0.016991
-0.028561
-0.165324
-0.040456
0.115336
-0.117309
-0.015005
-0.061113
-0.056956
0.094904
-0.100675
-0.052685
-0.114388
-0.117728
0.273145
0.140142
0.144374
0.192175
0.424531
0.098194
0.033660
0.183654
0.260326
-0.017734
-0.036658
0.040012
0.075922
0.005458
0.013624
0.075424
-0.000203
0.037224
-0.066602
0.056353
-0.056304
0.043602
0.032497
-0.019612
-0.062432
0.081696
-0.063456
0.002197
0.022787
0.008552
0.074836
-0.098793
0.061053
-0.017756
0.033167
0.086840
0.004298
-0.074554
-0.116092
0.093387
-0.015322
-0.048708
-0.059918
-0.038192
-0.045452
-0.095688
0.001609
-0.148290
-0.089258
0.035418
0.000544
-0.148257
0.032124
-0.047978
-0.134634
-0.094285
-0.017968
0.005011
-0.207179
-0.083754
-0.034967
-0.017104
-0.230309
-0.087841
0.025186
0.064533
-0.103349
-0.011204
-0.083040
0.025385
0.084347
-0.059762
-0.102308
0.107675
0.024378
-0.036249
-0.059718
-0.049178
-0.023720
-0.074772
-0.039518
-0.003045
-0.072968
-0.105700
-0.048221
0.033132
0.083304
-0.066708
-0.077495
0.144547
0.050820
0.049185
-0.066982
0.069092
-0.015100
0.043110
0.023503
0.039448
0.112933
-0.099279
-0.186569
-0.120192
-0.067478
0.001202
-0.071465
-0.019211
-0.046545
0.096868
-0.059929
-0.165407
-0.132427
0.075170
-0.018567
0.014564
-0.007590
-0.090758
-0.015822
-0.204709
-0.011138
-0.145032
-0.102554
-0.191309
-0.181937
-0.173215
-0.142193
-0.114171
-0.037166
-0.154876
0.041767
-0.136780
-0.007393
-0.135033
-0.026100
0.013697
0.040750
-0.090722
-0.048405
0.017912
0.022291
0.090903
-0.079845
0.030295
0.001883
0.021548
0.015576
0.034635
-0.051505
0.023722
0.129387
0.011227
-0.028057
-0.017943
0.080852
-0.088381
-0.073693
-0.073942
-0.057228
-0.041403
-0.176985
-0.162420
-0.165017
-0.071866
0.065414
0.089673
0.007055
0.035575
0.082706
-0.039273
0.030190
0.078659
0.069516
0.025563
0.069580
0.083100
0.163790
0.075650
0.123820
-0.041936
-0.123731
0.012689
-0.022969
0.002741
-0.001213
0.071082
0.096715
0.039352
0.041592
0.019213
-0.085058
0.187671
0.286950
0.176937
0.216410
0.101580
0.063952
0.165586
0.018447
0.157551
0.086741
0.031457
-0.073299
-0.091315
-0.000170
-0.042504
-0.026881
-0.073558
-0.127365
0.073822
-0.081761
-0.031414
-0.126503
-0.178574
-0.165459
0.144944
0.104177
0.134516
-0.033257
-0.016658
-0.032439
-0.034680
0.005879
-0.072116
-0.078453
-0.093808
-0.079805
-0.022832
-0.130541
-0.047118
-0.060714
-0.052553
-0.104296
0.028867
0.013928
-0.052851
0.101592
0.086479
0.212869
0.056272
0.285672
0.313858
0.114647
0.285115
0.330578
-0.007331
-0.066947
-0.115634
0.122610
0.086183
0.067777
0.051335
0.061975
0.004175
-0.031277
-0.100477
-0.037822
0.033012
-0.122749
-0.044121
-0.030456
-0.161737
0.049042
-0.029965
0.043992
0.042655
0.086819
0.073022
-0.018678
-0.010195
-0.098930
-0.123104
0.094296
-0.018128
0.215137
0.159374
0.124991
0.259015
0.151867
0.109776
0.228413
-0.072657
-0.136915
-0.096899
0.018322
-0.085394
-0.078345
-0.166292
-0.045646
-0.061345
-0.112209
-0.125909
-0.003826
-0.092491
-0.128745
-0.045224
-0.105265
-0.105479
-0.154746
0.019696
0.004491
0.021266
0.071536
-0.098778
-0.016695
-0.058919
-0.031528
0.133081
0.044796
-0.179595
-0.033399
-0.082188
-0.181377
-0.073241
-0.124407
-0.089000
-0.080704
-0.051573
-0.064350
-0.058605
-0.062955
0.005950
-0.029896
-0.007959
0.137753
0.127379
-0.058290
-0.044891
-0.171322
-0.062797
-0.096130
-0.148227
-0.018691
-0.181217
-0.072334
-0.055427
-0.040366
-0.132967
-0.129343
0.012349
-0.111952
0.039714
0.140515
-0.073465
0.099987
-0.040479
-0.029355
0.022944
-0.119229
-0.008338
0.057944
-0.050206
0.005972
0.102598
0.044565
-0.028019
-0.066716
-0.041815
0.026999
0.019705
0.103738
0.023158
-0.017565
0.091241
0.019603
0.066132
-0.023679
0.037473
0.016288
0.060850
0.067595
0.081020
0.018618
0.171068
-0.010957
0.037860
0.050554
0.154044
0.053755
0.006918
-0.173884
-0.179500
0.012219
0.005995
0.027531
0.099343
-0.007189
-0.053415
-0.017830
0.004859
0.058490
-0.059782
-0.020809
0.042228
0.059723
0.073670
0.065766
0.017133
-0.169099
-0.032538
-0.116586
0.033111
0.060311
0.004278
-0.098785
0.128381
-0.022545
0.134254
-0.023658
0.116180
-0.037462
-0.065263
0.087348
0.005906
-0.030260
0.059773
-0.092619
-0.220632
-0.148096
-0.181174
-0.044037
-0.195557
-0.208662
-0.093313
-0.166675
-0.149135
-0.087803
-0.099645
-0.039359
-0.084534
0.015043
0.082427
0.094775
0.176845
-0.068840
-0.112744
-0.083539
-0.065469
-0.028279
-0.002233
0.035161
-0.028100
-0.112109
-0.180688
-0.155430
-0.079904
-0.073062
-0.242857
-0.025931
-0.045377
-0.055652
0.131336
-0.093693
-0.153605
0.006425
-0.033861
-0.086488
-0.105198
-0.102245
-0.088689
0.122655
0.006808
-0.086531
-0.105569
-0.016176
-0.133138
-0.116303
0.124839
0.082765
0.043440
0.042378
0.018596
-0.125318
0.015428
-0.019522
-0.124213
0.078123
0.007229
-0.124943
-0.076563
-0.070004
-0.043247
0.166448
0.036125
0.135030
0.074363
0.070308
-0.040942
-0.136592
-0.015454
-0.030224
-0.001012
-0.091808
-0.031578
-0.021062
0.022324
-0.038439
0.008391
-0.023289
0.075817
0.037323
-0.003177
-0.002059
-0.103730
-0.036614
-0.100498
-0.026594
-0.048279
-0.063550
0.000812
-0.074475
-0.033992
0.023176
0.074799
0.086410
-0.083271
-0.119165
-0.058765
-0.050660
-0.133113
-0.134208
0.016590
0.053667
-0.033493
-0.143196
-0.167834
0.056591
-0.180793
-0.130814
-0.031241
-0.055571
0.030030
0.166224
0.044103
-0.109371
-0.060217
0.148567
0.075339
0.054849
-0.010174
0.052913
0.051753
-0.132448
-0.131480
-0.055965
0.059146
0.061931
0.035053
0.084299
0.123437
0.145891
-0.017805
0.034948
-0.003600
-0.078482
-0.029349
-0.124132
0.079842
-0.012084
-0.070835
-0.008995
0.008365
0.091327
0.014550
0.018861
0.005209
0.065778
0.015168
0.039007
-0.148828
-0.210208
-0.050135
-0.069352
-0.138123
0.064083
0.126043
-0.009486
0.052554
-0.277553
-0.229228
-0.200985
-0.079381
-0.077285
-0.160345
0.114569
0.110931
0.053365
0.014829
-0.020587
-0.152852
0.024520
-0.079620
-0.012041
-0.003322
0.139610
-0.032377
-0.098743
0.021279
0.074226
-0.021801
0.048353
0.069545
0.061193
0.072268
0.108174
-0.176307
-0.120417
-0.069348
-0.074615
-0.063636
0.034261
0.054026
0.067100
0.060974
-0.064203
-0.109405
-0.102656
0.002348
0.066134
-0.049269
-0.005108
0.013643
0.029145
0.034893
0.020068
0.004650
-0.123080
-0.063165
-0.041667
0.031821
0.071327
0.007337
-0.049226
0.029421
-0.033589
0.086740
0.156002
0.094831
0.161053
0.192154
0.065958
-0.060973
-0.038352
-0.010012
-0.000234
0.126542
-0.055996
0.180761
0.191741
0.141470
0.013194
0.016817
-0.119888
-0.004421
-0.009874
0.045668
0.288796
0.275440
0.162088
0.090055
0.041804
0.031740
0.049717
0.056379
-0.058997
0.208384
0.139584
0.103350
-0.066088
-0.111985
0.037819
-0.139043
-0.100212
0.012083
-0.126161
0.092324
0.182382
-0.050387
-0.151267
-0.069682
-0.106568
-0.170033
-0.133917
-0.101167
-0.079451
0.048590
-0.078398
-0.151725
-0.025409
-0.146075
-0.043367
-0.064622
-0.164514
0.076164
0.062106
-0.159036
-0.277020
-0.130086
0.121689
0.072840
0.057560
0.122526
0.106636
0.098302
0.000579
-0.001726
-0.056904
-0.013440
-0.007526
-0.005942
-0.010148
0.147792
0.053614
-0.068773
-0.075875
0.079188
-0.045580
-0.100606
0.116135
-0.016522
-0.048317
0.064729
-0.004832
-0.095145
-0.003421
-0.062530
-0.219225
-0.227159
0.040346
-0.025168
-0.023171
0.028777
-0.044804
-0.121118
-0.113404
-0.072348
-0.081873
-0.010043
-0.101563
0.010399
0.074374
-0.032839
-0.099705
0.081094
-0.117498
-0.147822
0.144111
0.081465
-0.075106
-0.051649
-0.033949
0.023341
-0.032555
-0.075958
0.074480
-0.094781
-0.096001
-0.105114
-0.124884
0.003516
0.137698
-0.073932
-0.077940
0.173570
-0.000287
-0.071736
0.020740
-0.342460
-0.216840
-0.083924
-0.137810
-0.113354
-0.028894
-0.092864
0.016962
-0.022822
0.014625
0.155601
0.144713
-0.041017
-0.123591
0.115652
-0.024732
0.018072
0.028349
0.092399
-0.007274
0.027534
0.086381
-0.010445
-0.000619
0.053055
-0.026118
-0.036264
0.083289
-0.060420
0.055084
-0.063801
-0.017423
0.043782
0.063091
-0.000722
0.025432
-0.045649
0.023936
-0.005417
-0.030804
-0.035984
-0.066899
-0.062698
0.004690
0.118896
0.218968
0.122635
-0.008996
0.316300
0.102404
0.091478
0.317514
0.177145
0.049529
-0.009528
-0.104661
-0.010266
-0.018672
0.024225
-0.056432
-0.071768
-0.083310
-0.024430
-0.003304
-0.036303
0.122189
-0.048913
-0.038564
0.074433
-0.007594
-0.007021
0.057038
-0.075100
-0.020712
0.044431
-0.178675
-0.121941
-0.006054
-0.001693
-0.204163
-0.115940
0.051429
-0.123469
0.024429
-0.020966
-0.009909
0.079579
-0.058638
-0.027706
0.067908
-0.090500
-0.136775
-0.039031
-0.182844
0.009456
-0.012226
-0.022301
0.014874
-0.018503
0.128431
0.256165
-0.095213
0.104399
0.083769
0.118240
0.148925
0.164755
0.026832
-0.018406
0.057091
0.012504
0.027959
0.045952
0.057016
0.051598
-0.009544
0.055830
0.028822
-0.075601
-0.047519
0.023230
-0.033764
-0.009797
-0.103713
-0.092126
0.036010
-0.035579
-0.002655
-0.092009
0.040703
0.088183
-0.015237
-0.029605
0.049893
-0.023266
-0.029208
0.050184
-0.038770
0.024406
0.022213
-0.010425
-0.049906
-0.087887
0.021205
-0.020757
-0.150888
0.061201
0.025553
-0.062138
-0.026143
0.069239
-0.022890
0.105413
-0.069021
-0.101039
0.088960
-0.013940
-0.077237
0.132554
-0.062476
-0.101483
0.032473
-0.126767
-0.036929
0.100944
-0.208162
-0.008007
-0.091579
-0.183546
-0.014545
0.007736
-0.185730
-0.050657
-0.010070
-0.254285
0.003395
-0.070072
-0.286202
-0.202363
0.057210
-0.067392
0.008457
0.148463
-0.241981
-0.107916
0.091476
-0.198436
-0.086815
-0.079850
-0.064326
0.080736
0.061786
0.020939
0.041360
0.009270
-0.164348
0.139512
-0.044236
0.024513
0.132580
-0.053725
0.128274
0.048733
-0.146412
0.124311
0.072930
-0.021527
0.088367
-0.010790
-0.012720
0.177508
-0.013453
0.051308
0.224355
-0.035305
0.036201
-0.206360
-0.153577
-0.031512
-0.228561
-0.104729
-0.044214
-0.149072
-0.055889
-0.003224
-0.010185
-0.011006
0.011422
-0.289953
-0.086344
-0.012423
-0.070495
-0.019422
-0.011807
0.063539
-0.028228
-0.153059
-0.030636
-0.006162
0.005071
-0.000324
-0.073566
0.021317
0.050668
0.048276
-0.071563
0.025851
-0.019051
0.001058
-0.012139
-0.061719
0.011705
0.054892
0.016858
0.058230
-0.014745
-0.045076
-0.018149
-0.022265
0.021651
0.020129
0.043127
-0.031447
-0.016944
-0.020555
-0.140757
-0.144410
-0.066788
-0.098673
-0.122046
-0.120657
-0.035041
-0.009623
-0.127428
-0.039198
0.074503
-0.147628
0.073909
0.194489
0.049937
-0.119608
0.045318
-0.040719
-0.042929
0.002028
-0.054514
-0.124307
0.087149
0.065674
0.165233
0.165263
-0.023894
0.016659
0.110344
-0.039922
0.098576
0.026547
0.098188
0.017835
-0.066244
0.202700
-0.051452
-0.137318
0.040776
0.051400
-0.086822
-0.117039
0.021979
0.034343
0.009376
-0.040442
0.047706
0.147961
0.045251
-0.062323
-0.021655
-0.141388
-0.128638
-0.010398
-0.140624
-0.061701
-0.101392
0.052439
-0.077660
0.042331
0.089329
-0.030520
0.038681
0.061713
-0.172198
-0.035418
0.125530
-0.071987
0.038887
-0.024658
-0.172188
0.108346
-0.050085
-0.224523
-0.039571
-0.017133
-0.159630
-0.041724
-0.038071
0.075387
-0.184036
-0.021918
0.075664
-0.199139
-0.027190
0.002960
-0.059237
0.024414
-0.232435
0.170324
-0.125340
-0.140113
0.105919
-0.055407
-0.145811
-0.045786
-0.025610
0.069382
-0.095954
-0.040358
-0.020240
-0.086132
-0.003120
0.125257
-0.013103
0.020324
-0.051953
0.091281
0.112956
-0.102899
0.107523
0.000004
0.048069
0.046997
0.028208
0.068012
-0.005197
-0.016730
-0.014389
-0.036555
-0.063756
-0.019025
-0.062408
-0.138216
-0.080263
-0.126078
-0.021423
0.000698
0.027514
0.102877
0.068678
0.043259
0.094853
-0.109546
0.129316
-0.030711
-0.071407
0.046759
-0.052568
-0.113921
0.003860
0.015735
-0.282688
0.081216
-0.133365
-0.238912
0.040599
-0.152282
-0.151297
0.081260
0.049863
0.182841
0.039042
0.037042
0.179072
0.078675
0.077579
0.097152
-0.092149
-0.117880
-0.069007
-0.243128
-0.129958
0.018577
-0.236605
0.015508
0.049921
-0.035243
0.059973
-0.224934
-0.016380
0.004594
-0.073128
-0.097240
-0.052474
-0.079254
-0.139677
-0.189336
0.036935
-0.074108
-0.123826
0.123324
-0.286951
-0.129185
0.084912
0.044823
-0.073004
-0.124639
-0.074050
-0.151026
-0.048610
-0.013829
-0.070970
-0.011868
0.042017
-0.017867
-0.044197
0.005706
-0.116188
0.034451
-0.102792
-0.096056
0.059138
-0.061881
-0.100599
-0.045403
-0.152067
-0.218741
-0.040287
-0.078884
-0.097465
-0.000590
-0.064088
0.038995
-0.092025
-0.157276
-0.025970
0.019400
-0.154415
0.138685
0.182577
0.172674
0.217060
0.179363
0.256538
0.258909
0.195115
0.296492
0.197662
0.093264
-0.044198
0.017635
-0.144549
0.060538
0.127246
-0.126870
0.016728
0.029627
-0.015548
0.038773
0.008153
0.003306
0.141924
-0.036260
-0.071096
-0.010486
-0.036821
-0.023685
-0.076643
-0.011338
0.079551
-0.033409
0.016160
-0.025402
0.087633
0.003084
-0.047131
-0.138624
0.013448
0.027445
-0.119940
0.045449
0.035800
-0.082604
0.190721
0.143656
0.066080
-0.083897
-0.111791
-0.066504
0.053560
0.063450
-0.169534
0.061256
0.134006
0.097528
0.091428
0.044228
0.013924
0.143355
-0.024889
-0.147931
0.024874
0.117711
-0.160977
-0.010437
-0.132925
-0.100141
-0.082812
-0.064480
-0.154936
-0.165586
-0.002200
-0.027568
-0.061057
-0.010536
-0.049995
0.037297
-0.116834
0.066617
0.024085
-0.030979
0.023001
0.043798
0.033361
0.031046
-0.022467
0.013738
0.102689
0.058407
0.037773
-0.076595
0.020811
0.073395
0.045364
0.039236
0.043073
0.064781
0.030446
0.084227
-0.092110
0.035909
-0.219553
-0.095313
-0.033767
-0.060440
-0.062362
0.011360
-0.082282
0.043293
-0.033105
-0.137978
0.057633
0.059104
0.077198
0.046808
-0.043050
-0.081233
0.179418
0.133255
0.114331
0.118205
0.029573
0.085022
0.107437
0.093707
0.155970
0.055775
0.052782
0.031717
-0.035946
-0.140190
0.053523
-0.095386
0.019652
-0.049690
0.013627
-0.012933
-0.030671
-0.234842
-0.235940
-0.104418
-0.183471
-0.291960
-0.247561
-0.006499
0.003888
0.049862
-0.019338
0.034888
0.061090
-0.042868
-0.010099
-0.085103
-0.098653
-0.014964
-0.087479
0.061026
-0.032522
0.011609
-0.088589
0.101473
0.053924
-0.048979
0.028553
0.025222
-0.037160
-0.019839
-0.081530
0.142430
-0.006378
0.014189
-0.038686
0.032188
0.100699
-0.091120
-0.025623
0.082704
-0.090462
0.022394
-0.081255
0.105573
-0.006240
-0.032992
-0.035601
-0.018931
-0.059075
-0.146841
-0.239300
-0.181181
0.192034
0.072475
0.108639
0.168157
0.175945
0.159790
0.137789
0.037789
0.105365
0.141491
0.018501
0.011959
-0.043710
-0.015985
-0.073336
-0.190158
-0.097766
-0.109222
0.059637
0.021937
-0.014147
0.073985
0.029778
-0.072090
-0.073708
-0.040062
-0.059094
0.079354
-0.058537
-0.121018
0.140889
0.020671
0.040171
-0.039884
-0.007973
0.025411
0.069831
0.105735
0.070960
-0.106730
0.071346
0.018620
0.097005
-0.010063
0.012512
0.055309
-0.052508
-0.078894
0.046415
0.113316
0.055146
0.041229
0.125730
0.066263
-0.148376
-0.127337
-0.047312
0.003666
0.009295
0.011641
0.062032
-0.070092
-0.058407
0.120658
-0.009612
-0.056685
-0.050878
-0.013448
0.063774
-0.063392
-0.073966
0.081785
0.107987
-0.014995
0.030506
0.117079
0.110960
0.086114
0.044067
0.184726
0.235130
-0.057540
-0.035457
0.005201
0.231740
0.102431
-0.027701
0.164720
0.154971
0.091503
0.045911
-0.021727
0.067826
-0.093401
-0.022897
-0.065622
-0.032299
0.072760
0.015422
-0.086397
-0.084046
-0.092440
-0.205068
-0.232121
-0.175892
-0.227662
-0.318723
-0.364259
-0.176079
-0.007239
-0.049710
-0.127203
-0.073511
-0.131082
-0.076020
-0.036192
-0.062450
-0.098431
-0.133951
-0.008144
-0.283065
-0.177863
-0.157339
-0.276571
-0.204628
-0.103683
-0.051617
-0.196736
-0.135227
-0.061785
0.067148
0.014969
0.065469
0.010359
-0.024539
0.088910
0.163516
0.148118
0.052049
0.075081
-0.032815
-0.050320
-0.098734
-0.119307
-0.079014
-0.049316
0.067182
0.101978
-0.061266
0.065570
-0.056405
0.071908
-0.001675
0.119273
0.014389
-0.013617
0.118772
0.109243
0.120260
0.052092
0.118318
0.065962
0.132831
0.076654
-0.030856
0.158552
0.046688
-0.000507
-0.074189
-0.025435
0.031931
0.048293
-0.044214
-0.114679
0.125855
0.059742
0.006914
-0.054806
-0.043300
-0.110978
0.117148
0.037424
0.022011
-0.170350
0.042339
0.117866
0.029256
0.002402
0.016905
-0.121992
-0.150134
-0.177951
0.048427
0.094155
0.074876
0.086485
0.015960
-0.048510
-0.293370
-0.218706
-0.159139
0.064729
0.000936
-0.141727
0.066652
-0.105492
-0.127508
-0.054496
0.123023
0.116468
-0.177677
-0.146869
-0.089472
-0.088315
-0.107929
-0.045359
0.151045
0.027537
-0.098090
-0.050707
0.114329
0.056859
-0.101075
0.057697
0.144308
-0.052531
-0.207140
-0.167400
0.143636
-0.035661
-0.081117
0.101843
0.061910
-0.026873
-0.007009
0.101198
-0.054714
-0.023314
0.016986
0.019206
-0.040645
-0.033946
-0.016262
-0.048098
0.019263
-0.071796
-0.030751
0.020352
0.044762
0.029229
-0.025495
0.045259
-0.032957
-0.121455
0.017897
-0.044224
-0.101988
-0.053143
-0.006653
-0.082203
-0.113788
0.082172
-0.106895
-0.088882
-0.028429
0.101082
0.118498
-0.034934
0.096873
0.137712
-0.124257
-0.203269
-0.160875
-0.012079
-0.060694
-0.120372
0.053311
0.033599
-0.097683
0.096697
0.122550
-0.169541
0.021776
0.034250
-0.024895
-0.061098
0.021753
-0.030577
0.113754
0.228841
0.029838
-0.004452
0.209044
0.091512
-0.021846
-0.070154
0.090284
-0.063223
0.100559
-0.047063
-0.113110
0.004986
0.072623
-0.054823
-0.201761
-0.035141
-0.160285
-0.085750
-0.221508
-0.015857
-0.119509
-0.087721
-0.097904
-0.027048
-0.020088
0.181906
0.157400
-0.105931
-0.161459
-0.047357
0.068521
-0.061208
-0.020616
0.066351
-0.097182
-0.037026
0.010719
-0.113753
-0.014463
0.109647
0.073448
0.076159
0.026036
-0.100355
-0.211673
-0.228559
-0.061830
-0.057728
-0.174666
-0.003235
0.016111
-0.006409
0.057691
0.129925
-0.043528
-0.179961
0.050089
-0.116770
-0.079433
-0.030410
-0.046966
0.067554
0.070774
0.081632
-0.040035
0.046546
0.055367
0.033185
0.090773
0.027169
0.101527
0.174944
0.102291
0.057759
0.051759
0.035337
-0.026901
-0.064789
0.102695
0.168919
0.111686
0.073578
-0.088236
0.218900
0.083330
-0.088667
0.027518
0.195979
0.007465
-0.155584
-0.022233
0.040984
0.095460
-0.069747
0.088883
0.194843
0.006994
-0.094033
0.025921
-0.141740
-0.055729
-0.037806
-0.003664
0.070517
0.046063
0.062106
0.053843
-0.010977
-0.046899
-0.012403
0.034323
-0.070814
-0.152490
0.020813
0.065400
0.049074
0.219876
0.215849
0.058446
-0.132393
-0.075689
-0.030522
-0.180948
-0.174944
-0.030857
0.088059
-0.055616
-0.131583
-0.037146
0.022742
-0.005160
-0.046769
0.061001
-0.152469
0.013016
-0.060921
0.020108
0.002561
-0.096939
0.014022
0.028489
-0.013896
-0.003213
-0.088894
-0.230865
-0.023046
0.113803
0.012325
-0.025833
0.061863
0.086291
-0.046586
0.019808
-0.091374
-0.148616
0.083892
0.117285
0.040480
-0.052952
-0.044570
0.058736
0.037550
0.034651
-0.009898
0.050108
0.062721
0.023812
0.025386
0.009219
0.050991
-0.022241
-0.004302
-0.080897
-0.013517
0.049210
0.023406
0.039983
0.084150
0.139686
0.064320
-0.106390
0.121655
0.080411
-0.045412
-0.023717
0.038869
0.098214
0.137607
0.064626
-0.098721
-0.044237
0.025792
0.151050
-0.011165
0.006028
0.184426
-0.222799
-0.142030
-0.183600
-0.115629
-0.200205
0.017378
-0.121519
-0.086656
0.008949
-0.127107
-0.114712
0.036896
0.001206
-0.117869
-0.036905
0.006029
0.068629
0.076946
0.009671
0.023778
-0.000385
-0.032515
-0.022623
0.169441
0.001901
-0.069957
0.003528
0.111548
0.009550
-0.028509
0.034097
-0.036764
-0.022489
-0.094818
-0.062226
0.067955
-0.122877
-0.042844
0.072000
-0.221202
-0.103840
0.099900
-0.199681
-0.072980
0.075892
0.019271
-0.131490
-0.000972
-0.024850
-0.146379
-0.019967
0.001538
-0.131390
-0.068164
-0.221939
-0.182945
0.032574
-0.145658
-0.190398
-0.029637
-0.107992
0.027135
0.139204
0.048616
0.076716
-0.090443
0.026737
0.027899
0.004203
-0.065780
-0.002944
-0.090744
-0.138895
-0.008169
0.002779
-0.031427
-0.071488
0.083035
0.008892
-0.016778
0.205909
-0.014160
-0.020829
-0.119641
0.072630
0.067249
-0.042765
-0.060163
-0.000083
-0.149476
0.092816
0.144106
0.007727
-0.018740
-0.015110
-0.028840
-0.095736
0.040727
-0.030385
-0.084229
-0.010184
0.105947
-0.147166
-0.207191
0.070222
-0.067101
-0.117306
-0.017723
-0.077994
-0.044124
0.054024
-0.043057
-0.078893
0.125548
0.004501
-0.145054
0.103910
-0.066271
-0.106782
0.029314
-0.176123
-0.183319
0.001708
-0.149050
-0.147127
-0.011831
0.204975
0.112730
-0.068797
0.117082
0.120635
-0.126225
0.129848
-0.076419
-0.167882
-0.034036
0.007857
0.211295
-0.041754
0.090549
0.170463
-0.105087
-0.055822
0.167074
0.173383
0.001187
-0.067196
0.174641
-0.044854
-0.172702
0.077730
-0.076141
-0.252736
-0.020533
0.019240
0.061766
0.055665
-0.028697
0.073733
0.056065
0.049365
-0.017552
0.096185
0.039408
-0.005702
0.105482
-0.041040
-0.005155
0.034003
0.024436
0.005786
0.098569
-0.067482
0.016772
0.086644
0.094934
-0.027654
-0.013802
0.110129
0.129594
0.003010
-0.014597
-0.165946
-0.030929
-0.142322
-0.093945
0.033399
-0.045752
-0.065695
-0.083377
-0.150973
-0.170384
-0.297363
-0.178582
-0.131014
-0.257177
-0.082114
-0.092908
0.173271
0.131113
0.133106
0.185531
0.209763
0.277728
0.120986
0.076637
0.088398
-0.031090
-0.002746
0.055299
0.084626
0.010856
0.096335
0.195459
0.130835
-0.000772
-0.124044
-0.128103
-0.129553
-0.187916
-0.094473
-0.099601
-0.266723
-0.041830
0.011332
-0.074072
-0.053450
-0.196772
0.025097
0.006443
-0.135340
-0.022195
-0.095078
-0.121794
-0.041926
0.065300
0.004516
-0.106304
-0.074959
0.053101
-0.134145
0.013046
-0.008337
0.076194
0.187753
-0.050456
0.014358
0.152060
0.121636
-0.160581
0.023335
0.032258
-0.014156
0.071967
0.050809
0.109781
0.057164
0.113635
-0.000517
-0.102726
0.008338
0.072876
0.006570
-0.011830
-0.126045
-0.002226
0.017989
-0.172700
-0.050099
-0.150493
0.136783
-0.033527
-0.049196
0.092228
0.143535
0.056839
-0.055535
0.208161
0.122181
-0.094303
-0.189497
-0.214740
0.063824
0.067111
-0.074671
-0.002218
0.170250
0.168718
-0.067119
-0.005930
-0.076090
-0.017745
0.026773
-0.046271
-0.089246
-0.094777
0.006082
0.023865
-0.042816
-0.098205
-0.053810
-0.115718
-0.205901
-0.054838
-0.039735
-0.139206
0.198904
-0.071847
-0.158347
0.131795
0.266968
-0.059222
0.011663
0.101558
-0.107729
-0.051086
-0.052661
-0.220422
0.035060
-0.017574
0.080793
-0.005946
-0.017388
0.055557
0.014901
0.146765
0.043914
-0.087627
-0.053036
-0.014970
-0.172391
-0.206436
-0.139434
-0.096749
-0.060388
-0.044207
-0.090662
0.035367
0.078897
-0.124476
-0.050881
-0.019016
0.039672
-0.029710
0.020552
0.018389
0.011636
-0.019240
-0.020102
-0.151969
-0.032244
0.075277
-0.031290
-0.197565
-0.194830
0.032339
0.000603
0.020058
0.031108
0.133733
0.056327
-0.028492
-0.043324
-0.109465
-0.047643
-0.025180
-0.124964
0.072393
0.080053
-0.002077
0.057378
-0.027977
0.032500
0.050868
0.111472
-0.100304
-0.043277
0.100178
0.087376
-0.079603
-0.067395
0.150551
0.140950
-0.098769
-0.045427
0.083286
-0.164317
-0.093585
-0.224496
-0.103034
-0.070532
-0.047914
0.064393
0.039956
0.115262
0.089166
-0.060359
-0.067028
-0.086527
-0.068011
-0.089909
0.024404
0.007482
0.134433
-0.007182
-0.057681
-0.085886
0.039629
0.017726
-0.052069
-0.020143
0.144006
0.057704
0.000570
0.016222
-0.064629
0.057368
0.116707
0.171799
0.028899
0.061431
0.134322
0.056400
-0.035284
0.080649
-0.005762
0.137980
0.059862
0.047290
0.017046
0.088539
0.017304
-0.182946
-0.027492
-0.058521
0.043299
0.036438
0.009187
0.055659
0.074239
0.124045
-0.111217
-0.170056
-0.105629
0.053154
0.025193
0.001618
0.026387
0.140115
0.008706
-0.235373
-0.163636
-0.098352
0.068766
-0.044426
0.012184
0.148092
0.095006
0.096161
0.148070
-0.115992
-0.013713
-0.126648
-0.003803
-0.058539
-0.035594
0.197144
0.191942
0.082770
-0.023726
0.037157
-0.046895
0.005296
-0.078171
-0.134115
-0.116155
-0.101057
0.023314
0.041727
0.075549
0.021331
-0.014674
0.061154
0.037878
-0.045793
-0.066464
0.141026
0.136582
-0.066049
0.088578
0.138948
0.024127
-0.206501
-0.052495
-0.067027
0.003360
-0.112721
-0.252378
0.003774
0.006726
0.127423
-0.219326
-0.064628
0.037057
0.119874
0.118381
0.100872
0.128404
0.115097
-0.015250
-0.030169
-0.100802
-0.211513
0.049646
0.086743
-0.096672
0.161627
0.152977
-0.013947
0.131078
0.078694
0.005055
0.006568
0.035081
0.098000
-0.003337
0.035468
0.069693
-0.180194
-0.099744
-0.074699
0.069818
0.090724
0.127619
0.047896
-0.059526
-0.080063
-0.061302
-0.038577
-0.134337
0.175233
-0.046276
0.031045
0.020565
0.028840
0.027821
-0.205678
-0.214102
-0.121861
-0.017072
-0.125739
-0.055758
0.005657
-0.069845
-0.010348
0.008416
-0.030049
-0.047490
0.147198
0.153273
0.104191
0.237460
0.092588
0.075697
-0.073359
-0.000931
-0.099806
-0.145811
-0.124726
-0.040694
-0.081239
-0.038143
0.000316
0.020007
0.053303
-0.026195
0.069267
-0.075077
0.016330
-0.099092
-0.035915
-0.049350
0.051268
-0.035296
0.037138
-0.097146
0.112274
0.145260
0.004101
-0.027494
0.070900
0.000298
0.005935
0.038417
0.102072
0.179219
0.008311
-0.055398
0.046287
0.006769
0.100187
-0.000595
0.071098
0.033565
0.009430
0.029912
0.098973
0.096244
-0.055389
0.069630
0.116373
-0.056593
-0.035932
-0.005321
-0.034568
0.003706
-0.143244
-0.119687
-0.216434
-0.386143
-0.201215
0.162224
0.054711
0.046722
-0.098927
-0.109114
-0.053221
0.017749
0.005611
-0.112164
-0.027691
0.015745
0.041101
0.019970
0.006515
-0.011314
-0.066043
-0.097177
-0.087346
0.095219
0.094421
-0.085348
-0.166561
-0.150679
-0.129386
-0.063406
-0.033746
-0.006407
-0.047150
-0.104882
-0.003732
-0.020853
-0.032090
-0.022919
-0.042930
0.010147
-0.060224
0.084577
0.104000
0.002243
0.077349
-0.011469
0.029051
-0.159560
-0.101756
-0.112274
0.182140
0.208824
0.142066
-0.036103
0.035017
-0.078487
-0.037907
-0.113882
-0.154992
-0.053470
0.028556
0.041711
0.021352
-0.151945
-0.012058
-0.042290
-0.037348
0.007936
-0.119808
-0.083883
0.059390
-0.035828
0.017287
-0.029294
-0.148790
-0.052825
-0.065604
-0.029117
-0.032807
0.069419
0.019148
-0.067388
-0.002386
-0.007036
-0.134288
-0.062146
0.188624
0.039636
-0.011969
0.002132
0.052722
-0.094711
-0.111510
-0.180665
-0.073791
0.011951
0.013972
0.063420
0.001919
-0.025253
0.015701
0.064164
-0.070528
0.010640
0.173555
0.149063
0.087133
0.313304
0.186567
0.113696
-0.080735
-0.090106
0.026399
0.027047
0.043595
0.145172
0.126798
-0.015688
0.060519
0.016744
-0.040455
0.001349
0.069772
0.009114
0.015220
0.188026
0.161185
0.072272
0.219408
-0.015871
0.042111
-0.056955
0.217563
-0.050490
0.115348
0.179654
-0.013877
0.005513
0.001609
-0.101063
0.128958
0.050100
0.038685
-0.087055
-0.085185
-0.114222
0.180437
0.098214
-0.045339
-0.022677
-0.060255
0.012198
-0.047344
-0.095164
-0.175093
-0.022249
-0.130790
-0.237329
0.135653
0.147092
0.073773
0.041914
0.122637
-0.061126
-0.098106
-0.147768
-0.304893
0.106591
0.010688
0.024777
0.138356
0.210108
0.034311
0.066071
-0.058892
0.029615
0.117603
0.131774
0.013075
0.086881
0.054376
0.072366
-0.127748
-0.094452
-0.074729
0.105436
0.101394
0.141994
0.033492
-0.103505
-0.052852
0.060869
-0.060991
-0.000839
-0.054073
-0.037736
0.046940
0.074853
0.017890
-0.041496
0.166306
0.028797
-0.096886
0.049456
-0.018323
-0.018623
0.017270
0.081087
-0.047918
0.004581
0.043467
0.050189
-0.031540
-0.117504
-0.026788
-0.110145
-0.308431
-0.135605
0.006818
-0.131759
-0.160758
0.128572
-0.117020
-0.153238
0.192471
-0.042120
-0.124535
0.214745
0.054389
-0.140335
-0.068827
-0.006643
0.010617
-0.206222
0.029465
0.189816
-0.132126
-0.015925
0.121011
-0.070438
-0.063612
0.035475
0.010248
-0.052397
0.011565
-0.075011
0.060314
0.052261
-0.044718
-0.080752
-0.036193
-0.014633
-0.077486
-0.062123
0.007144
-0.139619
-0.094440
-0.146864
0.019587
0.087370
-0.148189
-0.060599
0.034739
-0.144430
-0.047811
0.079721
0.032073
-0.077910
-0.077137
-0.079352
-0.011768
0.000525
-0.081174
0.093988
0.096150
0.014939
0.024359
0.048238
-0.004868
-0.001582
-0.034964
0.002023
-0.024930
-0.017506
0.062687
-0.025915
-0.185126
-0.091291
-0.145036
-0.222958
0.060583
-0.154883
-0.184891
0.179163
0.041416
0.095575
-0.020179
0.002478
-0.002979
-0.004099
-0.022930
0.053476
-0.054241
-0.068963
0.024194
-0.027746
-0.097410
-0.030296
-0.129408
-0.120277
-0.117380
0.023141
-0.027253
-0.075133
0.041626
-0.020332
-0.038219
0.099796
-0.080252
0.059481
0.052205
0.055842
-0.029013
-0.043145
-0.039110
-0.067511
-0.037911
-0.053162
-0.048338
-0.044497
0.031048
0.068083
0.026116
0.090004
0.025273
-0.063467
0.051462
-0.034151
0.124567
0.155451
0.070689
0.070220
0.318039
0.152818
-0.016430
0.000465
0.095514
0.027523
0.057019
0.037970
-0.055644
0.058700
-0.025568
-0.150281
-0.048492
0.091966
-0.016176
0.011104
-0.135233
-0.062268
0.123299
0.075901
-0.109747
0.017894
0.002047
0.148393
0.071695
0.061564
0.028689
0.091623
0.185690
-0.051460
-0.112634
0.130024
0.053388
0.003258
0.052974
0.063670
-0.080481
0.074366
0.109038
-0.063212
0.030709
0.059040
-0.057028
-0.098744
-0.024443
-0.004112
-0.160026
-0.035264
-0.058008
-0.077469
-0.123216
-0.037872
0.044001
-0.135271
0.087186
0.167022
-0.099760
-0.069567
0.023052
0.034687
-0.001457
0.027965
-0.009378
0.096195
0.077685
-0.030044
-0.044234
0.074716
0.075507
0.117284
0.109854
0.067530
0.036505
0.234217
-0.084277
0.000690
0.165213
0.104901
0.076824
0.076068
0.056165
0.183206
0.134060
-0.086700
0.078107
0.261180
-0.016383
-0.126527
-0.066475
0.147776
-0.044491
-0.141301
0.191093
0.002924
-0.194131
0.137229
0.047529
-0.061065
0.106490
0.094782
-0.023396
0.109398
-0.011250
-0.079767
-0.100067
-0.261467
-0.125607
-0.103169
-0.104311
-0.216777
0.019027
-0.044050
-0.060324
-0.090125
-0.253824
-0.133653
-0.083123
-0.248931
-0.155215
0.058941
-0.013331
-0.043968
-0.079518
0.039048
0.137345
-0.280514
0.099131
0.252250
-0.214060
-0.235485
-0.004290
-0.029322
0.067918
0.113136
-0.100760
0.031984
-0.004496
0.035855
-0.038237
-0.094103
0.157335
-0.096293
-0.220531
0.087238
-0.017342
-0.206844
0.180719
0.103885
0.031949
0.211490
0.069649
0.073789
-0.137769
-0.030733
0.037449
-0.060025
-0.004801
0.063284
0.121204
-0.126687
-0.060364
0.024318
-0.145670
-0.084754
0.033457
0.009490
0.066527
0.037751
-0.182662
0.097188
0.034965
-0.168332
-0.015696
0.032380
-0.095924
-0.011585
0.034862
-0.198499
-0.101715
-0.042057
-0.252834
-0.188143
0.033892
-0.264881
-0.126369
-0.022342
-0.115426
0.122987
-0.040002
-0.133495
0.012258
0.078147
-0.080996
-0.004698
0.086997
-0.068872
0.026986
0.091687
-0.180565
-0.004396
-0.044568
-0.111768
-0.083661
-0.053478
0.086324
-0.056318
-0.079673
-0.024378
-0.093745
-0.062380
0.105157
-0.062575
0.004839
-0.020553
0.061134
-0.038980
-0.034126
-0.037366
-0.050870
-0.019586
0.029325
0.197755
0.075719
0.151973
-0.128982
-0.090168
-0.079558
-0.109946
-0.031345
-0.093511
0.097316
-0.020202
0.019501
0.191715
0.024459
0.072444
0.123948
0.067860
0.012043
0.041826
-0.064129
0.029083
-0.087674
-0.031483
-0.043431
-0.049165
0.050881
0.050089
0.115329
-0.148402
0.046070
-0.052471
-0.042732
-0.056608
-0.014020
0.060133
0.125689
0.001757
-0.165980
0.025776
-0.043327
-0.153057
-0.017939
-0.055736
-0.136985
-0.043673
-0.022525
-0.030741
0.077682
-0.082935
0.026749
-0.017318
-0.155713
0.083657
0.029445
0.032238
-0.100182
-0.047150
-0.116900
-0.108927
-0.258632
-0.011874
0.047643
-0.098081
-0.106563
0.066712
-0.124028
-0.225715
0.028388
-0.146232
-0.032556
-0.135998
0.031925
-0.061868
0.001435
-0.067039
-0.157079
0.030178
-0.029858
-0.186655
0.052703
-0.018156
0.032651
0.114846
0.051391
-0.082868
-0.108372
0.084969
-0.157191
-0.155548
-0.014236
-0.092981
0.062109
-0.127405
-0.080880
0.256806
-0.008428
0.000402
0.223823
0.140127
-0.040248
0.010766
0.093335
0.039829
-0.008003
0.035704
-0.031120
-0.062218
-0.017566
0.010674
-0.088551
0.069448
-0.017287
-0.112447
-0.047202
0.005909
-0.139523
-0.050603
0.036180
-0.081849
-0.084861
-0.054778
-0.159628
-0.068674
0.007169
-0.080808
-0.036973
0.036207
-0.098172
-0.052910
-0.152684
-0.077147
0.033870
-0.034282
0.009859
-0.078029
0.055911
0.058433
-0.019482
-0.036181
-0.003576
-0.140740
0.054382
-0.083509
-0.009541
0.074940
0.121999
0.025190
0.072796
-0.089080
0.005459
0.046776
-0.125062
-0.117440
-0.005131
-0.024418
0.099212
-0.024977
-0.115341
-0.012177
-0.127736
0.023880
-0.096583
-0.028999
0.221569
0.215580
0.026338
0.299500
0.114588
-0.199316
0.078127
0.260259
0.018942
-0.097179
0.044824
0.117025
0.062536
0.078147
0.221582
0.059697
0.191095
0.117925
-0.086322
0.055410
-0.101487
-0.115625
0.019992
0.050791
-0.015052
-0.021459
-0.101462
-0.005076
-0.041461
-0.089945
-0.025981
-0.033230
-0.058750
0.005709
0.036134
-0.068193
0.135533
0.046284
0.002338
0.118015
0.112192
-0.146583
-0.093518
0.158170
-0.026169
-0.158875
0.006376
-0.075219
-0.093529
0.022521
0.044492
-0.035174
0.042452
-0.079238
0.011262
0.152837
0.155117
0.075685
0.087508
-0.078910
-0.016692
-0.082167
-0.047503
-0.067652
0.101884
0.020289
0.085000
0.165380
0.003164
0.083959
0.045602
-0.056860
0.036237
-0.028724
0.015909
-0.017379
-0.169726
-0.021617
-0.020417
-0.077600
-0.053729
0.048969
0.068087
0.188036
-0.003559
-0.103164
0.130467
-0.011373
0.038196
0.062569
0.181529
-0.004568
0.076216
0.077313
-0.093571
0.042110
-0.011552
0.101328
-0.049624
0.074601
-0.033217
0.116905
0.008314
-0.022588
-0.086296
-0.024453
0.074709
0.124117
0.039860
0.158902
0.160368
0.049655
-0.029061
0.006601
-0.004369
0.028962
-0.076285
-0.078944
-0.137029
-0.058910
-0.040582
0.071956
-0.031374
-0.031313
-0.078774
0.045499
0.145534
0.146117
0.158491
0.126077
0.011312
0.055641
0.172122
0.075733
-0.001347
0.042511
-0.035835
-0.058154
0.081486
0.034128
-0.063578
-0.010860
0.038961
0.056745
0.101833
0.074988
0.047166
0.066729
0.015154
-0.123102
0.074851
0.071871
-0.055652
0.023940
-0.110895
0.041738
-0.061677
0.075081
-0.059832
0.005177
0.103939
-0.041310
-0.106622
0.048402
0.074630
0.131833
0.045024
0.001350
-0.029652
-0.021011
-0.111011
0.061273
0.031538
0.205182
-0.077741
-0.201094
0.027595
0.027030
-0.148992
0.103668
0.333325
0.176599
0.135097
0.000941
0.064283
-0.151371
0.005290
-0.080069
-0.085025
-0.210410
-0.183651
-0.368037
-0.132793
-0.015393
-0.145051
-0.042406
0.054185
0.033729
-0.035959
-0.037118
-0.061230
-0.089111
0.018418
-0.166886
-0.182691
-0.168028
-0.050969
-0.000046
-0.123053
0.002589
-0.046393
0.017110
0.064113
-0.053961
-0.029605
-0.040665
-0.174037
0.016383
-0.079634
-0.074834
-0.044738
-0.134189
-0.183168
-0.134429
-0.197869
-0.072951
-0.004000
-0.056697
0.084844
-0.002958
0.094022
0.043807
-0.038322
-0.102374
-0.157573
-0.070388
0.008041
-0.218220
-0.101404
-0.122875
-0.096032
0.084175
-0.128134
-0.032998
-0.032015
0.011093
-0.065012
-0.035919
0.101970
0.086504
0.079491
-0.015417
0.014544
-0.007559
0.060525
-0.025284
-0.081568
0.053164
0.002239
-0.167422
0.084906
-0.123853
-0.033115
-0.119528
0.037958
0.045163
0.082149
0.005001
-0.023424
-0.232448
-0.123829
-0.060807
0.058556
-0.025961
-0.222131
0.010538
-0.202841
-0.084692
-0.006868
-0.003835
0.057497
0.026837
0.025798
-0.033979
-0.068929
0.105074
0.048408
-0.030455
0.097597
-0.020767
0.121063
-0.080525
-0.164830
-0.184021
-0.128553
-0.091732
-0.229090
-0.213765
-0.001161
0.058318
0.053755
0.191052
0.053273
-0.015469
0.108123
0.037427
0.003772
-0.091039
0.223617
0.172482
0.034183
0.144999
0.157500
0.021930
-0.027093
0.027282
0.031392
-0.010358
-0.167083
0.012216
-0.140996
0.022345
0.065719
-0.135903
0.032632
0.072726
0.064674
0.038982
-0.000122
0.006749
-0.179026
-0.085010
0.073647
-0.012934
-0.086529
-0.018039
-0.087427
-0.066574
0.008254
-0.036036
-0.034916
0.109089
0.093364
0.057014
0.048769
0.111242
0.063252
0.027534
0.015533
-0.019976
0.038471
0.010805
-0.004233
0.120659
0.062381
-0.041387
0.005793
0.009280
-0.111045
-0.165331
-0.255902
-0.101749
-0.154766
-0.337741
-0.148393
-0.295862
-0.224146
0.009781
0.101473
0.054352
0.206007
-0.150119
-0.284863
-0.126971
-0.118838
-0.217033
-0.246531
0.031528
-0.001856
0.013933
-0.124376
0.052414
-0.056189
-0.073255
-0.112375
0.020175
-0.051484
-0.121861
-0.084734
-0.022592
-0.106934
-0.163719
-0.131312
-0.143014
-0.120160
-0.039459
0.034589
0.003165
0.015483
0.034322
-0.094027
0.038716
-0.015065
-0.031159
-0.027434
0.095894
0.064371
-0.013277
-0.052984
0.053008
-0.045625
-0.023290
-0.020508
-0.049919
0.059142
0.022102
-0.194427
-0.212827
-0.052181
-0.067032
-0.102225
-0.035002
0.073104
-0.052120
0.017037
-0.103148
-0.079037
-0.175803
0.050662
0.054488
-0.004483
-0.051278
-0.026583
-0.159589
-0.019467
-0.003795
-0.178605
-0.042337
-0.040972
-0.016362
-0.053694
0.002538
0.022021
0.050956
-0.065719
-0.005916
-0.042094
0.003402
0.007862
0.122436
0.039486
0.066656
-0.167567
-0.186708
-0.118084
-0.135502
-0.219082
-0.084851
0.068986
0.202290
-0.020689
0.020443
-0.001874
0.018464
-0.045607
0.082870
-0.053463
0.211362
0.228469
0.043473
-0.013937
0.029544
-0.027246
-0.019304
-0.135618
-0.106696
-0.113307
-0.205876
0.001762
-0.113955
-0.152722
-0.019336
0.021180
0.084859
0.045947
-0.060491
0.018330
-0.027716
-0.041735
-0.028004
0.006319
0.009898
-0.014507
0.059143
-0.197132
-0.021297
-0.143651
-0.094711
-0.010493
0.030536
-0.037459
0.019184
0.023628
-0.122343
-0.052069
-0.073267
-0.038993
0.091907
-0.055997
-0.013576
-0.004424
-0.149955
0.059956
-0.106718
-0.052563
-0.068794
-0.134028
0.005823
-0.082588
-0.050384
0.007910
-0.069767
-0.087852
-0.073346
-0.074874
-0.117542
-0.008360
-0.151639
-0.156364
-0.093695
0.089680
-0.035480
-0.017045
-0.032978
-0.114431
-0.130492
-0.010610
-0.124293
0.050308
0.061254
0.087231
0.068387
0.064845
-0.032895
-0.068184
-0.034620
0.011630
-0.091972
-0.001761
0.105141
-0.002845
0.043993
-0.067638
-0.178164
-0.001582
-0.038373
-0.242303
0.216039
0.080042
-0.047842
-0.166287
-0.105653
-0.173023
-0.146891
-0.098333
-0.125904
-0.011250
-0.137257
0.109302
-0.013663
-0.020887
0.180810
0.102957
0.139473
0.207153
-0.105915
-0.037079
0.007050
0.096869
0.070601
0.051379
0.056698
0.061348
0.014723
0.178804
0.105090
0.086717
0.125205
0.156045
0.013222
0.106879
0.038219
0.025189
0.236144
0.095518
-0.038786
0.011243
-0.199586
-0.144960
-0.058805
-0.156960
-0.151074
-0.012187
0.098906
0.123223
0.053083
-0.006541
0.018420
0.115492
0.031293
-0.139007
-0.052848
-0.078987
0.056441
-0.101204
-0.092817
0.002420
-0.083814
-0.022393
0.099257
-0.196214
-0.271630
-0.142242
-0.087652
-0.069946
0.064846
-0.023979
-0.113964
0.088535
0.088563
-0.090449
0.106794
0.089960
-0.130120
0.141133
0.039125
-0.059474
0.080631
0.104786
-0.078224
0.079288
0.126591
0.086129
0.060198
-0.162105
-0.166203
0.124413
0.010761
0.009386
-0.017331
0.003840
-0.038648
0.004797
0.024643
0.037363
-0.005433
-0.023268
-0.065435
-0.060657
-0.054350
-0.053600
-0.046178
-0.033278
0.044407
-0.065041
0.091944
0.030208
-0.003043
-0.025351
-0.107978
-0.013354
-0.038680
-0.107398
0.004778
0.051138
-0.146244
-0.089262
0.000708
-0.118813
-0.039893
-0.209366
-0.064696
-0.051443
-0.071242
-0.075299
-0.019910
-0.274727
-0.226422
-0.184345
-0.027271
0.004690
-0.110457
0.152135
-0.050036
0.023226
-0.003504
-0.026483
-0.000712
-0.062102
-0.151882
-0.054147
-0.165485
-0.173258
-0.180615
0.009133
-0.108885
-0.065346
0.093227
0.028646
0.036759
0.254854
0.140179
0.071301
0.183489
0.128331
0.220959
0.051247
-0.003550
0.138800
0.032998
0.066779
-0.088365
0.013808
0.118346
0.078920
-0.047426
0.086734
0.137319
-0.055282
-0.180315
-0.043248
-0.004539
-0.094134
0.000306
-0.121966
-0.022044
-0.046420
-0.041422
-0.011182
-0.064910
-0.037795
0.096522
0.037630
0.032715
-0.111401
0.008695
0.042123
0.111185
0.035472
0.062688
0.036961
0.140952
-0.013257
0.062633
0.100073
-0.002976
-0.022520
0.015963
-0.000477
0.183781
0.094100
-0.119159
-0.095483
0.038226
0.043205
0.124894
0.034358
0.178031
0.054006
0.085039
0.009236
-0.056248
-0.011792
-0.147475
-0.141965
-0.005258
-0.102070
-0.121659
-0.076913
0.061382
0.056392
0.016399
-0.159616
-0.099726
0.019963
-0.205688
-0.113594
-0.038699
-0.074612
0.044351
0.017751
-0.182895
0.088724
-0.067636
-0.001989
0.031107
0.061358
-0.050045
-0.001779
-0.096942
-0.116828
-0.104440
-0.047183
-0.038206
0.026558
0.098189
0.057080
0.143459
0.003529
-0.059719
-0.067727
-0.033137
0.006134
0.024697
0.028622
-0.023399
-0.142544
-0.001167
-0.062756
-0.018761
0.047133
-0.140560
0.010824
0.109180
-0.024483
0.006291
0.041501
-0.076397
-0.037656
-0.096445
-0.038168
-0.069279
-0.162473
-0.020287
0.072931
0.054814
-0.032127
0.108920
0.054650
0.061834
0.042807
0.008408
0.188107
0.048979
0.031476
0.097777
0.115925
0.065040
0.097112
0.087910
0.066680
-0.112492
-0.107208
-0.042855
-0.101518
0.033456
-0.012808
-0.130498
0.015336
0.041103
-0.023068
0.089998
0.037547
-0.148831
0.065251
0.036254
0.091572
0.160872
0.090889
-0.191670
0.004725
0.024495
0.144493
-0.065641
0.059793
0.136644
0.020081
0.209748
0.046460
-0.371736
0.036196
0.141794
0.091551
0.014308
0.105671
0.136862
-0.010644
0.061343
-0.061538
0.094112
0.082447
0.097659
-0.008013
-0.022200
-0.022650
-0.131139
-0.267265
-0.145843
-0.235362
-0.189668
0.041473
-0.020536
0.026305
0.043403
-0.036603
-0.055223
0.016150
0.055521
-0.116494
0.010262
0.095052
-0.018314
0.013258
-0.073793
-0.071704
0.043270
0.010725
0.020517
-0.213774
0.130164
-0.230512
0.070523
0.313520
-0.023042
0.249242
0.072822
0.023484
-0.159143
-0.089142
-0.117757
0.055252
0.096013
-0.200512
0.037784
0.004402
0.083947
-0.103870
-0.015663
-0.089843
0.010847
-0.026774
0.057049
0.029748
-0.075543
0.083918
-0.047881
-0.163003
-0.048781
-0.084985
-0.108901
0.007497
-0.098484
-0.090606
-0.159369
-0.172925
-0.005811
-0.091226
-0.040264
-0.009683
0.086194
-0.027819
-0.043486
-0.016785
-0.067365
-0.015555
-0.161993
-0.048147
-0.105521
-0.041935
-0.056289
0.021104
-0.027471
0.083101
0.128056
-0.125139
0.039033
0.044544
-0.066279
-0.062384
-0.074946
-0.075899
-0.104464
-0.059397
-0.109687
-0.117629
0.055938
-0.077452
0.041695
0.041048
-0.029248
-0.039230
-0.034022
-0.046707
0.006124
-0.008292
0.022575
0.074343
0.001259
0.100931
0.001402
0.007654
-0.098064
-0.177982
-0.055535
-0.114481
-0.123401
-0.133553
-0.184580
-0.085516
-0.005200
0.004914
-0.013099
-0.024246
0.088529
-0.055895
-0.037026
-0.099663
-0.032312
-0.161115
0.068328
-0.074297
0.024208
-0.096416
-0.140889
0.060133
0.002398
-0.183298
-0.023994
-0.029303
-0.050282
0.018815
-0.004455
0.026767
-0.032795
-0.002424
0.013424
0.039959
