0.213021
0.064013
-0.209933
0.022310
-0.120802
-0.000706
-0.138962
0.008954
0.207078
0.036279
0.095387
-0.127799
0.015168
-0.010326
-0.053328
-0.128408
-0.060194
0.145024
0.017515
0.052862
-0.199331
0.069786
0.036892
0.112650
-0.120326
-0.106560
0.184925
0.160808
-0.129396
-0.022444
0.063348
-0.024865
0.141556
-0.082823
-0.064954
0.063629
0.118709
-0.179136
0.051239
-0.062639
-0.276474
0.168027
-0.025310
0.034851
0.056849
-0.020781
-0.194750
0.091749
0.127581
-0.249353
0.140758
-0.058778
0.000544
0.132015
0.095290
-0.088813
0.122874
-0.023146
-0.161765
-0.145808
-0.178968
-0.146107
-0.050338
0.034414
0.080482
-0.044273
-0.030079
0.016418
-0.004789
0.106257
0.128033
0.045393
-0.174371
0.112011
0.007055
-0.024533
0.013259
-0.123621
0.082676
0.156904
0.106455
-0.009244
0.006260
-0.118329
-0.246137
-0.211177
-0.036808
0.162767
0.131096
0.033968
0.157259
0.134138
0.116038
0.084563
0.103500
0.107936
-0.069972
-0.065791
0.063247
0.120360
-0.044148
0.030590
-0.227200
0.025222
-0.163551
0.051386
-0.059670
-0.057326
0.065544
-0.113489
-0.034481
0.263857
0.139940
0.148479
-0.001749
-0.192846
-0.211221
-0.073312
0.055132
0.031422
0.028978
0.184643
-0.024607
-0.111478
-0.100208
-0.144446
0.027134
-0.119744
0.033514
-0.079596
0.076682
0.142980
-0.031026
-0.053454
0.097059
-0.133414
-0.028499
0.063958
0.046806
-0.129376
-0.037763
0.053344
-0.000711
-0.099013
0.072973
0.101827
0.127483
0.208266
0.146470
-0.069836
0.151283
-0.120799
0.016548
-0.063916
0.191393
-0.017974
0.033014
-0.054008
-0.018296
0.095911
-0.194780
-0.117014
0.172529
0.148202
0.143337
0.115658
0.096706
0.154099
0.083077
0.088587
-0.071801
0.069130
-0.047313
-0.069185
0.065391
-0.142754
-0.134063
-0.077955
0.077273
0.068935
-0.143074
0.034835
0.001224
-0.209870
-0.094634
-0.074488
-0.156699
-0.025483
-0.145310
0.126910
0.172765
-0.021293
-0.154809
0.028789
0.158703
0.056689
-0.013298
-0.086011
0.007798
0.108247
-0.117827
-0.159041
-0.117812
0.160364
0.009947
-0.196019
-0.035286
-0.139049
0.077087
-0.172578
-0.010293
0.055529
0.163304
0.155171
-0.110798
0.168524
-0.030417
-0.175567
-0.044264
-0.051378
-0.022327
-0.039819
0.093466
0.244886
0.115424
-0.151088
-0.000521
0.060469
0.045837
-0.124530
0.013701
-0.116995
-0.031639
0.091519
0.170385
0.237418
-0.005228
0.123773
0.109776
-0.050936
-0.096521
-0.161181
-0.191788
-0.035156
-0.118176
0.024530
0.131262
-0.092047
0.102174
-0.008695
-0.159373
0.153243
0.056819
-0.100327
0.007553
0.173356
-0.239689
0.132823
0.121688
-0.233322
0.103240
0.072899
-0.158722
0.124499
0.036878
-0.177344
0.075901
0.051623
-0.008687
-0.040117
-0.082860
0.165715
0.004119
-0.110218
0.088242
0.118552
-0.134215
-0.028317
0.046457
-0.097255
0.127344
-0.086971
0.037856
0.145221
-0.170229
-0.180714
-0.089429
-0.212447
0.041064
-0.120586
-0.092158
0.109367
0.076456
-0.021599
0.018994
0.089677
-0.133551
-0.176880
0.028504
-0.105207
0.021018
0.137379
-0.063325
-0.038815
0.115996
-0.117521
0.092520
0.071212
0.127081
-0.111149
0.217499
0.011220
0.235196
0.196126
0.059094
-0.192511
0.064852
0.087437
-0.188886
0.017227
-0.096159
0.099729
0.060030
-0.172528
0.230964
0.166279
-0.045784
-0.210161
-0.051547
-0.161038
-0.067020
-0.199178
-0.032210
0.141478
0.077757
0.020646
-0.167343
0.092598
0.104268
-0.071203
-0.030577
0.037511
0.018385
0.053552
-0.119435
0.055666
0.119344
-0.049892
0.002107
-0.018638
0.075508
-0.164135
0.124645
-0.010380
0.014803
0.108079
-0.224478
-0.017874
0.215906
-0.058522
0.166635
0.134537
0.116828
-0.252721
-0.118458
-0.192593
-0.013902
0.165737
0.014475
0.016209
0.156538
-0.022368
-0.116006
-0.030686
-0.056566
0.027078
-0.010496
0.017272
-0.140516
0.216132
-0.071232
0.063653
-0.124799
-0.138948
-0.059249
-0.050433
0.238864
-0.067893
0.039408
0.083764
0.214966
-0.013394
-0.144289
-0.063963
-0.146339
0.123929
-0.007785
0.075183
-0.092971
0.243682
-0.019034
-0.160531
-0.104097
-0.146300
0.159525
-0.094563
-0.012607
0.116376
0.125673
-0.179488
-0.011791
-0.090835
0.067088
-0.001524
0.024932
-0.153504
0.142301
0.172619
-0.281498
0.098873
0.108980
0.164188
-0.124707
-0.132032
-0.056309
0.156656
0.138200
-0.156279
-0.084935
0.063436
0.078019
-0.128993
0.051339
0.078531
-0.047442
0.231876
0.125369
0.156486
0.240485
0.176593
0.018658
-0.094633
-0.096296
-0.151480
0.014731
-0.010345
-0.079669
-0.072188
0.025741
-0.186864
0.077671
-0.166739
0.023598
0.187642
-0.132852
-0.197009
0.235809
0.097033
0.066444
-0.048449
0.103278
0.089075
0.090888
0.276634
0.177251
0.032516
-0.011045
-0.022699
0.008964
0.079601
-0.104744
-0.025826
0.116038
0.223427
-0.193112
0.167827
-0.013904
-0.004591
0.036370
-0.020522
-0.073467
0.046627
0.067044
-0.222537
0.137941
0.168997
0.114187
0.000353
-0.088360
-0.085712
0.106341
0.117840
-0.012646
-0.021442
0.059782
0.169691
0.009504
-0.160468
0.094709
-0.057114
-0.126641
0.217939
0.026817
-0.118599
-0.040630
-0.178277
-0.042749
0.161472
-0.105792
-0.233821
0.187963
-0.050795
-0.022370
-0.144267
-0.086572
0.096021
-0.241223
-0.348144
-0.076122
0.020231
-0.029214
-0.113427
-0.115498
0.020782
-0.049706
-0.173137
-0.077693
-0.068142
0.032972
-0.175012
-0.183205
0.119783
0.107783
0.026235
-0.037798
-0.047428
0.188496
-0.059222
0.007698
-0.012610
-0.146616
-0.101475
-0.078444
0.100489
-0.106981
0.103241
-0.072226
0.013150
0.153818
0.086121
-0.024556
0.145090
-0.148949
-0.074071
0.020476
-0.068010
-0.127777
0.126374
-0.041745
-0.034463
0.112620
0.114694
0.152471
0.274862
-0.186000
-0.129380
0.189139
-0.019244
-0.118242
-0.019936
-0.112720
-0.321125
-0.097733
0.024449
-0.066940
0.052170
0.062250
-0.016317
0.020361
-0.009874
-0.018396
0.039030
0.085196
0.128398
0.248181
-0.049921
-0.113973
-0.128972
-0.074854
-0.219557
-0.129010
0.167638
-0.134497
0.153241
0.015996
-0.216865
-0.138992
-0.001351
-0.134623
0.010170
0.224781
0.232107
0.208003
0.012802
0.015358
-0.128470
0.032682
-0.054109
-0.085606
0.166621
0.141114
0.143047
-0.038092
-0.110085
0.004500
-0.071365
-0.109611
-0.195052
-0.018025
-0.007252
0.143338
-0.134191
-0.172386
-0.100392
0.119599
-0.099086
-0.093504
0.125835
0.140710
0.212323
-0.111038
-0.140370
-0.138141
-0.012067
0.081034
0.057204
0.172004
0.016017
0.115065
-0.176284
-0.125806
-0.099494
0.035005
0.051976
-0.054220
0.189716
0.150050
0.044389
0.124426
0.179737
0.212780
-0.243731
-0.097715
0.046302
-0.120677
-0.025988
0.040397
-0.082632
0.152427
0.206988
-0.156840
0.021661
-0.076775
-0.036173
-0.026878
-0.036663
0.128523
-0.111739
-0.085549
0.000611
-0.034124
-0.186283
0.227530
-0.057156
0.055941
0.025123
0.035192
-0.117072
0.080898
0.039560
-0.173920
-0.033718
0.061484
-0.164515
0.123254
-0.119908
-0.042664
-0.133429
-0.071541
-0.137327
-0.147373
0.104487
-0.118075
-0.137989
0.107158
0.163033
0.072246
0.136806
0.169361
-0.151770
0.200839
0.180081
0.068959
-0.108405
0.062548
0.159019
-0.053659
-0.081637
0.133914
-0.153941
-0.012782
0.178175
0.008185
-0.053238
0.125340
-0.102026
-0.078246
0.180835
-0.175332
-0.092239
0.183599
-0.089143
-0.099643
0.206522
-0.092848
-0.088373
0.125646
0.004870
-0.167874
-0.029502
-0.159081
0.114518
0.083544
-0.175463
0.122937
0.007040
-0.064087
0.025971
-0.097087
0.001331
0.106063
-0.119766
-0.072645
0.138362
-0.119551
0.016371
0.200345
-0.030756
-0.080958
0.068676
-0.130681
-0.089374
0.225658
-0.129148
-0.117431
0.202081
0.136756
-0.022363
-0.124364
-0.005533
-0.120596
0.090539
-0.081379
0.030623
0.057511
0.161012
-0.191043
-0.049944
-0.190550
-0.220955
0.145082
0.016222
0.198315
0.047824
-0.044314
0.002619
0.003376
-0.233226
-0.098135
0.057720
0.017215
0.243846
0.053884
-0.118514
0.016572
0.150243
-0.003028
-0.030074
-0.081461
0.137768
-0.061798
-0.190520
-0.021752
0.156608
0.112029
-0.091038
0.142229
0.044435
0.145838
0.068027
-0.117659
-0.208273
-0.054293
-0.022169
0.022885
-0.110804
-0.141237
0.198970
-0.089593
-0.250958
0.040582
0.133303
-0.111802
0.172901
-0.048809
-0.048210
0.254789
0.109795
-0.135092
-0.071417
-0.236009
-0.037005
-0.083801
-0.141612
-0.054542
-0.036244
-0.193969
-0.162673
0.114718
-0.074690
0.199848
0.099413
-0.071699
0.098549
-0.099228
-0.092230
0.109532
0.124638
-0.127442
0.050120
-0.181053
-0.057004
-0.168969
-0.128779
-0.067493
0.005264
0.083280
-0.194062
-0.126484
0.022261
0.051997
0.007241
-0.124353
0.104802
-0.005367
0.023900
0.102062
-0.157512
0.187585
0.252433
-0.059105
0.185094
0.054226
0.185581
