-0.125330
-0.065018
-0.030508
-0.022717
-0.036149
0.058646
0.022920
0.076827
-0.080139
0.037599
-0.033814
0.105781
-0.050826
0.035398
-0.075414
-0.092062
-0.093968
-0.089442
-0.124009
0.071818
-0.006164
-0.013573
-0.070236
0.048916
-0.047910
-0.043322
0.000873
-0.133212
-0.332193
-0.153887
-0.128162
-0.349319
-0.363507
-0.227423
-0.301163
-0.272123
0.062481
-0.091251
-0.284987
0.066912
-0.198858
-0.178671
0.075318
-0.046708
-0.051827
0.577541
0.232941
-0.123301
0.479880
0.348907
0.235872
0.594351
0.422691
0.083010
-0.036726
-0.086398
-0.062475
-0.417957
-0.122548
-0.341331
-0.120261
-0.269577
-0.140254
0.037853
0.279908
0.120668
-0.355762
0.030199
-0.130395
-0.126338
-0.045745
0.063424
0.296584
0.472659
0.353788
-0.063811
0.043005
0.031320
-0.220177
0.082862
0.124445
-0.233050
-0.274141
-0.263719
-0.073405
-0.317552
-0.360701
-0.155694
-0.206656
-0.055188
-0.148042
-0.294106
-0.331197
0.055891
-0.054221
-0.096587
0.126100
0.030382
-0.035908
0.172327
-0.013255
-0.293340
0.490590
0.374331
0.021300
0.427532
0.321695
0.355226
0.284950
0.230454
0.589065
-0.142040
0.413884
0.782975
-0.174474
0.167159
0.778846
0.007955
0.085968
0.238137
-0.396140
-0.002150
0.307012
-0.298550
-0.280827
0.208269
-0.255955
-0.630951
-0.347699
-0.496716
-0.774621
-0.420073
-0.361467
-0.819566
-0.183648
0.041116
0.110300
-0.074756
-0.563913
-0.330589
-0.196446
-0.605482
-0.541909
-0.126672
0.706314
0.746855
0.302922
-0.128869
0.315583
0.611827
0.038522
0.226651
0.625318
0.185057
0.032637
-0.130107
-0.487092
-0.180955
-0.170108
-0.383773
-0.378334
0.085065
0.421345
0.250428
0.390322
0.234885
0.444961
0.446304
-0.142521
0.053293
0.084777
-0.313783
-0.320703
-0.155414
-0.254531
-0.265036
-0.361466
-0.142897
-0.219091
-0.226960
-0.175385
-0.116467
-0.187617
0.008987
-0.186483
-0.168542
-0.068554
-0.237252
-0.263000
-0.190743
-0.470427
-0.410574
-0.395485
-0.481265
-0.707610
-0.286195
-0.447653
-0.626194
0.287770
-0.103208
-0.202172
-0.064385
-0.205609
-0.352157
0.236162
-0.082640
-0.243210
0.986495
0.727380
0.290260
0.720211
0.370905
0.125256
0.708687
0.260287
-0.028290
0.551300
0.311738
0.462733
0.583625
0.380487
0.142115
0.204192
0.039289
-0.175576
-0.040082
-0.355765
-0.141880
-0.104930
-0.367138
-0.310612
-0.266529
-0.484068
-0.366544
-0.103051
-0.164384
-0.317477
-0.162398
-0.373220
-0.143140
-0.143601
-0.361486
-0.293360
0.271061
0.057846
-0.261823
-0.288608
-0.230952
-0.065362
-0.018463
0.049650
0.252052
0.217629
0.056996
-0.226061
-0.140851
-0.297996
-0.083943
-0.153159
0.119880
0.352004
0.143706
0.048767
-0.185303
-0.079074
-0.207453
-0.023107
0.012416
-0.010218
0.299353
-0.006989
-0.086503
-0.120896
-0.204363
-0.239802
-0.332941
0.252410
0.393910
0.245220
-0.189627
-0.297866
-0.313132
-0.046543
-0.278335
-0.517769
0.267031
0.310419
0.107025
0.155078
-0.057524
-0.218228
0.060596
-0.033599
-0.094189
0.313312
0.589520
0.458667
0.506823
0.324880
0.212210
0.368028
-0.096732
-0.090527
-0.278690
-0.226862
0.095150
0.360745
0.122303
-0.046013
0.047098
-0.608971
-0.732519
-0.394432
-0.466005
-0.214324
0.405308
0.299525
-0.095157
0.381971
-0.372227
-0.537589
0.135451
-0.031862
-0.089590
0.820861
0.173032
0.164392
0.956935
-0.382903
-0.528735
0.321062
-0.736154
-0.038592
0.734254
0.058788
-0.126368
0.608430
-0.686373
-0.559811
0.083159
-0.831910
-0.166920
0.505686
-0.244635
-0.404325
0.515473
-0.802625
-0.624118
-0.057289
-0.833332
0.103403
0.011213
-0.751577
-0.038056
-0.619366
-0.557328
0.211442
-0.038702
0.025567
0.421109
0.256097
-0.273290
0.330335
-0.356701
-0.067751
0.484561
0.295398
0.364539
0.853154
-0.367016
-0.763579
0.011008
-0.620510
-0.473168
0.382057
-0.263870
0.115109
0.512454
0.115865
0.261099
0.054926
0.068401
0.198586
-0.010977
0.159207
0.220013
0.039284
-0.175429
-0.088207
-0.026880
-0.193639
-0.156781
-0.178440
-0.222167
-0.244036
-0.182025
0.152780
-0.078002
-0.084530
-0.050748
0.086404
-0.052299
-0.063499
-0.031717
-0.066975
0.483226
0.056405
0.209165
0.616585
0.295357
0.309543
0.362039
-0.027547
0.132896
0.000604
-0.687761
-0.526634
0.107573
-0.490827
-0.374151
-0.113062
-0.654891
-0.518028
0.372703
-0.290187
-0.363228
0.705264
0.019768
-0.282063
0.344323
-0.122732
-0.051325
-0.449100
-0.337811
-0.224084
-0.263823
-0.075918
-0.263983
-0.174716
-0.094105
-0.269875
0.346096
0.433074
0.381260
0.355233
0.448721
0.358752
0.408574
0.370286
0.135416
-0.254527
-0.276814
-0.203315
-0.199618
-0.227431
-0.397570
-0.415146
-0.474167
-0.348117
-0.338614
-0.305259
-0.297125
-0.402674
-0.588426
-0.552123
0.165704
0.321469
0.326206
-0.119506
-0.018000
-0.069585
-0.209592
-0.203688
-0.435964
0.189953
0.200254
0.233844
-0.080699
0.206529
0.266329
-0.276685
-0.273392
-0.272547
0.485325
0.438238
0.478195
-0.104806
-0.133599
0.124051
-0.078496
-0.091971
0.003928
0.111863
-0.052427
-0.076856
0.132904
0.063004
-0.123469
-0.042494
0.016313
0.107415
-0.091223
0.101274
-0.039888
-0.058497
-0.131012
-0.106799
-0.124010
-0.031881
-0.091513
0.016042
0.074823
-0.079181
-0.061546
-0.038621
-0.087358
-0.018036
0.036601
0.036659
-0.107468
-0.021882
-0.098323
0.089974
-0.053502
-0.096209
-0.108729
-0.093796
-0.036436
0.081529
0.050209
0.066724
-0.088318
0.100521
-0.044621
-0.004682
-0.061620
0.017046
0.136828
-0.090086
-0.122014
0.146572
0.009719
-0.121996
-0.110540
0.077164
-0.028299
-0.180922
-0.226221
-0.143704
-0.274287
-0.239314
-0.195571
-0.189452
-0.061105
0.193438
-0.234624
-0.056556
-0.017839
-0.317489
-0.205490
0.108768
-0.209179
0.373742
0.552902
-0.033293
0.491845
0.513620
0.154690
0.169563
0.341927
0.159568
0.343828
0.173764
0.187790
0.223956
0.206320
-0.289166
-0.156279
-0.352516
-0.345051
-0.433907
-0.175089
-0.244462
-0.419040
-0.405849
0.147167
0.104559
-0.062698
0.025955
0.013245
-0.166648
-0.156212
-0.008037
-0.099936
0.338715
-0.451916
-0.180426
0.641892
-0.264746
-0.433154
0.678859
0.317363
-0.175841
0.515000
-0.349257
-0.179015
0.688968
-0.067740
-0.635760
0.596008
0.077069
-0.129231
-0.124768
-0.719281
-0.252919
0.348183
-0.608826
-0.755625
0.240948
-0.038014
-0.421060
-0.181723
-0.301745
-0.130005
-0.266590
-0.254552
-0.343880
-0.151384
-0.420718
-0.353551
0.228887
-0.063731
-0.067905
0.124807
-0.071680
-0.006227
0.112245
-0.139807
-0.104927
0.456982
0.257991
0.121180
0.437344
0.233623
-0.195194
0.238046
0.115501
-0.234894
-0.044154
0.012843
-0.208957
-0.211179
-0.246315
-0.534450
-0.372235
-0.409932
-0.369124
0.324754
0.151510
-0.077781
0.171479
0.019330
-0.282958
-0.075287
-0.264540
-0.049566
0.371541
0.229708
0.172856
0.282991
0.215579
-0.064718
0.117266
0.119337
0.015398
-0.084180
-0.462192
-0.022317
0.299993
-0.238018
-0.663549
0.436832
0.124932
-0.486777
0.492931
0.055897
0.661048
0.958028
0.302204
0.155903
1.025108
0.756332
0.137919
-0.319834
-0.629255
0.029167
-0.311808
-0.770663
-0.633206
-0.091386
-0.393325
-0.519843
0.110895
0.187785
0.393049
-0.299427
-0.057267
0.538098
0.047138
-0.500086
0.354020
-0.455044
-0.116263
0.230008
-0.592154
-0.419272
0.610250
-0.274116
-0.630362
0.382642
-0.034142
0.100914
0.388491
-0.566588
-0.020619
0.683203
-0.103667
-0.564053
0.334049
-0.230226
-0.275500
-0.189562
-0.368951
-0.352263
-0.428458
0.625309
0.681298
0.242150
-0.219225
-0.026518
0.058003
-0.433471
-0.484126
-0.350130
0.392885
0.409897
0.013864
0.080391
-0.040855
0.065459
-0.223915
-0.408117
-0.429244
0.439244
0.432801
0.241626
0.484277
0.806395
0.462623
-0.771574
-0.675212
-0.532374
-0.366761
-0.263001
-0.391328
0.345039
0.926190
0.673980
-0.753353
-0.500796
-0.356388
-0.251355
-0.086826
-0.282333
0.466793
0.832097
0.537607
-0.635616
-0.469841
-0.533646
0.212828
0.176985
-0.128216
-0.642525
-0.257152
0.170930
-0.132102
0.266392
0.294444
0.375385
0.544900
0.314233
-0.265869
-0.036804
0.293072
0.121597
0.273068
0.195639
0.317499
0.378799
0.345704
-0.624373
-0.531120
-0.162302
-0.536180
-0.491799
-0.490433
-0.350596
-0.225745
-0.597583
-0.154951
-0.184264
-0.194353
0.025780
0.026398
-0.131780
0.134010
0.320446
0.073055
-0.298962
-0.345340
-0.472580
-0.165017
-0.303626
-0.247427
0.116281
-0.058225
-0.148455
0.061378
-0.185084
-0.204893
0.070956
0.088511
-0.019098
0.448514
0.341570
0.200545
0.279808
-0.165825
-0.082954
-0.284299
-0.248521
0.212191
-0.063441
0.297859
0.603621
0.016064
-0.340242
-0.275377
-0.309856
-0.240220
0.155420
-0.147075
0.130853
0.372598
0.028553
-0.102158
-0.217982
-0.258369
-0.362062
0.139292
-0.042942
0.172145
0.179701
