0.236291
-0.062397
-0.006528
0.146806
0.060562
0.027280
-0.187433
-0.021626
-0.083906
-0.002882
-0.178206
-0.110301
0.153829
-0.073750
-0.136784
0.183411
-0.092370
-0.203886
0.171665
0.079722
-0.140194
0.154100
0.084506
-0.039624
0.128647
0.075749
-0.016693
-0.093430
0.041293
0.131172
-0.158356
-0.130312
0.023146
0.008071
0.042892
-0.019139
0.101030
-0.013253
0.023607
-0.143230
0.064962
-0.046307
-0.094053
0.061622
0.052654
-0.027699
0.035300
0.135384
0.014870
-0.038669
-0.017902
0.226403
-0.061154
-0.101460
-0.114028
-0.111213
0.217587
-0.051873
-0.182243
0.101503
0.179207
0.077331
0.089676
0.078372
0.015177
-0.236876
0.277728
0.031567
-0.399357
0.238046
-0.000927
-0.279164
-0.089161
-0.000713
0.133400
-0.140327
-0.135956
0.218916
-0.128098
-0.137259
0.060297
-0.165657
0.030528
0.135925
-0.327882
-0.036962
0.153621
-0.122495
0.155232
0.299298
0.053139
-0.121053
0.060041
0.218729
-0.036642
0.033222
0.171237
0.009913
-0.102007
0.099814
0.032071
-0.033257
0.057814
0.045119
0.009383
0.010706
-0.031220
-0.036686
-0.052350
-0.244860
-0.235736
-0.155326
-0.329437
-0.127217
-0.077132
-0.099313
0.223531
0.131721
-0.102973
-0.024028
0.176334
0.038580
-0.066190
-0.099957
-0.113309
0.074055
-0.127922
-0.034170
-0.213842
-0.244577
-0.255923
-0.232957
-0.310086
-0.276493
-0.219438
-0.385778
-0.052615
0.153912
-0.251642
-0.107811
-0.215348
0.010017
-0.235493
-0.150771
0.040819
0.094878
-0.055724
0.001810
0.013747
0.049992
-0.100944
-0.165470
0.204668
0.014133
-0.149397
-0.132347
0.117878
-0.051649
-0.179723
0.042148
-0.051722
-0.160594
0.152171
-0.008065
-0.211708
0.027293
-0.191905
-0.222894
0.033733
-0.114045
-0.102329
-0.176721
-0.154227
0.106342
-0.234074
-0.311454
-0.011851
-0.006369
-0.142548
0.063261
0.097456
0.113718
0.222206
-0.064352
0.166353
0.143340
-0.114725
0.033894
0.157003
-0.006500
-0.046921
0.140441
-0.153400
0.026141
0.055353
-0.138621
-0.055042
-0.027487
0.081706
0.003892
0.049237
-0.069368
0.026502
0.132889
-0.115810
-0.027103
0.071898
-0.000775
-0.073087
-0.056303
0.005866
-0.170359
-0.043725
-0.176335
-0.263724
0.226885
0.086477
-0.017809
-0.020745
0.104147
-0.005692
-0.104176
0.134505
-0.045802
-0.227326
-0.079884
-0.372336
-0.346574
0.004189
-0.631658
-0.444176
0.092959
-0.578238
-0.190450
0.133404
0.061473
-0.087319
0.132781
0.072318
-0.166901
0.089371
-0.017210
-0.096494
-0.266920
-0.158783
-0.052209
-0.104560
-0.378034
-0.072062
-0.033901
-0.263674
-0.054853
-0.096809
0.153217
0.194333
0.138937
-0.018332
-0.042304
0.191522
-0.119683
-0.170476
-0.065599
-0.183067
0.149737
-0.185131
-0.175177
0.077063
-0.177534
-0.065698
0.184100
-0.265531
-0.519667
-0.201722
-0.182216
-0.740003
-0.219433
-0.248611
-0.415899
-0.146135
-0.021964
-0.065068
-0.072920
-0.170983
-0.175608
-0.022718
0.032980
0.020852
-0.076264
-0.273784
-0.264803
0.011122
-0.212286
-0.707324
0.052766
0.065513
-0.239183
-0.015872
0.044890
-0.072245
-0.078163
0.145141
-0.217135
-0.078192
-0.013776
-0.160269
-0.041386
-0.106016
-0.134689
0.174582
-0.207054
-0.669656
0.001894
0.040967
-0.445880
-0.076112
0.281714
-0.164861
-0.143797
0.174753
-0.425465
-0.017317
0.069025
-0.231941
0.002633
0.077086
0.071065
-0.015831
-0.032489
-0.196811
0.158260
0.068471
-0.310805
0.027756
0.275971
0.074341
-0.233312
0.067101
-0.123201
-0.038252
-0.030081
-0.055956
0.029664
0.252773
-0.027835
-0.190327
0.258189
-0.336849
-0.043497
-0.078366
-0.118697
-0.129247
-0.092712
-0.066960
0.119521
-0.133940
-0.056643
0.113051
-0.099089
-0.015130
0.127988
0.010505
0.088709
0.142300
0.055755
0.017727
0.000511
-0.042434
-0.070795
-0.122760
0.008977
0.024838
0.106760
0.029695
0.236947
0.203885
0.089231
0.076743
0.159563
0.176659
0.129239
-0.049438
0.008033
-0.105851
-0.104002
-0.123681
0.005324
-0.025051
-0.038969
0.171734
-0.065446
0.092910
-0.157274
0.098182
-0.032225
-0.087871
-0.053697
-0.021877
0.165205
-0.009800
0.096324
0.211671
-0.252436
0.052906
0.054547
-0.124372
-0.190830
0.040040
0.168754
-0.248653
-0.477924
0.078229
-0.169032
-0.646435
-0.040405
-0.196056
0.026664
-0.166273
-0.188342
-0.004225
-0.253341
0.001212
-0.124649
-0.033165
0.066056
0.120884
-0.063651
-0.144485
-0.108494
-0.357841
-0.054943
-0.054585
-0.316873
-0.047387
0.011527
0.065339
0.034205
0.030051
-0.168596
0.115781
-0.256266
-0.317260
-0.112309
-0.043205
0.042531
-0.172014
-0.126074
0.041159
-0.090571
-0.063049
-0.102760
-0.143855
-0.181738
-0.004165
-0.196468
-0.168303
0.057653
-0.208576
-0.151676
0.108603
-0.042579
0.152258
-0.131049
-0.015257
0.081313
-0.050884
0.115273
0.097687
-0.009635
0.004408
-0.104963
0.125053
0.044718
-0.471604
0.163354
0.007880
-0.498072
0.126274
-0.086772
-0.114872
0.096869
-0.139521
0.018854
0.012505
0.022608
0.068347
-0.155695
-0.020525
-0.354278
0.113936
-0.009988
-0.604104
0.193107
0.035234
-0.263285
0.105478
-0.086548
0.071186
0.024176
-0.020993
0.166771
-0.095697
-0.030523
-0.046100
-0.204459
0.071288
-0.375061
-0.192989
-0.258528
0.008078
-0.005957
-0.215508
-0.008403
-0.103439
-0.018222
0.167334
0.030271
0.040076
0.266211
-0.026028
0.125490
0.272551
0.110560
-0.038466
0.016792
0.027259
-0.038714
0.053254
0.100106
-0.084521
-0.049690
0.119048
0.090485
0.149701
-0.086975
-0.057390
0.097194
-0.192608
0.062367
0.116694
-0.050626
0.279773
0.150716
0.126671
0.089186
-0.355350
0.005539
-0.088421
0.019631
0.041023
-0.201251
-0.315255
-0.181708
-0.128400
-0.587609
-0.266392
0.051455
-0.417182
-0.208325
-0.227815
-0.024169
-0.252311
-0.223202
-0.111261
-0.186569
-0.075154
-0.310703
-0.031570
-0.107673
-0.173844
0.093490
0.043922
-0.085499
0.209412
-0.008779
-0.145160
-0.168364
0.014637
-0.093368
-0.090762
-0.273365
0.019155
0.031935
-0.182416
-0.072568
0.136329
0.154609
0.079761
0.162242
0.205726
-0.105010
-0.192883
0.019783
0.017200
0.133884
-0.009094
-0.019548
-0.125789
-0.354753
-0.218781
-0.033704
-0.017219
-0.125556
0.052301
0.145198
0.095754
0.105431
0.248856
-0.062613
-0.140762
0.046168
0.200309
0.165731
-0.099181
0.104117
-0.254826
-0.091907
0.028719
-0.109149
-0.076948
0.142396
-0.002831
0.129529
0.065351
-0.026858
0.090308
-0.315827
-0.177522
-0.097080
0.001543
0.092592
0.115986
0.028562
0.026119
0.250834
-0.130051
-0.153481
-0.072087
0.049369
-0.048314
-0.076393
0.001599
0.007188
-0.128606
-0.081076
0.002106
-0.063846
0.007724
0.061731
-0.152352
0.068927
0.037707
-0.206599
-0.058452
-0.100342
-0.136533
0.037085
-0.091765
0.064047
0.031123
-0.148644
-0.016795
-0.008845
-0.084662
-0.102642
0.063139
-0.194332
0.091597
-0.083794
-0.177193
-0.104454
-0.312583
-0.573101
-0.142273
-0.020240
0.046135
0.145478
0.038948
0.033489
0.073571
0.126217
-0.185204
-0.052574
0.047802
0.095328
0.025457
-0.028181
-0.025387
-0.028267
0.054673
0.195037
-0.017864
0.205545
0.044892
0.269353
0.038258
0.058488
-0.176326
0.006377
0.184030
-0.133364
-0.118948
0.160881
-0.228911
-0.571763
-0.388850
-0.452741
-0.815060
-0.465441
-0.431959
-0.461921
-0.433135
0.224382
-0.047252
0.085133
0.213056
-0.324620
-0.311866
-0.024771
0.091240
-0.101643
-0.012872
0.053028
-0.085670
-0.004000
0.060492
0.163173
0.117640
0.092411
0.015142
-0.006855
-0.265862
-0.062357
-0.018183
-0.254010
-0.184814
-0.246447
-0.049022
0.062165
-0.076224
0.000587
-0.010794
0.011951
0.058340
0.104110
-0.148182
0.004064
-0.005376
0.073982
-0.122157
-0.142868
0.083739
-0.280284
-0.316288
-0.080645
0.028680
0.149406
0.205222
0.228737
0.148541
0.061713
0.222647
0.120243
-0.129752
0.008922
0.120995
0.147579
0.104444
0.052761
-0.191094
0.113439
0.132537
-0.158698
0.009679
-0.053762
-0.030171
0.054233
-0.099697
0.040246
-0.015929
0.009610
-0.049252
0.056146
0.078466
-0.014269
-0.074144
-0.072278
-0.221466
-0.064047
0.162537
0.038389
0.065208
-0.034462
0.106241
-0.192658
0.009095
-0.110680
-0.183684
-0.245963
-0.181948
0.060873
-0.054823
-0.005018
-0.129020
-0.042788
-0.034299
-0.127578
0.061448
-0.036107
0.177282
0.184354
-0.014893
0.018170
-0.071636
-0.067629
0.016657
0.069937
0.076894
0.065674
0.103619
0.303104
-0.191125
0.095359
0.299489
-0.072007
-0.417276
0.000968
0.214949
0.189093
0.144029
-0.037310
0.159241
0.157353
-0.419747
-0.374410
-0.244392
-0.016425
0.012509
-0.060232
-0.128197
-0.331444
-0.273596
-0.315603
-0.535995
-0.608718
-0.606228
-0.232606
-0.206190
0.276368
-0.029170
-0.107794
-0.290203
-0.608158
-0.029633
-0.032390
-0.063516
0.022589
-0.036756
-0.207873
-0.612996
-0.291616
-0.456196
-0.415861
-0.045226
-0.012158
0.006944
-0.238649
-0.012883
0.006984
-0.249220
0.071210
0.009708
-0.395263
0.114001
0.076573
-0.047069
0.077091
-0.051093
-0.070055
-0.063611
0.010004
-0.062880
-0.120000
-0.011663
-0.056677
-0.056073
0.120506
-0.093183
0.009644
0.120027
-0.172860
-0.081950
-0.006103
0.008210
-0.018446
-0.007949
-0.020809
-0.052880
-0.006901
-0.203317
0.090490
0.233682
-0.047839
0.531795
0.321471
0.093016
0.667366
0.239013
-0.135811
0.435980
-0.015641
-0.026476
0.045420
-0.318036
-0.109605
0.103611
-0.050870
-0.008457
0.168942
-0.055972
-0.104280
-0.030000
-0.272563
0.017504
-0.253409
0.015693
-0.060372
-0.035496
-0.082290
-0.031460
-0.001500
0.105854
-0.051207
0.043050
0.051315
-0.049900
-0.046366
0.004124
-0.094004
-0.066991
-0.038218
-0.032978
-0.056269
0.029191
0.113172
0.093951
0.011240
0.130651
-0.029516
-0.057682
-0.014172
0.008682
0.081309
0.034632
0.165482
-0.259644
-0.180955
-0.323535
-0.193355
0.071273
-0.136900
0.078489
-0.020634
0.092003
0.012314
-0.066574
0.188851
-0.059606
-0.246550
0.318036
0.041857
-0.295359
0.045534
-0.062623
-0.006251
-0.047546
-0.092058
0.155235
-0.031259
0.083441
0.006619
0.078870
-0.117869
-0.134585
-0.219436
0.026270
0.015317
0.057967
0.015651
-0.109333
0.034625
-0.003331
0.109270
0.268640
0.109580
0.110269
0.400861
0.053932
0.151829
0.391258
0.055005
0.051849
-0.108114
-0.366698
-0.207042
-0.230930
0.004572
0.022869
-0.102485
-0.039336
0.023821
-0.029682
0.004131
-0.036384
-0.054161
-0.011074
0.008176
-0.052978
0.041266
0.016604
-0.166248
-0.173851
-0.223662
-0.285001
-0.071818
0.043975
0.054765
-0.077906
-0.066849
0.020894
-0.162097
-0.147631
-0.021642
-0.147760
-0.281385
-0.078610
-0.097961
0.038293
-0.063390
-0.252426
-0.163151
-0.164093
-0.081433
0.020913
-0.007927
0.125224
-0.047875
0.037876
0.072121
-0.160679
0.190530
0.130622
-0.234663
0.180973
-0.183895
0.035131
-0.154305
0.079870
-0.102050
-0.013685
-0.027613
0.051149
-0.032940
0.106320
-0.160762
0.038264
0.076064
-0.286561
0.110410
0.127261
-0.369511
0.133986
0.009350
-0.151964
-0.049288
-0.020843
-0.026477
-0.055226
0.093794
-0.065740
0.030516
-0.044983
0.274360
-0.204865
0.181016
0.252557
-0.202733
0.175971
0.057489
-0.047194
0.102053
-0.000303
0.082080
-0.053223
0.069583
0.028239
0.049385
0.029873
0.039494
0.003601
0.056868
-0.042867
-0.031831
0.088941
0.022169
0.077438
-0.014219
0.039194
0.204949
0.041014
0.065026
-0.180476
-0.134946
-0.157259
-0.126053
0.063034
0.051571
0.024702
0.085641
0.077645
-0.349251
-0.229517
-0.135630
-0.016463
-0.052272
-0.077157
-0.055927
-0.045313
0.062120
-0.098623
-0.194296
0.111507
0.062551
-0.051957
0.148289
-0.073792
-0.324012
-0.204812
-0.000016
-0.039191
-0.083419
0.094951
-0.024800
0.041961
-0.082334
-0.057207
-0.013237
0.022198
-0.045209
0.098374
-0.059058
-0.053850
0.045452
0.248971
-0.233310
0.020053
-0.017514
-0.384151
-0.074103
0.335350
-0.211721
-0.014923
0.045729
0.030151
0.169443
-0.174869
-0.046251
-0.178377
0.029287
0.056668
-0.008915
-0.014424
-0.256656
-0.077245
0.054685
-0.131637
0.071216
0.152126
0.002965
-0.165123
0.051286
-0.034090
0.162908
0.047863
-0.256619
-0.178031
-0.061488
-0.129146
-0.022758
-0.085314
-0.559414
0.076025
0.003921
-0.511595
-0.197093
0.153120
-0.450393
-0.218887
0.054749
0.097832
0.201127
-0.001716
0.000587
-0.097648
0.037617
-0.000466
0.140833
0.002037
0.044422
0.274177
-0.154764
-0.337758
-0.116867
0.237974
0.152172
0.072518
0.095855
0.162494
0.070525
-0.063913
-0.078624
-0.047932
-0.027568
-0.110885
-0.139423
-0.027038
0.068705
-0.018145
0.053097
-0.074779
0.004006
0.137499
0.043583
-0.050818
0.067521
-0.074786
0.099821
0.086953
0.129299
0.141579
0.031208
0.009682
-0.010777
0.247638
0.184667
0.196809
0.208948
0.261696
0.251552
-0.230578
-0.103051
-0.093129
-0.000635
-0.228681
0.366228
-0.059560
-0.451990
0.005643
0.001241
-0.277397
-0.068289
-0.044340
-0.295031
-0.140473
-0.022633
-0.067682
0.031711
-0.193577
0.032528
0.029583
0.209919
-0.023949
0.044535
0.033621
0.074233
0.020287
-0.093276
-0.249933
-0.071425
0.045998
-0.159087
-0.043187
0.071160
-0.303492
-0.003443
0.025631
-0.143668
-0.034270
-0.042320
0.124028
0.148617
0.050444
-0.036497
-0.257878
0.257003
0.201354
0.162003
-0.187138
-0.151235
-0.248812
-0.118445
0.000808
0.152669
-0.119800
0.006015
0.029492
0.033573
-0.023954
-0.128385
0.061928
0.004569
-0.034330
-0.046089
0.121096
-0.073907
0.116716
0.094154
0.038900
0.088777
-0.130259
-0.027091
-0.106473
-0.055704
0.134090
0.019161
-0.064138
0.030304
0.023621
-0.104841
-0.045500
0.010425
0.099724
-0.064935
0.016272
-0.088488
0.143040
-0.009097
-0.014011
-0.025080
0.057536
-0.099684
-0.015523
0.044632
-0.128587
-0.085680
-0.049106
-0.050177
0.089953
-0.137574
-0.137488
-0.009955
0.116173
0.014639
0.119198
0.132281
-0.145288
-0.027635
0.183316
-0.058600
0.015999
-0.045145
-0.269994
-0.185397
-0.079454
0.031686
0.077514
-0.217138
-0.111480
-0.072338
0.078374
0.122856
0.200475
-0.053999
-0.205847
-0.128553
-0.093662
-0.427602
-0.085387
0.093453
-0.342139
-0.208150
0.016353
-0.451739
-0.326728
0.039036
-0.366507
-0.193981
0.062502
-0.003575
0.049782
0.043713
-0.107151
-0.068116
-0.043024
-0.133490
-0.062064
0.209352
0.123850
0.004105
0.137860
-0.015016
-0.103925
0.135894
0.173230
0.143780
0.193840
0.235581
0.316046
-0.197485
-0.116523
-0.117191
0.097511
0.176072
0.095017
0.049050
-0.019511
-0.027503
-0.088683
-0.041178
0.133145
0.085991
-0.010211
-0.079576
0.050390
-0.209978
0.068241
0.080378
0.030961
-0.108595
0.025381
0.136411
0.039933
0.035763
-0.009756
-0.111392
-0.049120
0.122910
0.112523
-0.276482
-0.120488
-0.140626
0.078733
-0.050620
-0.170294
0.191613
0.185812
-0.208644
0.134295
0.388685
0.109220
0.066932
0.203991
0.147248
-0.134037
-0.001559
0.207619
-0.094064
-0.165201
-0.032185
-0.073689
-0.029256
-0.062814
0.011157
0.060882
-0.028849
0.040848
0.149233
0.088625
-0.146124
-0.045301
-0.073165
-0.203114
-0.296499
-0.160090
0.106252
-0.163201
-0.186660
-0.044366
-0.262424
-0.229666
0.183132
-0.130418
-0.225321
0.341547
0.259573
0.161966
-0.202287
-0.226126
-0.206528
-0.150466
-0.226495
-0.251815
-0.013104
-0.153089
-0.146591
-0.542013
-0.393275
-0.517948
-0.508151
-0.540509
-0.477970
-0.248655
-0.257042
-0.381595
0.112862
0.132061
0.001971
-0.162286
0.028309
0.001334
-0.294863
-0.133155
-0.020261
0.008338
-0.084715
-0.047961
0.053261
-0.023028
-0.076501
0.277426
0.077042
-0.122373
-0.056015
0.015117
-0.105667
0.092272
-0.097023
-0.033876
0.215556
0.027871
-0.047325
-0.091537
-0.383939
-0.515720
0.012420
-0.112651
-0.515929
0.140338
0.248659
0.006417
-0.166619
-0.222683
-0.199438
0.044506
-0.075400
-0.218589
0.130752
0.081883
0.049706
0.063113
-0.556172
-0.295160
-0.009276
-0.069554
-0.301443
-0.006647
0.132587
-0.061305
0.017076
-0.277388
-0.340880
0.223699
0.094015
-0.188473
0.108241
0.307317
0.153826
0.299618
-0.077097
0.046468
0.440036
-0.118614
0.053095
0.537872
0.295131
0.195869
-0.070668
-0.385961
-0.344214
0.113931
-0.196705
-0.346934
0.240442
-0.006932
-0.195493
-0.000761
-0.164871
-0.293390
-0.069012
-0.130506
-0.154224
0.001174
-0.146670
-0.088627
-0.070759
-0.106077
-0.261047
-0.081664
0.179204
-0.055116
0.089362
-0.079572
-0.072274
0.086685
-0.027200
-0.240668
-0.007645
-0.002416
0.031746
-0.151027
-0.148941
-0.040788
0.131291
-0.258753
-0.204510
0.101765
-0.028669
-0.470117
0.144163
0.020405
-0.200869
0.048240
-0.116618
-0.019429
0.293121
0.095875
0.046321
0.438829
0.276994
0.083530
0.106123
-0.163941
-0.049420
0.135396
-0.039921
-0.082384
0.093033
0.116586
-0.084521
-0.005548
-0.053250
-0.222290
0.061499
-0.053268
-0.148296
0.192685
0.045817
-0.037267
-0.125479
-0.288422
-0.248886
-0.011083
-0.239842
-0.283010
-0.016910
-0.078841
-0.268075
-0.049705
-0.151750
-0.141252
0.000751
-0.208003
-0.288385
-0.110981
-0.034511
-0.105343
0.160147
-0.246755
-0.501393
0.101514
0.187305
-0.359104
0.064091
0.503774
0.069102
0.036898
-0.027203
-0.071907
0.030668
0.040919
-0.080008
-0.005959
0.016701
0.081750
-0.076523
-0.484941
-0.501694
0.163905
-0.114002
-0.617902
0.286803
0.207638
-0.127385
-0.118258
-0.232595
-0.294050
-0.168679
-0.167123
-0.377004
-0.007913
-0.187877
-0.230548
0.115834
-0.032666
0.075769
0.094350
-0.083059
-0.103759
0.069926
-0.000939
0.014426
0.128916
0.063865
-0.138687
0.074625
0.010732
-0.294628
-0.261452
-0.296463
0.082914
0.240674
0.102675
-0.229493
-0.015218
-0.190754
-0.325349
0.111311
0.161579
-0.088400
-0.342596
-0.374684
0.016661
-0.527082
-0.381310
-0.147320
-0.497942
-0.336399
-0.032789
0.154940
0.039972
-0.040951
0.064495
0.002360
-0.121941
0.005009
-0.094471
-0.064118
-0.063073
-0.096740
0.099600
-0.195605
-0.311980
-0.055105
-0.263211
-0.245460
-0.086775
-0.026227
-0.153087
0.002654
0.051826
0.055870
-0.134065
0.071297
-0.045409
0.053474
-0.584277
-0.518652
-0.224074
-0.552402
-0.566060
-0.483008
-0.323279
-0.387620
-0.532856
-0.016579
-0.276238
-0.054288
-0.135315
-0.311506
-0.242673
0.097523
-0.068036
-0.107378
-0.090972
-0.345168
-0.013129
-0.180791
-0.190375
-0.073002
0.021031
-0.182568
-0.177336
0.053432
-0.100346
-0.002355
-0.155117
-0.207926
-0.088634
-0.062316
-0.217210
-0.067160
0.017494
0.058304
0.099793
0.078411
0.048224
0.171808
-0.018543
0.151465
0.085023
-0.099802
-0.144863
0.016914
0.146800
0.089486
0.131049
0.193067
0.254512
0.233201
-0.013383
-0.168782
0.123902
-0.226536
-0.153723
-0.085194
0.067474
0.024129
0.001271
-0.020469
-0.014302
0.186122
-0.127827
-0.117890
-0.131701
-0.136534
-0.220635
-0.433991
0.047546
-0.071475
0.157264
-0.071235
-0.182091
-0.084905
-0.288609
-0.427107
-0.323493
-0.057782
-0.012521
0.215117
-0.324128
-0.290711
-0.085732
-0.506723
-0.325657
-0.005292
-0.024303
-0.091599
0.087045
-0.110638
-0.042195
0.157394
0.077278
-0.042898
0.140367
0.023248
-0.082014
-0.183390
-0.058135
0.027873
-0.030768
0.029722
-0.143425
-0.348828
0.076428
-0.023915
0.011906
-0.129681
-0.369691
-0.190964
-0.221804
-0.466417
-0.344921
0.088755
-0.033341
0.072730
0.045111
0.095707
0.163106
0.014734
-0.038671
0.026412
0.004625
-0.062048
0.037589
-0.119520
-0.059375
0.052610
0.068965
-0.034541
0.038770
-0.180685
-0.048431
0.073343
-0.077581
0.051529
0.081132
0.151631
0.033772
0.118589
0.054939
0.069070
0.089136
0.138602
0.164272
0.057511
0.129952
0.130218
0.064865
0.066112
0.043365
0.104430
0.044237
0.001530
-0.054963
-0.006497
-0.043175
-0.032840
-0.171886
-0.141433
-0.036414
-0.009515
0.013950
0.026456
0.133100
0.104293
0.098349
0.110000
0.062658
0.038545
-0.083779
-0.122845
-0.134133
-0.021688
-0.030225
0.076886
-0.066000
-0.171382
0.086444
-0.062092
-0.286599
-0.029298
-0.039568
-0.249151
-0.104034
0.009143
-0.068324
0.111328
-0.012876
-0.398287
0.052591
0.008694
-0.272867
0.092833
0.243333
0.211180
0.105802
0.084370
0.098096
0.071899
0.095748
0.129910
0.202421
-0.023877
-0.163430
-0.001567
-0.066169
-0.091341
0.066025
0.211677
-0.022811
0.039151
0.135484
-0.085141
-0.001446
-0.092055
-0.216132
-0.182440
-0.024341
-0.160409
-0.103451
0.090354
0.139990
0.107719
-0.011266
0.154225
0.116372
0.096966
0.026798
0.120343
-0.137532
0.164724
-0.342142
-0.045851
-0.003367
-0.182299
-0.067665
-0.087183
-0.157844
-0.181088
-0.149970
-0.036486
-0.073928
-0.110652
-0.044383
0.076851
0.138976
0.042137
-0.099553
0.084069
-0.129803
-0.228478
-0.247886
-0.030423
0.023583
-0.277852
-0.132161
0.009271
-0.282015
-0.176951
-0.203953
-0.402161
0.107583
-0.197345
-0.336387
0.188793
-0.109905
-0.191255
-0.131161
-0.265406
-0.251926
-0.029449
0.064380
-0.338981
0.022137
0.071245
-0.093328
-0.275913
-0.162993
-0.300607
-0.273793
-0.216569
-0.236516
0.014630
-0.202583
-0.278822
-0.193318
-0.322060
-0.189036
-0.328932
-0.247002
-0.236137
-0.201904
0.149135
-0.123529
-0.078151
0.007862
-0.169001
-0.119533
-0.131198
-0.170758
0.036588
0.144573
-0.162787
-0.308865
-0.089978
0.049843
-0.117694
-0.075658
-0.171155
0.005888
-0.183496
-0.264359
0.111757
-0.282817
-0.231137
0.240563
-0.173260
-0.077818
0.264003
-0.046298
0.212902
0.113400
0.039975
0.075656
0.190697
-0.020190
0.037865
-0.042077
0.052606
-0.021046
0.210866
0.034217
-0.032227
0.073477
-0.119544
0.010132
0.150420
0.126028
0.140542
0.021491
0.014698
0.046141
0.041219
-0.074572
0.050051
0.133078
-0.022694
-0.131135
-0.227347
-0.258825
-0.057485
-0.270444
-0.006819
0.047610
-0.217450
-0.069602
0.147659
0.117431
-0.040193
0.238937
0.246854
0.151514
0.275397
0.015218
-0.024046
0.031349
0.003422
-0.117327
-0.002955
-0.068450
0.010620
-0.236468
0.029947
-0.245617
-0.076912
-0.065461
-0.161267
-0.172671
-0.268233
-0.048742
-0.122163
-0.255594
0.177084
0.097338
-0.069704
-0.102977
-0.018325
-0.108268
0.130694
-0.037160
-0.175366
-0.136732
0.112530
0.192899
-0.036723
0.051173
0.265728
-0.000966
0.168761
0.032302
0.096394
0.042455
0.020154
-0.044312
-0.085701
-0.170962
0.091204
-0.054006
0.067144
-0.148117
-0.015760
-0.020678
0.061583
0.030047
0.003994
0.098464
0.010192
-0.018934
0.101788
0.064964
0.045273
0.135697
0.037059
-0.241058
-0.036039
-0.033559
-0.025733
0.070540
0.026610
-0.189362
-0.053508
-0.339763
-0.222315
-0.077427
-0.477510
-0.024229
-0.058578
0.016429
0.176380
-0.077913
-0.114647
0.135831
-0.170335
-0.026894
0.009232
0.136354
-0.028070
-0.209286
0.089497
-0.234069
-0.220310
-0.070764
-0.216493
-0.010247
-0.086211
-0.069804
0.121094
0.017998
0.025012
0.200764
0.067503
0.198791
0.041708
-0.234927
-0.625342
-0.087749
-0.345624
-0.468449
-0.023524
-0.135278
-0.114299
0.104450
-0.142855
-0.009373
0.277252
0.076128
0.170985
0.150764
0.175105
0.205934
0.109014
0.006535
0.021071
0.148222
0.026216
-0.031938
0.127409
-0.099618
0.080767
0.206205
0.042750
0.071907
0.145784
0.097211
0.019519
-0.053230
0.101341
0.035807
0.014523
0.210501
-0.106982
-0.183910
-0.133156
-0.113342
0.035197
0.083388
0.064279
0.140766
-0.053908
-0.141718
-0.009364
-0.068736
-0.220766
-0.235934
-0.237318
-0.358736
-0.278399
-0.143101
0.120643
0.284122
-0.040667
-0.152785
0.108305
-0.121323
-0.153840
-0.166554
-0.399383
-0.252584
0.218886
-0.253262
-0.109961
0.069326
-0.241832
-0.038070
0.081298
0.203046
0.088366
0.034053
0.167088
0.051216
-0.069061
0.101075
0.062460
-0.071701
0.106456
0.105142
0.174921
0.007492
-0.058048
-0.047450
0.198271
-0.024353
-0.024965
0.277640
-0.064961
-0.138468
0.201562
-0.145234
-0.104701
0.177094
-0.112069
0.010224
0.006878
0.047246
-0.039890
0.024651
0.030642
0.092452
0.129264
0.016974
-0.082406
0.096731
0.103973
-0.262816
-0.033068
0.122534
-0.311934
-0.008310
0.214498
-0.030720
0.101625
-0.060978
0.010729
-0.240814
-0.099321
0.101299
-0.104676
0.006818
0.030849
0.055966
-0.025022
0.017844
0.036888
-0.117051
0.083967
0.113279
-0.033089
0.235452
0.142004
0.036855
-0.031471
0.190728
-0.005796
-0.143353
0.214012
-0.146784
-0.423462
-0.270888
0.006326
0.141568
-0.299246
-0.119142
0.138193
-0.182188
0.096893
0.298252
-0.305649
0.094653
0.068255
-0.293941
0.005476
0.033377
-0.060446
0.199474
0.194309
-0.275736
-0.225603
-0.024627
-0.263305
-0.328185
0.146163
0.227253
-0.138942
-0.138357
0.207874
0.108876
-0.272129
0.056099
0.105884
-0.292430
0.080861
0.128899
0.009578
-0.026913
-0.162841
0.044708
-0.416453
-0.187718
0.022915
-0.378780
-0.076306
0.104550
0.141553
-0.048739
-0.108708
-0.027252
-0.146313
0.037066
0.123806
-0.056303
0.269185
0.011641
-0.040879
-0.338262
-0.112156
-0.059067
-0.364030
-0.073596
0.119840
-0.172101
-0.080689
0.105119
0.197202
-0.517209
0.065777
0.101002
-0.207826
0.043506
0.034974
-0.055739
0.007277
0.020933
-0.335160
-0.277607
0.013600
-0.407910
-0.159824
-0.001533
-0.035646
-0.016388
-0.200618
0.028451
-0.070568
-0.101508
0.058515
-0.119342
-0.075220
0.105206
-0.163476
-0.102422
-0.009447
-0.116482
-0.296597
0.009838
-0.020186
-0.014754
-0.046284
-0.136297
-0.113124
-0.181750
-0.210904
-0.012316
-0.152940
-0.204267
0.089265
0.212419
0.115027
-0.057768
0.090288
0.139127
-0.027323
0.264937
0.201594
-0.003261
0.040639
-0.087556
0.138641
-0.168902
-0.257656
-0.025507
-0.084664
0.025307
0.035647
0.046182
0.030127
-0.087210
0.049443
0.108261
0.095228
0.238920
0.106827
0.000291
-0.110540
-0.072896
0.007131
-0.306126
-0.173831
0.094012
-0.310982
-0.016453
0.142996
0.229793
-0.159416
-0.086211
0.206670
-0.183210
-0.104317
0.250770
-0.176769
-0.090778
-0.005149
-0.142840
-0.206501
-0.092245
-0.190822
-0.276806
0.008807
-0.291319
-0.184249
0.117789
-0.014031
0.004540
0.142720
-0.132604
-0.192368
0.061917
-0.169296
-0.193703
0.012895
-0.009161
-0.047426
-0.375152
-0.069836
0.063213
-0.169415
-0.163070
0.051304
-0.090142
0.021075
-0.007845
-0.281838
-0.108827
0.151704
0.084655
-0.099551
-0.072781
-0.054890
0.002260
-0.085725
-0.082601
-0.034685
-0.041203
-0.050618
0.078207
0.095474
-0.371385
0.030831
-0.246121
-0.289867
0.071799
-0.375487
-0.019370
0.137061
-0.060413
-0.086591
-0.014515
0.101215
-0.091659
-0.043085
0.050922
-0.019102
-0.019630
-0.118093
0.030301
0.061816
0.047537
-0.192699
0.127652
0.005961
-0.214073
0.297635
-0.080053
-0.172896
-0.208707
-0.217976
0.248612
-0.211085
-0.288404
0.082734
-0.193453
-0.302269
0.070276
-0.097542
-0.065417
-0.083655
-0.024104
0.040557
-0.154209
0.114960
-0.077080
-0.479680
-0.110966
0.160069
-0.289619
-0.023509
0.128024
-0.262009
0.049158
-0.031883
-0.256491
0.182956
0.253197
0.173456
0.246661
0.223796
0.022137
0.386822
0.246131
-0.225953
-0.207856
-0.067552
-0.080508
-0.318207
-0.151609
0.015744
-0.078346
0.075036
-0.566277
-0.296697
-0.018987
-0.323232
-0.052497
-0.043335
-0.226731
-0.091058
-0.126003
0.011573
-0.076371
0.004538
-0.049833
-0.124669
-0.102806
0.035834
-0.050258
-0.205680
0.034966
-0.173379
-0.033529
0.016746
-0.132595
-0.007343
0.080402
0.002385
0.061351
0.030064
-0.194074
-0.309043
-0.078327
-0.323384
-0.281848
-0.080386
-0.064379
0.013965
-0.118544
-0.167132
-0.310867
-0.017097
-0.430189
-0.168907
0.047342
0.081366
0.117313
-0.213011
0.091675
-0.041086
-0.046365
0.123597
0.191650
-0.209194
0.247605
0.150521
-0.048680
0.036990
0.052664
0.019723
-0.114966
0.084132
0.091589
-0.166441
0.170020
0.064379
0.014469
-0.082727
0.005323
0.101735
0.020503
0.069809
0.085289
-0.022564
0.089475
0.171620
0.169140
0.193344
0.194981
0.095646
0.094481
0.103493
0.385751
-0.194040
-0.300053
-0.219126
-0.161448
-0.457570
-0.317964
-0.044062
-0.529669
-0.339162
0.021740
0.005531
-0.140837
-0.003706
-0.107535
-0.088940
0.113993
-0.040359
0.001750
-0.086003
-0.113072
-0.177060
-0.088798
-0.156318
-0.127137
0.025508
-0.082251
-0.150778
0.060242
-0.126285
0.018428
0.056767
0.086506
0.102859
-0.011719
-0.380169
0.109089
0.012626
0.222688
-0.105384
0.129350
0.082165
-0.065698
0.113720
-0.156101
0.100034
-0.083393
0.057945
0.177946
-0.088633
0.170972
0.224034
-0.145257
0.195604
-0.013988
-0.035523
-0.040472
-0.072681
-0.158598
0.000331
-0.127852
0.033065
0.127971
0.002798
-0.252151
0.098673
0.000147
-0.204754
0.025942
0.152513
-0.246090
0.167978
0.063687
-0.003757
-0.060638
-0.031249
-0.052470
0.010207
0.051280
-0.104442
-0.051976
0.085945
0.020749
-0.184236
0.013380
-0.105544
-0.163903
0.099815
-0.122139
-0.038597
0.071286
-0.068876
-0.106667
0.401655
-0.013240
0.001809
0.343447
-0.067365
-0.360259
0.404510
-0.089758
-0.042971
-0.013290
-0.046977
-0.061026
-0.049621
0.081975
-0.042379
0.109625
-0.140125
-0.124217
-0.082558
-0.056945
0.042841
0.051589
0.044134
-0.079291
0.103241
-0.245039
-0.143953
-0.399663
-0.198718
-0.454022
-0.492020
-0.188004
-0.195923
-0.173027
-0.038323
0.134605
-0.068200
-0.083466
0.023988
-0.024468
-0.162439
-0.030107
-0.042661
0.216294
-0.120331
-0.131455
0.183959
0.116805
-0.021841
0.190675
-0.110452
-0.125645
-0.487935
-0.370404
-0.334249
-0.352724
-0.546151
-0.476226
-0.076510
-0.027053
-0.052463
-0.154017
-0.127207
0.041554
-0.080479
-0.004561
-0.016888
-0.087577
-0.004133
-0.060076
-0.067275
-0.085034
-0.041009
-0.038784
-0.014129
-0.020681
-0.135392
0.017942
-0.095771
-0.121231
-0.056775
-0.036977
-0.064010
-0.010461
-0.084799
-0.058966
-0.040098
-0.111641
-0.048166
-0.053783
0.006578
-0.128139
0.051422
0.044450
-0.048393
-0.092329
0.011809
-0.060699
-0.004813
-0.008678
0.044598
-0.062332
-0.033963
0.013128
-0.096862
0.041976
-0.076426
0.013377
-0.011023
0.019631
-0.036392
0.016546
0.040453
0.019371
-0.013412
-0.095210
-0.113791
-0.014879
-0.085478
-0.044880
0.034433
-0.007309
-0.004262
-0.075970
-0.175494
-0.124581
-0.076756
-0.111532
-0.001254
-0.114880
-0.152534
-0.085297
-0.021354
-0.084769
0.026676
-0.004234
0.074762
0.006200
-0.020060
-0.049175
0.036934
-0.106951
0.003523
0.007323
-0.078126
-0.023851
-0.056208
-0.017491
0.048805
-0.029075
-0.107977
-0.090773
-0.027501
-0.094907
-0.047767
0.034199
-0.106490
0.035259
0.052313
-0.047887
0.003824
-0.064739
-0.044940
-0.095523
-0.032662
0.051357
-0.077024
-0.048225
-0.090422
0.032900
-0.063045
-0.054605
-0.020742
-0.000000
-0.134000
0.017437
-0.103011
-0.121042
-0.113189
-0.000317
0.004493
-0.057702
0.013723
-0.139607
-0.057019
-0.022512
0.040199
-0.043552
0.030999
-0.028634
-0.090408
-0.003859
-0.122224
-0.044584
-0.049284
0.042065
-0.010272
-0.083117
-0.134848
0.016309
-0.125792
-0.148686
0.012188
-0.086601
-0.208526
-0.057718
-0.037557
-0.082505
0.077382
-0.031249
-0.107176
-0.069056
-0.071266
-0.025397
-0.065724
0.028708
-0.045371
0.011185
-0.023673
0.040119
-0.102817
0.011284
-0.068046
0.022557
-0.063876
-0.107139
-0.098416
-0.127009
-0.044664
-0.027318
0.002332
-0.120895
-0.098811
-0.027838
-0.168182
-0.016893
-0.029583
-0.039308
0.023865
-0.031140
-0.017082
0.013156
-0.093754
-0.004645
-0.124506
-0.015132
-0.075957
0.047652
-0.068473
0.054316
-0.127985
-0.044451
-0.124787
-0.027702
-0.125114
-0.148884
-0.018962
-0.093486
-0.014460
-0.137108
-0.044143
-0.019279
-0.064908
0.040939
0.043207
-0.013737
-0.030499
-0.010384
-0.055068
-0.106604
-0.039082
0.027020
-0.114501
-0.061914
-0.081374
-0.119366
-0.129548
-0.116418
-0.061940
-0.047476
-0.127879
-0.082042
-0.098062
-0.071016
-0.026785
-0.046808
-0.072111
-0.042054
-0.107702
0.000899
0.034976
-0.202471
-0.003645
0.035378
-0.116495
-0.084116
-0.106484
-0.131651
-0.034722
-0.122383
-0.009936
-0.098992
-0.051243
-0.070400
-0.034213
-0.117586
-0.024380
-0.018249
0.035993
-0.072584
0.110416
-0.030371
-0.051908
-0.075372
-0.084052
-0.029800
-0.073547
-0.002979
-0.066392
-0.023424
-0.103387
-0.081350
0.030628
0.045601
0.090975
-0.024342
0.100723
-0.040479
0.012774
0.013459
0.066232
0.083197
-0.083820
-0.024231
-0.082969
-0.154247
0.041490
0.024690
-0.056423
-0.023239
-0.018525
-0.085329
-0.004938
-0.082995
0.029640
-0.053005
0.008260
-0.057471
-0.085240
-0.216391
-0.052636
-0.232758
-0.148600
-0.124144
-0.262760
0.021310
0.174603
-0.405734
-0.220766
-0.031773
-0.132237
-0.325327
-0.068969
0.164936
0.120083
0.227538
0.301660
-0.174578
-0.001749
-0.007311
0.100146
-0.160210
-0.204493
0.170561
0.084246
-0.334545
-0.126515
0.124167
-0.353327
-0.340148
-0.144653
-0.017599
-0.112146
0.094748
0.002781
-0.074609
0.215831
-0.029571
-0.322512
-0.381342
-0.311863
-0.279935
-0.262895
-0.168187
-0.143904
0.094568
-0.188607
-0.079036
0.060969
0.040390
-0.082187
-0.188480
0.147569
0.066599
0.450789
-0.167862
-0.081626
-0.000521
-0.060322
-0.106266
0.018839
0.010559
-0.054493
-0.215153
-0.121107
-0.045670
-0.201073
-0.072300
-0.091573
0.059793
0.126007
-0.005319
-0.032134
0.324179
0.073314
0.051346
-0.035512
0.162402
0.120236
0.078728
-0.064901
-0.101665
-0.019894
-0.130158
-0.067887
0.033648
0.058790
-0.010318
-0.097534
0.183400
0.318691
0.039809
0.231723
0.131840
0.300487
0.182636
0.032411
-0.008916
-0.009356
0.432374
0.100921
-0.163175
0.221944
0.013703
0.008602
-0.113993
-0.014388
-0.208067
0.216218
0.199965
0.033444
0.130335
0.082795
0.235973
0.101382
0.077546
-0.106299
0.069970
-0.023187
0.060838
-0.238622
-0.044751
0.085756
0.015765
-0.330042
0.005769
-0.116732
-0.150261
-0.361892
-0.482191
-0.602026
-0.092952
-0.212107
-0.292310
0.056018
-0.156580
-0.078814
-0.047127
0.005658
0.048451
-0.165366
-0.201140
0.234923
-0.128259
0.138832
0.237540
0.142979
0.197922
0.008576
0.254468
0.182577
-0.165415
-0.036093
-0.191458
-0.216426
-0.085433
-0.082965
-0.017948
-0.058372
-0.145865
0.110043
-0.046214
-0.062798
0.059584
-0.063642
-0.247039
-0.088788
-0.231127
-0.222412
-0.064144
0.020990
-0.248988
-0.205122
-0.004516
-0.229799
-0.096596
-0.160746
-0.080655
0.059976
-0.107451
0.159692
0.073658
-0.193019
-0.247012
-0.077901
-0.025881
0.124554
-0.323106
-0.044609
0.128982
0.163660
-0.033515
0.126168
-0.072132
0.246583
0.122148
-0.211384
-0.092045
0.025834
-0.166469
-0.326353
-0.209704
-0.023585
-0.021407
0.176081
-0.041517
-0.067433
-0.122124
0.128453
0.076993
0.179979
0.102023
0.168803
0.077793
-0.087606
0.231225
0.046393
-0.019403
-0.181826
-0.161137
0.031184
-0.148127
0.161960
-0.167365
-0.037755
-0.138452
0.041260
-0.250666
-0.157861
-0.015100
0.033776
-0.190333
-0.059499
-0.031997
-0.022594
-0.017990
-0.077782
-0.030178
0.041083
0.098897
-0.041187
0.035540
0.324981
-0.104004
-0.272843
-0.100163
-0.011738
0.108320
-0.065902
-0.203217
0.184742
0.140678
0.120947
0.060135
0.157436
0.002076
0.230403
-0.083259
0.153803
0.257691
0.022127
0.092676
-0.078983
0.023534
-0.120852
-0.074657
-0.047024
-0.078215
0.105047
-0.037349
-0.011935
0.150089
0.005540
0.050062
-0.042079
-0.344237
-0.194008
-0.294159
-0.208891
-0.077119
-0.228909
-0.181244
-0.088553
0.045453
-0.045893
-0.075534
0.026732
0.079233
0.105523
-0.219972
0.266314
-0.237987
-0.099950
-0.053608
-0.077423
0.110661
-0.288176
-0.263272
-0.014848
0.040617
-0.100447
0.033698
0.050592
-0.076988
0.222889
0.067361
-0.045213
-0.112942
0.153604
-0.032637
-0.116474
0.032492
-0.142597
-0.001960
-0.042950
0.143242
-0.213678
0.060880
-0.438226
0.055591
-0.015514
-0.058616
0.182627
-0.118802
0.374978
0.187432
0.027200
-0.046871
0.127895
-0.000440
-0.116263
0.191368
-0.086007
0.054366
0.018980
0.025966
-0.276097
0.041969
-0.081634
-0.200781
0.178212
-0.118933
0.290362
-0.141642
0.320685
-0.145974
0.037169
-0.106688
-0.002619
0.142067
-0.233293
-0.180530
-0.035770
-0.172359
-0.172260
0.016904
0.065304
-0.126488
-0.074525
0.168264
-0.197043
0.221714
-0.038035
0.046736
-0.077156
0.016053
-0.009338
-0.254873
0.056781
-0.019248
0.031767
-0.185884
-0.094074
0.123220
-0.073801
0.113628
-0.074517
0.038728
0.334357
-0.233553
0.037450
-0.126613
0.016208
-0.153762
-0.232788
-0.197710
-0.187670
0.249110
0.212916
0.140045
0.260609
0.129744
0.055160
-0.018579
0.242510
-0.049790
-0.038679
0.386149
-0.147749
0.294848
-0.163669
0.172419
-0.014316
0.007763
0.009856
0.062188
-0.100207
0.191774
0.002195
-0.200081
0.142558
-0.135275
0.108265
0.021114
-0.056411
0.013294
-0.227243
-0.067375
-0.327368
-0.135330
-0.549442
-0.252740
-0.345466
-0.078597
-0.057660
0.115431
0.038324
-0.173638
-0.002507
-0.056785
-0.038429
-0.147779
-0.062105
0.285870
-0.194493
0.190713
-0.006591
0.191244
0.039143
-0.164210
-0.064016
-0.126342
-0.274165
0.102359
-0.041704
-0.053712
0.035124
-0.010689
-0.016563
0.045487
-0.239874
-0.170987
-0.150050
-0.102431
-0.128479
-0.021599
-0.199636
-0.221472
-0.111626
0.196605
-0.121408
0.203269
-0.136371
-0.022374
-0.035254
-0.223093
0.165529
0.042882
0.012549
-0.042468
0.172622
-0.102583
0.048543
-0.001120
-0.046950
0.085133
0.121702
-0.247432
0.111818
0.044149
0.029821
0.124378
-0.063698
0.185635
-0.165239
-0.026822
0.131969
-0.202095
-0.015227
-0.350420
0.073194
-0.017607
0.067455
0.186870
0.022636
-0.188119
0.298772
-0.171197
0.184198
0.134904
0.086865
0.109339
-0.316277
0.095307
0.254537
0.151980
-0.032591
-0.003039
0.288589
-0.022154
0.101901
-0.105612
0.114141
-0.079621
0.274800
-0.002113
0.205708
-0.113518
0.145703
-0.182235
-0.302346
-0.055351
-0.021617
-0.061278
-0.108937
-0.101860
-0.012552
0.022119
-0.012441
-0.040226
0.009361
0.094380
0.022062
0.102886
-0.024590
-0.129751
0.048618
-0.121767
0.192558
-0.174844
0.143904
-0.005841
0.142471
-0.227999
0.051649
-0.201618
-0.026278
0.042490
-0.040860
-0.035270
-0.082712
-0.112219
-0.182446
-0.205466
-0.201423
-0.231658
-0.227348
0.058559
-0.116799
-0.139799
0.060510
-0.013185
-0.415298
0.068310
0.157099
0.330150
0.156910
-0.177234
-0.035029
-0.311478
-0.202087
0.084325
-0.021162
0.004738
0.003731
0.219698
0.067840
0.003052
-0.180920
-0.122162
-0.105888
-0.227250
-0.321833
-0.145910
-0.114907
-0.032221
0.037815
0.051424
0.110203
0.031147
0.069399
0.012740
0.097123
0.021889
-0.025285
-0.038392
0.113340
0.014116
0.033867
-0.011969
0.027314
0.068734
-0.041337
0.027919
0.119567
-0.120013
-0.273333
-0.133757
0.059005
-0.099417
0.056870
0.160070
0.188752
0.209487
-0.401494
-0.716203
-0.890622
-0.889054
-1.014223
-1.046506
0.130241
-0.000342
0.062485
0.018187
-0.022479
-0.022939
-0.026420
-0.145202
-0.034447
-0.002528
0.090275
0.286996
0.103046
0.071347
0.104854
-0.127197
-0.282874
-0.113459
-0.039654
-0.050815
-0.029420
0.014952
0.036085
-0.009358
0.102797
0.057866
-0.051257
0.036550
0.031921
-0.031184
-0.034402
-0.110221
0.011440
0.050469
0.090492
0.029473
-0.037695
-0.172462
-0.408404
-0.190829
-0.159900
-0.211113
0.427078
0.352425
0.331295
0.022212
0.286016
0.211780
-0.052323
0.055090
0.023720
0.114082
-0.029010
0.022056
0.119476
0.162472
0.299571
0.018853
-0.123187
-0.088265
-0.365854
-0.261013
-0.409050
0.218227
0.168442
0.064971
0.228072
0.100835
0.083480
0.043001
-0.036580
0.227445
0.132799
0.081340
0.111013
0.042567
0.125071
0.032484
0.001760
-0.151956
0.074687
0.010765
-0.011942
0.102033
-0.494643
-0.468148
-0.410884
-0.525315
-0.465275
-0.412545
0.012664
-0.061738
-0.201379
-0.014752
0.191623
0.139249
0.206058
-0.109091
-0.088634
0.222294
0.203896
0.106092
0.195230
0.164572
0.210750
0.147452
0.055691
0.103737
0.103577
0.174651
0.044912
-0.038943
0.042289
-0.049903
0.049902
-0.069676
-0.046094
-0.070699
-0.068543
-0.177285
0.147675
-0.004568
-0.082969
0.293878
-0.015576
0.142596
-0.092591
-0.122353
-0.128177
-0.213638
-0.162443
-0.019183
-0.017176
-0.124687
-0.011470
0.012828
-0.042848
-0.053967
-0.155875
-0.256619
-0.207538
0.023010
-0.076162
0.051259
-0.015068
0.048595
-0.124842
0.045754
-0.041157
0.054846
0.177285
-0.019647
0.074743
0.041983
-0.015037
0.053444
-0.355349
-0.426137
-0.226961
0.012772
0.009626
0.000201
-0.033275
-0.044777
-0.017348
0.155334
0.037371
-0.046107
0.155872
-0.133760
-0.008199
0.088080
0.124981
0.250247
-0.295817
-0.246732
-0.045368
-0.131779
-0.334171
0.022072
-0.039922
-0.011812
0.168324
-0.257384
-0.536079
-0.255796
-0.156892
-0.484096
-0.590324
-0.045885
-0.076018
-0.075798
-0.054036
-0.048360
0.000248
0.059058
0.002351
0.023641
0.152794
0.129543
0.037086
-0.195258
-0.182706
-0.085076
-0.119104
-0.186828
-0.190204
0.068553
0.015879
-0.100878
0.050401
0.039434
0.044421
0.001782
-0.035496
-0.102648
-0.156251
-0.078730
-0.054776
0.009303
-0.008123
0.080439
0.303490
0.285817
0.114361
0.018938
-0.137759
-0.144600
-0.049004
0.023612
0.074149
-0.180148
0.013774
0.113508
-0.103878
-0.148905
-0.056783
0.086038
0.130629
0.142093
0.097105
0.054898
0.028034
-0.299325
-0.581826
-0.453320
-0.278457
-0.085904
0.222428
0.278809
0.300002
0.278253
-0.115373
-0.147027
-0.285189
-0.116774
-0.258290
-0.290414
0.004716
0.305012
0.417755
-0.141822
-0.358693
-0.143716
-0.317044
-0.002727
0.075470
0.015162
0.134290
0.251999
0.090682
0.047671
-0.084883
0.125077
-0.039364
-0.139504
0.186544
-0.169897
-0.260437
-0.112359
-0.114092
-0.347117
-0.111601
-0.278010
-0.275322
0.341601
-0.048293
-0.002637
-0.349618
-0.445395
-0.315455
-0.158465
-0.013229
-0.055825
-0.181999
-0.120058
-0.234077
-0.035681
-0.311139
-0.405276
-0.067938
-0.043695
-0.121670
0.134103
-0.067181
-0.263732
0.104702
-0.047555
-0.024352
-0.352847
-0.430386
-0.211118
0.056297
0.058944
0.153969
-0.177123
-0.068776
0.027278
0.170711
0.127665
0.171819
0.114780
-0.022898
0.138109
0.021805
-0.004803
0.033469
0.172037
0.253788
0.166015
0.002979
-0.018966
-0.068732
-0.205370
-0.313222
-0.418522
-0.086876
-0.215486
-0.306012
0.133273
-0.081573
-0.091632
-0.080677
-0.035443
-0.425324
-0.040892
-0.176459
-0.009303
0.233237
-0.101993
-0.039806
-0.046722
-0.095847
-0.072541
0.047697
0.138612
0.018406
0.173808
0.177902
0.037226
-0.240277
-0.288698
-0.296193
-0.312349
-0.111893
-0.087495
0.164183
0.189900
0.182808
-0.336443
-0.353796
-0.067543
-0.324340
-0.497350
-0.060979
0.342454
0.129653
0.155763
-0.155292
-0.028588
0.106914
0.027105
0.143261
-0.004610
-0.158300
0.195238
-0.018730
-0.165511
-0.125553
-0.312982
-0.087793
0.190368
0.085363
0.173063
0.244949
0.234170
-0.250135
-0.172195
0.143066
-0.178635
-0.247199
0.003480
-0.125630
-0.105271
0.078999
-0.033536
0.056494
0.327724
-0.081976
-0.059268
-0.098312
-0.009539
-0.009191
-0.168655
-0.052421
-0.069756
-0.004889
0.155141
0.108300
0.195331
-0.060408
-0.129078
-0.041133
0.070699
-0.012439
-0.061962
0.049918
-0.007385
0.133487
-0.143968
-0.223454
0.023811
0.018481
0.005611
0.030538
-0.104238
-0.034073
0.188241
0.020655
0.033946
-0.052956
0.010953
-0.163144
-0.169451
0.155056
0.023309
0.003881
0.134189
-0.150112
-0.054568
-0.231772
-0.021644
-0.049836
-0.090382
0.013977
0.017816
0.166727
0.194955
0.184581
-0.078670
-0.521415
-0.365694
-0.625331
-0.946044
-0.318551
0.102975
-0.145674
-0.070143
-0.385918
-0.233662
-0.003233
-0.110422
-0.151320
-0.089897
0.227957
0.091776
-0.048653
0.042274
0.002740
0.009320
0.023914
-0.028990
-0.019505
0.033219
0.081159
0.049135
-0.299405
-0.187824
-0.031628
0.069201
0.026836
0.167812
-0.096136
0.044853
0.139237
-0.212891
-0.419305
-0.288206
-0.256858
-0.195153
-0.157975
-0.427947
-0.183460
-0.249155
-0.176255
-0.136820
-0.004581
0.028200
-0.013427
0.077607
0.170121
0.147799
0.192173
0.167889
-0.097630
0.235294
0.296141
-0.008394
0.025760
0.422215
0.171181
0.157614
0.131655
0.203933
0.015173
-0.154207
0.003838
-0.047528
0.012267
-0.099204
-0.132901
-0.216720
-0.198798
-0.301138
-0.301309
-0.199468
-0.212006
-0.136573
-0.254000
-0.297477
-0.041281
-0.034068
-0.108156
-0.137935
0.058512
0.162996
-0.074062
0.141929
0.008277
-0.304106
-0.305240
-0.126566
-0.263880
0.049867
-0.111649
-0.118873
0.059371
-0.072548
0.071571
0.142979
0.146126
0.032046
0.066436
0.155128
0.054973
0.140351
0.138639
0.121432
0.169475
-0.078871
0.337610
-0.415409
0.121706
-0.074189
-0.038893
0.181844
-0.034658
0.073474
-0.117761
0.115024
0.014924
0.063633
0.030452
0.041691
-0.025719
0.274585
0.318907
0.161025
0.272015
0.067246
0.361199
0.259105
0.177475
0.183957
-0.111931
0.021876
0.061298
0.054762
0.201479
0.100278
0.078250
0.098814
-0.030055
-0.178222
-0.119062
0.131455
-0.130992
-0.200778
-0.056836
-0.024634
0.024500
0.079392
0.631657
0.305705
0.019403
0.126064
-0.064812
-0.026844
-0.050487
-0.225718
0.153367
0.027997
-0.006469
-0.069067
-0.040774
0.157262
0.066509
0.184930
0.091797
0.051435
0.211391
0.255161
0.050388
0.372389
-0.001356
0.246600
0.124231
0.076049
0.092139
-0.150454
0.053009
0.157115
0.172605
0.151664
-0.023530
0.205182
0.075761
0.213590
-0.475555
-0.300919
-0.254402
-0.343694
-0.108835
-0.100110
-0.070982
-0.149456
-0.290534
-0.653547
-0.279127
-0.427055
-0.287787
-0.300372
-0.216796
-0.174586
-0.350732
0.008740
-0.245880
-0.046202
0.085850
-0.244906
-0.309638
-0.083079
-0.182157
-0.147671
-0.057674
-0.380479
0.135753
0.278540
0.002375
0.102139
-0.021410
0.129273
-0.101617
0.061592
-0.236695
-0.162178
-0.261708
-0.136880
-0.113172
0.040528
-0.106543
0.028041
-0.140533
-0.085259
-0.087705
-0.156284
0.081779
0.134692
-0.070911
0.052583
0.131817
-0.247173
-0.167782
-0.032822
-0.217407
0.087203
-0.052048
-0.055921
-0.175503
-0.173611
-0.121899
-0.065227
-0.145663
-0.177741
-0.149679
-0.340225
-0.130048
-0.100726
-0.047594
-0.042311
0.025180
-0.184349
-0.090444
-0.018721
0.033756
0.015569
0.151120
-0.057699
-0.031649
0.072713
0.088731
-0.177564
0.011553
-0.213186
-0.044098
-0.197983
-0.023807
-0.090780
-0.095216
0.027506
0.284798
0.222999
0.246348
0.045829
0.206842
0.049711
0.028448
0.149642
-0.042004
0.080394
0.055019
0.184701
0.198843
0.060256
0.188501
-0.084696
-0.387624
0.062316
0.064183
0.092646
0.047851
-0.079826
0.019108
0.030395
-0.075096
-0.002670
0.004874
0.010521
0.066363
0.036522
-0.067283
-0.033032
0.036286
-0.065427
-0.355979
-0.205812
-0.282281
-0.248436
-0.323822
-0.126992
-0.348199
-0.256578
-0.208964
0.045288
0.192784
0.071664
-0.066390
0.017187
0.059064
0.044905
0.044562
-0.207515
0.128918
0.058372
-0.270729
0.179266
-0.349161
0.201038
-0.003000
-0.116261
0.145695
-0.074353
0.143837
0.175177
0.009313
0.319479
0.113552
0.203369
0.132889
0.069078
0.314202
-0.007959
-0.129809
0.017135
0.006042
0.122205
0.195390
-0.098092
0.104231
-0.279556
-0.213102
0.010642
-0.006326
-0.256091
0.009173
-0.159601
-0.467519
0.051394
0.092556
-0.012228
-0.076568
-0.020209
0.010996
-0.158691
0.196341
-0.118670
-0.056199
-0.095061
-0.219268
0.039123
0.012332
-0.085233
0.104246
0.001557
0.090733
0.077637
-0.164498
0.053458
-0.304127
0.094809
0.068003
-0.185973
0.024963
-0.111380
0.002486
0.131262
0.151412
0.413921
0.111457
0.296546
-0.191738
0.123073
-0.399027
-0.210914
-0.163656
-0.094626
-0.056720
0.057117
0.264328
-0.290803
0.063716
-0.061919
-0.068299
-0.045846
0.136546
-0.190526
0.185657
0.369566
-0.191184
0.278824
-0.099671
-0.176591
0.061156
-0.015505
-0.046667
0.042184
-0.065090
0.019633
0.088360
0.131523
-0.041998
-0.041821
-0.126936
-0.075243
-0.060134
-0.017100
0.083812
-0.032073
0.039947
0.156749
0.292943
0.346113
0.162245
0.194599
-0.068432
-0.259588
-0.087759
-0.077691
0.143637
-0.000803
-0.148179
0.014578
0.366443
0.117334
-0.005578
0.174296
0.130108
0.104509
0.177588
0.154270
0.168546
0.058129
0.258062
0.043463
0.206970
-0.023185
-0.110361
-0.235359
-0.155558
0.303367
-0.118987
0.135297
-0.001492
0.018874
0.419704
0.092211
-0.222919
-0.326908
0.097938
-0.123868
-0.251054
-0.040992
-0.179300
-0.119319
0.060318
0.072346
-0.355326
0.148549
-0.238278
-0.181809
-0.056203
0.169510
-0.144925
-0.106533
0.267292
-0.171792
0.159994
0.014800
-0.109180
0.051675
0.052468
-0.002620
-0.219075
-0.164593
-0.316889
0.117159
-0.185127
0.060614
0.125925
-0.004366
0.250160
-0.004513
0.139412
-0.103455
0.075970
0.093421
-0.077481
0.048084
0.184999
0.089766
0.138338
-0.027501
0.021031
-0.113185
-0.168167
-0.074669
-0.071687
-0.172716
0.132134
-0.156613
-0.003258
-0.365272
0.133551
0.026943
-0.118171
-0.098082
-0.020872
-0.083829
-0.005265
0.025618
0.080775
-0.035533
-0.161712
-0.366101
-0.138191
-0.217055
-0.439185
0.197996
-0.097042
-0.003965
-0.056855
0.023774
-0.051543
0.163844
-0.033085
0.104707
0.103268
-0.065732
0.103886
-0.061086
0.077276
-0.099613
-0.002494
-0.162759
-0.392482
0.117540
-0.255059
-0.095471
0.197549
-0.134436
0.019924
0.171288
-0.040919
0.355834
0.003066
-0.067661
0.198016
0.020614
0.200828
-0.007566
0.315970
0.014525
-0.126564
0.041390
0.103170
-0.249076
0.234517
-0.287867
-0.036126
0.178321
0.001943
0.272031
-0.345491
0.041029
-0.042039
0.002290
-0.098058
-0.099603
0.042213
-0.012816
0.078005
0.001927
-0.071963
-0.268894
0.101645
-0.111654
-0.322655
-0.133393
-0.240127
-0.327062
-0.217455
0.028964
-0.140340
-0.058868
0.101535
0.009877
-0.092328
0.083561
-0.038689
-0.085007
0.045936
-0.143845
-0.062052
-0.099201
-0.183652
-0.181200
0.039505
-0.065837
0.419501
0.004253
-0.053746
0.157072
-0.030835
-0.414927
0.311848
0.022885
0.042147
0.303542
0.196820
-0.064477
-0.251624
0.101711
-0.284022
-0.238739
0.001302
0.184368
0.130959
-0.008690
-0.046866
-0.046346
-0.066198
0.048165
-0.007094
-0.014687
0.059417
0.064818
0.003922
0.034501
0.037972
-0.066835
0.038531
-0.071590
0.031646
-0.056803
-0.003638
0.024355
-0.061513
0.013735
-0.068471
-0.025323
0.032802
0.047327
-0.045902
-0.065688
0.007765
-0.017767
-0.068914
-0.061295
0.027461
-0.006210
-0.083780
0.005482
-0.025646
-0.077999
-0.027338
0.040859
0.021828
-0.034134
-0.030393
-0.072324
0.040240
-0.088076
-0.099817
-0.092564
-0.026577
0.064948
0.014644
-0.071681
-0.006346
0.012356
0.070214
-0.049091
-0.073895
0.057717
0.061980
-0.040213
0.019655
0.016470
0.060506
0.032331
-0.092768
0.025560
0.005170
-0.067565
0.065090
-0.065517
-0.046304
-0.124415
0.026607
0.026349
-0.094558
-0.014711
-0.059879
-0.107312
-0.076129
-0.058531
-0.008882
-0.017313
-0.059265
0.036489
0.040510
0.061995
-0.106259
-0.040739
0.039381
-0.039128
-0.037153
-0.079780
0.002475
0.119410
-0.036550
-0.064372
-0.063190
0.052270
0.028550
-0.080175
0.073630
0.053799
-0.123703
-0.019927
-0.004806
-0.085866
-0.084938
-0.055544
-0.001415
-0.070977
-0.070547
-0.047826
0.033262
-0.010144
-0.092150
0.018348
-0.006871
-0.092897
-0.030348
0.036931
-0.081938
0.063418
0.003378
-0.031099
0.022490
-0.027578
-0.024681
0.032024
0.019222
-0.050663
-0.020667
-0.081009
0.001547
-0.082956
0.040768
-0.063442
-0.094820
-0.047252
0.023413
0.028032
-0.038991
0.054634
-0.050667
-0.001865
0.015831
0.031139
-0.042493
0.059659
-0.069919
-0.104799
-0.044389
-0.047451
-0.013030
0.073480
-0.031331
-0.043791
-0.040554
0.050528
-0.007694
-0.115708
0.065235
0.016121
0.044287
-0.092231
0.004142
-0.110946
0.077957
-0.079680
-0.052421
-0.078962
-0.110615
-0.052564
-0.049928
-0.052076
0.042407
-0.052698
-0.112496
-0.088123
-0.030627
-0.042213
0.045131
0.020311
-0.008663
-0.082151
-0.002821
-0.047285
-0.123259
-0.055195
0.017472
-0.031888
-0.071680
-0.040478
-0.016600
-0.021865
-0.034157
-0.076036
-0.086611
-0.056372
0.012752
-0.073020
-0.055904
-0.017648
-0.022334
-0.113263
-0.103071
-0.006170
-0.034862
0.014782
-0.004460
-0.023328
-0.082466
-0.045071
-0.031729
0.037037
-0.006581
0.010152
0.016112
-0.050710
-0.050842
0.037049
-0.065141
0.041771
0.024079
-0.060373
-0.099988
-0.106196
-0.099169
-0.037866
-0.047476
-0.038762
-0.026777
0.018307
-0.040724
-0.014743
-0.089434
-0.034028
-0.081384
-0.125506
-0.035409
-0.038103
0.002005
-0.019040
-0.122473
0.010750
0.055117
-0.007071
-0.017956
-0.079968
0.016854
-0.102817
0.016462
-0.077783
0.062553
0.036066
0.024119
0.031731
0.046386
0.019773
0.015550
0.038994
-0.099140
-0.037843
-0.027016
-0.028046
-0.062759
0.041221
0.015820
-0.023689
-0.018091
-0.052224
-0.080018
-0.000377
-0.117578
-0.010790
-0.041295
-0.070377
-0.031258
-0.047500
0.035724
0.076655
-0.004255
-0.078974
0.014720
-0.055322
-0.092307
0.042771
-0.066403
-0.063758
-0.002596
0.243947
0.161806
0.054927
0.046968
-0.191066
-0.211468
0.097316
-0.021813
-0.224001
0.078068
-0.064904
-0.040393
0.143272
0.071314
0.112038
-0.140576
-0.067808
0.014113
0.100040
0.004748
-0.002629
-0.028475
-0.073600
-0.338545
0.092825
0.157903
-0.122369
-0.041555
-0.132114
-0.207657
-0.061335
-0.119034
-0.160254
-0.007081
-0.307525
-0.307119
0.231410
-0.089218
-0.047395
0.137954
-0.241926
-0.276347
0.243202
-0.381906
-0.353928
0.224942
-0.003833
0.001964
0.034538
0.079427
0.085168
-0.144162
-0.332975
-0.249321
0.110745
0.029830
0.068114
-0.069896
-0.044004
0.012258
-0.193012
-0.276375
-0.117972
0.124675
0.049047
0.045593
0.031484
0.095687
0.132489
-0.082682
-0.078835
-0.145194
-0.070179
0.112356
0.257635
-0.108314
-0.030669
-0.034453
0.119027
-0.016083
0.067441
-0.167442
-0.108038
0.313009
-0.317315
-0.497294
-0.294673
0.429928
0.263047
0.277958
0.201411
0.037803
0.052688
-0.042472
0.150849
-0.048224
0.028882
-0.173773
-0.038807
0.257705
0.019377
0.121375
0.192828
-0.123122
-0.275172
0.109570
-0.279192
-0.412079
-0.009533
0.007943
0.126399
-0.069038
-0.414499
-0.472001
0.239769
0.119771
-0.001858
0.108859
-0.022642
0.026888
-0.114970
-0.136539
-0.354093
0.167153
0.230966
0.043549
0.123660
0.032744
0.183350
0.035680
-0.156516
0.059910
0.023715
-0.152001
-0.104246
-0.193694
-0.379790
-0.253969
-0.166659
-0.446484
-0.148419
-0.019489
0.045476
0.137300
-0.081639
-0.015301
0.168657
-0.184694
-0.584405
-0.571476
0.240514
0.197253
0.068489
0.115702
0.049152
-0.180346
0.010083
-0.128903
-0.081601
-0.184292
-0.317192
-0.293502
-0.079192
-0.131167
0.005047
-0.059721
-0.126546
-0.215740
-0.003309
-0.395340
-0.365773
0.052291
0.028143
-0.112920
-0.046250
-0.074350
0.018020
0.005085
-0.171679
-0.076854
0.007590
-0.156872
-0.054262
-0.163846
-0.271965
-0.257486
0.268798
0.276870
0.089057
-0.164703
-0.106097
-0.166535
-0.116802
-0.286490
-0.289143
0.389035
0.280153
0.103890
0.174229
-0.004436
0.126826
-0.098524
-0.183518
-0.284317
-0.025357
-0.018362
-0.178907
-0.054619
0.039488
0.048552
-0.068654
-0.142676
-0.329570
0.138786
-0.085179
-0.185320
-0.106483
0.128001
0.073510
-0.053714
0.055804
0.152530
-0.019713
-0.156639
-0.289907
0.120945
0.075170
0.159461
0.137899
0.042653
0.007312
0.007349
-0.372140
-0.157927
0.106747
0.068714
0.052029
0.038711
-0.046080
-0.028353
-0.065101
-0.037547
-0.012666
0.130465
-0.072397
0.088948
0.043380
-0.037912
0.016161
0.002404
-0.229889
-0.128538
0.167755
0.136512
0.029442
0.032697
-0.015848
0.158966
-0.299799
-0.228626
-0.029085
0.110055
0.060464
0.025774
-0.064064
-0.024703
0.111861
-0.120404
-0.118473
-0.173426
-0.146127
0.014452
0.040075
0.002434
0.058250
0.025490
-0.020396
-0.194081
0.024430
-0.133832
-0.318519
-0.312611
-0.172197
-0.046880
-0.196938
0.369894
0.183015
0.157485
0.123663
-0.147999
-0.031897
-0.146260
-0.258075
-0.186269
-0.198087
-0.146934
-0.320132
-0.077815
0.020950
-0.083497
0.079563
-0.001899
0.056427
-0.081035
-0.029020
0.005181
0.100880
-0.014651
-0.041441
-0.076267
-0.105072
0.096737
0.101923
-0.071159
-0.029619
-0.054969
-0.210574
-0.058687
0.040393
0.044817
0.034228
-0.222242
-0.089645
-0.017906
0.259152
-0.407392
-0.235323
-0.219341
-0.608310
-0.270395
-0.266806
-0.237875
-0.197352
0.029377
-0.218408
-0.096782
0.172716
0.033408
-0.019685
-0.188588
-0.080196
0.096791
0.177303
-0.189992
-0.029526
0.016676
0.023221
0.040050
0.161573
0.029919
0.193065
0.013424
-0.120463
-0.069514
0.001698
-0.036106
-0.114865
-0.128302
-0.160981
-0.093862
0.051751
0.092915
0.009990
0.190836
0.047734
-0.067440
0.098188
0.119067
0.073536
-0.014848
-0.050313
-0.084637
-0.078154
-0.095714
-0.080480
0.222292
-0.014175
0.099677
0.135327
-0.027925
-0.066801
0.233720
0.270807
0.284616
0.176904
0.126319
-0.001647
0.319636
0.103400
-0.009215
0.035937
-0.252541
-0.052096
-0.235209
-0.109164
-0.075061
0.120208
-0.027375
-0.026063
0.032804
-0.004030
0.004513
0.243363
0.187536
0.125253
0.074256
-0.148263
-0.167932
-0.068755
-0.025096
0.046795
0.079019
0.063536
0.037983
0.167040
-0.217845
0.090715
-0.073010
-0.418420
-0.172192
-0.098686
0.008942
-0.091388
-0.128569
-0.004524
0.166182
0.289202
0.232148
0.130683
0.262586
0.205747
0.191907
0.077575
0.091904
0.063537
0.133672
-0.065235
0.079587
0.198008
0.124232
0.218745
-0.040251
-0.145430
0.042498
-0.040890
-0.088853
-0.121304
-0.100602
-0.261000
-0.041273
0.006921
-0.057601
-0.059101
-0.039130
0.091102
0.013520
0.000791
-0.175749
-0.162252
-0.086425
-0.237265
0.054529
0.046273
-0.080272
-0.084381
-0.091104
-0.130597
-0.079836
0.044523
-0.101091
-0.014402
-0.115700
-0.241424
-0.098444
0.108744
-0.114273
-0.037008
0.005309
-0.173316
-0.064014
0.033642
-0.213431
-0.045750
0.255377
0.126644
0.005441
0.009919
-0.004450
-0.027381
-0.150206
-0.136256
-0.030773
0.018157
-0.061944
-0.045917
0.133137
0.038692
-0.031804
0.162365
-0.028555
-0.043660
0.176376
0.028015
0.203444
-0.074793
0.010129
0.111239
0.039574
-0.108990
0.035199
-0.167618
-0.166744
-0.033874
0.070879
-0.297484
-0.169101
-0.033475
-0.432435
-0.495270
-0.041043
-0.492111
-0.355092
0.067644
0.007779
-0.092622
-0.022445
0.038816
-0.067332
-0.001261
-0.106656
-0.013798
0.037799
-0.308798
0.000745
0.199642
0.041841
-0.107375
0.017963
0.007192
0.079312
-0.144391
-0.193305
-0.009514
0.233598
0.273886
0.155342
0.150573
0.345786
0.207134
-0.049988
-0.036392
-0.109632
-0.118945
-0.245561
-0.073892
-0.075996
-0.040670
-0.081951
-0.125671
-0.137862
0.110354
-0.165451
-0.128744
-0.152877
0.251942
0.171042
-0.028865
-0.031043
-0.248521
-0.284591
0.068317
-0.074353
-0.044533
0.198238
-0.001041
-0.096937
-0.135493
-0.249341
-0.061782
-0.307253
-0.228322
-0.130375
-0.013837
0.012914
-0.007744
-0.105519
0.032894
-0.017338
0.025263
-0.024604
0.107899
-0.181149
0.048457
0.011597
-0.150242
-0.081350
-0.000211
-0.198172
-0.133899
-0.050327
0.224404
0.236484
0.265745
0.055141
0.001999
0.085471
0.075781
0.045302
0.062114
0.121727
-0.073252
-0.138578
0.037873
-0.361751
-0.301150
-0.120915
-0.483364
-0.482680
0.094136
-0.444462
-0.381280
0.022203
0.037124
0.060407
0.105853
-0.018092
0.154897
0.127763
0.078185
0.122529
0.069941
0.006425
0.055445
0.083724
-0.045099
0.105636
0.231112
0.122994
0.092376
0.017391
-0.007970
-0.062392
0.013029
-0.065123
-0.017439
-0.042241
0.051275
0.061800
0.058327
0.082732
0.083561
-0.096085
-0.059202
0.036822
0.046645
0.084074
-0.045957
0.040371
0.172003
0.111450
0.137708
0.129096
0.163397
0.013311
-0.161631
-0.098295
0.051443
0.020249
0.048141
0.107507
0.189893
0.128401
0.187127
0.169409
0.214512
0.068601
-0.166433
-0.113701
0.008396
-0.161144
0.041229
0.180798
0.066173
-0.176343
0.091194
-0.124758
0.047782
-0.183497
-0.266049
-0.141954
0.278976
0.181173
0.203312
-0.124571
-0.094142
0.050935
-0.266856
-0.294695
-0.085781
0.069043
0.008857
0.169452
-0.192397
-0.427455
-0.230459
-0.233778
-0.436108
-0.381534
-0.003985
-0.187664
-0.174715
-0.004012
0.056405
0.058537
-0.167067
-0.335066
-0.171273
-0.046962
-0.132184
0.089376
-0.019454
-0.093188
0.094728
-0.265241
-0.036685
0.068684
0.286953
0.375934
0.351888
-0.089927
-0.053937
0.076476
0.000204
-0.202619
-0.107618
-0.106837
-0.007974
-0.047358
0.069269
0.067456
0.020119
-0.178709
-0.372504
-0.276902
-0.020338
-0.187068
-0.222048
-0.112612
-0.162429
-0.130116
-0.134232
-0.056276
-0.158458
0.008119
0.096558
0.044912
0.074855
-0.078332
-0.045076
-0.154184
-0.172356
-0.217382
-0.083260
-0.245539
-0.088662
0.061617
-0.056059
0.052229
-0.339893
-0.249513
-0.293542
0.108450
0.026013
-0.012644
0.071086
-0.025885
0.029458
0.099188
0.007210
0.042689
0.003774
-0.244334
-0.066804
0.104522
0.026126
0.034891
-0.122671
-0.313989
-0.085077
0.063926
0.164373
0.029969
0.000202
0.029616
0.042641
0.054728
-0.035666
0.056202
0.091950
-0.094856
0.005270
0.025148
-0.462799
-0.368964
-0.109432
-0.528617
-0.263026
-0.000244
-0.224533
-0.233218
0.116377
-0.000455
0.075112
-0.010413
-0.032590
-0.058910
0.011763
0.026341
0.057641
-0.073517
-0.152933
0.061632
0.014666
-0.078450
0.003695
-0.110016
-0.130185
-0.020223
0.019308
0.166590
0.149197
0.071348
0.019787
0.220948
0.158493
0.135050
0.097618
0.024187
0.157290
0.012057
-0.079139
-0.082749
-0.020371
-0.111160
-0.036530
-0.019690
-0.069295
-0.287095
0.007714
-0.533755
-0.374276
-0.383685
-0.074556
-0.193821
-0.289073
-0.075367
-0.036068
0.050169
0.092515
0.095900
0.025191
-0.162892
-0.158900
-0.139704
0.126290
0.110429
0.050246
0.056030
0.124230
-0.072446
-0.084259
-0.047609
0.068911
0.149021
0.076823
0.020156
-0.208433
-0.002464
0.071828
0.026594
-0.050140
-0.252724
-0.097671
-0.166558
-0.116063
0.076236
0.037129
-0.026473
0.082540
0.114725
0.172903
-0.027131
-0.057499
0.145004
-0.259369
0.100877
0.136422
-0.099165
-0.254883
-0.222830
0.302762
0.371698
0.353455
0.074412
0.033759
0.158588
-0.328264
-0.616937
-0.194080
-0.043307
-0.194525
0.080719
-0.110220
-0.007731
0.016825
0.057275
0.004313
-0.089003
-0.060066
-0.206211
0.098779
-0.276171
0.061350
0.298924
-0.114136
-0.094988
-0.169319
-0.093329
0.055419
0.028845
-0.079318
-0.155071
-0.254218
-0.004485
-0.035421
-0.194711
0.035950
-0.120297
-0.063865
0.192208
0.042983
-0.038850
0.112522
0.085147
0.077372
0.179893
0.126133
0.319620
-0.258404
-0.435709
-0.273557
-0.002334
-0.157879
0.021444
-0.223687
-0.203956
-0.050831
-0.059514
0.007598
-0.010030
0.053209
0.076280
-0.051297
0.204512
0.061028
0.074070
-0.031343
0.069286
0.267140
-0.226499
-0.120311
-0.132880
-0.359346
-0.072448
-0.183388
-0.059455
0.044708
0.029155
0.212923
0.101631
-0.025519
0.050777
0.026570
0.018192
0.088166
0.004447
-0.180795
0.081604
0.206777
0.178303
0.289876
0.272179
0.114898
0.131208
-0.131847
-0.097515
-0.205239
-0.652490
-0.287117
-0.133971
0.017054
-0.052963
0.145797
0.153303
0.029966
-0.167638
-0.263841
-0.262518
-0.429376
-0.349400
-0.186313
0.016204
0.081721
0.028888
0.160381
0.255625
0.169864
0.019504
0.130747
-0.055528
-0.034570
0.030266
-0.144230
-0.055799
0.007226
0.131942
-0.076760
-0.054011
-0.107673
-0.241682
-0.250631
-0.250136
-0.081274
-0.175502
-0.323237
0.045064
-0.080834
0.024779
-0.086982
-0.237264
-0.390876
0.093591
0.058495
-0.021371
0.145047
0.024062
0.079060
-0.097020
-0.064899
0.001714
-0.100957
-0.139553
0.059417
0.039482
-0.052684
0.057769
0.149465
0.100642
-0.102985
-0.051330
-0.011568
0.063025
0.124399
0.135772
0.273782
-0.197520
-0.115006
-0.026264
-0.256657
-0.377968
-0.038120
-0.231784
-0.036328
-0.022934
-0.012488
-0.084320
0.019773
0.171217
0.074040
0.064299
0.116033
0.256963
0.154364
-0.172331
0.153399
-0.060854
-0.202138
-0.101964
-0.152159
0.321774
0.329379
0.060988
0.028503
-0.173988
-0.236880
-0.023802
-0.458005
-0.599270
-0.115154
-0.048249
-0.094863
-0.160025
-0.057847
-0.187951
0.080671
-0.083748
-0.058039
0.208724
0.119853
-0.006337
0.137369
0.143870
-0.059431
-0.095120
-0.099411
-0.211217
-0.155629
-0.080728
-0.068493
-0.187286
0.174120
0.100893
-0.070838
0.036160
-0.131385
-0.039068
-0.062842
-0.078342
-0.042116
-0.127513
-0.060625
-0.096668
-0.031126
-0.098787
-0.065015
-0.284698
-0.495013
0.025214
-0.294828
-0.530276
-0.048071
0.175348
-0.252531
0.118546
-0.177664
0.083330
0.161528
-0.018257
-0.052148
0.105479
0.118884
0.061079
-0.040667
0.054027
0.023008
0.094895
0.043418
0.105072
0.181018
0.082210
0.157627
-0.275507
-0.104418
-0.182942
-0.094804
-0.046334
-0.112813
0.118171
0.054588
0.003054
-0.110125
-0.072708
-0.112630
-0.315746
-0.157576
-0.136847
0.086322
-0.231844
-0.062200
0.094842
0.146174
0.067269
0.143791
0.036691
0.129765
0.099826
0.109719
-0.021970
0.017383
0.024399
0.133607
0.120328
0.015237
0.077813
0.233851
0.325541
0.397329
-0.107901
0.020475
0.086102
-0.102570
-0.091879
-0.020137
0.175943
0.072739
0.060640
0.039788
0.079379
0.041265
-0.025254
-0.108128
0.059110
0.101481
0.122987
-0.017328
-0.320365
-0.438651
-0.323286
-0.252939
-0.349298
-0.052831
-0.062955
0.021596
0.145990
0.139484
0.068876
-0.000445
-0.045382
-0.212207
-0.061704
-0.142940
-0.276622
-0.298749
0.105551
0.070535
0.073009
-0.036669
0.150205
0.062022
-0.132565
0.096568
-0.043136
0.009472
-0.092539
0.083489
-0.126757
-0.041081
-0.254441
0.045785
-0.028196
-0.037568
0.132709
-0.009883
-0.006944
0.092591
0.040799
0.039183
0.139117
0.161978
0.265141
-0.015158
0.015399
-0.004480
-0.278300
-0.238399
-0.112298
-0.112697
-0.106114
0.034118
0.115995
0.172916
-0.064394
-0.152760
0.118751
-0.098422
0.108277
-0.151277
0.147288
-0.109004
-0.251900
-0.154370
-0.272225
-0.299100
-0.281709
-0.089656
0.215492
0.110771
0.114766
0.195212
0.205240
-0.055678
0.015518
0.014747
-0.158564
0.135605
-0.241256
0.129936
0.098073
-0.033413
-0.212810
-0.204498
-0.110606
-0.083918
0.000435
-0.042193
-0.072847
-0.159875
0.034270
-0.104982
-0.054625
-0.155096
0.012457
-0.026065
-0.058858
-0.048348
0.119006
0.022082
-0.145861
-0.252854
-0.038310
-0.275253
-0.157467
-0.256244
0.005209
0.150815
0.283696
-0.036799
0.077650
-0.055617
0.139557
0.200144
-0.058590
0.124472
0.140250
0.007616
0.056863
-0.050656
-0.000977
-0.058244
-0.163636
-0.011052
0.142517
0.210064
-0.021962
-0.124401
-0.124138
0.088496
-0.274980
-0.130431
-0.177599
-0.039917
0.126691
0.113483
0.195103
-0.070986
0.015966
0.185437
-0.057213
-0.006455
0.027037
-0.019012
-0.139553
-0.097008
-0.106279
0.017316
-0.071191
0.102413
-0.036713
-0.150843
-0.035184
-0.053998
-0.143427
-0.122265
0.041971
0.088947
0.243060
0.149278
0.109793
0.056723
0.055951
-0.030069
-0.097551
0.014239
0.098584
0.177107
0.112305
-0.102925
-0.102374
-0.059165
-0.148222
-0.228649
-0.151489
-0.168450
-0.233084
-0.152494
0.015822
0.126679
0.261963
0.185091
0.269947
0.056184
0.192983
0.338163
0.021636
0.008357
0.052414
0.070466
-0.052283
-0.117341
-0.061662
-0.058571
-0.048493
-0.095590
0.030458
-0.168057
0.195408
-0.121730
-0.417777
-0.079144
-0.034497
-0.360408
0.108717
0.085863
-0.125126
-0.214526
0.122778
-0.342481
0.182551
0.278615
-0.382979
0.075254
-0.246293
-0.350483
-0.256082
-0.499969
-0.464069
-0.467787
-0.220468
-0.216477
-0.093582
0.025157
-0.143537
-0.206567
0.164563
-0.162608
-0.161210
0.087370
-0.181165
-0.084435
0.149704
0.045524
-0.055568
0.241710
0.094318
0.083886
-0.132685
0.086143
0.013714
0.103276
-0.079260
-0.105327
0.123222
0.105155
-0.015016
0.107758
-0.063518
-0.068724
0.149759
0.035384
0.115682
-0.168977
-0.405957
-0.020840
-0.441039
-0.534047
-0.358981
0.017196
-0.155895
-0.248107
-0.069025
-0.173017
-0.572848
-0.187193
-0.071451
-0.240255
0.352450
0.212301
0.207262
-0.060595
-0.183627
0.015107
-0.331855
-0.438496
-0.319579
0.192680
0.177711
0.156268
-0.039835
-0.300826
-0.127537
-0.400459
-0.502305
-0.237266
-0.202100
-0.367018
-0.202555
0.023174
-0.060193
-0.062748
0.041224
-0.046621
0.090855
0.010714
0.068500
0.251380
-0.154174
0.175920
0.168813
-0.321245
-0.240945
-0.068640
-0.171372
0.103519
0.409291
-0.204933
0.086202
0.228230
-0.443818
-0.044819
-0.100239
0.000223
0.062086
0.082975
-0.266574
-0.215531
-0.121073
-0.290487
-0.519639
-0.396165
-0.169052
-0.093763
-0.116773
-0.115003
-0.084947
-0.363156
-0.114179
-0.038188
-0.038720
-0.383867
-0.039217
0.122553
0.004431
0.222800
0.142177
-0.121405
0.066747
0.013245
0.087512
-0.248968
0.039217
0.018163
-0.046155
0.014990
0.076709
0.099170
-0.012522
0.008353
0.069746
-0.092449
-0.186911
-0.094955
-0.398159
-0.031896
-0.086726
-0.041418
0.187264
0.071796
0.147415
0.023681
0.204663
0.190801
-0.674508
-0.503474
-0.172116
-0.158155
-0.074684
0.220950
0.141283
0.144741
0.131916
-0.075589
-0.017518
0.119760
0.192061
0.094220
0.164199
0.027127
-0.200349
0.000579
0.032364
-0.200368
-0.177781
-0.309347
-0.099926
0.003831
-0.244429
-0.033539
0.050081
-0.116471
0.042694
0.025251
0.241832
0.277362
0.238204
-0.101820
0.047847
0.140868
-0.413056
-0.502929
-0.320316
-0.060595
-0.192162
0.050512
-0.163224
-0.225943
-0.141367
-0.147730
-0.218199
-0.200619
0.011124
-0.207220
-0.005891
-0.117497
0.081139
0.113557
-0.021264
0.128183
-0.041970
0.138421
0.031127
0.042399
-0.103515
-0.242966
-0.178567
-0.292380
-0.369972
-0.099821
-0.250097
-0.256264
0.154806
-0.209797
0.007079
0.083892
-0.134215
-0.000116
0.088502
-0.109151
-0.190278
-0.019329
-0.320843
-0.094628
-0.206236
-0.052479
-0.107903
0.007599
-0.257615
0.040254
0.212447
-0.331615
0.041931
0.169628
-0.185222
-0.114381
0.140363
-0.152065
-0.173896
-0.063666
-0.178990
-0.127468
-0.015028
-0.084181
-0.108769
-0.099401
0.276309
0.340568
0.330493
-0.068409
0.068682
0.262383
-0.251914
-0.479326
-0.102637
0.331916
0.272127
0.161187
-0.059677
-0.047595
-0.043458
-0.253023
-0.560911
-0.423201
0.118609
-0.006413
0.030848
0.135506
-0.301174
-0.167137
-0.285931
-0.163814
-0.247082
0.433590
-0.080961
0.313492
0.357521
0.190936
0.251061
-0.114526
-0.202674
0.181986
0.078375
-0.178696
0.285486
0.088955
0.128744
0.171799
-0.005639
0.043979
-0.064324
0.062865
0.023893
-0.048743
-0.580178
-0.258935
-0.482870
-0.502077
-0.399494
-0.479710
-0.040690
-0.012276
0.198267
-0.066734
-0.069319
0.073981
-0.135326
-0.186572
-0.079398
-0.180881
-0.124012
-0.007689
-0.587519
-0.304514
-0.357035
-0.428954
-0.215582
-0.226621
0.176701
0.089675
0.245625
0.047015
-0.029463
0.044176
-0.123789
-0.051059
0.030445
0.073660
0.110891
0.126563
-0.174740
-0.034544
-0.221040
-0.444664
-0.409770
-0.577227
0.101681
0.066649
0.141118
-0.042927
0.042878
-0.011426
0.163259
0.019729
0.128701
-0.134780
-0.042874
0.177316
0.003465
-0.181549
0.059047
-0.127546
-0.161070
-0.063011
0.068587
0.095531
0.159052
-0.094681
-0.008560
-0.014587
-0.147047
-0.164745
-0.081626
0.204825
0.000806
0.053241
-0.068107
-0.062508
-0.132030
0.031562
0.029345
0.075680
0.244667
0.351098
0.173553
-0.024902
0.086145
0.014849
0.081269
0.140762
0.165793
0.101643
0.124002
0.202045
-0.186203
-0.159504
-0.140272
0.112154
0.157570
0.076341
0.233574
0.225588
0.250820
0.034478
-0.084310
0.000803
-0.250238
-0.326448
-0.218511
0.084565
0.109858
0.107238
-0.582950
-0.627959
-0.277300
-0.397576
-0.435545
-0.517755
-0.021570
0.083209
0.106096
-0.681428
-0.580854
-0.295727
-0.473355
-0.353799
-0.335814
-0.070612
0.138038
0.009368
-0.297925
0.015266
-0.482234
-0.143002
-0.166488
-0.429204
0.071422
0.072817
0.040744
0.099908
0.137107
0.194698
-0.020766
-0.050001
0.134421
0.017625
-0.011558
0.009162
-0.387341
-0.598388
-0.373777
-0.338432
-0.419571
-0.473540
0.060061
0.023415
0.000994
-0.118896
0.042894
0.008238
0.033316
-0.162585
0.007146
-0.034771
-0.007535
0.088422
-0.293815
-0.391082
-0.547145
-0.190004
-0.190192
-0.322583
0.113037
0.065597
-0.038734
0.043757
-0.035008
-0.042005
0.191015
0.052168
0.104624
0.196276
0.059599
0.188532
-0.007853
-0.126959
-0.122553
-0.096560
-0.156872
-0.101646
0.129390
0.037936
0.170497
-0.086739
-0.200417
-0.156156
-0.252984
-0.149647
-0.164173
0.147283
0.141069
0.111813
-0.022514
-0.102418
-0.006056
0.036103
-0.002125
-0.064982
0.070077
-0.015640
-0.005394
-0.123501
-0.343207
-0.394614
-0.049211
-0.181896
-0.286476
0.007670
0.106271
0.306218
-0.226264
-0.201596
-0.302697
-0.370759
-0.369651
-0.208644
0.165722
0.132919
0.194959
-0.051105
0.139631
0.062539
0.057534
-0.056457
-0.162684
0.063961
0.089320
0.121879
-0.020699
0.044322
0.004387
-0.036922
-0.077224
-0.077587
0.350821
0.259808
0.288658
0.135584
0.112613
0.255724
0.136697
0.101154
0.177084
0.092870
0.107223
0.169853
-0.020336
0.031020
0.047986
-0.050615
0.024617
0.256082
0.085940
-0.043402
-0.089745
-0.043117
0.071942
-0.007231
0.116379
0.204047
0.159437
0.049916
0.082698
0.112707
-0.102136
0.070470
-0.192496
0.133308
0.054978
-0.130722
0.145322
0.025115
0.100129
-0.182817
-0.188305
-0.144216
-0.130998
-0.014326
-0.113662
0.212589
0.275996
-0.018128
0.131884
0.135865
0.070378
0.083545
0.085195
-0.083529
-0.003933
-0.036485
-0.060283
0.050401
0.004338
0.023697
-0.071309
0.016018
0.027368
-0.185012
0.039636
0.066547
0.046438
0.183684
0.007557
0.114720
0.215450
0.192423
-0.088796
-0.384505
-0.099542
-0.360444
-0.447140
-0.109451
-0.114630
-0.080213
-0.032721
0.120354
-0.226591
-0.132074
-0.019804
-0.437705
0.213850
0.085335
-0.213411
0.053943
0.100880
0.019966
0.124960
0.040096
0.075055
0.184713
-0.005985
-0.013211
0.091514
0.118577
0.022714
0.093736
-0.025981
-0.154552
0.147224
0.126337
0.191915
0.198361
0.046289
-0.060958
0.033268
-0.043171
0.096438
0.086733
0.078973
0.120515
0.053214
0.061213
-0.012905
0.145443
0.099222
-0.130687
-0.014782
-0.049700
-0.169734
0.057190
0.017748
0.044636
0.199622
-0.375592
-0.446448
-0.314063
-0.344726
-0.487729
-0.254370
0.265465
0.110172
0.270490
0.074154
0.201660
0.222930
0.043081
0.077466
0.125160
0.019341
-0.133185
0.033601
0.117801
-0.184837
0.047589
0.167518
-0.065817
0.060993
-0.305386
-0.089491
0.100957
-0.151541
0.007019
0.061606
0.113489
0.018609
0.148356
-0.327744
0.026688
0.069208
-0.007868
-0.029551
-0.073653
0.078585
0.152020
0.185348
0.033103
0.013764
0.203755
0.037659
0.091215
0.342560
0.066608
0.072183
0.176381
-0.068310
-0.191466
-0.021217
-0.102983
-0.356091
-0.331618
-0.188792
-0.124137
0.033031
-0.243498
-0.072237
0.140945
-0.101034
-0.058628
0.042171
0.202425
0.010832
0.200446
0.078836
0.093813
-0.055589
0.008778
0.031161
-0.018906
0.087220
-0.012556
0.071264
-0.045071
-0.125472
-0.194704
-0.121626
-0.040662
-0.128246
-0.026980
-0.072938
-0.256243
0.009858
-0.029288
0.063681
-0.031648
-0.249411
-0.123049
-0.180821
0.015010
-0.033477
-0.252049
-0.382045
-0.149439
-0.428161
-0.428990
-0.219683
-0.174074
-0.184391
-0.045281
-0.345347
-0.355798
-0.332779
-0.113842
-0.270727
-0.165659
-0.016429
-0.204074
-0.115151
0.043364
0.126065
-0.094979
-0.153170
-0.265409
-0.045391
-0.225817
-0.136999
-0.166186
-0.073303
-0.078030
-0.004834
-0.081873
-0.083005
-0.111887
-0.087123
0.004716
0.118064
0.061696
0.044743
-0.070797
-0.113336
0.150030
0.066168
0.105842
0.015601
-0.143632
-0.056020
0.085102
0.046206
0.039053
0.163904
0.056832
-0.185283
0.015868
0.177187
-0.028461
-0.035061
-0.088529
-0.095821
-0.020192
-0.066527
-0.018540
-0.043086
0.008634
-0.012558
-0.009549
0.076315
-0.209440
-0.123354
-0.059342
-0.256563
-0.015470
-0.023702
0.135391
0.130981
0.149208
0.067246
0.233528
0.216282
-0.009925
0.039501
0.177266
0.282131
0.307818
0.082373
0.113341
-0.026658
-0.105523
0.088679
-0.068574
-0.161179
0.013342
0.177831
0.094239
0.133562
-0.074810
0.084338
0.037978
-0.254351
0.057199
0.150157
0.084869
-0.024734
-0.113832
-0.147135
-0.192809
-0.229079
-0.301753
-0.216725
-0.228304
-0.445923
-0.078974
-0.110357
-0.175481
0.022483
-0.043642
0.003634
0.139108
-0.146354
-0.076860
0.018763
0.103190
0.017431
0.150293
0.137452
0.138203
-0.002411
-0.096766
-0.192114
-0.060090
-0.274736
-0.269176
-0.106679
-0.052640
-0.107187
-0.233696
-0.202325
-0.323528
-0.139818
0.218747
0.049140
-0.023050
0.104307
-0.070339
-0.018319
-0.120825
-0.241327
-0.227144
0.050878
-0.160878
-0.123679
0.125084
0.102955
0.092228
-0.215207
-0.323829
-0.273438
0.029773
0.148031
-0.012501
0.144074
0.100276
0.032474
-0.240358
-0.382876
-0.058019
0.158103
0.074378
-0.068181
0.122258
0.049257
-0.015921
0.065686
-0.050378
-0.031735
0.031343
0.019740
0.057129
0.021520
-0.099656
-0.042630
0.082071
0.074680
0.152537
-0.114501
0.004220
0.074142
-0.159646
-0.062853
-0.009871
0.113521
0.083981
0.123822
0.051025
0.023012
0.104094
-0.127165
-0.129088
0.000610
0.099265
-0.137768
-0.050190
-0.112330
0.181718
0.059039
0.082783
-0.086623
-0.105461
-0.143094
-0.289621
-0.153352
0.096104
-0.118894
0.078055
0.279346
0.110060
0.167194
-0.049125
-0.040475
-0.080608
-0.273229
-0.052215
-0.016679
-0.202044
-0.136915
0.004206
-0.064071
-0.011440
-0.079484
-0.297905
-0.359529
-0.073782
-0.048300
-0.181310
-0.094536
-0.024868
-0.007796
-0.102661
-0.252143
-0.315202
-0.297887
-0.148552
0.091619
0.222828
-0.372602
-0.195339
-0.166181
0.043525
0.213139
0.083243
0.161090
0.223978
0.107287
-0.093001
-0.184464
-0.147972
-0.118259
-0.026688
-0.001707
-0.334650
-0.187122
-0.266655
0.005712
-0.019642
0.005682
0.035985
0.007043
0.169555
-0.000588
0.038561
0.029723
0.255552
0.191778
0.015762
-0.044909
0.048379
0.050696
-0.063452
0.012210
0.227431
-0.149946
-0.086467
0.144848
-0.079745
0.078441
0.053279
-0.068368
-0.008246
0.036374
0.177658
-0.078352
0.165994
0.022819
-0.186016
0.101760
-0.094871
-0.304308
-0.092173
0.107591
-0.003597
-0.005615
-0.094940
-0.081967
-0.074808
-0.377295
-0.024643
-0.142965
0.083081
-0.189519
0.103975
0.128420
-0.119778
-0.010331
-0.022445
-0.078069
0.014386
0.032776
0.044796
-0.005212
-0.104078
-0.020585
0.019100
-0.256841
0.034678
0.003389
-0.188397
-0.486573
-0.011188
0.084466
-0.196117
-0.048235
0.176228
0.006441
0.051438
-0.093638
-0.108379
0.010281
-0.189389
-0.029031
0.132192
-0.059524
-0.032904
0.253915
0.093168
0.069340
0.013681
0.032439
0.023182
0.093611
-0.099164
0.013038
0.016697
-0.132773
-0.055207
-0.015270
0.085241
0.073800
0.141750
0.097190
0.166134
0.304177
-0.132369
-0.319356
-0.144662
0.206040
0.230473
0.137869
0.314965
0.190772
0.178465
0.150391
0.095084
-0.042889
0.097368
-0.121417
-0.137301
0.052209
-0.051372
-0.080924
0.523232
0.037990
0.211321
0.043099
0.052438
-0.012870
-0.328705
-0.116028
-0.131796
0.257814
0.227111
0.244875
-0.465819
-0.401436
-0.319503
-0.279649
-0.448464
-0.482105
0.130461
-0.155957
0.251276
-0.003450
-0.595540
0.084869
0.016891
-0.301527
0.079376
0.036443
-0.111559
-0.266203
-0.248703
-0.239416
-0.376036
-0.036758
-0.271085
-0.332063
0.036515
-0.154589
0.049073
-0.122388
-0.368813
-0.009068
0.206284
0.101182
0.125213
0.158688
-0.185150
-0.175101
-0.225676
-0.222914
-0.154495
-0.242719
-0.388886
-0.204647
0.323794
-0.651028
0.258242
-0.056744
-0.981401
0.164275
-0.080484
-0.616701
0.171134
0.155804
-0.039852
0.031957
0.122475
0.064644
0.133055
-0.061510
0.034767
0.016830
0.090337
-0.246894
-0.132773
-0.099198
-0.246040
-0.008108
-0.026051
-0.079161
-0.118678
-0.023600
-0.136936
-0.046203
-0.216774
-0.246296
-0.210330
-0.100210
-0.118047
-0.148490
0.135144
0.077259
0.109567
0.012854
0.018043
-0.016790
0.101027
0.125025
0.094410
-0.210538
-0.105713
-0.106765
-0.093939
0.039424
0.075297
-0.071213
-0.108365
0.116889
0.050532
0.097376
-0.051040
0.071067
0.099394
0.128347
0.040102
-0.101991
-0.038793
0.159638
-0.353846
0.191890
-0.082501
-0.415213
0.253416
-0.072459
-0.267336
0.289860
0.049621
-0.194777
-0.078199
-0.299813
-0.335416
-0.188965
0.102291
0.093421
0.206160
-0.013203
-0.064416
0.015201
-0.301098
-0.350306
-0.086239
0.095852
-0.039410
0.083407
0.274365
0.078772
0.471054
0.282127
0.143491
0.378019
0.183687
0.021886
0.320383
0.064534
-0.146561
-0.070253
0.008589
-0.110485
-0.140461
0.118466
0.102144
0.103068
-0.016561
-0.082285
-0.026163
-0.173070
-0.256180
-0.201734
0.227166
0.155887
0.262039
0.055518
-0.166712
0.039049
0.069164
-0.074505
0.002638
-0.162850
-0.155681
-0.120638
-0.055838
-0.147612
-0.208685
-0.140950
-0.320632
-0.105067
-0.042615
-0.112978
-0.300258
-0.143113
-0.259630
0.049942
-0.102220
-0.068402
0.078850
-0.270800
-0.234903
-0.066151
0.176098
-0.057011
0.088938
0.013475
-0.288536
-0.026164
0.004630
-0.139750
0.080008
-0.022151
-0.047331
0.080665
-0.181095
-0.270217
-0.052641
0.018823
0.027557
0.199749
0.199034
-0.101209
0.057143
0.008117
-0.133950
0.067628
0.127316
-0.070856
-0.012467
0.133272
-0.013707
-0.038717
-0.046755
-0.070749
-0.229825
0.112730
0.049895
0.040509
-0.059963
-0.257952
0.024368
-0.080433
-0.158799
-0.015129
-0.140457
-0.195883
0.047522
0.073238
-0.588509
-0.095975
-0.212425
-0.933228
-0.484081
-0.134384
-0.399330
-0.192899
0.132441
0.011241
0.125460
0.143405
0.029654
0.102350
0.106584
0.106506
0.007734
-0.023947
-0.291031
0.062457
-0.074181
-0.179767
-0.093105
-0.103079
-0.309843
-0.019420
0.132763
0.048736
0.045397
0.228275
-0.009064
-0.095132
0.156808
0.026754
-0.097470
0.197648
0.235451
0.114391
0.283105
0.224284
0.167049
0.123167
0.114619
-0.026891
-0.232313
-0.233140
-0.136422
-0.156693
-0.260163
-0.103346
-0.232148
-0.086319
-0.010095
-0.217845
-0.265569
-0.233726
-0.149834
-0.094116
-0.127109
-0.341189
-0.354189
-0.303435
0.244741
0.014084
0.022873
0.191124
0.197662
0.064958
0.045630
0.086651
0.170181
0.035103
-0.034408
-0.151869
0.274916
0.214765
-0.158668
0.141394
0.227480
0.026977
0.035718
0.006885
-0.316223
0.101249
0.027632
-0.183645
0.044774
0.137650
-0.021642
0.006136
0.030045
-0.131619
0.002378
0.037564
-0.184125
-0.069991
0.010372
0.078267
-0.005791
-0.377949
-0.440351
0.171254
-0.069907
-0.330293
0.162069
0.046285
-0.099916
0.046854
-0.005690
-0.118326
0.007032
0.017952
-0.146783
0.116248
0.027690
-0.009404
-0.017018
-0.091324
-0.250537
0.060728
-0.055236
-0.232029
0.091218
0.066109
-0.102371
0.075582
-0.153215
-0.436270
0.260991
0.118400
-0.291635
0.259402
0.169798
-0.129610
-0.123906
0.142726
0.270932
-0.382996
-0.146496
0.162030
-0.109325
-0.132686
0.192352
-0.041973
0.259951
0.282706
-0.554581
-0.016407
0.359744
-0.671563
-0.486954
0.270106
-0.006695
0.027586
-0.009802
-0.103327
0.027121
0.236219
0.149035
0.078965
0.115109
0.007954
-0.223142
-0.289151
0.252980
0.025943
-0.305848
0.185722
0.029767
-0.156678
-0.036003
-0.167683
-0.066081
0.061171
-0.193345
-0.350371
0.040810
-0.023237
-0.106999
0.100842
-0.060912
0.015890
0.039767
0.135302
0.051320
-0.007801
0.060748
0.085622
-0.028291
-0.018842
-0.087596
-0.012887
-0.001687
0.056521
0.215035
0.199226
0.097526
0.084426
0.126459
0.190624
0.036978
0.144804
0.042196
-0.222922
-0.080336
0.174159
0.040007
0.096404
-0.059107
-0.158659
-0.007521
-0.010654
-0.114705
0.000212
-0.038235
-0.001278
0.015294
-0.058973
0.112931
-0.101209
-0.035261
0.064362
-0.123928
0.063190
-0.113383
-0.259548
0.008517
-0.044712
-0.114564
-0.022694
0.106559
-0.115115
-0.206297
-0.041641
0.080134
0.184276
-0.270809
-0.211274
0.118106
-0.150569
-0.193645
0.027124
-0.154685
-0.049899
0.287254
-0.256844
-0.201277
-0.011579
-0.109972
-0.104418
0.106039
-0.084080
-0.016154
0.159325
-0.266859
-0.167182
0.097097
-0.087397
-0.176664
-0.054167
0.076997
-0.012136
0.006709
-0.013385
0.036126
0.133868
-0.195799
-0.019506
0.154172
0.052627
-0.063242
-0.065746
0.059281
0.034995
0.075107
-0.059615
-0.116865
-0.144485
-0.068869
-0.259587
-0.534959
0.141190
-0.094881
-0.218834
0.177899
0.079745
-0.275277
0.016952
-0.167170
-0.275499
0.139225
-0.000203
-0.129515
0.336329
0.127044
-0.060346
-0.122250
-0.101185
-0.184970
-0.085603
-0.036550
-0.033336
-0.001341
-0.047162
-0.109637
0.077309
0.375529
0.112689
0.035261
0.322283
0.308934
-0.135583
0.022637
0.213701
0.118711
-0.037290
-0.149594
0.150033
-0.014068
-0.044218
0.111524
0.073503
-0.024967
-0.095330
0.174847
0.577487
-0.250033
-0.295455
0.427363
-0.415779
-0.532559
0.025845
0.151058
-0.039651
0.248898
0.020647
-0.161417
0.316970
0.056611
0.054715
0.025535
-0.274933
0.203126
0.500657
-0.335589
-0.083337
0.245189
-0.049970
-0.048876
0.006509
-0.059815
-0.077250
-0.307723
-0.274980
0.175699
-0.178950
-0.123547
0.079697
-0.021342
-0.096803
-0.225664
-0.288466
-0.179523
-0.328218
-0.376981
-0.454877
-0.468750
-0.299322
0.079212
0.034890
-0.067513
0.023149
-0.013104
-0.119362
-0.016333
0.070773
0.073216
-0.035353
-0.209688
-0.006418
-0.202264
-0.012116
-0.253866
-0.199583
-0.093432
0.093439
0.325070
-0.016284
0.163005
0.472506
0.268795
0.149576
0.052176
0.083216
0.115385
-0.001780
-0.348111
0.097451
0.040004
-0.075452
-0.053961
0.157348
-0.045563
-0.114420
-0.078657
-0.203612
0.042729
-0.037740
0.103620
-0.080834
-0.062456
0.043986
0.103479
-0.275983
-0.146432
-0.202865
-0.255940
-0.337393
-0.338624
-0.322335
-0.164135
-0.218117
0.010079
0.016303
-0.090767
0.059199
-0.199927
0.093598
-0.007540
-0.082361
0.063753
-0.062565
0.012400
0.124081
-0.037422
0.106775
0.124785
0.006724
-0.015725
-0.044144
0.123998
-0.024455
0.104682
0.150634
-0.016651
-0.092775
0.212561
0.098335
-0.040949
0.190537
-0.018866
0.154482
0.070428
0.142063
0.115071
-0.124276
0.188346
-0.025330
0.179106
0.007678
-0.020023
0.059238
-0.395701
0.092029
-0.039298
0.090718
0.027687
0.005142
-0.073187
-0.015704
0.013892
0.000555
-0.158053
-0.087423
0.055162
-0.043005
0.541723
-0.074177
0.144243
0.443791
-0.071893
0.166840
0.344113
0.063315
0.095229
-0.111363
-0.098863
0.032529
-0.025476
-0.282892
-0.072480
-0.084369
-0.238337
-0.088178
0.069959
0.026682
-0.060048
0.085456
-0.178771
0.004222
-0.143856
0.126011
0.107204
-0.113952
-0.060700
-0.036824
0.099386
-0.104444
-0.042434
0.043002
0.016174
-0.214144
-0.009528
-0.047395
-0.181672
0.012132
-0.045639
-0.120353
-0.065612
-0.095164
-0.067620
0.101076
-0.382288
0.064282
0.218654
-0.185413
0.105503
0.067661
-0.031646
-0.213686
-0.082767
-0.056146
-0.158565
-0.065864
0.134058
-0.157366
-0.151319
0.043947
-0.117527
0.031776
0.242254
-0.066506
-0.015326
0.120726
0.004405
-0.008258
-0.097329
-0.009424
-0.003221
-0.047366
-0.135641
-0.018107
0.155477
-0.100301
-0.056018
-0.010904
0.048453
-0.089891
0.187856
-0.058996
0.116573
-0.108680
0.177959
-0.002392
-0.039982
0.142329
0.115931
0.170835
-0.081897
0.020507
0.212273
0.009944
0.010488
-0.233741
0.299745
-0.000444
-0.013673
-0.021307
0.086086
-0.197069
0.305659
-0.004175
-0.006088
0.073683
-0.093623
-0.055391
-0.040161
-0.079044
-0.070566
0.014246
-0.083243
-0.080571
-0.019659
-0.012250
0.074125
0.009509
0.242434
-0.163714
0.052244
0.053745
0.118510
0.007066
0.020807
-0.051636
0.027425
-0.201446
0.034225
-0.093378
0.077947
-0.188930
-0.103280
-0.088971
-0.184492
-0.227980
-0.177528
-0.067560
-0.196433
0.014092
0.122703
-0.056888
0.091171
-0.293906
-0.035243
-0.058280
-0.331474
0.101575
0.075929
-0.089771
0.113901
-0.158552
-0.147349
-0.137983
-0.140337
-0.061747
-0.137356
0.013381
-0.068512
-0.028862
-0.374447
-0.317867
-0.051495
0.017006
0.182729
0.090590
-0.169768
-0.093203
-0.122133
0.030750
0.016140
0.187847
-0.165360
0.050023
-0.004626
-0.087622
-0.063606
0.126561
-0.140042
-0.586402
0.084611
-0.117614
0.004189
0.076120
-0.112534
0.136691
0.091022
0.104178
0.004665
0.091799
-0.025532
0.189279
0.021389
-0.047389
-0.025972
0.308997
-0.071016
0.050129
-0.010059
0.254939
0.404096
0.250514
0.051203
0.063718
0.105865
-0.083672
-0.047780
0.217424
0.037189
0.123235
0.046733
0.180483
0.077694
-0.030361
0.066814
0.034251
0.060329
0.155147
0.405553
0.030374
0.066947
0.092666
0.198388
0.035012
-0.070371
0.139417
-0.299733
-0.111695
0.123194
-0.317193
0.000850
0.049618
0.165282
-0.040332
-0.348403
0.253580
-0.122718
-0.113879
0.056718
-0.151609
-0.188831
0.193998
0.311570
0.061018
0.430873
0.002703
-0.409820
0.331302
-0.377214
-0.271863
0.103938
0.026468
0.022435
0.146105
0.075102
-0.057760
-0.018927
-0.137435
-0.292056
-0.047201
0.073062
-0.043842
0.056340
0.216361
-0.066530
0.046298
0.078123
0.129040
-0.080030
-0.020515
-0.058080
0.041302
0.028686
0.043283
0.004512
0.139816
-0.042532
-0.356177
-0.553227
0.096154
-0.063996
0.003163
-0.022629
-0.059596
0.131141
0.005113
0.041313
-0.204234
-0.042475
-0.130478
0.114898
0.187612
-0.205982
-0.101752
-0.016720
0.159801
-0.035532
0.055296
-0.172291
-0.105557
-0.128380
0.023779
-0.127565
0.033218
0.030240
-0.306584
-0.109191
-0.024842
0.055174
0.026988
0.113377
0.164534
0.088534
-0.327650
-0.159987
0.128323
-0.105137
-0.001137
0.057222
-0.166080
-0.001531
-0.022152
0.326951
-0.070185
-0.130810
-0.106400
0.003935
0.134915
-0.258712
-0.037759
-0.049917
-0.172895
0.041177
0.231092
-0.004000
0.129307
-0.131819
0.186639
-0.098491
-0.200570
-0.107709
-0.246112
-0.119191
0.027868
-0.139424
-0.257040
0.005491
-0.205614
-0.132729
0.242949
-0.007036
-0.141605
0.105218
-0.001400
-0.239640
0.039336
0.025179
0.085957
-0.042720
-0.024369
0.088434
0.123734
0.015680
-0.108794
0.039924
-0.163071
-0.027897
0.257272
-0.093174
-0.160936
0.024774
-0.030096
-0.048691
0.144902
0.074638
0.060551
0.168924
-0.029184
-0.109975
0.096340
0.337784
-0.020571
-0.371987
0.007437
0.010095
-0.213509
-0.191519
-0.081971
-0.281582
0.041222
0.195267
-0.288696
0.065683
-0.001499
-0.103056
-0.099986
-0.002829
-0.122093
-0.053817
-0.052428
-0.117581
-0.142849
-0.028759
-0.227288
-0.185162
0.157272
-0.148592
0.007518
0.142481
-0.177013
-0.024528
0.023808
-0.071459
-0.001071
0.103790
0.064988
0.174510
-0.167448
-0.031860
-0.071854
-0.142815
0.079908
0.116289
-0.152032
0.323403
0.154608
-0.254809
0.363620
-0.121680
-0.366996
0.535047
-0.003052
-0.180558
0.073934
-0.304846
-0.169383
-0.132619
-0.160187
0.003728
0.194663
0.284954
-0.116822
0.205529
0.046545
-0.077097
0.200323
-0.084657
-0.100881
0.120314
-0.042695
-0.025238
0.080821
-0.187179
-0.176324
-0.151357
-0.300547
0.025849
-0.082788
-0.183624
-0.090362
0.098322
-0.078801
-0.185519
0.035159
-0.037912
0.072325
0.227480
-0.153566
-0.138976
0.005102
-0.211474
-0.180216
-0.303718
-0.243018
-0.103176
0.236997
0.090552
0.008600
0.311684
-0.138948
-0.198739
0.068990
-0.583004
-0.205250
0.112902
0.107394
0.181548
0.275389
0.080961
0.020622
0.005333
-0.435666
-0.052835
0.000794
0.047549
0.121424
0.246294
-0.021349
-0.005163
0.264975
-0.265087
0.054225
0.168511
0.233994
0.019456
0.394568
-0.060067
-0.211411
0.161440
-0.257923
-0.044001
0.055564
-0.211119
-0.037125
-0.170878
-0.270381
-0.066810
-0.436780
-0.184687
-0.144056
-0.106462
-0.291767
-0.282030
-0.107012
0.117196
0.022132
0.130819
-0.002458
-0.038646
-0.076966
-0.218847
-0.289901
0.209555
0.079222
-0.206402
-0.122177
-0.278212
-0.317536
0.131047
0.375934
0.155084
0.291272
-0.086494
-0.203565
-0.027878
-0.149254
-0.130084
0.189103
0.222426
0.123524
0.244337
-0.074483
-0.033516
0.092990
-0.462102
0.035331
0.008463
-0.146627
0.155927
-0.084429
-0.009138
-0.167725
0.021248
-0.283469
-0.339236
0.037493
-0.025149
-0.042128
-0.038074
-0.148763
-0.140349
-0.410052
-0.354666
-0.146930
-0.004949
-0.184895
0.082673
0.008637
0.049603
0.109397
0.043689
0.072205
0.133373
-0.098111
-0.083916
-0.087016
0.099886
-0.203555
0.103380
-0.077623
-0.489368
-0.007247
0.172305
-0.254970
-0.030539
-0.334194
-0.105452
-0.226826
-0.098636
-0.283191
-0.252561
0.050389
0.063883
-0.009866
-0.017619
-0.052190
-0.057465
-0.160834
-0.091758
-0.018296
0.026693
0.000029
0.098766
-0.175821
-0.056032
-0.143199
0.219609
0.068352
-0.253478
0.069988
0.067420
0.096830
0.114994
0.066872
-0.110391
-0.076627
-0.078873
-0.013713
0.105704
0.015795
-0.147807
0.086933
-0.077633
-0.210584
-0.190781
-0.407012
-0.187781
0.216806
-0.068429
-0.143479
-0.054260
-0.193072
-0.089551
-0.125973
-0.151873
-0.118165
0.170147
-0.010030
-0.162116
0.169824
0.003094
-0.270473
-0.050388
-0.295144
-0.158357
0.163863
-0.287548
-0.045264
-0.246929
-0.061693
-0.262607
0.156923
-0.008960
-0.177069
0.245658
0.032390
-0.041722
0.316982
-0.157533
0.031877
-0.524910
-0.223985
0.164258
-0.129194
0.023193
0.311973
-0.259962
0.044254
0.050997
-0.013433
-0.075924
-0.267198
-0.026727
-0.118094
-0.047223
0.004423
-0.190696
-0.168617
-0.308163
-0.259936
-0.231877
-0.110086
-0.056573
0.023794
0.059469
-0.117805
-0.044656
-0.437382
-0.462312
-0.183956
0.070270
0.088141
-0.013297
0.147188
-0.018513
-0.037313
-0.128675
-0.158701
0.056977
-0.037752
0.181953
-0.055774
0.243987
0.169082
-0.048416
0.319464
0.129365
0.124305
0.156822
0.165751
0.154644
0.323335
0.130685
0.015924
0.109585
0.222865
0.120003
0.093295
0.052122
0.060129
0.196953
0.048891
-0.166628
-0.014149
-0.239372
-0.454690
-0.117853
0.150439
0.215298
-0.490618
-0.179174
0.055415
-0.427290
-0.411550
0.032473
0.070561
0.123911
0.049104
0.042641
0.194655
0.152112
-0.090097
-0.005163
0.058091
-0.185392
0.071646
0.160755
-0.430747
-0.222259
0.122879
-0.421387
-0.111758
0.104205
0.168601
0.080043
-0.030297
0.064377
-0.113175
0.147366
0.035817
-0.062692
0.110026
0.169544
0.271498
0.280049
-0.024999
-0.003227
-0.172758
-0.019257
-0.076731
-0.050920
0.220541
-0.005375
0.099743
-0.008261
0.043628
-0.099634
-0.029258
-0.074918
-0.001899
0.217732
0.199240
-0.028339
0.064018
-0.183907
-0.036126
0.015101
-0.060470
0.091092
-0.015729
0.130826
-0.048394
0.072492
0.143351
0.121921
0.008788
0.203817
0.101934
-0.070180
-0.047440
0.090871
-0.258286
-0.474140
-0.492810
-0.065133
-0.429249
-0.333759
0.197620
0.318322
0.357756
-0.252734
-0.362368
-0.109108
-0.045259
-0.169012
-0.156520
0.132561
-0.057033
0.017299
0.044082
-0.111651
-0.219696
-0.025364
-0.035584
-0.035539
0.202741
0.279498
0.169049
0.101658
0.026332
-0.250789
-0.070617
-0.120305
0.007985
-0.115811
0.019704
0.081056
0.001845
-0.377730
-0.382642
0.069754
-0.301234
-0.297213
-0.011000
0.037382
0.225693
-0.451145
-0.326123
-0.018461
-0.386448
-0.309898
-0.026220
0.072140
-0.000037
0.420726
-0.009650
-0.127669
0.130958
0.050458
-0.083903
-0.000002
-0.093286
-0.096350
0.195745
0.011890
-0.191272
-0.041381
0.130263
-0.058461
-0.100428
-0.035375
0.005845
0.142639
-0.301074
-0.481076
-0.278325
-0.266279
-0.499441
-0.465794
0.034887
0.148482
0.196479
0.069799
-0.172638
-0.047201
-0.064386
-0.132985
-0.057963
-0.058337
-0.117913
-0.015645
-0.075982
-0.186464
-0.015056
0.007409
-0.238963
-0.163252
-0.067215
-0.009871
-0.048533
-0.129481
-0.438248
-0.303777
-0.135403
-0.249425
-0.339050
-0.098487
0.061571
0.151263
-0.490500
-0.567330
-0.019378
-0.501516
-0.359892
-0.005801
-0.097405
-0.110710
0.210702
-0.208769
-0.182949
0.056509
-0.124850
0.056561
0.035188
0.151177
0.138285
0.114713
-0.298655
-0.266253
-0.065239
-0.146833
-0.257347
0.026508
-0.026603
-0.112368
0.091179
-0.047825
-0.449823
-0.246925
0.019020
-0.362708
-0.273906
0.110604
0.139897
0.069251
0.075360
-0.112122
-0.007494
-0.147609
0.065211
0.157076
0.076550
-0.225588
-0.012554
0.150012
-0.033021
-0.159192
0.196044
0.062909
-0.152857
0.017103
-0.105999
0.004417
-0.051509
-0.040228
-0.089115
-0.107554
-0.163823
-0.080799
-0.038064
0.098060
0.220209
-0.080386
-0.200319
-0.017805
-0.018543
-0.077037
-0.181857
0.096313
0.074407
0.050263
0.140758
0.079504
-0.089470
0.106032
0.063304
0.070302
0.270482
0.114569
0.101402
0.046018
-0.060324
-0.173302
0.044968
0.011456
-0.352325
-0.022400
-0.191127
0.153725
0.086226
-0.103978
0.558343
-0.205318
-0.148854
-0.091745
-0.279351
-0.263351
-0.088305
-0.178125
-0.214604
-0.160943
-0.241524
-0.117404
-0.119508
0.009686
-0.139663
-0.229073
0.128153
0.017686
0.017324
0.207159
0.087017
0.324506
0.108307
-0.166233
-0.198042
0.006943
-0.026026
0.171498
0.062322
0.079081
0.248925
-0.085298
-0.296973
-0.378978
0.011583
-0.018105
-0.092519
0.045959
0.099717
0.309669
0.026626
-0.014821
-0.028767
0.049575
-0.064931
-0.044661
0.036312
0.091083
-0.030372
0.006892
-0.006375
-0.301577
-0.035238
-0.032684
-0.051527
0.302512
0.589527
0.569954
-0.133628
-0.217084
-0.052988
-0.166371
-0.278900
-0.064364
0.068184
-0.056372
-0.065209
0.139744
-0.144230
-0.015902
-0.111674
-0.195350
-0.189496
-0.004893
-0.091657
-0.156676
-0.180149
-0.221480
-0.139915
-0.296709
-0.129299
-0.022178
0.111194
-0.026130
0.063038
-0.266519
-0.092582
-0.160074
-0.118134
-0.101668
-0.184556
-0.121903
-0.043732
0.000625
-0.002268
0.079669
-0.006748
-0.156600
-0.053872
0.010968
-0.082950
-0.034102
0.015721
-0.136321
-0.615965
-0.316883
-0.108242
-0.501918
-0.259735
0.143981
0.194280
0.106948
-0.089881
-0.112750
-0.336736
0.004906
-0.019365
-0.001297
0.070998
0.294601
0.433810
-0.339385
-0.139212
-0.093220
-0.138460
-0.061566
-0.127349
0.009932
0.226563
0.361216
-0.006207
-0.253226
-0.476162
-0.032324
-0.155926
-0.200112
0.184934
0.088504
0.259041
-0.249180
-0.306392
-0.287110
-0.235943
-0.280668
-0.252548
0.277219
0.364172
0.286763
-0.129401
-0.117830
0.076068
0.071522
-0.019074
0.211974
0.074399
-0.425109
0.058160
-0.068821
-0.515074
-0.387564
0.025100
-0.130879
-0.131890
0.044368
0.132634
0.208275
-0.123843
-0.009555
0.111585
-0.224972
-0.178401
-0.061885
0.126804
-0.246479
-0.076561
-0.318831
-0.156844
-0.170199
-0.023223
-0.006264
0.009352
0.040797
0.144631
0.184880
-0.252058
-0.031504
0.039436
-0.248285
-0.065269
-0.016857
0.050497
-0.242410
-0.070576
0.019235
-0.124210
-0.229853
-0.034291
-0.140297
-0.204891
0.025760
0.112681
0.192887
-0.044068
-0.079354
-0.162686
-0.122768
-0.103422
0.006412
0.119210
0.035586
0.389269
-0.033080
-0.159232
-0.155413
0.030619
-0.076257
-0.128748
0.186685
0.143805
0.025369
-0.380210
-0.295547
-0.341690
-0.179058
-0.179865
-0.113809
-0.034796
0.106797
0.175910
0.102889
-0.274814
-0.226908
-0.282474
-0.063822
-0.144507
0.433758
0.136021
0.196053
-0.158755
0.036586
0.028867
-0.143325
-0.175314
-0.072113
0.158021
0.402359
0.280429
-0.137201
-0.158531
-0.265156
-0.147621
-0.307670
-0.325947
-0.163906
-0.124338
-0.050872
-0.112722
-0.099944
-0.014722
0.034341
-0.112375
-0.074166
0.195251
-0.321902
0.100316
-0.150726
-0.222240
0.086058
-0.077830
-0.172175
0.059388
-0.076546
-0.204234
-0.078527
-0.255903
-0.224022
-0.245047
-0.075549
-0.454837
-0.396811
0.042851
-0.321222
-0.098607
-0.617664
-0.073252
-0.198071
-0.173525
-0.217961
-0.047132
0.240440
0.291657
0.317478
-0.053050
-0.211309
-0.148892
-0.614662
-0.462173
-0.398610
0.245875
0.140343
0.149120
-0.026943
-0.053823
0.057563
0.001584
0.131297
-0.071128
0.167084
0.020518
0.099275
0.037883
-0.291445
-0.402545
-0.414806
-0.430317
-0.412409
0.068344
-0.381757
-0.175851
0.131396
-0.030643
0.111232
-0.026631
0.019767
-0.081266
0.076954
-0.088936
-0.095211
-0.231909
-0.305793
-0.150816
-0.178926
-0.261947
-0.115880
-0.221557
-0.126959
-0.057197
-0.106849
-0.056428
-0.031256
-0.172200
0.150516
-0.040179
-0.056089
-0.270457
0.242315
-0.244884
-0.066613
0.049838
0.030987
0.164597
-0.019805
0.013996
0.038432
0.021188
-0.009788
-0.176026
-0.116997
0.092402
0.069455
-0.011513
-0.101868
0.040176
0.119742
-0.033640
-0.278471
0.041893
-0.371011
-0.563817
-0.382104
-0.051655
-0.312270
-0.386956
0.117321
0.036979
0.081728
-0.011597
0.130113
0.191037
0.038430
0.159480
-0.093988
-0.080304
-0.120096
-0.092204
-0.050775
-0.066117
-0.177372
-0.046451
0.057952
0.020501
-0.007101
0.052006
0.335301
0.136254
0.271973
-0.079907
0.017922
0.087558
0.102438
0.058617
0.001318
0.029841
-0.141241
0.147291
0.067276
0.038559
-0.139795
0.257327
0.086069
-0.021042
0.106391
-0.012547
0.057747
-0.058218
-0.040280
0.109825
0.063145
-0.004744
-0.085861
0.107581
-0.004875
0.131474
0.017025
0.216417
-0.023643
-0.016900
0.019483
0.152354
-0.001143
0.029103
0.265653
0.091531
0.001991
0.262998
0.205763
-0.015247
-0.177470
-0.097183
-0.193684
-0.587419
-0.310921
-0.179476
-0.150356
-0.301636
0.037621
-0.111580
-0.036336
-0.131620
0.073395
0.026593
0.057471
0.117912
-0.066321
-0.024644
0.056765
0.156924
0.131220
0.112687
0.015116
0.116975
-0.023231
0.072751
0.055226
-0.256671
-0.187546
-0.033874
-0.255135
-0.225583
-0.117278
-0.074876
-0.300255
-0.274826
0.008902
0.023406
-0.070584
-0.095754
-0.202592
-0.101237
-0.013230
0.051648
-0.029541
-0.002365
-0.089380
0.071990
0.036085
0.066954
0.039979
-0.059790
0.059817
0.041130
-0.007246
0.094266
-0.063351
0.025843
0.051125
-0.089675
-0.014431
0.055442
0.033479
-0.001837
-0.066304
-0.005493
-0.091593
0.016385
-0.000263
-0.053086
0.036631
0.148309
-0.039769
-0.037126
-0.037546
-0.026287
0.142099
0.023732
-0.010040
-0.056700
-0.103662
-0.089673
-0.095723
0.152279
-0.166282
0.059842
-0.059934
0.134819
0.219768
0.095016
-0.015647
-0.056569
-0.073325
-0.158000
-0.058165
-0.059933
-0.100749
0.089660
0.086576
0.044777
0.083402
0.013961
-0.072246
0.017735
-0.011930
0.096952
0.015098
-0.179593
-0.001248
0.003987
0.088433
-0.120446
-0.084431
0.101656
0.123239
0.019951
0.089283
0.102657
0.113309
0.061022
0.043253
0.170569
0.048409
0.126687
-0.009743
-0.042187
-0.020149
0.046446
0.038706
0.159866
0.048607
-0.042898
-0.101432
0.074369
-0.226509
-0.522539
-0.039105
-0.355352
-0.330962
-0.176113
-0.423586
-0.309954
-0.288601
-0.429331
-0.306258
-0.239833
-0.215584
-0.251338
-0.267254
0.026327
0.029994
-0.016664
0.095608
0.046163
-0.108365
-0.236702
0.438553
0.075142
-0.038917
-0.124801
0.348147
-0.025282
-0.190977
0.264400
-0.048440
0.024689
-0.081273
0.009893
-0.015439
-0.020691
0.128388
-0.130238
0.038003
-0.086171
0.168113
-0.201211
-0.114255
-0.040742
0.274869
0.071783
-0.108808
-0.183909
-0.009074
0.025195
-0.234019
0.181790
-0.027778
0.010381
0.100334
0.057911
-0.235233
-0.154760
0.168104
-0.212312
-0.043227
-0.165974
0.262379
-0.146509
0.038113
-0.128459
-0.164911
-0.143848
0.007393
0.040096
-0.068797
-0.053556
0.085837
-0.269505
0.008843
-0.114239
-0.070126
-0.413996
-0.121425
0.002201
-0.151414
-0.033423
-0.028353
0.163803
-0.100874
-0.019967
-0.078979
-0.011909
-0.056790
0.067104
0.039863
0.055400
-0.082987
-0.043004
0.001954
0.078651
-0.056658
-0.096802
0.002771
-0.123341
-0.058134
0.245804
0.074356
-0.211501
-0.003177
0.097866
0.005861
-0.071168
-0.013448
-0.099001
0.345873
-0.200551
-0.110501
0.206063
-0.179400
0.117351
-0.273525
0.108149
-0.238447
0.037745
-0.025687
0.077436
-0.335476
-0.017907
-0.070322
-0.148229
0.134391
-0.165388
0.138011
-0.093168
0.114009
-0.090773
-0.155304
0.043527
-0.042901
0.262744
-0.154436
0.205776
0.016695
0.458472
-0.021585
-0.281137
0.027828
0.196522
0.041917
0.421634
-0.275762
0.046570
-0.090430
0.192876
0.135928
-0.246697
0.294992
-0.244509
0.077685
0.003180
-0.092574
-0.320242
0.399716
-0.217015
-0.296401
-0.056696
0.107670
-0.154427
-0.199599
0.007119
0.104929
-0.184668
-0.098347
0.022571
-0.045405
-0.076024
0.009685
-0.169583
0.049416
-0.107723
0.108966
-0.017628
0.030407
-0.271647
0.117839
-0.108096
-0.111602
0.153493
-0.076190
-0.099354
0.228735
0.225628
0.033357
-0.200980
0.068537
-0.151956
-0.158561
-0.238465
0.088223
-0.070050
-0.123719
-0.283197
0.223749
-0.023525
0.002370
-0.041226
0.261880
-0.234197
0.035235
0.094716
0.331025
0.002990
0.016268
-0.111883
-0.014891
0.221852
-0.082601
-0.036273
-0.142394
0.024848
0.128729
-0.015361
-0.293704
-0.110305
0.078742
-0.237689
-0.039260
-0.140444
0.238832
0.077629
-0.148538
-0.204166
-0.022154
-0.133426
-0.189625
0.042149
-0.027933
-0.073552
-0.059594
-0.018138
0.069270
0.005161
-0.152965
-0.137318
-0.016342
-0.149600
-0.190371
-0.090028
0.063914
0.178926
0.074510
-0.105362
0.231675
0.002096
0.172027
-0.029078
0.070677
-0.065792
0.148804
-0.074396
-0.100417
0.036205
0.048877
0.005687
-0.013315
-0.156488
0.324849
0.191685
0.062726
-0.217742
0.709782
-0.063239
0.125475
-0.140525
-0.244629
-0.042180
-0.064356
-0.188928
-0.255143
0.162872
0.002879
0.030171
-0.191689
0.119085
-0.065307
0.026940
-0.103773
0.100498
-0.190337
-0.071783
0.002671
0.007625
-0.027238
-0.017982
-0.252814
0.152239
0.149130
-0.288379
0.008922
0.115183
-0.058686
-0.105155
-0.157099
0.166238
0.074689
-0.087073
-0.186543
-0.083458
0.070226
0.128693
0.070468
0.022693
-0.114682
-0.011763
-0.073360
0.004989
-0.115311
-0.185612
-0.141903
0.144766
-0.060102
0.042831
0.031842
-0.060754
-0.008347
-0.060690
-0.103687
-0.206632
-0.040152
-0.249339
0.088936
0.195439
0.025110
0.066623
-0.053179
-0.025201
0.103513
0.074841
0.088910
0.005756
0.216850
0.067024
0.262588
0.019439
-0.260894
-0.069890
0.137343
0.252296
0.270459
0.358789
0.302047
0.371734
0.255912
0.139489
0.202938
0.005791
0.044004
-0.066348
0.042241
0.061616
0.008752
-0.098047
-0.175770
-0.256270
-0.065719
-0.043082
0.093289
0.012475
-0.350918
0.087143
-0.029098
-0.376415
-0.085965
0.049325
0.136537
0.027318
0.186355
0.040164
-0.049912
0.037268
-0.089620
-0.101797
-0.001624
-0.305106
-0.027440
-0.007162
-0.358876
-0.043372
-0.102378
-0.200105
-0.052050
0.265507
0.055865
