0.134179
-0.140204
0.234567
0.303990
-0.262997
-0.225450
0.118631
-0.008981
-0.208363
0.046504
-0.346351
0.092008
0.322692
-0.167413
-0.217565
0.220326
0.133096
0.013054
-0.058318
-0.239025
-0.045694
0.187198
-0.027734
-0.310302
0.126877
0.239397
0.044806
-0.003937
0.052172
0.014267
-0.171931
-0.008331
-0.218686
-0.225145
-0.074092
-0.036834
0.167362
-0.065592
-0.014587
-0.075114
-0.034630
-0.077692
-0.064836
-0.103317
-0.067267
0.277411
0.131285
0.001865
0.136938
0.049587
0.067547
0.089374
0.203413
0.061207
-0.156085
-0.249379
-0.070239
-0.120123
-0.068244
-0.136885
0.116657
0.096555
-0.017708
0.127232
-0.112981
-0.207481
0.028627
0.081072
-0.202356
0.202629
0.204313
0.177463
0.077767
0.021609
-0.192517
0.184129
0.076233
-0.128441
0.320378
0.052505
0.006702
0.124972
0.123785
0.150085
0.146897
0.017669
0.052633
0.146794
-0.152780
-0.004134
0.111265
-0.096130
-0.094715
-0.011104
-0.159864
-0.313636
-0.146379
-0.218227
-0.247621
0.232841
0.229187
-0.020159
0.223640
0.079535
-0.180969
0.101576
-0.000769
-0.087387
0.082386
-0.040980
-0.008129
0.286431
-0.210912
-0.023957
0.025460
-0.187666
0.119692
0.172077
-0.192357
-0.045016
0.231814
-0.288355
0.016462
0.117276
-0.177034
0.018817
0.234870
-0.263077
0.010225
0.135653
-0.271995
0.156594
0.051252
-0.224499
0.221212
0.235257
-0.066073
0.083043
0.043601
-0.215571
0.052350
-0.176664
-0.169166
-0.065709
0.161355
0.041771
0.135346
0.097591
-0.025009
-0.062404
-0.096114
-0.046511
-0.018162
0.119734
-0.154194
0.097376
-0.022078
-0.076284
0.058237
-0.007904
-0.051426
-0.009456
0.127404
0.180181
-0.077525
0.105404
-0.268569
-0.204279
-0.088136
-0.162560
0.244103
0.224669
0.256068
0.006110
0.198393
-0.071759
-0.278280
-0.130304
-0.118374
-0.017757
0.168090
0.311585
-0.067139
0.179379
-0.228950
-0.300828
-0.071291
0.001317
0.010209
-0.096685
-0.137538
-0.150770
0.043900
-0.168648
-0.093097
-0.065170
-0.079942
-0.184801
-0.097727
-0.078405
0.015953
-0.132238
0.049662
0.017121
-0.041265
0.055369
-0.067075
0.223937
0.250795
0.142718
0.207547
0.252960
0.068853
0.102231
0.154139
0.154600
-0.073400
-0.040953
0.084333
-0.161727
-0.043863
0.076798
0.117476
0.172637
-0.002804
0.052481
0.076494
0.201013
0.079743
-0.124244
-0.083310
0.171233
0.079492
0.088269
-0.147858
-0.066025
0.041262
-0.154251
-0.299924
-0.131727
-0.089402
0.126167
-0.101476
0.014840
0.260438
0.319209
0.170012
0.353259
0.178824
0.024859
0.059706
0.125110
0.106713
-0.156342
-0.095890
0.009912
-0.102557
-0.120711
-0.110118
-0.155823
-0.205888
-0.110865
-0.075545
-0.201552
-0.197959
-0.197245
-0.041083
-0.093995
-0.014835
-0.002590
-0.086947
-0.073154
-0.102511
0.209621
0.123601
-0.042875
-0.174062
-0.184785
0.142258
0.062616
0.075779
-0.069385
0.240500
0.104083
0.112493
-0.261148
-0.005233
0.036122
-0.092031
0.104799
0.013126
0.241356
0.146057
-0.172460
-0.227392
-0.249159
0.105549
0.209638
0.101159
-0.179862
0.192576
-0.287615
-0.001872
-0.123350
-0.096963
0.219248
0.271063
-0.032366
-0.231289
0.241853
-0.266868
0.001173
0.013819
-0.209416
0.040741
0.155314
0.064036
-0.210032
0.127074
-0.304759
0.121514
-0.031533
-0.048002
0.229993
-0.001726
-0.274902
-0.086633
-0.080890
0.072009
-0.040263
0.068221
0.254785
0.264099
0.014768
-0.240501
-0.062340
-0.003781
-0.122854
0.009830
-0.149165
0.028118
0.304396
0.242246
-0.249412
0.009687
-0.233383
0.013143
-0.026111
-0.130290
0.064290
0.302561
0.010077
-0.181221
-0.085316
0.158988
0.201145
-0.178156
-0.076005
0.094143
0.186358
0.149731
-0.318969
-0.239481
0.095414
0.149090
-0.173678
-0.088701
0.243992
-0.021070
-0.039935
-0.204385
-0.053437
0.254358
0.254812
-0.288713
-0.161898
0.044442
0.192656
0.041302
-0.246608
-0.024414
0.067196
-0.196618
0.106647
0.079915
-0.240926
0.045241
0.123458
-0.210489
0.220263
0.209208
-0.274709
0.222118
0.086759
-0.073751
0.172818
-0.054614
-0.087026
0.113133
0.084302
-0.234612
0.164061
0.108858
-0.217528
-0.053530
0.036032
0.177084
0.194153
-0.265921
-0.026962
0.050091
0.071386
0.028819
0.120575
0.015025
0.058619
0.047310
-0.356523
-0.283488
-0.235600
-0.023595
-0.080599
-0.083324
0.220517
0.266870
0.308092
0.031099
-0.196520
-0.001065
0.036154
-0.134882
-0.144652
-0.038040
-0.197435
-0.066824
-0.140435
-0.058962
0.124395
0.022524
0.266249
0.266639
-0.126087
-0.059904
-0.215853
-0.147155
-0.070929
-0.109952
0.233697
0.218688
0.012304
-0.128531
-0.084772
-0.080363
-0.120336
-0.124658
-0.009540
0.202292
0.125342
0.187580
-0.004583
0.121610
0.015897
-0.084430
-0.038478
-0.010418
-0.170515
-0.204422
-0.102038
0.114028
0.148807
-0.023565
-0.142644
-0.015588
0.151431
0.075886
-0.048949
0.065588
-0.070618
0.141021
0.018364
-0.230859
-0.193930
0.139996
-0.029626
-0.154227
0.069028
-0.268467
-0.210873
0.044884
-0.024315
0.016366
0.069183
0.111735
0.061670
0.091813
-0.172643
-0.243362
0.027979
-0.370442
-0.227059
0.082919
-0.167561
0.095730
0.149251
-0.219112
-0.214713
0.227307
-0.057892
0.044719
0.177916
0.054971
-0.098385
0.221943
0.162116
0.027127
0.149787
0.063565
-0.002414
0.107963
-0.204037
-0.207038
0.192380
0.110250
0.074517
0.134637
-0.072040
-0.084011
0.197775
-0.039412
-0.284866
-0.013721
-0.070719
-0.037407
0.091845
-0.208242
-0.247078
-0.004419
-0.233352
-0.162162
0.076488
0.109072
0.059212
-0.102979
0.170613
0.151630
0.110995
0.153030
0.180054
0.083524
0.194885
-0.151862
-0.157816
0.082673
-0.046153
-0.194887
-0.041857
-0.072393
-0.162278
0.175228
-0.180219
-0.064108
0.188232
-0.164529
-0.226638
0.185275
-0.022182
-0.148172
-0.135945
-0.070357
0.063760
0.096222
0.220330
-0.000645
0.240599
0.110269
0.064529
-0.251312
-0.182085
-0.019064
-0.041236
0.089820
-0.180642
0.014738
0.115689
-0.077048
-0.099301
0.029802
0.344387
0.076085
-0.101381
-0.217678
0.003416
0.025853
-0.213064
0.100392
0.078303
0.095328
0.230086
0.122864
-0.041714
0.012355
-0.077254
-0.180487
0.141285
-0.174953
0.032612
0.029078
-0.170310
-0.026700
0.198938
-0.117048
-0.117049
0.133942
-0.100584
-0.120686
0.005268
-0.202220
-0.109488
0.208126
0.077923
-0.120126
0.009875
-0.126377
0.103986
-0.049594
-0.025475
0.220143
-0.006599
0.150648
-0.083272
-0.105839
-0.176280
-0.058698
-0.253849
0.073385
0.234811
0.131052
0.234265
0.024426
-0.172583
-0.292807
-0.024467
-0.237004
0.122226
0.043944
0.024047
0.202934
-0.011745
-0.194780
0.140847
-0.022601
-0.070970
0.301005
-0.226394
0.091279
-0.114581
-0.107622
-0.145265
0.205099
-0.105704
-0.028822
0.263927
-0.027872
0.074677
0.015614
-0.242901
-0.316768
0.182645
0.084246
-0.003054
0.345635
-0.166815
0.170738
0.079083
-0.209382
-0.093576
-0.067583
0.107792
-0.012502
-0.063229
0.121440
-0.150325
0.070829
0.078715
-0.059706
-0.083300
0.177658
-0.294104
-0.083414
0.355980
-0.263086
-0.096190
0.245644
-0.121571
0.013149
0.174908
-0.272558
0.152289
0.138636
-0.192117
-0.095812
0.268225
0.031648
0.092384
0.021398
-0.070052
-0.023523
-0.072058
0.054143
-0.103358
0.057575
-0.140509
0.010277
-0.037261
0.017634
0.059693
0.055601
-0.009520
0.044741
-0.050674
0.122985
-0.001291
-0.001407
0.119273
-0.074519
0.065131
-0.012833
0.092483
0.011225
0.120166
0.333341
0.147820
-0.209909
-0.022861
0.242678
-0.106147
-0.312408
-0.006648
-0.062238
0.197202
-0.025138
-0.300626
-0.157565
0.257209
-0.022039
-0.161012
-0.089777
0.024007
0.070642
0.089392
-0.172699
-0.038783
0.052869
0.233722
-0.177452
0.002011
0.045247
0.206945
0.069217
-0.086524
-0.144677
-0.200203
0.000450
-0.102949
0.011980
0.039104
0.277155
0.248338
0.017667
-0.141250
-0.227802
-0.067320
0.034329
0.099046
0.049731
0.161341
0.236241
0.077029
0.018276
-0.117564
-0.141349
-0.182454
-0.124544
0.053499
-0.174011
-0.185469
-0.003729
0.065354
-0.004913
-0.127841
0.006844
-0.188186
0.293579
0.239154
0.107296
0.202815
-0.010959
0.163401
0.145026
0.207988
0.023187
0.025648
-0.232035
0.044787
-0.254694
-0.192749
-0.071613
-0.147317
-0.039030
0.007604
-0.160515
-0.138309
0.013817
-0.176344
-0.167554
0.151040
0.029812
0.174722
0.024617
-0.167669
-0.028506
0.355298
-0.011777
0.042637
0.217308
-0.085398
0.214420
0.059119
0.042352
-0.458899
-0.073304
-0.091311
-0.503118
0.036526
-0.108615
-0.327508
-0.099073
0.001488
-0.025235
-0.065842
0.267014
0.282925
0.166481
0.086881
0.201344
-0.011856
-0.348401
-0.335290
-0.202517
0.000437
0.031881
-0.043875
-0.305809
-0.231103
0.034486
0.070888
0.142499
0.196658
0.122505
-0.078175
-0.010275
-0.151604
-0.310730
-0.184785
