0.1996283978223800659179688
-0.1600154042243957519531250
0.1796809285879135131835938
-0.2390769273042678833007812
-0.2593514919281005859375000
0.2588127851486206054687500
0.2425420433282852172851562
-0.0794122144579887390136719
-0.2666664123535156250000000
-0.2270879298448562622070312
-0.2384725064039230346679688
0.1583178639411926269531250
-0.1068287715315818786621094
0.2262564599514007568359375
0.0841687172651290893554688
-0.0841479301452636718750000
0.0271786674857139587402344
-0.2691747546195983886718750
0.0574120916426181793212891
-0.1262760609388351440429688
0.2542517483234405517578125
0.2308696508407592773437500
0.0076491911895573139190674
-0.1658305823802947998046875
0.1170146763324737548828125
0.0969787165522575378417969
0.2283236831426620483398438
-0.0003083481860812753438950
0.0826281383633613586425781
-0.0448898933827877044677734
0.0103053795173764228820801
0.0204452592879533767700195
-0.0010675537632778286933899
0.1083134263753890991210938
0.1652483195066452026367188
-0.1512771546840667724609375
-0.1877161264419555664062500
0.0914316326379776000976562
0.2216647565364837646484375
0.0030818642117083072662354
0.0174972135573625564575195
-0.2340797334909439086914062
0.2064510732889175415039062
0.1596187502145767211914062
0.2023304849863052368164062
0.1245451793074607849121094
0.0245296470820903778076172
0.1304403692483901977539062
-0.1527059674263000488281250
-0.2773894369602203369140625
0.1325301527976989746093750
0.1099359244108200073242188
0.1723117828369140625000000
-0.0102121327072381973266602
0.0060172220692038536071777
-0.2215070426464080810546875
0.2231149524450302124023438
-0.1409704387187957763671875
0.1793448179960250854492188
-0.0320749431848526000976562
-0.0797657370567321777343750
0.1928533315658569335937500
-0.0247158464044332504272461
-0.1014903336763381958007812
-0.1772008389234542846679688
0.0979959592223167419433594
-0.2006500959396362304687500
0.1313223689794540405273438
-0.2772911190986633300781250
0.2274988293647766113281250
-0.1136414110660552978515625
0.2269242405891418457031250
0.0309955906122922897338867
0.0102849509567022323608398
0.1632949858903884887695312
0.2256895154714584350585938
-0.1553251892328262329101562
-0.0702172368764877319335938
-0.1797850579023361206054688
0.2397144436836242675781250
0.0314354859292507171630859
-0.1487094461917877197265625
0.0582199171185493469238281
0.0450828261673450469970703
0.0925482511520385742187500
-0.0470043867826461791992188
0.1932006031274795532226562
0.2441195696592330932617188
-0.1694083809852600097656250
0.0446823276579380035400391
0.1466840803623199462890625
0.1534174531698226928710938
-0.0472294613718986511230469
0.0711198598146438598632812
0.0389279462397098541259766
-0.1043552830815315246582031
0.1200147047638893127441406
0.2460122257471084594726562
0.0198674537241458892822266
0.2460418790578842163085938
-0.1847202926874160766601562
-0.1650343090295791625976562
-0.0281352642923593521118164
0.0027452732902020215988159
-0.2092763781547546386718750
-0.1912660598754882812500000
0.0888774022459983825683594
0.0898685827851295471191406
-0.2130968421697616577148438
-0.2782992720603942871093750
-0.1952423751354217529296875
0.0916485413908958435058594
-0.0366978831589221954345703
-0.1086574122309684753417969
-0.1710841506719589233398438
0.1758824586868286132812500
-0.0963644161820411682128906
-0.2693369686603546142578125
-0.0424767397344112396240234
0.0046299607492983341217041
-0.1002313122153282165527344
-0.1780812442302703857421875
0.3946490585803985595703125
-0.0016214660136029124259949
-0.1653450280427932739257812
0.1430734395980834960937500
0.1035913303494453430175781
-0.2481032907962799072265625
0.1331692636013031005859375
0.1131478473544120788574219
-0.1158139184117317199707031
0.0243775546550750732421875
-0.2247141450643539428710938
0.0660545006394386291503906
0.2350300401449203491210938
-0.1361302435398101806640625
0.0549073331058025360107422
0.0325320996344089508056641
0.0554203465580940246582031
0.2673932909965515136718750
0.0895662829279899597167969
0.0031849863007664680480957
0.1132333278656005859375000
-0.1738163977861404418945312
-0.1411215662956237792968750
-0.1292688548564910888671875
-0.1503424346446990966796875
-0.0688219740986824035644531
0.1315918415784835815429688
-0.1539473086595535278320312
0.2261868119239807128906250
0.2550368010997772216796875
0.2332535982131958007812500
0.1488453149795532226562500
-0.1393487155437469482421875
0.1844752728939056396484375
-0.1770750433206558227539062
-0.2700904905796051025390625
-0.2643428444862365722656250
-0.0975411832332611083984375
0.0668639913201332092285156
-0.2360888421535491943359375
-0.1176708713173866271972656
0.2491923868656158447265625
0.2177025526762008666992188
-0.2048963755369186401367188
-0.1309734135866165161132812
0.2258742153644561767578125
0.0071832626126706600189209
-0.2750175297260284423828125
0.1805399507284164428710938
-0.0903926864266395568847656
-0.2684933543205261230468750
0.1854565441608428955078125
0.0299611184746026992797852
0.1193605065345764160156250
-0.2375748902559280395507812
-0.1471645385026931762695312
0.2432075887918472290039062
-0.2676133811473846435546875
0.1624977439641952514648438
0.0723372027277946472167969
0.1545404642820358276367188
-0.0792632177472114562988281
-0.1548621505498886108398438
0.0868893712759017944335938
0.0420446023344993591308594
-0.0884052142500877380371094
0.2244917452335357666015625
0.1881671398878097534179688
-0.2437230050563812255859375
-0.1090229973196983337402344
-0.0105705186724662780761719
-0.0713338926434516906738281
-0.2315577566623687744140625
-0.2648774683475494384765625
-0.2552171945571899414062500
-0.1611546277999877929687500
-0.1236466690897941589355469
-0.2302428781986236572265625
0.1608678102493286132812500
0.2071264386177062988281250
-0.0929036289453506469726562
0.0902551636099815368652344
0.1597511172294616699218750
-0.0357644408941268920898438
0.1736414283514022827148438
-0.0980676189064979553222656
-0.0855324342846870422363281
-0.0528345070779323577880859
0.1313678473234176635742188
0.0017731894040480256080627
0.0490389093756675720214844
-0.1712161898612976074218750
0.1976116299629211425781250
0.2135201394557952880859375
-0.2840881645679473876953125
0.0040855878032743930816650
-0.2445162534713745117187500
-0.2853815853595733642578125
-0.0630897879600524902343750
-0.0978213772177696228027344
-0.0396378561854362487792969
0.1818709671497344970703125
0.0938494354486465454101562
0.1482660025358200073242188
0.2400219589471817016601562
0.0972216501832008361816406
0.2763830423355102539062500
-0.0477620288729667663574219
-0.1138072982430458068847656
0.2390627562999725341796875
0.1641840785741806030273438
0.1087077260017395019531250
-0.0680683851242065429687500
0.0188004169613122940063477
-0.1763344258069992065429688
-0.1918769776821136474609375
0.1918156892061233520507812
0.0470414496958255767822266
-0.0487581677734851837158203
0.1263886243104934692382812
-0.1548832654953002929687500
0.1000073328614234924316406
0.2142445445060729980468750
0.0562517754733562469482422
-0.2465829998254776000976562
0.1078824326395988464355469
-0.0380551442503929138183594
-0.2400346398353576660156250
0.0171734597533941268920898
-0.1338608264923095703125000
0.0912516936659812927246094
-0.1089280992746353149414062
0.2481500655412673950195312
-0.1191907674074172973632812
0.3324705064296722412109375
-0.0358999259769916534423828
0.1365074515342712402343750
0.1714958548545837402343750
-0.1019143313169479370117188
-0.1674223244190216064453125
-0.0153142809867858886718750
0.0721137076616287231445312
-0.2909475862979888916015625
-0.2371315658092498779296875
0.1240161135792732238769531
0.1507818400859832763671875
-0.2112967967987060546875000
-0.0717079490423202514648438
-0.1398966461420059204101562
0.0128789264708757400512695
0.1506305932998657226562500
0.2473834156990051269531250
0.0173466689884662628173828
-0.2072574049234390258789062
-0.1685146540403366088867188
0.1163304522633552551269531
0.1622551828622817993164062
-0.1478760987520217895507812
0.0759830251336097717285156
-0.2436915934085845947265625
-0.0583537518978118896484375
-0.2028275281190872192382812
-0.0724296346306800842285156
-0.2431087046861648559570312
-0.0530140511691570281982422
-0.0637846216559410095214844
-0.0384085327386856079101562
-0.0863590091466903686523438
0.0887049287557601928710938
-0.1985220611095428466796875
-0.0699436143040657043457031
-0.1452190428972244262695312
0.2029114216566085815429688
0.1504094302654266357421875
-0.0286220293492078781127930
0.1690504550933837890625000
-0.0987570732831954956054688
-0.2477973699569702148437500
-0.1378352493047714233398438
-0.1311200857162475585937500
-0.1980893462896347045898438
0.0639621540904045104980469
-0.0661654248833656311035156
-0.2254684716463088989257812
-0.2632142603397369384765625
-0.1832334101200103759765625
-0.1737687438726425170898438
0.0286474656313657760620117
0.0444680340588092803955078
-0.1872848123311996459960938
-0.0438511297106742858886719
0.0100538050755858421325684
-0.1017660349607467651367188
0.1591646820306777954101562
0.0044058761559426784515381
0.1597192883491516113281250
-0.2449615597724914550781250
-0.0037294852081686258316040
-0.0675842911005020141601562
-0.0674225762486457824707031
0.2195121794939041137695312
-0.1626299023628234863281250
0.1976387798786163330078125
0.2071652263402938842773438
-0.0185643713921308517456055
-0.0056987060233950614929199
-0.1491889357566833496093750
-0.0868231430649757385253906
0.0954638645052909851074219
-0.2617896497249603271484375
0.1751868575811386108398438
0.1835854053497314453125000
0.2182942479848861694335938
0.0919676497578620910644531
-0.2404924035072326660156250
-0.2654784023761749267578125
0.0846791341900825500488281
-0.2582972049713134765625000
-0.0822139009833335876464844
-0.0354222990572452545166016
0.0977275297045707702636719
0.1922110170125961303710938
0.2535408139228820800781250
-0.0779328271746635437011719
0.1823376268148422241210938
0.0929332301020622253417969
0.2345534712076187133789062
0.2122291475534439086914062
0.1236819252371788024902344
0.0145512940362095832824707
0.1094427555799484252929688
0.1768655776977539062500000
-0.0879133492708206176757812
0.0936884358525276184082031
0.0625886470079421997070312
0.2190578132867813110351562
-0.0455206707119941711425781
0.1491017490625381469726562
0.2176000624895095825195312
-0.2579285800457000732421875
-0.1388908326625823974609375
0.2582537233829498291015625
0.0895519554615020751953125
-0.1824162155389785766601562
0.1919458359479904174804688
-0.0122094815596938133239746
-0.2009189426898956298828125
-0.0402279235422611236572266
-0.0456378161907196044921875
0.0381893478333950042724609
0.1709899306297302246093750
0.2490033805370330810546875
-0.0219427682459354400634766
0.1477868407964706420898438
-0.1058821380138397216796875
-0.2738029360771179199218750
0.0407867543399333953857422
-0.0462391823530197143554688
0.1091309338808059692382812
0.2304750531911849975585938
-0.0879528671503067016601562
0.0232232920825481414794922
-0.0073312278836965560913086
0.0445119962096214294433594
0.1449042856693267822265625
0.0600369125604629516601562
-0.0118839349597692489624023
-0.0736467540264129638671875
-0.0903604328632354736328125
-0.0606018044054508209228516
0.0146007928997278213500977
0.2691499292850494384765625
-0.1084411069750785827636719
-0.0939090326428413391113281
-0.2346366196870803833007812
-0.0258538164198398590087891
-0.1186939626932144165039062
0.2067232877016067504882812
0.0157816335558891296386719
-0.0375697053968906402587891
0.0181368812918663024902344
-0.1833236664533615112304688
-0.1048109084367752075195312
0.2248885333538055419921875
0.0435900799930095672607422
-0.0126369437202811241149902
0.0779094621539115905761719
0.2635617554187774658203125
-0.1732151955366134643554688
-0.1070536673069000244140625
-0.0239154212176799774169922
-0.2544605433940887451171875
0.2629928290843963623046875
0.1595943719148635864257812
0.0577745251357555389404297
0.1142164915800094604492188
-0.2235288918018341064453125
0.1916670501232147216796875
-0.1715481132268905639648438
-0.0184274669736623764038086
0.1726238429546356201171875
-0.1104282438755035400390625
-0.2397913783788681030273438
0.2420424968004226684570312
-0.0490268170833587646484375
-0.0229701530188322067260742
-0.2045159488916397094726562
0.2651143968105316162109375
-0.2669419944286346435546875
-0.0644938424229621887207031
0.0392766818404197692871094
-0.1172057762742042541503906
0.1769381016492843627929688
0.0959740877151489257812500
-0.2207396328449249267578125
0.0812014862895011901855469
-0.0820555016398429870605469
0.2584343552589416503906250
-0.0561380311846733093261719
0.0398756712675094604492188
0.0168452151119709014892578
-0.0427682138979434967041016
0.2914429903030395507812500
-0.1331581920385360717773438
-0.0533729866147041320800781
0.2770555317401885986328125
0.0997202098369598388671875
0.0753570646047592163085938
0.1104695647954940795898438
-0.1686266213655471801757812
-0.1569558531045913696289062
0.0729347839951515197753906
-0.1566516906023025512695312
-0.2411806285381317138671875
-0.2862907946109771728515625
-0.1989405602216720581054688
0.0956821888685226440429688
-0.1893009543418884277343750
0.0291786156594753265380859
0.2450236082077026367187500
0.0315648801624774932861328
0.1576408147811889648437500
0.2498702108860015869140625
-0.1356189846992492675781250
0.2877390682697296142578125
0.0173974055796861648559570
-0.1373346894979476928710938
-0.1788853257894515991210938
-0.1375241726636886596679688
0.1911606937646865844726562
0.0244665332138538360595703
0.1712516099214553833007812
-0.1214434430003166198730469
0.1720177382230758666992188
0.1125165075063705444335938
0.2831528186798095703125000
0.0226053893566131591796875
0.1506959944963455200195312
0.1041792556643486022949219
-0.1961966603994369506835938
0.2308822721242904663085938
0.0614926964044570922851562
-0.0688850656151771545410156
0.2025527358055114746093750
0.0889232158660888671875000
0.2599333524703979492187500
-0.0176735203713178634643555
-0.0972521528601646423339844
0.0615194328129291534423828
-0.0529794283211231231689453
0.1383026540279388427734375
0.2367148697376251220703125
0.0093320356681942939758301
0.1231638938188552856445312
-0.4192623496055603027343750
0.1565987020730972290039062
-0.2007614225149154663085938
0.0338468663394451141357422
0.0389425829052925109863281
0.0453761555254459381103516
0.0764494240283966064453125
0.1574669778347015380859375
-0.2224080264568328857421875
-0.0717009380459785461425781
-0.0388510823249816894531250
0.0858610197901725769042969
0.0386964790523052215576172
-0.2187826037406921386718750
-0.1978598237037658691406250
0.2671574652194976806640625
-0.0939958170056343078613281
0.2783042192459106445312500
0.1022096499800682067871094
-0.2456256300210952758789062
-0.2133423238992691040039062
-0.2245044708251953125000000
-0.2220653891563415527343750
-0.1372485011816024780273438
-0.1092877686023712158203125
-0.1482076346874237060546875
-0.0717732012271881103515625
0.2273239046335220336914062
-0.0513829328119754791259766
-0.2101587504148483276367188
-0.0938201695680618286132812
0.0753033682703971862792969
0.0499571189284324645996094
0.1586647033691406250000000
-0.2962466776371002197265625
0.2330255955457687377929688
0.0046199331991374492645264
0.2045700103044509887695312
0.2157597839832305908203125
-0.2095373570919036865234375
-0.0498298369348049163818359
0.2332812398672103881835938
0.0847507938742637634277344
-0.1615324020385742187500000
-0.1234101504087448120117188
0.2686998844146728515625000
-0.2595732510089874267578125
-0.0666499435901641845703125
0.0854494273662567138671875
0.1410582512617111206054688
0.0026003713719546794891357
-0.2566891908645629882812500
0.0904062092304229736328125
0.1167494878172874450683594
0.2085346728563308715820312
-0.2551302015781402587890625
0.1008127331733703613281250
0.0068875583820044994354248
0.2865304946899414062500000
-0.0191438868641853332519531
0.0527906417846679687500000
-0.0772998481988906860351562
-0.2330036312341690063476562
0.2143804132938385009765625
0.0809580683708190917968750
-0.0107574444264173507690430
-0.0616156384348869323730469
-0.1383356451988220214843750
0.1869482100009918212890625
0.0807906240224838256835938
-0.2285500913858413696289062
-0.1307418197393417358398438
-0.2284812182188034057617188
0.0511819235980510711669922
0.0861858204007148742675781
-0.1383413225412368774414062
-0.1412490010261535644531250
-0.2048714607954025268554688
0.1751769483089447021484375
0.0876952856779098510742188
-0.2113169282674789428710938
0.0417442917823791503906250
-0.2351373583078384399414062
0.1458966434001922607421875
-0.0300786420702934265136719
-0.1692783683538436889648438
0.1823144555091857910156250
-0.2427684664726257324218750
-0.0055870199576020240783691
-0.0044804052449762821197510
0.1158913671970367431640625
-0.2323186546564102172851562
0.1805403232574462890625000
-0.1709825843572616577148438
-0.1552271246910095214843750
-0.0865602269768714904785156
0.1781871765851974487304688
-0.1046809703111648559570312
0.2006217986345291137695312
0.0681320279836654663085938
0.1554068922996520996093750
0.2546717524528503417968750
-0.2373012155294418334960938
0.1542518138885498046875000
-0.0162514075636863708496094
0.1819635927677154541015625
0.2745040059089660644531250
0.0655758306384086608886719
0.1528841555118560791015625
0.2497565597295761108398438
-0.0752996206283569335937500
-0.1009020507335662841796875
0.1905875951051712036132812
-0.0281017050147056579589844
0.2483714818954467773437500
0.1749016642570495605468750
-0.0701752007007598876953125
0.2270507961511611938476562
-0.0635214745998382568359375
0.2013304531574249267578125
-0.1808642894029617309570312
0.1775386631488800048828125
0.2347794622182846069335938
-0.2287226319313049316406250
-0.2679928541183471679687500
-0.0226503424346446990966797
-0.0464266464114189147949219
-0.2559216618537902832031250
-0.0172280073165893554687500
0.1678524613380432128906250
-0.0914670079946517944335938
0.1645665168762207031250000
-0.2247400730848312377929688
-0.1568952351808547973632812
-0.0490106903016567230224609
0.2425918132066726684570312
0.2377025336027145385742188
0.2720236480236053466796875
-0.0740105211734771728515625
-0.1483948528766632080078125
-0.1884270459413528442382812
-0.1855539083480834960937500
-0.1140736266970634460449219
-0.2202518135309219360351562
