0.3952500522136688232421875
0.4986283183097839355468750
0.1851295232772827148437500
-0.4343654513359069824218750
-0.1263514608144760131835938
-0.0454370491206645965576172
0.1312854290008544921875000
-0.0006606266833841800689697
-0.1400890946388244628906250
-0.1912550628185272216796875
-0.0913304463028907775878906
0.6118515133857727050781250
0.1016810312867164611816406
-0.2216825932264328002929688
-0.0129320453852415084838867
-0.0881145149469375610351562
0.3174525797367095947265625
-0.3989153206348419189453125
0.3872488141059875488281250
-0.0966305062174797058105469
-0.2862355709075927734375000
-0.0615096576511859893798828
-0.2484932392835617065429688
-0.2315586656332015991210938
0.2997886836528778076171875
0.0600161962211132049560547
-0.2135146260261535644531250
-0.2352389842271804809570312
-0.1872921586036682128906250
0.1583884954452514648437500
0.5013155341148376464843750
-0.0178105775266885757446289
0.3190614283084869384765625
-0.2561218738555908203125000
0.2428333312273025512695312
-0.0529564023017883300781250
-0.0334239006042480468750000
-0.2070196866989135742187500
0.3423480987548828125000000
0.0593652389943599700927734
0.0349472053349018096923828
0.0123028960078954696655273
0.0405225194990634918212891
0.0498948954045772552490234
-0.1127596125006675720214844
-0.4911916255950927734375000
0.0071800225414335727691650
-0.2786993682384490966796875
-0.2355830818414688110351562
0.2192586660385131835937500
-0.0705349221825599670410156
0.1323661953210830688476562
0.1041005551815032958984375
0.1899798065423965454101562
0.0049648662097752094268799
0.0182134304195642471313477
0.3547099232673645019531250
0.0102756004780530929565430
-0.1700064688920974731445312
-0.1346624493598937988281250
-0.0833953171968460083007812
-0.0159002635627985000610352
-0.2464058995246887207031250
-0.0024315444752573966979980
-0.2246469855308532714843750
-0.7433385252952575683593750
-0.4652260541915893554687500
-0.1559632420539855957031250
-0.1760897189378738403320312
0.0479031242430210113525391
0.2475794106721878051757812
-0.4381752610206604003906250
0.2261429429054260253906250
0.0967227146029472351074219
-0.3125721514225006103515625
-0.3319723606109619140625000
-0.2401161193847656250000000
0.0725077912211418151855469
0.4933049976825714111328125
0.2130627036094665527343750
-0.0483698584139347076416016
-0.7128607034683227539062500
-0.0628778263926506042480469
0.2512434720993041992187500
-0.1742385923862457275390625
0.1250311434268951416015625
-0.1422638744115829467773438
-0.1840732842683792114257812
-0.2638097405433654785156250
-0.1994979381561279296875000
-0.1726215779781341552734375
-0.1499171257019042968750000
0.0524025447666645050048828
-0.1842451393604278564453125
0.2346434444189071655273438
-0.0791140198707580566406250
0.6608515977859497070312500
-0.1689531803131103515625000
-0.1818492710590362548828125
0.0659727379679679870605469
0.1126222759485244750976562
-0.4264001846313476562500000
0.2108372002840042114257812
-0.1685068458318710327148438
-0.5317125320434570312500000
-0.2396778315305709838867188
-0.3606617450714111328125000
0.0351199544966220855712891
0.2362632155418395996093750
0.3409565985202789306640625
-0.1335671842098236083984375
-0.0253432411700487136840820
0.2262323051691055297851562
0.2981622219085693359375000
-0.2129809856414794921875000
-0.4813638925552368164062500
-0.0925801470875740051269531
0.2345830649137496948242188
-0.1165656670928001403808594
-0.2408469319343566894531250
0.4519499242305755615234375
0.0765241160988807678222656
-0.2789616584777832031250000
-0.0251557119190692901611328
0.0637208372354507446289062
-0.4917772710323333740234375
-0.1628291904926300048828125
-0.2571095526218414306640625
-0.1663497388362884521484375
0.1548392176628112792968750
0.1986306458711624145507812
-0.2020744979381561279296875
0.0252036638557910919189453
-0.0710067078471183776855469
-0.2245356589555740356445312
-0.3180165588855743408203125
0.2136013656854629516601562
0.1637196987867355346679688
0.4932817220687866210937500
0.2022791504859924316406250
-0.2075320333242416381835938
-0.1373733431100845336914062
-0.4078643023967742919921875
-0.3278524279594421386718750
-0.2274126559495925903320312
0.2693235874176025390625000
0.0201280042529106140136719
-0.1633214652538299560546875
0.2986073493957519531250000
0.2232171297073364257812500
-0.0988717004656791687011719
0.2248166948556900024414062
0.1424198001623153686523438
0.1706508249044418334960938
-0.0873939990997314453125000
0.2151618152856826782226562
-0.1892769336700439453125000
0.0699715092778205871582031
0.4735357761383056640625000
-0.2358481585979461669921875
-0.2001816034317016601562500
-0.0475013405084609985351562
0.1559443920850753784179688
-0.0566294938325881958007812
-0.0435811541974544525146484
-0.1796422451734542846679688
-0.1000928282737731933593750
0.0340863578021526336669922
0.1906436830759048461914062
-0.4024708271026611328125000
0.3823028504848480224609375
-0.1330434530973434448242188
0.0909825712442398071289062
-0.0171168763190507888793945
0.0589377172291278839111328
0.5340546369552612304687500
0.2877230346202850341796875
-0.3008368313312530517578125
-0.1646563559770584106445312
0.3505525290966033935546875
-0.2601664662361145019531250
0.3728509843349456787109375
-0.2155472934246063232421875
-0.2017697542905807495117188
-0.3566047847270965576171875
0.0368949659168720245361328
0.4336264729499816894531250
-0.1801639646291732788085938
-0.2773734331130981445312500
0.4485651254653930664062500
0.3371881544589996337890625
-0.2013833075761795043945312
-0.1695601046085357666015625
-0.0171633269637823104858398
0.1997152417898178100585938
-0.0594095587730407714843750
-0.2617710530757904052734375
0.2118421345949172973632812
-0.0095812603831291198730469
0.0632846280932426452636719
-0.0447608903050422668457031
0.3040479719638824462890625
0.0221164338290691375732422
-0.4665321707725524902343750
0.1974429339170455932617188
-0.2331096827983856201171875
-0.1815420538187026977539062
0.3698998093605041503906250
0.1386759579181671142578125
0.4922247827053070068359375
0.2002031058073043823242188
-0.1974442899227142333984375
0.1968979090452194213867188
-0.2080469578504562377929688
0.2785089015960693359375000
0.0545261278748512268066406
0.1193517148494720458984375
0.5038471221923828125000000
-0.1726474165916442871093750
0.0520215816795825958251953
0.2277036458253860473632812
-0.0580543130636215209960938
0.0234338175505399703979492
0.1489691287279129028320312
-0.3704105019569396972656250
-0.0867490619421005249023438
-0.0450883693993091583251953
-0.0957025811076164245605469
0.2251963913440704345703125
-0.0091086775064468383789062
-0.0558819063007831573486328
0.0222311038523912429809570
0.2499562948942184448242188
0.1102898865938186645507812
-0.1127231121063232421875000
-0.3970860838890075683593750
0.0929954648017883300781250
0.3112447261810302734375000
-0.1975771039724349975585938
0.3052804470062255859375000
0.1160448193550109863281250
0.0747644975781440734863281
-0.2178211957216262817382812
0.2115099281072616577148438
-0.1440484821796417236328125
0.2200238257646560668945312
0.1277217864990234375000000
0.1929881721735000610351562
-0.1758355647325515747070312
-0.0616860724985599517822266
-0.3081326484680175781250000
0.2274311482906341552734375
0.0798858329653739929199219
-0.0340927988290786743164062
0.0231126863509416580200195
0.3806547522544860839843750
0.0596049763262271881103516
-0.0618524551391601562500000
-0.1991430222988128662109375
0.0486507527530193328857422
0.0235542953014373779296875
0.3946753740310668945312500
-0.1707434207201004028320312
0.1650122851133346557617188
0.1937357783317565917968750
0.0243875365704298019409180
0.5800195336341857910156250
0.2417404204607009887695312
0.0418099462985992431640625
-0.1697881519794464111328125
-0.3238197565078735351562500
-0.2670095860958099365234375
-0.0015306142158806324005127
0.1318524032831192016601562
-0.1100069284439086914062500
-0.1756573617458343505859375
0.2760168313980102539062500
-0.3025908470153808593750000
-0.2590737938880920410156250
0.1902115046977996826171875
0.1868290603160858154296875
-0.0223472118377685546875000
0.2210554629564285278320312
0.1073425039649009704589844
0.2809793651103973388671875
0.1766912341117858886718750
-0.0358869023621082305908203
-0.1710341870784759521484375
-0.0615661367774009704589844
-0.2726312875747680664062500
0.0875479280948638916015625
0.1207541525363922119140625
0.1953936517238616943359375
-0.0941369682550430297851562
0.3184923231601715087890625
0.0031112069264054298400879
0.0364314094185829162597656
0.3106847405433654785156250
-0.2509369850158691406250000
-0.0152176413685083389282227
-0.1643783748149871826171875
-0.1515027731657028198242188
0.0119352089241147041320801
-0.3050155043601989746093750
0.0350432284176349639892578
0.1094704344868659973144531
-0.1204623207449913024902344
0.2919040620326995849609375
-0.0233502723276615142822266
-0.2150965780019760131835938
0.2256656587123870849609375
0.1211957633495330810546875
-0.1832222640514373779296875
0.5058265328407287597656250
-0.1392028778791427612304688
0.4825994372367858886718750
0.0009385073790326714515686
0.1661666035652160644531250
0.4705677628517150878906250
-0.5355492830276489257812500
-0.4221073985099792480468750
0.0637197494506835937500000
-0.3636155426502227783203125
-0.2237869203090667724609375
-0.0532069504261016845703125
-0.0312096718698740005493164
0.0260648895055055618286133
0.3221794664859771728515625
-0.2346804440021514892578125
-0.1925629824399948120117188
0.2265113443136215209960938
-0.2549156844615936279296875
0.0885271951556205749511719
-0.0368925966322422027587891
0.0895154252648353576660156
0.4378778934478759765625000
0.1604833602905273437500000
0.4074259400367736816406250
-0.3764321506023406982421875
0.2052548825740814208984375
-0.4629451036453247070312500
0.1631617844104766845703125
0.1544999331235885620117188
0.1605470031499862670898438
-0.3362406790256500244140625
0.1971562653779983520507812
-0.1917231231927871704101562
0.2210897058248519897460938
0.1317880600690841674804688
0.2413387894630432128906250
0.0570441223680973052978516
0.0799549967050552368164062
-0.4320786893367767333984375
-0.2046156823635101318359375
-0.0268886461853981018066406
0.0863166153430938720703125
0.1981809288263320922851562
0.2726563811302185058593750
0.2545462846755981445312500
-0.2724625468254089355468750
0.6752226352691650390625000
-0.1645462065935134887695312
0.0211073476821184158325195
-0.0699444562196731567382812
-0.0535762719810009002685547
0.0649011284112930297851562
0.1687732785940170288085938
0.4231105446815490722656250
-0.1146904230117797851562500
0.1519703418016433715820312
-0.3239777088165283203125000
-0.2406936138868331909179688
0.0175702869892120361328125
-0.0095416279509663581848145
-0.2115253806114196777343750
-0.0509639866650104522705078
-0.1909248530864715576171875
-0.4358756840229034423828125
-0.3218234181404113769531250
0.3664430379867553710937500
0.2461077421903610229492188
0.3063762485980987548828125
0.2189279496669769287109375
-0.0680219829082489013671875
-0.6180935502052307128906250
0.4219599664211273193359375
-0.1805387139320373535156250
0.6294974684715270996093750
0.0053415289148688316345215
0.1647974103689193725585938
0.1498902142047882080078125
0.4687235057353973388671875
0.1347391754388809204101562
-0.3248780369758605957031250
0.4224942624568939208984375
-0.0282035283744335174560547
0.2462337911128997802734375
-0.3660595118999481201171875
0.0093793505802750587463379
-0.0853988453745841979980469
0.2813058793544769287109375
0.0964311361312866210937500
-0.1826048940420150756835938
0.2018689811229705810546875
0.2764718830585479736328125
0.3894617557525634765625000
-0.0250135138630867004394531
-0.1124653369188308715820312
0.1456953436136245727539062
-0.3216471672058105468750000
-0.2937041223049163818359375
0.1849054396152496337890625
0.0317175574600696563720703
0.1918375939130783081054688
-0.2380926162004470825195312
0.1131466552615165710449219
-0.0510194450616836547851562
0.0110819293186068534851074
0.0428594350814819335937500
-0.1992413699626922607421875
-0.0084257386624813079833984
-0.3263759613037109375000000
-0.2895193696022033691406250
0.0827615857124328613281250
0.0091630127280950546264648
-0.3277854919433593750000000
0.1607693433761596679687500
-0.6522887349128723144531250
-0.4172014594078063964843750
0.2228936851024627685546875
0.1773359775543212890625000
-0.2307725697755813598632812
0.0013809688389301300048828
-0.1509015709161758422851562
-0.2048104107379913330078125
0.3737945556640625000000000
0.0595420412719249725341797
-0.0243120491504669189453125
0.2612746655941009521484375
0.0751152038574218750000000
-0.1457535028457641601562500
0.0580855384469032287597656
0.0455431304872035980224609
-0.0249227806925773620605469
-0.2869176566600799560546875
0.1238354519009590148925781
-0.0785493850708007812500000
0.3796902596950531005859375
0.2498472481966018676757812
-0.1522717773914337158203125
-0.0762289613485336303710938
0.1115747168660163879394531
0.0516759939491748809814453
-0.1138059645891189575195312
-0.2024979740381240844726562
0.1328617334365844726562500
-0.2460275292396545410156250
-0.0216198060661554336547852
-0.0015271202428266406059265
-0.5241187810897827148437500
-0.1194464489817619323730469
-0.4751667082309722900390625
-0.3053143918514251708984375
0.1365436315536499023437500
-0.2979746162891387939453125
0.4320548474788665771484375
0.0850424021482467651367188
-0.1938911080360412597656250
-0.0382577888667583465576172
-0.2420628070831298828125000
0.1403821557760238647460938
-0.2409229278564453125000000
-0.2181948274374008178710938
0.0778120383620262145996094
-0.2340309172868728637695312
0.2627352774143218994140625
0.2640371322631835937500000
0.1181743815541267395019531
-0.2818904817104339599609375
0.4599214494228363037109375
-0.3184542357921600341796875
0.1894625127315521240234375
0.2157868891954421997070312
-0.2488406300544738769531250
-0.1093062609434127807617188
0.2933446168899536132812500
0.4638468027114868164062500
-0.1915526539087295532226562
-0.1725461333990097045898438
0.0411468334496021270751953
-0.2011366635560989379882812
0.4452989995479583740234375
-0.0950991511344909667968750
-0.3445901870727539062500000
0.2577768266201019287109375
-0.0278887078166007995605469
-0.0808388963341712951660156
0.2130844295024871826171875
0.3738830685615539550781250
-0.3220870494842529296875000
0.2574523389339447021484375
-0.3148162662982940673828125
-0.3356487154960632324218750
-0.2192209213972091674804688
-0.5110508203506469726562500
-0.1665996462106704711914062
0.6741884946823120117187500
-0.0453783348202705383300781
0.0493577457964420318603516
-0.0909032672643661499023438
0.7088059186935424804687500
-0.5176224112510681152343750
0.0055628651753067970275879
0.2145259529352188110351562
0.4782904982566833496093750
-0.4146386086940765380859375
0.0847368091344833374023438
0.1216150671243667602539062
-0.1931220144033432006835938
-0.4891194999217987060546875
0.0097253900021314620971680
-0.2671799063682556152343750
0.1057443842291831970214844
0.4177755117416381835937500
-0.3018831908702850341796875
0.6309216618537902832031250
0.1827979534864425659179688
0.0452257543802261352539062
0.1864117830991744995117188
-0.5642237067222595214843750
0.1118644699454307556152344
-0.1655092984437942504882812
-0.0746648907661437988281250
-0.3264810442924499511718750
0.0851264670491218566894531
0.0973349139094352722167969
-0.2252174168825149536132812
0.4483582973480224609375000
-0.0909485518932342529296875
0.1916924417018890380859375
0.1476172059774398803710938
-0.0693199932575225830078125
0.2953102290630340576171875
-0.1369116455316543579101562
-0.2861101329326629638671875
0.0379988737404346466064453
0.1927202194929122924804688
0.2432655990123748779296875
0.2421934753656387329101562
-0.0831492021679878234863281
0.2418926805257797241210938
-0.0995977148413658142089844
-0.4185422956943511962890625
-0.2333615273237228393554688
0.1430413573980331420898438
0.0516964532434940338134766
0.1427605450153350830078125
-0.3896759152412414550781250
0.0313370116055011749267578
-0.0198632478713989257812500
0.0385906808078289031982422
-0.0603299587965011596679688
-0.1730463951826095581054688
-0.6309246420860290527343750
-0.0593591257929801940917969
-0.5252156257629394531250000
0.0583434291183948516845703
-0.2762739360332489013671875
0.4481680691242218017578125
0.2897080183029174804687500
-0.0146994795650243759155273
-0.3880164623260498046875000
-0.0978707000613212585449219
0.1442367732524871826171875
-0.4079777002334594726562500
0.4329926073551177978515625
0.1632616668939590454101562
-0.1967130005359649658203125
0.1562093496322631835937500
-0.2065365761518478393554688
-0.0449913181364536285400391
0.3166568279266357421875000
0.1297752708196640014648438
-0.1971408128738403320312500
-0.2840912640094757080078125
0.0581702552735805511474609
-0.5356187820434570312500000
0.0276203881949186325073242
0.4005745947360992431640625
0.1918714493513107299804688
0.3590568900108337402343750
0.0753708407282829284667969
0.0809466168284416198730469
-0.0199299231171607971191406
0.2212226837873458862304688
-0.2311236113309860229492188
0.2810279726982116699218750
-0.2456189841032028198242188
-0.1974971443414688110351562
0.0597647577524185180664062
-0.2142691910266876220703125
-0.3824961781501770019531250
0.1805423945188522338867188
-0.2296412289142608642578125
-0.1021956503391265869140625
0.0522728934884071350097656
-0.2479702681303024291992188
0.6592516899108886718750000
0.5439867973327636718750000
0.1659934073686599731445312
-0.0005999088170938193798065
0.0154011417180299758911133
0.2259545773267745971679688
-0.3766638338565826416015625
-0.4853342175483703613281250
0.1276649087667465209960938
-0.4431543946266174316406250
-0.2246362417936325073242188
-0.3567700088024139404296875
0.3678489327430725097656250
0.7108854055404663085937500
-0.1316270381212234497070312
0.2610356211662292480468750
-0.2297149300575256347656250
0.2861284017562866210937500
-0.1090343818068504333496094
-0.3094206154346466064453125
-0.4287420511245727539062500
0.1075263544917106628417969
0.1052464097738265991210938
0.2454106062650680541992188
-0.1671437025070190429687500
-0.0045152637176215648651123
-0.2769566178321838378906250
0.0114624993875622749328613
-0.0824562981724739074707031
0.0159914959222078323364258
-0.1193314790725708007812500
-0.6795536279678344726562500
0.1861474961042404174804688
