-0.1036030724644660949707031
-0.0437014698982238769531250
-0.2011628150939941406250000
0.2948328852653503417968750
-0.1897967606782913208007812
-0.3765125870704650878906250
0.2210163027048110961914062
-0.0502075739204883575439453
-0.2623659670352935791015625
-0.0747431591153144836425781
-0.1942791491746902465820312
0.2546283900737762451171875
-0.2419499456882476806640625
0.5058333277702331542968750
-0.2527090311050415039062500
-0.2775628566741943359375000
-0.0299499500542879104614258
-0.0706949979066848754882812
0.0361524671316146850585938
-0.0267596133053302764892578
0.0455478318035602569580078
0.1579903662204742431640625
0.2213108092546463012695312
0.1733826398849487304687500
0.1515839993953704833984375
0.3905685245990753173828125
-0.0153188910335302352905273
-0.4776814877986907958984375
-0.2432454228401184082031250
-0.4591480493545532226562500
0.0508044548332691192626953
0.1767914891242980957031250
-0.0068779177963733673095703
0.0607212148606777191162109
-0.0679864883422851562500000
0.0115055842325091361999512
-0.0754297450184822082519531
0.0507865250110626220703125
0.0390524081885814666748047
-0.3083429932594299316406250
-0.1873306632041931152343750
-0.3070949018001556396484375
-0.3004063367843627929687500
0.1810565143823623657226562
-0.1284946799278259277343750
0.0712770074605941772460938
0.2553672492504119873046875
0.0362706035375595092773438
-0.2401270717382431030273438
-0.1461097002029418945312500
-0.0553822219371795654296875
-0.1299237161874771118164062
-0.0723238065838813781738281
-0.3983864188194274902343750
-0.1756340712308883666992188
-0.1600847095251083374023438
0.1823356151580810546875000
-0.1221108436584472656250000
0.1977742612361907958984375
0.0043224445544183254241943
0.5176498889923095703125000
0.2025335878133773803710938
0.0136649673804640769958496
0.2078382521867752075195312
-0.1883969306945800781250000
-0.2394310086965560913085938
-0.2168865501880645751953125
-0.4303828179836273193359375
-0.2008833885192871093750000
0.2073743194341659545898438
0.2976261675357818603515625
0.0953456163406372070312500
0.0681277140974998474121094
0.0207299180328845977783203
0.0632262006402015686035156
0.1358346045017242431640625
0.0902926921844482421875000
-0.0931340306997299194335938
0.1380334645509719848632812
0.2618886828422546386718750
0.1789433956146240234375000
0.1078315228223800659179688
-0.1216780096292495727539062
0.0002950029738713055849075
0.0598140582442283630371094
-0.2715816497802734375000000
0.0032169285695999860763550
0.0503157936036586761474609
0.2555874586105346679687500
-0.4254245758056640625000000
0.1592402607202529907226562
-0.2029948681592941284179688
-0.1584117859601974487304688
-0.3331284523010253906250000
0.0522822141647338867187500
0.1178295016288757324218750
-0.2002495825290679931640625
0.1143149062991142272949219
0.0639383792877197265625000
0.2477594912052154541015625
-0.3245741724967956542968750
-0.6557971835136413574218750
0.1334962844848632812500000
-0.0793001502752304077148438
0.2958188652992248535156250
0.2006735950708389282226562
-0.1764410734176635742187500
-0.3611041605472564697265625
-0.2551470696926116943359375
0.0689390823245048522949219
0.2254429310560226440429688
0.0065053603611886501312256
0.0126955136656761169433594
-0.0377009138464927673339844
-0.1258223950862884521484375
0.5038452744483947753906250
-0.1899148821830749511718750
-0.0779110714793205261230469
0.2881289720535278320312500
0.0716674476861953735351562
-0.3066850304603576660156250
-0.2132314294576644897460938
0.1395267248153686523437500
-0.0740899965167045593261719
0.2314707487821578979492188
-0.1059849485754966735839844
0.0391498990356922149658203
-0.0989172235131263732910156
0.2379910349845886230468750
0.1831654310226440429687500
-0.1409458369016647338867188
0.1830538809299468994140625
-0.2704367637634277343750000
0.3813904225826263427734375
-0.0604911521077156066894531
-0.0036400435492396354675293
-0.1163576319813728332519531
0.0359266884624958038330078
-0.1628499627113342285156250
-0.4344924986362457275390625
-0.2322771698236465454101562
0.0657652691006660461425781
-0.0489839427173137664794922
0.1243689432740211486816406
-0.0699384436011314392089844
0.0302574373781681060791016
0.0590737648308277130126953
0.1118059754371643066406250
-0.0734589248895645141601562
-0.0813533663749694824218750
0.2755684852600097656250000
0.0629249140620231628417969
-0.2501970827579498291015625
0.2274785786867141723632812
-0.1454501003026962280273438
0.4775234758853912353515625
0.1740881949663162231445312
0.2531413733959197998046875
-0.0295003782957792282104492
0.1163094639778137207031250
0.0156088424846529960632324
-0.2008680105209350585937500
0.0793062746524810791015625
0.2625995874404907226562500
0.3383747935295104980468750
0.1398369371891021728515625
0.0216336268931627273559570
0.2906422913074493408203125
-0.0802156254649162292480469
0.2486277967691421508789062
-0.3183178305625915527343750
0.3708315193653106689453125
-0.0572911128401756286621094
-0.1522329747676849365234375
-0.1268767118453979492187500
0.0993278250098228454589844
-0.3841513097286224365234375
0.3640553951263427734375000
-0.1035237684845924377441406
-0.1975554078817367553710938
-0.3327353596687316894531250
0.1853283941745758056640625
0.1162621453404426574707031
-0.2543125152587890625000000
0.1143209189176559448242188
-0.0692599117755889892578125
-0.0318759009242057800292969
0.0406184718012809753417969
0.3170265853404998779296875
0.2245779633522033691406250
-0.0194775536656379699707031
-0.2724556922912597656250000
0.0152325034141540527343750
-0.0486526265740394592285156
-0.2142593115568161010742188
0.0404630266129970550537109
0.1520913243293762207031250
-0.0687862709164619445800781
-0.3629960417747497558593750
-0.0607360899448394775390625
-0.3600603640079498291015625
-0.0369090288877487182617188
0.0450985021889209747314453
0.0386815667152404785156250
0.0840122252702713012695312
-0.0280156377702951431274414
-0.1237811222672462463378906
0.2218605577945709228515625
-0.0061485883779823780059814
0.1136119291186332702636719
-0.2736875116825103759765625
-0.0437318310141563415527344
0.0176888238638639450073242
-0.2762620151042938232421875
-0.1088446527719497680664062
-0.5425893068313598632812500
0.2686313390731811523437500
0.0822312086820602416992188
0.1826558113098144531250000
-0.1448578536510467529296875
-0.2135563790798187255859375
0.1654059886932373046875000
0.2201952338218688964843750
0.2462306022644042968750000
0.0524271652102470397949219
0.0716790258884429931640625
-0.2327177822589874267578125
-0.0565110072493553161621094
0.2707959115505218505859375
0.3546539843082427978515625
-0.2600450515747070312500000
-0.2488605082035064697265625
-0.0520814619958400726318359
-0.1781276613473892211914062
-0.1337418854236602783203125
-0.0841006189584732055664062
-0.1359874457120895385742188
0.2742960453033447265625000
0.1599886715412139892578125
-0.0620631128549575805664062
-0.0512497574090957641601562
-0.3027606308460235595703125
0.2726695239543914794921875
-0.1555577516555786132812500
0.1962895393371582031250000
-0.0390514545142650604248047
0.1314390152692794799804688
0.0340110436081886291503906
-0.0850521922111511230468750
0.0495547987520694732666016
0.1690514385700225830078125
-0.0025208988226950168609619
0.0937525555491447448730469
-0.2893029749393463134765625
0.1202142462134361267089844
0.2095301002264022827148438
-0.1993899196386337280273438
0.1791399568319320678710938
-0.0038268424104899168014526
0.1831410825252532958984375
-0.0483926050364971160888672
0.3077369928359985351562500
-0.0423228330910205841064453
0.0848637893795967102050781
-0.3046853244304656982421875
-0.1721985936164855957031250
-0.1489244699478149414062500
-0.2054456025362014770507812
0.1265159249305725097656250
-0.2082347571849822998046875
0.1112672090530395507812500
-0.2758375406265258789062500
0.1161159500479698181152344
0.1777238398790359497070312
-0.2071647793054580688476562
-0.2392222136259078979492188
-0.0308541897684335708618164
-0.2348732501268386840820312
0.1292773336172103881835938
-0.2387581169605255126953125
0.1979291141033172607421875
-0.2244273722171783447265625
-0.2351444065570831298828125
-0.4877827167510986328125000
0.0754645541310310363769531
0.2556668817996978759765625
-0.0338346697390079498291016
-0.2172882705926895141601562
-0.2359102070331573486328125
-0.0622817352414131164550781
0.0388714447617530822753906
0.2412215024232864379882812
0.1090243309736251831054688
0.0685005933046340942382812
-0.2486682534217834472656250
-0.1189940869808197021484375
0.0100794304162263870239258
0.3164918124675750732421875
0.2507378458976745605468750
0.4043965935707092285156250
0.1483707576990127563476562
0.4015118777751922607421875
-0.0982640385627746582031250
-0.2063480764627456665039062
-0.0883270129561424255371094
0.2174529582262039184570312
-0.0660088956356048583984375
-0.0280897971242666244506836
-0.0435781441628932952880859
-0.2278219908475875854492188
-0.1363472342491149902343750
-0.0858032032847404479980469
0.2730866968631744384765625
0.1619338542222976684570312
-0.6422582864761352539062500
0.0811296179890632629394531
-0.0575104355812072753906250
0.1173691451549530029296875
0.1707290858030319213867188
-0.0289102122187614440917969
0.3431466519832611083984375
0.1730799525976181030273438
-0.3858580291271209716796875
0.1651053577661514282226562
0.2721576690673828125000000
-0.5044733285903930664062500
-0.1405794918537139892578125
-0.0993986055254936218261719
-0.0620301514863967895507812
0.1666633188724517822265625
0.2040656507015228271484375
-0.4492944777011871337890625
0.2547454535961151123046875
-0.3516370356082916259765625
-0.0645888894796371459960938
0.2698631286621093750000000
-0.1563841402530670166015625
-0.2267357558012008666992188
-0.2729804217815399169921875
0.0359148234128952026367188
0.0155504494905471801757812
-0.2813543379306793212890625
0.2417608052492141723632812
-0.1386197656393051147460938
0.0683852881193161010742188
0.1780465543270111083984375
-0.2340796440839767456054688
0.0705461278557777404785156
0.2639577984809875488281250
0.1333529204130172729492188
0.1778200715780258178710938
-0.1578111648559570312500000
-0.0194622427225112915039062
0.1620737314224243164062500
0.0646388754248619079589844
-0.1306642740964889526367188
0.2822487950325012207031250
0.0985172018408775329589844
-0.0882126688957214355468750
0.0204590875655412673950195
0.1777667701244354248046875
-0.3184737265110015869140625
0.1463860869407653808593750
0.3048441410064697265625000
-0.1170377656817436218261719
0.1725799590349197387695312
-0.0757733210921287536621094
-0.0488187223672866821289062
0.2266113013029098510742188
-0.0522636063396930694580078
-0.2017842829227447509765625
-0.2543350458145141601562500
-0.2737159729003906250000000
0.2520841360092163085937500
-0.2424382418394088745117188
0.1563297063112258911132812
-0.3949549496173858642578125
-0.1643347144126892089843750
0.3262287676334381103515625
0.1659920513629913330078125
-0.0021089168731123208999634
0.2298077791929244995117188
0.1404105722904205322265625
0.2411223649978637695312500
-0.1798972189426422119140625
-0.1445395201444625854492188
0.3622729182243347167968750
-0.4358517825603485107421875
0.1491254568099975585937500
0.2490963637828826904296875
0.1142547875642776489257812
0.1188295260071754455566406
0.3310206532478332519531250
-0.1904933750629425048828125
0.0456582270562648773193359
-0.2627142071723937988281250
0.0158816557377576828002930
-0.2222085595130920410156250
0.2140599936246871948242188
-0.3526607155799865722656250
-0.2089724540710449218750000
-0.2758121788501739501953125
-0.0217430237680673599243164
0.1725351214408874511718750
-0.2221877127885818481445312
-0.0251036304980516433715820
-0.0429691709578037261962891
-0.0630258172750473022460938
-0.0711801648139953613281250
0.6062361001968383789062500
0.1402817368507385253906250
-0.2892917990684509277343750
0.1410948783159255981445312
0.3624018430709838867187500
0.1477808505296707153320312
0.2327431887388229370117188
-0.0256937574595212936401367
0.2159637063741683959960938
0.1548030078411102294921875
0.2107848525047302246093750
0.2202587127685546875000000
0.1862461268901824951171875
-0.2083846181631088256835938
-0.2615293562412261962890625
0.2491740286350250244140625
-0.2824990451335906982421875
-0.5188873410224914550781250
0.1474346816539764404296875
0.2522544860839843750000000
0.2070943713188171386718750
0.1571161448955535888671875
0.1933246701955795288085938
0.0790211856365203857421875
-0.2892334163188934326171875
-0.0495393611490726470947266
-0.5190920829772949218750000
-0.1781308948993682861328125
0.1880290955305099487304688
0.0963131710886955261230469
-0.2503048777580261230468750
-0.4986768662929534912109375
0.0729639679193496704101562
0.1477264910936355590820312
-0.1127026900649070739746094
0.2532292008399963378906250
0.0355896167457103729248047
0.0602179206907749176025391
0.1048904210329055786132812
0.0815815031528472900390625
0.2068285644054412841796875
0.3411960303783416748046875
0.3572483062744140625000000
0.2443319559097290039062500
-0.2647386193275451660156250
0.1523681432008743286132812
0.0802485644817352294921875
-0.2009069621562957763671875
-0.0057347933761775493621826
0.0818517729640007019042969
-0.1168632730841636657714844
-0.2483370453119277954101562
0.2960039675235748291015625
-0.1775704920291900634765625
0.2337194979190826416015625
-0.1979014873504638671875000
-0.2546195983886718750000000
-0.2660440504550933837890625
-0.2260975539684295654296875
-0.1746649891138076782226562
0.1141125857830047607421875
0.0806127935647964477539062
-0.4398006200790405273437500
0.1075715944170951843261719
-0.5021474957466125488281250
0.0330873355269432067871094
0.0381249077618122100830078
0.2748620808124542236328125
-0.1288129687309265136718750
-0.0742794200778007507324219
0.0665891245007514953613281
0.2334391921758651733398438
-0.1581466495990753173828125
0.1237171962857246398925781
-0.1805148273706436157226562
0.0908854454755783081054688
0.1557811051607131958007812
-0.0908833816647529602050781
0.1713909506797790527343750
0.1454153656959533691406250
0.3402391374111175537109375
-0.1621651500463485717773438
-0.3985481858253479003906250
-0.1944056153297424316406250
-0.0339009352028369903564453
0.2654652595520019531250000
0.1307960897684097290039062
0.1235754936933517456054688
0.0672332122921943664550781
-0.2640622258186340332031250
-0.4805280268192291259765625
-0.5246836543083190917968750
-0.3760756254196166992187500
-0.4977624714374542236328125
-0.1281399130821228027343750
0.0157159008085727691650391
0.0758775025606155395507812
-0.1639878004789352416992188
0.2006745636463165283203125
-0.1520347446203231811523438
-0.2161937654018402099609375
-0.1999733000993728637695312
-0.2569477260112762451171875
0.5621099472045898437500000
-0.2751079499721527099609375
0.1771902590990066528320312
-0.2877691090106964111328125
-0.1783718466758728027343750
0.0452145338058471679687500
-0.4616918563842773437500000
0.1990656405687332153320312
0.0402045100927352905273438
0.2436827719211578369140625
-0.2072638422250747680664062
0.1535134315490722656250000
-0.1406466811895370483398438
-0.5872375369071960449218750
-0.0567615032196044921875000
0.0390037186443805694580078
-0.0147277694195508956909180
0.1448976099491119384765625
-0.1962732821702957153320312
0.1903460919857025146484375
-0.1281623095273971557617188
0.1304500401020050048828125
-0.0327298901975154876708984
0.3628369867801666259765625
-0.1677455008029937744140625
0.0851485580205917358398438
-0.1702217608690261840820312
-0.3173160851001739501953125
0.2315038740634918212890625
-0.6135838627815246582031250
0.1081452220678329467773438
0.2270680814981460571289062
-0.0235355477780103683471680
-0.0880058184266090393066406
0.2330714315176010131835938
-0.1757242828607559204101562
0.2496740967035293579101562
0.0791112482547760009765625
-0.1457145065069198608398438
-0.0219993386417627334594727
-0.2418204396963119506835938
-0.0261306557804346084594727
0.1786840260028839111328125
-0.2176150679588317871093750
-0.1078698262572288513183594
0.0139929288998246192932129
0.1244532391428947448730469
-0.1771140843629837036132812
-0.4534530639648437500000000
0.0262503176927566528320312
0.0981715619564056396484375
0.3874933421611785888671875
0.3744685053825378417968750
-0.0678903385996818542480469
-0.3698430359363555908203125
0.0942512005567550659179688
0.0959616750478744506835938
0.2144569307565689086914062
0.3246371448040008544921875
0.0788147523999214172363281
-0.5001496076583862304687500
-0.2863536477088928222656250
0.0033252544235438108444214
0.1606361865997314453125000
-0.0508614741265773773193359
-0.0296408422291278839111328
-0.0273596588522195816040039
-0.2273625582456588745117188
0.1203861385583877563476562
-0.3520311415195465087890625
-0.0305382478982210159301758
-0.1452060937881469726562500
-0.0543460920453071594238281
0.0087010599672794342041016
0.1626350432634353637695312
0.0927888676524162292480469
-0.1608361899852752685546875
0.2478744089603424072265625
0.1338078528642654418945312
0.1000021547079086303710938
-0.2769909203052520751953125
0.1142478957772254943847656
-0.2124603986740112304687500
-0.1941022872924804687500000
-0.2460516989231109619140625
-0.1003659963607788085937500
0.2037144452333450317382812
0.0036450501065701246261597
0.2710895240306854248046875
-0.2805172204971313476562500
0.1916135102510452270507812
0.0196065157651901245117188
0.2413417547941207885742188
-0.3198544383049011230468750
0.1583945900201797485351562
-0.2594043314456939697265625
-0.0577620156109333038330078
0.0072364234365522861480713
-0.1101026535034179687500000
-0.0900526344776153564453125
-0.3954587280750274658203125
-0.3596602380275726318359375
0.2654647529125213623046875
0.0941753014922142028808594
-0.2284091264009475708007812
-0.2261127531528472900390625
0.1385005563497543334960938
-0.1201022118330001831054688
-0.0152869671583175659179688
-0.4628075063228607177734375
0.1902080774307250976562500
-0.0467950999736785888671875
0.3165367245674133300781250
0.3653552532196044921875000
0.2302132248878479003906250
-0.3550682067871093750000000
0.2739324867725372314453125
0.0444097593426704406738281
0.3290319740772247314453125
0.0892610996961593627929688
0.1949738115072250366210938
0.2346801906824111938476562
0.0166247338056564331054688
-0.2607563734054565429687500
-0.1091797128319740295410156
-0.0547347478568553924560547
0.1842676848173141479492188
-0.2530948221683502197265625
