0.1476252526
0.0040483265
-0.1617957056
0.1363782436
-0.0505038723
-0.2207846344
-0.1089866310
-0.0043163891
0.0386739522
0.2245660871
0.1288140863
-0.1207801029
0.2747072875
0.1195421815
-0.1651273966
-0.1038615853
-0.0955772251
0.2319788784
0.1002217457
-0.1224179342
0.0320033841
0.1794229895
0.0229629353
-0.0753157362
-0.1783596873
-0.1377781630
0.1745181829
0.1186697260
0.1024156287
0.1386737525
0.0898051858
-0.2468836904
0.0251987595
0.1792798936
-0.1180302948
-0.2212357074
0.0417487174
0.1145017445
-0.0263502076
0.1850281507
-0.1160912737
0.0722295567
0.1480270028
-0.2857031524
-0.1677493751
0.1404929608
0.0354624651
0.0432008207
0.2466827929
-0.1844006330
0.1595518142
0.0121930381
-0.2186076045
-0.1401490122
0.0424577221
-0.0317995735
-0.1319444180
-0.0021807705
0.1028772369
0.1291565299
-0.0729246736
0.0794201866
-0.0156255346
0.1344971508
0.0733134672
-0.0009735050
-0.0297295135
-0.0450763926
0.0026657751
-0.2558179498
-0.1721669137
-0.2122129053
0.1913389117
0.2116492689
-0.1213670149
0.1407910138
0.0229810961
0.1529155374
-0.2040380090
-0.0145820389
-0.0367320180
-0.0639370382
0.0469806418
0.1287546158
-0.0114231044
-0.0589286536
-0.0321492590
-0.0225032065
-0.0358814225
-0.0161337554
0.0174326263
0.0480389930
0.0072393953
0.0937946886
0.1942147911
-0.1742872894
0.1089168563
0.0935664549
-0.2274958938
-0.3007383347
-0.2243202925
0.0415593386
-0.2190381140
0.0242492054
-0.0465135574
-0.2528705895
-0.2030365169
-0.0719111785
0.1781311482
-0.0730885267
0.0447509661
0.2040840387
-0.1116620079
-0.0115251336
0.2268814743
-0.0408785865
-0.0624789372
-0.1555535793
-0.1949977875
0.1503351629
-0.0030072231
-0.1247612163
-0.2226301730
0.1864812523
0.0996554792
-0.0349254794
-0.0203604940
-0.1716439724
0.0247292146
0.0866484344
-0.1930536032
0.0592707880
0.1285811365
-0.0684484467
-0.0024556357
0.1494456828
0.2551267147
0.1900370568
0.2341657877
-0.2727471590
-0.1626857817
-0.0330754183
-0.2819201946
0.1758628488
0.1528017521
-0.0414015464
0.1349551529
0.0347283520
-0.2936505675
0.0672659129
-0.1711545289
-0.2807237208
0.0658539608
0.0945485234
0.0107364506
0.0802924931
0.2109535486
-0.1457985640
-0.0999876335
-0.0704071149
-0.0312567949
0.1380750686
-0.2204866558
0.1209890023
0.0230573062
-0.1287678182
-0.0663125813
0.2949293554
-0.0027961703
-0.1196669638
-0.1916646063
-0.1320011467
0.1402504593
-0.0120101273
0.0764737576
-0.0156632029
0.2942466736
0.0029171528
-0.1715179086
-0.1507073045
-0.1742722541
-0.0340410173
0.1683577746
-0.1077717692
0.0517059043
0.3264013231
0.0944044814
-0.2753895521
-0.1876209676
-0.0544206686
-0.0194883328
0.2537006736
-0.2470521778
-0.2258041948
0.0374278687
-0.0911961719
0.1726871431
0.2411831766
0.1029359400
-0.1101706699
0.0021600409
-0.1680133343
-0.1824925095
-0.0790202543
0.1335539520
0.0957324505
0.3283646405
0.1928389519
-0.0011988846
0.0180936009
-0.1294574142
-0.3333900869
-0.0891985074
0.0470802858
0.0680751875
0.1885869354
0.1443375051
0.1875227839
-0.1475473940
0.2780652940
0.2133890390
0.0309340283
-0.0264948551
0.1181493029
0.1085454002
-0.1225531325
-0.0843254477
-0.1253503710
-0.0091334684
-0.0353969783
-0.1139041558
0.0970092863
-0.1478824168
0.1147343591
-0.1600754261
-0.0742221698
-0.0898278952
-0.1119272560
-0.1337647587
-0.0546082407
-0.0894800052
-0.0844404101
0.1352701932
-0.0028417066
-0.0055064135
0.0482753813
0.0492205545
-0.0808044299
0.0443849750
0.1527183056
0.1753899753
0.2322728634
0.0984517634
-0.2703497708
-0.3132688701
0.0721149668
-0.1765558273
-0.2350766957
-0.0818346441
-0.0379826315
-0.1281097978
0.0015131296
0.0141616194
-0.1786326766
0.1320238411
-0.1938900501
-0.0174925793
0.0975845307
-0.0238091983
0.0395096838
-0.0554302484
0.1166829467
0.0841871724
-0.0750788152
-0.0254256539
-0.0006990720
-0.0712115541
-0.1708221585
0.0843998343
-0.0824280307
-0.1683788598
-0.0096802088
-0.1566906869
-0.0518547073
-0.0164097678
0.0469592586
-0.1504841596
-0.2393556982
0.1094960347
0.1362607032
-0.1300813109
-0.1109414399
0.0647470355
0.1597285271
0.0515009686
0.1098842248
-0.0807080194
0.0261232071
-0.1626890153
-0.1359428018
0.1586056054
0.0237781685
-0.0541883521
0.1524841934
0.0271430761
-0.1736625284
0.1342618465
0.0761292949
-0.0499290228
0.2521243691
0.0060166223
0.1113648191
0.0319856852
-0.0832965076
0.0767524391
-0.2302209139
-0.0043021473
0.1446136385
-0.1796214879
-0.2685339749
-0.0267970376
-0.2679623663
-0.1667966843
0.0068266699
-0.1573812217
0.0013122826
-0.0062969862
-0.2619423866
-0.0662226751
-0.2375916094
0.0990163535
0.1472748965
-0.0177453682
0.0827957168
-0.0681487173
-0.1935870200
-0.0346055664
-0.1132705063
-0.1390292346
0.1973912418
0.1591179520
-0.0526754893
0.0610451996
0.0024376260
0.0593341514
-0.1649995595
-0.0647295192
-0.0085061826
0.1948623806
0.2776628137
-0.0170658696
0.0615133829
-0.2428230345
0.0077992659
-0.2138497382
0.1172826439
0.0378622487
-0.1792403311
0.0506065004
-0.1472682655
0.1213842630
-0.0556792393
0.0647217855
0.0141120162
0.0978030413
0.2749614418
0.1702103466
0.2561979294
0.0457313508
-0.1683053672
-0.0664206445
-0.0974090695
-0.1761882305
-0.0722997934
0.1833466589
0.0647983775
0.0044594728
-0.0858309120
0.0989675224
0.1439256221
0.0763279870
0.0616542809
-0.0915884972
-0.0748990700
-0.2362814546
-0.1435155123
0.1519575417
0.0714926869
0.0335776098
0.0083464952
0.0974365175
-0.1012136862
0.1017433479
-0.0503351279
-0.0930715129
0.2285529524
0.0860335380
0.0106793828
-0.1967603117
-0.0953815281
-0.0786768720
-0.2384343743
-0.0931193158
-0.2712567151
-0.0415465832
-0.0141699333
-0.0494333655
0.1697187573
-0.2496835142
-0.0188584346
0.2125841528
0.0640214607
-0.1248921230
0.0580826253
0.1526481807
0.0642518401
0.1693272293
-0.1158716977
-0.0270942710
0.0371569581
-0.1436541528
-0.2183596790
0.0070107239
0.1256969720
0.1998587400
0.1015944928
-0.1854526252
0.1162924916
0.0998355225
-0.0964495093
-0.0692242309
-0.1051665097
0.2437709868
0.2432747334
-0.0008112047
0.1870210767
0.0340428688
0.1144361347
-0.0239330214
0.1531096697
-0.1046504900
-0.0899885669
-0.0333213210
-0.0361810476
-0.2411785722
0.0440370850
-0.1601657420
-0.2392609119
-0.1312109977
-0.1605248451
-0.0678913966
0.0575270541
0.0107175317
-0.0286117829
0.1766197532
0.0286098439
-0.0830017850
0.1099794880
0.1615512669
0.0370711163
0.3668140173
0.3389248252
-0.0540641546
-0.0346983746
0.0504531115
-0.2901558876
-0.1770771295
-0.0063115777
0.1242689118
0.0816656724
0.0495500788
-0.2409651577
-0.1979203224
-0.0107411444
-0.2513587177
-0.0891662687
-0.1163918301
-0.0614462197
0.0355251431
0.1645320803
-0.0468167923
-0.1210566983
-0.0437079258
-0.1440783292
-0.1741971821
-0.1439434439
0.1375003755
-0.0420004427
-0.0631136745
-0.0514933281
-0.0920275822
-0.0909751952
-0.1049250960
0.1996726543
0.2364974916
-0.1382222921
-0.1996304840
-0.1377486885
-0.0508558042
-0.0723176897
-0.0679509491
-0.1489242613
0.0597587228
0.2354063839
-0.0573729649
0.0553052574
-0.0691228136
-0.1366695613
0.0411282256
0.0144170476
0.0952705741
0.2286580503
0.2666063607
0.0621117502
-0.0419816002
0.1263069063
0.1951303482
0.0203283727
-0.1552532911
0.1990866959
-0.0749605820
-0.1867940575
-0.2547887266
-0.1748335809
-0.0688693747
0.0463316143
-0.0292273313
0.0341918506
0.0940649658
0.0966268852
-0.0619362518
-0.0560986623
-0.1814835072
0.1477378160
-0.0385068394
-0.0624765903
0.0034720644
0.1697414070
0.1692464501
-0.0647628531
-0.0261719767
0.0954072177
0.0471233204
-0.2156737894
-0.1827769428
-0.1285531521
0.0306059755
0.0228650831
0.1932819039
0.0105367601
0.2161092162
0.1983330846
-0.1987368315
-0.0464283675
-0.1894944906
0.0921250805
-0.1248591319
-0.0221712645
-0.0733262822
0.0280770138
0.1615325511
-0.2215230912
-0.2660077512
0.0938217714
0.2467022538
0.0411569253
0.1237002909
0.2579633296
-0.0113607571
-0.1933962703
0.2725943923
-0.0581838936
-0.1814537942
0.2053084075
-0.0584207177
-0.0704477653
-0.1113414317
0.1247550398
0.1343321055
-0.1325377524
-0.0153414896
0.0042809872
-0.1557783633
-0.1343640089
0.0988677517
-0.2624050081
-0.1754430383
0.0391474813
-0.0902322978
0.1028878763
0.1462171525
-0.0675912201
0.0746257231
0.2302998900
0.0584867522
-0.1715898514
-0.1334023923
0.1175841913
0.0590113737
-0.0244070180
0.0680737495
0.1195979416
0.0270555802
-0.0381020792
-0.1244091839
-0.2250877023
0.1708036810
-0.1170959249
-0.1699743122
0.1651611477
0.0934065953
-0.0969840214
0.0051296409
-0.1878867000
0.0253068302
0.2155070305
0.1020122245
0.0083461534
-0.0038107103
0.0278463215
-0.0686813742
0.2414581627
-0.0033799461
-0.2763432860
-0.1450427324
0.0807202533
0.1167290658
0.0607858971
-0.0517295599
0.2164575756
0.1182280108
0.0086023612
-0.2962411642
-0.1157871336
-0.0416552648
-0.0830618963
-0.0517990030
0.0098156417
0.1648692489
0.0021697197
0.0096585881
-0.3228856027
0.0162656158
-0.0744677782
0.1698662490
0.0145784793
0.1822079569
0.2659549117
-0.1540644467
-0.0463171043
-0.0725457445
-0.1236910075
-0.1441735476
-0.0381105281
-0.1281322390
-0.1377383620
0.0542339198
0.0691444650
0.0542153716
-0.0250039790
-0.0079039531
0.1484088004
-0.0606278926
-0.0923506096
-0.0565173067
-0.1820301116
0.2282351106
0.2545617223
-0.0091512678
0.1505467743
0.2087326944
0.0421253778
0.0577778555
0.1889647543
-0.0439201966
-0.0584452264
-0.1132329926
0.0406766683
-0.1748233587
-0.1647779197
0.1315266937
-0.0866276920
-0.0693755448
0.0165260267
-0.1429140866
0.0508823954
0.0691150576
-0.0456624590
-0.0904807001
0.2032265514
0.0842233524
0.0693926513
0.0531473830
0.0064405361
0.0755660683
0.1806891412
-0.1710576117
0.0104794102
0.1588447094
-0.1400833726
-0.0010656477
-0.0423045307
0.0362695903
0.0899462029
-0.0414862633
-0.1406610310
-0.0811205953
0.1622127742
0.0411944427
0.2234323919
0.2439549267
-0.0460057817
-0.1892576665
-0.0728475228
-0.2336883545
-0.1534153372
-0.0945727304
-0.0868586451
-0.0340506248
0.1507992148
0.1286852509
0.1420677006
-0.1026808619
-0.1044634283
-0.1129581556
0.0706354156
-0.0806888640
0.0903827697
0.2818642855
0.1248458028
0.1338729262
-0.0480788499
-0.0445092358
0.0010919333
-0.1416165829
0.1449000537
-0.2432845682
-0.0544574596
0.1137905866
0.1194509044
0.0995911062
0.0485519022
-0.0023832130
-0.1573609412
0.2615355551
-0.1180331036
-0.0007136753
-0.1626674980
0.1402390450
-0.0705589429
-0.0574329868
-0.2186811417
-0.1194840893
0.2103310674
-0.3299996257
-0.2874361873
-0.1516265273
-0.0008110637
-0.2147244513
0.2525704503
0.1929137111
0.0076962453
0.0688157454
-0.1555068046
0.0534279794
0.0598712787
-0.0029595161
-0.1469740272
0.1473098546
0.2704994082
-0.1874164194
-0.0939716846
-0.0614615753
-0.0740832388
-0.1577057689
0.0463062227
0.0159516893
0.0948930904
0.2107395381
-0.1123823673
0.0454127640
-0.1246651411
0.0428368337
-0.1137600169
0.0724897757
0.1223976985
0.0480878800
0.0678874403
0.1294422299
0.0297620650
0.0035656402
-0.1294799596
-0.0126080168
0.1699746102
-0.0060667461
0.0781757087
0.1455736756
0.0785241351
0.0160784964
0.0815614313
-0.0650704578
-0.0709424019
-0.0491582267
-0.0171778947
-0.1775851846
-0.0933936313
-0.1007122695
0.0089075165
-0.1662976742
-0.1353189498
-0.1143668741
0.0420163646
-0.0508944988
-0.0405088328
0.0220384840
-0.0693595037
0.0392277017
-0.0779868960
0.0309392009
0.0077574784
-0.1461973935
-0.2301699221
0.1287828982
-0.0391702391
0.0665003881
0.0428645536
-0.0121921515
0.0128552988
0.0286403745
-0.0901081562
-0.2205223888
-0.0805678740
-0.2277282029
-0.1237115487
0.0532347709
-0.0071714730
-0.0857536644
-0.0446882211
0.0619554222
0.0713920221
0.1408588737
0.2086363584
0.1924504340
0.1073968261
-0.0530488566
-0.2291239500
-0.1626668870
-0.0249738600
0.0322683826
0.0702529177
-0.0897258446
0.0371630676
0.0159592312
-0.2757506669
-0.0747023448
-0.1355731487
0.0354848392
0.0870996341
0.0619333349
0.0663098916
0.0168199483
0.1237494275
-0.1898284405
-0.1999534369
