-0.223251
-0.013060
0.269381
0.037809
0.091401
0.043423
0.110421
-0.121883
-0.238216
-0.013314
0.070055
0.060009
0.051175
0.035994
-0.097192
0.048608
-0.144573
0.110227
-0.200105
-0.004231
-0.000712
-0.061049
0.112162
0.133650
0.153349
0.152572
-0.104162
-0.088846
0.015795
-0.126437
0.118583
0.030012
-0.124479
0.053261
-0.080619
0.116414
0.066566
-0.034071
0.247780
-0.007590
0.129040
0.063944
0.064464
0.049668
-0.000088
0.238650
-0.092749
-0.232381
0.058989
-0.290621
-0.167816
-0.306275
-0.086455
0.349467
-0.302056
-0.257569
0.020109
-0.052087
0.330585
-0.009324
0.294404
0.006658
-0.294898
-0.027850
-0.014399
0.079587
0.169688
-0.017098
-0.079115
0.022329
-0.190304
0.012324
-0.263685
0.033743
0.130861
-0.074156
0.223394
0.037496
0.193807
-0.094711
-0.437966
0.114295
-0.033998
0.015121
-0.048814
-0.074940
-0.198380
-0.143369
-0.109206
-0.097896
0.113191
-0.185023
-0.031912
0.031101
0.003978
-0.089191
-0.101671
-0.112223
0.017560
-0.144880
-0.120953
-0.117268
0.089475
-0.008225
-0.135104
0.063880
-0.040571
-0.073328
0.063085
-0.040796
-0.045824
-0.130342
-0.067775
-0.177191
-0.003061
-0.099471
-0.236602
0.129798
0.025085
-0.132774
0.076199
-0.155718
-0.180582
-0.191693
-0.025510
0.069774
0.066202
0.025817
-0.135680
-0.026573
-0.064793
0.023652
-0.038818
-0.072234
0.002795
0.039987
-0.070895
0.038353
-0.051211
-0.137118
-0.084893
-0.097076
0.012540
0.060649
-0.014390
-0.073120
0.000626
0.061460
0.063163
-0.140890
0.014108
-0.240213
0.083956
0.120847
-0.128863
-0.103966
-0.124890
0.021141
-0.020460
-0.149059
0.044747
0.036772
0.017687
0.186634
0.174517
0.019479
0.154396
0.157681
-0.034341
0.117433
-0.014087
-0.244522
0.062103
0.021043
0.051817
0.196514
-0.238406
0.019483
-0.186236
-0.048457
0.050718
-0.090231
-0.011715
-0.039556
0.010822
0.113715
-0.147077
0.192591
0.029841
0.054314
0.113563
0.097457
0.171157
-0.019224
-0.152243
-0.187733
-0.341399
-0.157710
0.014285
-0.114074
-0.275748
-0.142972
-0.118010
0.061462
-0.034790
0.058921
0.297437
0.043937
0.117254
-0.037640
0.181925
-0.186757
-0.231142
-0.068087
-0.102882
0.054709
-0.068871
-0.016495
0.047506
-0.128986
-0.070020
-0.179943
-0.045073
0.115459
0.157775
0.068920
-0.084060
0.102184
0.010378
0.184153
-0.032590
0.163019
-0.069828
-0.475261
0.146450
0.025545
0.009828
0.027438
-0.102848
-0.164653
-0.041358
-0.092367
0.053774
0.054382
-0.073958
-0.172324
0.027486
-0.131293
-0.170195
-0.087833
0.057610
0.128312
-0.068713
-0.089451
-0.153816
-0.005667
-0.003516
0.031936
-0.069913
-0.025434
0.033472
-0.055110
0.012473
0.105879
-0.167779
0.209756
0.011280
-0.000070
0.208882
0.031770
-0.027199
-0.256060
0.067588
-0.108197
0.014125
0.091812
0.171702
0.180971
0.111157
0.128278
0.011310
-0.134561
0.012972
-0.055426
0.155292
-0.082557
0.050360
0.104265
-0.027474
0.162437
0.094880
0.078735
0.102549
-0.104941
0.151978
0.020027
-0.205468
0.160453
-0.072509
-0.124298
-0.055470
-0.131702
-0.222283
-0.148230
-0.318465
-0.072093
0.079560
0.187077
0.268652
0.003253
0.171466
0.002677
0.138190
0.036169
0.052930
0.188835
0.012975
-0.051973
-0.011688
-0.131797
-0.150472
-0.075898
-0.126193
-0.052646
-0.014665
0.057848
0.180680
0.183268
0.001172
-0.001118
-0.012601
-0.001498
0.080455
0.019614
-0.087799
-0.130992
-0.115148
-0.253189
-0.098690
-0.154848
-0.018942
0.164899
-0.000810
0.005976
0.046689
-0.122758
-0.063558
-0.145136
-0.033118
-0.038914
0.189801
0.104007
0.051271
0.109455
0.077999
0.007105
-0.105717
0.001052
-0.145887
-0.157032
0.090711
0.174148
0.236554
0.084059
0.025549
0.105989
0.111754
0.086620
-0.021835
-0.019625
0.157931
0.188644
0.111490
0.063626
0.035193
0.073778
0.018487
-0.042767
-0.039180
0.034862
-0.120422
-0.094350
-0.086386
0.003286
-0.047750
-0.011244
0.206759
-0.086437
-0.120064
-0.127050
-0.206494
-0.252335
-0.091466
-0.155434
-0.192139
-0.099521
0.025767
-0.134546
-0.217316
-0.229808
-0.242542
-0.240392
-0.154029
-0.185737
-0.214187
0.038521
-0.277597
-0.172112
-0.404338
-0.249828
-0.202781
-0.144695
-0.290041
-0.104099
0.053758
-0.036072
-0.050003
0.003793
-0.092270
0.095907
-0.113526
-0.068416
-0.058237
-0.191570
-0.075473
-0.084795
-0.193984
-0.129543
-0.202078
-0.128350
-0.180233
-0.191734
0.085395
0.105410
0.099426
0.150131
0.003839
0.015397
0.060832
0.016515
-0.098534
-0.044294
-0.011291
0.044254
0.017647
-0.060245
-0.106980
-0.009746
0.117932
-0.066984
-0.001253
-0.064203
0.062986
0.093225
0.133860
0.136147
0.013256
-0.058624
0.109103
0.160029
0.168901
0.140506
0.187363
-0.055768
-0.135180
0.180550
0.052260
-0.104677
0.021747
-0.294059
-0.107622
0.014518
0.079209
-0.072430
0.111537
0.053702
-0.065259
0.130251
0.159105
-0.062255
0.179836
-0.139436
-0.188447
-0.002877
-0.105315
-0.245919
-0.136313
-0.084174
-0.354643
-0.331081
-0.356534
-0.115741
-0.253154
-0.246791
-0.026563
0.094436
0.049425
-0.094512
-0.190195
-0.257975
-0.314816
-0.084842
-0.182318
-0.135505
-0.100082
-0.009863
-0.109734
-0.204006
-0.014738
-0.169431
-0.058029
0.028220
-0.059582
0.014851
-0.039011
0.114814
-0.022279
0.010734
0.032654
0.017217
0.141376
0.013284
0.167468
0.079743
-0.148010
0.043481
0.005269
-0.171041
0.033953
-0.151781
-0.155820
-0.023471
-0.097641
0.028491
-0.124158
-0.198583
-0.077082
-0.079779
-0.047785
-0.204073
-0.019170
-0.142514
-0.062109
0.133271
0.015964
-0.001276
0.099208
-0.093641
0.020127
-0.173941
-0.343666
-0.097234
-0.254617
-0.005669
0.102405
-0.040990
-0.047578
-0.064126
-0.300309
-0.212056
-0.131821
-0.072966
-0.044030
-0.108195
0.089132
-0.090085
-0.091816
-0.143353
-0.150626
-0.169223
-0.016443
-0.152148
0.077245
0.006678
0.036732
0.090349
-0.060924
-0.160273
-0.165628
-0.101462
0.138673
0.116007
0.102134
0.116751
0.175864
0.091249
-0.092573
0.074446
-0.059128
0.091131
-0.005631
-0.239828
-0.215287
-0.141179
0.140696
0.124533
0.008215
-0.268209
-0.278666
-0.432260
-0.009955
-0.070899
0.041631
0.093953
-0.033016
0.049674
0.078494
-0.070970
-0.083229
-0.232060
-0.092534
-0.178224
-0.086151
-0.019842
0.070001
0.109154
0.109703
0.153094
-0.039600
-0.013262
-0.054074
0.153279
0.071715
0.074676
0.091584
0.053052
-0.207567
-0.147866
-0.125195
-0.046675
0.085482
0.009421
-0.022984
-0.023468
-0.012134
0.033868
-0.160052
-0.146966
-0.021553
-0.065239
0.044890
-0.198389
0.044774
-0.076479
-0.008844
-0.001247
0.002911
0.184758
0.126741
0.031905
-0.059414
-0.087901
0.062674
-0.025334
0.081666
0.119551
0.148194
0.105016
0.019815
-0.083962
0.086315
0.047832
-0.109617
0.051482
0.082870
-0.160659
-0.102827
-0.060537
-0.025950
-0.037440
-0.204360
-0.006522
0.108951
-0.161928
0.049002
0.039302
0.081694
0.010779
-0.153362
0.050176
-0.098376
-0.022119
-0.188315
-0.002927
-0.050127
-0.093110
-0.407162
0.002368
-0.171054
0.179531
0.222623
0.139099
0.405183
0.050491
-0.042019
-0.013865
-0.245665
-0.183602
-0.018424
-0.156513
-0.130200
-0.096512
-0.082403
-0.171158
0.031465
-0.195943
-0.184862
-0.188266
-0.064457
0.085044
0.016228
-0.022747
0.016431
0.010768
-0.021911
-0.030763
-0.189876
-0.070433
-0.207932
-0.129690
0.035126
0.073571
-0.036264
0.149368
0.094667
-0.107553
0.056657
-0.189685
-0.200888
0.045047
-0.211991
-0.133819
0.110174
-0.065034
-0.145747
-0.149423
0.151787
0.216494
-0.004180
0.087991
-0.085228
0.039155
-0.026271
-0.044014
-0.000739
0.127267
-0.026960
-0.032068
0.116588
-0.120823
-0.010331
0.024459
-0.200767
-0.120640
-0.057402
-0.062821
-0.157534
-0.128572
-0.436746
-0.038169
-0.175007
-0.073969
0.136282
-0.262031
-0.276065
-0.089445
-0.063174
-0.126437
0.111289
-0.016122
-0.023326
0.302028
0.121313
0.116031
-0.100177
-0.077330
0.114799
-0.036558
-0.185955
-0.069431
0.022200
-0.018127
0.004060
0.037400
-0.006389
0.016692
-0.386634
-0.170712
0.037579
0.005683
0.182308
0.170881
0.054143
-0.007503
-0.002484
0.004418
0.048918
-0.047052
-0.051413
0.038679
0.023398
0.038782
0.076654
-0.151778
-0.047082
0.139070
0.140831
-0.069720
0.057059
0.088160
0.158628
0.153635
0.072922
0.090025
-0.020301
-0.027895
0.042569
0.028834
-0.137273
0.027726
0.178060
0.087082
-0.085040
-0.095861
-0.172636
-0.141223
-0.109829
-0.072267
0.069758
0.038307
0.181825
-0.366196
-0.063613
-0.094208
-0.111720
0.013556
-0.177782
-0.155736
-0.211547
-0.009759
-0.280909
-0.112305
0.118516
-0.086898
-0.071309
-0.136883
0.042078
-0.198269
-0.156894
0.144938
0.035116
0.028027
0.337643
0.140063
0.227331
-0.162301
-0.020009
-0.124964
-0.085338
-0.183157
-0.159445
-0.016851
0.098392
0.030410
-0.163062
0.040348
0.086460
0.042947
0.092360
0.033067
0.083895
0.105918
0.026856
0.024993
-0.062017
-0.305134
0.023077
0.037442
-0.299017
0.094384
-0.115839
-0.254932
-0.021752
0.030774
0.251617
-0.118656
0.035224
0.143850
0.008102
0.027061
-0.114263
0.178193
-0.080490
-0.030362
0.027716
0.019038
-0.071094
0.025046
-0.179363
-0.012579
0.230834
0.043255
-0.102056
0.288767
0.295557
-0.216397
0.248742
-0.019358
-0.399012
0.064550
0.009174
-0.326558
0.017036
-0.212200
-0.280374
0.052177
-0.369336
-0.177913
-0.325468
-0.327570
0.108765
-0.240937
-0.098998
0.129918
0.071007
0.161946
0.263196
-0.062439
0.130530
0.085759
0.118107
0.008849
0.050787
0.059522
0.033522
-0.023790
-0.159281
-0.027394
0.104112
0.000393
0.110900
0.172386
-0.069778
-0.028958
0.099253
-0.215113
-0.126803
0.099349
-0.135353
0.013195
0.176049
-0.045335
0.030413
0.154718
-0.125234
-0.021350
-0.030701
-0.146343
-0.080774
-0.053519
-0.162052
0.136933
-0.014118
0.251793
0.081721
-0.111113
-0.111851
-0.400535
-0.350251
-0.154114
-0.211187
0.142873
0.231200
0.092693
0.228895
-0.028733
0.033078
0.059082
0.108365
-0.042047
0.051715
0.098361
0.055291
-0.090532
0.131701
-0.087843
-0.203633
-0.067005
-0.060955
-0.081977
0.019647
0.100426
0.038445
0.057179
-0.055460
0.001047
0.048716
-0.089102
-0.014777
0.222899
0.168567
-0.097260
0.287114
0.049056
0.050156
0.103952
-0.020292
-0.032550
-0.163342
-0.056516
0.008364
-0.036343
0.117380
0.143838
0.160400
0.009885
-0.053305
0.059544
0.043183
-0.063230
-0.116525
0.018090
0.062774
-0.135004
-0.076969
0.007088
0.105979
-0.006104
0.104483
0.027897
-0.074657
0.124272
0.136904
-0.142064
-0.011231
-0.075761
-0.015489
0.081987
0.097485
0.095689
0.101350
0.157499
0.002027
-0.000508
0.098094
-0.020337
0.024874
0.003415
-0.149991
0.039113
0.006433
-0.006660
0.235024
0.163786
-0.008097
0.017101
0.059682
-0.192777
-0.163545
-0.191626
-0.148961
-0.001274
-0.055465
-0.231703
0.066539
-0.177337
-0.349120
0.161934
-0.401924
-0.256233
0.129503
0.277056
0.026739
-0.295136
0.056567
-0.173035
-0.478303
0.158540
-0.161918
-0.111123
0.082693
0.037436
0.149927
-0.075653
-0.077045
0.047775
-0.053663
-0.143680
-0.069947
-0.125336
-0.396094
-0.263242
-0.110313
-0.297397
-0.019647
-0.099805
-0.226942
-0.119676
0.041870
-0.095760
-0.036109
0.003225
-0.125191
-0.188492
0.013124
-0.146340
-0.064694
0.195056
0.132925
0.004846
0.216042
0.030208
-0.102498
0.060762
-0.190227
-0.151861
-0.164421
-0.189762
-0.169221
-0.363504
-0.121009
0.082073
-0.275979
-0.283115
-0.174618
-0.190834
0.082115
-0.000713
-0.174998
-0.146114
0.007734
0.189349
0.061330
-0.018541
-0.031905
-0.304791
-0.074111
-0.203228
-0.182321
0.093786
-0.261430
-0.101307
0.188875
-0.087563
-0.055273
0.013525
0.138946
-0.098962
0.054074
-0.073269
-0.173779
0.073988
0.104265
0.133357
-0.171682
-0.320349
0.040021
0.026925
0.023287
-0.004378
-0.034662
-0.055780
0.105672
-0.169067
-0.328342
0.108772
0.256898
0.239423
-0.111442
-0.114750
-0.225076
0.022034
0.015253
0.194122
0.013655
-0.146038
0.021679
0.118832
0.084350
0.055829
0.103516
-0.077133
-0.096653
0.013514
0.103857
-0.006031
-0.012026
0.014383
0.148430
0.021126
0.127918
0.087265
0.015593
0.218394
0.021385
0.016353
0.187105
-0.081564
0.046681
-0.151233
-0.073184
0.321018
-0.020810
-0.105557
-0.200086
0.210263
0.260038
0.087903
-0.145288
-0.227471
0.189880
0.176377
-0.083103
-0.081720
-0.063918
-0.148256
0.116347
0.097170
-0.053571
-0.217523
0.023353
0.159802
0.101105
-0.452027
-0.041829
-0.104403
-0.093697
0.100546
-0.177850
-0.068774
-0.012963
0.181930
-0.127987
-0.053805
0.074293
-0.115436
0.067861
0.161915
-0.054610
-0.114453
-0.141429
-0.041520
0.003990
0.036701
-0.000119
-0.003922
-0.006625
0.147412
0.033062
-0.027706
0.006883
-0.088593
-0.003085
-0.071108
-0.043479
-0.088692
0.216337
0.117198
0.103111
-0.190938
0.000106
0.069750
0.049690
-0.055586
-0.105589
0.030257
-0.102868
0.034840
-0.382160
-0.179003
-0.060649
0.176128
-0.059843
-0.253832
-0.287452
0.188803
0.141921
-0.218047
0.058175
0.124586
-0.089400
-0.185875
0.057980
0.105145
0.041553
-0.166420
-0.083073
0.009413
-0.014822
0.103207
-0.166409
-0.195173
0.004323
-0.129832
-0.075414
-0.076110
0.001520
0.065729
0.133611
0.104480
0.007324
-0.079746
-0.016751
0.054740
-0.113386
0.009082
-0.054010
-0.293752
-0.208195
0.093929
0.069034
-0.170624
0.084003
0.208836
-0.200975
-0.065201
0.049304
-0.038101
-0.090278
-0.097214
-0.076566
-0.091515
-0.172855
-0.027559
0.227339
-0.051062
-0.374006
-0.055626
0.068749
0.118597
0.026974
-0.204285
-0.398535
-0.106030
0.411006
-0.029125
-0.057425
0.051816
-0.177341
0.012874
-0.328043
-0.108941
-0.262552
0.365666
0.162381
-0.423081
-0.149672
0.037866
0.364909
-0.223910
0.069326
-0.118817
-0.043247
0.096167
0.186228
-0.188099
-0.300080
0.155956
0.062649
-0.384199
0.165647
0.215862
-0.024521
-0.293217
-0.074567
0.271700
0.019220
-0.438631
0.077698
-0.124960
-0.156734
0.083889
-0.088418
0.057305
-0.006005
-0.277413
-0.014786
0.077661
0.199956
0.165571
-0.309965
-0.057235
0.222951
0.157222
-0.138456
-0.174357
-0.024017
-0.112478
0.067782
0.145399
0.030601
-0.138903
-0.067355
0.210034
-0.052328
-0.102933
0.037662
0.068883
0.047186
0.045781
-0.167348
-0.237906
-0.076198
-0.036751
-0.129428
-0.454875
-0.043570
-0.414130
-0.353648
-0.077357
-0.198981
-0.129339
-0.266480
0.077575
0.115537
-0.049598
0.197646
0.134830
0.140831
0.327268
-0.020420
0.215932
-0.081232
-0.207144
-0.218359
0.083768
0.046017
0.023234
-0.103108
0.121543
0.154462
-0.158501
-0.035375
-0.101580
0.015401
0.114346
-0.275783
-0.169436
-0.036882
-0.025878
-0.156945
-0.380351
-0.302054
-0.010124
-0.301183
-0.194628
0.153085
0.005996
-0.034726
-0.029431
-0.095391
-0.063680
0.063930
-0.023402
-0.136959
0.122699
0.078179
-0.079470
0.078438
-0.193794
-0.346765
-0.120319
-0.128329
-0.318861
-0.053487
-0.098250
-0.267466
-0.073140
0.084642
0.103773
-0.010453
0.034614
-0.142011
0.071032
0.056717
0.035289
-0.399126
-0.093851
-0.162860
-0.376331
-0.388429
-0.123306
-0.342378
-0.383658
-0.038970
-0.081287
0.018903
0.094977
-0.043512
-0.075158
0.052412
0.010189
-0.118174
-0.088939
-0.077874
0.053513
0.178545
-0.034095
0.037519
0.074328
-0.253349
-0.182094
-0.089676
0.171207
-0.079855
-0.118373
0.153279
-0.000104
-0.067919
0.121769
0.079904
0.108924
-0.029284
-0.009030
0.108673
-0.048880
0.019023
0.153434
-0.056932
-0.158275
-0.126243
0.021367
-0.139027
-0.026132
-0.065792
-0.173954
-0.030802
-0.194699
-0.090388
-0.092484
-0.022142
-0.131517
0.092437
0.119569
-0.070606
-0.050990
-0.132442
-0.122810
-0.227308
0.018715
0.041928
0.100009
-0.036539
-0.397743
-0.377406
0.214528
0.121881
-0.147993
0.094225
-0.012709
0.060452
-0.052281
-0.120214
-0.259038
0.059845
0.129336
0.038788
0.067987
0.048714
0.102838
0.007769
-0.016005
0.012226
0.035614
-0.007559
-0.003896
0.082528
-0.201596
-0.378150
-0.018850
-0.226919
-0.497434
0.088136
-0.117101
-0.275940
-0.090963
-0.034513
-0.169635
0.023097
-0.108731
-0.096073
0.030190
-0.102810
0.006679
-0.030245
-0.035811
-0.038492
0.102575
0.120514
0.167442
-0.153760
0.099828
0.018822
0.108207
0.133232
0.236524
0.030380
0.086457
0.177865
0.080117
0.114938
0.093797
-0.065207
-0.145559
-0.089782
-0.152065
-0.055296
-0.122704
-0.035080
0.100812
0.011882
0.073077
-0.299086
-0.135909
0.157254
-0.156244
-0.220887
0.034201
0.063620
-0.064468
0.026494
-0.300123
-0.177720
0.095517
-0.139203
-0.271746
0.002046
-0.026904
0.030725
-0.126389
-0.012216
0.155291
-0.053814
0.244779
0.365773
-0.277664
-0.067981
0.027520
0.068887
0.015417
0.181474
-0.248445
-0.191114
0.005555
-0.170245
-0.120609
-0.047848
0.117744
-0.050301
-0.188244
-0.014953
0.030249
-0.256677
0.015936
0.108067
0.149724
-0.003134
0.051102
-0.129574
-0.105931
0.032516
-0.053504
0.000038
0.018770
-0.061891
-0.149258
-0.143636
0.033460
-0.171607
-0.099832
-0.007199
-0.120389
-0.017942
0.010333
0.059522
0.144421
0.220923
-0.021969
0.158681
0.106108
-0.229118
-0.043866
0.046964
-0.213902
-0.098140
-0.002177
0.030892
-0.034098
0.022514
-0.077472
-0.064111
-0.004997
-0.349544
-0.282605
0.194314
-0.296688
-0.317863
-0.107562
-0.276806
-0.391286
-0.174057
0.139986
-0.074309
0.005426
0.179917
0.149007
-0.006409
0.100837
0.072760
0.044090
-0.238128
0.024788
0.206150
-0.154447
0.050560
0.197654
0.009719
0.023644
0.042331
-0.032863
-0.131866
0.142870
-0.217865
0.102724
0.174328
-0.220971
-0.142772
0.055285
0.360723
0.390204
0.054458
0.221559
0.062299
-0.258988
-0.238368
-0.317152
-0.435548
-0.036029
-0.036528
0.055778
-0.219593
-0.197640
0.002800
-0.165682
-0.082568
-0.088451
-0.058201
-0.051491
-0.014368
0.192065
0.225277
0.188392
0.220768
0.297370
0.121673
0.017907
-0.216671
-0.121378
-0.065257
-0.151453
-0.032911
-0.039343
-0.145620
-0.151761
0.012643
-0.064027
-0.150163
-0.334067
0.019066
-0.343937
-0.095856
-0.200507
-0.080071
0.031423
-0.200191
-0.133553
-0.015719
-0.117399
-0.036331
0.139520
-0.009953
0.029334
-0.249927
-0.289345
-0.315813
-0.040838
-0.005246
-0.068350
0.241297
0.332392
0.196367
0.113521
0.260593
0.196396
-0.124975
-0.009739
0.193160
-0.228329
-0.247102
-0.076725
-0.137485
-0.080660
-0.062963
-0.107584
0.065599
0.075605
-0.040918
-0.030955
0.019070
-0.140349
-0.229707
0.062306
-0.149636
-0.361138
-0.009063
0.014256
-0.198558
-0.113422
-0.067624
-0.079590
0.010756
-0.005298
-0.119272
-0.192373
-0.161419
-0.081250
-0.111223
-0.052621
-0.119419
-0.058820
-0.002730
-0.096469
-0.280213
0.222001
0.090025
0.117732
0.444121
0.203866
0.337864
0.151387
-0.176440
-0.034694
-0.043919
-0.241228
-0.396451
-0.145900
-0.053725
0.109407
-0.092901
0.035153
0.034623
-0.137070
0.024301
0.139061
-0.054480
0.071008
0.025878
0.100412
0.107179
0.032193
-0.022030
0.003219
-0.019894
0.007352
-0.104361
0.027430
-0.206907
-0.238452
-0.141578
-0.341473
-0.366807
-0.319726
-0.065046
-0.118373
-0.046185
-0.086453
-0.185089
0.030831
0.022060
0.069838
0.250860
0.058425
-0.070106
0.118494
0.065281
0.033410
0.065755
0.165894
-0.047686
0.026731
0.064019
0.022091
0.172793
0.049516
0.074447
-0.014230
-0.148359
-0.160353
-0.010197
-0.309287
-0.319785
-0.085966
-0.160615
0.012757
0.070039
0.152496
0.334566
0.286668
-0.077864
0.035995
0.143058
-0.038452
0.045933
0.245523
-0.134012
-0.151180
0.075940
0.028094
-0.006206
-0.001828
-0.184946
-0.196010
-0.107920
-0.002741
-0.114462
-0.160726
0.167672
0.104758
0.029922
0.078345
0.037422
0.038719
-0.033943
-0.100228
-0.024329
0.123222
-0.073094
-0.189017
0.051661
-0.187759
-0.416077
0.028884
-0.066775
0.015954
0.030536
-0.045206
-0.048502
-0.011556
-0.104112
-0.000075
-0.009625
-0.053442
0.055087
-0.024428
0.012187
-0.077459
0.138261
0.012178
0.031253
-0.003165
-0.018492
0.022954
-0.264682
-0.313520
-0.226531
-0.142308
-0.454658
-0.368372
-0.013451
-0.128007
-0.166596
-0.183191
-0.319906
-0.097473
-0.138137
-0.186934
-0.125962
0.070687
0.065255
-0.018336
-0.145199
-0.209440
-0.205077
-0.015261
0.096316
0.059163
-0.189510
-0.054928
-0.107801
-0.055726
-0.019987
-0.148321
-0.001812
-0.082341
0.004409
0.135107
0.048133
0.084408
0.233233
0.082580
0.112833
0.165988
-0.025401
0.092427
-0.026316
-0.101637
-0.140165
-0.041689
-0.140261
-0.117710
-0.232255
-0.218125
-0.280682
-0.221526
-0.197620
0.035112
-0.135972
0.094682
0.273035
-0.168126
0.073082
0.161938
-0.191357
0.111334
0.065610
-0.058956
0.010312
-0.349188
0.139708
0.155060
-0.489724
-0.004262
0.002806
-0.454284
-0.009798
0.221018
0.046926
-0.110171
-0.075131
0.014404
-0.398676
-0.140188
-0.097688
0.017741
-0.011913
-0.097132
0.009957
0.009400
-0.183036
-0.071272
-0.053275
-0.024820
0.024942
-0.181369
-0.375092
-0.106136
-0.307860
-0.232463
0.000160
-0.250526
-0.145699
0.016210
0.096378
-0.278094
0.003910
0.105194
-0.278037
-0.100826
-0.087930
-0.349229
0.092680
-0.561257
0.208836
0.045145
-0.030766
0.306602
-0.170997
-0.200868
0.102602
-0.020274
-0.024732
0.041869
0.073304
0.060944
-0.002272
-0.059025
-0.051876
-0.008109
-0.034382
-0.065872
0.139906
-0.076948
-0.146464
0.173160
-0.233188
-0.169648
-0.018998
0.039124
0.194434
0.138352
-0.077657
0.132193
0.073138
-0.126398
-0.020785
0.105119
-0.050145
-0.013071
-0.070958
-0.153330
-0.043820
0.056651
-0.155023
-0.036747
-0.043801
0.140772
0.149426
-0.051685
-0.150547
-0.189641
-0.441120
-0.220120
-0.132436
0.194616
-0.088745
0.134993
0.115467
-0.071760
-0.000605
0.162434
0.198325
-0.126218
-0.002262
-0.030087
-0.038571
0.002039
-0.087041
-0.156668
-0.106921
0.091703
-0.077192
0.117497
-0.243608
-0.096177
-0.004111
-0.260837
-0.151408
-0.091391
-0.226703
-0.139021
-0.033236
-0.140909
-0.140672
-0.084066
0.019598
0.015231
-0.001125
0.129165
-0.067823
0.238068
-0.033008
0.152231
0.201174
0.081729
0.122025
0.025420
-0.129742
-0.020440
-0.087177
0.038805
-0.124579
-0.217468
0.030009
-0.054327
-0.388026
-0.122061
-0.198185
-0.384477
-0.070676
0.092959
-0.107141
-0.009282
-0.077383
-0.041610
-0.013760
-0.009128
0.054299
0.057001
0.160170
0.123320
-0.050721
0.120540
-0.013548
-0.362731
-0.176503
-0.115377
-0.049681
-0.029398
0.052350
-0.182706
-0.336763
-0.482460
-0.100893
-0.237477
-0.274708
-0.071608
-0.040583
0.115233
0.122196
-0.173657
0.177568
-0.021536
-0.277554
0.047780
-0.095759
-0.463126
0.310163
-0.155165
-0.361738
0.215273
-0.168185
-0.120427
0.188849
0.030654
0.247952
-0.120627
-0.436405
0.006619
-0.075418
0.046962
0.009982
0.234612
-0.024632
0.044699
-0.027125
0.124197
0.142582
0.107687
-0.072142
-0.003224
-0.007143
0.038648
-0.100312
0.445062
-0.110376
-0.180883
0.469163
-0.479235
-0.301553
0.239192
0.168314
0.011781
-0.024060
0.142889
0.094810
-0.053182
0.013174
0.053396
-0.112649
-0.045733
0.132746
-0.093990
-0.014691
-0.057994
-0.086989
-0.071617
-0.188893
-0.011688
-0.291698
-0.132985
0.108632
-0.070041
0.029596
0.115893
-0.166776
-0.021292
-0.314850
-0.188728
-0.251134
-0.057866
0.210721
0.128072
0.208268
0.165591
0.100686
0.304248
0.092328
-0.171504
-0.033306
0.097676
-0.142775
-0.027865
-0.108491
-0.173436
0.118945
-0.019641
-0.343346
-0.051528
0.086471
-0.099188
-0.008217
-0.025127
-0.259480
-0.022486
-0.001130
-0.306534
-0.128818
0.161135
0.022282
-0.088993
0.140755
0.151734
0.216318
-0.112110
-0.169980
-0.033569
0.154059
0.021656
-0.321120
0.184367
0.257424
0.053900
0.170923
-0.214952
-0.127644
0.062138
0.054616
0.024862
-0.072488
-0.007425
0.044927
0.105109
0.032914
0.168240
0.054718
-0.095216
-0.133961
0.070545
0.050196
-0.055134
-0.045696
-0.132825
-0.104721
0.050597
-0.022771
0.019013
0.171137
0.293469
0.009968
-0.187051
-0.013837
0.142167
0.011308
-0.230681
-0.269639
0.257674
0.052310
-0.051086
-0.345258
-0.134246
0.109159
-0.024350
-0.473453
-0.334113
0.292870
0.196362
0.039985
0.110403
-0.097552
-0.344620
0.094505
0.140097
-0.052361
-0.167594
0.025580
0.172271
-0.044656
0.058843
0.018236
-0.194090
-0.113924
0.032522
-0.105981
-0.287507
-0.037868
-0.004119
-0.103691
0.106616
0.109633
-0.119065
-0.080327
0.198584
0.087857
-0.160306
0.060374
0.217941
-0.055607
0.106268
0.019088
-0.063685
0.271314
0.127112
0.283026
0.074321
0.060217
0.144120
0.070400
-0.033764
-0.236096
-0.125586
0.188809
0.098822
0.140124
-0.005314
-0.096647
0.038360
0.149934
0.078870
-0.249485
0.052170
0.029202
0.173335
-0.014779
-0.311645
0.069788
0.098184
0.004750
-0.212813
0.035080
0.144237
-0.001797
-0.091988
0.046657
0.132575
0.034496
-0.083268
0.036366
0.079577
0.143765
-0.093821
0.091850
-0.158131
0.113261
0.098895
0.028919
0.015459
0.159094
0.118597
0.157113
0.013183
-0.079424
0.019935
0.034753
-0.078729
0.097362
-0.083567
0.054102
0.100355
-0.027434
0.287271
-0.043851
-0.142783
-0.004601
0.020450
-0.208638
-0.140739
0.038590
0.035588
-0.124281
0.078910
0.129575
0.022594
-0.025434
-0.010486
0.100706
0.120216
-0.184870
-0.288786
0.257223
-0.001613
-0.044079
0.219427
0.066254
0.041892
0.323960
-0.098773
-0.159400
0.000865
0.023711
-0.044235
-0.099756
0.071212
0.124658
0.040985
0.263240
0.090132
-0.464250
0.046777
0.299360
-0.222390
-0.525791
-0.105999
-0.032142
0.147162
-0.003306
-0.269872
-0.183654
-0.002824
0.098078
-0.065833
-0.124930
0.056116
0.051389
-0.380037
0.098542
0.223832
0.042390
-0.191631
-0.040432
0.193135
-0.180906
-0.137485
0.000505
-0.052123
-0.115427
-0.087964
-0.012445
-0.057827
-0.054326
-0.122655
-0.229879
0.007693
0.092205
-0.132020
-0.334515
0.079987
0.188666
-0.126060
0.099595
0.075355
0.092170
-0.078271
-0.066106
-0.061757
0.050877
0.007190
-0.188876
0.120428
-0.036461
0.100449
0.186656
-0.026807
-0.093350
0.238109
0.108701
0.008203
-0.087904
-0.032160
-0.066689
-0.294947
-0.058585
-0.048071
-0.031068
-0.013861
0.242405
0.144855
0.170971
0.226732
0.052867
-0.042018
0.070475
-0.048403
-0.060082
0.157392
-0.194093
0.009946
0.225565
-0.293028
-0.285846
-0.114684
-0.038856
-0.324333
-0.485203
-0.179449
-0.042368
0.139718
0.049618
-0.199497
0.040714
0.116942
0.053759
-0.082421
-0.119870
-0.068083
0.036542
-0.012862
-0.126630
-0.019631
-0.040501
-0.019027
-0.053959
-0.018858
-0.060521
-0.083418
-0.006456
-0.103682
0.070656
0.000829
-0.012320
0.027958
-0.053063
-0.140651
-0.070976
-0.085059
-0.158289
-0.110518
-0.025041
-0.048693
0.015555
-0.120050
-0.175817
-0.047542
-0.096028
0.016078
-0.044950
-0.003045
-0.062004
-0.102064
0.006882
0.041496
-0.055417
-0.040796
0.099102
-0.023320
-0.092185
-0.088821
0.021965
-0.067945
-0.044453
-0.021182
-0.009369
0.017290
0.061259
0.016776
0.069830
-0.083465
-0.149299
0.019201
0.038660
0.000080
-0.002530
0.053819
-0.088731
0.011739
-0.050025
-0.147242
-0.076136
-0.095115
-0.101442
-0.141846
-0.130154
0.022893
0.007087
-0.146707
-0.105014
-0.070210
0.052703
-0.081775
-0.139474
-0.044622
-0.084165
-0.155082
-0.096499
-0.059087
-0.129071
-0.036904
0.015362
-0.099161
-0.167722
-0.087119
-0.003496
-0.050869
-0.091734
0.010244
-0.062624
-0.026929
-0.042099
-0.043851
-0.115467
-0.012770
-0.052116
-0.215708
-0.019893
0.053543
0.136523
0.071790
-0.044413
0.031894
0.053849
-0.136913
-0.106243
-0.193603
-0.038505
-0.032845
-0.022796
-0.089361
-0.155485
-0.013803
-0.041123
0.004082
-0.142906
-0.126522
0.019754
-0.079493
-0.119236
0.055712
-0.069820
-0.031814
-0.152378
-0.089849
0.046779
0.017209
-0.059150
-0.125637
-0.000119
-0.097756
-0.028227
0.020170
-0.099735
-0.033169
-0.075087
-0.023559
-0.054508
-0.176595
-0.046040
-0.042674
-0.048014
-0.060442
-0.083387
-0.051867
-0.107102
-0.080020
-0.124670
-0.147243
-0.082465
0.050836
-0.112219
-0.010806
0.061290
-0.028416
-0.082318
0.042819
-0.037532
-0.063086
-0.076307
-0.028096
-0.073650
0.011215
-0.015197
-0.089899
-0.068182
-0.059224
0.002979
-0.182498
0.020009
-0.037984
-0.085015
-0.012645
0.026195
-0.115379
0.019946
-0.086972
-0.006271
-0.195187
-0.046571
-0.044821
0.013797
-0.071972
-0.062678
-0.057482
-0.059689
-0.032985
-0.056531
-0.009028
-0.151891
-0.052688
-0.129858
-0.106941
-0.062299
0.010961
-0.024710
-0.056863
-0.003565
0.004613
0.027890
-0.092189
-0.094298
0.019933
0.058329
-0.038218
0.053596
0.041069
-0.095095
0.025384
0.052986
-0.064911
0.077895
-0.127155
-0.002652
-0.124250
0.064414
-0.086366
-0.118180
0.010925
-0.032212
-0.091263
0.019437
-0.102512
0.003889
-0.009511
-0.031051
-0.076700
-0.062449
-0.019864
-0.163038
-0.112902
-0.102619
-0.071597
-0.045196
0.044949
-0.117194
0.045531
-0.103473
-0.111779
-0.132893
-0.158736
-0.162772
-0.016336
-0.043108
-0.040403
0.047841
-0.206795
-0.056195
0.036078
0.010338
-0.031901
-0.113691
0.067720
-0.137196
-0.156640
0.098848
-0.061913
0.072010
0.057987
0.062324
-0.021948
-0.098722
-0.080915
-0.124719
0.067034
0.040037
-0.066951
-0.083602
0.006206
-0.097139
-0.157895
-0.035554
-0.099414
-0.017729
-0.117682
-0.047657
-0.084265
-0.164142
-0.016598
-0.136550
-0.106608
-0.132793
-0.097166
-0.008305
-0.082096
-0.156520
0.121814
0.210597
0.059955
0.043324
0.123654
0.003452
-0.037686
-0.102178
0.011521
-0.001565
0.136981
0.103922
0.038175
0.162054
0.001958
0.005271
0.120249
-0.733693
-0.479140
-0.223899
-0.570293
-0.348183
-0.450318
-0.114642
-0.204421
-0.243519
-0.059658
0.019353
0.082617
-0.060780
0.084540
0.095585
0.000803
-0.101288
0.035350
0.026382
0.152136
0.002842
-0.095753
0.105694
0.157945
0.032546
0.035098
0.126945
0.058449
-0.049829
0.112337
0.027211
-0.056242
0.083690
-0.081727
0.072874
0.108382
-0.240256
-0.278788
-0.115310
-0.130392
-0.051766
-0.100938
0.143208
0.191186
0.091358
0.067386
-0.148388
-0.138766
0.024415
0.017053
-0.074401
0.081726
0.061423
0.046433
-0.081302
-0.028654
-0.237330
0.032648
-0.067464
-0.238235
0.025605
-0.099395
-0.081419
-0.180455
0.244415
0.077291
-0.146420
0.078342
-0.134467
-0.147911
-0.219720
-0.214425
-0.089396
-0.067165
-0.100860
0.052374
0.017832
0.134164
0.008866
0.100342
0.011315
-0.022360
0.015996
0.254659
0.067555
0.039609
0.035742
-0.040064
-0.168711
-0.054837
-0.147850
-0.355682
-0.089763
-0.335397
-0.111745
-0.034095
0.253756
0.109440
0.284753
0.048134
0.133109
-0.048900
0.004597
0.095825
-0.069808
-0.042096
-0.099196
-0.056578
0.038736
-0.031537
-0.013535
0.117389
0.045338
0.150418
0.161932
0.206235
0.123331
-0.080301
-0.030554
0.044735
0.163749
0.006907
0.050201
-0.029043
-0.113491
-0.132364
-0.053119
-0.079783
-0.078788
-0.250872
-0.146037
-0.251207
-0.253003
-0.221293
-0.192898
-0.136884
0.233103
0.247412
0.027738
0.089183
0.199511
-0.151507
-0.044943
0.103782
-0.084392
0.033727
-0.020714
-0.004419
0.135505
-0.088304
0.218992
0.058257
-0.029856
-0.218751
-0.118826
-0.036104
0.058893
-0.046255
-0.021810
0.069850
-0.030711
-0.139454
-0.106379
0.063627
-0.061525
-0.030128
-0.145970
-0.065917
0.080690
0.037335
0.003848
0.151256
0.131920
-0.081878
-0.062974
0.004065
-0.131131
-0.109222
-0.142239
0.030403
0.054529
-0.095067
-0.168894
-0.035296
-0.079356
0.052741
0.047120
-0.000091
0.133733
0.239948
0.092929
0.056778
0.104741
-0.091330
-0.019455
0.027761
-0.156814
-0.092509
-0.231716
-0.080859
-0.039446
-0.082479
-0.130031
-0.046429
-0.086734
-0.019779
0.014737
-0.096978
0.083506
-0.000608
0.111706
0.120167
0.036481
-0.049974
0.100183
0.142300
0.066137
0.058325
0.054642
-0.096989
0.035513
-0.006303
-0.019394
-0.021776
0.030892
-0.077740
-0.010356
0.002309
0.072690
0.027854
0.009557
-0.044229
-0.152167
-0.234165
0.017627
0.030026
0.038516
0.007139
-0.025687
-0.167207
-0.325944
-0.430800
-0.254155
0.185744
0.096000
0.073422
0.072191
-0.030725
0.114921
0.071518
0.093834
0.128418
-0.069624
-0.069253
-0.238021
-0.129100
-0.183836
-0.212694
-0.015349
-0.078896
-0.148916
-0.026913
-0.087246
-0.164960
0.146201
-0.118966
-0.176461
-0.027445
-0.008499
0.022093
0.042734
-0.161641
-0.115376
-0.279048
-0.161988
0.023556
-0.116886
0.108468
0.059378
0.007337
-0.012805
0.042028
-0.162650
0.021512
0.058941
-0.004178
0.104691
-0.044593
-0.112271
-0.239099
-0.074101
-0.055524
-0.054586
0.075624
-0.097758
0.048109
0.135722
0.010174
-0.029950
0.009414
-0.096329
-0.118976
-0.090252
-0.073830
-0.090339
0.071424
-0.076309
-0.227023
-0.158157
-0.203423
-0.041968
-0.181989
-0.073891
0.002004
-0.100852
-0.189193
0.127819
0.126671
0.082399
0.062389
-0.151297
0.179733
-0.074554
-0.035240
0.030597
0.023291
-0.134168
0.010699
-0.072867
0.119680
0.000494
0.078701
0.040391
-0.027066
-0.047471
0.001346
-0.098373
0.049113
0.051651
-0.081999
0.011129
0.001482
-0.027917
-0.350467
-0.167073
-0.306601
-0.389633
0.067384
-0.176098
0.149872
0.034080
-0.181155
-0.276264
-0.188586
-0.193448
-0.148749
-0.213545
0.017252
-0.206446
-0.088190
0.119352
0.039293
-0.119487
-0.005509
-0.131317
-0.135272
-0.121552
-0.084317
-0.063011
0.000138
-0.061329
-0.082718
-0.210971
-0.163167
0.102471
-0.037196
-0.115355
0.180755
-0.098619
0.018604
-0.218884
-0.310176
-0.331031
-0.061151
-0.260560
-0.192884
-0.384185
-0.100335
-0.044708
-0.040973
0.088689
-0.071970
-0.008281
0.153817
0.128485
-0.087237
0.097845
0.111739
0.087758
0.118037
0.088314
0.067844
0.076798
0.056723
-0.013505
0.054412
0.061694
-0.067316
-0.041269
-0.122248
0.043053
0.067667
-0.060615
0.091622
-0.076875
-0.008275
-0.119495
-0.137102
-0.052388
-0.198356
-0.177194
-0.051190
-0.053855
-0.065258
-0.285018
-0.033167
0.016616
-0.185225
-0.031665
0.000412
-0.244485
0.294378
-0.082215
0.017979
0.053775
-0.084527
0.065989
0.092483
-0.035891
-0.058737
0.075711
-0.130333
-0.295972
0.003123
-0.300862
-0.032304
0.045535
-0.031168
0.224214
0.046255
-0.028418
-0.054829
0.168989
0.026658
-0.010174
0.009101
-0.065877
-0.014709
-0.015859
-0.254680
-0.056101
0.015141
-0.173547
0.030288
-0.045225
0.036406
0.114532
-0.006277
0.142984
0.147983
0.010237
0.084354
0.016402
-0.117480
0.095452
-0.022414
0.029758
-0.121511
-0.012468
0.010231
-0.004334
0.050179
-0.053219
0.118254
-0.013109
-0.120418
0.022391
-0.083725
0.060325
0.111523
-0.003228
0.069606
0.134523
-0.077487
0.131908
0.044044
-0.079606
-0.153187
-0.191097
-0.323934
-0.139672
-0.369127
-0.031693
-0.035167
-0.241138
-0.128796
0.043480
-0.157567
-0.000303
-0.039514
-0.079870
-0.111308
0.058421
-0.099004
-0.069730
0.004768
-0.175499
-0.069856
-0.091982
-0.066690
-0.062301
0.089450
0.062744
-0.079652
0.197226
-0.077156
-0.036277
-0.152252
-0.071187
-0.220323
-0.217909
-0.070038
0.015764
0.120529
-0.003873
-0.040844
-0.168441
0.060402
-0.123125
-0.117396
0.100224
0.007132
-0.107756
0.013438
-0.119353
0.073144
-0.045494
-0.083259
0.167726
0.037079
0.002781
-0.003406
-0.079437
-0.141252
-0.176560
-0.177432
-0.033654
0.032099
0.050390
-0.045856
-0.193884
0.111059
0.042381
-0.111484
0.087171
0.068869
-0.136289
0.165106
-0.321403
0.157500
0.292062
-0.414598
0.121841
0.303058
-0.376685
0.044597
0.135753
0.161794
-0.112624
0.080571
0.047647
-0.205996
-0.112626
0.133182
-0.178828
0.003775
0.015922
0.025329
-0.007966
0.005980
-0.041660
0.057575
-0.022812
-0.062705
0.209062
0.030780
0.009561
0.263726
-0.032103
-0.036098
0.049988
-0.181423
-0.269700
0.087539
-0.263728
0.112758
0.309915
-0.555134
0.287087
0.204897
-0.351945
0.079066
-0.305661
0.291148
-0.020873
-0.253890
0.207596
-0.071933
-0.173701
0.150583
0.040684
0.068806
0.040279
-0.014807
0.006503
0.099613
-0.165177
-0.031520
0.002693
-0.099537
-0.060435
0.138798
-0.234468
-0.146464
0.142054
-0.162065
-0.084993
0.255224
-0.093054
0.077168
-0.025932
-0.040103
0.021796
0.105259
-0.208839
0.060505
0.143544
-0.231270
-0.056113
-0.124059
-0.218374
-0.060264
-0.183082
-0.073955
-0.205736
-0.392382
-0.092220
0.163204
-0.128564
-0.000514
-0.004550
-0.037764
-0.078221
0.084788
-0.022201
-0.056516
-0.061905
-0.007585
-0.078775
-0.342356
0.023891
-0.196564
-0.088309
-0.102863
-0.369567
0.109803
0.101582
-0.073827
-0.189960
0.029536
-0.056762
-0.056866
-0.011517
0.098603
0.131140
-0.042855
0.038668
0.056892
-0.080295
0.011149
0.019559
-0.108513
-0.017861
0.085671
0.009867
0.058399
0.059774
-0.085382
-0.016537
-0.120703
0.011048
-0.146427
0.081006
-0.013564
-0.106913
-0.056956
0.234006
-0.194525
-0.063299
0.160673
-0.027798
-0.012507
-0.139653
0.168169
-0.113300
-0.182900
0.262219
-0.045536
-0.115084
0.097070
0.036411
0.289342
-0.140118
0.111534
0.207108
-0.076930
0.169617
0.028139
-0.197032
-0.034107
0.021701
-0.155046
0.126791
0.011185
-0.181279
0.194024
0.025201
-0.158744
-0.051626
0.084167
-0.080488
-0.125120
0.055406
-0.026201
-0.030075
0.022588
-0.110389
-0.037509
0.013633
-0.075347
-0.254501
0.138123
-0.052724
-0.175543
0.156209
0.031346
-0.316948
0.238552
-0.086258
-0.327512
0.172717
0.105147
-0.168173
-0.022049
0.173147
0.224787
-0.236596
-0.075148
0.051283
-0.138171
0.030805
0.135498
-0.000381
0.018063
-0.048085
0.090350
0.027082
-0.036345
-0.026916
0.004856
0.034458
-0.063258
0.110837
-0.048225
0.095178
-0.229960
-0.122163
0.076333
-0.089140
-0.121190
0.199790
-0.197997
0.009899
-0.059345
0.001232
0.109060
0.024310
-0.028715
0.038583
-0.051745
-0.007214
0.201244
-0.042808
0.066578
-0.023340
-0.077380
-0.074689
0.055427
-0.039383
-0.015337
0.107705
0.023952
0.117709
-0.175598
-0.210989
-0.045995
-0.086893
-0.159423
-0.229644
0.188962
-0.018500
-0.083512
-0.043981
0.016521
-0.058415
0.076583
-0.022808
-0.026578
-0.172635
0.024896
0.059756
-0.209455
0.027922
0.041489
-0.182883
-0.047593
0.137715
-0.038442
-0.009267
-0.025353
0.058208
0.011049
-0.024420
0.118861
-0.062482
0.128732
0.163687
-0.143644
-0.076703
-0.120324
0.093549
0.080780
0.012353
0.147196
-0.281586
0.047559
-0.119682
-0.139900
0.004625
0.193766
0.016429
-0.056378
-0.127151
0.021342
0.011557
-0.018005
-0.032346
-0.239041
-0.363802
-0.187171
0.090145
0.057845
-0.026939
-0.009886
-0.034924
0.143849
-0.068174
0.078001
0.005651
-0.081506
0.054594
-0.171023
-0.058416
-0.058959
-0.214258
-0.116750
-0.152114
-0.124347
-0.161342
0.000324
0.025672
-0.215160
0.028147
0.157511
0.236950
0.085104
-0.294780
-0.113010
-0.173034
0.196772
0.024671
-0.465198
-0.159437
-0.018140
0.094983
0.304383
0.097978
0.215711
-0.144768
0.029625
-0.114304
0.009622
-0.092868
0.165374
0.097922
0.108540
-0.173971
-0.143686
0.154542
-0.171707
-0.104142
-0.285349
-0.025793
0.143126
0.181753
0.166423
-0.029552
0.045775
0.058309
-0.069153
0.135136
-0.192827
-0.116115
-0.046422
0.090994
0.043034
-0.000670
-0.277354
-0.106145
0.160792
0.090462
-0.038545
0.001375
-0.070255
-0.003756
-0.149404
-0.109950
-0.333297
-0.303530
-0.208720
-0.043548
-0.113844
-0.113795
-0.173074
0.070533
-0.017037
-0.121283
-0.128642
-0.080785
-0.217086
0.011040
0.220905
-0.226131
-0.101985
0.079268
0.062014
-0.158234
0.010280
-0.118969
0.137433
-0.030407
-0.115118
-0.075697
0.033954
0.101069
0.004907
0.023281
-0.074651
-0.024315
0.089526
0.096255
-0.011238
-0.070998
-0.145547
-0.035837
-0.183230
-0.212764
-0.071825
-0.050249
0.033246
0.102710
-0.056756
-0.014531
-0.117311
0.034210
0.003943
0.010766
-0.082487
-0.176178
-0.048636
-0.165833
-0.296350
-0.082684
0.040741
-0.128606
-0.115852
0.108148
0.041932
-0.009035
-0.008361
0.080131
0.003344
-0.066204
-0.058710
-0.024073
-0.200847
-0.191870
-0.201902
-0.086921
-0.002701
-0.138638
0.266629
0.020420
0.107263
0.065278
-0.028554
-0.122051
0.244496
0.024275
-0.108102
-0.108714
0.020254
0.035302
0.045195
-0.169665
-0.068024
0.068122
0.098468
-0.193206
-0.080085
0.136058
0.164093
0.038354
-0.039828
-0.027134
-0.093796
0.225730
0.112707
-0.193048
-0.055992
-0.124538
0.082541
-0.091147
0.005204
0.057522
-0.063107
-0.211109
-0.083074
-0.117488
0.260885
-0.137590
0.133418
0.001655
-0.077118
-0.159904
-0.082655
0.034534
0.015761
-0.147624
0.045969
-0.086963
0.149099
-0.059538
-0.082300
-0.124779
0.132664
0.218842
-0.031077
0.122165
0.037595
-0.017822
0.087057
0.079728
-0.087844
0.001074
-0.003516
0.028177
0.038272
0.017793
-0.158689
0.093103
0.041604
0.003631
-0.148332
-0.158429
-0.026185
-0.083531
0.158879
-0.042920
-0.058995
-0.010275
0.222595
0.171686
-0.128521
-0.058535
-0.281644
-0.248604
-0.225135
-0.125881
-0.127493
0.066914
-0.054116
0.082272
0.020688
0.034004
0.037814
0.165650
-0.060377
-0.060139
-0.136662
-0.326283
-0.084108
0.005505
0.066427
-0.025422
-0.187049
0.036733
0.158601
0.146641
-0.134674
-0.117488
0.079040
-0.006781
-0.043872
-0.219553
0.016473
-0.051277
-0.024212
0.137763
0.152626
-0.157552
0.048400
0.131129
0.078765
0.019701
0.033199
0.096313
-0.000009
-0.028332
0.070126
0.091566
-0.078311
0.033090
0.036683
0.137093
-0.109039
-0.132419
0.086754
-0.187179
-0.141489
0.040096
0.144629
0.117999
0.018906
0.024434
0.086648
-0.144968
0.048423
0.032171
-0.116914
-0.036095
0.028845
-0.005825
0.103393
0.133731
0.055666
0.106443
0.100573
0.009073
0.134494
0.112998
-0.056821
0.063104
-0.054159
-0.001562
-0.074832
0.040308
-0.105138
0.148836
0.170451
0.132832
0.026282
-0.045068
0.075940
-0.084043
-0.147020
-0.051916
0.043038
-0.077985
-0.004539
-0.013878
-0.102997
-0.100325
0.015239
-0.034643
0.077768
0.088713
-0.071736
-0.012403
0.091801
-0.052125
-0.058342
0.019572
0.028747
-0.102949
0.078926
0.144974
-0.121513
0.089352
0.274242
0.166850
0.076458
0.212083
-0.055949
-0.043236
0.113305
0.118072
-0.147882
0.142169
-0.039427
0.051332
0.070615
-0.089075
0.063774
0.015956
0.103090
-0.007553
-0.074823
-0.161465
-0.055120
0.047664
0.029576
-0.014471
-0.118903
-0.038629
-0.004638
-0.091894
-0.143235
0.153447
-0.195597
-0.040465
0.106348
0.045458
0.010157
0.105796
-0.125656
-0.085685
0.061519
-0.209636
-0.121202
0.033961
-0.091265
0.002042
-0.186726
-0.205361
-0.043702
-0.074970
-0.053571
0.111389
-0.101015
-0.129438
0.018024
-0.034485
-0.094929
0.000778
0.013756
0.032672
-0.126142
0.172320
0.043136
0.063533
0.195236
0.122825
0.057749
0.154459
0.195515
-0.074724
0.048826
-0.137757
-0.245627
0.127971
-0.111929
-0.045010
0.003084
-0.165718
0.077343
-0.088177
-0.064153
-0.023560
-0.170930
0.003239
-0.127018
-0.147651
-0.072853
-0.104275
0.132316
0.164093
0.075602
-0.073361
-0.044613
-0.003450
-0.031938
-0.096360
-0.126359
-0.219167
-0.193151
-0.237510
-0.119488
-0.133262
-0.481096
0.025571
-0.206356
-0.225332
0.008551
-0.088045
-0.095187
0.088027
0.062709
-0.055007
0.050028
0.057913
-0.115292
-0.080340
0.025012
0.076628
-0.113223
-0.077387
0.014687
-0.089603
0.017386
0.066995
-0.025543
0.054348
0.162548
-0.033878
-0.096275
-0.014628
-0.022099
-0.080773
-0.109986
0.085720
-0.046087
-0.108205
0.007839
0.060150
-0.025480
-0.037078
0.006499
0.006541
-0.087055
-0.014697
-0.034568
-0.174906
-0.007366
0.032259
-0.168693
-0.030604
0.080246
0.096868
0.059585
0.065511
0.079767
0.122272
0.008078
0.198546
-0.016403
-0.088673
0.004531
0.001285
-0.015999
0.025592
-0.022112
0.021870
-0.054693
-0.010887
-0.049782
0.309460
-0.033509
0.031859
-0.127413
-0.346806
-0.318815
-0.180464
-0.105080
-0.157692
-0.131236
-0.155558
-0.244420
-0.138284
-0.431090
-0.278131
-0.077381
-0.201784
-0.243714
-0.104386
-0.110284
-0.085948
0.042335
-0.129291
-0.063829
-0.117184
-0.094844
-0.106287
0.126339
-0.088874
-0.042671
0.080019
0.098283
-0.044220
-0.019449
0.007563
0.029726
-0.152245
0.191952
0.091089
-0.360533
-0.343231
-0.060886
0.198424
-0.127605
-0.172198
0.032042
0.045128
0.137307
-0.598030
-0.240671
-0.143332
0.062446
-0.044032
-0.087652
-0.047932
-0.072067
-0.092730
0.190539
-0.016949
0.040446
-0.176715
-0.092925
0.122322
0.103756
-0.021306
0.083953
-0.211663
-0.072854
-0.087568
-0.008185
-0.068873
-0.173873
0.017455
0.072651
0.061429
-0.254002
-0.204223
-0.101287
-0.110037
-0.124733
-0.002029
0.110500
0.153124
-0.023216
-0.221284
0.204383
0.076341
-0.232286
-0.222199
-0.019347
0.187598
0.303016
-0.039649
-0.180904
0.115102
0.119559
-0.124998
0.024849
-0.010109
-0.327330
-0.232948
0.057241
0.120676
-0.349754
-0.066528
0.082900
0.057814
0.061435
0.017106
-0.063831
0.020986
0.103406
0.024117
0.073463
0.009833
0.006581
-0.091591
0.057354
0.113914
-0.114043
-0.101075
0.008689
-0.123926
0.145361
-0.040317
-0.117980
0.075858
0.018193
-0.138576
-0.031123
0.154406
-0.034641
0.060585
0.078855
0.012356
0.079687
0.147551
0.142702
-0.347720
-0.054411
-0.158068
0.087297
0.037588
-0.297294
-0.174355
-0.106776
-0.114529
-0.117183
-0.327667
-0.152311
0.002287
-0.070357
-0.057300
-0.093725
-0.276193
-0.026730
0.088156
-0.235157
-0.401099
0.137232
0.216879
-0.122133
0.076629
0.261383
0.269090
-0.187287
-0.043176
0.091002
-0.271033
-0.110011
-0.037047
-0.246247
-0.316409
-0.287523
-0.037907
0.034130
0.076490
-0.126080
-0.098133
0.047359
-0.035519
-0.087644
-0.128701
0.246140
-0.075986
0.013388
0.303873
0.037892
-0.131322
0.324723
0.028377
-0.061963
-0.038158
0.017848
-0.063967
-0.206904
-0.070915
-0.187802
-0.039752
0.030323
0.185665
0.101286
0.000956
0.005522
0.012611
-0.060310
-0.148724
0.059577
-0.038590
0.091627
-0.105402
-0.114275
0.027492
0.163607
-0.009955
0.037497
-0.078021
-0.017403
0.194507
-0.104211
-0.227117
-0.095596
0.005231
-0.053908
-0.147619
-0.049951
-0.141849
-0.092142
0.180251
-0.043480
-0.165246
-0.009912
0.183682
-0.094561
0.134968
-0.095552
-0.063103
0.223974
0.072950
-0.130972
-0.085618
0.068661
-0.003797
-0.351977
-0.458303
-0.073895
0.104376
-0.093703
-0.368488
0.170775
0.292317
-0.048951
0.171288
0.002269
0.117379
0.083124
0.018982
-0.041809
0.058333
-0.054915
0.115313
0.175948
0.280012
0.154456
-0.166988
-0.246812
-0.002646
0.001463
-0.295913
-0.176062
-0.018173
-0.133392
-0.172981
0.255024
-0.031351
-0.124519
0.084896
0.177263
-0.032307
0.159048
0.141222
0.097597
-0.043421
-0.000799
-0.046743
0.009239
-0.092751
-0.039048
0.190743
0.061261
-0.153407
0.181842
-0.062827
-0.257868
0.151889
0.266415
-0.031508
0.140591
0.017112
-0.118844
0.025078
-0.050175
-0.206622
-0.130824
-0.148278
0.116139
0.252688
-0.012294
-0.250928
-0.096826
0.178177
0.051862
-0.277393
0.079862
0.110860
0.101343
0.008680
-0.200931
0.015371
0.231630
0.012029
0.000509
0.020048
0.007759
-0.035380
-0.158248
-0.087122
-0.112552
-0.042123
-0.091886
-0.184797
-0.479311
-0.228467
-0.138715
-0.180561
0.099538
-0.031181
-0.067059
0.104949
-0.153683
-0.150129
0.116639
-0.015468
-0.262278
-0.323467
-0.014230
-0.447732
-0.275105
-0.156179
-0.564023
-0.159781
-0.012715
-0.110934
0.183570
0.132443
0.026246
0.063473
-0.051497
0.097442
0.080603
-0.068677
-0.012585
-0.141608
-0.104948
-0.149456
-0.100528
-0.269612
0.053961
0.054556
-0.176600
-0.112517
0.205860
0.042921
-0.117426
0.193604
-0.219463
0.052127
0.251891
0.050097
0.112766
0.170852
0.189906
0.064540
0.103850
0.101231
0.025631
-0.042479
-0.096264
-0.093504
0.076732
-0.164783
-0.028663
-0.121366
-0.015258
-0.250765
-0.097731
0.030582
-0.160157
-0.086831
-0.075597
-0.301257
-0.291706
-0.061606
-0.061219
-0.017358
0.182190
-0.214945
-0.244200
0.170607
-0.493635
-0.139019
0.041028
-0.247907
-0.100460
0.085719
0.087219
0.231404
-0.051977
0.034150
0.254231
-0.116035
-0.041653
0.008406
-0.179408
-0.189683
0.027114
0.020530
-0.065630
0.061285
-0.046961
-0.109102
-0.101386
0.217350
-0.300922
-0.072271
0.308378
-0.153239
-0.604020
0.601749
-0.222970
-0.419212
-0.070886
-0.136439
0.103127
-0.032249
-0.107856
0.058741
0.049966
0.049145
-0.032368
0.038212
0.043007
0.104108
0.027906
0.018088
0.061723
-0.048189
-0.067741
0.047232
-0.103435
-0.078518
0.093917
0.084581
-0.095355
0.081058
0.012131
0.018740
-0.029577
0.012075
-0.263112
-0.273064
-0.091337
-0.210651
-0.050672
0.172583
-0.033138
0.142503
-0.303817
0.012432
0.036407
-0.166855
-0.018076
0.152019
-0.148328
0.103696
0.306551
0.049932
-0.142264
-0.016224
0.058073
-0.042845
-0.030448
-0.029124
-0.125151
0.094828
-0.160106
-0.346656
-0.268081
-0.196506
-0.391198
-0.157780
-0.245670
-0.540718
0.093599
0.069675
-0.243556
-0.269913
0.049352
-0.256465
-0.171071
0.118748
-0.350816
0.078184
-0.104354
-0.097730
0.026116
-0.246692
-0.142746
0.154652
-0.030483
0.171959
0.251145
0.063869
0.087862
0.064967
0.130367
0.000542
0.176074
0.098207
0.058274
0.069832
-0.073654
-0.270011
0.032634
-0.002147
-0.169562
0.046462
0.059821
-0.013883
0.135646
-0.139597
-0.038653
0.045364
-0.169983
-0.073775
-0.139139
-0.040108
-0.114043
-0.083455
0.051216
-0.075580
-0.094441
0.185524
0.059166
-0.186684
0.164145
-0.010585
-0.207862
-0.077590
0.022663
0.054274
-0.121050
0.012468
0.036866
-0.002981
0.125376
0.058395
0.012536
-0.092499
0.206963
-0.140498
-0.197115
0.182473
-0.021080
0.037767
0.052596
0.133034
0.036111
-0.032777
0.041868
0.195621
0.296982
-0.139927
0.031805
0.160459
-0.010124
0.149296
-0.046373
0.276316
-0.064273
-0.027844
0.120611
0.109535
0.046812
0.089620
0.086179
0.220849
0.023593
0.031946
0.102660
-0.004436
0.099451
0.108925
-0.060489
0.139074
0.156460
0.026224
-0.000752
0.037213
-0.148609
0.051687
-0.005830
0.000766
-0.184988
0.050155
0.005636
-0.060667
0.146893
0.003411
0.088534
-0.073553
-0.165213
-0.029085
0.106926
-0.028765
-0.008389
-0.131955
-0.036307
0.135606
-0.058079
-0.106721
-0.144519
0.047587
-0.298001
-0.210018
0.100835
-0.001107
-0.182428
-0.055731
-0.027095
0.038344
0.000608
0.050136
-0.028608
0.062430
0.114393
0.155717
0.059688
0.035385
-0.016839
-0.002074
0.071293
-0.048508
-0.068631
0.019925
-0.133720
0.034377
-0.009220
0.044367
-0.025064
0.030628
0.050636
-0.109021
0.069574
-0.074661
0.009075
0.105727
-0.215915
-0.012411
-0.057018
-0.092973
0.177297
-0.025091
-0.071499
0.052461
-0.158985
-0.082880
0.080261
0.115832
0.076273
0.026908
-0.024052
0.156531
-0.088641
-0.032266
-0.075796
0.136729
0.142621
-0.050940
0.132488
0.152913
-0.122969
-0.162748
0.046363
-0.008856
-0.220424
-0.144556
-0.218304
-0.143012
-0.069910
-0.020646
-0.125752
0.161685
0.118517
-0.228624
0.171780
0.034608
-0.085047
0.140235
-0.063776
0.012755
0.032378
0.013885
0.045409
0.150597
0.065746
0.002614
0.115195
0.023138
0.082040
-0.010745
0.010437
-0.018254
0.115918
0.190208
0.310162
-0.004772
0.107011
0.021250
-0.112224
0.067781
-0.036676
0.016081
0.116654
-0.112430
0.058120
0.008959
0.016549
-0.053411
0.052120
0.005282
0.095139
0.125582
-0.023853
0.069816
-0.047278
0.062930
-0.071469
-0.107141
-0.090738
0.058388
0.058200
0.009253
-0.106500
-0.085641
-0.093550
-0.232010
-0.296527
-0.268979
-0.026054
-0.119068
-0.140887
-0.139829
-0.135059
0.021896
-0.183785
-0.008071
-0.033431
-0.150621
-0.051772
0.105911
0.048018
0.067361
0.189784
0.094758
-0.036235
-0.061873
0.077982
0.083449
-0.004764
0.114343
-0.072189
0.095330
-0.083931
-0.098324
0.209502
0.041116
0.123910
0.056264
0.000479
0.211067
-0.056913
0.037130
-0.082507
0.117597
0.098451
0.098401
-0.039599
-0.053555
0.035612
-0.037203
-0.045855
0.154032
0.096909
0.263924
-0.044480
-0.102962
0.125769
0.018088
-0.089895
0.063389
0.039479
-0.198121
-0.170330
-0.340296
-0.087926
-0.121550
-0.363287
-0.117179
-0.031288
0.013686
-0.089944
0.052371
0.227794
-0.090389
0.204018
0.105784
-0.014233
-0.169849
-0.194433
-0.162474
-0.171079
-0.024232
-0.142650
-0.202201
-0.109605
-0.099009
0.185263
0.044490
0.058379
0.304466
0.001606
0.085827
0.223474
0.004458
0.052090
0.104085
0.055949
0.005797
0.102923
0.007668
-0.068434
0.151429
0.138948
0.050718
-0.194146
-0.128307
-0.014847
0.117027
-0.141381
-0.042592
-0.092945
-0.168711
-0.154909
-0.045554
-0.104621
0.003604
0.099444
0.063203
0.075227
-0.076633
-0.181096
0.079116
0.089838
-0.026989
-0.124327
-0.072830
0.067131
-0.051534
0.002499
-0.073895
-0.070719
-0.049767
-0.069438
-0.248617
-0.019879
-0.151586
-0.098962
-0.186715
-0.257732
-0.098734
0.135081
0.014797
-0.091059
0.038507
0.070070
0.095111
0.102523
-0.025618
0.015811
0.215614
-0.289864
0.020968
-0.055434
-0.162354
0.107177
-0.118499
0.095248
0.005266
-0.133352
0.124110
0.016302
-0.228683
0.117441
-0.059235
0.031897
0.150111
-0.071615
-0.022382
-0.079994
0.045563
-0.012365
-0.024754
0.068690
0.024995
-0.046157
0.123304
0.000114
-0.099032
-0.006185
0.031929
0.031279
0.022116
-0.125927
0.031760
-0.136275
-0.050899
-0.028594
-0.071878
-0.015886
0.079000
0.005893
0.080536
0.089636
0.049206
-0.304052
0.156393
0.004763
-0.034997
0.308008
-0.250524
0.181383
-0.081064
-0.239434
0.401737
-0.303360
-0.103185
0.177936
-0.347079
0.193004
0.031851
-0.218239
0.101097
0.014776
-0.093306
0.075848
-0.054808
0.076366
0.022771
-0.078883
-0.000912
-0.066760
0.059052
-0.241885
0.165600
-0.007659
-0.231719
0.184258
-0.129700
-0.108822
0.094687
0.056140
-0.062213
-0.004928
-0.052265
-0.262102
0.087475
0.017604
-0.178408
0.145522
-0.108666
0.122984
0.157202
-0.103678
0.040262
-0.052467
-0.049241
-0.114612
-0.210264
-0.036830
0.141182
0.054844
0.076818
0.051019
-0.097825
-0.073437
-0.043957
-0.072292
0.294963
-0.228333
-0.280419
0.018405
-0.052775
0.086397
-0.101694
0.058315
0.250359
-0.017155
0.029567
0.069729
-0.004981
0.013158
-0.098956
0.070063
0.037211
-0.190840
-0.109988
-0.031157
0.014822
0.002574
0.022276
-0.075566
0.006509
0.021799
-0.099074
-0.181351
0.010673
-0.020226
-0.069899
0.043906
-0.130717
-0.180703
-0.111967
-0.239932
0.069024
-0.219061
0.048475
0.056384
-0.128999
0.064336
0.059832
0.037073
0.237525
-0.004634
-0.050499
0.029026
-0.054780
0.107972
-0.029507
0.037735
0.040221
-0.008020
-0.147792
-0.041214
-0.010998
-0.043786
0.063990
0.044343
-0.085106
0.038045
0.055791
-0.186401
-0.213675
0.083311
-0.276191
0.010503
0.195886
-0.080241
0.096110
-0.097238
0.096602
-0.146221
0.054185
0.068237
-0.139566
0.033800
0.009816
-0.056130
0.219004
-0.009142
-0.115829
0.088535
0.207544
-0.027917
-0.025801
0.067559
-0.030591
-0.075620
0.153408
-0.040110
-0.090932
0.245443
-0.170377
-0.124085
0.090222
-0.158577
0.014060
-0.250124
0.155729
0.009700
-0.064745
0.160846
-0.136251
0.114647
0.091048
-0.150581
-0.051752
-0.038025
-0.205647
-0.041028
-0.103132
-0.215084
0.036489
-0.026900
-0.165246
0.220259
-0.195275
-0.155151
0.050932
-0.124567
0.100501
0.058815
-0.015075
0.030760
0.006604
0.083212
0.118472
-0.037746
-0.004073
0.005544
-0.060109
-0.015801
0.098937
-0.099255
0.050244
0.006578
-0.007051
0.013454
0.124494
0.140176
0.111819
0.043708
-0.124386
-0.077217
-0.048527
0.103104
0.022837
0.019768
-0.175317
-0.137367
-0.098892
0.058070
-0.163753
-0.143529
0.074767
-0.004220
-0.074324
0.059051
-0.196115
0.182063
0.138969
-0.053113
-0.211669
0.210678
-0.050535
-0.221140
0.159368
-0.303881
0.039895
0.035521
0.072230
-0.099337
0.252181
0.080917
-0.137473
-0.027188
-0.097392
-0.098218
-0.151736
-0.011051
0.275120
-0.146975
-0.081801
0.056770
0.219434
-0.038666
-0.325380
-0.204903
0.097851
0.174139
-0.027347
-0.030659
0.089130
-0.020320
-0.050860
-0.140368
0.035794
-0.005913
0.137878
0.138517
-0.133573
-0.150698
0.139089
-0.099444
-0.276608
-0.118914
0.006643
0.054391
0.005616
-0.006665
0.125341
0.053113
-0.087839
0.000638
0.185750
0.196236
0.198574
0.050028
-0.170909
0.154756
-0.062415
-0.333719
0.050732
0.080153
0.030507
-0.026103
-0.102742
0.039059
0.086320
-0.011660
-0.213102
0.143194
-0.078612
-0.037733
0.157284
-0.152853
0.005797
0.009746
-0.038267
0.048035
0.112087
-0.173036
-0.133833
-0.015360
0.184104
-0.268982
-0.162443
0.134084
-0.164376
-0.234382
-0.051956
-0.163904
-0.080230
0.022586
0.055801
-0.038239
0.075559
0.144507
-0.154827
-0.129254
0.021906
0.086578
-0.213791
-0.124062
0.121699
-0.071290
-0.168819
-0.207362
-0.170334
0.056568
0.196416
-0.208535
0.092761
0.044591
-0.181767
-0.162361
-0.092434
-0.264911
-0.178987
-0.017580
0.095237
-0.144844
-0.030236
0.011561
-0.120578
-0.358865
0.111356
0.170968
-0.244868
0.060792
0.161339
-0.158069
0.009988
-0.001949
-0.438616
-0.118360
-0.139972
0.017572
0.212888
-0.104675
-0.192180
0.061014
0.030585
0.036686
-0.061344
0.009181
-0.022517
0.078200
-0.026358
0.037687
0.106328
-0.117905
-0.066707
0.115669
-0.131933
-0.002455
-0.086109
-0.094128
0.016482
0.139648
-0.092678
0.032870
-0.150816
-0.063754
0.117210
-0.011383
0.068700
0.099140
-0.034688
0.160178
-0.055103
0.145670
0.131124
0.117909
0.058846
-0.008803
0.218975
-0.060420
-0.059941
-0.077556
0.061952
-0.034637
0.130727
0.080141
0.106398
-0.142555
0.157145
-0.119941
-0.109375
-0.422026
-0.306798
-0.093287
0.003050
-0.194212
-0.143604
0.264076
-0.115318
-0.368255
0.028003
-0.107688
0.115467
0.061140
-0.078163
-0.225249
0.114873
-0.200606
-0.515504
0.096920
-0.277070
-0.094918
0.236852
0.074212
-0.141534
-0.031898
0.069145
0.094481
0.131441
-0.079729
-0.113237
0.028765
0.254666
0.063589
-0.052322
0.085891
0.222517
-0.036457
-0.072809
0.052731
0.130849
-0.009490
-0.237194
0.111612
0.136741
-0.172865
-0.043745
0.110660
-0.111924
-0.097815
0.086545
0.035646
0.068954
0.018227
0.001978
-0.031985
-0.296619
0.208956
-0.206108
-0.380860
-0.069696
0.046161
0.046673
-0.220203
-0.065913
-0.080028
0.014097
-0.006606
0.047682
-0.002884
-0.077936
0.064330
0.033482
-0.018212
-0.063086
0.053839
0.023949
-0.090503
0.154645
-0.008041
-0.126484
0.125367
-0.028440
0.008935
0.105394
-0.094220
-0.014910
0.093131
-0.482848
-0.401412
-0.236458
-0.001717
0.047564
-0.036791
-0.083467
-0.038168
-0.031687
-0.175322
-0.152054
-0.035826
0.211852
0.218934
-0.033323
-0.075669
0.209922
0.150362
-0.167569
0.011397
0.172636
0.038878
0.027563
-0.136222
-0.005021
0.020115
0.079460
-0.195127
-0.054870
-0.139200
-0.021492
0.068350
0.077476
-0.194559
0.030600
0.014079
0.012221
-0.128575
-0.115301
-0.110495
0.120004
-0.185867
-0.117728
0.275885
-0.169013
-0.202694
0.083856
0.051167
-0.071040
-0.000499
0.059669
-0.027774
-0.125368
-0.032965
0.149255
-0.341017
-0.002373
-0.058024
-0.023781
0.073025
-0.006497
-0.013874
0.126429
-0.128678
-0.062788
-0.011674
0.103270
0.017447
0.065735
0.023950
0.042451
0.071958
-0.104168
-0.006003
0.145894
0.034691
0.045423
-0.050277
-0.174321
0.287760
-0.121285
-0.296943
0.070417
0.064343
0.122902
-0.393776
0.011586
0.167626
-0.320236
0.159668
0.258915
-0.112218
0.005099
0.002302
0.035204
0.021905
0.018609
-0.026045
0.048786
0.176425
-0.212928
-0.002196
-0.007530
-0.113877
0.118467
0.112292
-0.027896
0.129192
0.058467
-0.235762
0.017891
-0.040176
-0.042161
0.199080
-0.149157
-0.057417
0.220930
-0.160692
-0.029207
0.145428
0.021047
-0.077622
0.054864
0.025962
-0.004156
-0.080389
0.162580
-0.057085
-0.148144
-0.245365
0.172241
-0.200883
-0.080125
0.041052
0.078467
-0.096473
-0.172360
-0.150423
-0.130954
0.011785
0.010296
-0.026660
-0.076125
0.041690
-0.005270
0.020292
0.029427
-0.021059
-0.017778
0.019809
-0.052871
-0.049249
0.124172
0.032131
0.003614
-0.062146
-0.002737
-0.096808
-0.134128
-0.021569
-0.035546
-0.057011
-0.038632
-0.021627
0.092301
0.039714
0.033123
0.084989
-0.044275
-0.165228
-0.129221
0.162726
-0.047213
-0.025071
-0.110693
-0.122995
0.188949
-0.087884
-0.002186
0.190208
0.006894
-0.249543
0.096961
0.146198
0.058027
-0.095267
0.067960
0.133341
-0.184632
-0.065177
0.264874
-0.125779
0.021317
0.007955
-0.103281
-0.052819
-0.077448
-0.089234
-0.127393
-0.112340
0.042284
-0.089079
0.174199
0.003174
-0.092256
0.074102
-0.027163
-0.004735
-0.242069
-0.051082
0.119198
0.014940
0.004968
0.041268
-0.107166
-0.039835
-0.029814
-0.131988
0.099984
0.018311
-0.174274
0.175446
0.152388
-0.284935
0.147648
0.154798
-0.004445
0.083960
0.122902
-0.492465
0.087557
0.290413
-0.295877
-0.075207
0.279071
0.050625
-0.154308
-0.212429
0.125596
0.059908
-0.215032
-0.088553
0.135741
0.070882
-0.084951
0.053139
0.051845
0.002017
0.106097
0.009427
0.011590
0.081854
0.019369
0.074685
0.044718
0.173921
-0.133206
0.221845
0.025790
-0.141565
0.249386
-0.052940
-0.167192
0.196029
-0.035732
-0.006107
0.160800
-0.035941
0.094729
0.091610
-0.043723
0.070014
0.018681
-0.048183
0.108501
0.058537
-0.053610
-0.052545
0.052332
-0.100706
-0.026976
0.073436
-0.121409
0.029082
0.121638
-0.037764
0.007788
0.101704
0.144388
-0.052468
-0.081559
0.156768
-0.161592
0.207080
0.227945
0.092869
0.185959
0.144286
0.195281
0.131296
0.157353
-0.303897
-0.195847
0.137289
-0.153590
-0.108721
0.184306
0.002955
-0.040014
0.074730
-0.081647
-0.179895
0.170505
0.037957
-0.221659
0.200131
0.005673
-0.074173
-0.116250
-0.144685
0.046994
0.106131
0.063909
-0.085974
0.073199
-0.179654
0.064706
-0.068209
-0.024169
-0.079067
0.018051
-0.198601
-0.063377
-0.103097
-0.109740
0.102775
-0.009224
0.027180
-0.090193
0.233639
0.092379
-0.247555
0.032333
-0.342009
-0.348852
0.175538
-0.060736
0.037270
0.005363
-0.122973
-0.156520
-0.063597
-0.104393
0.132084
-0.118251
0.120480
-0.052343
-0.061470
-0.243443
-0.019042
-0.232175
-0.108599
-0.111617
0.051694
0.035205
-0.116731
-0.152838
-0.213962
-0.025043
-0.076233
0.185877
0.296499
0.015117
0.240353
0.254655
0.043051
-0.025990
-0.028135
-0.143685
-0.196273
-0.253557
0.092976
-0.061983
0.018382
0.048208
-0.065948
-0.198039
-0.079630
-0.014810
0.158567
-0.022778
0.119264
0.170662
0.226309
0.042498
-0.175468
-0.232282
-0.388010
-0.355398
0.093433
-0.002182
0.036248
0.169842
0.066113
0.022281
0.078484
-0.032406
-0.155758
-0.064779
-0.132575
-0.009293
-0.108251
-0.081382
0.128032
-0.053205
0.128875
0.011858
-0.068890
-0.108911
-0.213730
-0.542359
-0.124769
-0.059657
0.007201
0.030702
0.020602
0.256833
0.155195
-0.129827
-0.012862
-0.241594
-0.138399
0.025220
0.049964
0.193988
-0.067447
-0.087050
-0.174946
-0.540138
-0.315858
0.065254
-0.011679
0.115752
0.115071
0.168036
-0.047187
0.037321
-0.138604
-0.175094
-0.098391
0.001096
0.090913
0.058237
-0.086508
-0.047267
-0.002611
0.001381
-0.053294
-0.088843
0.032076
0.011440
-0.157694
0.145993
0.117098
0.034934
0.107150
-0.085870
-0.065981
-0.093745
-0.074502
0.035328
0.007558
0.209263
0.154839
0.004140
0.080333
0.054994
-0.046342
-0.122239
0.077430
0.094436
0.067086
-0.154762
0.137605
0.084387
0.031521
0.077684
-0.098305
0.109948
0.230842
0.241050
0.054004
0.127333
-0.058679
-0.327561
-0.099746
-0.383904
-0.278701
-0.022076
-0.044937
-0.130933
-0.221314
-0.060122
-0.037582
-0.064672
0.186067
0.275347
0.091949
0.039714
-0.004436
0.073775
-0.017639
-0.028645
-0.421398
-0.108245
0.003971
-0.010197
-0.196969
0.007874
-0.233812
0.071786
0.101326
-0.008663
0.055497
0.216052
-0.035180
0.010556
-0.442078
-0.288975
-0.286825
0.019250
-0.050306
0.066458
0.094332
-0.093937
0.071915
0.196541
-0.080084
-0.057868
0.141966
0.104063
0.047928
0.081091
-0.013373
0.018917
0.134116
-0.005377
-0.076026
-0.069719
-0.222497
-0.289277
-0.211430
0.076324
0.066705
0.089421
-0.082285
-0.015251
0.021645
0.057625
-0.010326
0.056403
-0.099596
-0.045375
-0.053494
-0.107515
-0.010647
-0.078671
-0.129958
0.056614
-0.011968
-0.123758
0.033921
0.025810
0.034150
0.074928
-0.136285
-0.139024
-0.234062
-0.250326
0.042187
-0.135172
-0.018855
-0.064448
-0.183832
-0.044696
-0.064191
-0.036929
-0.057169
-0.167048
-0.096019
0.001164
-0.042202
0.090807
0.106572
-0.030918
-0.033079
-0.034191
-0.074068
-0.070867
0.085126
-0.008885
0.111658
0.029940
0.005625
0.061822
-0.126878
-0.064498
0.038722
-0.030673
-0.155163
-0.251533
-0.109292
0.091800
0.242307
0.044107
-0.179891
-0.060556
-0.215587
-0.062849
-0.082156
0.055437
0.289242
0.203661
0.160181
0.112368
0.061704
0.197585
-0.029012
0.001153
0.046766
-0.213687
-0.171725
-0.239442
-0.065423
0.044853
-0.017267
-0.005592
0.038625
-0.069982
0.059532
0.032673
0.096991
-0.080046
-0.002547
0.034494
-0.010602
-0.003776
-0.073902
-0.002392
0.041612
0.124012
-0.151539
-0.064469
-0.204405
0.015089
-0.060702
0.003357
0.213236
0.096708
0.120051
0.059880
0.197355
0.025529
-0.172868
-0.300658
-0.224227
0.065035
0.273177
0.327168
-0.028080
-0.171010
-0.067643
-0.189384
-0.217253
0.066128
0.132911
-0.102296
0.092642
0.194725
0.116496
0.213689
-0.064975
-0.283899
-0.269279
-0.119010
-0.062869
-0.127291
0.002139
-0.053068
0.012428
-0.042835
-0.040909
0.047328
-0.056627
-0.062083
0.032616
-0.115111
-0.308268
-0.049237
0.006561
-0.161061
0.192163
0.126011
0.104461
-0.105152
0.029133
-0.064608
0.138252
-0.175134
0.042854
-0.034388
0.018330
0.003510
-0.030720
-0.001000
-0.365260
-0.259910
-0.100164
-0.293957
-0.123685
0.199996
-0.022060
0.095763
-0.169435
-0.250289
-0.177862
0.112461
0.094720
0.195185
-0.050205
0.049953
-0.035299
-0.016075
-0.091181
0.039947
-0.041698
-0.010916
0.086023
0.112323
0.101109
-0.007836
-0.241090
0.012688
-0.189732
-0.037285
-0.055849
-0.071116
-0.005441
-0.063679
0.039261
-0.053310
-0.054325
-0.013427
0.005812
-0.137470
0.019052
0.114484
0.115831
0.090947
0.022497
-0.143817
0.056513
-0.104715
-0.253881
-0.296970
-0.058275
-0.047232
0.029207
-0.048986
0.035848
0.038247
-0.108300
0.063031
0.157435
0.013289
-0.026177
-0.072219
0.035798
0.068471
0.022505
-0.242270
-0.404844
-0.130028
0.053836
0.059064
0.051469
-0.098486
-0.079196
-0.036870
-0.097738
-0.158169
-0.020887
0.195598
0.071705
0.122715
0.347451
0.170863
0.078448
-0.145201
-0.360172
-0.297178
-0.101843
-0.007230
0.077071
-0.173681
-0.229220
-0.054223
0.059889
0.125186
0.187562
0.127983
0.076973
0.097364
-0.088450
-0.097133
-0.079129
0.226128
0.213725
0.229763
-0.174615
-0.220667
-0.141067
-0.236523
0.070748
0.012024
-0.265632
-0.097271
-0.150886
0.016521
-0.000992
0.103674
0.094404
0.190482
0.171438
-0.140587
-0.209256
-0.217118
-0.129132
0.068509
0.080301
0.018539
0.057983
0.058230
-0.055959
-0.022504
0.087107
0.037361
-0.085672
-0.031145
0.043447
0.066908
-0.114863
-0.147768
-0.067722
-0.081961
0.148573
0.055592
0.078456
-0.129918
-0.261717
-0.234059
0.045699
0.058322
0.207530
-0.070684
-0.275595
-0.303879
-0.168893
-0.116406
0.031542
0.099528
-0.148594
0.133007
0.083943
0.208865
0.247512
0.103567
0.104076
0.199361
-0.021791
-0.221264
-0.231361
-0.208400
-0.311548
-0.072896
-0.172155
-0.036408
0.009749
-0.184279
-0.058355
-0.102942
-0.108988
0.012008
-0.026523
-0.197587
0.039156
-0.058195
0.178274
0.154311
0.222823
0.070713
0.116579
0.098318
-0.013608
0.197960
0.064319
-0.152706
-0.197143
-0.194930
-0.004700
0.085166
-0.078552
-0.076315
-0.342922
-0.325412
0.015966
0.101442
0.129864
-0.066382
0.072311
0.163735
0.048832
-0.029851
0.055491
-0.037099
0.033989
-0.118664
0.086794
0.004179
0.005028
0.121264
0.108673
0.043359
0.096783
0.001543
0.002054
0.110502
-0.008187
0.008849
0.124341
0.108645
-0.024201
-0.266431
-0.216893
-0.234719
-0.186444
-0.111738
-0.416089
0.136303
0.238522
0.068394
-0.057972
-0.284680
-0.026958
-0.123378
-0.313565
-0.160305
-0.126773
-0.037085
0.012375
0.110339
-0.075309
-0.019226
-0.035397
0.172238
0.071129
0.056053
-0.067082
-0.150749
-0.030145
0.031569
0.121349
-0.202294
-0.045655
-0.053286
0.087143
-0.005321
0.038324
0.125341
0.103635
0.077103
-0.131326
-0.150707
-0.055962
-0.079659
-0.168026
-0.001402
0.007085
-0.181952
0.112406
0.222437
-0.072838
0.201987
0.021098
-0.107932
-0.115583
-0.119579
0.006655
-0.204471
0.011960
-0.066028
0.090296
0.121625
-0.063817
-0.147079
0.124529
-0.089219
0.331617
-0.038034
-0.016480
-0.094375
-0.079234
-0.027196
-0.072697
-0.165980
-0.165962
-0.086840
-0.062308
-0.086074
0.055669
-0.066787
-0.024066
-0.160584
-0.111607
-0.086247
0.002278
0.101484
0.064907
0.044282
-0.022487
-0.011292
0.042293
0.003605
0.081822
0.030643
-0.060751
0.080608
0.029667
0.077952
0.138700
-0.034990
-0.093673
0.006579
0.049893
-0.186295
-0.133837
-0.046193
0.030170
-0.004744
-0.061119
0.177527
0.141237
-0.122565
0.014942
0.005199
-0.087342
-0.127833
-0.074611
-0.076378
-0.077236
0.075828
0.080457
-0.099275
0.072298
-0.225881
0.084630
-0.012650
0.125172
-0.242561
-0.319248
-0.069951
-0.222389
-0.134452
-0.247284
-0.123237
-0.324352
-0.310659
-0.054641
-0.176294
-0.196664
0.064631
-0.148186
-0.166500
-0.079770
0.109289
0.069728
0.168861
0.092799
0.013874
-0.188477
-0.168295
0.051538
-0.108571
-0.099877
-0.093478
-0.063409
-0.157053
-0.096992
0.201873
-0.081857
0.115684
-0.133411
0.040735
0.022434
-0.209385
-0.134604
-0.085568
-0.123269
-0.014300
0.118730
-0.079821
-0.125548
-0.099503
0.026048
0.027456
-0.017173
0.002812
-0.056728
-0.020331
0.170506
0.134309
0.197974
-0.030287
-0.032607
-0.105569
-0.391242
-0.390583
-0.127768
0.098747
0.122963
0.071060
-0.023895
0.138138
0.031170
-0.082056
-0.196878
-0.077481
0.043066
0.210096
0.161707
0.016839
-0.018412
-0.013132
-0.171228
-0.146602
-0.120210
0.248470
0.030572
0.027752
0.088755
0.338138
0.112354
0.045362
0.160517
0.168526
-0.163302
-0.161411
-0.005909
0.077182
0.120860
0.040436
-0.039157
-0.153803
-0.050731
-0.152098
-0.112569
-0.038547
0.240117
0.200775
0.212872
0.145411
0.075769
-0.076668
0.105591
0.033498
-0.108917
0.025844
0.044417
0.109486
-0.071591
-0.235348
-0.086983
-0.022620
-0.156205
-0.054259
-0.088974
-0.050708
0.206191
0.056831
0.016899
-0.014237
0.039500
0.045314
0.109828
0.062531
0.209569
0.166991
-0.169699
-0.271600
-0.262749
0.085988
-0.132290
-0.094103
-0.110179
-0.228760
-0.182195
0.141652
0.200050
0.122331
0.003624
-0.028112
0.044272
-0.052508
0.020726
0.017458
-0.147741
-0.098983
-0.021735
-0.056433
-0.055104
-0.218038
-0.094810
-0.070359
-0.034330
0.007771
-0.057459
0.025919
-0.063569
0.185889
0.163055
0.245663
0.082611
-0.066331
-0.259888
-0.232856
-0.086265
-0.074530
-0.198391
0.010654
-0.045501
0.280107
0.188690
0.042689
-0.037142
-0.167527
0.023898
-0.091286
0.009975
0.016640
0.049368
0.067698
0.017845
-0.091094
-0.204938
-0.106411
-0.359097
-0.308245
0.024728
0.073267
0.146991
0.178846
0.069193
0.148924
-0.017873
-0.100622
-0.154670
0.068738
-0.121942
-0.044505
-0.017547
0.162720
0.193973
-0.223262
-0.047843
-0.181412
-0.100254
-0.042394
-0.137054
-0.215274
-0.176965
-0.240965
-0.125215
-0.153947
-0.069129
-0.069266
-0.081622
0.035060
-0.123187
-0.146702
-0.203428
-0.063429
-0.029494
0.034186
-0.141245
-0.083525
-0.097211
-0.049295
0.191782
-0.189796
0.037025
0.159136
-0.030444
-0.153260
-0.017522
-0.197974
-0.099967
-0.028027
0.117817
-0.074325
0.094323
0.067056
0.003054
0.111248
-0.035600
-0.053851
-0.064777
-0.054460
0.156395
0.053912
0.157858
-0.018439
-0.133082
-0.056370
-0.170482
0.048056
-0.055129
0.014019
-0.124503
0.005302
0.108888
0.047088
0.085771
-0.071777
0.082491
0.030691
-0.161229
0.033987
-0.062829
-0.154623
0.051344
0.013735
-0.088752
-0.082327
0.103928
-0.081903
-0.160770
-0.120863
0.002157
-0.041715
-0.041379
-0.075378
-0.124363
-0.151329
-0.043592
-0.139963
-0.009546
-0.045714
0.098969
0.209708
-0.001853
-0.009646
-0.081265
-0.066931
-0.061603
0.046943
0.003418
-0.073239
-0.108411
-0.010918
-0.153238
-0.074891
-0.198409
-0.057455
-0.150146
0.002250
0.121292
0.086621
0.088271
0.167713
-0.042249
-0.085587
0.178649
0.091529
-0.090173
-0.086368
-0.089585
-0.233047
-0.048500
0.018942
-0.059635
0.207977
0.128285
-0.104472
-0.196791
-0.470103
0.085507
0.018302
0.162430
0.182824
-0.016305
0.063542
-0.015095
-0.082375
-0.029291
-0.019028
0.019544
0.008580
0.124931
-0.093996
-0.046979
-0.060721
0.025548
0.087133
0.019159
0.030903
-0.117237
-0.099299
0.123807
0.099389
0.039699
0.022533
0.019698
-0.133928
0.033792
-0.057181
0.219657
0.253424
0.145073
0.034218
-0.101457
-0.164511
-0.065481
-0.070918
0.051805
-0.087912
-0.000674
-0.315731
-0.121908
-0.008009
-0.184715
-0.178528
-0.004470
-0.154285
-0.018039
-0.028566
-0.142718
0.076488
-0.110874
-0.029970
0.101849
-0.143935
-0.011930
-0.197516
-0.041950
-0.286077
-0.105549
0.034905
-0.109005
0.167905
0.191920
0.191900
-0.104922
0.006666
-0.002026
-0.119709
-0.206170
-0.115699
-0.037419
0.018694
0.051180
-0.006706
0.253662
0.066894
0.180812
-0.076038
-0.157559
0.077813
-0.390217
0.161424
0.257251
-0.081526
-0.086401
0.062351
-0.205835
0.051533
-0.080346
-0.027821
0.196259
0.070923
0.037676
-0.006892
-0.046474
-0.099427
-0.196090
-0.207709
-0.253423
-0.095359
0.085083
0.104870
-0.052800
-0.071530
-0.223477
0.000204
-0.013854
-0.008369
0.038737
0.080175
-0.072485
0.125451
0.030188
-0.016804
-0.217392
-0.034775
0.040980
-0.124903
0.193611
-0.367843
-0.053401
-0.044524
-0.099075
0.364776
-0.047425
0.096511
0.136043
-0.218403
0.271781
0.022433
0.068742
0.101127
-0.322223
0.068230
-0.041220
0.023900
-0.025284
0.099651
-0.192957
0.031225
-0.235425
0.057413
-0.116230
-0.156533
0.170769
-0.160276
0.199047
-0.134104
0.056701
0.031878
-0.463587
-0.002353
-0.134224
-0.073716
-0.163622
0.188247
-0.084913
-0.080462
0.155541
-0.061090
0.172046
-0.060076
-0.213344
-0.238652
-0.144089
0.098087
-0.234210
-0.098983
-0.023006
0.007089
0.136579
-0.017354
0.277074
-0.069719
0.122392
-0.140000
-0.232867
-0.065745
-0.088060
-0.084531
-0.176032
0.181561
0.223526
-0.409051
0.117047
-0.256735
-0.402323
-0.007436
-0.182582
-0.111041
0.181775
-0.114188
-0.107156
-0.104726
-0.127613
0.077332
-0.128199
0.112593
-0.080291
-0.026966
-0.077922
-0.142806
-0.108221
-0.074794
0.010837
-0.107664
0.077193
0.123766
-0.017245
0.049144
-0.055230
-0.089588
-0.026997
0.067983
0.114878
0.060669
0.129168
-0.097483
0.161420
-0.218912
0.102907
-0.047438
-0.068290
0.030556
-0.027669
0.161206
-0.083593
-0.163669
0.120589
-0.277931
-0.194237
0.121387
-0.237884
-0.081082
0.205936
0.210432
0.113355
-0.052226
0.034536
-0.103628
-0.064848
-0.079241
-0.013826
0.133710
0.110776
0.276397
-0.341055
0.178110
-0.367037
-0.079947
-0.121183
-0.145003
0.343493
0.053643
0.117959
-0.040685
0.060183
-0.010407
0.180350
0.081146
0.183205
0.280219
0.081855
-0.098181
-0.065865
-0.163855
-0.246222
0.025090
-0.040641
0.007860
0.129942
-0.273383
-0.127518
0.071624
-0.099183
0.087646
-0.010245
0.157716
0.158792
-0.201722
0.118112
-0.328214
-0.117707
-0.082506
-0.239332
0.202111
-0.164323
0.079456
0.150247
0.026889
-0.024143
0.038531
0.069036
0.038885
-0.045704
-0.106026
0.026726
0.115851
-0.274893
0.046369
-0.014938
-0.066247
0.052352
-0.469252
0.169621
0.004578
0.168541
0.038410
0.011068
-0.097633
0.130752
-0.149646
-0.013665
0.055654
0.112306
0.072909
-0.077275
-0.104498
-0.174433
-0.143821
-0.194788
-0.041153
-0.048515
0.130728
0.160402
0.012462
0.151583
0.215891
-0.181224
-0.223084
0.124257
-0.335035
-0.022945
0.210220
0.265002
0.145387
0.077520
0.119587
0.201149
0.077315
0.215640
0.067052
0.042949
-0.021821
-0.144892
0.113383
-0.090954
0.103710
-0.075131
-0.084321
0.139542
-0.186568
-0.091362
-0.174408
0.133138
-0.111016
0.033607
0.172462
-0.068007
0.146886
-0.139944
-0.016235
-0.055996
0.182237
-0.019764
-0.048025
0.201357
-0.158368
-0.032934
0.087135
0.208745
0.086075
0.100222
0.004720
0.151667
0.086131
0.110119
0.026276
0.092344
-0.119178
-0.113387
0.052834
-0.075351
-0.086155
0.103316
-0.038153
-0.096041
-0.081816
0.016805
0.000206
-0.130744
-0.078047
0.062651
0.031961
-0.082774
0.082159
-0.055964
-0.055723
0.077819
-0.000765
0.090876
0.020364
0.039151
0.084391
0.138999
0.017541
0.021877
-0.036713
-0.016033
0.057588
-0.040386
0.137923
0.048320
0.049329
0.002616
0.037902
0.038981
-0.046407
0.047193
0.046499
0.062488
0.084269
0.043073
-0.028562
-0.130589
0.043714
-0.070962
-0.038008
0.036330
-0.040356
-0.083039
-0.019539
-0.102800
-0.001550
0.050533
-0.125064
-0.011580
0.055656
-0.026858
-0.016079
0.070602
-0.007165
0.076054
0.050741
0.055700
-0.041592
-0.032602
-0.047477
-0.087167
-0.024573
-0.169704
-0.058617
-0.311771
-0.356193
-0.176067
-0.273743
-0.030786
-0.207427
-0.328448
-0.011914
-0.300838
-0.222286
-0.192092
-0.006300
-0.169476
-0.127955
-0.260905
-0.346532
-0.439785
-0.102391
-0.368872
-0.244751
0.056747
-0.032526
-0.286652
-0.386736
-0.224485
-0.231060
-0.021865
-0.086262
-0.003517
-0.045041
0.022754
-0.080632
-0.085913
-0.008949
-0.033374
-0.158124
0.034687
-0.012468
-0.041710
0.041721
0.083611
0.008228
0.080189
0.136446
0.034774
-0.011748
-0.043419
-0.050011
0.137559
0.129152
0.126031
0.080032
0.105560
0.044952
0.050227
0.046366
0.045723
0.059118
-0.059358
-0.072362
-0.028662
-0.065084
-0.036574
-0.099316
0.141195
-0.094639
-0.085381
0.120896
-0.115354
-0.137676
-0.134719
-0.164604
-0.003618
0.009107
-0.148609
-0.004066
0.015007
-0.027906
-0.023012
-0.057167
-0.053120
0.147288
0.139372
-0.172407
-0.003804
-0.013246
-0.043146
-0.118992
-0.043633
-0.115062
-0.157149
-0.100521
-0.150713
-0.109372
-0.164588
-0.030787
-0.002239
0.040477
0.043822
0.101363
-0.103867
0.110757
0.103656
-0.084113
-0.010714
0.071192
-0.088196
0.006569
-0.135568
-0.090414
0.002526
0.004425
-0.028776
-0.010646
0.032839
0.082474
0.033962
-0.025594
0.128833
-0.177122
0.080410
-0.094334
-0.053401
0.055926
-0.026067
-0.028019
-0.067756
-0.078075
-0.069493
-0.100484
-0.177105
-0.133067
-0.026257
-0.015462
-0.010041
0.033028
0.011185
-0.024469
-0.052626
0.014371
0.007821
-0.045388
-0.038850
0.042877
0.150132
0.095566
0.114138
-0.001886
0.057315
0.082666
-0.071234
-0.008169
-0.109408
0.048946
0.105492
0.007021
0.062513
0.073087
0.061215
-0.030534
0.130496
-0.330817
-0.005769
-0.494819
-0.586567
-0.677366
-0.637145
-0.474827
-0.254504
-0.435836
0.043289
-0.023005
-0.014247
-0.032702
-0.021582
0.163511
-0.081605
-0.120242
-0.030403
-0.047258
-0.087698
-0.174479
0.045520
-0.154594
-0.148551
0.064613
-0.040584
-0.161308
-0.099205
-0.062161
0.090981
-0.056561
-0.080157
0.006366
-0.110984
-0.184103
-0.102074
-0.208666
-0.096176
-0.220211
-0.120371
-0.003158
-0.046496
0.095378
0.238998
0.120805
-0.193831
0.000407
-0.047378
-0.042969
0.057475
0.123328
0.076496
0.225741
0.154692
-0.103062
-0.040817
-0.052008
-0.581384
-0.100139
-0.362463
-0.199229
-0.044828
-0.043435
-0.058225
-0.094442
0.012680
-0.063411
0.084090
0.084014
0.004755
0.099101
-0.125527
-0.294907
-0.186039
-0.055385
-0.173383
-0.094063
-0.202165
-0.075872
0.060148
0.142439
-0.251142
-0.019423
0.098597
0.011797
0.149071
0.098049
0.091041
0.104406
-0.064583
0.033047
-0.048196
-0.233207
0.057584
-0.114615
0.073802
-0.074406
0.032869
-0.105547
-0.170234
-0.155340
-0.116032
-0.100677
0.136113
0.126499
0.108856
0.136923
-0.060839
-0.036800
-0.068646
-0.223191
-0.479477
-0.580761
-0.299319
-0.064793
-0.197918
-0.244855
0.134589
-0.100867
0.051286
0.004179
-0.089418
-0.166607
-0.036577
0.118931
0.002076
-0.231024
0.075032
-0.171848
-0.071327
0.104815
0.028248
0.216831
-0.134109
0.189427
-0.017760
0.251847
0.251462
0.044770
0.032845
0.076452
-0.143574
0.129565
0.085948
-0.024280
-0.004025
0.150336
-0.174817
-0.013440
-0.013711
-0.136381
-0.022654
0.254762
-0.017914
0.098235
0.051723
0.068031
0.221073
0.071148
-0.034382
-0.016800
-0.096614
-0.269658
-0.091637
-0.139425
-0.105534
-0.106529
-0.109984
0.120833
-0.043566
-0.001452
-0.013767
-0.037152
-0.078268
-0.113289
-0.036037
-0.203247
-0.077470
-0.004565
-0.067680
-0.077240
-0.017481
-0.026079
0.008133
0.114256
0.037705
0.069559
-0.000747
0.102758
-0.054604
-0.008988
-0.003635
-0.031781
0.131508
-0.033482
0.058345
0.107917
-0.134020
-0.188209
-0.030486
0.009260
-0.066679
0.123657
0.110284
-0.047012
0.062956
0.043869
-0.198131
-0.045235
-0.235411
0.030232
0.055419
-0.077133
-0.119093
0.104650
0.037498
-0.303140
-0.184837
-0.082097
-0.086977
-0.049281
-0.134628
0.056076
0.114661
0.050919
-0.146196
0.012787
-0.067686
-0.399067
-0.248912
0.159926
-0.153344
0.031742
-0.010951
0.000680
0.097016
0.160092
0.041145
0.008054
0.017720
0.067317
-0.150044
0.004174
0.124711
0.251774
0.231287
0.084499
0.174301
0.106881
-0.115942
0.005327
-0.122109
-0.021527
0.115147
0.006529
0.029679
0.000877
0.033944
0.006423
-0.011074
-0.084153
0.153855
-0.038796
-0.187131
-0.113850
-0.296773
-0.230705
-0.058491
0.017597
-0.048212
-0.136149
-0.136808
0.034830
0.056195
0.125627
0.032599
-0.011179
0.072359
0.010222
-0.008058
0.047096
0.177980
-0.102830
0.114826
-0.150075
0.021670
-0.002824
-0.098989
0.171589
0.004612
0.094029
0.798023
0.072158
0.040900
0.030969
-0.257887
-0.050129
0.039141
-0.123441
0.066401
0.020654
-0.108681
0.125711
0.011997
0.065833
0.158891
0.065390
-0.032151
0.045327
-0.103799
-0.296806
-0.303879
-0.151892
-0.236184
0.008878
-0.104362
0.032806
-0.003229
-0.026111
-0.038714
-0.061222
0.064008
0.003824
-0.047615
-0.209140
-0.121595
-0.013227
-0.184040
-0.004556
-0.060634
0.040748
0.045977
0.096762
0.017688
0.127192
-0.018313
-0.124463
0.019005
-0.119919
0.120656
0.054571
0.023419
-0.015059
0.053205
-0.056249
-0.135379
-0.050114
-0.010380
-0.094516
-0.115872
-0.294380
-0.054499
-0.034660
0.073062
-0.079737
-0.170902
-0.178288
0.022700
0.041684
0.016318
-0.165944
-0.068580
-0.189065
-0.127022
-0.095019
-0.105321
-0.037695
0.001620
0.137494
0.008715
0.047541
0.019797
-0.178877
0.013726
-0.034674
-0.061637
0.090164
-0.066995
0.104661
0.161839
0.001644
-0.114003
0.018021
-0.062789
-0.135043
-0.161783
-0.079884
-0.070739
-0.149521
-0.139963
0.104924
-0.014674
-0.139052
0.021688
-0.025436
0.063656
-0.064532
-0.090248
0.002657
0.066990
-0.010643
0.001646
-0.181266
-0.075157
-0.044499
0.031771
0.156571
0.029752
-0.018729
0.038122
0.029716
0.021067
0.049065
-0.022769
0.081307
-0.076003
0.017133
0.013657
0.023499
-0.192145
0.046583
0.072702
-0.206807
0.039273
0.022748
0.213676
0.113572
0.087887
0.073828
0.089591
0.129953
0.246084
0.055302
-0.211603
-0.171584
0.169173
0.029521
-0.114707
0.042805
0.031880
0.052784
0.126684
-0.013516
-0.084019
0.127488
0.135499
0.031349
0.053117
0.064314
0.033691
-0.239395
-0.301873
-0.315035
-0.259440
-0.283411
-0.298169
-0.049223
-0.233521
-0.035700
0.015052
0.058054
-0.056548
-0.061420
0.015434
-0.068682
-0.032984
-0.040644
-0.022861
0.010738
0.168220
0.009657
0.015422
0.141396
-0.015502
0.050744
0.068978
0.088807
0.018903
0.150625
-0.182067
0.107359
0.141539
-0.249677
0.070076
0.188877
-0.114858
-0.074303
-0.174607
-0.123579
-0.034351
-0.138535
-0.050023
-0.033258
0.000260
-0.196620
-0.048900
0.084956
0.056324
-0.074220
-0.062810
-0.188284
-0.083513
-0.067123
-0.206642
-0.033080
-0.164846
-0.090034
-0.104294
-0.024212
-0.014460
-0.217911
-0.200901
-0.054191
-0.037820
0.013709
0.034408
0.025486
0.085968
0.074710
0.042559
0.016068
-0.055296
-0.050501
0.051346
-0.047459
0.117702
-0.088869
0.088641
-0.027259
0.019711
0.050995
-0.143435
-0.044959
-0.213419
0.126596
0.170938
0.130475
0.094511
0.019157
0.134975
-0.112366
0.056576
0.018688
0.018040
0.034881
-0.027269
-0.064211
0.024460
-0.043100
-0.150101
-0.111819
0.001111
-0.122061
-0.179847
-0.118269
-0.106348
-0.067222
0.033047
0.073961
0.052503
-0.105791
-0.032629
0.143263
0.076869
-0.009228
-0.009027
0.133099
-0.147780
-0.070176
-0.025068
-0.044027
-0.045361
-0.051637
-0.130029
-0.232041
-0.201603
0.040710
-0.137509
0.101878
-0.030268
-0.274893
-0.045204
0.014635
-0.104002
0.031488
0.089731
-0.074936
-0.053716
-0.055942
-0.127423
-0.084372
-0.073006
-0.239910
-0.217168
0.011773
0.059133
-0.077437
0.163611
0.040605
-0.014968
0.144433
0.142330
0.149963
0.171062
-0.031516
-0.119120
0.140464
0.120166
-0.050549
0.004731
0.080649
0.030170
-0.140180
-0.027891
-0.147804
-0.044685
0.138043
0.012359
-0.052002
0.181925
0.142805
0.092361
-0.061412
-0.273566
0.014400
-0.118172
-0.275071
-0.006523
0.011766
-0.124009
-0.121034
-0.104187
-0.192301
0.040491
-0.129321
-0.051376
-0.072499
-0.157392
-0.135942
0.197769
-0.033884
-0.089527
-0.006239
-0.048276
-0.041633
0.153886
0.113774
-0.198897
0.120518
0.128949
-0.038331
0.079425
-0.020502
0.089120
0.091867
0.057792
0.227594
0.107707
-0.033350
-0.124434
0.077947
0.128516
-0.171715
0.054546
-0.070447
-0.191704
0.178465
0.028515
-0.035789
-0.281290
-0.061917
0.053416
0.017946
0.167005
0.080732
-0.217426
0.065823
-0.093354
-0.060938
-0.149764
0.041983
0.030025
-0.082020
-0.161589
-0.210895
-0.116202
-0.201449
-0.133720
-0.144987
-0.115135
0.005870
0.016855
-0.087352
-0.039281
0.092525
-0.087689
0.143632
0.096605
-0.040008
0.183064
0.141577
-0.031706
0.041667
0.030090
0.065496
0.063041
-0.138493
-0.126936
0.183599
0.034014
0.003511
0.173328
0.240806
-0.148413
-0.122774
-0.073459
-0.094812
-0.376440
-0.151880
-0.147247
-0.020603
0.272209
0.088803
-0.003329
-0.124194
0.192078
0.196718
-0.183305
0.092636
0.000236
-0.030812
-0.040796
0.128055
-0.192351
-0.116327
0.149641
-0.275743
-0.353072
-0.112838
-0.056072
0.155569
-0.457575
-0.185387
0.085882
-0.408798
-0.311191
0.109647
-0.060917
-0.096684
0.129973
-0.189488
0.018713
-0.101695
-0.044285
-0.029745
-0.153129
-0.009144
0.004489
-0.213408
0.155373
0.101975
-0.196482
0.272996
0.147273
-0.160788
0.168419
-0.084750
-0.177771
0.180878
-0.233103
-0.279562
0.356413
-0.057574
-0.101874
0.116227
-0.062595
0.081292
0.171538
0.062572
0.015526
0.098995
-0.141267
0.106587
0.042387
0.123324
-0.173023
-0.199965
0.009219
-0.068433
-0.056965
0.040511
-0.130633
0.038922
0.245903
0.134829
-0.001868
-0.103417
-0.069338
0.105931
-0.283789
-0.034555
-0.156451
0.105537
0.300652
-0.284586
-0.116125
0.054715
-0.000495
0.050576
0.125552
-0.093986
-0.191729
0.095075
0.067900
-0.152919
0.024603
-0.049699
-0.113977
-0.072914
0.032017
0.128974
-0.201512
0.194830
0.106682
-0.086180
0.113851
-0.156835
-0.167543
0.104416
0.041732
0.009123
0.015879
0.011507
-0.050164
0.140037
-0.104737
-0.080695
-0.121770
0.299226
0.116941
-0.200926
0.022634
0.262128
-0.274705
0.058817
0.329600
0.062000
-0.025528
-0.044716
0.163240
0.000281
-0.127667
0.062513
-0.013948
-0.034776
0.053946
0.037203
-0.214063
-0.065561
0.047950
-0.245490
-0.010877
-0.019147
-0.197694
-0.156717
-0.011122
0.264245
-0.298073
-0.230701
0.174209
-0.196762
-0.231276
0.042390
0.126971
-0.139723
0.084295
0.163501
-0.034706
-0.033234
0.010128
-0.013817
-0.085917
-0.017820
-0.181562
-0.069453
0.107873
-0.306295
-0.085458
0.091822
-0.293454
-0.120511
0.092329
-0.158878
0.036240
-0.002868
-0.074447
-0.054675
0.053363
-0.098638
-0.007358
-0.082925
0.039800
-0.093139
-0.052400
-0.072886
-0.030499
-0.053781
0.037450
-0.194802
-0.186519
0.036170
-0.102683
-0.202108
-0.124141
-0.163056
-0.100582
-0.091155
-0.049655
0.113869
-0.146492
-0.152927
0.013164
0.044918
0.054475
-0.064841
0.083025
-0.064388
-0.046022
0.113118
0.076414
-0.058100
-0.045428
-0.056266
0.107040
-0.017958
0.037426
0.128166
-0.009132
-0.090621
0.007880
0.067006
-0.002943
-0.062995
0.106799
-0.098293
-0.053837
-0.074472
-0.088104
-0.049160
-0.090947
-0.130089
0.019492
-0.101261
-0.067124
-0.159620
-0.010614
-0.126482
-0.161853
-0.143237
-0.242346
-0.180108
-0.086587
-0.207411
-0.027648
0.033399
-0.055388
0.063167
0.047816
-0.029579
0.055392
-0.085941
-0.075554
0.011714
-0.118671
-0.163694
-0.131550
-0.207486
-0.112132
0.002454
-0.007029
-0.084279
0.164327
-0.000973
-0.022976
0.095443
0.056777
-0.020973
-0.004209
-0.073358
-0.053522
-0.004449
-0.055809
-0.160112
-0.045138
-0.108063
-0.122148
-0.140360
-0.024338
-0.180189
-0.016886
0.183547
0.049151
0.007668
-0.056275
-0.021026
-0.102043
0.038307
-0.012396
0.079070
0.007179
0.056977
0.049513
-0.004504
-0.002104
-0.088765
-0.133775
0.044578
-0.219489
-0.089931
-0.160150
-0.071968
-0.113539
-0.192124
-0.059775
0.005365
-0.167952
0.009185
-0.133974
-0.069130
0.071547
-0.049618
-0.100346
-0.080448
-0.073545
-0.003936
-0.058653
-0.122092
0.042781
-0.139807
-0.121979
0.025434
-0.204899
-0.002381
0.078172
0.112216
-0.067194
-0.074088
0.072211
-0.094426
0.028928
0.024505
-0.040357
0.024532
-0.007725
0.002096
-0.013970
0.030906
-0.088538
0.085923
0.107578
-0.039944
0.037033
-0.003178
-0.037871
-0.057243
0.082882
-0.029166
-0.102922
-0.118421
-0.024928
-0.094218
-0.201353
-0.097096
0.042674
-0.173496
-0.027128
-0.018361
-0.054579
0.025153
-0.116002
-0.040119
-0.018773
0.102811
-0.024089
0.052447
-0.134806
-0.103057
-0.102177
-0.008406
-0.047674
-0.016573
-0.149925
-0.199149
-0.197330
-0.096939
-0.010845
-0.057249
-0.151999
-0.263894
-0.076635
-0.082895
-0.159294
-0.038898
-0.061468
-0.138581
-0.139912
-0.049211
-0.153395
-0.008904
-0.003225
-0.104712
-0.013258
-0.122340
-0.117552
0.012799
-0.025735
0.026309
0.015288
0.030249
0.046278
-0.093857
-0.033873
-0.070337
0.088916
-0.057274
0.100371
-0.063355
-0.121625
-0.181134
-0.053274
-0.272038
-0.079995
-0.069078
-0.119314
0.053749
0.023916
-0.091308
0.016412
-0.057169
-0.137322
0.079060
0.010658
0.003794
0.059221
-0.053920
-0.049394
-0.116098
-0.005591
-0.071734
-0.073198
0.065013
-0.030234
0.060250
-0.038333
-0.105321
0.042005
-0.021968
-0.037143
-0.136085
0.002267
0.019692
0.280098
-0.002160
0.003896
-0.019219
0.113926
0.111476
-0.046531
0.052605
0.020967
0.049171
-0.108609
0.004871
-0.166103
-0.069235
-0.084371
-0.199637
-0.102877
-0.078214
0.184744
0.087779
-0.141634
-0.056762
-0.026680
-0.007740
0.100492
-0.115323
0.083453
0.132838
0.038786
-0.080074
-0.008166
0.125640
0.128119
-0.128006
0.001200
0.061141
0.131305
0.009410
-0.337020
0.137535
0.141108
-0.212193
0.037775
0.114752
-0.106591
-0.011636
0.162079
-0.025253
-0.082185
0.043644
0.052613
-0.120044
-0.062542
0.274882
-0.211381
-0.190984
0.042115
-0.003845
0.107971
0.073595
0.066914
-0.084418
-0.114783
0.004821
-0.079302
0.004788
0.060605
-0.145544
-0.163628
0.207909
-0.120843
-0.037334
0.037608
-0.097344
-0.318566
0.144127
0.053571
-0.329541
0.102431
0.147207
-0.170755
-0.008564
-0.423120
0.185962
0.117015
-0.268988
0.076941
0.146486
-0.010491
-0.078537
-0.071340
0.057308
-0.005792
-0.123451
0.000370
0.248851
-0.014837
-0.117133
0.210016
0.042847
0.035609
0.197024
0.046078
-0.026049
0.099080
-0.047127
-0.159889
0.069052
0.102097
-0.001614
0.066321
0.033189
-0.050484
-0.131718
-0.085556
-0.197635
0.026284
-0.116344
0.057940
0.027363
0.057803
-0.233990
-0.022739
-0.153117
-0.156524
0.004316
-0.212169
-0.332730
-0.511203
-0.037674
-0.001165
-0.086798
-0.172119
-0.032749
-0.002371
-0.509926
-0.224473
-0.159321
-0.164423
0.072787
0.162355
-0.016953
0.063135
0.125534
-0.184377
-0.021760
0.059773
0.016924
-0.020294
0.008382
0.145218
0.010911
0.029036
-0.039434
-0.152738
-0.139662
0.122878
0.132828
-0.024946
-0.009964
0.015096
0.036387
0.015176
0.107708
0.022638
0.086232
0.034338
-0.008833
0.025633
0.036011
0.076232
-0.111484
0.019435
0.064672
0.091655
-0.096865
0.027827
-0.094130
-0.204088
0.076344
-0.089090
0.070209
0.006897
-0.110637
-0.133668
-0.196696
-0.115253
-0.049061
-0.188746
-0.226352
0.040084
0.035588
-0.123594
0.075647
0.057354
-0.212364
0.055054
0.118027
0.100364
0.099596
-0.071424
-0.094290
0.128438
0.213450
-0.197263
0.021864
0.123371
-0.135584
0.020061
-0.135354
-0.039370
0.073227
0.103940
-0.280469
-0.139964
-0.081435
-0.212013
-0.115597
0.134880
-0.128059
-0.323218
0.130888
0.135163
-0.287336
-0.008376
-0.159303
-0.433108
0.237668
0.112921
-0.408062
0.078475
0.196887
-0.077924
-0.064979
-0.213568
0.097218
-0.119587
0.087708
0.071417
-0.096385
0.178562
-0.071639
0.101663
-0.031088
-0.019691
-0.021948
0.060674
-0.017949
0.023311
-0.010282
-0.035796
0.078687
0.014649
-0.200758
-0.065754
0.041993
-0.158170
-0.115915
0.061173
-0.212341
-0.213734
-0.161160
-0.103500
-0.010638
0.085119
-0.143118
-0.032338
0.039839
-0.045283
0.000619
0.107559
-0.170293
-0.175645
0.090784
-0.086056
-0.000603
-0.034583
-0.160878
0.041862
-0.088578
0.164101
0.176300
-0.235123
-0.256027
0.036112
-0.399662
-0.620458
-0.348901
0.000975
-0.006193
-0.063498
0.119796
0.075103
-0.018367
-0.068081
0.107831
-0.002803
-0.194581
-0.506720
-0.013692
-0.146421
-0.311336
-0.080063
0.202081
-0.053841
-0.166200
-0.013344
-0.053243
0.068799
0.049494
0.034629
-0.006023
-0.011881
-0.144295
-0.182495
