0.075031
0.086878
-0.146198
-0.100221
0.098682
-0.204463
-0.131834
0.188263
0.058743
-0.197094
-0.110747
-0.059439
0.064104
-0.069317
-0.324291
0.344845
-0.302750
-0.123060
0.053576
0.133599
-0.222054
0.009028
-0.023581
-0.171154
-0.051067
-0.055306
0.030181
0.020834
-0.275189
-0.011491
-0.113700
0.098486
-0.022725
0.024432
0.072194
-0.073270
0.119457
-0.157395
0.117087
-0.041657
-0.307113
-0.080087
-0.118299
-0.007002
-0.036337
-0.064677
-0.060498
-0.009955
-0.044153
0.011809
0.064071
0.007633
-0.039537
0.048167
0.073582
-0.116553
-0.197909
0.194635
0.033216
-0.443837
-0.189815
-0.115805
-0.148380
0.049318
0.012601
-0.110414
0.043848
-0.040563
0.225505
-0.135050
-0.169196
-0.176629
-0.049541
0.026741
-0.274760
-0.320502
0.081739
-0.218031
-0.002995
-0.098726
-0.122845
-0.141527
0.160791
-0.154508
-0.197797
-0.154302
-0.030798
-0.337826
-0.143146
-0.016076
0.077424
-0.102414
-0.125198
-0.066158
-0.147942
0.126092
0.069422
-0.122378
-0.069758
-0.170106
-0.221169
-0.189301
0.001735
0.078286
-0.012337
-0.146642
-0.183627
-0.017780
0.107216
-0.210417
-0.112794
-0.093458
-0.127378
-0.222489
-0.006521
-0.055272
0.113704
-0.099458
0.179970
0.001555
-0.033923
0.052647
0.144771
-0.308468
-0.305562
-0.091965
-0.164948
0.207638
-0.011741
-0.060985
0.095968
-0.019792
0.137059
-0.148064
0.157266
-0.022611
0.103662
-0.029555
-0.196917
-0.151913
-0.099991
-0.225554
-0.029168
0.205259
0.190872
-0.201306
-0.035524
0.057044
-0.231030
0.058600
0.007599
-0.240604
0.052752
-0.206535
-0.200361
-0.040201
-0.001835
0.078910
-0.064765
-0.000224
0.022872
0.002979
0.287041
-0.101792
-0.220955
-0.183710
0.018298
-0.097263
0.287091
-0.478243
0.057820
0.255353
0.002463
0.048606
0.053334
-0.455284
0.025999
0.058505
-0.063946
-0.193682
-0.235857
-0.135879
-0.111619
0.162739
0.000008
-0.084179
0.172737
-0.044261
0.082254
0.103094
-0.234899
0.092361
-0.076721
-0.219564
-0.017436
-0.126297
-0.054746
-0.034979
0.207748
0.011146
-0.174918
0.022306
0.071439
-0.277454
-0.124045
-0.062074
-0.024695
-0.093113
0.213451
-0.192134
-0.163648
0.103927
-0.178021
0.147072
0.026830
0.017889
0.104117
0.110670
-0.122158
-0.063166
-0.158743
-0.078059
0.069726
-0.157656
-0.009562
-0.173752
0.156909
0.111008
-0.109700
-0.335464
0.128951
0.100641
0.004094
-0.075519
0.112596
-0.010272
-0.095269
-0.094843
0.023752
-0.239483
0.030613
0.011720
-0.002255
-0.262021
-0.175804
-0.032674
0.028905
-0.152251
-0.001000
-0.118863
-0.004713
0.084071
0.250982
0.048721
-0.239977
-0.122635
0.164132
-0.138366
0.042082
0.037728
-0.139388
-0.014686
-0.118279
-0.164990
0.135615
0.023618
0.065533
-0.199063
-0.279232
-0.209973
0.163875
0.069673
-0.156135
0.060455
-0.403030
0.156374
-0.337233
-0.139811
-0.034740
-0.059948
-0.201570
0.070710
-0.167486
0.005442
0.045372
0.000755
-0.092110
0.056085
0.086574
-0.012692
0.205461
0.060272
-0.234420
-0.179868
0.099355
0.131351
0.123983
-0.421537
-0.001936
-0.126043
-0.108919
-0.216435
-0.097601
-0.196760
0.071729
-0.065213
0.023888
-0.212146
-0.116425
-0.125889
-0.005924
-0.203497
-0.053940
-0.027946
0.110946
0.142506
0.265067
-0.004921
-0.255696
-0.022440
-0.032284
-0.159510
0.085155
0.194542
-0.164434
-0.234667
-0.225394
-0.313767
0.098032
0.060363
-0.084511
-0.466552
-0.310621
-0.157326
-0.132285
0.097169
0.003333
-0.212200
-0.024185
0.081846
-0.058218
0.208390
0.016903
-0.136255
0.033417
-0.395469
-0.141460
-0.071973
-0.060645
-0.090881
0.088980
-0.110249
-0.061773
-0.060172
-0.003817
0.068505
-0.000102
-0.292885
0.113729
0.007500
0.025482
-0.461210
-0.054956
-0.191436
-0.166371
-0.166612
-0.108349
-0.043645
-0.060009
-0.035661
0.079088
-0.233289
0.123265
0.092017
0.030843
-0.127222
0.136929
0.054207
0.044373
-0.147343
0.042960
-0.114973
-0.052957
0.153830
-0.183219
-0.230045
0.088039
-0.067536
-0.254870
-0.177878
-0.021034
-0.091546
0.072228
-0.030152
-0.143552
-0.126318
-0.318096
-0.065122
0.067080
0.101037
-0.018339
-0.560723
-0.241234
-0.215061
-0.256040
0.042544
0.005847
0.041547
-0.199167
-0.248484
0.060335
0.084965
-0.238605
-0.237541
-0.142859
-0.160782
0.091372
-0.252276
0.054049
0.151011
-0.352863
-0.249084
0.038090
0.086697
0.062838
0.007698
0.027856
-0.513720
-0.253016
0.124701
-0.094534
-0.125687
-0.216861
0.257835
-0.030349
-0.050770
-0.215885
0.044604
0.043771
-0.001473
0.006919
-0.037305
0.186441
0.037226
0.166837
-0.042735
-0.185202
-0.006443
-0.047212
-0.036062
-0.082100
-0.062409
0.081570
0.120411
-0.014195
-0.062123
0.140584
-0.008923
-0.171505
0.104282
0.001702
-0.272579
-0.099597
-0.313896
-0.279759
-0.518134
-0.010012
0.379991
-0.051959
-0.035849
0.032181
-0.355060
-0.221070
-0.106629
-0.106324
0.092236
-0.128113
0.035603
0.067349
-0.090002
0.041824
0.058293
-0.107441
0.077778
-0.037196
-0.337477
0.044684
0.072180
-0.013565
-0.651283
0.056867
-0.049239
-0.114618
-0.269497
0.055581
0.046309
0.098802
-0.153939
-0.094718
-0.021139
0.075192
-0.050706
0.045419
0.082540
0.107633
-0.061549
0.158058
-0.115361
0.121750
-0.024594
0.136749
0.108409
-0.004386
-0.004884
-0.162382
-0.231717
-0.083785
0.007467
0.347441
-0.030654
0.154381
-0.039368
-0.019720
0.111448
0.040025
-0.225095
-0.252757
0.221076
-0.256995
0.086554
0.302873
0.148538
0.042727
-0.045767
0.023196
-0.097360
0.070940
0.031770
0.103783
0.145516
0.050438
-0.029220
0.001495
0.102215
-0.072658
0.039312
0.003772
0.124266
-0.092253
-0.256254
-0.147558
-0.016066
0.081447
-0.011896
0.235865
0.092603
-0.257633
0.202454
-0.042370
0.020062
-0.148236
-0.272481
0.092885
-0.052114
0.009971
0.094236
0.047667
-0.227698
0.118823
-0.201380
0.115132
0.122626
0.052356
0.023061
-0.482308
-0.049921
0.095036
-0.071246
0.154571
-0.096162
-0.119949
-0.128344
0.211287
-0.119640
0.055501
0.095913
-0.198358
0.119979
0.126022
-0.263470
0.041774
0.076489
-0.337448
-0.040621
-0.193617
-0.034446
-0.101490
-0.179321
0.001586
-0.152074
0.116026
0.064731
0.057495
0.077341
-0.137560
0.016492
-0.133101
0.091073
-0.021446
-0.014001
-0.001230
0.078856
-0.124387
-0.365476
-0.094482
-0.102241
0.017631
-0.214185
0.108677
0.138532
0.095826
0.080364
0.007251
-0.040807
-0.205176
-0.280022
0.013063
-0.221692
0.085588
-0.140745
0.048591
-0.014205
0.086912
-0.015178
0.023234
-0.245904
-0.289203
-0.059855
-0.120877
0.065538
0.078245
0.193171
0.202619
0.069115
-0.073711
0.067167
0.107136
-0.035721
0.069266
0.039615
-0.136551
0.234403
0.034428
-0.114795
-0.079537
0.256777
-0.279510
-0.057509
-0.146972
0.027105
-0.030766
-0.071821
0.011984
-0.129498
0.148103
-0.238614
0.055853
0.016024
-0.045926
0.121918
-0.180142
0.078086
0.046093
-0.033687
0.076428
0.107332
-0.209766
-0.278153
0.081360
0.066370
-0.063007
-0.115265
-0.155768
-0.057665
-0.080430
-0.014438
-0.079130
0.026370
-0.295075
-0.223121
0.000165
-0.324903
-0.071732
-0.231437
-0.044262
-0.135934
-0.061739
0.043326
0.021293
-0.156274
-0.001708
-0.072926
-0.080030
-0.102542
-0.123397
-0.061496
0.107664
-0.150668
-0.044968
-0.047719
-0.065926
-0.190116
0.038594
-0.005118
-0.196679
-0.030524
0.100714
-0.155515
-0.197732
0.191843
0.106536
-0.047473
-0.011307
-0.050432
-0.144072
0.086018
0.008034
-0.022003
0.071936
-0.050960
-0.063776
-0.063263
-0.102324
-0.021707
0.007105
0.005016
0.022120
-0.095394
-0.241443
0.057118
-0.116688
-0.253629
0.130765
0.017702
0.099814
-0.253791
-0.129046
0.007860
0.063104
-0.029053
-0.063970
-0.060388
-0.088547
0.227430
0.048943
-0.225903
-0.079048
-0.126563
-0.217264
-0.065739
-0.071086
0.072059
-0.057154
-0.172743
0.049503
0.084436
0.029403
0.082009
0.027263
0.128743
0.006908
-0.036621
0.165083
-0.043923
0.109766
-0.225984
0.201639
0.188857
-0.144380
-0.125872
-0.020010
-0.030682
-0.028894
-0.082096
0.031351
0.059846
-0.159425
0.094467
0.146180
-0.151649
-0.036092
-0.092686
-0.057252
0.075918
-0.114624
-0.039951
0.166128
0.119868
0.011371
0.130559
-0.015283
-0.124526
-0.157035
-0.113330
-0.160020
-0.123342
0.024796
0.053823
0.105450
0.157026
0.017936
-0.052694
-0.009867
0.032978
-0.175260
-0.071788
0.049163
0.169675
-0.016975
-0.157505
0.148461
-0.153607
0.124966
-0.157394
0.003430
-0.079835
0.161058
-0.019592
0.034430
0.187562
0.042167
0.277737
-0.132706
-0.025103
0.068680
0.037317
0.095679
-0.237314
0.095226
-0.152553
0.041475
0.147620
-0.106771
-0.398023
0.170632
-0.178158
-0.089679
0.124951
-0.047196
-0.119210
-0.181933
0.130174
0.176445
0.036195
0.001257
-0.017097
-0.178531
0.087642
-0.132777
0.002135
-0.041447
-0.137403
0.073685
-0.031151
-0.061901
0.152418
-0.012129
-0.142612
0.077938
0.089367
-0.147569
-0.031046
0.141641
0.216211
-0.220955
-0.286640
-0.047693
0.194828
-0.120856
-0.080972
0.063414
0.013741
0.005677
-0.261067
-0.032615
0.016815
0.070900
-0.093573
-0.162218
0.021489
-0.080248
0.062692
0.149703
0.122394
-0.156778
-0.124692
-0.034366
-0.274985
0.148097
-0.078085
-0.084343
-0.009542
-0.206205
0.040522
-0.153345
-0.064634
0.204903
-0.191854
-0.058272
-0.206592
-0.014489
0.188293
-0.009685
-0.220546
0.011842
-0.286294
0.408123
0.011171
-0.022067
0.132162
0.012551
-0.056572
-0.114720
0.004443
-0.120421
0.033262
-0.040993
-0.037664
0.053735
0.098561
-0.121081
0.042350
-0.035126
0.089340
0.194013
-0.057567
0.049507
-0.044274
0.071264
-0.178478
0.067281
0.051680
-0.328441
-0.077902
0.089065
-0.212258
-0.061279
-0.075065
0.063501
-0.005982
0.127601
0.142409
0.066797
-0.098706
0.196315
0.127358
-0.103769
0.001800
-0.163601
0.039967
-0.071796
0.013897
0.119960
-0.129441
0.086662
-0.179253
0.251157
-0.096608
-0.404111
0.076609
0.107899
-0.062268
-0.176448
-0.010213
0.186603
-0.035452
-0.125152
-0.192090
0.186392
-0.014834
0.005858
0.145757
0.042851
-0.020585
-0.102361
-0.046609
-0.042270
0.235728
0.072033
-0.195650
-0.080425
-0.217300
-0.022577
0.234175
0.023426
0.009689
0.054700
0.000197
0.167258
0.077000
-0.045985
-0.137363
0.002487
-0.099651
0.166901
-0.036643
0.021706
0.232842
-0.006305
-0.275689
0.055015
-0.113841
-0.143048
0.017618
0.087581
0.070363
0.105052
0.218032
0.012008
0.185447
-0.283548
0.054410
0.183245
0.029001
0.145404
-0.012413
-0.002304
0.038126
0.187506
-0.091759
0.016796
0.043423
0.189425
-0.063493
0.012570
-0.057512
-0.026996
-0.018061
-0.021539
0.025923
-0.151381
-0.005573
-0.135643
0.019166
-0.219126
0.116154
-0.008548
-0.022463
0.111696
-0.070420
-0.042050
-0.089012
-0.022450
-0.008257
-0.061202
0.231259
-0.110617
-0.199202
-0.102339
0.048528
-0.116814
-0.117020
-0.142460
-0.082072
0.167456
-0.076036
0.025799
0.184721
-0.011541
0.253883
-0.170319
0.148442
-0.154275
0.042909
0.014165
-0.136081
-0.063958
0.114980
-0.009144
0.167422
0.198174
-0.047486
-0.010627
-0.210706
0.158037
0.138103
-0.152333
0.001200
0.143220
0.059143
0.067157
-0.070909
-0.116155
0.057747
0.112841
-0.009776
0.085960
-0.080443
0.130038
-0.373438
0.184716
-0.009182
0.124052
0.028075
-0.205447
0.049700
-0.056835
-0.127497
-0.214932
-0.281226
-0.016053
-0.118826
0.190989
-0.047871
-0.116240
0.209020
-0.286138
0.112720
-0.055298
0.261543
0.062810
-0.028192
0.070098
0.018697
-0.019389
-0.180955
0.075222
-0.022394
0.011865
-0.027790
-0.074630
0.146683
-0.008288
0.294714
0.139570
-0.069879
-0.054291
0.014631
0.048292
-0.268250
0.158592
-0.020946
0.073861
-0.056255
-0.049732
-0.035368
-0.006573
0.138135
0.091883
0.070423
0.009397
0.021998
0.033967
0.012256
0.092904
0.165610
-0.154115
-0.046908
-0.032360
-0.050500
0.111339
0.148124
-0.094984
-0.229406
0.153240
-0.204031
-0.151561
0.199404
-0.209866
0.092236
-0.176837
-0.090903
-0.081209
-0.046897
0.007506
-0.035232
0.191398
-0.027613
0.048565
0.049381
-0.058644
-0.016356
-0.185469
0.101525
-0.184059
-0.019049
-0.178020
-0.061086
0.009609
-0.004011
0.008559
0.153642
0.054223
0.146630
0.131897
-0.027068
0.041486
0.037052
-0.027040
-0.050407
-0.170207
0.121186
0.121937
-0.163714
0.094655
-0.259054
-0.183074
-0.216230
0.036978
-0.012865
0.055728
0.006511
-0.097846
-0.090201
-0.252253
0.082913
0.043343
-0.144663
0.070376
0.063670
-0.078656
-0.003505
0.165327
-0.191606
0.169636
0.214619
0.032307
-0.126481
0.016215
-0.020288
-0.013180
0.202166
0.121479
-0.028138
0.080461
-0.106357
-0.051499
-0.015996
0.033941
-0.267631
0.039881
-0.027907
0.158854
0.129054
-0.015447
0.017307
0.221133
-0.092269
-0.120238
0.060557
-0.101545
-0.032131
-0.025217
-0.048928
-0.121277
0.216438
0.066819
0.033221
-0.107002
0.085593
0.072487
0.178730
-0.045432
0.028571
0.032997
-0.142580
0.150433
-0.186354
0.019239
-0.048873
-0.118610
-0.136990
0.173248
0.047416
0.019272
-0.104037
0.057549
-0.089649
-0.114762
-0.027797
-0.120313
-0.204682
-0.015679
0.352270
-0.119834
-0.295688
0.119143
0.201582
-0.141428
0.104969
-0.009979
-0.057843
0.064729
0.237595
0.036386
-0.043773
0.064356
-0.018764
-0.080932
-0.077609
-0.174516
0.082495
0.008080
-0.025859
0.195527
-0.019491
0.024652
0.212393
0.092708
0.052253
0.058768
-0.049342
0.024595
0.173126
-0.196318
0.130069
-0.016816
-0.088849
-0.103640
0.021212
-0.024309
-0.166929
0.073991
-0.025089
-0.076165
0.080099
0.000298
-0.160330
0.023195
-0.083503
0.001589
-0.092782
-0.065639
0.013580
0.101348
-0.040978
0.049461
-0.080753
0.053694
-0.193332
0.021770
0.051226
-0.240191
0.154592
-0.001099
0.135423
0.029240
-0.011531
0.139337
-0.160985
0.165235
-0.164868
0.156409
-0.089907
0.023603
-0.036591
0.002812
0.101302
-0.025777
0.063245
0.087763
-0.027612
-0.113466
0.093024
0.104864
0.191539
0.002965
0.166268
-0.093295
-0.054538
-0.005121
-0.044734
-0.057226
-0.166420
-0.004134
-0.129121
-0.074354
0.143193
-0.105500
0.175943
0.111062
0.007144
-0.000294
-0.017649
0.184132
-0.112498
-0.121760
-0.231558
-0.036882
0.052926
-0.209209
-0.148777
-0.014645
-0.035586
-0.090770
-0.104643
0.046049
0.032081
0.103424
0.093191
0.104096
0.008485
-0.032825
-0.031151
0.268023
0.241861
0.120996
-0.090155
-0.020762
-0.153688
-0.100039
-0.046795
-0.167677
-0.200611
-0.239801
0.084953
0.041986
-0.075640
-0.066255
-0.103494
-0.084123
-0.050795
0.091004
0.187208
0.354413
-0.125432
0.029371
0.027656
-0.118053
0.165204
0.001952
0.064407
-0.038861
0.172392
-0.131351
0.160555
-0.248717
-0.069278
0.080760
0.110735
0.093622
0.169132
0.030699
0.144028
0.053415
0.194493
0.070055
-0.073799
0.007660
-0.334103
-0.094395
-0.148043
-0.111972
-0.091037
-0.219723
-0.125693
-0.116237
0.022000
-0.063943
-0.237995
0.125703
0.139348
-0.112028
0.158701
0.142115
-0.038018
-0.012967
0.271615
0.135554
-0.245692
-0.066044
-0.001537
0.105098
0.090980
-0.102208
-0.021998
-0.124201
-0.000924
0.067906
0.043616
0.039023
0.202280
0.080370
-0.110930
-0.259262
-0.192011
0.042723
-0.252687
-0.228456
0.015056
-0.033808
-0.092659
-0.040927
0.006916
-0.026174
0.134614
0.115976
0.055185
-0.085664
-0.079258
0.222198
0.181409
-0.047407
-0.068569
-0.006467
-0.076945
0.054306
0.025560
0.090126
0.047429
-0.156526
0.025374
-0.037188
0.220283
0.029373
-0.451668
-0.049197
0.001638
-0.107906
0.178365
-0.077819
-0.211567
-0.020080
0.025388
0.169189
0.002179
0.023671
-0.096516
0.211243
0.130609
-0.139599
0.264695
-0.036440
-0.139352
0.134804
-0.048910
0.054760
-0.092246
0.141387
0.139279
0.157896
0.112703
0.008569
0.005244
0.301641
0.017767
-0.244440
0.264244
0.024840
-0.361889
-0.028305
-0.056053
-0.160613
0.104556
-0.035924
-0.070277
-0.241709
-0.211332
-0.000225
0.107042
0.070727
-0.224378
-0.173756
0.011323
-0.093979
0.225884
-0.051443
0.176268
0.055146
0.031594
0.080977
-0.052189
-0.055769
-0.028276
-0.135283
0.060673
-0.091750
0.095560
0.033058
0.102027
-0.083873
0.190435
-0.077131
0.037664
-0.099736
0.129686
0.075245
-0.190265
-0.226512
-0.135760
0.103741
0.493358
-0.217160
-0.198510
-0.091717
0.062389
0.154025
-0.168158
-0.109907
0.057454
0.014490
0.050692
0.078888
-0.238671
0.421643
-0.025333
0.084719
0.032607
-0.043938
0.002657
-0.275725
-0.064938
0.155890
-0.030463
0.140317
0.198028
-0.373159
0.348287
-0.247379
-0.273963
0.083559
-0.020535
-0.031248
-0.087161
0.131365
-0.047882
-0.226899
0.042968
-0.187442
-0.002178
-0.180260
0.176141
-0.074537
-0.162020
0.089498
0.110000
-0.112581
0.021300
0.059489
0.014819
-0.059405
-0.340923
-0.023942
0.163087
-0.184326
0.070487
-0.423159
-0.399836
0.107525
-0.055701
-0.048679
-0.127945
-0.042699
-0.028491
-0.112401
-0.027395
0.028830
-0.193897
0.007521
0.069679
0.222116
-0.110483
-0.100032
-0.159719
0.206390
-0.008851
-0.040357
0.104789
-0.111250
-0.258988
0.005412
-0.102655
0.051407
0.094872
-0.273399
-0.065363
0.183192
-0.189234
-0.092983
-0.001224
-0.103122
0.205250
-0.162485
-0.094630
0.015453
-0.120235
-0.012555
-0.156976
-0.086621
0.159987
0.213109
0.095457
-0.206543
0.043432
-0.131893
-0.122840
0.066253
-0.010111
-0.065985
-0.057690
-0.012017
0.122921
0.026600
0.019107
0.171686
0.052401
0.054996
0.040437
-0.024358
0.013726
-0.043039
-0.166398
0.027979
0.005922
0.176038
-0.152635
-0.125734
-0.030555
0.076099
-0.084601
-0.068127
0.154074
0.066967
0.032968
0.079134
0.029915
0.048425
0.152081
0.116869
-0.005895
0.078359
-0.063449
-0.090782
-0.052625
-0.278925
-0.036656
-0.111697
0.154273
-0.219165
-0.177313
-0.145097
-0.029011
0.083578
0.114684
-0.064112
0.147717
-0.061172
-0.112698
-0.071619
-0.009502
-0.035753
-0.049477
0.058647
0.118358
0.115880
0.118527
-0.006457
-0.201163
0.076646
-0.092404
0.105617
-0.219122
-0.327376
0.051988
-0.038409
-0.160731
0.267491
0.112001
-0.101177
-0.178856
-0.246980
-0.008613
-0.118508
0.097015
-0.280926
0.037060
-0.030276
-0.126376
0.155914
-0.236943
-0.029455
-0.042379
0.185688
0.027821
0.033005
0.128159
-0.015661
-0.110223
0.296030
0.165826
-0.127109
0.097917
0.105623
-0.140261
-0.110266
-0.139812
-0.183909
-0.032322
-0.099678
-0.073980
0.027052
-0.072772
-0.012009
0.069845
0.063754
-0.035506
0.108514
-0.005913
-0.170769
0.009653
-0.041756
-0.460558
-0.023592
0.021133
0.009044
-0.060323
-0.155029
0.043953
0.129974
0.079943
0.072613
-0.016387
0.086169
-0.011802
0.028829
0.015041
-0.275196
0.225748
0.160394
-0.166665
0.250711
0.110115
-0.328004
-0.218386
-0.053347
-0.155733
0.178721
-0.004387
-0.006594
-0.069718
-0.058203
0.018881
0.071027
-0.160266
0.051949
-0.021251
0.093699
0.216108
0.088334
0.202145
0.043517
0.014880
0.219349
0.066303
-0.198804
0.084671
-0.067645
-0.352122
-0.000313
-0.019887
-0.257752
-0.373426
0.044591
0.023149
0.102631
0.101368
-0.196743
-0.088090
0.113560
0.054149
0.016663
-0.064070
-0.040466
-0.040932
-0.150814
-0.043760
-0.123575
0.113124
0.034050
0.038770
-0.011229
0.174725
-0.000695
0.015715
-0.067209
-0.097971
0.042429
-0.010384
0.011814
0.180382
-0.082478
-0.018456
0.167960
0.074618
-0.022686
-0.032452
-0.187206
-0.248458
-0.123489
0.007920
0.037511
-0.216073
-0.092889
-0.291135
0.008531
0.155664
-0.080317
-0.117838
-0.001328
-0.042439
0.098231
0.069778
0.082739
-0.076060
0.165966
-0.013097
-0.052182
0.029066
-0.036761
0.136259
0.021132
-0.110824
0.078274
0.034897
-0.170341
-0.192004
-0.140622
0.062335
0.113858
0.175647
-0.178975
0.022665
-0.051155
-0.247339
0.089419
-0.050430
0.235113
-0.057962
-0.187249
-0.003081
-0.064563
0.246900
-0.001871
-0.052105
0.008559
0.172063
-0.220396
0.109077
0.040063
-0.026336
0.082965
-0.118567
0.134120
0.140563
0.091193
0.094535
-0.002185
-0.001034
0.140160
0.008393
0.016061
-0.179668
-0.099927
-0.115068
0.083917
0.005058
-0.005254
-0.273184
-0.006952
-0.099157
0.011119
-0.062567
0.039411
-0.047558
-0.012509
0.115032
0.211419
0.090490
0.007403
0.265053
-0.134035
0.042987
-0.038315
0.110610
0.052635
0.327631
-0.077926
-0.116906
0.375181
-0.047934
-0.199777
0.177372
-0.116789
0.187288
0.091572
0.173923
-0.101948
-0.331300
-0.211173
-0.056378
-0.324232
-0.183119
-0.104685
-0.155447
-0.231169
0.072732
0.006721
0.152767
-0.025177
0.042659
-0.226210
0.184003
-0.126168
0.106370
-0.038687
-0.131876
0.068217
0.018913
0.112455
-0.064002
0.089084
0.165281
-0.025852
0.167618
0.032273
0.012112
0.020731
-0.313617
-0.013338
0.195295
-0.024707
-0.031051
-0.218345
-0.028297
0.005388
-0.038796
0.041062
-0.036273
-0.076048
0.094897
0.144596
0.118167
-0.079571
-0.000470
-0.079149
-0.109204
0.116843
-0.252046
0.003332
0.018763
-0.187464
0.015616
0.097774
0.211948
0.095007
-0.013272
0.096408
0.232531
-0.077731
-0.059646
-0.012044
-0.326552
-0.248636
-0.259485
-0.023309
-0.128722
-0.173196
0.073724
-0.101411
-0.181123
0.026835
0.133990
0.168865
-0.163360
0.065187
0.052588
0.063097
0.069490
-0.089562
0.263621
0.083184
-0.036105
-0.053623
0.060601
0.082821
-0.050703
0.071112
0.135745
-0.006814
0.018216
0.204550
0.088413
-0.059944
0.055960
0.040305
0.243426
-0.053312
0.179450
0.062961
0.018183
0.012705
-0.110077
0.128954
0.370367
-0.004144
-0.017372
0.065577
0.081742
0.149934
-0.123982
-0.039006
-0.001396
0.219947
-0.150690
0.015088
-0.132592
-0.042786
0.148621
0.010503
-0.151597
0.156636
0.084124
-0.224405
-0.148567
0.148446
-0.077373
0.156687
0.121833
-0.333163
0.132874
0.019500
-0.084657
-0.165428
-0.021600
-0.012247
-0.003452
-0.038591
0.030967
0.160734
-0.066092
-0.174211
0.083296
0.036000
0.091499
-0.040969
0.224230
-0.023772
0.075139
0.012596
-0.214534
-0.019956
0.179837
0.045812
-0.113146
-0.001272
0.063137
-0.143622
-0.086029
-0.162169
-0.018639
0.147272
0.037498
-0.045404
-0.193987
-0.073984
-0.120603
0.142072
0.047211
-0.027324
0.155720
0.020603
0.240645
-0.037598
-0.149733
0.069418
-0.026718
0.160444
-0.133078
-0.096066
-0.247435
0.067151
0.095612
-0.230516
-0.236787
0.175211
0.293484
0.089639
0.053155
0.226021
-0.103702
0.025593
0.046963
-0.191636
0.008671
0.008527
-0.369919
-0.078233
-0.008612
-0.029265
0.129285
0.015676
0.105912
0.097143
-0.074020
0.041800
-0.047550
-0.161797
-0.009676
-0.040092
0.061248
-0.107282
-0.241100
0.067060
-0.106547
0.021803
0.198775
-0.294094
-0.278811
-0.002064
-0.256610
0.065731
-0.230635
-0.119702
0.074625
-0.213253
-0.002215
0.040877
0.025163
-0.009266
-0.066803
0.101421
0.132339
0.049362
0.063390
0.068903
0.049307
-0.004581
0.097465
0.262967
-0.008565
-0.024366
-0.203346
0.004891
0.016360
-0.157950
-0.110450
-0.129944
-0.015477
-0.067364
0.240243
-0.269409
-0.074523
0.151743
-0.081763
0.158837
0.132421
-0.228580
0.011308
-0.054015
-0.288535
-0.037441
0.082214
-0.006229
-0.020456
-0.099378
0.185896
0.242165
0.086781
-0.169009
-0.027393
0.057007
-0.130334
0.036364
0.055118
-0.272692
0.025418
0.122823
-0.243298
0.023700
0.095870
0.020600
-0.143922
0.156732
0.003943
-0.025305
0.026317
-0.058066
0.276319
-0.069050
0.103825
0.029770
-0.029747
-0.096313
0.065860
0.207222
0.101385
0.079542
0.256779
-0.021323
-0.141636
-0.250623
0.088904
0.038229
0.108876
-0.032178
-0.311977
0.137715
-0.011785
-0.033402
-0.347124
-0.170606
-0.155358
-0.185233
-0.089535
-0.153844
-0.062413
-0.083287
-0.022326
0.069307
-0.106331
-0.200273
-0.019079
-0.011829
-0.119756
0.021258
0.055995
-0.009173
-0.092904
0.005502
-0.036017
0.039749
0.164059
0.050039
0.130577
0.035971
-0.257457
0.169094
0.084501
-0.114685
-0.069177
0.091826
-0.117520
0.122211
0.056960
-0.056440
-0.048317
0.035542
0.002646
-0.089474
0.023840
-0.369046
-0.110881
-0.013091
0.060937
-0.158158
-0.217559
-0.009823
0.043585
0.055021
-0.046215
0.311587
0.184607
0.032478
-0.165847
0.115264
0.252404
-0.054219
-0.104701
0.028658
-0.084577
0.102574
0.218056
-0.026944
-0.300214
0.036171
-0.257554
0.085899
0.037309
-0.196989
-0.101801
-0.189030
-0.095559
0.217464
0.012297
-0.004930
-0.034959
-0.136137
-0.013317
0.039917
0.238854
0.034964
-0.038845
-0.053343
-0.001686
-0.184741
0.063131
-0.073657
-0.005730
0.050036
0.121139
0.063700
0.213223
0.155031
-0.136491
0.117593
0.036298
-0.010475
0.023271
0.065515
0.067169
0.124448
0.045526
0.022029
0.028420
0.000999
-0.082832
0.173289
0.040921
0.070972
-0.126506
-0.204157
0.056194
0.102982
0.129216
0.213637
-0.063237
-0.109423
-0.123697
0.101521
-0.030409
0.114863
0.174959
-0.207603
-0.046046
0.087612
0.198188
-0.039029
-0.117446
0.053834
-0.013575
0.096577
0.001336
-0.072264
-0.002355
-0.002918
-0.078831
0.096866
-0.052858
0.084222
-0.214265
-0.141203
0.167237
0.117449
0.049884
0.018171
-0.108815
0.036021
0.214470
-0.169831
-0.087585
-0.140114
-0.157938
0.020721
0.111147
0.046972
0.239026
0.206617
0.122517
0.169524
-0.060243
-0.035612
-0.220568
0.015657
-0.189924
-0.042218
0.060950
0.001378
-0.041065
0.036736
-0.160598
-0.010619
-0.088857
0.088487
-0.191357
-0.290796
0.020465
-0.117875
0.278484
0.173038
-0.210750
0.117898
-0.096189
0.013498
-0.142341
-0.083262
0.062012
0.135388
0.166773
0.048282
-0.051757
0.243284
0.213126
-0.050552
0.113255
0.080381
-0.007614
0.023786
0.161249
-0.113405
-0.154849
-0.013906
-0.164408
-0.080500
-0.160356
-0.056808
-0.002045
-0.015598
0.085882
0.018571
-0.036280
0.048356
0.254081
-0.181332
0.099146
0.004086
0.021095
0.027368
-0.164472
-0.030001
0.188456
0.000800
0.071301
0.154686
-0.000036
0.104964
0.024654
-0.145118
0.022013
0.023767
-0.249700
-0.078504
0.019760
-0.077678
-0.195893
-0.426025
-0.132245
0.063419
-0.088820
0.007735
-0.021531
0.045149
0.049257
0.307957
0.153471
-0.108066
-0.212490
-0.242264
0.033602
-0.045575
-0.043648
-0.009029
-0.163919
-0.093562
-0.025404
-0.101593
0.361808
-0.363965
0.147997
0.049918
0.180923
0.117725
-0.029246
0.064085
-0.172379
-0.046360
0.177718
-0.090730
-0.056742
0.041237
-0.170971
-0.069396
-0.339816
0.023074
-0.145213
0.081170
-0.080233
-0.109035
-0.021259
0.123289
0.032270
-0.131058
0.136472
0.165189
0.163483
0.031806
-0.047836
-0.028272
-0.237317
0.064995
-0.054581
-0.085732
-0.064113
0.080703
0.009091
-0.088997
0.001920
0.018589
-0.020337
0.003891
-0.123066
0.036290
-0.085916
-0.060371
0.058090
0.020106
0.207357
-0.034564
0.061075
-0.091974
-0.155674
0.318689
-0.006337
0.065168
-0.010501
0.079820
-0.035153
-0.072704
0.025350
-0.010774
0.165317
-0.327095
-0.232409
0.090838
0.066535
0.031071
-0.139881
0.186274
-0.169504
0.115231
0.146518
-0.054617
-0.138001
0.066044
-0.115301
0.041233
0.047957
0.007812
-0.157200
-0.151504
-0.042183
-0.175683
-0.220801
-0.200350
0.022521
0.032726
0.077940
-0.107323
0.117096
-0.123332
0.028520
0.084075
-0.279941
-0.082577
0.142873
0.150333
-0.125001
-0.134686
-0.321400
-0.025355
0.160623
-0.099049
-0.097283
0.109112
-0.018900
0.059732
-0.347034
0.017628
-0.055294
0.133759
-0.009801
0.070337
0.135753
-0.050336
0.182773
0.140669
-0.064668
0.177877
-0.122056
0.070815
-0.205637
-0.002470
0.048838
-0.247218
0.116766
-0.116308
0.005765
0.074930
-0.104563
-0.144236
-0.010265
0.163845
0.024658
0.088310
0.185183
-0.088820
0.027589
-0.037918
-0.083383
0.086548
-0.008870
0.026071
-0.009168
-0.078575
0.059408
-0.069243
-0.107289
-0.156885
-0.135614
0.002924
-0.035506
-0.104443
0.146459
-0.130459
-0.168267
0.047856
-0.310564
-0.073054
0.166408
-0.074645
-0.110600
-0.081685
-0.117262
-0.033753
-0.112415
-0.166802
-0.114343
-0.114886
-0.048342
0.044098
-0.081781
0.059530
-0.174189
0.212606
0.139323
0.098993
0.112667
0.144825
-0.062224
0.020293
0.036337
0.196448
-0.193340
0.008213
-0.106555
0.032487
-0.070040
-0.087954
-0.019584
-0.213810
-0.042816
0.024899
0.223276
-0.124733
-0.073691
0.025855
0.016719
-0.045608
0.111639
-0.002273
-0.031847
0.060027
-0.314319
0.032608
-0.072868
-0.003754
0.057916
0.035527
0.153474
0.012638
0.079436
-0.220013
-0.112754
0.024393
-0.036337
0.146084
0.077824
0.277421
-0.160931
-0.054966
-0.178143
-0.117547
0.109139
0.178681
-0.124972
-0.108733
-0.099104
0.242163
-0.137989
0.057962
0.147844
0.121168
-0.187681
0.250945
-0.208756
-0.176052
0.062062
0.048657
0.102330
0.025192
-0.095581
-0.073748
-0.182347
-0.037711
-0.045084
0.102509
0.088666
0.062734
0.196000
0.048238
0.013867
-0.000327
-0.005882
-0.020774
-0.026725
0.077653
0.201449
0.003541
-0.126032
-0.048123
0.001855
-0.063527
-0.032856
0.084611
-0.048731
0.125845
-0.233694
-0.124843
0.146053
0.022956
-0.135674
-0.193171
0.112741
-0.107854
0.117595
-0.108375
0.180367
-0.070493
0.008278
0.087316
0.103406
0.112012
0.055471
0.078711
0.105377
-0.147798
0.183802
-0.000173
0.022471
-0.018172
-0.108876
0.027285
0.044684
-0.114843
-0.175540
-0.134597
-0.173455
0.039851
-0.276569
-0.381424
0.052662
0.014664
0.018632
0.258001
-0.033687
-0.041038
-0.108637
0.156435
0.072195
0.046909
-0.084233
-0.089623
-0.110240
0.162963
-0.207231
-0.005160
-0.314652
-0.077559
0.053934
0.065850
-0.071677
-0.000092
-0.007662
0.076220
0.000540
-0.000748
0.040098
-0.003491
-0.240329
-0.005262
-0.079435
0.031279
0.032864
0.020133
-0.319426
-0.084934
0.037669
-0.089301
0.010091
-0.153112
0.051835
-0.119024
0.064336
-0.090821
0.258763
-0.072351
-0.115862
0.026873
0.003307
-0.066559
-0.045639
-0.094854
-0.307755
-0.048571
0.129824
-0.071490
0.040213
-0.516633
0.016936
0.270748
0.025669
0.178453
-0.195476
-0.298168
-0.117550
0.050096
-0.055639
0.256361
0.071029
-0.124220
-0.208551
0.056392
0.008827
-0.000746
-0.159829
0.083313
0.135775
0.176200
0.129960
-0.145089
-0.231747
0.035605
-0.026996
-0.084053
0.106800
-0.002009
-0.130267
-0.047346
-0.185548
0.090334
-0.099907
0.053453
-0.066542
-0.151992
0.127097
-0.007128
-0.021611
0.021622
-0.080747
-0.152160
0.041589
0.130647
-0.067853
-0.207100
0.080014
-0.051918
0.171331
0.015809
0.138263
-0.093137
0.091035
0.135627
-0.021784
-0.010888
0.022230
0.008943
-0.315427
0.011136
-0.087029
-0.103481
0.088394
0.299164
0.077389
0.012045
-0.046816
-0.025393
-0.234114
-0.204232
0.018626
-0.029525
0.113804
0.203991
-0.012335
0.051656
-0.022317
0.086935
0.214048
-0.146415
0.076894
0.013184
0.026869
-0.014197
0.045377
-0.056772
0.027493
0.092269
-0.139755
-0.270636
-0.024270
-0.097097
-0.132729
0.074938
-0.190258
0.000107
-0.424338
-0.200412
-0.099782
-0.242472
-0.074965
-0.092149
-0.039376
-0.009371
-0.211586
0.067750
0.176455
-0.053803
-0.063389
0.044781
-0.005401
0.397988
0.001117
0.061923
-0.186527
-0.060384
0.035062
0.102033
0.050347
0.016147
-0.013903
-0.044043
-0.469305
0.114576
-0.157175
-0.170107
0.078511
0.072406
0.257551
-0.169225
-0.091728
-0.096463
-0.129418
0.031524
-0.114125
-0.046561
-0.159254
0.122617
-0.003272
0.005169
-0.025276
-0.136396
-0.034575
-0.220176
-0.059301
0.066705
0.123722
-0.083834
-0.157996
0.149261
0.128910
0.072247
0.026158
0.122710
0.130057
0.196813
-0.093028
0.062728
-0.085265
0.083332
0.037567
-0.233841
0.019329
0.457886
-0.057948
0.163782
-0.301040
0.014085
-0.031983
0.049343
0.209820
-0.166306
-0.058074
0.112854
-0.056924
0.147953
0.172955
-0.253204
0.035575
-0.370516
-0.021405
-0.037171
-0.223297
0.013954
-0.113524
-0.339354
0.129381
-0.032860
-0.005262
0.075478
0.049123
-0.004497
0.115003
-0.026631
-0.119277
0.136421
-0.079726
0.151182
-0.145517
-0.058242
0.108427
-0.059185
0.082462
-0.147485
-0.406510
0.257671
-0.035234
-0.077887
-0.084222
-0.068597
0.108325
-0.140746
-0.005321
0.054606
0.249826
-0.002610
-0.335419
-0.090835
-0.007767
-0.072390
0.038818
0.096619
-0.056686
0.004611
0.082600
-0.298230
-0.020716
0.093789
-0.122501
0.171039
0.091958
0.038417
0.144936
-0.001949
0.101919
-0.088656
-0.205175
0.066708
-0.174648
0.181911
-0.299155
-0.119913
-0.057494
-0.262124
0.102709
0.019790
-0.181668
0.108409
0.043608
0.022755
-0.034754
0.011691
-0.006032
-0.015554
-0.045498
0.005787
0.048535
-0.080375
-0.107057
0.176986
-0.046604
0.179171
0.047500
-0.033682
-0.155473
0.279236
-0.101626
0.079398
0.111019
0.087920
-0.043518
0.241824
0.042763
-0.037687
-0.114783
-0.073970
0.168989
0.078518
-0.022395
-0.196773
0.043287
-0.162161
0.140801
-0.152278
0.050394
0.015928
0.029443
0.049991
0.153730
-0.230969
-0.042615
0.041615
0.092774
0.052375
0.087936
0.003129
0.130849
-0.206364
0.048457
-0.104172
-0.109610
-0.129139
-0.263762
0.061384
-0.427136
-0.225109
0.177064
0.102215
0.002614
-0.118026
-0.053631
-0.140768
0.058724
0.001447
0.044334
0.067201
-0.194461
-0.254646
0.033081
-0.171975
-0.071743
-0.034408
-0.121144
0.140643
-0.074427
0.133079
-0.033750
-0.063837
-0.009222
0.105806
0.079747
0.108110
-0.042171
0.187935
0.053140
0.301045
-0.008318
0.067578
-0.152373
0.076616
0.028647
0.044059
-0.230948
-0.232462
-0.140451
-0.046092
0.056740
-0.146870
0.026369
0.018845
-0.177814
-0.015559
0.026784
-0.375019
0.211277
0.256773
-0.094097
-0.022784
0.137704
0.031726
0.007878
-0.133164
0.213187
-0.006608
-0.005434
0.056019
0.018703
0.182233
-0.068018
-0.140630
-0.020323
0.161649
-0.149619
0.222201
0.029697
-0.202115
-0.082359
0.048617
0.061172
-0.107436
-0.030644
-0.041134
-0.007675
-0.134110
-0.302271
0.031900
-0.040838
0.202149
-0.226445
-0.092646
0.030735
-0.017088
-0.136654
0.204246
-0.119539
-0.051088
0.174069
-0.032448
-0.065128
0.066888
0.114966
-0.140125
0.010005
0.060928
-0.127555
-0.196557
-0.230885
-0.143039
0.058634
-0.016271
0.060471
-0.274585
-0.045270
-0.061956
-0.186676
0.102203
-0.251597
-0.352666
-0.108055
0.358483
-0.248585
0.004985
0.054829
0.024378
0.074924
-0.108836
0.119485
-0.165465
-0.004124
-0.221903
-0.003863
-0.221532
0.025524
0.026589
0.148719
0.231397
-0.074896
0.048472
0.112699
0.052969
-0.119051
-0.120224
-0.130962
0.096211
0.151249
0.023737
0.038885
-0.154357
-0.117770
-0.190306
-0.351772
0.139196
-0.185735
-0.002684
0.093186
0.043263
-0.171569
0.339495
0.066700
0.220780
0.142424
0.092029
-0.118217
0.217055
-0.092247
-0.015133
-0.373883
-0.010115
0.049138
-0.117471
-0.110077
-0.025797
0.078105
-0.200493
-0.152108
-0.177642
-0.114540
0.062910
-0.095288
-0.004936
-0.184274
-0.265099
0.052283
0.031429
-0.023962
0.009685
0.182164
0.046188
-0.179296
-0.071946
0.159102
-0.042042
-0.129355
0.075660
-0.014846
0.035310
0.061006
0.133657
0.179013
-0.044179
-0.077939
0.183245
-0.089950
-0.055134
-0.103148
-0.059774
-0.236900
0.070548
-0.131800
-0.103832
0.027879
-0.403862
-0.019991
-0.001987
-0.333173
0.064377
-0.111061
-0.291721
0.119964
-0.067401
0.064284
0.254495
0.042029
0.191023
0.021383
0.020805
0.006680
0.137985
0.203481
-0.013387
-0.206876
0.107031
-0.028366
-0.140588
-0.176552
-0.089990
-0.208338
-0.067195
0.000897
0.064772
-0.004862
0.066467
-0.139109
-0.035247
-0.169295
-0.296116
0.041790
0.117147
0.130357
0.035834
-0.044184
-0.015069
-0.236894
-0.321758
0.189161
0.028387
-0.166534
0.033378
0.058807
-0.034621
0.056797
-0.034177
0.122982
-0.008227
0.115101
0.303753
-0.231753
-0.228620
-0.034576
-0.046139
-0.117298
0.202442
0.001244
0.190839
0.028213
-0.103732
-0.200825
0.089455
-0.079137
0.055972
-0.166772
-0.090387
-0.001233
-0.065115
-0.112011
0.089195
-0.118176
0.115590
0.060030
0.179038
-0.061595
-0.160285
0.087813
0.169489
0.246407
0.001744
0.011126
-0.076572
0.003085
-0.001495
0.067031
0.094392
-0.029059
-0.125041
-0.248878
0.061810
-0.201272
0.012462
0.038871
0.090631
0.094583
-0.124266
-0.263493
-0.274394
-0.032792
-0.011563
-0.304312
-0.186731
0.168619
-0.104604
0.023549
0.102296
-0.235845
0.164868
-0.054951
0.018528
0.051775
0.022912
-0.009476
-0.038244
-0.012307
-0.118994
-0.074667
0.048071
-0.041393
0.018473
-0.228634
0.213873
-0.040550
-0.000519
0.051987
-0.102927
0.052218
-0.140094
-0.098863
0.005925
-0.120074
-0.135830
-0.237601
0.229309
0.094356
-0.052542
-0.173466
0.074900
-0.227489
0.019213
-0.043713
-0.088556
-0.097515
-0.082211
0.106140
0.104893
0.020309
0.042806
0.073928
0.142784
0.185330
0.051162
-0.032777
-0.123221
0.056627
-0.086177
-0.172006
-0.131387
0.151322
-0.104715
0.264011
0.047084
-0.040915
0.034969
-0.616252
-0.102764
-0.032735
-0.070871
0.115032
0.006661
-0.274914
-0.302887
-0.023277
-0.201430
0.163172
0.075261
0.124860
-0.077361
-0.250382
0.115569
-0.016652
-0.278634
0.035661
0.027819
0.188346
0.072867
-0.337692
0.006742
0.137661
0.103979
0.103576
0.394274
-0.070650
-0.040597
0.146686
-0.088377
-0.088453
-0.033698
0.009775
-0.097375
-0.011428
0.189587
-0.021314
0.076794
-0.014902
-0.146052
0.108966
0.033839
-0.099503
0.034114
-0.179599
-0.326854
0.080944
-0.007895
-0.030185
-0.152173
-0.057418
-0.035440
0.064310
-0.061580
0.165354
-0.045976
0.048002
-0.131360
-0.117929
-0.049753
0.032174
-0.017044
-0.146017
-0.132110
-0.174957
-0.184726
-0.295142
-0.148130
-0.064533
0.078819
-0.195304
-0.085187
0.052135
-0.118330
-0.011796
-0.007607
-0.179782
0.076737
-0.034397
0.030080
0.104539
0.104013
-0.395257
-0.142844
-0.424682
-0.133021
0.085537
-0.072741
0.018755
0.001971
0.033634
0.214572
-0.076513
0.016241
-0.076618
-0.153425
-0.084786
-0.031252
0.020515
0.052846
-0.029048
0.137930
-0.044886
-0.001349
0.030235
-0.016221
-0.225199
0.156872
-0.279605
-0.077576
-0.031704
-0.029999
-0.023702
-0.287995
0.060665
-0.021444
0.043550
0.120488
-0.096483
-0.103831
-0.024011
-0.027553
-0.188528
-0.211873
0.101202
0.031401
-0.083918
-0.177688
-0.113833
-0.063233
-0.015786
-0.002030
-0.020113
0.258131
-0.096774
-0.070509
-0.065779
-0.035802
0.102413
0.033654
-0.079227
0.105002
0.004832
0.100060
-0.170569
0.240489
0.062190
0.025294
-0.157485
-0.233779
-0.063228
-0.092148
-0.151296
0.277453
0.066156
-0.063414
-0.219778
-0.077344
-0.108259
-0.027898
-0.151110
0.025879
-0.048296
0.017726
0.084049
0.145732
0.133280
-0.018853
0.001440
0.224989
-0.143555
0.213249
-0.232435
0.071962
-0.115223
-0.048028
0.092082
0.011593
0.069292
-0.037395
-0.184851
-0.007059
-0.149657
-0.190925
-0.121030
-0.037718
0.089957
-0.052579
-0.065708
0.033430
-0.181276
-0.377214
-0.027925
-0.016190
-0.078242
-0.006247
-0.056837
0.274043
-0.350516
-0.039287
-0.007550
0.052427
-0.050910
-0.101202
-0.112868
0.050593
-0.030633
0.394642
0.115419
0.017502
-0.237870
0.076385
-0.059498
-0.265883
-0.062595
-0.093548
0.106751
0.181455
-0.089353
-0.187293
0.001199
-0.009893
-0.099286
-0.051483
0.000839
-0.087291
-0.030337
-0.003467
0.065054
0.061470
-0.068127
0.114281
-0.028102
0.050275
0.195194
-0.140256
-0.169210
0.237010
0.122219
0.068907
0.110542
0.089729
-0.059604
-0.023878
-0.023192
-0.093095
-0.198616
0.240674
-0.223042
0.128456
0.117540
0.016668
0.082612
-0.006083
-0.167274
-0.183683
0.128337
0.005637
-0.163089
0.034822
0.029693
0.029846
-0.211106
-0.005592
0.091363
0.100697
0.047868
-0.070827
-0.125470
-0.146295
-0.242941
0.154270
0.078354
0.177925
-0.073430
-0.041227
-0.243264
-0.208623
-0.050863
0.076886
0.064029
0.046084
-0.060315
-0.072380
-0.074012
0.068146
-0.044955
0.040182
0.036635
0.075171
0.017362
0.138641
0.025262
-0.002635
-0.031489
-0.014471
-0.165776
0.007316
-0.021560
-0.181151
-0.152828
-0.191270
0.005753
-0.021519
0.055457
-0.013022
-0.003954
0.158245
0.094948
-0.087126
-0.149020
0.008557
0.086715
0.102827
-0.066963
-0.167671
0.108874
-0.036312
0.144193
-0.214023
0.165783
-0.074603
-0.092449
-0.114957
-0.110105
-0.017959
-0.214983
-0.045056
-0.009396
0.089510
-0.102118
-0.026854
-0.085971
-0.113772
0.050271
-0.513437
-0.128890
0.165562
-0.232294
-0.085724
-0.154378
-0.143435
-0.127261
0.030292
-0.068597
-0.312509
-0.122961
-0.001764
0.049369
0.052163
-0.055708
-0.127166
0.100763
0.117457
0.115535
0.167306
0.133570
-0.196151
-0.058626
-0.000266
-0.077919
0.104618
-0.127768
-0.080769
-0.015177
-0.200609
0.029009
-0.124847
-0.015042
0.320043
-0.079535
0.129414
0.222341
0.002375
-0.093448
0.131247
0.061152
0.147918
-0.154572
-0.189303
-0.119020
-0.024875
-0.260844
-0.226205
0.088860
-0.026709
-0.104864
-0.151200
0.321933
0.012472
0.066337
-0.047103
0.029622
0.119342
0.087010
-0.061552
-0.208323
-0.176957
0.094551
-0.188923
-0.118578
0.086457
-0.007313
-0.104429
-0.485216
-0.226928
-0.125215
-0.003520
0.027963
-0.291355
-0.233463
-0.150492
-0.105594
-0.094584
-0.107817
-0.015385
-0.112600
0.013281
-0.095932
0.182321
-0.011256
0.071941
0.052660
0.018604
0.124609
0.038840
0.126563
0.228858
-0.053522
-0.205236
-0.136785
-0.038308
-0.064292
-0.299521
0.009854
0.197712
0.257128
0.145442
0.081598
0.078720
-0.020429
0.150804
-0.123186
-0.112193
-0.157903
0.012590
-0.021697
-0.012550
-0.054986
0.052464
0.154620
-0.008883
0.110672
0.187425
0.059655
-0.167256
0.080265
0.286597
0.048903
-0.011280
-0.023152
0.239098
-0.089870
-0.055733
0.122271
-0.071997
-0.161386
0.021349
-0.094974
-0.175378
-0.117581
-0.211434
-0.161074
0.052536
-0.008300
-0.059125
0.004926
-0.120752
-0.034982
-0.075219
-0.053174
0.014626
-0.190344
-0.076631
-0.192638
-0.090243
-0.125236
-0.086252
0.263887
-0.001789
-0.026845
-0.027432
-0.102151
0.088110
-0.037890
0.043139
-0.059421
0.311957
0.118953
-0.105325
0.026244
0.070858
-0.297692
0.165556
-0.067252
-0.045221
0.321570
-0.166043
0.007385
0.035592
0.079928
0.055419
-0.134826
-0.042284
-0.205743
0.118969
-0.028415
-0.042997
0.199153
-0.165098
-0.197072
-0.251150
0.016476
-0.311512
0.220660
-0.057766
0.081359
0.246445
-0.105143
-0.016115
0.127669
-0.114069
0.099630
-0.111136
-0.030278
0.083436
0.123206
-0.038273
-0.142250
0.066609
0.003277
-0.128954
-0.086759
0.039900
-0.100821
-0.126905
0.034151
0.086132
0.009355
0.152163
-0.173788
-0.139709
0.162173
-0.230559
0.003177
-0.142745
0.011535
0.344512
-0.179048
0.063700
0.000587
0.215099
0.215145
0.040221
0.064669
-0.223716
-0.072095
0.062274
0.166729
0.307830
0.350775
-0.134361
-0.001346
-0.053324
0.007693
-0.192058
-0.129170
-0.095674
0.024087
0.110616
0.084881
0.098935
-0.183912
-0.080043
0.006944
0.147041
0.135832
-0.046443
0.164821
-0.067597
0.039614
0.134730
-0.198784
-0.027063
0.161948
-0.146895
0.116159
0.179820
-0.081066
0.250429
0.063597
-0.043512
-0.161126
0.113975
0.004577
-0.019281
0.040395
0.103274
0.012262
-0.039149
0.103631
0.192872
-0.104916
0.052095
-0.272951
-0.060640
0.070909
-0.096199
-0.134271
-0.021928
-0.181516
-0.224996
-0.120903
0.147892
-0.166582
0.039751
0.151421
0.017375
0.028053
-0.104960
0.102105
0.147445
-0.047988
0.046216
0.016897
0.021427
-0.186633
-0.016952
0.150505
-0.022069
-0.046954
-0.078384
0.072535
-0.059145
-0.048571
0.107644
-0.008026
-0.017485
-0.070272
0.005424
-0.072447
-0.100091
0.205357
-0.093119
-0.087591
-0.156792
0.020831
0.079390
-0.045477
0.361868
0.099504
-0.110637
-0.056949
-0.029343
-0.035082
0.097319
-0.148355
-0.047409
-0.108301
-0.064244
0.100577
-0.047659
0.184505
-0.104593
0.008057
-0.088030
0.007247
0.119732
0.009455
-0.004826
0.086755
-0.046742
-0.074431
-0.149402
-0.114339
-0.001899
0.045103
0.004681
0.044540
0.292318
0.064631
-0.037552
-0.035081
0.116770
0.080657
-0.022344
-0.233382
-0.166196
-0.032006
0.181013
-0.155423
0.017283
0.110040
-0.264729
-0.092323
0.015041
0.090070
0.016271
-0.079530
-0.307303
-0.084164
0.082929
0.050832
-0.023364
-0.040334
-0.026451
0.241099
-0.238699
-0.204038
0.139682
-0.040435
-0.068205
-0.165592
0.277638
0.267314
-0.062150
0.078789
0.012913
-0.091120
0.015840
-0.053196
-0.058122
-0.003052
0.022718
0.030153
0.060273
0.187230
-0.135296
-0.018409
-0.345877
-0.114819
0.187330
0.056130
0.044418
-0.019195
-0.112356
-0.143638
0.191929
-0.004994
-0.203308
0.102990
0.145568
0.083376
0.279900
-0.130328
-0.066439
0.052967
0.071254
-0.033961
-0.122323
0.162097
0.005692
-0.132687
0.006608
-0.359508
0.008616
0.219637
0.059246
0.040656
-0.036294
-0.079688
-0.022627
0.067113
0.099225
0.004246
-0.100231
0.023369
-0.080153
0.061939
-0.026798
0.032662
-0.198562
0.016373
0.034022
-0.183317
-0.189749
-0.046280
-0.093012
0.113469
-0.277671
-0.078848
0.036329
0.004134
-0.079787
0.010582
-0.218815
-0.154171
0.049970
-0.105104
-0.167732
0.019379
-0.058612
0.046435
-0.112139
0.077934
-0.036697
-0.077472
0.125528
0.206044
-0.029033
0.031351
-0.010902
0.010829
-0.065692
-0.282185
-0.076053
-0.096121
0.325236
-0.181982
-0.177334
-0.028468
-0.033321
-0.297072
-0.117356
0.051158
-0.090450
0.010993
-0.085358
-0.199701
0.024319
0.150301
-0.037731
-0.057902
-0.058232
-0.067198
-0.019609
-0.063797
-0.128731
-0.087376
-0.003417
-0.014785
-0.376078
-0.091924
-0.216291
0.245298
-0.167451
0.133370
0.100877
-0.263396
0.019296
0.106766
-0.022368
-0.135496
-0.017565
-0.065168
0.021456
-0.121275
0.108680
-0.194279
-0.124465
-0.222627
-0.042485
-0.082581
-0.025183
-0.204644
0.060429
-0.041554
0.221353
0.011778
0.181889
-0.234094
0.014969
0.116985
-0.242115
-0.070112
-0.131690
-0.154833
-0.080264
-0.174915
0.010540
-0.229272
0.288002
-0.207563
0.072718
-0.021597
-0.094019
-0.003929
0.099372
0.076607
0.097214
0.154601
-0.108963
-0.303141
0.028182
-0.014429
-0.122840
-0.086204
-0.107396
-0.083228
0.048322
0.089815
0.056053
-0.020621
-0.049708
0.252302
-0.112167
0.063815
-0.105642
0.290617
-0.074385
-0.044655
0.065428
-0.087205
-0.024137
-0.032594
0.133340
0.047432
0.028853
-0.007806
-0.097224
-0.111504
0.020560
-0.117332
0.001745
0.066375
-0.000597
0.104587
-0.111175
-0.023153
-0.002940
-0.027570
0.083826
-0.015569
0.143455
-0.160994
-0.084098
0.081897
-0.149730
0.030382
-0.078050
0.008526
0.038497
0.105407
0.195657
-0.019604
0.201299
0.062372
0.013425
0.155888
0.002050
-0.121718
0.147865
-0.053206
-0.156966
-0.042701
-0.184091
-0.209413
0.006303
-0.266427
-0.026766
0.059156
0.134694
-0.035646
-0.144972
-0.069696
-0.124753
0.041414
-0.164642
-0.052232
0.117903
0.047600
-0.008067
0.160827
0.007349
0.011142
0.035500
0.000116
-0.228235
-0.007334
-0.025936
0.143521
0.009492
-0.077756
0.105760
-0.054987
0.109082
-0.050919
-0.028402
-0.078243
-0.060630
-0.146690
0.142174
0.005717
-0.224714
0.021523
0.083078
-0.102266
0.212565
-0.080259
-0.200851
0.379785
-0.136389
-0.122242
-0.163336
0.212933
-0.176860
0.044645
0.048923
0.121150
-0.085900
-0.023178
-0.061635
0.078827
-0.036627
-0.209740
0.015451
-0.012523
0.050275
0.153038
-0.128991
0.091678
-0.028324
-0.096055
-0.075674
0.015766
0.111028
-0.117038
-0.145652
0.125768
0.059965
0.142985
0.041631
-0.058884
-0.160999
-0.166919
0.236498
0.028195
0.034783
-0.112817
0.043498
-0.113169
0.057988
0.100345
-0.032545
-0.136681
-0.118092
-0.160959
-0.089800
0.023657
0.012939
-0.165036
0.175492
0.029400
-0.149619
0.048652
0.137600
-0.030263
-0.137068
-0.228987
-0.041114
0.035674
0.289326
-0.213010
0.014916
0.020882
0.112056
-0.097559
0.119588
-0.204184
-0.147296
-0.019887
-0.080546
-0.029143
0.105618
-0.163933
0.127029
-0.059543
-0.154638
-0.062802
0.000438
-0.100899
0.184189
-0.075539
0.057635
-0.085872
0.013393
-0.145863
-0.388623
-0.049810
0.169107
0.129692
-0.064632
-0.103261
0.020569
-0.095893
-0.112278
0.114289
-0.117673
-0.076832
0.046269
-0.098917
-0.307754
0.006687
0.085617
-0.173480
0.136664
-0.079996
-0.081660
-0.044169
-0.046028
-0.211813
0.108507
0.050870
-0.011366
-0.000779
-0.009113
-0.012720
-0.046251
0.092465
0.079264
0.093294
-0.001571
-0.084996
0.103700
-0.027662
0.150304
-0.210681
0.120072
-0.040078
-0.040240
-0.087302
-0.021080
-0.030507
-0.094338
-0.075586
-0.062267
0.030198
0.124101
-0.038842
-0.047755
-0.087029
0.173706
0.028330
0.072670
-0.082842
-0.134444
-0.229282
0.087248
-0.051658
-0.033261
-0.244859
-0.086799
-0.072562
0.092624
0.173202
0.036481
0.034596
-0.162882
-0.125746
0.046731
0.109069
-0.235626
-0.116710
0.117094
0.069084
0.071528
-0.048571
0.101964
0.039650
-0.065028
-0.072515
-0.028699
0.041716
-0.121052
0.122872
-0.045762
-0.038214
0.186900
-0.129450
-0.132506
0.031271
0.203189
0.022311
0.038628
0.219123
-0.082633
-0.009651
0.049507
0.141384
-0.048161
0.181743
-0.100460
-0.083730
-0.114100
-0.023974
-0.040159
-0.144434
-0.173715
-0.173539
0.053384
-0.061074
0.032472
-0.200943
-0.145907
-0.275425
0.101530
-0.071169
-0.260574
-0.016770
0.051014
-0.127288
-0.010402
-0.237829
-0.021508
-0.140238
-0.341265
-0.027458
0.084779
0.252591
-0.200634
0.051553
0.037978
-0.277543
0.171419
0.060650
-0.059506
-0.159511
0.098659
0.168278
0.009786
0.049944
-0.185266
-0.076145
-0.201146
-0.083015
-0.081949
0.083368
-0.052598
-0.061683
-0.032856
-0.041309
-0.183569
-0.215349
-0.102361
0.074614
0.178047
0.156693
0.056137
-0.027485
-0.224621
-0.108315
-0.046563
-0.061795
0.043483
0.005001
0.014498
-0.170597
0.087291
0.173234
-0.041276
0.031712
-0.074137
-0.089344
0.018630
0.059674
0.127095
-0.066505
-0.143527
0.001894
-0.036913
0.039240
-0.114922
-0.012325
-0.079789
-0.137010
-0.096102
-0.128401
-0.033083
0.024877
-0.191547
0.041740
0.054344
0.017915
-0.223491
0.022213
-0.028497
-0.049989
0.011599
0.070574
-0.022230
0.092847
0.227799
0.194551
-0.078912
0.225482
-0.022061
-0.474424
-0.067822
-0.036576
0.050748
0.077504
-0.175498
-0.032846
-0.048720
0.025631
-0.109535
-0.191956
-0.050978
0.064998
0.087114
0.029992
-0.189492
-0.119587
-0.166619
-0.241451
0.107405
-0.165225
-0.077534
-0.024494
0.175254
-0.135355
0.078107
-0.031124
0.148828
-0.211726
-0.103869
-0.183338
0.086224
0.033244
0.216269
0.055038
-0.171829
0.062173
0.040952
0.042112
-0.060650
-0.153392
0.056394
-0.134722
-0.102603
-0.241315
-0.038510
-0.116358
-0.247064
0.127294
-0.090932
-0.011312
-0.117649
0.206272
-0.224010
0.143968
0.073743
0.158212
-0.068943
0.009793
0.050224
0.056497
-0.170898
0.025607
0.007364
-0.026286
0.080900
-0.186899
-0.014453
-0.009132
-0.047757
0.094870
0.030024
0.199171
-0.018053
-0.211553
-0.005212
-0.035005
0.212855
-0.170207
-0.105481
0.056961
-0.234541
-0.203172
-0.210030
0.086489
-0.067667
-0.012601
0.070321
-0.144251
-0.091465
0.058117
-0.281913
0.022631
0.084434
0.028811
0.132221
-0.011376
0.063022
0.011627
-0.069823
0.093097
0.001122
0.096955
-0.136680
0.083064
0.016017
0.105591
-0.101721
-0.064521
0.011967
-0.142755
-0.182298
-0.025049
0.076911
-0.192619
-0.216387
-0.056009
0.108396
-0.158202
0.035907
0.021897
-0.075794
-0.212464
-0.134779
0.243477
-0.144999
0.126200
-0.121999
-0.172126
0.033205
-0.065244
0.032424
-0.065071
-0.169564
0.236350
0.032359
0.100695
0.138738
-0.095907
-0.080777
0.097367
0.186757
0.023132
-0.148390
-0.043940
-0.108632
-0.127609
-0.034248
0.049165
0.042681
-0.249334
-0.057214
0.129166
-0.234466
-0.015141
-0.140344
0.167277
-0.067548
-0.140070
0.139916
0.079426
0.009777
0.086809
0.111087
0.078967
-0.119700
-0.001489
-0.146735
0.000964
0.193578
0.304846
-0.036847
-0.051445
-0.032771
-0.204932
-0.213059
0.204381
-0.135213
0.068269
-0.207517
0.085820
0.017358
0.080412
0.064095
-0.138613
-0.046314
-0.146520
-0.107265
0.049320
0.046851
0.156818
0.223524
-0.111767
0.020475
-0.067372
-0.024380
-0.060227
-0.019498
-0.003630
0.066093
-0.095916
0.197126
0.032997
-0.049310
0.135122
-0.081276
-0.128015
0.027411
-0.153300
-0.314060
0.217465
0.189505
-0.123754
-0.037552
-0.266296
-0.331707
-0.058335
-0.112563
-0.156089
-0.027089
0.165979
0.096856
0.130130
-0.013191
-0.183444
-0.008922
0.129613
0.084485
0.122922
0.188405
-0.038210
-0.121949
0.107244
0.269561
0.037799
-0.051096
0.022342
-0.000924
-0.039062
-0.179656
0.195047
0.097001
0.021472
0.002226
0.389691
-0.231711
-0.091917
-0.005739
0.067955
0.085194
-0.254388
0.029632
-0.009146
0.117086
-0.071319
0.033680
0.112926
-0.087562
0.141482
0.053284
-0.131797
-0.007647
-0.259673
0.011473
0.027895
-0.015958
-0.118728
0.062041
-0.015449
-0.204972
-0.103716
0.130894
0.083332
0.077516
0.062277
-0.087275
0.174167
0.127239
-0.022976
-0.166386
-0.164737
-0.046585
-0.000892
0.071533
-0.120254
0.080356
0.066085
-0.188724
-0.012051
-0.189037
0.080106
0.103215
0.016890
0.023226
-0.117889
0.021339
-0.151837
0.004216
0.045884
-0.027207
0.124071
-0.038625
-0.080109
-0.049181
0.057304
-0.088778
0.152003
-0.175071
-0.054593
-0.285926
-0.161596
0.112089
0.166162
-0.070989
-0.063724
0.148327
-0.167721
-0.095509
-0.125026
-0.015457
-0.101675
0.123933
-0.078507
-0.048797
-0.105524
-0.039872
0.077601
-0.101050
-0.053030
-0.140030
-0.164910
-0.187858
0.041143
-0.104431
0.035033
0.037170
-0.002284
0.057620
-0.034387
-0.119423
0.095957
0.031419
0.044219
0.013910
-0.196879
0.024521
-0.117626
-0.084759
-0.256945
-0.136428
-0.201874
0.195217
0.062192
-0.079999
-0.182600
0.049883
-0.017460
-0.026110
-0.020553
-0.197819
-0.222342
-0.091094
-0.131374
-0.161106
-0.092790
-0.030449
-0.223505
0.067161
0.119237
0.164133
0.202991
-0.061151
-0.097203
-0.308629
-0.046659
0.193441
0.185791
0.005194
-0.110474
0.076317
0.061282
-0.189243
-0.154008
-0.195362
-0.193764
0.003295
-0.093607
0.128376
-0.204191
-0.039104
0.066848
0.290336
-0.008120
0.033745
-0.192617
-0.095505
0.063855
0.134797
0.126835
0.028457
0.048890
-0.087498
0.007248
0.033822
0.099051
-0.064760
0.106838
0.079888
-0.028583
0.210170
0.175811
0.007616
-0.319663
-0.246513
-0.017850
-0.006925
-0.027341
-0.159672
-0.069523
0.036355
-0.129376
0.126225
0.182282
-0.222078
-0.098399
-0.238329
-0.158803
0.004809
-0.147241
-0.037108
-0.031444
-0.121355
-0.030719
-0.054106
0.292044
-0.229975
-0.242490
-0.229385
0.053114
0.268267
0.103431
-0.179181
-0.025799
0.200032
0.063363
-0.061187
-0.046487
-0.230610
-0.076125
-0.048952
-0.141919
0.142617
-0.314049
-0.181944
0.079350
-0.113444
-0.150802
-0.174342
-0.141887
0.066436
0.137188
0.234694
0.148553
-0.169094
0.104446
-0.265305
-0.339738
-0.080188
-0.203293
-0.210120
-0.004440
0.074694
-0.214230
0.283813
-0.159535
0.038902
-0.149399
-0.007759
0.011261
-0.096599
-0.136383
-0.061146
0.075394
0.008541
0.096973
0.170583
0.039014
-0.184392
0.067276
-0.307295
-0.092468
0.074545
-0.087006
0.002223
-0.193646
-0.035892
0.130628
0.180117
0.275634
-0.058089
-0.025854
-0.153310
-0.021232
0.247261
0.155281
-0.158702
0.042312
0.097212
0.088156
0.089728
0.047207
-0.035282
-0.145975
-0.055695
0.001047
-0.048353
-0.114234
0.005342
-0.110528
0.140364
0.146136
0.027206
-0.050183
0.116595
0.042117
-0.031109
0.144650
-0.018704
0.075944
-0.154857
-0.116501
0.047708
0.014884
0.076171
0.190496
0.152994
-0.013326
-0.004644
-0.467861
-0.109119
-0.255661
0.029548
-0.026775
-0.123398
0.096763
0.002415
-0.061508
-0.066202
-0.093593
-0.183091
0.187968
-0.242267
0.040753
-0.031370
0.171351
-0.129895
-0.106235
-0.041478
-0.383663
-0.130557
0.001289
0.002077
0.125843
-0.100959
0.034531
0.056878
0.056387
0.111038
0.134544
-0.092205
-0.214761
-0.190137
0.156092
-0.128444
-0.013279
0.046618
-0.206035
0.098389
-0.050842
-0.006128
-0.085229
-0.318269
0.141420
-0.123228
0.165906
0.023539
-0.299086
0.149873
-0.066770
0.087237
0.085143
-0.120843
-0.045308
-0.094043
-0.269422
0.126809
-0.034867
0.029688
-0.147879
-0.168730
0.039300
-0.047413
-0.105770
-0.097165
-0.089115
0.020756
0.068526
-0.078651
0.198708
-0.129628
0.041420
-0.020683
-0.007754
-0.293414
0.181690
0.030312
0.040094
0.000802
0.115394
-0.187838
-0.249599
0.032960
-0.143687
-0.126766
0.000314
0.065243
-0.049246
-0.052353
0.132971
-0.026280
0.114594
0.024199
0.059760
0.077238
-0.389660
0.071384
0.125771
-0.089182
-0.019516
-0.160227
-0.091715
0.044610
-0.042858
0.082674
-0.092772
-0.194312
-0.033620
0.037220
0.097475
0.074251
-0.202093
-0.049087
-0.345890
-0.075084
-0.041427
-0.147560
0.044300
-0.163046
-0.077506
-0.225103
0.062710
0.001204
0.097469
-0.311213
0.070874
0.079144
-0.024100
-0.310322
0.170044
0.034910
0.045702
-0.015200
0.040972
-0.195257
-0.004596
-0.101338
0.119309
-0.064040
0.140959
0.052052
0.004331
0.096550
0.113885
-0.064979
-0.097978
-0.035500
0.140219
-0.203040
0.091980
0.098128
-0.158320
0.030567
-0.154642
0.024159
0.207431
0.074531
-0.089055
0.001376
-0.043701
-0.017302
-0.076978
0.037822
0.090372
-0.057860
-0.058692
-0.106363
0.078561
0.020847
-0.323025
0.122114
-0.151080
-0.088138
0.147964
0.101714
-0.106078
-0.014283
-0.076332
-0.065883
-0.091839
-0.198517
0.060098
-0.085407
-0.307470
-0.247491
0.118174
0.148835
-0.047860
-0.034239
0.191616
0.020910
-0.028493
0.066957
-0.340687
-0.099940
-0.050313
-0.175046
-0.185525
-0.063175
0.071947
-0.009425
-0.040855
0.078012
0.137432
-0.034726
-0.023237
0.246461
0.022862
0.034501
0.074157
0.019017
-0.034291
-0.188450
0.171757
-0.002566
-0.080985
0.064223
-0.243926
0.045532
-0.194268
0.041078
-0.001810
0.120534
0.001186
-0.053606
0.017933
-0.254920
-0.209235
0.037142
-0.115475
0.094913
-0.054440
0.154208
-0.032975
-0.017905
-0.055181
0.057554
0.177043
-0.366668
-0.016185
0.009335
0.026149
-0.022180
0.054980
0.024539
0.094128
0.114520
-0.144931
-0.009774
0.089108
0.036583
0.121381
0.142250
-0.018068
-0.190993
-0.120233
-0.030999
-0.230865
0.098070
0.250141
0.052320
-0.111349
-0.098151
-0.054074
-0.056418
0.064582
-0.106329
-0.045720
0.011847
0.154188
-0.079892
0.003269
-0.017608
-0.019097
0.030052
-0.012873
0.007008
0.032733
-0.086681
0.031665
-0.179452
0.025252
-0.096441
-0.017747
0.120647
-0.068848
0.062208
-0.249999
0.018392
-0.188602
0.091218
-0.333642
-0.061906
0.038112
0.020370
-0.115578
-0.181466
-0.402219
0.073716
-0.092518
-0.005709
0.002415
-0.318276
-0.216185
-0.021511
0.011682
-0.108299
0.037228
0.067255
0.022506
0.051413
-0.235274
-0.090180
0.300434
-0.047513
0.275104
0.146593
0.130982
0.071938
-0.017196
0.039900
-0.232898
0.215028
0.127872
0.077949
0.186159
-0.120916
-0.068857
0.261440
-0.020837
-0.141654
0.161244
0.065677
-0.055320
-0.019064
-0.097240
-0.006206
-0.005651
0.002847
-0.203844
-0.127488
0.170766
0.187777
0.131380
-0.187762
-0.267633
0.063023
0.285360
0.220262
-0.091674
-0.127679
-0.091561
0.047581
-0.312497
0.029252
-0.279826
-0.135017
-0.182399
0.019593
-0.107228
-0.001585
-0.268408
-0.136292
-0.167636
0.053037
0.042046
-0.084014
-0.227605
-0.104415
-0.023124
0.059123
0.066329
0.364117
0.094191
0.047656
-0.054764
-0.122110
0.240381
-0.000538
-0.110386
0.145365
-0.144039
0.019461
0.111236
-0.090066
-0.175078
-0.150915
0.170095
0.115558
-0.059671
-0.194311
-0.210839
0.164258
-0.130276
0.015186
0.034622
0.143770
0.195252
-0.137311
-0.129761
0.017896
-0.165278
-0.007321
-0.037794
-0.146979
-0.147969
-0.084502
0.080033
0.044173
-0.110977
0.110820
-0.091854
0.194398
0.127235
-0.024335
0.252814
0.222091
-0.153971
0.040809
-0.498104
-0.195507
-0.065298
0.087755
-0.227682
0.053086
-0.363207
-0.319382
-0.183237
-0.169351
0.063468
-0.076647
-0.172389
0.056480
-0.096418
0.254636
0.003901
-0.034681
0.006937
-0.071832
-0.165210
-0.121965
0.176656
-0.049227
0.057513
0.082049
-0.168776
-0.054504
-0.057057
-0.038927
-0.182891
-0.087220
0.294965
0.046400
-0.096548
-0.456593
-0.202820
0.086243
-0.131433
0.097786
0.234724
-0.009547
0.014615
-0.206877
-0.049804
0.039077
-0.340895
-0.044218
-0.212938
0.045621
-0.125418
0.071370
0.285348
-0.037681
-0.145849
-0.041015
0.206006
0.339232
0.023494
-0.040413
-0.097795
0.214193
-0.019694
0.117057
-0.074601
0.003853
-0.182068
-0.020300
-0.087747
0.046856
-0.233093
-0.161751
-0.187693
-0.159713
0.133754
-0.141781
-0.164790
-0.023148
-0.081034
-0.046501
-0.125806
0.022282
0.085680
0.001902
-0.167235
-0.172380
0.129290
0.041148
0.049654
0.104267
-0.112954
-0.060756
0.170529
-0.042941
-0.282370
0.061922
0.339036
-0.065845
0.000777
-0.203778
-0.048533
-0.017531
-0.001862
0.016422
0.132483
-0.025836
0.058575
-0.093732
0.009668
0.078570
-0.098518
-0.001396
-0.230294
-0.209487
-0.013530
0.071209
0.120527
0.070175
-0.199172
-0.048600
0.042511
0.179451
0.033530
-0.045165
-0.099394
0.110121
-0.123029
0.228123
-0.088183
-0.040647
0.057145
0.170610
-0.003460
-0.038349
-0.406384
-0.121855
-0.156591
-0.165868
-0.095251
-0.227975
-0.394616
0.053701
-0.294801
0.130686
0.104833
0.099551
0.080020
0.070149
-0.110240
0.185698
0.001056
0.090258
-0.016485
-0.004314
-0.131255
0.087387
-0.134032
0.066292
0.163691
0.120185
0.229153
0.015060
-0.027829
-0.177487
0.067966
0.030121
-0.057862
0.028767
0.033199
-0.168115
-0.040879
-0.040097
-0.058364
0.074532
-0.115074
-0.007131
-0.076965
0.125159
0.073914
0.235380
0.196667
-0.009594
0.102163
-0.034208
0.139268
0.253049
-0.035592
0.237405
-0.325059
-0.088819
-0.112372
-0.000381
-0.172636
-0.218735
-0.063808
0.174708
-0.110013
-0.046831
-0.036762
0.023024
-0.046653
0.058388
-0.151208
-0.162749
-0.265166
0.036917
-0.202010
0.098004
0.170918
-0.013365
-0.061712
0.083899
-0.235851
0.191700
-0.006298
0.036468
0.161181
-0.337159
0.108038
-0.066904
0.201740
0.206433
0.228090
-0.064766
0.054895
0.125205
0.054894
-0.113783
-0.066823
-0.126743
-0.064076
0.057889
0.064403
0.104620
0.067288
0.181583
-0.093499
0.149320
-0.051800
-0.016225
0.209280
-0.054627
-0.088165
0.168030
-0.033796
-0.135667
0.068927
-0.039151
0.233832
0.037340
-0.061172
0.059554
-0.037767
-0.099332
0.027831
-0.140895
-0.062487
-0.175486
-0.112723
-0.154750
0.135842
-0.012833
0.100988
-0.079464
-0.145196
-0.075082
0.148680
-0.106960
-0.293106
-0.019244
-0.038327
-0.021662
-0.031281
-0.176461
0.103739
-0.231425
-0.022983
0.013330
0.005428
-0.028520
0.111340
-0.240670
0.136844
-0.194697
-0.123708
-0.208115
-0.239855
-0.175246
0.046205
-0.019968
-0.217644
-0.088468
0.195871
0.130599
0.154662
-0.094515
-0.003402
-0.014571
-0.195062
0.224168
-0.083056
-0.257243
-0.090186
0.019801
0.173922
0.042500
-0.170865
-0.035530
-0.231659
0.162684
0.138487
0.065559
-0.298076
0.002449
0.121370
0.052120
0.090336
0.164910
-0.026556
-0.156971
0.008232
0.066466
0.080471
0.284055
-0.177219
-0.041914
0.009805
-0.033764
-0.035167
-0.098977
-0.030433
-0.005639
0.050616
-0.139136
-0.015982
-0.124652
-0.346718
-0.006800
0.083796
0.214864
0.138361
-0.015868
0.333276
-0.127086
-0.116760
0.122528
-0.109510
-0.084203
-0.308664
0.021682
-0.138709
0.143960
0.192678
0.031460
-0.197017
0.074787
-0.213551
-0.029166
0.002199
-0.030207
0.113213
-0.089501
-0.032347
-0.104098
0.123730
0.053989
0.117689
0.030397
-0.264504
0.185506
0.152373
-0.023619
0.024490
-0.235503
0.167627
-0.064821
-0.212945
0.284414
0.021585
0.094994
0.105020
0.121105
-0.042104
0.074464
-0.330626
0.089805
0.070939
0.106493
-0.107085
-0.075954
-0.114965
-0.142118
-0.021484
0.067807
0.000949
-0.326120
-0.004445
-0.195482
0.015312
-0.248574
0.063384
0.070728
0.046855
-0.043798
-0.056995
-0.033611
0.192301
-0.032007
0.140474
0.174256
-0.214452
0.171631
-0.058364
0.143542
-0.140680
0.123067
0.126731
-0.166512
-0.019719
-0.210602
-0.067552
0.080658
0.035465
-0.064094
0.184687
-0.152354
0.056461
-0.199882
0.095803
-0.033760
-0.154725
0.040211
-0.278258
0.117079
0.019821
0.136938
0.040975
-0.247451
-0.008790
-0.177634
-0.068294
0.112210
0.023782
0.079800
0.079279
0.037644
-0.169499
0.101204
0.111680
-0.112231
0.156151
0.127749
-0.044390
-0.323449
-0.147700
-0.214051
0.004734
-0.187905
0.009746
0.160580
0.142450
-0.130331
-0.119284
-0.122945
0.070379
0.299234
-0.021431
0.144649
0.195620
0.035553
0.087454
-0.151448
0.352287
0.208576
-0.022001
0.036743
0.180638
-0.153628
-0.202221
-0.274061
0.311182
-0.112768
-0.091127
-0.200926
-0.269537
-0.009827
-0.228574
0.085961
-0.023504
0.167591
0.241494
0.168780
-0.012689
0.184714
-0.391508
-0.012622
-0.128908
0.053720
-0.035179
0.034317
0.124915
-0.254168
-0.109849
0.070431
-0.270479
0.367236
0.089209
0.186544
0.182282
0.248982
-0.201322
-0.067971
0.144783
-0.350143
0.146661
0.017280
-0.106572
-0.025206
-0.041187
-0.228938
-0.120028
-0.023546
-0.066478
-0.081396
0.131306
-0.086516
-0.052486
0.012439
0.034272
0.206594
0.087386
0.056845
0.146909
0.102073
0.050639
-0.113011
0.164354
0.177217
-0.178598
0.119594
-0.073882
-0.108603
-0.232462
-0.082152
0.296737
0.010343
0.076442
0.076471
-0.115753
-0.119521
-0.220629
0.091324
0.029136
-0.023025
0.161075
-0.035994
0.071928
-0.132564
-0.320224
-0.038298
-0.193203
0.188586
-0.122231
0.034860
0.235953
-0.302171
0.097736
-0.027655
0.053969
0.201170
0.032823
0.165717
0.239266
0.165558
-0.002981
-0.026346
0.205864
0.050740
-0.218153
0.236916
-0.092128
-0.202529
-0.015379
-0.143864
-0.246151
-0.064766
-0.050864
-0.069993
0.150278
-0.064422
-0.275155
0.282902
-0.058945
-0.067528
-0.031468
0.085266
0.154338
-0.279069
0.097331
0.110364
0.119371
0.288622
-0.028031
-0.020258
-0.118003
0.217914
-0.075382
-0.013787
0.197923
-0.070844
0.078066
-0.013234
-0.123274
-0.147897
-0.104393
0.040151
0.018990
-0.170091
-0.033885
-0.199144
-0.087304
0.116714
-0.134142
0.012419
-0.266979
-0.005650
-0.027801
0.100944
0.296958
0.070637
-0.093610
0.078266
0.114330
0.208571
-0.039089
0.027249
0.284624
-0.090937
-0.172339
0.141285
-0.217981
-0.071437
-0.122972
0.155430
-0.214398
-0.268691
0.012858
-0.146741
0.011724
-0.093374
-0.102142
-0.282226
-0.135543
-0.124869
-0.196676
0.135035
0.096424
0.011918
0.169536
0.270621
0.074982
-0.111599
0.192018
-0.273342
0.170109
0.002930
-0.218555
-0.106846
-0.095882
-0.020721
-0.160272
-0.095710
0.121482
0.034009
-0.265736
-0.061102
0.016951
-0.095728
0.050090
-0.110332
0.106018
-0.075386
-0.143293
0.039135
-0.007667
0.203674
0.068818
0.022972
-0.118627
-0.093942
-0.139701
0.054754
0.090560
-0.089912
-0.169608
0.183844
0.009305
0.012217
0.009276
-0.019525
-0.222469
-0.065108
-0.111886
-0.181400
-0.275529
-0.243766
0.301490
-0.033809
-0.055228
0.101360
-0.148822
-0.216160
-0.025263
-0.208391
-0.102063
-0.046527
0.012016
-0.072482
-0.230094
0.098628
0.087519
0.041599
0.156555
0.157602
0.001392
0.239984
0.153639
-0.195016
0.014907
-0.214948
0.161419
0.053473
-0.072380
0.009140
-0.086612
-0.051143
0.238405
-0.212013
-0.152345
-0.154545
0.144501
-0.180821
0.051583
-0.004030
-0.232099
-0.059657
-0.005351
0.075565
-0.073420
0.096184
-0.034418
0.008647
-0.113947
-0.038387
-0.221208
0.186232
-0.024609
-0.094481
0.191099
-0.264687
0.185207
-0.145738
-0.119975
-0.252539
-0.280032
-0.023452
0.022111
-0.310218
-0.188538
-0.184878
0.005485
0.022621
0.062800
0.018161
-0.173245
-0.099821
-0.133717
-0.228418
0.063844
-0.012383
0.010854
-0.099829
-0.194306
0.009148
-0.149028
-0.066897
-0.159581
-0.037844
-0.030012
0.003061
0.043233
-0.021473
-0.125520
-0.098576
0.058203
0.044702
-0.214728
-0.298698
-0.228296
-0.182722
-0.093969
-0.095518
0.127577
0.010279
0.041047
0.088833
-0.166080
-0.200099
-0.122920
-0.112060
0.079329
-0.111406
0.076690
-0.373306
-0.118165
-0.010794
0.170754
0.026430
-0.019470
-0.235185
-0.087513
0.088202
-0.087442
-0.022189
0.180481
-0.274641
0.029835
-0.085255
0.004333
0.080808
-0.144396
0.080235
0.107913
-0.063512
0.044358
0.186226
0.066205
0.105726
-0.048488
0.022307
0.297238
-0.053722
0.107388
0.092218
-0.032207
-0.052218
0.001840
-0.212800
-0.231675
0.070632
0.077439
-0.013027
-0.033001
0.072453
0.028549
0.053824
-0.084713
0.140908
-0.351679
0.000363
-0.368445
-0.049647
-0.109226
0.128767
0.140790
0.169510
0.019930
0.013551
-0.118529
0.117477
0.033520
-0.070685
-0.115899
-0.068829
-0.188417
-0.065098
-0.082368
-0.012559
-0.064529
-0.030975
-0.344758
0.241030
0.306831
0.120980
0.022466
-0.005479
-0.023368
-0.246336
0.021473
0.161620
0.169792
-0.108775
0.046853
-0.036891
-0.150537
0.117993
-0.015300
0.252550
0.204179
0.119245
-0.054549
-0.047432
-0.006629
-0.086622
-0.161017
-0.102794
-0.012820
0.105252
-0.091759
0.012398
0.106680
-0.178044
-0.075350
0.244547
-0.217883
0.196949
-0.020124
-0.204955
0.069871
-0.070893
0.255392
0.198211
-0.104957
0.143938
-0.022782
0.047751
-0.241450
-0.048185
0.116726
0.131701
0.033915
0.188273
-0.164363
0.066947
0.005749
0.024205
0.007125
-0.051298
-0.025463
-0.120706
0.063417
0.047613
-0.331634
0.015166
-0.219531
0.377804
0.089379
0.175894
-0.032783
-0.177387
-0.145552
-0.256883
-0.169966
0.064380
0.006880
-0.049041
-0.047174
0.032023
0.068608
0.084736
-0.206458
0.143318
0.132412
0.064343
-0.128822
-0.004096
0.038914
-0.081742
-0.136593
-0.051094
0.065717
-0.294293
-0.115184
-0.040206
-0.103230
-0.011556
-0.089975
-0.044578
0.051345
0.114091
0.195995
-0.276451
0.063344
-0.339477
0.225394
0.019567
0.005427
0.007111
0.006198
0.115353
-0.120236
-0.081747
0.283047
-0.174952
-0.234246
0.064293
-0.184306
-0.085871
-0.290305
0.145893
0.068266
-0.022870
-0.023805
-0.073372
-0.019810
0.121532
-0.172501
-0.018728
-0.279917
0.172454
-0.133378
0.138106
-0.069817
-0.032883
-0.122901
-0.024498
-0.177450
0.221293
0.046199
-0.050072
0.181226
0.041509
-0.018541
0.160466
-0.000409
-0.063977
0.345844
0.187237
-0.027068
0.138713
0.070361
-0.257555
-0.120176
-0.227136
0.210039
-0.269249
-0.031477
0.011444
-0.173417
0.099277
0.088223
0.042767
-0.162789
0.012896
0.155849
0.121325
0.136820
-0.256172
0.238782
-0.000775
-0.133741
0.211691
0.012478
0.322086
-0.038352
-0.115273
0.324154
0.077505
-0.211509
0.182316
-0.025379
-0.086565
-0.343140
0.138568
0.202181
-0.071639
0.017184
0.065257
-0.008580
0.085945
-0.118077
0.028724
-0.387654
0.351476
-0.393541
0.183052
0.116820
-0.138076
-0.264855
0.102715
-0.248820
0.124346
-0.134178
-0.068031
0.234577
-0.141715
-0.261956
0.043984
-0.128136
0.103938
0.078507
0.093782
-0.108446
-0.026402
0.100095
-0.261599
0.020225
0.166766
0.053700
-0.202470
-0.074068
-0.025021
-0.075916
0.110705
0.043130
-0.114376
-0.005724
0.228957
0.173364
-0.084678
0.031082
-0.136755
0.139164
0.148749
-0.254737
0.007620
0.147348
0.123908
-0.396142
-0.021778
0.241398
-0.098466
-0.150042
0.194980
-0.090902
-0.082675
-0.087707
0.050143
0.075700
0.106860
-0.045161
0.025865
0.019130
0.106582
0.021832
-0.039520
-0.198315
0.223655
-0.149735
0.146054
0.026483
-0.103462
-0.157131
0.044340
-0.024203
0.195638
-0.028744
-0.005120
0.213195
-0.023893
-0.423944
-0.013032
-0.654493
0.054650
0.314361
0.010579
-0.163264
-0.033130
-0.055269
-0.113082
0.086406
-0.098625
-0.059715
-0.325937
-0.119778
-0.207210
-0.241190
0.004856
-0.112274
0.113636
-0.056898
0.148085
0.117671
-0.015730
0.126243
-0.343952
0.178698
-0.007010
-0.234783
-0.222286
0.042706
0.068928
0.138204
-0.013873
0.275983
-0.032348
0.065526
0.074888
0.106372
-0.261783
0.092398
0.007310
-0.040041
-0.174914
-0.100531
-0.093107
-0.012816
0.103642
0.020517
0.011949
-0.123729
0.005529
-0.030508
0.123051
0.183909
-0.056554
-0.252789
0.044139
-0.107903
0.217532
0.111885
0.028492
-0.063520
-0.001684
-0.101303
-0.058578
-0.130387
-0.046258
0.008262
0.054669
-0.288525
0.020755
-0.177482
-0.181993
-0.033852
0.006266
-0.007493
-0.001420
-0.033570
-0.319486
-0.195202
0.025486
0.129906
-0.036001
-0.107696
0.178995
0.100238
-0.028529
-0.045436
-0.076194
-0.183293
-0.175388
0.060959
-0.299557
-0.018972
-0.078842
-0.192232
-0.012929
0.099536
0.157621
0.167981
-0.016427
0.149955
-0.186911
-0.273164
-0.263411
0.016305
-0.136367
0.141631
0.040971
-0.320544
0.072379
0.246292
0.046860
-0.131029
-0.062132
-0.141418
0.105463
0.106906
-0.112112
0.180050
-0.166157
0.071032
-0.247172
0.057390
-0.086391
-0.103113
0.140755
-0.278653
0.044548
0.036531
-0.314306
0.011092
-0.026256
-0.103509
-0.376860
-0.348632
-0.237714
-0.132257
-0.021681
-0.027974
0.084554
-0.062003
-0.127804
0.066974
-0.059260
-0.016134
-0.146046
0.085846
-0.052635
0.088412
0.103603
-0.115769
-0.041953
0.033023
-0.330143
-0.167583
0.103069
-0.158387
-0.242334
-0.277146
-0.056853
0.159571
-0.263417
0.015560
-0.019092
-0.224599
0.120480
-0.077140
-0.304159
0.177090
-0.117851
-0.233497
-0.070998
-0.027556
-0.263375
0.052291
0.006216
-0.166140
0.043890
-0.017935
-0.066698
-0.285658
-0.032358
0.221640
-0.247046
-0.165192
-0.093803
0.086950
0.054493
0.022306
-0.327182
-0.148350
-0.155235
0.063339
-0.060699
0.035657
0.120229
-0.071382
0.079470
-0.029769
0.029103
0.006615
0.002556
0.045584
-0.016525
0.012332
0.093372
-0.003906
0.008545
-0.104507
-0.136148
0.013223
-0.030496
0.318383
-0.069172
0.008582
0.011084
-0.066173
0.036547
-0.055949
0.001878
-0.055220
-0.103686
-0.291435
-0.302889
0.068270
0.091847
-0.026838
0.190161
-0.028035
0.032989
-0.147864
-0.057998
0.042916
-0.084957
-0.098309
0.073760
-0.065557
-0.029050
0.039419
-0.009104
-0.024619
0.130492
0.040467
0.273242
0.037827
-0.009710
-0.045251
0.063850
0.075946
0.107486
0.249199
0.093546
0.018377
0.013055
0.070163
-0.102325
-0.160288
0.278053
-0.012198
0.022112
-0.077882
-0.128848
0.036173
0.018738
-0.385270
-0.110530
-0.131336
-0.109409
-0.048344
0.042204
0.030333
-0.029086
0.057945
0.157356
-0.076875
-0.128119
-0.084017
-0.193102
0.119874
-0.339727
-0.028923
0.209459
-0.026858
0.147313
-0.080398
-0.190229
-0.170853
0.003039
0.094804
0.105879
-0.115989
0.118118
-0.076902
-0.026723
-0.052321
0.085711
-0.159287
0.105976
0.145088
-0.188514
-0.048411
-0.031339
-0.224593
-0.001858
-0.092199
0.268462
0.071797
0.265636
0.139504
0.105522
-0.099085
0.158795
-0.034240
0.178426
0.024181
-0.148442
-0.114364
0.172097
-0.141956
-0.025066
0.018641
0.174318
0.156990
0.049620
0.021229
-0.288700
0.055109
-0.054852
-0.431475
-0.311042
0.144623
-0.100876
0.068315
-0.149468
0.002397
-0.083377
0.081184
0.125355
-0.262834
0.038732
-0.309358
-0.085798
0.077260
-0.319234
-0.047997
0.151512
0.047446
0.044844
0.093687
-0.087142
0.049831
-0.037294
0.051565
0.003139
-0.175496
0.224213
-0.126008
0.089871
-0.058536
0.132399
0.035882
0.171715
0.042403
-0.007112
-0.020136
0.045801
-0.193251
0.045098
-0.077377
0.349463
-0.018002
0.347082
0.279649
0.066043
-0.455752
-0.006739
-0.062083
-0.009686
-0.228946
-0.077324
0.047865
-0.130626
-0.118646
-0.002603
-0.185734
-0.101672
0.230053
0.143691
-0.173546
0.078449
0.152789
-0.134915
-0.195915
-0.068901
0.074790
-0.085565
-0.111573
-0.163269
-0.112396
0.022641
0.128158
-0.102266
-0.268925
0.183389
0.012286
-0.169233
0.021803
-0.282134
0.215873
0.019385
-0.055139
0.033390
-0.216703
0.103732
-0.074830
-0.096682
0.081126
0.025434
-0.042505
0.127216
0.023912
-0.054162
-0.331316
0.154367
0.074010
0.067243
0.062274
-0.156733
0.030008
0.039281
-0.165136
-0.018317
-0.257139
0.251949
-0.218994
0.237196
0.088200
-0.069546
-0.376978
0.116881
-0.030045
-0.060917
-0.241659
-0.080891
0.266261
-0.129695
-0.116287
0.118422
-0.229967
-0.198258
0.205601
0.021495
0.014103
0.095182
-0.091149
-0.065673
-0.514082
-0.055604
0.230339
-0.141116
-0.124539
-0.209387
-0.135341
-0.058537
0.021060
-0.197737
-0.188316
0.397953
0.188208
-0.200760
0.104503
0.001196
0.064720
0.148964
0.171641
0.037466
-0.062003
0.155061
0.205851
-0.233691
0.092792
-0.034673
0.029200
0.329208
0.042916
-0.135218
-0.014291
0.185063
-0.022891
-0.121370
-0.305064
-0.131887
-0.205058
0.189529
-0.020478
0.003222
-0.059434
0.086044
-0.038046
0.115357
0.087342
0.063819
-0.175806
0.041241
0.015640
0.056842
0.014274
0.150930
0.254187
0.019238
-0.104914
0.113904
-0.098033
-0.250385
0.165167
-0.062064
-0.234073
0.029007
-0.183322
0.013964
-0.111980
-0.026621
-0.063453
-0.034015
-0.140354
-0.158899
-0.170671
0.080818
0.032017
-0.248051
0.076439
0.216582
0.057071
-0.079550
0.145247
-0.319364
-0.098037
0.078696
-0.038434
-0.059238
0.046981
0.137424
0.093459
0.156149
0.199769
-0.108566
0.086046
0.055066
0.018472
-0.034768
0.097553
0.061837
0.019883
-0.099136
-0.048701
0.077487
-0.025736
-0.021610
-0.007895
0.006527
-0.075401
0.018696
-0.076862
0.166888
0.043028
-0.053454
-0.134475
-0.077900
-0.026298
0.002254
0.206186
0.007023
-0.050952
-0.020675
-0.060426
0.163040
0.191463
-0.063544
0.027868
0.019958
0.047362
0.017161
-0.166599
-0.035457
-0.001044
-0.115165
0.053395
-0.082933
-0.144539
-0.011430
-0.013687
-0.089264
0.008137
-0.125908
-0.124763
-0.048151
0.094927
0.112674
0.073480
-0.074030
-0.393241
-0.105375
-0.113274
-0.057460
0.020711
0.244596
0.007769
0.020916
-0.082086
-0.293433
0.197105
-0.086797
-0.103523
-0.173042
-0.105575
-0.166341
-0.019859
-0.240938
0.049672
0.253084
-0.060837
0.309487
0.194113
-0.036015
0.144023
-0.087971
-0.123705
0.079367
0.095615
0.049509
0.261304
-0.313033
-0.210854
-0.280156
-0.124338
-0.100479
-0.096191
-0.089509
-0.053852
-0.013157
0.164154
-0.103072
0.057445
-0.089764
-0.083740
-0.271630
-0.168880
0.062507
-0.124636
0.100645
-0.213992
0.000614
-0.162910
-0.011983
0.035683
-0.127020
-0.053105
-0.036694
0.174038
-0.048796
-0.020545
0.015575
-0.104035
-0.116451
0.080786
-0.013291
-0.122995
-0.188249
-0.099290
-0.166389
0.048965
-0.038403
-0.201510
-0.219899
0.129882
0.096637
-0.027206
0.082706
-0.162658
-0.038708
-0.079751
-0.248095
-0.130157
-0.140485
-0.070294
-0.401608
-0.333419
-0.007016
-0.458675
0.146931
-0.114384
-0.212772
-0.383443
-0.147042
0.182742
-0.007972
-0.042514
-0.050156
0.016396
0.225349
0.079220
-0.272174
0.072120
-0.033134
-0.190912
0.199682
-0.040336
0.096259
0.059371
-0.159909
0.020356
0.034305
-0.122376
-0.153612
-0.086568
0.047091
-0.053130
-0.032093
-0.128788
-0.181488
-0.039288
-0.093552
-0.077607
-0.277522
-0.114625
-0.057760
-0.290479
-0.282137
-0.154302
-0.066891
-0.022399
0.135528
-0.216026
-0.091124
0.159331
0.203344
-0.144257
-0.167640
0.309698
0.376101
-0.121473
0.161216
-0.070293
-0.099509
-0.145455
0.032975
0.119311
-0.017285
0.185279
-0.005700
0.059799
0.004009
-0.107643
0.187660
0.120715
-0.067738
0.325984
-0.181676
0.190094
-0.070022
0.427708
-0.046110
-0.079238
0.135625
-0.175827
-0.113767
0.152395
0.078862
-0.060938
-0.127106
-0.067607
0.241760
0.058849
-0.226860
-0.070448
0.045783
-0.424280
-0.134572
-0.257699
-0.296537
0.052521
-0.180342
-0.001705
-0.353220
0.005959
-0.028306
-0.179114
-0.264400
-0.079819
-0.091558
0.035756
-0.130539
-0.106404
0.041446
-0.037838
0.213045
0.007058
-0.148958
0.066268
-0.168531
-0.144717
-0.295613
0.035217
-0.062459
-0.422092
0.103748
-0.039330
-0.084786
-0.103248
0.026495
-0.232882
-0.311466
0.007631
-0.221655
0.003383
0.039210
0.102182
0.045765
-0.009825
-0.055576
0.112501
0.015920
-0.206248
-0.043169
0.159600
-0.058949
-0.083563
0.152043
-0.183341
-0.082209
-0.108819
0.103733
0.150253
-0.189809
0.221050
0.152454
-0.231861
-0.291669
-0.396483
0.081563
-0.576976
-0.181660
-0.362872
-0.374246
-0.042654
-0.158604
0.182138
-0.076759
-0.185423
-0.062467
-0.293848
-0.105635
-0.138404
-0.009100
-0.184857
-0.300086
-0.223158
-0.139047
-0.101439
0.147794
0.012739
-0.114158
-0.136158
-0.384087
-0.136765
-0.045713
-0.108186
-0.058922
-0.275677
-0.098480
-0.139932
0.033160
-0.134373
0.161320
-0.053962
-0.173299
-0.031271
-0.111023
-0.097855
0.039110
0.059298
0.180119
-0.060033
0.108466
0.097064
0.121448
-0.271490
-0.032141
0.179597
0.009391
0.198754
-0.092586
-0.077360
-0.148455
0.046603
0.130740
0.120040
-0.213522
0.151558
0.164853
0.191430
-0.308470
-0.039290
-0.097383
-0.477793
-0.178914
-0.259650
-0.375650
-0.024152
-0.312168
-0.312144
-0.244023
-0.058917
-0.008439
-0.316480
-0.124522
-0.243758
-0.075436
-0.055130
-0.327291
-0.046571
-0.084456
0.227189
-0.166665
0.003164
0.059634
-0.184041
-0.382880
-0.176326
0.070528
0.009133
0.143821
0.030165
-0.025363
0.030450
0.099672
-0.126827
-0.104695
-0.172854
-0.064129
0.210215
0.055382
-0.150572
0.004264
0.153855
0.291915
-0.208040
0.100587
0.023244
0.211713
-0.129049
0.085295
0.169686
-0.049446
-0.018941
-0.089741
0.058538
-0.164194
-0.018197
0.139339
-0.072350
-0.273967
0.220539
0.111345
-0.168228
-0.294523
-0.145000
0.052481
-0.210216
-0.155777
0.092851
0.109463
-0.081893
-0.236820
-0.039393
-0.118057
0.016213
0.110869
-0.259630
-0.227213
-0.041532
-0.111590
-0.140773
-0.216266
-0.142229
0.023956
-0.118111
-0.163338
-0.168817
-0.001143
0.138974
-0.294123
-0.160407
-0.033532
0.158258
0.095981
0.079350
0.002034
-0.290759
0.015854
-0.060675
-0.126868
-0.176046
-0.238043
0.134572
0.055970
-0.092531
-0.029889
-0.005559
0.215325
-0.194506
0.008859
0.146755
0.175910
-0.049018
0.006122
0.105349
-0.093622
-0.001703
0.089836
-0.242297
0.077192
-0.104362
0.171625
-0.077749
-0.430781
0.223262
0.064872
-0.215320
-0.035000
-0.143715
-0.194883
-0.353340
0.029215
-0.077465
-0.018426
-0.082920
0.092925
-0.161156
-0.137102
0.013501
0.073416
-0.080949
-0.015939
-0.165282
-0.062465
0.032245
-0.128031
-0.113390
-0.040453
-0.211184
-0.013812
0.011570
-0.137439
0.269522
-0.196095
0.003727
-0.153491
0.076781
-0.087875
-0.027474
0.026979
-0.328938
-0.081842
0.070220
-0.140856
-0.051230
-0.180993
0.012338
-0.066689
0.055295
-0.018521
0.234497
-0.175248
-0.048005
-0.055632
0.209901
-0.080313
-0.516949
0.019880
-0.194546
-0.018102
0.111779
0.039074
-0.277995
-0.050028
0.024387
0.031080
0.042096
-0.167039
0.026203
0.095328
0.027852
-0.089742
0.026069
-0.102826
-0.099297
-0.072693
0.022783
0.060246
-0.152408
-0.058954
-0.270661
-0.042239
-0.112362
0.135365
-0.067999
-0.121687
-0.212129
-0.089755
-0.136959
-0.056052
-0.323421
-0.204933
-0.056615
0.226822
0.161852
-0.143686
0.120748
0.092893
-0.147303
-0.264225
0.110846
0.008801
0.102101
-0.200811
-0.093660
-0.019581
0.080503
-0.243264
-0.273046
-0.305697
0.101231
0.080707
0.226418
0.004935
0.200858
-0.000766
-0.090723
-0.324487
-0.037727
-0.124226
-0.016120
-0.015395
-0.117017
-0.060252
-0.084039
0.072160
-0.037946
0.016241
0.040361
-0.200822
-0.246870
0.164359
-0.051523
-0.006768
-0.221880
0.001835
-0.095431
-0.059209
-0.168190
-0.029131
-0.074796
-0.119492
-0.110987
0.133000
-0.074648
-0.059821
-0.082535
0.003420
0.091166
-0.020095
0.027774
0.155037
-0.149713
-0.042227
-0.126529
0.023949
0.230992
0.101448
-0.039243
0.297815
-0.005004
-0.072158
0.003067
0.033260
-0.029894
0.108225
-0.015018
0.047518
-0.105177
0.054863
0.057365
-0.063868
0.035494
-0.121969
0.004202
-0.001733
0.094078
-0.020772
-0.085151
-0.001281
-0.035573
-0.167226
-0.002278
0.137724
0.012890
-0.055169
-0.192717
-0.141292
0.189809
0.224696
0.103456
-0.033633
-0.044495
0.075651
-0.002670
0.077776
0.334951
0.056840
0.058534
-0.070361
-0.057948
0.052253
0.075283
0.058264
-0.079792
-0.099465
-0.026374
0.263015
-0.097519
-0.100629
0.086792
-0.125464
-0.050666
-0.117058
-0.078678
0.086476
-0.148026
-0.102156
0.034566
-0.082346
-0.196502
-0.130802
-0.011420
0.083043
0.093925
0.042439
0.108972
-0.078853
-0.057998
0.074040
-0.070328
0.112251
-0.072559
0.094929
0.233394
-0.180371
0.058656
0.084917
0.066817
0.010038
-0.050448
0.039268
0.088372
-0.214568
0.084720
0.060378
0.100805
-0.004021
-0.068159
-0.321155
0.068369
0.048781
-0.047937
0.098892
0.181774
-0.028551
0.044749
-0.055260
-0.142891
-0.246821
-0.192225
-0.029336
0.117756
-0.045613
0.011661
-0.174688
-0.059800
0.127872
0.023233
-0.193776
-0.011831
0.135190
0.110641
-0.177092
-0.116000
-0.028633
-0.098897
-0.005193
0.097273
-0.024414
0.088040
0.093339
-0.076849
-0.081168
0.057147
0.134836
0.037905
0.013918
0.159452
-0.049444
0.021200
-0.013506
-0.012129
0.087796
-0.271007
0.124413
-0.094301
-0.025118
0.034695
-0.209160
-0.039834
0.055743
-0.093901
0.015790
-0.206999
-0.009505
0.067315
-0.532019
-0.073836
0.156638
0.093700
-0.053375
-0.096556
0.000987
0.007007
0.058349
-0.055142
0.029389
0.022477
0.003077
-0.169902
0.101440
0.025513
0.108354
-0.314376
0.094910
-0.271330
-0.022113
-0.178400
0.010078
-0.013566
-0.179932
-0.428906
-0.130722
-0.053732
0.017844
0.129879
-0.023416
0.098227
-0.013030
-0.056890
-0.038647
0.036342
0.015952
-0.210423
0.022545
0.027414
-0.108745
0.022365
0.041638
-0.140147
-0.113997
0.233684
-0.054777
0.043551
-0.028412
0.004010
0.051864
0.136795
-0.151756
-0.219355
-0.102569
-0.197731
-0.116106
0.169093
-0.215187
-0.106359
0.092632
-0.120381
0.019515
0.138211
-0.390907
0.136230
-0.064491
-0.018334
0.095389
-0.082535
0.051186
0.031982
0.009871
0.310492
0.129410
-0.081634
-0.022954
-0.056358
-0.189142
-0.023937
-0.118949
0.126700
0.019734
-0.116945
0.023714
-0.018239
-0.015879
-0.178048
-0.234600
-0.180893
0.015019
-0.080201
-0.124797
0.061416
-0.079320
0.030571
-0.042421
0.042812
-0.116125
-0.203560
0.050514
0.042690
0.039293
0.006896
-0.266555
-0.078752
0.040467
-0.234710
0.268193
0.171476
-0.097285
0.039291
-0.130430
-0.212432
-0.011409
0.148752
0.026631
-0.257547
0.074848
-0.335188
-0.137397
-0.046537
-0.227565
-0.008441
-0.034464
-0.140467
-0.015653
-0.071977
-0.252932
-0.068013
-0.069344
-0.008591
0.112989
-0.017433
0.309843
0.027407
0.083546
-0.038377
0.005624
0.019325
-0.012953
0.086243
0.054898
0.087686
-0.070434
-0.245721
0.083991
0.212558
-0.226690
-0.059332
0.000184
-0.097088
-0.097488
0.067055
-0.069525
0.001022
0.144258
0.132750
-0.027500
-0.009591
0.046352
0.101913
-0.211181
-0.114653
-0.094304
-0.176695
-0.031485
-0.129394
-0.116584
-0.028023
0.017749
0.002837
0.290528
0.038146
-0.026142
0.081112
-0.082197
-0.052102
0.066141
-0.041558
0.039549
-0.123463
0.062959
-0.183734
-0.417758
0.081704
0.077521
-0.151120
0.018415
-0.263564
0.005891
0.078169
-0.484821
-0.017517
-0.030994
0.001877
0.059102
-0.137410
-0.045337
-0.034453
0.047143
0.064411
0.066129
0.111122
-0.227761
-0.262978
-0.263911
0.325313
0.061524
-0.252002
0.141887
-0.080795
-0.258854
0.072054
-0.107914
-0.031634
-0.049187
0.021223
-0.050366
-0.073655
0.214400
-0.059232
-0.054229
-0.082311
0.126128
0.191485
-0.149962
-0.093558
-0.043468
0.128102
0.071472
-0.116250
-0.047719
-0.050457
-0.096900
0.094505
0.123115
0.253480
0.000901
0.233826
0.090608
-0.178360
0.049487
0.027845
0.085427
0.047634
-0.042548
-0.214617
-0.089555
0.171463
-0.083053
-0.248022
0.053212
-0.129707
0.024481
0.193645
-0.194528
-0.070402
-0.310644
-0.000702
0.033883
-0.047869
-0.412743
0.120688
-0.017470
0.001986
0.158236
0.050497
-0.131697
-0.263857
-0.227227
0.093859
0.042503
0.064038
-0.011432
0.197871
-0.050420
-0.243701
0.194398
0.026736
0.145116
0.136543
-0.209784
-0.117595
-0.044111
0.043289
-0.088913
0.083501
0.060568
0.099983
-0.234758
0.020417
-0.197791
0.100720
-0.004211
0.012817
0.129916
0.094864
-0.134242
0.122825
0.319424
-0.040289
-0.041008
-0.014987
0.044261
0.008060
-0.086284
0.161571
-0.116081
-0.013387
0.093507
-0.086346
0.199172
0.130441
-0.118001
-0.062936
0.053610
0.005972
0.016965
0.016241
-0.111456
0.013253
-0.092638
-0.047135
-0.008530
0.008963
-0.265982
-0.113336
-0.173476
-0.125754
0.212211
-0.124355
-0.021930
-0.071383
-0.495706
0.009033
0.085313
0.119652
0.000892
0.072111
0.074996
-0.040752
-0.153321
-0.046760
0.029418
0.279149
-0.124284
-0.061592
-0.083620
-0.033365
0.013144
-0.074482
-0.047163
-0.017725
-0.033928
-0.059006
-0.307789
0.111637
0.059068
-0.393068
0.131624
0.105545
0.157188
0.037895
0.046192
0.115138
-0.354973
0.088680
0.091538
-0.027765
-0.179759
-0.015699
0.109384
-0.306348
-0.184354
-0.269060
0.023312
-0.188233
-0.018848
0.022287
-0.130098
0.087666
-0.028784
0.005188
-0.041564
0.008545
-0.052023
-0.049704
-0.248208
0.053687
-0.239876
-0.078714
-0.044007
-0.066824
0.114182
-0.044760
0.153949
0.088931
0.077041
0.088369
-0.129602
0.098432
-0.249362
0.060612
-0.072121
-0.018284
0.002272
0.054051
-0.223768
0.115616
-0.076021
-0.233618
0.060001
-0.286348
0.044396
0.118981
-0.091194
0.021364
0.016191
-0.355309
-0.028806
-0.091920
-0.144647
0.010646
-0.030207
-0.081238
0.025453
-0.005134
-0.136556
0.215619
-0.062379
0.158688
0.033452
-0.088122
-0.051058
-0.228134
0.039700
-0.213757
-0.002614
0.002642
-0.125401
0.193915
-0.108722
0.129020
-0.007877
-0.128052
-0.000682
0.016594
-0.148329
-0.015570
-0.172078
-0.040895
-0.079185
-0.096706
-0.131578
0.058000
0.034754
-0.232177
0.001321
-0.142568
-0.070891
0.060492
-0.101569
0.159797
-0.030317
-0.333127
-0.180664
-0.113847
0.114195
-0.098907
0.166583
0.210287
0.024072
0.265425
0.043366
-0.249130
-0.045350
0.125444
-0.032639
0.048625
0.150763
-0.040521
-0.131530
0.089901
-0.074855
-0.151617
0.084266
0.112018
0.144661
0.047793
-0.061361
0.042034
-0.000149
0.163067
0.148693
0.204085
-0.118057
-0.255065
-0.044026
-0.140677
-0.068971
-0.035634
0.069639
-0.029319
0.204677
0.063268
-0.078338
0.137331
-0.029722
-0.211042
0.008545
0.050495
-0.335509
0.143995
-0.051480
-0.054307
-0.030012
0.026653
0.140387
-0.013437
-0.043943
-0.108074
0.047140
-0.177066
0.146862
-0.049818
0.034574
-0.065214
0.087651
-0.026498
-0.391779
0.077733
-0.016472
-0.073319
0.157339
-0.070207
-0.013165
0.012611
0.082358
-0.173532
0.019659
0.088995
-0.032573
0.096633
-0.036624
0.022199
-0.025696
-0.057142
0.032053
-0.125949
-0.014574
-0.158900
-0.027088
-0.050803
-0.057334
-0.080701
-0.076865
0.200817
0.024835
0.163364
-0.097557
-0.077415
0.094250
-0.079231
0.079219
-0.020153
-0.030591
0.019882
-0.090113
0.050192
-0.214648
-0.012890
-0.090440
-0.113205
-0.024806
-0.077809
-0.415363
0.036031
-0.024242
0.024169
0.057006
0.075729
-0.201648
0.104202
0.073408
-0.158475
-0.054961
0.031263
0.092716
0.061331
0.114422
-0.117489
0.227833
-0.053163
-0.316634
-0.020043
0.032419
-0.127502
-0.048455
-0.015298
-0.070020
0.005214
0.086935
-0.086523
0.094890
0.200257
-0.031815
-0.006967
-0.032384
0.119472
0.190821
0.042220
0.158223
-0.041522
0.036659
-0.058625
0.060789
0.216541
-0.074746
-0.177008
-0.214390
0.236616
-0.004982
0.156485
-0.142068
-0.164343
0.105300
-0.166808
-0.078417
-0.109116
-0.061116
-0.111780
-0.006013
0.088129
-0.065877
-0.026053
-0.052650
-0.123200
-0.009589
0.062994
-0.459377
0.002482
-0.033319
-0.110321
0.101900
0.053208
-0.001166
-0.062421
-0.018847
0.051661
-0.086748
0.051844
0.111465
-0.054457
-0.056199
-0.014903
0.109313
0.083757
-0.423392
-0.015946
-0.067561
-0.110902
-0.028648
0.247686
-0.078421
-0.026363
0.109637
-0.158618
0.075100
0.006533
0.048882
0.060255
0.024729
0.173329
-0.035730
0.030653
0.051467
-0.054092
0.057532
-0.071183
0.130101
-0.219454
0.034407
0.144100
-0.047120
0.254274
0.152874
0.184931
0.005432
-0.201725
0.291602
-0.055138
-0.033851
-0.093411
0.007921
-0.003649
0.044649
0.101555
0.023600
-0.002404
0.181701
-0.089303
-0.014769
0.144009
-0.204365
0.054777
0.002300
0.323732
-0.085609
0.038863
0.045099
0.050449
0.086089
0.004170
-0.185769
0.019072
-0.074950
0.038997
0.042624
-0.005186
0.257239
-0.377327
-0.146582
0.001501
-0.094442
0.113215
-0.112553
0.236519
-0.164684
-0.112360
-0.034934
-0.224797
-0.050004
0.166118
-0.157134
-0.092493
0.173950
0.115176
0.050337
-0.046196
-0.127471
0.194301
0.138152
0.028047
0.236069
0.081978
-0.081016
-0.079625
0.044704
0.031593
0.092652
0.149077
-0.015046
-0.090054
0.084030
-0.274342
-0.024375
-0.145132
-0.004313
0.009773
-0.107834
0.094209
-0.294205
-0.098831
-0.187885
-0.054444
-0.028599
0.066368
-0.087400
0.055067
-0.249854
-0.075352
0.071191
-0.090174
-0.007321
-0.020315
-0.073147
0.030638
0.072390
0.051335
0.147728
-0.153007
-0.074273
-0.081648
0.006367
0.144677
-0.405117
-0.026237
-0.074557
0.096160
-0.173007
0.121081
-0.090657
-0.041246
0.000290
-0.103923
-0.050605
0.111896
-0.051024
-0.023651
0.026573
-0.048606
-0.047037
0.048147
-0.226898
-0.063436
0.001081
0.039770
0.226829
0.223682
-0.193975
-0.125754
0.075281
-0.104973
-0.025460
-0.046475
-0.107722
0.077964
0.080929
0.019812
-0.029174
-0.086507
0.118397
-0.065142
-0.053488
-0.171545
-0.019689
-0.185831
0.068533
0.050162
-0.021372
-0.019474
0.079391
-0.291297
-0.069947
-0.164194
-0.082063
-0.032406
0.153746
-0.178363
-0.072095
-0.128261
0.123099
0.112129
-0.065779
-0.096969
0.073117
-0.130123
0.135265
-0.175135
-0.022422
-0.058729
-0.073624
-0.007326
-0.041408
0.147639
-0.126454
0.194016
-0.111570
-0.046506
-0.047499
0.075054
0.019270
-0.126600
-0.142915
0.144537
-0.129854
-0.134818
-0.234061
-0.183045
0.070608
0.006973
0.094019
0.089539
-0.018876
0.037391
0.048219
-0.125730
-0.031163
0.168875
-0.131135
-0.028830
-0.146100
-0.031858
0.033967
-0.220477
-0.199027
-0.340749
-0.060229
-0.057646
-0.151277
-0.167035
0.011985
-0.110790
-0.025485
0.073185
0.026823
0.139396
-0.174346
-0.161342
0.209016
-0.135654
-0.119446
-0.215431
0.138896
-0.114162
0.057302
-0.129783
-0.233195
0.073443
0.077023
0.045291
0.052991
0.033384
-0.472439
-0.232750
-0.073194
0.052091
-0.049785
0.028589
-0.011705
-0.110806
-0.042487
-0.121352
0.144355
-0.010879
0.043672
0.020079
0.050806
-0.166970
0.095714
-0.178645
-0.249356
0.036926
0.128800
-0.063673
0.162504
0.096762
0.075103
-0.043343
0.038291
0.193720
0.119545
-0.023506
-0.068580
0.059613
0.034818
-0.417620
0.080222
-0.327518
-0.141573
-0.216110
-0.102611
0.045206
-0.294924
0.244594
-0.044856
0.046308
-0.044440
0.040718
-0.033737
-0.046775
-0.039321
-0.218967
-0.008362
-0.028497
-0.253858
-0.065032
-0.076107
-0.309140
0.092752
-0.058511
-0.041532
0.098728
0.027046
0.145281
0.071170
-0.181236
-0.243137
-0.095538
-0.225748
-0.079714
-0.252592
0.092418
0.137346
0.146682
0.154445
-0.193162
-0.104423
0.044575
-0.003985
0.100777
-0.054069
-0.110014
0.031442
-0.247776
-0.173741
-0.179043
0.040423
-0.097390
0.086080
-0.102808
0.083456
-0.053372
0.051446
0.147737
0.120977
0.054836
-0.210617
-0.183238
0.199616
-0.179110
-0.137447
-0.101626
0.180849
-0.208425
0.169420
-0.073066
-0.212504
0.107426
0.004378
-0.023914
-0.015468
0.026175
-0.097182
-0.031525
0.175115
0.045117
0.020566
-0.039766
0.086161
-0.096755
-0.048451
-0.077010
-0.077613
0.037692
-0.088026
0.016426
0.271989
-0.007635
0.037307
-0.422189
-0.024096
-0.044169
0.030585
0.088813
0.144453
0.053074
-0.041235
0.000318
-0.019701
-0.125883
-0.128412
0.130602
0.065386
-0.084559
-0.112242
0.149371
0.081306
-0.279715
0.082392
-0.122305
0.112104
0.078879
-0.061343
-0.063009
-0.101077
0.023187
-0.050651
0.183091
0.104914
0.193365
-0.142174
-0.373378
0.126423
-0.242769
0.050027
0.116298
-0.022385
0.059856
0.197121
-0.085937
0.076994
0.164652
0.103744
-0.137995
-0.020139
0.087850
0.009538
0.034049
0.083646
0.000846
0.194945
-0.000821
-0.013509
-0.028216
0.040470
-0.133360
-0.038820
0.085380
-0.198472
0.178755
-0.080586
-0.157687
0.065352
-0.042004
-0.062979
-0.077965
0.133788
0.123635
-0.090302
-0.039866
-0.064075
-0.042858
-0.062310
-0.035104
-0.086032
0.201220
-0.145940
-0.172053
0.013324
0.141622
0.109209
-0.028698
-0.046854
0.066923
-0.190478
-0.047337
0.180303
-0.100939
0.023784
0.003592
-0.090555
0.243507
0.080825
0.097664
-0.074332
-0.251510
0.155696
-0.189684
-0.055362
-0.058730
-0.007571
-0.055595
-0.081823
0.231112
-0.170364
-0.135185
0.111900
-0.150809
0.018539
0.138284
-0.042621
0.180627
0.074657
0.009474
-0.039999
0.010348
0.157002
0.019681
-0.083555
-0.175091
-0.011558
0.039987
-0.010075
0.073710
-0.034060
-0.132368
0.050870
-0.421141
-0.056804
-0.034332
0.080674
0.030005
0.204489
0.072747
-0.067015
-0.011193
-0.028057
-0.238242
-0.026483
0.079921
0.070441
-0.077652
0.142231
0.022989
0.075879
-0.170886
0.093074
-0.086082
-0.122121
-0.122720
-0.037632
-0.078861
0.017217
0.067773
-0.257431
0.087900
0.031684
0.013775
0.051508
0.188467
0.085261
-0.207342
0.100249
-0.141186
-0.076163
-0.151392
-0.099126
0.010273
-0.143542
0.086775
-0.043693
0.008094
-0.002759
0.125053
-0.083395
0.075572
-0.073854
-0.183504
0.062298
-0.039792
-0.057079
-0.130439
0.137714
-0.228572
-0.037455
-0.047153
-0.004200
0.138766
-0.098690
0.117730
0.022710
0.106453
-0.102950
-0.065382
-0.074257
0.043115
0.105341
-0.036928
-0.203464
0.106239
0.160449
-0.184976
-0.183827
0.043307
-0.064405
0.137334
-0.035218
-0.029002
0.186309
-0.009135
0.158818
0.097721
-0.064939
0.037280
-0.020539
-0.262065
0.031829
0.013718
0.101312
0.020805
0.058485
-0.025602
0.084171
0.005689
0.032274
-0.130916
0.201035
-0.374715
0.031270
-0.142332
0.024332
-0.016250
-0.132339
0.003398
0.124992
-0.023092
-0.013414
-0.079135
-0.056466
0.007738
0.016875
-0.146229
0.075460
0.017139
0.098502
-0.131447
0.035094
-0.076857
-0.093868
0.016584
0.108316
-0.076298
-0.159903
0.054640
0.091695
0.026474
-0.322091
0.061631
-0.038399
0.151564
0.001971
-0.089461
-0.251177
-0.379792
0.150727
-0.048322
-0.163495
0.123450
0.265255
-0.132989
0.005049
-0.049390
0.011983
-0.075910
-0.045510
-0.021014
-0.108237
-0.146574
0.038936
0.061197
-0.067033
-0.276409
0.316474
0.026898
-0.019464
0.106433
-0.095740
0.086666
0.017401
0.120240
0.163396
-0.154619
0.014735
-0.173322
-0.085002
-0.199044
0.034203
-0.273351
-0.088262
0.199601
0.016683
-0.007128
-0.085201
-0.200525
-0.221282
0.097936
-0.046980
0.096284
0.177356
-0.150661
-0.083657
-0.023123
0.032732
0.059118
-0.119797
-0.044476
-0.091166
-0.085248
0.020332
-0.091304
0.009515
-0.006091
-0.005780
-0.036068
-0.057986
0.126377
-0.591125
0.033375
-0.077337
-0.010057
0.010409
-0.175352
-0.139446
0.161213
-0.050286
0.157532
0.059751
0.011226
-0.070174
0.064562
-0.170721
-0.096572
0.122990
0.089955
-0.063846
0.004118
-0.025023
-0.217387
-0.091424
0.049332
0.015831
0.186749
-0.042445
0.098657
-0.194065
-0.039584
0.044354
-0.257932
-0.113252
-0.180162
-0.194510
0.090849
-0.120138
0.109109
0.003487
-0.117553
0.129455
0.132667
0.052066
-0.151139
-0.073070
-0.092387
-0.384481
0.089781
0.084022
-0.249058
0.083980
0.128694
-0.140542
-0.032944
-0.048624
0.081825
-0.077465
-0.241666
-0.118766
-0.094897
-0.096396
-0.018423
-0.100134
0.152718
-0.117226
-0.181163
-0.008992
-0.018099
-0.173489
-0.159074
-0.067903
-0.048811
-0.069299
0.031105
0.223684
-0.028774
-0.047432
-0.240662
0.032822
-0.031865
-0.028365
-0.212578
0.005503
-0.147263
-0.165568
-0.158203
-0.122555
-0.093936
-0.220606
-0.177689
0.023554
-0.055501
0.117347
-0.332656
-0.102118
0.018568
0.121728
-0.093440
-0.146580
0.068163
-0.036424
0.149340
-0.016165
-0.058971
-0.124846
0.081740
0.089416
0.011063
0.034822
-0.140459
-0.010032
-0.155455
-0.133852
-0.106409
-0.058554
0.083110
0.037727
-0.011160
-0.130987
0.189474
0.059857
0.091906
-0.099353
0.089877
-0.295138
-0.151719
-0.112467
0.018518
-0.009802
0.065161
0.146079
-0.111934
-0.184389
-0.212532
0.050031
0.027037
-0.324007
0.285443
-0.035059
-0.062638
-0.075416
-0.376828
-0.064410
0.053990
-0.190743
-0.088629
0.139518
-0.063864
-0.119236
0.036105
0.049501
-0.163584
-0.189397
-0.092453
-0.014125
-0.176296
-0.054590
-0.179470
0.033008
-0.112290
-0.060045
-0.043261
-0.011990
0.108905
-0.082539
-0.030272
-0.000205
0.237019
0.060291
-0.043813
-0.106113
-0.209853
0.071514
0.001863
-0.165731
0.201242
-0.057402
-0.122280
0.022378
-0.154491
-0.002193
-0.004930
-0.179205
0.057084
0.041274
0.040728
-0.032992
0.028277
-0.180837
0.084485
0.001316
0.133142
-0.063381
-0.136389
-0.104497
0.056861
0.144327
0.037772
-0.000929
0.038792
0.054649
0.114284
0.071258
-0.265300
0.071409
-0.190835
0.101189
0.189702
-0.166223
-0.006942
-0.019484
-0.203086
0.007883
-0.080818
0.025441
-0.155109
-0.384581
-0.293504
0.066674
-0.091249
0.032835
0.072304
0.040384
0.021717
-0.114125
-0.193832
-0.224092
0.223007
0.241615
-0.147781
0.007921
0.085363
-0.007436
0.169584
0.166679
0.142481
0.163784
0.200049
-0.185301
0.268047
-0.171224
-0.251393
0.086879
-0.228996
0.268671
0.021875
-0.157078
-0.183695
0.137434
-0.230728
0.000311
0.034688
0.057361
0.111660
-0.089886
-0.021320
-0.227367
-0.088313
0.019383
0.234922
0.201251
0.017173
0.115572
0.288980
0.130104
0.076903
-0.059106
-0.239803
-0.240454
-0.002760
-0.076720
-0.181858
-0.114307
-0.023200
-0.042207
-0.105612
-0.091606
0.070269
0.058484
-0.085322
-0.199416
-0.226278
0.028707
-0.117253
-0.027333
-0.006904
-0.273821
0.015241
0.016149
0.120614
-0.115005
0.026952
0.154949
0.034285
-0.010755
0.065344
0.059709
0.140821
-0.173412
0.097852
0.052885
0.076050
-0.135961
0.038344
-0.134659
-0.020540
0.132110
-0.098360
-0.134620
0.089044
-0.061285
0.039030
0.148162
0.002592
-0.153312
0.072434
0.024728
0.019555
-0.005971
-0.098967
-0.255024
-0.305470
0.128789
0.057074
-0.292921
0.166926
0.147827
0.124699
-0.009185
-0.160196
-0.004712
0.058363
-0.051434
0.112848
-0.246387
-0.129807
0.041867
0.065868
-0.081879
0.136529
-0.006677
-0.139416
0.010973
-0.045626
0.068298
-0.117605
0.144662
-0.229320
-0.099621
0.032153
-0.248704
-0.065657
-0.024832
0.016965
0.004598
-0.074165
-0.017264
-0.095034
0.019189
0.055206
0.002627
-0.058718
0.082137
0.015615
0.026740
0.221953
0.060653
-0.030993
0.223418
-0.015686
-0.099837
-0.158561
-0.025567
0.154861
-0.190325
0.027761
0.175907
0.126019
-0.320570
0.026068
-0.268966
-0.007979
-0.120938
-0.001797
-0.266671
-0.119975
0.068750
-0.079101
-0.046370
0.111871
0.178953
0.012618
-0.114121
-0.017967
-0.081468
0.103425
0.211503
0.098553
-0.132294
-0.088407
0.273335
0.024273
-0.028095
0.039094
-0.053104
-0.189866
0.164150
-0.128653
0.000678
-0.106608
0.057718
-0.239159
-0.141636
0.041598
-0.038962
-0.042687
0.321783
-0.091680
-0.073646
-0.232998
0.098936
0.028969
0.035408
0.000599
-0.112755
0.182361
-0.204817
0.057833
0.129423
0.020129
0.186196
-0.133092
-0.061886
-0.145810
-0.116706
-0.023903
-0.008541
-0.015739
0.077898
0.054024
-0.055333
0.002893
-0.188795
-0.105757
-0.243517
-0.053197
-0.223837
0.084605
-0.075742
0.143242
0.120504
-0.063336
0.001490
-0.003813
0.090077
0.007870
0.015285
-0.033661
0.093939
-0.086379
-0.048506
0.145759
-0.099703
-0.187880
0.226290
-0.134500
0.124972
-0.185953
0.091487
-0.332739
0.081748
0.043604
-0.012006
0.112241
0.001867
-0.016919
-0.037333
-0.016997
-0.001003
-0.081298
-0.048739
-0.040356
-0.156024
-0.098916
0.078906
0.012385
0.023481
-0.151946
-0.012035
-0.119877
-0.106488
-0.258643
0.022248
0.022030
-0.014103
-0.060767
-0.041682
-0.079397
0.145087
0.190786
-0.037825
0.120101
-0.177362
0.032184
0.013187
-0.052241
0.184332
-0.215144
0.109225
-0.011460
0.102028
0.109209
-0.016096
0.040564
0.156580
-0.133690
0.166171
-0.191439
0.010288
0.212069
-0.068734
-0.050618
0.039698
-0.024877
-0.102475
-0.101606
-0.253122
-0.080157
0.019086
-0.123311
0.213358
-0.019043
0.040006
-0.090605
-0.020290
0.275577
0.242999
0.092359
0.028249
0.205642
-0.005376
-0.125534
-0.002663
-0.052170
-0.245682
0.137175
-0.081720
-0.028850
-0.020766
-0.199970
-0.043506
-0.092422
0.037801
0.004411
-0.237522
-0.217490
0.015917
0.086498
-0.063780
-0.084760
-0.062327
0.078106
0.040997
-0.170825
-0.206084
-0.013636
0.085120
0.098353
0.113306
0.060295
0.023279
-0.146415
-0.220753
0.063838
-0.015568
-0.010610
-0.002939
-0.126903
-0.044887
-0.148954
-0.015202
0.051613
-0.092562
-0.035765
0.185467
0.040958
0.032397
-0.124323
0.055814
-0.114466
-0.077877
-0.092347
-0.070234
0.068983
0.117676
0.077453
0.063919
-0.061559
0.042377
0.077543
0.033698
0.079282
-0.179398
0.078029
0.155245
-0.205714
-0.110880
0.050934
0.105903
0.000851
-0.221198
-0.006452
-0.101372
-0.063735
0.001890
0.045492
-0.003126
0.045487
-0.069478
-0.100799
0.105822
-0.046587
0.175173
0.102419
0.089363
-0.300745
0.077206
0.032376
0.099644
0.071512
-0.043819
0.231812
0.168971
-0.024271
-0.043713
0.081783
-0.217450
0.186690
0.082623
-0.101096
0.177698
-0.151282
0.144163
-0.141522
-0.022865
-0.066518
-0.093735
-0.080931
-0.147756
-0.080776
-0.029939
-0.015439
0.006204
-0.163616
0.025155
-0.121595
-0.070295
0.006393
0.063425
0.107329
0.038292
0.051738
0.101642
-0.119138
-0.112552
0.002873
-0.078336
-0.031881
0.105039
-0.254578
0.222652
-0.084403
0.197711
0.028743
-0.269935
-0.148984
-0.050592
0.090572
0.028960
-0.100184
-0.072854
0.082099
-0.080290
-0.104089
0.124051
0.081710
0.087865
0.173043
-0.091112
0.157984
-0.033141
0.130024
0.228791
0.040429
0.077983
0.071929
0.161141
0.134712
0.100212
-0.124810
-0.300708
-0.137555
-0.062530
0.148080
0.171947
-0.253706
0.023156
-0.234650
-0.093693
0.025332
0.193801
0.101037
0.008532
-0.078284
-0.075363
0.023452
-0.050367
0.024199
0.080518
0.014086
-0.166676
-0.070093
0.101662
-0.136239
-0.140094
0.057572
0.149235
-0.473379
-0.144241
-0.058654
-0.072484
-0.085157
0.184139
-0.114645
0.023717
0.020978
-0.065375
-0.023603
-0.255137
-0.120978
0.120983
0.111972
0.028691
0.107683
0.054969
0.019988
0.080058
-0.213871
0.063374
0.185821
-0.168549
0.262503
0.112880
-0.066263
0.149970
0.048812
0.172508
