-0.202300
-0.021310
-0.096034
0.257000
-0.008725
-0.024715
-0.091636
0.077949
0.359560
0.033107
0.046509
-0.182974
0.185385
-0.015829
-0.253154
0.001574
-0.070838
0.006139
0.180875
0.193815
0.021697
0.228409
0.064447
-0.255811
0.024587
-0.195248
-0.148576
-0.151451
0.005980
-0.199583
0.196111
0.338837
-0.196262
-0.063846
0.165530
-0.006230
-0.207392
0.050793
-0.168726
0.083637
0.337353
-0.143666
-0.172533
0.209956
0.002436
-0.241615
0.037697
-0.026012
-0.021267
0.408276
0.049214
-0.065880
0.103323
-0.071528
0.172228
0.177602
0.268966
0.189465
0.053781
-0.014781
-0.045180
-0.057122
-0.083793
0.092886
-0.172978
-0.092652
-0.098519
-0.240322
-0.275321
0.039565
-0.021957
-0.114531
0.170038
0.090845
-0.045403
-0.061219
-0.061640
-0.091741
0.177840
0.045824
0.049967
-0.182989
-0.011909
-0.168572
0.048430
0.009940
-0.158011
0.006000
-0.214669
-0.124801
-0.013792
-0.074962
-0.072607
-0.032574
0.119915
-0.011420
0.094336
-0.067896
0.006063
-0.093548
-0.006498
-0.022714
0.046919
0.050558
0.048983
-0.081122
0.057114
0.006725
-0.095901
-0.214517
-0.073973
-0.212869
-0.138295
-0.082002
-0.153035
-0.166236
0.255877
0.119317
-0.129566
-0.002157
0.135914
0.076576
0.091810
-0.120481
-0.029258
0.208210
-0.063009
0.122604
-0.010543
-0.015252
0.040956
-0.118385
-0.118096
0.001056
-0.126646
0.118294
-0.022595
-0.044441
-0.299731
0.374898
0.070571
-0.003421
-0.043401
-0.158957
-0.127717
-0.147993
-0.088772
-0.161824
0.366230
0.147051
0.119640
0.167283
-0.028876
0.019354
0.031864
-0.157364
-0.290861
0.359641
0.059760
-0.137509
0.219397
-0.081133
-0.017024
0.185647
0.159672
0.265028
-0.088391
0.062547
-0.189661
-0.424534
0.214389
-0.048248
-0.089587
0.057558
0.245630
-0.183940
0.108490
-0.182342
-0.248962
0.246498
-0.053546
-0.216048
-0.169213
0.285175
0.049450
0.089906
-0.023584
-0.166539
0.334162
0.015971
-0.216790
0.048050
0.201392
0.134028
-0.170890
0.185343
0.045546
0.065439
-0.206029
0.013900
0.108118
0.101239
-0.077101
-0.093879
0.117159
0.044052
-0.232839
-0.102873
0.049129
0.132876
0.203037
-0.026227
-0.170726
-0.065055
-0.137624
-0.029567
0.173653
0.133899
0.143131
0.157709
-0.177440
-0.138292
0.075246
-0.230547
-0.122486
0.028740
0.085327
0.156328
0.213476
-0.253839
0.014443
-0.003823
-0.293405
0.114867
0.123327
0.108395
0.103498
0.263230
-0.185343
-0.147842
-0.045474
-0.150554
-0.064819
0.106939
-0.044071
-0.182904
-0.049674
-0.185328
-0.067007
-0.022791
-0.129725
-0.083928
0.189384
-0.108507
-0.124835
-0.023881
0.101538
-0.066482
-0.142801
-0.145951
0.004635
0.257994
0.157835
0.118650
0.185641
-0.036751
0.013235
0.133071
0.097593
0.030322
-0.187648
-0.247864
0.114133
-0.107956
-0.076393
-0.013847
0.036726
-0.041125
0.054570
-0.199765
-0.131357
0.123102
-0.183808
-0.058860
0.248421
0.041566
-0.031870
0.124142
0.051951
-0.175897
0.002526
-0.128943
0.030409
0.090671
-0.171476
0.007154
0.086473
-0.102619
-0.130184
-0.107067
-0.009140
0.099983
0.003938
-0.032032
0.128929
-0.068856
-0.077416
-0.227295
-0.233085
0.158434
-0.066146
-0.155113
0.056300
0.178846
0.077457
-0.070832
-0.192288
-0.095149
0.152728
0.073368
-0.031242
0.027117
0.157214
0.084376
-0.114360
-0.179061
-0.056987
0.255560
-0.117952
-0.090722
0.323139
-0.016395
0.147685
-0.139071
-0.031581
-0.055699
0.031043
-0.287292
-0.172891
0.171498
-0.145309
-0.121012
0.014777
-0.095743
0.271091
0.219169
-0.129630
-0.149531
0.193183
0.098224
-0.129366
-0.094770
-0.160536
0.153277
0.037919
0.014568
-0.139279
0.201131
-0.006341
0.021997
-0.154119
-0.087182
0.002282
-0.204477
-0.117453
-0.053967
0.178097
0.151368
0.043826
-0.203988
-0.069478
0.181218
-0.029195
-0.121341
0.066981
0.059825
0.148580
-0.009701
0.018594
-0.074449
0.055712
0.047523
0.151974
0.187641
-0.005836
0.067901
0.068270
0.058167
0.083298
0.010717
0.065953
0.095630
-0.107522
-0.006822
0.091081
0.085726
-0.108049
-0.165957
-0.153582
-0.215721
0.086200
-0.126528
0.051218
-0.158250
-0.093894
-0.147902
-0.051410
0.070436
-0.305262
-0.187165
0.010950
-0.209011
-0.157865
-0.165539
-0.088600
-0.220589
-0.027266
0.093093
-0.151872
0.076153
-0.034624
0.041457
0.052657
-0.016126
-0.046263
-0.086089
-0.132770
0.144480
0.005682
0.052939
0.211045
0.011076
-0.042212
0.023502
-0.109754
0.053179
-0.026388
-0.060924
-0.000314
-0.187339
-0.108373
0.012574
-0.148116
-0.009505
0.127583
-0.161915
-0.118192
0.046621
-0.181326
-0.103337
0.040315
0.072003
0.141754
0.231929
0.132215
0.147885
0.108598
0.125603
0.056616
0.009825
-0.124309
-0.282395
0.129284
-0.140626
-0.138756
0.012606
-0.073566
-0.105854
-0.120502
0.056053
-0.065312
-0.138920
0.173875
0.074533
-0.188870
0.036480
0.002860
-0.048272
0.160529
0.181645
-0.164977
0.144874
0.141392
-0.135741
-0.077054
0.177726
-0.109896
0.070098
-0.214257
0.028987
-0.064516
-0.076778
0.083997
0.048976
0.056597
0.075850
0.054403
-0.005850
-0.010501
-0.100110
-0.091794
0.139236
0.021842
-0.140750
-0.157299
-0.124740
-0.191200
-0.071684
-0.085665
-0.082078
-0.102480
-0.165836
-0.222268
0.034395
0.174879
0.013174
0.268168
0.125266
-0.214588
-0.033319
-0.162415
-0.150147
0.045719
-0.142014
-0.028903
0.232621
0.144951
-0.189280
0.150739
-0.059364
-0.058585
-0.215042
0.025908
-0.118285
0.111787
0.198757
-0.255155
0.111729
0.045432
-0.021419
0.124951
-0.094248
-0.228047
0.164967
-0.085667
-0.025875
0.221315
0.072004
-0.148588
-0.048097
-0.088527
0.038687
0.073951
0.034883
0.121145
0.080461
0.123922
0.112411
-0.206589
-0.170446
-0.013925
-0.053495
-0.163445
-0.316533
0.132943
-0.091412
-0.267397
-0.169283
-0.022489
0.067411
-0.000908
-0.237048
0.049950
-0.018123
0.047497
-0.084856
-0.003724
0.187917
0.265549
0.110038
-0.098809
0.199158
0.084510
-0.023410
-0.208461
-0.177766
0.078335
0.304255
0.107071
-0.106125
0.062879
0.119899
-0.207811
-0.211329
-0.038554
0.025590
0.068052
-0.139187
-0.072179
0.353746
0.019880
0.029511
0.169822
-0.102102
-0.166968
-0.073460
-0.209662
-0.215928
0.215760
0.016242
-0.189876
0.090902
-0.107106
0.088477
0.113916
-0.139002
-0.128172
0.229263
0.215949
-0.109344
0.078023
-0.202169
-0.029040
0.110930
-0.196276
-0.150827
-0.153438
0.180716
0.163156
0.061073
0.044516
-0.177221
0.151166
-0.009453
0.069719
-0.203743
0.068764
0.209608
-0.022186
-0.071587
-0.016123
0.001011
-0.132186
0.052402
-0.153652
0.076215
0.243922
0.042264
0.064156
-0.182962
-0.038855
-0.123755
-0.103885
0.005305
0.041201
-0.058177
-0.094799
-0.069995
0.173366
0.115653
0.050678
0.033425
0.130971
-0.141628
0.078778
-0.072359
-0.015750
0.039799
-0.202056
-0.104360
-0.063971
-0.092127
-0.129302
-0.180637
-0.018830
-0.146604
-0.080649
0.003591
0.068647
-0.180692
-0.136421
-0.207297
-0.116966
0.152232
0.232816
0.095887
0.205348
0.272275
0.047647
0.119772
0.071345
0.012516
0.133225
0.034474
-0.197299
-0.133703
0.140101
-0.210225
-0.054939
-0.135315
-0.082531
0.069785
-0.192329
-0.013344
-0.002952
-0.147417
-0.153856
-0.112017
0.053368
0.012792
-0.201623
0.101918
0.057912
0.038749
-0.004034
0.101665
0.099046
0.083892
-0.046440
0.073104
-0.062221
0.113315
0.005645
0.064921
0.048366
0.143426
0.004423
0.001529
0.013788
-0.045194
-0.045711
-0.075426
-0.055199
0.012311
0.017930
-0.234089
-0.060996
-0.234074
0.011938
-0.183860
-0.087408
-0.100489
-0.077754
0.110946
0.000149
-0.008381
-0.191238
-0.025467
0.004879
-0.076491
0.021128
0.154844
-0.002744
0.021513
0.080999
0.056457
0.023877
0.042316
0.278709
-0.199199
-0.276373
-0.010830
-0.041402
-0.165270
-0.096247
0.200346
0.099973
0.299485
-0.123496
-0.059125
-0.236717
-0.131386
-0.052638
-0.109789
-0.033568
0.161010
0.295543
-0.082838
-0.196790
-0.191910
0.026147
-0.016277
-0.012198
-0.106454
0.081450
0.005787
-0.104229
0.042240
-0.194454
-0.096853
-0.033628
0.028121
-0.062668
-0.222896
-0.201586
-0.032179
-0.276472
-0.177794
0.036893
-0.021562
-0.156985
0.159499
0.120329
-0.019378
0.013005
-0.225260
-0.095056
-0.022669
-0.172295
-0.155727
0.001830
0.137787
0.014653
-0.142761
0.043178
0.198163
-0.136915
-0.075686
0.191913
-0.007087
-0.088106
0.161690
-0.195392
-0.128155
-0.023737
-0.177315
-0.131874
0.050342
0.192096
0.185253
0.216200
-0.148518
-0.130542
0.158361
-0.213397
-0.066928
0.144015
0.163106
-0.014461
-0.165081
-0.243242
-0.096111
0.091300
-0.223391
-0.170116
0.047924
0.085813
-0.090275
0.040115
-0.136880
-0.028709
0.144759
-0.034165
-0.202911
-0.115387
-0.048933
0.032364
0.012316
-0.189933
-0.110467
0.194583
0.033570
0.128044
0.071889
