-0.152340
0.101812
-0.096413
-0.162683
0.077627
0.200477
-0.068414
0.167176
0.007879
-0.189450
-0.480751
0.112124
0.248125
-0.296148
-0.121875
0.139323
0.001890
-0.216040
-0.085958
-0.007724
-0.023506
0.079738
0.109602
0.058758
-0.011512
0.061677
0.084273
-0.175553
-0.271896
0.071498
-0.158576
0.118688
0.103881
0.220285
0.012728
-0.118672
0.196957
0.081538
-0.075923
0.120960
-0.114489
0.108756
-0.029173
-0.092316
0.029158
0.236684
-0.037434
0.015147
0.031875
0.141904
-0.061604
-0.102782
-0.228329
-0.155003
0.179200
0.069027
-0.006214
-0.121408
-0.100919
0.207309
-0.203947
-0.026969
-0.712804
-0.005480
0.063818
-0.002050
-0.137706
-0.212428
-0.062511
-0.130327
-0.211902
0.008800
0.189347
-0.131798
-0.442484
-0.131886
0.140920
-0.279384
-0.197310
-0.242478
-0.123108
-0.037759
0.079814
0.039108
0.016131
0.029077
-0.078898
-0.203970
-0.028547
-0.200391
-0.016107
-0.191405
-0.091630
0.056133
-0.203958
-0.076009
-0.024683
0.062660
-0.013981
0.108120
0.118842
-0.047730
-0.207770
-0.023307
-0.105688
-0.006909
0.068238
0.022657
0.134179
0.101391
-0.160257
-0.102252
0.094855
-0.068043
-0.163151
-0.177166
-0.159104
-0.097923
-0.074880
0.030384
-0.114788
-0.080247
-0.204428
0.147223
-0.343017
0.227170
-0.491103
-0.044937
-0.087943
-0.013860
-0.128162
-0.059722
0.033972
-0.106391
-0.033590
-0.025623
0.067878
-0.155279
-0.099995
-0.179328
0.053848
-0.223081
-0.037044
-0.068363
-0.106126
-0.139806
0.080149
0.066114
-0.000848
0.009809
-0.144254
-0.174316
-0.020891
-0.212559
-0.006882
-0.423020
0.038963
0.075787
-0.043214
-0.078106
0.043684
-0.040729
0.059111
-0.014133
0.285454
0.048515
-0.270312
0.038574
0.011771
0.097081
0.097635
-0.316666
-0.010558
0.141623
0.015647
-0.160181
-0.116210
0.014058
-0.164313
-0.062363
-0.173209
0.069012
-0.000328
0.177764
0.038488
0.109714
-0.168315
-0.071272
-0.132089
0.020378
-0.457058
-0.122407
-0.128664
0.101053
0.027704
-0.193296
-0.161974
-0.006286
0.295802
-0.080252
-0.098598
-0.140085
0.148425
-0.228540
-0.137143
-0.010727
0.117059
-0.076289
0.023088
-0.021345
0.271000
0.014754
0.005337
0.053122
0.078438
0.129048
-0.050675
-0.104281
-0.026950
-0.086136
0.089392
0.122120
-0.126479
-0.009548
-0.004880
-0.208820
-0.183720
-0.006440
-0.055925
0.070144
-0.017813
-0.029422
0.007975
0.103335
0.055011
0.017987
-0.026909
-0.042833
0.010850
-0.053341
-0.074445
0.009199
-0.081400
-0.044815
-0.066578
0.100458
0.004590
-0.016134
-0.023995
-0.097387
-0.105587
-0.059024
0.056555
0.011642
-0.458318
-0.061096
-0.052284
0.412886
-0.186945
0.084767
-0.088132
0.076084
-0.124359
-0.082246
0.104753
-0.169205
0.068153
-0.325556
-0.054071
0.119505
0.035570
-0.030730
-0.025832
0.021282
-0.017432
0.244450
-0.034905
-0.049209
0.080654
-0.012206
-0.040830
-0.397941
0.046608
-0.048584
-0.016441
0.077747
-0.231146
-0.152334
-0.010489
-0.102959
-0.323858
0.215987
0.084752
0.233408
0.061219
-0.246160
0.038452
0.210000
0.128575
-0.009937
-0.064324
-0.092007
-0.045361
-0.166314
0.215642
-0.075415
0.088354
-0.023592
-0.153644
0.061734
-0.033634
0.094888
0.184884
0.018138
-0.015392
-0.096869
-0.007822
0.000708
0.003044
-0.064517
-0.263013
0.242455
-0.147382
-0.033848
0.019391
0.096489
0.148499
-0.016310
0.235131
-0.536542
0.100522
-0.041851
-0.053243
0.172157
-0.083778
0.071587
0.049983
0.100177
-0.024316
0.039459
0.029323
0.001197
0.085973
-0.032427
0.017748
-0.064766
0.024456
-0.277271
-0.165896
-0.092727
-0.255360
-0.087424
0.024578
-0.000501
-0.195891
-0.174286
0.072339
-0.060576
-0.192658
-0.324615
-0.242348
0.187392
-0.079358
-0.020934
0.039887
-0.134563
0.062358
-0.077019
0.038090
-0.048271
-0.056013
-0.088827
0.086411
0.134887
-0.043255
0.000663
-0.056549
0.015200
-0.023982
0.073543
-0.275141
0.012529
-0.226674
-0.053781
-0.145754
0.229445
-0.380044
-0.188685
0.191478
-0.054615
-0.158977
-0.059011
-0.170107
-0.310646
-0.122456
-0.325394
-0.253604
-0.093378
0.170999
-0.098478
-0.212823
-0.055042
-0.188555
-0.020315
0.020652
-0.077331
0.053702
-0.070498
-0.116219
-0.112791
0.108727
-0.342464
0.179430
0.065238
-0.203971
-0.102553
-0.038207
-0.036066
0.130206
-0.059771
-0.023708
0.040649
-0.213735
-0.266655
-0.523647
-0.044187
-0.073876
-0.027219
-0.024715
-0.132531
-0.152213
-0.096439
-0.175166
-0.257364
-0.174225
-0.107487
0.070879
0.108877
0.005550
-0.031651
0.071885
0.173374
-0.090142
-0.051587
0.043860
0.105248
0.008807
-0.007410
0.077865
0.240523
-0.115865
-0.004870
0.110117
-0.036176
0.209598
0.021935
-0.010097
-0.270954
-0.020950
0.183346
-0.106407
-0.042203
0.220182
-0.020726
-0.121053
-0.332595
-0.000953
0.025041
-0.036941
0.020532
-0.053320
-0.224003
0.112711
-0.182396
0.071371
0.065106
-0.028957
-0.304236
-0.391291
0.033768
0.076270
-0.219802
-0.141085
0.045716
-0.032212
0.185904
0.194815
-0.055559
-0.080555
0.096892
-0.052406
-0.189499
-0.065806
0.008020
-0.079521
-0.057616
-0.087708
-0.172488
0.013084
-0.124385
0.175201
0.071415
0.057334
0.011437
0.074135
0.155867
-0.289356
0.014721
-0.097541
0.045160
0.168987
-0.007069
0.289655
0.197497
-0.154319
-0.040471
0.134786
0.030611
0.225186
0.112911
0.284117
0.132811
-0.256516
-0.182136
0.062471
-0.046676
-0.051359
-0.098486
-0.231017
-0.099351
0.058768
-0.217089
-0.044412
0.023845
0.091271
0.016402
-0.021114
0.188619
-0.114889
0.077016
-0.039751
-0.045358
-0.519161
-0.112799
-0.138357
-0.080356
-0.107115
0.044226
-0.081869
-0.018137
0.149009
0.151233
-0.004702
0.230182
-0.034779
-0.142395
-0.078121
0.039028
0.006027
-0.140545
-0.079280
-0.124775
0.020336
-0.038633
-0.129696
-0.098128
0.009691
0.130962
0.072421
0.222494
-0.020435
-0.015541
-0.058940
-0.216354
0.019527
0.051684
0.207721
0.120447
0.054753
0.187383
-0.115808
-0.090955
0.064090
0.160487
0.093850
-0.255818
-0.154926
-0.143091
0.149510
-0.282636
-0.022826
-0.157168
-0.174240
0.071626
0.129843
-0.073442
0.027133
0.061708
-0.078119
-0.020412
-0.085046
-0.200379
0.116240
-0.061674
-0.128639
0.061131
-0.150023
0.033725
-0.208619
0.067431
-0.184092
-0.047164
-0.200927
-0.110341
-0.019385
0.097910
-0.135657
0.155013
0.162341
0.094787
-0.177652
0.113246
-0.106554
-0.179381
-0.132136
-0.044211
0.218865
-0.135529
-0.006507
-0.074194
-0.020449
-0.024445
-0.055750
0.076433
0.028972
-0.000872
-0.024816
0.081990
-0.339093
0.054727
-0.088450
0.010139
-0.209678
0.053074
-0.057957
0.148900
0.126302
-0.025394
0.196514
-0.215776
-0.208471
-0.129996
0.035755
0.034130
-0.270069
-0.150769
-0.019251
0.030593
0.330553
0.066741
-0.009479
0.126133
-0.081467
-0.019369
0.053201
-0.056497
0.160943
-0.115804
-0.033071
-0.135046
-0.193720
-0.115602
-0.053862
0.164878
-0.327934
0.150630
0.010023
0.090314
-0.072298
-0.154873
-0.049829
0.119662
0.168080
-0.129891
-0.035069
0.042936
0.060373
-0.172496
0.020802
-0.155064
-0.128586
0.017335
-0.089654
0.075927
0.015433
-0.101602
0.023213
0.093413
0.010415
0.214242
-0.121409
-0.033134
-0.075140
0.009618
-0.200389
0.086219
-0.146012
0.167870
-0.069075
0.131445
0.014899
-0.070193
-0.109373
0.076923
-0.185410
-0.067310
-0.197594
-0.163810
-0.031972
-0.063710
0.153384
0.045581
0.000928
-0.068979
-0.015076
0.118151
-0.029572
-0.180880
0.064840
-0.040637
-0.092863
-0.212663
0.300544
-0.162819
0.004872
-0.148802
-0.069104
-0.016919
-0.225941
-0.168873
-0.181789
0.013833
0.133220
-0.065153
-0.069415
0.181345
-0.025404
0.161257
0.150722
-0.009027
0.018344
-0.079936
-0.311262
-0.211809
-0.057644
-0.475746
0.243194
0.017740
0.064467
0.026195
0.006775
0.055081
-0.163084
0.030212
0.033294
0.084431
-0.074956
0.015953
0.055939
0.114237
-0.147311
0.137372
0.302823
-0.020610
-0.002459
0.230456
-0.261251
-0.162286
-0.118112
-0.205697
-0.064693
0.308082
0.076893
-0.096629
-0.110068
0.137028
0.026593
-0.087328
0.027935
0.078258
-0.025057
0.003485
-0.014846
-0.028353
0.020941
-0.040656
-0.030836
0.084327
-0.005995
-0.060164
-0.059525
-0.028493
-0.215963
-0.031576
-0.078580
0.024173
0.125365
-0.116134
-0.205952
0.080191
-0.023573
0.155487
0.042043
0.132417
0.093169
-0.013819
0.094753
-0.149310
0.090922
-0.149148
0.043127
-0.069589
-0.033011
0.047031
0.183412
0.052832
0.007626
-0.034040
-0.108470
0.062642
0.233651
0.054750
0.104647
0.087815
-0.121824
-0.033673
0.040007
-0.016797
-0.107708
-0.144451
-0.126659
-0.080760
0.125132
-0.048556
0.119544
0.088853
-0.353185
0.010317
-0.194843
0.197264
-0.043152
0.319223
0.000835
0.129373
0.015099
0.202774
-0.104968
0.135312
0.244235
0.120408
0.065106
-0.115339
-0.194166
0.102005
0.032333
0.233746
-0.166086
-0.007652
0.173774
-0.242724
0.074593
-0.155144
-0.243537
0.056733
0.110122
-0.056983
-0.001374
-0.293531
0.130021
0.015385
-0.090735
0.037955
-0.103690
-0.150707
-0.165394
-0.095509
-0.045882
0.028719
0.150050
0.085515
-0.091431
-0.188202
-0.059168
-0.133395
-0.085247
0.001417
0.047511
0.048709
-0.016385
-0.067641
0.097654
-0.133386
-0.043261
0.104082
-0.115023
-0.003624
0.122568
-0.041290
-0.164634
0.077595
-0.198400
0.239089
0.231693
-0.018336
-0.135794
-0.005687
-0.026157
0.014885
-0.078945
0.223736
0.013341
-0.044058
-0.009355
0.088287
0.123479
0.023116
-0.306466
0.123515
-0.049839
-0.009323
0.047247
-0.188367
-0.034206
0.006585
-0.142524
-0.105429
-0.108188
-0.047319
-0.102810
0.071827
0.161178
-0.240686
-0.260291
-0.190059
-0.181401
-0.122532
-0.066768
-0.105346
-0.077807
0.116176
0.078264
-0.065884
-0.168895
0.191179
-0.010422
-0.105405
0.222137
0.043514
-0.219462
-0.016920
-0.078689
0.147451
0.005302
0.021164
-0.160026
-0.073207
0.074669
0.466240
-0.131612
-0.137916
0.053870
-0.034987
-0.095156
0.048432
0.072112
0.348778
-0.071790
-0.086310
-0.154071
0.036185
-0.056100
0.102643
0.042989
-0.013059
0.091173
0.069256
-0.006599
-0.026218
0.010965
-0.093966
-0.104498
0.100067
-0.015777
-0.000932
-0.167640
-0.127936
0.041898
-0.278781
-0.002753
0.122589
-0.075058
-0.000012
-0.122087
0.069469
0.090010
-0.106590
-0.002018
-0.175937
-0.007723
0.040298
0.002428
0.027087
-0.222431
0.145473
-0.003963
0.121376
0.082377
-0.175637
0.140648
-0.136797
0.004928
-0.077397
-0.032621
0.026089
0.214123
0.029136
-0.115402
0.007402
-0.052395
0.035277
-0.238317
0.188924
0.273665
-0.244834
-0.067515
-0.202306
-0.337359
0.079253
0.101316
0.104229
-0.126137
0.045209
0.041562
-0.315300
-0.035838
-0.012928
0.032895
-0.076816
-0.006305
0.183056
-0.039166
-0.213768
-0.293403
-0.109311
-0.187458
-0.023304
0.023602
0.194570
-0.145787
0.137493
-0.131331
-0.072013
0.089139
0.241500
-0.018279
0.126383
0.111610
0.082464
0.005955
0.089647
0.202338
-0.251980
0.104086
-0.112813
0.060539
-0.003140
0.071086
-0.023531
-0.189702
0.100477
-0.094638
0.110229
-0.212437
-0.065533
0.070410
-0.100992
-0.286776
0.029232
-0.290241
-0.139471
-0.106505
0.166608
-0.104145
0.005447
0.242725
-0.064516
0.068113
-0.101769
-0.116314
0.088383
0.062160
-0.181928
-0.021730
-0.024883
-0.258110
0.093333
0.116468
-0.009049
-0.031256
0.048776
0.005271
-0.274983
-0.102434
-0.064175
0.058620
-0.088584
-0.022797
0.297204
0.002987
-0.278994
-0.113739
-0.167244
0.062509
-0.026588
0.013290
-0.098692
-0.214238
0.195787
0.059332
0.135664
0.114461
-0.105200
0.132411
0.098344
0.225327
-0.100170
0.044641
-0.171103
0.025393
-0.001988
0.097578
0.109225
-0.101730
0.165127
0.055023
-0.022842
-0.222302
0.086232
0.266337
0.006926
-0.257107
0.041121
0.132970
0.166502
-0.000784
-0.023893
-0.194920
0.111842
0.087678
0.069795
-0.185378
0.001274
-0.277627
-0.031122
0.190596
-0.105250
0.074530
-0.091612
-0.074343
0.041861
0.055366
0.120317
-0.020541
0.090247
0.138483
0.074613
0.146536
-0.030342
-0.013261
-0.122413
-0.110166
-0.124738
0.003616
-0.240211
-0.021864
0.098740
-0.355578
-0.111604
0.041174
0.138955
-0.079496
0.008654
-0.028121
-0.071449
0.081629
0.053532
0.013086
0.045101
0.026761
0.024662
0.047528
-0.167971
0.241866
-0.063016
-0.017123
-0.076993
0.065756
0.002010
0.161131
-0.055877
-0.202050
-0.005756
0.053162
0.026716
-0.170656
-0.099446
0.119502
0.098046
-0.081994
0.017774
-0.030197
-0.046568
-0.052351
0.088188
-0.129693
0.099846
-0.020936
-0.127310
-0.084323
-0.046031
0.089179
-0.017704
0.038025
-0.222127
0.124116
0.187660
-0.023894
0.076206
0.063324
-0.217636
0.191329
0.126590
-0.012993
-0.162379
0.134605
-0.109101
-0.012588
-0.118017
0.039582
0.109452
0.057994
0.175475
-0.378044
-0.008038
-0.207966
0.085571
-0.192914
0.050457
0.079111
-0.072674
0.030606
0.054187
0.095168
0.141100
-0.133541
-0.251939
-0.000688
-0.042365
-0.125577
0.077957
0.122111
-0.055410
0.062728
0.113387
-0.274279
0.029463
-0.056657
0.156954
0.047835
-0.043315
0.243457
-0.166166
-0.042171
0.030557
-0.071836
0.133873
-0.094682
0.132562
-0.352637
-0.149056
-0.048009
-0.083366
-0.114455
-0.200762
0.205834
0.034789
-0.172694
0.076898
-0.154053
-0.016057
0.006184
0.048953
-0.121237
-0.290262
0.077203
0.058665
0.117880
-0.068785
0.016621
0.035092
0.176206
-0.245007
0.059156
-0.094163
0.050750
0.104853
-0.305015
-0.073427
-0.309791
-0.013496
-0.138180
-0.172802
0.096691
0.101807
-0.035486
0.019877
-0.143930
0.060741
-0.081044
0.111735
-0.034801
-0.037303
-0.177757
0.050092
0.033364
0.047988
0.032010
0.184893
-0.090181
-0.001227
0.013995
-0.000917
0.285128
0.074244
-0.000800
0.008637
-0.013022
0.076959
0.182350
0.109270
-0.147133
0.072829
-0.363703
-0.112471
0.160411
-0.147760
-0.154628
-0.046015
0.222377
-0.076304
-0.068393
-0.092187
-0.126351
0.111732
0.035700
0.073302
0.101077
-0.063645
-0.032385
-0.013407
0.133969
-0.019873
0.009910
0.022449
-0.026776
0.045407
0.080270
0.036697
-0.076270
0.097875
0.036323
0.077903
0.041211
-0.047182
-0.239864
0.162196
-0.018323
0.145859
-0.098019
0.318283
-0.161221
-0.056368
0.140690
0.060320
-0.063420
0.051600
-0.335194
0.101361
-0.057340
0.143910
-0.004238
0.111264
-0.040485
0.007463
-0.011273
0.284949
-0.299874
0.050369
0.141828
-0.042792
-0.262009
-0.065926
-0.045000
0.045639
-0.278325
0.103294
-0.368352
-0.162967
0.045936
-0.015034
-0.198458
-0.042743
-0.330997
-0.113440
-0.042291
0.006815
-0.034769
0.002518
0.000920
0.073726
-0.095376
0.070107
0.035439
0.146146
0.018043
0.200796
0.242794
-0.034073
-0.132728
-0.081653
0.133817
0.035500
-0.186870
-0.174868
0.016497
-0.021144
0.039955
-0.105439
0.077950
0.225442
-0.023344
-0.254454
-0.105945
-0.055943
-0.089259
-0.081911
0.008015
-0.011958
0.246888
-0.139183
0.079636
0.185980
0.000114
-0.021697
-0.061091
0.235076
-0.041015
-0.011861
0.106282
0.024622
-0.184281
0.044797
-0.165218
0.034022
-0.143308
0.153380
0.136561
-0.133791
0.027087
0.138451
-0.000118
0.032532
0.143979
0.080878
-0.057946
-0.027929
0.140703
0.095372
0.044445
-0.088593
-0.089408
-0.127093
-0.001117
0.085736
0.103251
-0.108212
0.005317
-0.107904
0.009272
-0.047466
0.074055
-0.058454
0.208004
0.082790
0.052891
-0.113459
-0.426913
-0.187014
0.221974
0.022505
0.241203
0.055640
-0.073421
0.104850
0.063215
0.074896
0.042894
-0.048500
-0.172547
-0.133252
-0.166397
-0.153965
0.001539
-0.078815
-0.071300
0.107846
-0.070401
0.080646
0.077863
-0.021926
-0.014742
0.037819
0.132901
0.059369
-0.043543
-0.008168
-0.033269
0.067371
-0.047656
0.115885
-0.104540
-0.104071
-0.096429
0.265367
-0.197277
-0.221472
-0.201361
-0.029013
0.122664
-0.055360
-0.285021
0.099405
-0.317377
-0.019505
0.203922
-0.359019
-0.133675
-0.119420
-0.120872
-0.041401
0.191722
-0.068963
0.110404
-0.031532
-0.273975
0.144334
-0.102089
-0.153826
0.032590
-0.028063
-0.267687
0.200794
0.062096
0.062146
0.013658
0.265596
0.149338
-0.015657
0.194976
0.066151
0.108116
-0.189108
0.173046
-0.218040
-0.144492
0.019928
-0.145616
0.074638
0.077512
-0.129550
-0.104152
-0.017318
0.105799
-0.083069
0.130521
-0.148685
0.018994
-0.094471
-0.192599
-0.071177
-0.193402
-0.024171
-0.060963
0.200781
-0.027540
-0.207627
-0.161565
-0.154243
-0.198218
-0.021486
-0.001717
-0.045164
-0.109414
0.063665
-0.090664
-0.082390
0.023735
-0.033102
0.228028
-0.102781
0.018095
0.200833
0.027158
0.326265
-0.087454
-0.081392
-0.052235
-0.041242
-0.197328
0.219271
0.009870
-0.361839
-0.201707
0.175627
0.046493
0.100111
0.058364
0.065820
-0.251813
0.321313
0.131181
0.114976
0.160273
0.186847
-0.055332
0.151549
0.172611
-0.072872
-0.075990
-0.207118
-0.061752
-0.034115
0.082983
-0.021428
0.017825
-0.008819
0.218023
0.053262
-0.007925
0.033345
0.070363
0.231852
0.101088
0.070672
0.112354
0.014862
0.149471
-0.148378
-0.003919
-0.016218
-0.117417
-0.026772
-0.189750
0.077725
-0.266880
0.006871
-0.071439
-0.159943
0.081632
0.153855
-0.039537
-0.026596
0.389621
0.057491
-0.037152
0.194850
0.077187
0.027779
0.052942
-0.129599
0.191256
0.033587
0.044235
0.124720
0.032393
-0.214414
-0.080138
0.074468
-0.327523
-0.133459
0.003720
0.172674
-0.247485
0.157784
-0.116408
0.124265
-0.023360
0.026157
0.193056
0.053563
-0.000326
-0.038971
0.075564
-0.152692
0.309933
0.092038
0.079108
-0.132006
-0.037679
0.044290
0.099703
0.101690
-0.056033
-0.005593
-0.342426
0.194853
-0.043135
0.012270
0.013081
-0.084362
-0.085856
0.007738
-0.175224
0.284477
-0.188357
0.099814
-0.401869
0.029129
-0.087258
-0.088898
-0.207207
-0.029254
-0.138167
-0.061590
0.259703
-0.096713
0.004963
0.005228
-0.027475
-0.304946
0.246969
-0.051061
0.228392
-0.024666
0.084761
-0.101235
0.011497
0.029331
-0.086782
-0.219235
0.174181
0.226901
0.049469
0.130287
-0.304236
0.048779
-0.264238
-0.029807
-0.123764
0.170435
0.015915
0.022123
0.174767
-0.024394
0.085046
0.013229
-0.123309
-0.226315
-0.069111
-0.202498
-0.118599
-0.215382
0.240052
0.086296
0.158351
-0.098917
0.008434
0.152661
-0.077855
0.006911
-0.068717
-0.002811
-0.017435
-0.026462
0.207892
0.156503
-0.146987
0.059522
-0.207927
0.069892
-0.408810
-0.221886
0.148066
0.111633
-0.349979
0.066594
0.084329
0.017032
-0.131867
-0.014554
-0.031860
0.036047
-0.032145
-0.204342
0.027556
-0.120562
0.191519
0.102621
-0.066249
-0.025866
0.096457
0.126787
-0.067305
-0.230848
0.143112
0.162328
-0.005541
0.050922
-0.212629
-0.067635
0.080966
-0.227279
-0.104123
-0.056144
0.245306
0.177555
0.098348
0.014856
-0.046982
0.125145
-0.192021
-0.214398
0.146297
-0.244315
0.146697
0.064844
0.036223
0.004882
-0.085768
-0.011645
-0.188392
0.077684
0.027948
-0.065022
-0.120570
-0.032923
-0.095246
-0.017602
0.010872
-0.019421
-0.087827
0.076865
-0.083777
0.051194
-0.321216
-0.036304
0.060806
-0.076529
0.000448
-0.168079
0.009051
0.101399
0.009668
0.006124
-0.139124
0.175863
0.006017
-0.122756
0.037997
-0.054260
0.157330
0.044828
0.078507
0.027559
-0.163624
-0.006510
-0.134145
0.004592
0.035704
0.036846
-0.091334
0.044679
0.008152
0.134193
-0.060105
-0.084044
-0.019159
0.167354
0.121638
0.186521
-0.005974
-0.053379
-0.142647
0.096003
-0.008563
-0.067278
0.056960
-0.040958
-0.068863
-0.064781
0.015361
-0.046034
-0.029182
0.112269
-0.045459
-0.051356
-0.194813
0.230534
-0.020763
0.036258
-0.093722
0.043066
-0.315334
-0.063668
0.289339
0.007437
-0.254968
0.048379
-0.119437
-0.324165
0.136452
0.087444
0.120734
0.008753
-0.348594
0.027535
-0.114666
-0.116035
0.122857
0.024720
-0.034230
0.018557
-0.035904
-0.021179
-0.128103
-0.030134
0.021100
0.231551
0.224121
0.084998
-0.233503
-0.116046
-0.149096
0.026915
-0.031823
-0.130170
-0.187727
-0.030098
-0.320997
0.044441
0.196010
0.074421
-0.169943
-0.021681
0.013514
-0.093288
-0.061501
0.116797
-0.039011
-0.043474
0.345419
-0.103752
-0.036280
-0.039301
0.007740
0.073972
-0.074993
0.227712
0.022351
0.038743
-0.190895
0.161876
-0.232887
-0.067300
-0.160047
-0.120420
-0.284077
-0.185011
0.044001
-0.086900
0.025927
0.133023
0.182961
-0.024040
0.027244
0.042094
-0.034172
0.141568
0.006456
-0.199892
-0.106019
-0.016183
-0.123372
0.071657
-0.022461
0.057678
-0.070017
-0.164030
0.129249
0.053861
0.027362
0.116455
-0.013592
0.078012
0.285391
0.170056
0.196525
0.095417
-0.443853
0.057301
0.203782
0.138077
0.101991
-0.068435
0.086575
-0.141706
-0.139237
-0.274476
0.179675
-0.094235
-0.079285
-0.172338
-0.144748
-0.004614
0.102622
0.066365
-0.169994
0.010606
0.083098
-0.139257
0.135823
0.178090
-0.065505
-0.101241
0.078042
0.054864
0.146356
-0.018558
0.049895
-0.094209
0.217675
0.212239
0.115980
0.303334
-0.082670
-0.053135
-0.206516
-0.118620
-0.190711
0.197619
0.136230
0.095496
-0.075577
-0.017196
-0.027998
-0.106492
0.111817
-0.355669
0.035212
-0.078132
0.037657
-0.029757
0.191515
0.058562
0.029974
-0.290468
-0.034140
0.185304
-0.074681
0.110584
0.180554
0.198345
-0.433725
0.082010
0.036821
-0.038890
0.054042
0.252006
-0.061573
0.013954
0.127954
0.073931
0.129620
0.089512
0.024566
-0.103105
0.067915
-0.082997
0.089528
-0.056212
0.102293
-0.044298
-0.085845
-0.021950
0.058454
-0.046388
0.085134
-0.128182
0.061861
-0.149199
0.031689
-0.025645
-0.139730
-0.191672
0.110559
-0.105250
0.069511
-0.237652
0.218857
-0.152819
-0.081982
0.115279
-0.014628
0.107830
-0.137803
0.048460
0.056607
0.050607
-0.088502
-0.127446
-0.049653
0.048239
-0.034878
-0.019585
-0.026497
0.094988
0.047708
0.098747
-0.120529
-0.004138
0.011596
0.166116
0.064991
-0.076650
0.210237
-0.030511
-0.345213
0.137720
-0.153379
0.083459
-0.014600
0.129729
-0.081340
0.113630
0.087095
0.089561
-0.018600
0.000443
-0.004619
0.080641
-0.197430
0.008910
0.157995
-0.010102
0.159960
0.094099
0.011773
0.093260
0.221844
-0.152434
0.077446
-0.151965
-0.221013
0.138923
0.249669
-0.005524
0.030403
-0.106517
-0.102931
-0.211893
-0.139049
0.046129
0.243423
0.038268
-0.077024
0.033319
-0.100409
0.042981
-0.088623
-0.043107
-0.288105
-0.021340
-0.110592
0.000298
-0.075240
0.098212
-0.028231
-0.139004
0.023825
0.020686
-0.068238
-0.003636
-0.004452
0.028705
0.111574
0.119604
0.012661
0.005305
0.121307
0.129513
0.103050
0.206537
-0.180149
0.111567
-0.271281
0.190502
-0.048174
0.103721
0.079137
-0.000621
0.091376
-0.054628
-0.029543
-0.018693
-0.046285
-0.159207
-0.006994
-0.269976
0.022267
-0.029954
0.133014
0.137577
0.048559
-0.119058
-0.063543
-0.043486
-0.173680
0.191223
0.046625
0.022772
0.131704
-0.313055
-0.030586
0.064431
-0.030006
0.181675
-0.041391
0.032366
-0.425956
-0.058827
0.056715
0.156274
0.005798
-0.007671
0.060412
-0.051556
0.122934
-0.108636
0.023677
0.059734
0.032282
-0.354340
0.072481
0.129986
0.093817
0.176619
-0.017660
-0.151425
-0.085476
0.014778
-0.068436
-0.182882
0.146629
0.206045
0.034725
0.160347
-0.140552
-0.044479
-0.133829
-0.055701
-0.081092
0.165589
0.147001
-0.053450
0.069589
0.082409
-0.010999
0.115736
0.109026
-0.071088
0.181489
-0.362935
-0.064854
-0.144506
-0.082840
0.033075
0.192887
-0.181042
-0.032579
-0.044064
-0.288771
-0.081160
-0.023799
-0.019613
0.205019
-0.141251
0.044582
0.051915
-0.071711
-0.289347
-0.218629
-0.049096
-0.154229
0.181072
-0.062845
0.185539
-0.169378
0.108994
0.025621
-0.063142
0.026265
-0.132228
0.014081
-0.023657
0.007638
-0.129643
0.046062
-0.027687
-0.054410
-0.013323
0.018995
0.060068
-0.145447
0.034783
0.021145
0.034656
-0.105903
0.072223
-0.086434
-0.093617
-0.032088
0.019936
-0.091284
0.119775
-0.074348
0.009175
0.188390
0.049400
-0.122290
-0.163408
-0.317564
0.006263
0.152439
-0.014828
0.188535
-0.363309
-0.021825
-0.002905
-0.042881
-0.111932
-0.064677
0.086989
-0.081316
-0.095981
0.219878
0.103120
0.038521
0.024675
0.038065
0.051097
-0.092754
-0.047391
0.257017
-0.004810
-0.035475
0.060838
-0.469977
-0.119880
0.122014
0.170948
-0.081865
0.174270
0.059256
0.143039
-0.054758
-0.027750
0.013731
0.078178
-0.028570
0.147104
0.085669
-0.013889
-0.051551
-0.302540
-0.011326
0.031019
-0.233046
-0.019671
-0.004133
-0.046287
-0.056830
0.056595
0.013026
-0.037567
0.103881
-0.035442
-0.180062
0.056121
-0.039698
0.018211
0.081892
-0.004964
-0.012793
-0.176532
-0.082924
0.147560
-0.177391
-0.209770
0.027351
-0.300939
0.020502
0.044561
-0.093334
-0.075223
0.078475
0.069209
0.080863
0.036141
0.000895
0.402562
-0.057114
0.027892
0.070520
-0.248618
-0.193906
-0.152866
-0.010204
0.296783
-0.184945
0.000375
-0.280784
-0.104401
0.174249
0.069319
0.059931
0.133849
0.065902
-0.051246
0.029479
0.000244
-0.064662
0.140329
-0.029491
-0.002142
-0.183372
0.091467
0.047049
-0.059014
0.001325
0.102320
-0.229847
-0.010438
-0.225806
-0.238095
-0.058639
0.064459
-0.048247
-0.042429
-0.147413
-0.115744
-0.337562
-0.019947
0.213368
0.116085
0.001938
0.031999
0.012124
-0.264922
-0.012517
0.080886
-0.028948
0.032385
0.157519
-0.050380
-0.180253
0.091721
0.075042
-0.037141
-0.068458
0.222971
0.063974
-0.059885
0.009437
0.077780
0.168058
0.037975
0.104285
0.085331
-0.290341
0.006457
0.021459
0.173764
-0.020405
-0.043124
-0.281278
0.151916
0.048216
0.022655
-0.184959
-0.064468
0.050517
0.004615
0.013104
0.083113
-0.032706
0.237398
-0.023870
-0.079996
-0.067870
0.082500
0.095871
-0.297006
0.216744
0.173392
-0.023822
0.093242
0.056518
-0.201516
0.176450
-0.134906
-0.411180
0.129069
0.100537
-0.086882
-0.050655
-0.030751
0.123225
0.061991
-0.158304
-0.137225
0.152267
-0.028462
-0.234065
0.054780
-0.281343
0.200854
-0.026267
0.034536
-0.053006
0.005551
0.201424
0.086771
0.159051
0.057569
0.095243
-0.237413
0.101682
0.036673
-0.049468
0.019018
-0.100829
-0.137670
0.226157
0.075992
0.083746
-0.097511
-0.300575
-0.043173
-0.043266
-0.023972
-0.292370
0.136235
0.170306
0.123361
-0.003449
0.253701
-0.102131
-0.153674
0.071624
-0.307096
-0.059174
0.303213
-0.032451
-0.009250
0.161429
0.105101
0.005591
-0.215257
-0.067294
0.261731
0.114535
0.017842
0.003468
0.086510
-0.147892
-0.079175
0.019922
-0.180025
-0.050472
0.064710
-0.166937
-0.089663
0.011929
-0.116900
-0.122995
0.186584
-0.169644
-0.121168
-0.094041
0.188044
-0.063163
-0.022896
0.077315
-0.202703
-0.000028
0.036753
0.098593
0.148057
0.168115
-0.225496
-0.079540
-0.194240
0.039889
-0.042749
-0.167653
-0.139822
-0.152977
-0.151901
0.181592
0.143341
-0.167493
-0.034094
0.228060
0.058036
0.026908
-0.026874
0.107959
-0.166274
-0.019053
-0.120173
0.070387
0.141141
-0.114904
0.043531
0.018928
-0.060697
0.038318
-0.023434
-0.086539
-0.003961
-0.050653
-0.086350
0.061224
0.364198
0.104533
-0.096064
0.003451
0.037266
-0.078540
-0.148771
-0.125800
0.118752
-0.122765
-0.010405
-0.186679
0.034629
-0.046753
0.110882
0.032685
-0.248988
0.058068
-0.081052
-0.088280
-0.124907
-0.156348
-0.224428
0.267298
0.038489
0.030867
0.066185
0.212949
-0.098140
0.163719
0.006603
-0.184428
0.084006
0.223290
0.022194
0.023952
-0.045498
-0.075124
-0.039528
0.134978
0.064120
0.033657
0.001774
-0.362294
0.111369
-0.086748
0.182482
0.051684
0.006890
0.392369
-0.142891
-0.100264
0.104630
-0.035121
0.143274
-0.015875
-0.002344
0.094166
0.118783
0.141157
0.126355
-0.021740
0.023663
-0.139817
0.086951
-0.059593
-0.370046
0.062960
0.092264
-0.244749
-0.057561
0.038817
0.117877
-0.075106
0.035283
0.018865
0.142297
0.184903
-0.125901
-0.016975
-0.330001
-0.068324
-0.133852
-0.135054
0.109121
-0.040384
-0.107084
0.192452
-0.027969
-0.037404
0.061600
0.110799
-0.020153
-0.030424
-0.038684
-0.129046
0.186316
-0.099683
0.014782
0.076573
-0.073633
-0.071190
-0.065669
-0.033084
-0.096056
-0.030961
0.164501
-0.285547
0.027608
0.133993
0.167159
0.002131
0.094799
-0.088945
0.043391
0.333003
-0.089168
-0.018269
0.111217
-0.013519
-0.088831
-0.125285
0.058106
0.007830
0.097856
-0.057222
0.060605
-0.051977
-0.006362
-0.036051
-0.174202
0.107907
-0.129579
-0.094628
0.041280
-0.026663
-0.162667
-0.229176
0.133159
-0.202916
0.025736
0.065895
0.005517
-0.000595
-0.013815
0.018461
0.075046
-0.068555
-0.035616
0.081208
-0.222121
-0.014490
0.042605
-0.067959
-0.046634
0.269533
0.065240
-0.181153
0.021694
-0.274550
-0.014525
0.119391
0.032140
-0.073480
-0.258864
-0.152168
0.169412
-0.115177
-0.018982
-0.193050
0.115169
-0.129327
-0.076344
0.156700
0.174984
0.044548
0.082041
0.063046
0.051285
0.078655
-0.066704
-0.311095
-0.036103
-0.005782
-0.102735
-0.268050
-0.152910
-0.133234
0.063791
0.042676
-0.099850
-0.014502
0.118668
0.078397
-0.004796
-0.087209
-0.106533
-0.163684
0.079878
-0.142007
-0.080672
-0.194467
0.043746
-0.142436
0.105819
0.083583
0.094317
0.065437
-0.170711
-0.051206
-0.012366
0.120848
-0.035190
0.142225
0.077529
-0.139000
-0.145664
-0.127981
-0.265459
0.142535
0.187183
-0.136088
-0.141642
0.199865
-0.065644
0.249215
-0.054761
-0.006320
-0.321867
-0.126133
0.138823
0.110376
0.065385
-0.153906
0.098818
0.131365
0.021982
0.123873
0.081325
-0.017714
0.191200
0.101364
0.184477
0.051521
-0.170554
-0.000951
0.053728
-0.028819
0.141394
-0.111545
-0.086941
-0.074450
0.076294
0.078915
0.181584
-0.155975
-0.056839
-0.092722
0.024833
-0.012556
-0.023497
-0.252877
-0.016150
-0.040660
-0.242994
-0.137167
0.196300
0.046471
-0.021499
0.070921
-0.010056
0.078004
-0.265232
-0.052289
0.051473
-0.299709
-0.013011
0.022567
-0.206562
-0.185988
0.006031
0.056212
-0.012422
-0.002049
-0.008421
0.138690
0.090485
-0.075627
0.131671
-0.099623
-0.013920
0.128655
-0.090304
-0.170322
0.078333
-0.004564
0.119486
0.020556
-0.071341
-0.208983
-0.023774
0.051501
0.024481
0.039886
-0.218704
0.008211
0.140481
0.036987
0.158715
-0.156826
0.142290
-0.027985
-0.197948
0.165323
-0.241071
0.082401
-0.039289
-0.014140
-0.042348
-0.214903
0.136777
-0.127974
0.095675
0.094706
0.021296
-0.131232
0.054437
-0.099612
0.040397
-0.004731
0.157635
0.086854
-0.114941
-0.104242
-0.122162
0.063731
0.162003
-0.055113
-0.032775
-0.072231
0.033497
-0.131549
-0.125635
-0.105405
-0.116901
0.070850
-0.108617
0.075184
-0.069218
0.123462
-0.119867
0.022911
0.198362
-0.151723
-0.015589
0.154934
-0.207039
-0.264830
-0.015331
0.205032
0.149150
-0.045227
0.256034
-0.228216
-0.075693
0.049578
-0.117042
-0.089587
-0.127969
0.113696
0.013373
-0.324558
0.085625
0.010245
0.028806
0.000415
0.065558
0.055814
-0.077231
-0.019929
-0.187193
0.032866
-0.034520
-0.055670
0.028454
-0.181771
-0.095601
0.142270
-0.025139
-0.297144
-0.038928
-0.013113
-0.125688
-0.102572
0.248939
-0.046861
-0.244576
-0.039967
0.054823
0.032250
0.025894
-0.175496
-0.010454
-0.196086
0.109559
-0.106597
0.058357
-0.058259
0.113854
0.013129
0.097122
-0.054119
-0.054405
0.183698
-0.143629
0.015303
-0.105033
-0.107461
-0.005888
0.049633
0.136231
0.030844
0.038140
0.031638
-0.184529
0.247690
0.075701
-0.151248
-0.018212
-0.145402
-0.009557
-0.022129
0.053457
-0.197307
-0.072974
-0.108354
0.071756
-0.021697
-0.107358
-0.025926
-0.047942
0.041402
-0.060857
0.055774
0.279158
-0.082180
0.110306
-0.170001
0.198016
-0.161481
-0.078396
0.044701
0.015390
-0.068528
-0.181443
-0.089031
0.092984
-0.086200
0.155229
-0.165654
0.017625
-0.043061
-0.024862
-0.011545
-0.015759
-0.331986
-0.027282
-0.034880
0.232358
0.192787
0.079158
0.159456
-0.044096
-0.051074
-0.163755
0.426482
-0.048422
0.033147
-0.138268
0.126291
0.011599
-0.051862
0.014910
-0.080828
-0.022974
-0.032244
-0.147725
0.127239
0.060743
-0.250075
-0.098375
-0.035751
-0.019356
0.076142
0.038017
0.027073
0.219133
-0.204406
-0.395184
-0.156262
0.077404
0.072003
0.035498
-0.022623
-0.145613
-0.048557
0.020229
0.009651
0.229239
-0.118008
0.035557
0.036275
0.072713
0.033574
-0.016142
0.059649
0.226165
-0.156036
0.029995
-0.257500
0.017640
-0.495140
0.015399
-0.113117
0.061164
-0.156303
-0.103115
-0.088140
-0.002138
0.143764
0.043497
-0.030486
-0.069450
-0.040693
-0.224908
-0.268130
0.128539
0.063998
0.113884
0.177653
-0.072755
0.078093
0.040087
-0.275577
-0.024354
0.025218
0.044732
0.113652
-0.063148
-0.079162
-0.147835
0.118975
-0.054746
-0.075175
0.033296
-0.053008
-0.217570
0.085850
-0.073101
0.036811
0.005117
-0.066147
-0.218657
0.040126
0.019629
0.040201
0.185052
-0.008732
0.079702
-0.041106
0.076287
0.012772
0.240415
-0.026029
0.061258
0.007474
0.082886
0.144240
-0.145314
0.004167
0.076207
0.099052
0.142246
0.001942
0.204055
-0.003230
0.038381
0.024139
0.100353
-0.084633
-0.022346
-0.028052
-0.153538
0.100888
-0.263408
-0.195059
-0.045423
-0.031496
0.019685
0.071673
0.088733
0.044018
-0.006169
-0.047681
-0.022096
0.082454
0.038176
-0.456234
0.029146
0.143460
0.029368
0.052100
0.110056
0.008707
0.067111
0.145376
-0.085167
-0.216421
-0.014681
-0.163620
-0.035973
-0.104793
0.300850
0.165976
-0.004810
-0.174402
-0.228483
0.221742
0.301647
0.062668
0.059606
-0.013006
-0.088580
0.011438
-0.095871
-0.016567
0.023794
-0.024982
0.108391
-0.037234
0.027863
-0.099272
-0.383846
0.054483
-0.002566
-0.255905
-0.156652
-0.135277
0.039121
-0.354725
0.281833
-0.114425
0.012752
-0.147060
-0.167770
-0.039267
-0.117486
-0.032053
-0.064549
-0.069350
0.044857
-0.000875
-0.022944
-0.085771
-0.003649
0.003164
-0.050748
0.079151
-0.021930
-0.018346
0.091980
-0.135721
-0.010755
0.035668
0.007858
-0.051149
-0.069683
0.028749
0.182756
-0.091361
-0.138812
-0.267070
0.083667
-0.192305
-0.022473
0.227431
0.228504
0.123411
-0.051040
0.233873
0.023053
0.020097
0.071878
0.063890
-0.108724
0.006992
0.164531
0.119140
-0.026337
-0.011963
0.047065
0.077272
-0.122374
0.026207
0.025499
-0.085262
0.126161
-0.116802
-0.044453
-0.278151
-0.216332
-0.020855
0.076164
-0.419023
0.036154
0.240266
0.003802
0.020707
-0.036351
-0.025339
-0.021147
-0.043347
0.059945
-0.089641
0.082911
0.126344
-0.092267
-0.092727
-0.193953
0.112546
-0.040207
-0.093023
0.178878
-0.074522
0.064575
-0.196787
0.072286
0.056775
0.010931
0.169021
-0.067489
0.360787
0.258741
-0.245201
-0.091671
-0.206592
0.014047
-0.101748
-0.014912
0.142862
0.219989
0.122008
0.077753
-0.106161
-0.028042
0.059013
-0.033889
0.265854
-0.081532
-0.000734
0.061687
0.171849
-0.109771
-0.063243
0.042426
-0.020108
-0.046710
-0.069552
0.069719
0.021024
-0.035677
-0.205436
-0.027042
-0.063911
-0.242321
-0.119479
-0.272680
-0.066246
0.260606
-0.052254
0.148719
0.157359
0.054089
0.015816
0.131815
0.042808
-0.052011
-0.178603
0.010398
0.042619
-0.057254
0.005306
-0.040245
0.111473
-0.206920
-0.063379
0.109321
0.003325
-0.161292
-0.088520
0.054065
-0.063191
0.065807
0.164889
-0.017922
0.025757
0.000856
0.009516
-0.115941
0.007431
-0.137268
-0.256797
0.071192
-0.092131
0.216699
0.219069
-0.090566
0.011379
-0.017160
-0.081827
0.029230
0.186660
-0.040942
0.029076
0.148061
0.016291
-0.119764
0.189379
0.169477
0.018679
0.007993
-0.287424
-0.160329
0.031833
0.076550
-0.080501
0.060836
-0.268133
-0.179127
-0.036992
0.121818
-0.123465
0.125223
-0.002448
-0.078821
-0.001438
0.011176
0.143595
0.016088
-0.144151
-0.012483
-0.195699
0.158867
-0.020243
-0.130402
0.192466
0.122875
0.069538
0.019066
-0.095017
0.184915
0.061960
-0.172587
-0.188779
0.090224
-0.012553
0.014038
0.207428
0.050574
-0.071618
-0.035074
-0.238422
0.018342
0.067095
0.035462
-0.209698
-0.026689
-0.049621
-0.162881
0.047863
-0.070000
0.207346
0.082108
-0.170127
0.005082
-0.109136
-0.006278
0.012829
0.114559
-0.018087
-0.229115
0.060951
-0.121489
0.096502
0.179907
-0.190120
-0.062881
0.145490
0.056460
-0.020407
0.119912
-0.251083
-0.174774
-0.008170
0.065741
-0.170517
0.093049
-0.106653
0.104652
-0.092266
-0.103288
0.151698
0.129450
-0.289040
-0.020848
-0.177835
0.159808
-0.060451
-0.039735
0.158726
0.220383
-0.058536
0.060540
-0.163106
-0.111907
0.198750
-0.277975
-0.019705
0.148147
-0.068213
-0.007572
-0.136193
0.115849
0.071684
-0.057429
0.070149
0.008044
-0.184926
0.029712
0.187724
-0.098401
-0.202951
-0.086806
-0.075736
0.174247
-0.317956
-0.007491
0.124437
-0.238808
-0.015769
-0.268496
-0.011004
-0.151212
-0.150962
0.003303
-0.344523
0.070406
0.000017
-0.077589
-0.214435
0.112532
-0.025570
-0.009200
0.139009
-0.129542
-0.052578
0.042737
0.024466
0.188496
0.041753
0.106448
-0.086221
0.003546
-0.297356
-0.111187
-0.169278
-0.002875
-0.059581
-0.033309
0.041507
0.102222
-0.068342
-0.223176
0.091176
-0.076016
-0.188964
-0.006815
0.049790
-0.280183
-0.012630
0.074335
-0.119916
-0.002459
0.088177
0.011460
0.146753
-0.258446
0.085049
-0.148149
0.210925
-0.264284
-0.318054
0.004231
0.306821
-0.062973
-0.107674
0.053096
0.170159
0.052949
-0.441807
-0.156042
-0.068112
-0.282844
0.161816
-0.102379
-0.046245
-0.174045
-0.014378
-0.111189
-0.138358
0.026033
-0.154751
-0.223454
-0.056478
-0.108624
0.095125
-0.131372
0.039368
-0.043356
0.106366
0.057230
0.028322
0.082242
0.086453
0.035516
0.331060
0.078761
-0.212903
-0.208231
-0.057372
-0.003043
0.138358
0.045858
0.055191
0.087165
0.000165
-0.218189
-0.073375
-0.047754
0.019613
-0.110354
0.173638
0.164571
0.008905
0.097514
-0.216858
-0.218497
0.071354
-0.036397
0.000923
0.113598
0.205199
-0.058018
0.421764
0.017711
-0.236385
-0.039637
0.059680
0.136316
-0.345253
-0.119444
0.195746
0.114092
-0.484565
-0.133306
-0.140750
0.067613
0.099721
-0.037205
-0.001853
-0.309722
0.074155
-0.019037
-0.031338
0.059139
-0.025128
-0.329855
-0.220209
-0.111045
-0.085044
0.030239
0.026308
0.021001
-0.046937
-0.037917
0.084852
0.073440
-0.106798
-0.023742
0.088074
0.053661
-0.116718
0.193687
0.000624
0.007346
-0.112892
-0.056728
0.007463
0.113405
0.008570
-0.130702
-0.107332
-0.036665
0.001768
-0.044285
0.376484
0.068826
-0.016012
-0.061745
-0.272495
-0.034669
0.048986
0.047765
-0.055412
-0.223642
0.100800
-0.027419
0.198374
0.074271
0.077528
0.098674
0.240912
0.340986
0.124106
-0.051275
0.137803
0.065829
0.050155
-0.167466
0.028157
0.263470
0.060187
-0.041150
-0.006316
-0.267693
0.065003
-0.108660
0.101611
-0.024867
-0.046415
0.058150
-0.117074
-0.005452
-0.102843
0.132873
-0.136442
-0.053724
-0.136723
-0.238561
0.107710
-0.174254
0.066856
-0.161653
-0.050832
-0.127966
-0.186243
0.055824
-0.077997
0.065944
-0.092864
0.163986
-0.079023
-0.009514
0.077420
-0.068758
0.060831
0.090128
0.131906
0.122773
0.280138
0.054333
-0.087479
-0.108619
-0.314184
0.036021
-0.009648
0.044219
-0.008965
0.260261
-0.032753
-0.111923
0.009893
0.116925
0.008598
-0.107534
-0.107664
0.132117
0.143897
0.001135
0.075354
0.323157
-0.020687
0.006988
-0.044296
-0.092221
0.184373
-0.117143
0.012929
-0.315905
0.051682
-0.167767
-0.107279
-0.085092
-0.016361
-0.039860
-0.048275
-0.102975
-0.004400
0.074825
-0.192128
-0.069743
0.150630
0.034496
0.234188
0.042835
0.008429
0.247918
0.195059
-0.036743
-0.144497
-0.318337
-0.004643
0.147454
-0.030150
0.075869
0.071075
0.084358
0.138462
-0.163593
-0.149222
-0.098900
0.055121
0.166753
0.248443
0.083783
0.016381
0.087166
-0.106785
0.035036
-0.134702
0.041618
-0.012208
-0.038934
0.030387
0.074986
-0.081750
-0.004015
-0.245718
0.020988
-0.083693
0.052231
0.045792
-0.120602
0.246114
0.143861
-0.228252
-0.018156
-0.003224
-0.422707
0.026598
0.014015
-0.030598
-0.090116
0.168035
0.013062
-0.062402
0.016115
0.058883
-0.043845
-0.020949
-0.125553
-0.104240
-0.153203
-0.084863
-0.047776
0.084521
-0.193823
0.117076
-0.030003
0.205577
0.043096
0.036310
-0.085700
0.034267
-0.071468
0.002484
0.147964
0.018885
-0.050117
-0.184043
0.085241
-0.068345
-0.101592
0.062066
-0.010672
-0.046460
0.061730
0.272750
-0.005984
0.037570
0.034537
-0.044028
-0.013299
-0.045702
0.045985
0.095927
-0.063785
0.036702
-0.187602
-0.325918
-0.086970
-0.412166
0.005183
-0.290925
0.063505
-0.032704
-0.103661
0.225837
-0.052246
-0.166086
-0.077083
-0.266580
-0.093677
-0.054988
-0.010515
0.006194
0.172293
-0.030426
-0.354777
-0.137994
-0.169860
-0.118208
-0.035324
-0.236545
-0.060595
-0.016180
0.149597
-0.076569
-0.091855
0.132838
-0.052932
0.240292
-0.129580
0.044824
-0.070405
-0.071626
-0.160550
0.093270
-0.141104
0.029090
-0.034204
0.095442
-0.120052
-0.117294
-0.090243
-0.191000
0.033527
-0.075059
0.010115
-0.076068
-0.016304
0.225252
-0.007576
0.056297
-0.199771
0.009432
-0.110085
-0.001354
-0.004073
0.233722
-0.130345
-0.074322
-0.273646
0.086834
0.006531
-0.182780
-0.082928
-0.229918
-0.028593
0.178973
0.102519
0.067895
0.081329
-0.154008
0.151587
-0.202902
-0.216306
-0.131612
-0.132184
-0.041606
0.061655
-0.101237
-0.258519
-0.098978
-0.129345
0.080863
-0.034816
-0.039957
-0.137024
-0.165648
0.262572
-0.066242
-0.094404
0.145383
-0.109314
0.213883
-0.015810
0.064399
0.057570
-0.160084
-0.110538
-0.044975
-0.110662
-0.151949
-0.135420
-0.134875
0.121888
-0.185581
-0.084191
0.136178
-0.294350
0.044654
0.072560
-0.107575
0.047209
-0.056940
0.011578
-0.034089
0.162308
0.041157
-0.097357
0.052673
0.030645
-0.026927
0.134385
-0.294181
0.044926
-0.122025
-0.090586
-0.138188
-0.113785
0.120607
0.158792
-0.095580
0.102650
-0.124343
0.017438
0.012565
-0.097581
-0.003072
0.081953
0.065708
-0.095941
0.005303
0.047798
-0.129913
-0.167654
0.118689
0.038743
-0.139236
0.099444
-0.024783
-0.026161
0.075744
-0.104149
-0.004686
0.001325
-0.034740
-0.116048
-0.287906
-0.117871
0.109036
-0.010900
0.053447
0.179343
-0.132379
0.136434
-0.002258
-0.014581
-0.080487
0.014319
-0.035007
-0.009592
-0.023482
0.045732
0.157674
-0.094656
0.024993
-0.074346
0.101995
0.052936
0.194090
-0.086655
0.145704
0.158758
0.281039
-0.036050
-0.199923
0.237826
-0.006066
0.115766
0.146365
0.037359
-0.016094
-0.077288
0.051355
0.129192
0.110300
-0.159161
-0.110707
-0.113382
0.157464
0.129984
0.009983
0.004092
-0.177465
-0.130241
0.025589
-0.009689
-0.040342
-0.103699
0.055925
0.031353
-0.104530
0.118806
-0.026488
-0.078762
0.092304
-0.083360
0.060624
-0.042773
0.049787
0.078610
-0.003937
-0.026498
0.146004
-0.114171
-0.205393
0.032282
-0.084918
0.123016
-0.065696
-0.067338
-0.135607
0.026195
0.030352
-0.146559
-0.053567
0.256222
0.116349
-0.096025
0.037715
-0.157456
0.050360
0.065929
-0.029490
-0.175396
0.133119
-0.088583
0.061695
-0.059092
-0.040225
0.032111
-0.181432
0.089178
0.095212
-0.100450
-0.246676
-0.095724
0.132325
0.161663
-0.011283
-0.355460
-0.195562
-0.107343
0.036293
0.098231
-0.010116
-0.054476
-0.268758
0.006276
0.003650
0.082627
-0.167922
0.118365
0.109698
0.009848
0.006805
-0.041141
-0.164887
0.003126
-0.012722
-0.096440
0.083856
0.006793
-0.152242
0.143246
-0.035372
-0.061866
0.014919
-0.150924
-0.077903
0.017686
-0.141294
0.017583
0.021648
-0.095204
-0.125180
0.074267
-0.026068
-0.239068
0.080293
0.105523
-0.045655
0.017835
-0.138462
0.000096
-0.103367
-0.055802
-0.096419
-0.123190
0.049053
0.006888
-0.314414
-0.065071
0.254991
0.073841
0.042659
0.095917
0.003521
-0.068248
-0.057124
-0.012312
-0.059457
0.068600
0.072460
0.065965
-0.216380
0.010406
0.003168
0.020400
0.188686
-0.078128
0.091726
-0.134304
-0.012654
0.029601
-0.048273
0.000599
-0.042310
-0.043580
0.061477
0.112813
-0.053683
0.015085
0.071691
-0.190337
0.075810
0.113441
0.174654
0.031692
0.187914
0.063473
0.101390
-0.038374
-0.093859
0.100011
-0.129271
-0.040853
-0.047474
-0.159547
-0.081738
0.118103
-0.033603
0.112490
-0.019269
0.006751
-0.241905
-0.082748
0.207096
-0.132448
-0.082499
-0.030236
0.026482
0.049133
0.131535
0.099270
0.051478
-0.003232
0.139495
-0.109553
0.046527
0.243509
0.046518
-0.005411
-0.332783
-0.107408
-0.061120
0.361355
-0.000382
-0.057340
-0.026285
-0.070037
-0.139446
-0.138922
0.034465
0.018465
0.007045
-0.017684
-0.025346
-0.275996
0.058314
-0.191492
0.063958
-0.170840
-0.028179
-0.116582
-0.055972
0.128366
0.213057
0.018330
-0.086072
-0.070185
0.205555
-0.088688
0.068008
-0.068256
0.218696
0.056236
-0.160022
-0.002127
0.007152
-0.127501
0.111801
-0.196607
-0.167741
-0.085188
-0.070778
0.116169
-0.043872
-0.118510
-0.111141
-0.101926
0.090756
0.043062
-0.218941
-0.144317
0.007662
0.132353
0.150002
0.038128
0.274007
0.033203
-0.103536
0.048810
0.090026
0.109345
-0.064816
-0.272368
0.043995
-0.130648
0.108920
0.250992
-0.002988
-0.050161
-0.259697
-0.074595
0.085111
0.010835
-0.014838
0.023379
-0.128069
0.116393
-0.042973
-0.227838
0.048445
-0.205164
-0.084343
0.159197
-0.007352
0.112438
-0.239855
0.082281
0.031117
-0.127133
0.094922
-0.091660
0.049420
0.131260
0.077617
-0.044523
0.103746
-0.013063
-0.092668
0.033918
-0.045022
0.082421
-0.018108
-0.155716
0.066982
0.171126
0.042895
0.142336
0.018164
-0.126978
-0.027628
-0.214987
0.102837
0.048184
0.238883
-0.233067
0.108788
0.127860
0.345047
0.284127
0.105419
0.044548
0.092809
0.216270
0.144897
-0.191983
0.002969
-0.011549
-0.085245
-0.113166
-0.018954
-0.030972
0.038936
-0.061454
-0.138136
-0.096936
-0.127026
-0.117100
-0.101772
0.000685
-0.174473
0.030092
0.027142
-0.079200
-0.042864
-0.274750
-0.096998
0.043237
-0.096594
0.251160
-0.086252
0.026141
0.055756
0.019727
0.130941
-0.170523
0.010690
-0.247721
-0.081136
0.104060
-0.086156
-0.026716
-0.042367
-0.014568
-0.036707
0.013645
-0.005557
0.002598
-0.013708
0.099273
-0.122022
0.108493
-0.056379
0.001563
0.211330
0.019310
0.130860
-0.101121
0.137709
0.139962
-0.096322
-0.156413
0.361112
0.085657
0.312783
0.034344
-0.185664
0.056687
-0.028081
-0.021093
-0.092534
-0.027653
-0.151720
0.024663
0.044108
-0.107109
0.079444
-0.278238
-0.083441
-0.128655
-0.188943
0.096191
-0.083276
0.137936
-0.134602
-0.061994
-0.005517
0.193695
-0.014799
0.236187
-0.246464
0.122092
-0.121211
0.011840
0.077119
0.000227
0.216072
-0.139373
-0.059011
-0.202172
0.068925
-0.029482
0.047358
-0.003673
-0.115337
-0.057159
0.078443
-0.024436
-0.290268
-0.016539
-0.025179
0.164636
-0.096705
-0.116013
-0.398009
0.290054
-0.115979
-0.103979
-0.148985
-0.139148
-0.016800
-0.109213
-0.073114
-0.064210
-0.089689
-0.127212
0.117097
0.084388
0.006289
0.066759
0.182306
-0.073822
0.125074
-0.259066
-0.032159
-0.065007
-0.036352
0.009382
0.016133
0.052792
0.025491
0.008641
0.046291
-0.078251
-0.011863
-0.008020
0.093809
0.078882
0.046098
-0.062585
0.055147
0.116791
0.000086
-0.084872
0.001057
0.191546
-0.007054
-0.262178
-0.181701
0.094651
0.108535
-0.025991
0.029204
0.039163
0.064993
-0.020969
-0.046185
0.213491
0.082358
0.118650
-0.107481
-0.053353
-0.223779
-0.252530
-0.141172
0.065657
-0.280127
-0.070688
-0.224911
-0.012029
0.117693
0.084193
-0.157070
0.072862
-0.017093
-0.121481
0.042344
-0.042105
-0.113237
-0.075996
-0.119047
-0.120143
0.202689
-0.026491
0.090253
-0.068153
0.199337
0.084665
-0.043299
-0.126259
0.013348
0.064906
-0.032471
0.082041
-0.123314
-0.002776
-0.006797
-0.023441
-0.227153
0.177703
0.039048
0.236158
-0.303499
-0.083953
-0.041033
-0.059184
0.120277
0.026688
0.099117
0.050024
0.003178
0.160354
-0.126804
-0.106466
0.249167
-0.072890
0.124656
0.020528
-0.030385
-0.126880
0.084250
0.149363
-0.101864
0.081796
0.194814
0.031434
-0.105358
-0.121992
-0.079459
-0.202187
-0.227770
0.210080
-0.167019
0.064312
0.063221
0.074782
0.226456
-0.161623
0.033160
0.171915
-0.115719
0.165768
0.051212
-0.086669
0.052319
0.069898
0.133523
-0.060890
-0.050701
0.148522
0.065846
-0.098544
0.042264
-0.141994
-0.076291
-0.035174
0.028930
-0.141711
-0.026560
0.155810
-0.089913
0.075499
0.063309
0.066382
0.032191
0.175312
-0.165558
0.034503
-0.016042
0.372766
0.125813
0.065404
0.002381
0.042372
0.046095
-0.077432
-0.253322
0.287853
-0.131922
0.317039
0.036093
0.110614
-0.111678
-0.154619
-0.121341
-0.206988
0.263531
-0.104009
-0.196193
0.003265
0.036995
-0.144478
-0.017725
-0.223477
-0.139526
0.047668
-0.139709
0.043698
0.014502
0.033230
0.062114
0.006961
-0.121670
-0.063585
-0.088335
0.219293
-0.177647
-0.296354
0.154245
-0.021426
-0.018033
-0.057773
-0.007443
0.030980
0.065369
-0.061101
-0.047156
-0.005183
-0.275742
0.111233
0.051834
-0.016176
0.022620
0.076523
-0.284383
-0.079398
-0.046033
0.083906
0.084382
-0.086488
-0.235918
0.057407
0.001548
-0.037955
0.008877
-0.035914
0.035918
0.008590
0.212272
-0.000050
-0.114341
0.100922
-0.031159
-0.077255
-0.057928
0.198880
-0.055554
-0.010850
0.017456
-0.323570
0.015566
-0.074730
0.021201
-0.033780
0.017567
0.070493
0.049886
-0.109685
-0.130436
0.040618
-0.019551
-0.082940
0.030654
0.005141
-0.007263
0.006483
-0.184618
-0.121853
-0.293227
-0.124495
-0.035308
-0.135692
0.077249
0.026093
-0.269276
-0.060290
-0.205031
-0.057879
-0.043047
0.133486
-0.155351
-0.060115
-0.173701
-0.054101
0.110314
0.100781
-0.099173
0.132202
0.058195
-0.065741
0.005007
0.190353
0.084659
-0.122003
-0.148440
-0.053105
0.002904
-0.263022
0.106015
-0.254869
0.009177
-0.041511
-0.002803
-0.072109
-0.085229
0.079609
-0.099131
0.127185
0.202231
0.228600
0.054959
-0.034568
-0.133624
-0.212892
0.066118
0.006068
0.226352
0.042600
0.119672
0.071891
0.099301
-0.159839
0.002340
0.142116
-0.069048
0.000184
0.028843
0.062839
0.074532
-0.011684
-0.114954
0.140359
-0.294331
-0.184833
-0.022781
-0.077339
0.169781
0.061618
-0.249690
-0.028090
-0.131731
0.074058
0.053843
-0.028947
0.244133
-0.178344
-0.141993
0.150887
-0.106731
-0.064411
-0.304842
0.124793
0.032263
-0.004216
0.017270
0.216715
0.121728
0.082807
-0.107266
-0.059312
-0.014849
0.049524
0.058075
-0.067081
-0.049532
0.414369
-0.110882
-0.110505
-0.251905
0.085216
-0.110725
0.033371
0.140745
0.161111
0.092986
-0.020333
0.103564
-0.099364
0.080960
-0.077016
-0.151206
0.044511
0.079512
0.125769
-0.071249
-0.110538
-0.231463
0.074907
0.026123
0.061468
-0.045134
0.079529
0.011772
-0.134481
-0.187547
0.328361
-0.019870
-0.174407
-0.095351
-0.064216
0.080216
0.228250
-0.032933
-0.005544
-0.088868
0.011176
0.253539
-0.013355
0.012026
-0.069266
-0.063239
-0.048143
-0.066031
-0.008339
0.201647
-0.011235
0.065973
-0.013331
-0.231444
0.016341
-0.014697
0.203085
-0.198582
-0.186992
-0.027732
0.152722
-0.021409
-0.263079
-0.184056
0.074699
0.048759
0.034966
-0.058286
0.155573
-0.067072
0.071532
0.060233
0.061103
0.072331
-0.126518
0.032311
0.098350
0.042518
-0.007449
-0.044480
-0.019641
0.034170
-0.039467
0.016627
-0.129116
0.086314
0.058422
0.127157
-0.044715
-0.027833
-0.143715
0.155806
-0.014561
0.024635
0.024422
0.321691
-0.364820
-0.075078
-0.092232
0.003147
0.145035
0.018282
-0.012354
0.010539
0.162734
-0.129706
-0.045172
0.118053
0.042637
-0.196607
-0.146729
-0.030778
0.122530
-0.004015
0.058101
-0.110726
-0.244067
-0.133582
-0.065728
0.116466
-0.016107
-0.256150
-0.334493
0.009930
0.015743
-0.103088
-0.125296
-0.002198
-0.100615
0.287159
0.164709
0.005548
0.130774
0.022945
-0.005301
0.109773
0.140382
0.150544
-0.174984
0.010201
0.081218
-0.090983
0.232031
0.084353
0.069371
0.019395
0.025995
-0.155143
0.174892
-0.063726
-0.022924
-0.063241
-0.001257
0.074025
-0.029033
-0.012758
-0.151241
-0.027407
-0.218447
-0.014086
-0.181207
-0.148179
0.280942
-0.160250
0.134869
0.067523
-0.041967
-0.106094
-0.153830
-0.029977
-0.035822
0.103178
0.029381
-0.084825
-0.239367
0.014873
0.119688
0.084695
-0.264014
0.168396
-0.110056
0.078336
0.167166
0.149680
-0.243599
-0.116257
-0.024344
0.042140
-0.070255
0.040290
-0.060154
-0.053694
0.023345
0.040197
0.216550
0.014632
0.072681
0.130910
0.034836
-0.040839
-0.036772
0.057225
-0.180643
-0.064110
0.116837
0.265368
-0.069864
0.137120
-0.037579
-0.129800
-0.036567
-0.073840
0.181992
0.056672
-0.037147
-0.156368
0.176162
-0.064783
0.051704
-0.058398
0.021677
0.046959
-0.192926
0.052021
0.029260
0.029290
-0.111268
-0.120688
-0.051041
0.170567
0.093600
0.132506
0.033617
-0.227304
-0.044785
-0.069457
0.218681
-0.099146
0.034146
-0.027392
0.046422
0.014407
0.016734
-0.004088
0.029411
-0.244203
0.096531
0.021980
-0.159061
-0.010645
0.012706
-0.018372
-0.229251
0.047121
-0.113553
0.180584
-0.009928
0.109006
0.006304
-0.057611
0.037596
0.065095
-0.051441
0.268586
-0.002645
-0.051246
-0.057027
0.173943
0.036136
0.122537
0.114250
0.011250
-0.070624
0.027154
-0.149148
0.084056
0.049394
-0.191131
0.018817
-0.062299
0.116739
-0.065987
-0.041149
-0.353065
-0.331205
0.090489
-0.069447
-0.051524
0.054861
-0.015714
0.043845
-0.263447
-0.048298
-0.111697
-0.034907
0.004588
-0.080309
-0.015204
0.041755
-0.007640
-0.114000
-0.020150
0.103384
0.016450
0.053079
0.005544
-0.188329
-0.136664
-0.117706
-0.042696
0.259038
-0.014870
-0.076835
-0.175754
0.072456
-0.022136
-0.089873
0.042849
-0.006894
-0.162458
-0.070784
0.268142
-0.127348
-0.133404
-0.101483
-0.265136
0.043807
0.070433
-0.038682
-0.018222
-0.171124
0.014008
0.079027
0.029106
-0.117496
-0.077279
-0.087832
0.077384
-0.320027
0.152005
-0.079389
-0.135288
0.077152
-0.062928
0.075834
0.111295
0.184067
-0.036889
-0.134370
-0.184530
0.038655
-0.327556
0.017573
-0.184367
-0.047537
0.023110
0.111846
-0.397000
0.031138
-0.129437
-0.155391
0.084786
-0.064309
-0.197446
0.048382
0.038022
0.308611
0.018918
-0.204285
-0.180546
0.255181
-0.181768
-0.112751
0.122990
0.091602
0.025355
-0.181979
-0.064196
-0.029473
-0.018137
0.025813
0.096104
0.150071
-0.011583
0.299358
0.080628
-0.125174
0.035776
0.048279
-0.156345
-0.095263
0.028115
0.228210
-0.092591
-0.059523
-0.211349
0.019107
0.185783
-0.104613
-0.199929
0.007023
0.044798
-0.029886
0.256103
-0.203590
-0.252786
-0.017313
0.154328
-0.096308
0.160716
-0.075522
0.026157
-0.049985
-0.108999
0.133397
-0.293838
-0.170262
0.124571
0.049479
-0.022305
0.049287
-0.143592
-0.005506
-0.023304
-0.073137
0.199927
0.200039
0.028400
-0.210343
0.132277
0.285280
0.042439
-0.068433
0.164297
0.144621
-0.160462
-0.106992
0.071224
0.137555
-0.002074
-0.083603
-0.043155
-0.033469
-0.040055
-0.144625
0.081978
0.043164
0.020056
0.085832
0.173699
0.114757
-0.067799
-0.009004
-0.194724
-0.125401
0.064596
-0.121221
0.050499
-0.167619
-0.301058
0.059344
0.104833
-0.244408
-0.033862
-0.200227
-0.005717
0.116673
0.147041
-0.131706
-0.049138
0.085007
-0.280126
0.018309
0.195969
-0.020369
0.094254
-0.021935
0.109405
-0.056241
-0.172446
-0.250174
0.071574
0.018646
-0.003347
0.201497
-0.046688
0.005563
-0.096369
-0.183420
0.133303
-0.057081
-0.067976
-0.266620
-0.035460
-0.003745
-0.180877
-0.002420
-0.180532
-0.050130
-0.123136
-0.058342
-0.167048
0.051789
0.303410
0.106265
-0.247807
0.029826
-0.003659
0.034912
0.217616
-0.093683
0.006496
0.215745
0.110043
0.031983
-0.083189
-0.030272
-0.245865
0.004325
-0.012332
0.041144
-0.245331
0.099026
-0.064939
-0.117813
0.102958
-0.000626
0.094268
-0.215474
0.047041
0.092582
-0.223633
-0.201014
-0.048837
0.108269
-0.098305
0.082781
0.144049
-0.104778
-0.040772
-0.097236
-0.081224
0.087498
0.115411
-0.234187
-0.030238
0.002209
0.093323
-0.003440
-0.045139
-0.033983
-0.007306
-0.237925
0.195632
-0.095370
-0.141855
-0.222083
-0.012074
-0.088923
0.182745
-0.105230
0.035026
0.035168
-0.042842
0.108754
0.007995
0.046137
0.040168
0.196964
-0.091353
0.006317
-0.038605
0.123762
0.168991
-0.166877
-0.061236
-0.142557
0.117036
-0.076888
-0.062362
0.231355
0.058263
-0.063221
-0.028119
-0.049771
0.019107
0.070313
0.092004
-0.052200
-0.063656
-0.012449
-0.204089
-0.108635
0.028518
-0.006552
-0.131080
-0.027193
-0.091159
-0.033717
-0.045808
0.002216
-0.044796
-0.014648
0.022561
-0.190363
0.082276
0.126044
0.107065
-0.159739
-0.075744
0.004059
0.001265
-0.015225
-0.102849
0.039316
-0.179897
-0.173409
0.101333
0.050741
0.055395
-0.081329
0.172984
-0.031087
0.109011
-0.003239
-0.253484
-0.076740
-0.053236
-0.002744
-0.081083
0.117728
0.189926
-0.183526
-0.108584
-0.308131
-0.006160
-0.013494
-0.059025
-0.088970
0.061228
-0.007462
0.190203
0.057191
0.090920
0.017410
0.010980
0.182714
0.197739
0.024634
0.114810
0.151540
-0.030205
0.176523
-0.110452
-0.099654
-0.124816
0.084128
-0.059206
0.246239
-0.183385
0.303973
0.099615
0.011275
0.088238
0.081493
-0.058364
0.052927
0.119686
0.000687
-0.017546
0.091439
0.113157
-0.100547
0.204699
-0.020976
-0.290981
-0.174475
0.081260
-0.036848
0.200363
-0.025023
0.220516
-0.089010
0.190391
0.108078
0.076853
-0.100542
0.243237
0.032165
0.036971
-0.170440
0.239372
0.001755
-0.100678
-0.012604
0.184194
0.156267
-0.228543
-0.006995
-0.060527
0.002296
-0.035275
-0.048244
-0.201573
0.182057
-0.063314
0.045229
-0.121827
0.106649
-0.052240
-0.023807
-0.109553
0.279245
0.026354
0.004036
0.006540
-0.072081
-0.008588
-0.314791
0.229759
-0.019259
-0.146217
-0.061792
-0.195112
-0.097791
-0.016379
0.178135
-0.074818
0.084699
0.020711
0.031825
-0.063034
0.088821
-0.288144
0.043666
-0.110338
-0.052795
0.011240
0.004505
-0.023564
-0.019694
-0.071595
0.035285
0.031915
-0.145831
-0.083565
0.026205
0.001023
0.015399
0.196693
0.149993
-0.151775
-0.265596
-0.011396
-0.188729
0.009184
-0.189358
-0.063925
0.111895
-0.004450
-0.022148
0.173062
-0.078468
-0.053457
-0.130358
0.182315
-0.031384
0.095184
-0.078508
0.072450
0.009145
-0.477722
0.006665
0.085114
0.007731
-0.096366
0.175562
-0.046871
0.128415
0.316278
-0.037621
0.102652
0.068795
-0.040420
0.184909
0.084188
0.061359
0.034422
0.214154
-0.159453
0.008308
-0.155058
0.066801
-0.208265
0.030759
-0.036301
-0.185943
-0.267878
0.048639
-0.092454
0.162336
0.010339
-0.039353
-0.114562
-0.220172
-0.262436
-0.041907
0.020231
-0.194150
-0.030650
0.210808
-0.020183
-0.046501
0.330651
0.177609
-0.029022
-0.012680
0.093906
-0.137623
0.136523
-0.035046
-0.141374
0.079586
-0.143520
-0.069885
-0.021660
-0.053400
0.008043
-0.041407
0.223557
0.004469
-0.275569
0.206688
0.043163
-0.175533
-0.256770
-0.062175
0.086909
-0.150058
-0.132181
-0.003648
-0.073757
-0.183073
-0.275559
0.134152
0.299661
-0.165273
-0.016236
0.009209
-0.036871
-0.121765
0.311977
0.077105
-0.310728
0.117177
-0.117367
0.065565
0.035635
0.052526
-0.009821
-0.200504
-0.192852
0.113400
0.044454
0.088511
-0.027858
-0.075140
-0.126450
-0.141110
-0.104158
-0.002814
-0.039887
-0.293743
0.122749
-0.015438
0.016132
-0.015480
-0.023778
0.166934
-0.198753
-0.142759
0.164675
0.162125
-0.052815
-0.199724
0.070045
0.208508
-0.094202
0.131907
0.026080
0.005135
-0.041573
-0.109929
0.151814
-0.166791
-0.066901
-0.145831
0.254389
-0.001614
-0.127485
-0.060304
-0.058573
0.004017
0.033130
0.072851
-0.217239
-0.061261
-0.146198
0.070901
0.065890
-0.056811
-0.119105
-0.099183
0.152282
-0.017082
0.337254
0.113242
-0.019192
0.221269
-0.155093
0.136908
0.015534
-0.168550
-0.118718
0.036988
-0.219916
0.035967
-0.308006
0.093009
0.062040
-0.201123
-0.185409
-0.172262
-0.276409
-0.009632
-0.018120
-0.163235
0.005201
-0.205892
0.126625
0.107887
0.142773
0.211345
-0.299504
-0.376390
-0.148643
0.275838
0.185525
-0.196799
-0.203417
-0.017211
0.201891
-0.256322
0.048029
0.064997
-0.012495
-0.290658
0.142648
-0.096567
0.022663
0.216547
0.100051
-0.245143
0.140418
-0.071961
-0.039971
-0.116696
-0.012132
0.083028
-0.126817
0.108524
-0.151035
0.314823
0.032578
-0.134209
-0.095627
0.024206
0.071310
0.042989
0.201682
0.004409
0.051082
-0.025663
-0.099110
0.181428
0.057569
0.008492
-0.105030
0.152315
-0.018796
-0.017888
-0.171186
-0.137867
0.302467
-0.117689
-0.079593
0.126526
-0.149292
0.040865
-0.041411
-0.166028
0.090558
-0.289633
-0.030908
0.129808
0.217112
0.038392
-0.052757
0.003091
0.067969
0.062494
0.059711
-0.126326
0.062717
0.053909
0.179938
-0.329655
-0.089041
0.070565
-0.041287
-0.157915
0.172083
-0.157974
-0.200332
0.075298
0.201503
-0.166509
-0.043959
0.076149
0.129354
-0.091936
-0.030344
0.099456
0.067343
0.080246
-0.423660
-0.049351
-0.037406
0.082938
0.016818
0.050651
-0.099511
0.137034
-0.043363
0.107163
-0.162376
0.047787
-0.059339
-0.064443
0.126761
0.015912
-0.225167
0.067966
0.047903
0.175807
-0.120993
0.120506
0.225699
0.104533
-0.201303
0.050210
-0.182110
0.011698
-0.063531
-0.219956
0.084401
0.036909
-0.168565
-0.021001
0.035786
0.132964
-0.007515
-0.160173
0.034727
0.038055
-0.028033
0.013674
0.113930
0.187586
0.071278
-0.035492
-0.032609
0.230655
-0.041133
-0.029236
0.137106
-0.056255
-0.008826
0.121131
0.187731
-0.042960
-0.042169
0.077813
0.026226
-0.011040
-0.223728
0.171501
0.017204
0.026937
-0.192176
-0.008774
0.011859
-0.076899
-0.050410
-0.058695
0.109799
-0.128322
-0.110044
0.097424
-0.170675
0.034055
-0.281396
0.093553
-0.102953
0.034311
-0.012787
0.096829
0.075580
-0.062261
-0.018272
0.003247
0.152379
0.066724
-0.188260
-0.044436
-0.192129
0.081645
0.082995
0.001059
0.201670
0.066056
-0.071113
-0.001716
0.171586
-0.084796
0.241697
0.154228
0.064292
-0.144565
0.080344
0.105200
0.042303
-0.011014
0.071559
-0.130447
-0.139269
-0.038866
-0.024887
0.126992
0.051811
-0.034169
-0.050833
-0.013579
0.067856
0.084337
0.005113
-0.036759
-0.018178
-0.043486
-0.076349
0.050564
0.136245
-0.018746
0.232465
0.128678
0.038216
0.013235
-0.187108
-0.043566
0.033011
-0.011183
-0.187747
0.023129
0.090311
0.017227
-0.032856
0.088507
-0.081324
0.049233
0.224109
0.070995
-0.035720
-0.211138
0.177057
-0.156052
0.248739
-0.005873
-0.062380
0.040102
-0.119472
0.016788
0.211291
0.025375
0.018349
-0.344917
-0.003718
-0.022847
0.297776
0.130921
0.036686
0.071365
-0.084707
-0.289022
0.039193
0.215307
-0.135044
0.059175
0.121721
0.158550
-0.023390
0.229932
-0.027619
-0.110542
-0.115776
0.058511
-0.247767
0.052217
-0.005076
0.112162
0.067986
-0.051611
0.018140
0.020225
-0.235843
0.134914
-0.063596
-0.116275
0.035039
0.124415
-0.023676
-0.025248
0.064312
0.075244
0.008443
-0.159394
-0.208108
-0.027641
-0.019792
-0.077269
0.103143
0.212629
0.031585
-0.263013
0.062672
-0.046926
0.126105
-0.123664
-0.511881
0.059889
-0.073901
-0.001711
0.036409
-0.268463
-0.180285
-0.014327
0.071756
-0.110272
0.010332
-0.084017
0.065066
0.024271
0.050496
0.077308
-0.087830
-0.186851
-0.103112
-0.099717
0.056910
-0.137570
0.326782
0.156975
-0.165716
0.000787
-0.186294
0.227248
0.027767
-0.258019
0.174367
0.009178
-0.151984
-0.065358
0.111361
-0.170685
-0.431973
-0.002560
0.017867
0.103573
0.114582
0.169254
0.069127
-0.196439
0.022594
0.093598
0.056621
0.336382
0.188052
-0.024716
0.209565
0.163640
-0.154824
0.185929
-0.204565
0.003934
-0.147866
0.105666
-0.121200
-0.233586
-0.157149
-0.213179
-0.314218
-0.043112
-0.227407
0.110632
0.097574
-0.134619
0.142041
-0.044123
-0.247292
-0.004835
-0.052202
-0.059751
-0.213575
0.101138
0.105559
-0.055778
-0.113006
0.171892
-0.429734
0.070176
-0.317777
-0.134403
0.192352
-0.281800
-0.001887
0.135728
-0.100986
-0.173903
-0.026070
0.215519
-0.016055
0.114194
0.260625
-0.058909
0.037341
0.135941
0.214500
-0.202226
0.037556
-0.043677
-0.185580
-0.115826
0.173134
0.017053
-0.025837
-0.117397
-0.064271
0.094758
0.003485
0.164337
0.126343
-0.070612
0.012068
0.199249
0.047236
0.102566
-0.090752
-0.034868
-0.139246
0.253113
0.037325
-0.177440
-0.237112
-0.158172
-0.051898
-0.038964
-0.111902
0.240219
0.075854
-0.039733
-0.079555
0.046230
0.013433
0.005787
0.041699
-0.261333
-0.123706
-0.219744
0.021454
0.078785
-0.142596
0.270481
-0.263109
-0.062014
-0.085817
0.133331
0.109119
-0.216195
-0.286793
0.016381
-0.168332
0.021029
0.060811
0.141073
0.019935
0.209613
0.079328
-0.180617
0.090691
0.060029
0.213154
-0.109818
0.053927
0.111077
-0.236482
-0.233475
0.010193
-0.071692
-0.076567
-0.138074
-0.079990
-0.029641
0.031601
0.128847
0.043777
-0.079311
-0.008340
-0.107057
0.107679
0.182232
0.019436
0.153057
0.009786
0.134932
-0.220186
-0.417113
0.062309
0.122707
0.113327
-0.109180
-0.177664
0.150869
0.100269
-0.194861
-0.247344
-0.056430
-0.079203
0.025253
0.109511
-0.077270
-0.034979
0.017432
0.178795
0.012603
0.267585
0.150622
-0.498465
-0.028284
-0.457375
0.126481
0.201348
0.027756
-0.277390
-0.010441
-0.117233
0.000626
0.095181
0.089324
-0.016600
0.122322
0.252643
-0.220512
0.070835
0.052403
0.284112
-0.029810
-0.005402
0.183841
-0.130649
-0.353104
-0.027451
0.129786
0.028951
0.121273
-0.202811
0.098418
0.140528
0.081557
0.140267
-0.055290
0.080591
-0.058695
0.150812
0.149217
0.061528
-0.033133
-0.013623
0.058314
-0.240299
-0.354464
-0.265045
0.177781
-0.015483
-0.189061
0.207654
0.002056
0.165174
-0.074568
0.019418
-0.037200
-0.110773
-0.001114
0.001150
-0.129284
-0.009094
-0.136742
0.010063
0.253458
0.405678
0.194004
-0.217826
-0.182953
-0.172755
-0.070152
0.074805
-0.157330
-0.241057
-0.081065
0.016240
-0.005702
0.032515
0.076179
-0.008965
-0.204777
0.297408
0.008409
0.209135
0.017683
0.102717
-0.082988
0.124617
0.085475
-0.346258
-0.247167
-0.150804
0.025660
-0.113417
0.266517
-0.051682
-0.095866
-0.004661
0.131299
-0.103669
-0.057422
0.055996
0.220977
-0.072716
0.141594
0.066146
-0.105029
0.043291
0.064027
-0.004424
-0.161204
-0.147880
0.014545
-0.168937
-0.098310
0.007804
0.271171
-0.025781
0.110873
0.016288
-0.152076
-0.175789
-0.016092
-0.048469
0.157894
-0.033094
-0.048328
0.037205
-0.301339
0.099154
0.147248
-0.063563
0.037455
-0.130664
-0.115989
-0.148609
-0.011256
-0.157077
-0.059223
0.089729
-0.218802
0.024176
0.024520
-0.000195
0.073907
0.170306
0.052949
0.102855
0.105841
0.113704
0.120898
0.124547
0.046502
-0.035734
-0.150535
-0.337959
0.035589
0.047277
0.057108
-0.150397
0.033773
0.097376
0.078807
-0.047773
-0.072102
0.069467
0.078693
-0.315727
0.000323
0.050197
-0.113529
-0.366360
0.032344
0.166016
-0.089897
-0.096657
-0.015793
-0.090692
0.121547
-0.226988
-0.021830
-0.108105
-0.066019
-0.172072
-0.041915
-0.495832
0.013509
-0.114712
0.021918
0.033621
-0.135686
-0.115252
-0.159856
-0.130352
-0.080926
0.068934
0.028647
-0.047568
0.033290
-0.079231
0.114057
0.109296
-0.029463
0.208356
-0.303076
-0.098677
-0.154385
-0.019294
0.079403
-0.034684
-0.067221
-0.176020
-0.157406
-0.001968
-0.002784
0.022152
-0.037111
-0.026745
-0.184906
-0.161018
0.010397
0.201302
-0.229606
-0.226355
-0.019406
0.116730
0.134181
-0.064042
0.107448
-0.100596
0.050402
-0.190221
0.101063
0.158989
-0.105815
-0.256251
0.059925
0.089637
-0.088538
0.115377
-0.021163
-0.115756
0.003993
-0.097302
-0.339478
0.070264
0.125860
-0.157391
-0.063537
-0.167480
0.001221
0.327461
-0.041588
-0.276896
-0.086635
0.116691
-0.122168
0.100227
-0.166596
-0.030070
-0.030363
-0.085814
0.018342
0.064017
0.158118
-0.311991
-0.058658
-0.172899
0.003602
0.027127
-0.124404
-0.016709
0.207142
-0.096882
0.044459
-0.044257
-0.116333
0.102306
0.081169
-0.135786
-0.371573
-0.024431
0.064678
-0.149225
0.053158
-0.214635
-0.037985
-0.199205
-0.186751
0.023681
-0.060869
0.098967
0.094535
-0.007541
-0.050540
-0.203523
0.110473
0.052887
-0.051301
0.133048
-0.062955
0.038287
-0.003130
-0.017372
0.021971
0.183227
0.119909
0.178219
0.034648
-0.254091
-0.139401
0.142919
-0.332375
-0.062513
-0.044566
0.188657
0.072189
0.083576
0.032919
0.139825
-0.253394
-0.047335
0.029988
-0.152801
-0.020695
-0.162529
-0.034732
0.082777
-0.083241
0.114534
-0.013760
-0.030478
0.090515
-0.023998
0.275743
0.019383
-0.195753
0.087149
-0.056534
-0.246991
-0.181716
0.060323
-0.153638
-0.247234
-0.003145
-0.179816
0.125729
-0.056476
0.126856
-0.084284
-0.128994
-0.180906
-0.051343
0.161943
0.202860
0.102025
-0.090593
0.107048
-0.036037
-0.165258
0.177648
-0.131666
0.015445
-0.340556
0.192545
0.139018
0.045436
-0.188739
-0.109169
0.027753
-0.219784
0.025437
-0.008541
-0.014075
-0.219315
0.103012
0.010849
0.120677
-0.095878
0.029691
-0.033255
-0.035510
0.018598
-0.088220
-0.038007
-0.066965
0.109306
-0.285382
-0.026562
-0.037292
-0.166450
0.065057
-0.252077
-0.016922
0.080088
-0.111977
0.152055
-0.296505
0.260487
0.007746
-0.119658
0.172146
-0.038715
-0.133820
-0.014978
0.065027
-0.103356
0.196003
0.087759
-0.301368
0.118713
-0.146833
0.269308
-0.211522
0.066400
0.009554
0.033189
0.033601
-0.096320
0.171600
-0.107013
0.111677
0.022585
0.042499
0.075826
-0.028595
0.064691
-0.050360
0.013245
-0.098023
-0.151725
0.095464
-0.159954
-0.048083
-0.134915
0.053323
0.079766
0.066771
0.079637
0.260312
-0.024964
-0.151712
-0.052783
0.095499
-0.078058
0.086537
-0.122225
-0.133703
0.083420
-0.005200
0.203015
-0.301173
-0.050924
-0.231972
-0.152624
0.022904
-0.072755
-0.152421
-0.059970
-0.171650
0.101449
-0.186184
0.105683
-0.018740
0.160178
0.185158
-0.119315
-0.120199
-0.110630
0.260259
0.000424
0.207700
-0.058398
-0.176639
-0.132247
-0.385958
0.131127
-0.279410
-0.058164
-0.093023
0.123617
0.102517
-0.053843
0.103678
-0.073266
0.036566
0.233600
0.085537
0.197452
0.031787
-0.048617
0.033964
0.187727
-0.045913
-0.301237
0.186562
0.149057
-0.099117
0.001960
-0.157650
-0.039496
0.205410
-0.043251
0.153205
-0.086792
-0.276935
-0.069590
-0.006828
-0.254277
0.044032
-0.091385
0.075296
0.126175
0.188192
0.247573
-0.305780
0.103879
-0.403591
0.044344
-0.010849
0.280926
0.059929
0.041536
0.044727
0.123075
0.096736
0.140070
0.030225
0.031102
0.154484
0.086411
-0.001906
-0.029814
0.139790
-0.195894
0.104987
0.070326
-0.166413
-0.013614
-0.095423
0.044801
-0.121479
0.023739
-0.082256
0.107113
0.048974
0.031819
-0.020043
0.028415
0.039503
0.206088
-0.138662
0.182118
0.075184
-0.053076
0.067198
0.084098
0.004057
-0.101336
0.035290
0.147826
0.107717
-0.178043
-0.057176
0.025546
0.234160
-0.118375
0.093467
-0.009679
-0.200534
-0.064466
-0.045178
-0.006794
0.086715
0.122487
-0.047305
-0.061279
0.237068
0.167847
0.039032
-0.036050
-0.174953
-0.064533
0.048452
0.072724
-0.366264
-0.087412
-0.120021
-0.104914
0.003928
0.154482
-0.018544
-0.436671
0.190717
0.154090
-0.034752
-0.140036
0.138026
-0.310011
-0.019828
0.146731
-0.363918
0.041867
-0.537673
-0.013251
-0.210400
0.274451
0.076916
-0.018844
0.012467
0.108273
-0.192276
-0.008344
0.171089
0.085933
-0.059970
0.160679
-0.112616
-0.036893
-0.215343
0.068473
0.071740
0.246325
-0.123126
0.106674
-0.235718
-0.153811
-0.161780
0.054597
-0.129433
0.121132
0.150179
-0.072073
-0.262471
-0.082401
0.009838
0.000335
0.304982
-0.258421
0.044258
-0.041624
-0.187424
0.302680
-0.010754
-0.053925
-0.101279
0.038315
-0.040727
0.208258
-0.166377
0.041460
0.099439
-0.119308
-0.091519
0.040941
0.028643
0.042875
0.153965
0.158733
0.241860
-0.276471
0.153631
-0.048978
0.060113
0.140909
-0.182211
-0.241957
-0.310359
0.039583
-0.053083
-0.188078
-0.046969
-0.046214
0.068424
-0.036518
-0.218748
-0.038688
0.115176
0.282543
-0.043475
-0.176780
-0.131888
-0.064795
-0.247628
0.195672
0.110755
-0.106882
0.044361
0.210653
0.017531
-0.312431
-0.064874
-0.081418
-0.221414
0.027313
-0.154468
-0.118238
-0.321975
-0.063074
-0.206680
0.100483
0.193430
-0.107892
0.192402
0.000993
-0.025727
-0.036768
-0.004254
0.061220
-0.278956
0.203146
0.014213
0.205493
-0.385839
0.166407
0.211013
-0.565076
-0.208751
-0.133116
-0.020137
0.121721
-0.291572
0.049106
0.048395
-0.160355
0.005049
-0.065222
0.063926
-0.190143
-0.012548
-0.085712
-0.073235
0.189226
-0.104324
0.025763
0.108230
-0.065706
0.035310
0.005656
0.020264
-0.035089
-0.082523
0.158951
-0.125569
-0.019821
-0.029465
-0.094136
-0.140960
0.086235
0.155854
-0.073121
0.118274
-0.031031
0.061013
-0.209422
-0.003552
-0.011060
-0.116153
0.123342
-0.175593
-0.342242
-0.124184
-0.001448
0.311309
-0.095950
-0.215599
-0.049556
-0.077452
0.222626
0.149953
-0.273732
-0.030969
0.014682
-0.123414
-0.364509
0.173028
0.024507
-0.124280
0.055564
-0.089435
0.098836
-0.029157
-0.125363
-0.039263
0.177167
-0.087675
-0.041737
-0.200927
-0.184276
0.096796
-0.035624
-0.116794
-0.296849
0.136632
-0.053850
0.149004
-0.059901
-0.048518
-0.048465
-0.154385
-0.064995
0.170055
0.057952
0.157901
0.042823
0.051408
-0.139186
-0.196556
0.153661
0.041838
-0.097663
0.016967
0.137655
-0.017832
0.103589
-0.334515
-0.163896
0.151356
-0.177371
0.119108
-0.132544
0.144748
-0.112967
-0.162976
-0.068670
0.018537
-0.061970
0.232379
-0.017086
0.113099
0.070533
-0.197209
0.004510
0.030390
-0.006242
-0.040668
-0.026617
0.075706
0.057197
0.117374
-0.004884
-0.189965
0.172845
-0.057948
0.391382
-0.052414
-0.017943
-0.022714
0.059413
0.021118
0.051898
-0.345914
-0.021933
-0.040332
-0.093425
0.115473
-0.286755
-0.157317
0.170255
-0.181115
-0.099950
-0.175339
-0.137054
-0.107731
0.166761
0.192310
0.273425
0.099699
-0.188264
0.123373
-0.152185
-0.024806
0.098107
-0.135158
-0.049683
-0.345579
0.261297
0.116533
0.010293
-0.124417
-0.042484
0.109967
-0.156436
-0.207356
-0.076345
-0.181098
-0.086742
0.216776
0.052240
0.007741
0.038629
0.142212
0.117848
0.268779
0.105496
-0.269830
0.047778
-0.013978
0.180890
0.025998
-0.050297
-0.142722
0.110831
0.010398
-0.167883
-0.303474
0.009693
-0.239833
0.292715
-0.092788
0.251837
-0.028920
-0.152960
0.211977
-0.091857
-0.346603
-0.501663
0.007697
-0.093500
0.067876
0.020466
-0.256039
-0.183228
-0.316988
0.152050
0.016072
0.179331
0.020674
0.016798
0.073545
0.234946
0.149200
-0.115126
0.076737
-0.018874
0.042016
0.124917
-0.159665
-0.000978
-0.062798
0.089717
0.132488
-0.133482
-0.046658
0.094873
-0.163759
-0.354128
-0.016908
-0.286223
-0.027029
-0.025003
0.347720
0.087019
-0.298379
-0.016622
0.086300
0.070593
0.110113
0.080227
-0.201414
-0.075021
-0.049271
0.176119
-0.053655
0.070397
-0.048748
0.071194
-0.070292
0.010169
-0.395498
0.104029
-0.174760
-0.016309
-0.124485
0.226584
0.034818
-0.309019
0.110322
-0.053990
-0.254781
-0.420192
0.196328
-0.075696
0.147722
0.014535
-0.076551
-0.002725
-0.224510
0.059838
-0.026016
-0.202844
0.052041
-0.146838
0.207547
0.252048
0.076823
-0.121645
0.035584
-0.059044
0.120555
0.350652
-0.010270
0.014494
-0.067301
-0.156560
0.067133
0.058937
0.236512
0.236917
-0.209710
-0.259196
-0.133073
-0.203148
0.153474
0.041964
0.220958
-0.022139
-0.219860
-0.094512
-0.054362
-0.348345
0.203897
0.045626
-0.010368
0.153292
0.027870
0.062296
-0.230206
0.136173
-0.127288
-0.335709
-0.100443
0.066123
-0.373074
-0.104139
-0.133144
-0.045556
-0.228592
0.136395
0.019504
-0.179540
-0.010805
0.080535
0.131473
-0.112837
0.146803
-0.163901
0.008402
-0.090014
-0.096193
-0.365508
-0.066929
0.105188
0.240858
0.107518
-0.126233
-0.178876
0.343920
0.116500
0.015655
-0.082020
0.020288
0.150565
0.075098
0.310189
0.118902
-0.138975
-0.287796
-0.054875
0.069687
-0.036228
0.155920
0.164949
0.101970
-0.242505
-0.059146
-0.037825
0.151385
0.064592
0.201168
-0.031487
-0.229427
-0.083628
-0.069303
0.197794
0.060814
-0.096295
0.075449
0.105678
0.169017
0.204759
-0.172827
0.191849
-0.099541
-0.101617
0.046867
0.185280
-0.301214
-0.193937
-0.036453
-0.411359
-0.125707
0.180554
0.005276
-0.182947
0.005686
-0.002488
0.044018
-0.207072
-0.025844
-0.181296
0.098636
-0.021429
-0.340849
-0.002783
-0.027800
0.003585
-0.038118
0.068849
0.005072
-0.151228
0.081383
0.241061
-0.145852
0.027433
-0.053659
0.070436
0.115780
0.114302
-0.151166
-0.070565
-0.194801
0.009059
0.090895
0.177624
-0.081530
0.069900
-0.121981
-0.322375
0.015829
-0.153677
-0.039670
0.072679
0.210699
0.115187
-0.121008
-0.102803
-0.004996
0.139436
0.310918
-0.037943
-0.107085
0.012820
-0.129644
0.154582
0.082497
0.078240
-0.084521
0.209746
-0.116117
0.262526
0.208586
-0.008341
0.141384
-0.236345
-0.147570
0.165198
0.033690
-0.049139
0.164946
0.008394
-0.059215
0.007278
0.148229
-0.138559
0.080292
-0.044988
0.102846
-0.040198
-0.172828
0.117168
-0.181967
-0.157174
0.101579
-0.108073
0.132418
0.201628
-0.152839
-0.152190
0.142708
0.122704
-0.057254
0.033661
-0.022667
-0.031353
0.027747
0.092483
0.100089
-0.207367
0.037720
0.069331
-0.146834
-0.240723
0.087952
-0.022230
-0.081468
0.108636
-0.016012
-0.067436
-0.127137
-0.080317
0.012435
0.193057
0.131928
0.025902
0.090409
-0.037826
-0.032858
-0.049913
-0.200587
-0.063059
0.097234
0.003345
-0.100252
0.255728
0.253447
-0.029289
-0.005862
-0.260716
-0.197279
0.081302
0.034025
0.177508
-0.145774
0.198856
-0.162549
-0.008688
0.020762
-0.046656
0.111829
0.051904
-0.247477
-0.111113
-0.167879
0.064185
0.153584
-0.096796
0.133003
0.022486
-0.092860
-0.042824
-0.153005
-0.208728
-0.187454
0.045948
-0.049880
-0.021340
-0.123604
0.008362
0.071404
-0.104358
0.081550
-0.058365
0.022727
0.078449
0.005589
-0.072854
0.209457
0.056864
-0.183105
0.041823
-0.159463
-0.096739
-0.154082
-0.000100
0.034195
0.016909
-0.439026
-0.190968
0.198087
-0.184443
-0.149798
0.064962
0.176176
-0.178199
-0.344768
-0.312277
0.268883
-0.120813
-0.491646
-0.035251
-0.246646
0.166620
0.082872
0.044755
-0.032664
-0.045976
-0.166672
-0.141894
-0.043274
-0.016695
0.107722
-0.030308
-0.114184
-0.324274
0.038868
-0.035621
0.010517
-0.261955
-0.061970
-0.175146
-0.017034
0.074152
-0.098838
-0.118996
0.040284
-0.123303
0.053650
-0.150949
-0.207644
-0.120865
-0.042754
-0.017643
-0.123480
-0.250468
-0.263002
0.148284
-0.181178
-0.132782
-0.012838
0.055200
-0.070483
0.170225
-0.200697
-0.069215
0.008810
-0.159914
-0.021141
-0.023214
0.242410
-0.106808
-0.383524
-0.109070
-0.309229
-0.252304
0.238339
0.069824
0.104436
0.109757
-0.058580
-0.118852
0.052675
-0.184125
-0.342428
0.044351
-0.111558
-0.055114
-0.044568
0.031630
-0.037732
-0.086590
0.017151
0.077412
-0.154930
-0.092657
0.035618
0.018227
-0.065961
-0.253907
-0.063475
-0.209453
-0.289091
-0.105968
-0.046507
0.055859
-0.178296
-0.186771
-0.190565
0.044966
-0.344342
-0.184406
0.133974
-0.211355
-0.035453
0.131833
-0.201019
-0.025034
-0.095572
-0.055114
0.302550
0.023525
-0.297048
-0.090892
0.284812
-0.075664
0.096569
-0.272449
0.064009
0.013470
0.303111
0.022847
0.245568
-0.000321
0.046432
0.064381
-0.269514
-0.148245
-0.222076
0.027185
-0.269030
0.067645
-0.024022
-0.338676
-0.045951
-0.031756
0.005191
-0.150236
-0.061643
-0.128984
-0.101937
0.118750
0.061105
0.011299
-0.001424
0.190213
0.060605
0.015912
-0.142103
-0.227674
0.066219
-0.100436
-0.148483
-0.170432
-0.041935
-0.074927
-0.131456
-0.225261
-0.074904
-0.013092
-0.255900
-0.019180
-0.107857
0.092683
-0.477250
-0.180588
0.085789
0.036463
0.135758
-0.138518
-0.205305
-0.077203
-0.060323
-0.019032
0.059781
-0.238977
-0.112209
-0.013782
-0.184540
-0.121456
-0.220887
-0.407494
0.009551
0.015777
-0.105620
0.027566
-0.156651
-0.018345
-0.014401
-0.188293
-0.085302
-0.101495
-0.171099
0.065597
-0.232288
0.036148
0.046434
-0.043599
-0.105693
-0.103347
-0.153973
-0.035403
-0.113164
-0.110052
-0.238874
-0.399786
-0.118496
-0.058333
-0.005489
-0.080639
-0.037784
-0.092667
-0.100793
-0.540812
0.019400
-0.053971
0.010965
-0.142046
-0.015922
-0.334646
-0.083484
0.006632
-0.119566
-0.004627
-0.137333
0.029564
-0.121250
0.104093
-0.036374
-0.078328
0.052218
0.140075
0.341123
0.003072
-0.253862
-0.187939
-0.098609
-0.119291
-0.001969
-0.270735
0.032857
0.056577
-0.059643
0.000186
-0.282711
-0.238974
-0.077055
0.056111
0.041504
-0.035097
0.033451
-0.030343
-0.012893
0.090494
-0.329720
-0.214000
0.084518
-0.206537
-0.217633
0.041022
0.149666
-0.083291
-0.119438
-0.101035
-0.101365
0.244652
-0.134543
-0.174291
-0.036467
-0.315286
-0.400659
0.112934
0.033108
0.194974
0.000311
0.228668
-0.190425
-0.007602
0.091083
-0.133622
0.006525
-0.149041
0.083272
-0.244291
-0.069015
0.183760
-0.191393
-0.034251
-0.078192
0.065216
-0.146626
0.094104
-0.300688
-0.051375
-0.339548
0.020941
0.202070
-0.127586
-0.133482
-0.317571
-0.110247
-0.213425
0.122764
-0.188782
-0.009115
0.190720
-0.217337
-0.145508
0.103231
-0.264681
-0.028977
0.236324
0.050119
-0.078582
-0.068806
-0.004798
0.010092
-0.030689
-0.461828
-0.167080
0.002821
-0.003292
0.008787
0.079882
-0.183505
-0.034579
0.047655
-0.029722
-0.157182
0.016734
-0.230208
-0.043785
-0.199605
-0.239621
-0.416402
0.115066
-0.041323
-0.161740
-0.202655
0.006547
-0.029358
-0.254554
0.138075
-0.052563
-0.168949
-0.093934
-0.318515
0.161444
-0.143208
0.038968
0.026876
0.010179
-0.057256
-0.062928
-0.163552
0.198280
-0.316122
-0.141210
-0.136339
-0.235746
0.154767
0.069464
-0.289092
0.023196
0.066435
0.157807
0.103373
0.039915
-0.085001
0.123459
-0.098169
-0.042038
0.165769
-0.458136
-0.021413
0.216089
-0.249202
0.005465
0.084830
-0.035224
-0.154424
-0.122024
-0.293960
-0.086088
0.254119
0.094217
-0.480508
-0.012654
-0.004579
0.045768
-0.025275
-0.196650
-0.387789
-0.110315
-0.226154
-0.123366
0.011065
-0.018028
0.072330
0.138679
-0.044220
-0.089611
-0.124677
-0.061255
-0.172964
-0.113805
0.173240
-0.066956
-0.188315
-0.075380
-0.122555
-0.177110
-0.085227
-0.020037
-0.354165
-0.024165
0.058587
-0.089243
-0.096384
0.070425
-0.232111
-0.102330
-0.186964
-0.190714
0.037340
-0.225626
-0.053542
-0.104470
-0.033884
-0.149099
0.013572
-0.221297
-0.146588
0.057304
-0.002849
-0.005140
0.055641
-0.302468
-0.116537
0.070366
-0.329261
-0.126152
-0.180354
-0.032518
-0.374521
0.073313
-0.151820
0.199068
0.070167
0.007894
0.056925
0.050846
0.204018
-0.014737
-0.026241
-0.289570
-0.149483
-0.041142
-0.206812
-0.086728
-0.030733
-0.005782
-0.013113
0.038382
0.013983
-0.036405
-0.073372
0.141004
-0.031876
0.153264
0.159844
0.014544
-0.108396
-0.173576
-0.065874
-0.410791
-0.007737
-0.130011
-0.208513
0.196704
0.028765
0.054046
-0.193761
0.037206
-0.122290
-0.103093
-0.199661
-0.350815
0.059270
0.049217
-0.165701
-0.077581
-0.000349
-0.140185
0.230893
0.011687
-0.189673
0.278591
0.072031
-0.060185
-0.037874
0.017971
-0.019487
0.146879
-0.252614
-0.099955
0.004483
-0.030080
0.074081
-0.021993
0.231994
0.204897
0.152159
0.051485
0.229131
-0.054854
0.169712
0.036487
-0.078766
-0.043489
0.048000
0.009147
-0.121893
-0.101113
-0.324468
-0.124297
0.053381
0.099687
-0.018921
-0.376358
-0.099229
-0.094868
0.092395
-0.000358
-0.126016
0.010618
0.116155
0.053852
0.171702
-0.081099
-0.016903
-0.126680
0.090562
-0.071536
0.014817
0.074642
-0.166082
-0.064704
-0.156708
-0.087213
-0.169708
-0.205186
-0.024016
-0.193482
-0.180787
-0.006315
0.088542
-0.045114
-0.075200
0.153760
0.151575
-0.066844
-0.075886
-0.115245
0.039046
-0.063651
0.048025
0.154141
-0.105017
0.008850
-0.205815
0.035778
-0.310499
-0.143960
0.094223
-0.093344
-0.012784
-0.075495
-0.052567
-0.055592
-0.039956
0.084283
0.072464
-0.092118
0.007133
0.187122
0.086977
0.108925
0.132455
-0.258166
-0.052354
-0.008924
-0.038513
-0.115579
-0.022026
-0.166880
-0.068520
0.261633
-0.003122
0.151241
0.010416
-0.055250
0.065100
-0.080985
0.033548
0.146959
0.017411
0.086858
-0.021988
-0.039222
0.083593
0.088717
0.066582
-0.034216
-0.170537
-0.144497
0.055200
-0.252796
0.069505
-0.086257
-0.035858
0.118680
-0.153020
-0.066696
0.028202
-0.247782
-0.018869
-0.133440
-0.024955
-0.060650
-0.264447
0.205877
0.007509
-0.103286
0.144348
-0.031661
0.092397
0.178205
0.250044
-0.019724
0.083734
-0.012360
0.066315
-0.025012
0.174922
0.278218
0.039964
0.030127
0.044662
0.101723
-0.052806
-0.082073
0.103070
-0.148273
0.042782
0.021725
0.019527
0.089374
0.117555
0.042399
-0.162676
-0.068837
0.132544
0.117508
0.053684
-0.006487
0.015081
-0.088919
-0.019500
0.120403
0.076813
0.033732
-0.040874
0.135716
-0.068640
-0.014258
-0.103219
-0.066302
0.008944
0.134762
0.155794
-0.413554
-0.218197
-0.119439
-0.270093
0.013693
0.066523
-0.008332
-0.021629
0.078393
-0.049900
-0.051287
0.056568
-0.021493
0.052748
-0.007087
-0.066466
-0.066242
0.005466
0.044290
-0.097734
-0.161991
0.118434
0.309549
0.255116
-0.106377
0.125423
-0.015490
-0.124488
0.251231
-0.023501
0.115340
-0.018977
0.008327
-0.011339
-0.310434
0.028320
-0.279986
-0.242141
-0.010993
-0.009259
0.046446
-0.138354
-0.055622
0.008475
-0.104366
-0.026099
0.148792
-0.133770
-0.147072
-0.053773
-0.351224
0.011117
0.055624
-0.136066
0.013618
0.032849
-0.212827
0.033762
0.173694
-0.235406
0.082770
0.028625
-0.175302
0.001434
-0.129040
-0.288169
0.123215
-0.080280
-0.127859
-0.001238
-0.116761
-0.213391
0.017998
-0.030617
0.126094
-0.181238
-0.050950
0.040395
0.048413
0.031278
0.053083
0.096690
0.061500
-0.295243
-0.284865
-0.061608
-0.208114
-0.153396
-0.161526
0.153321
-0.072114
0.129204
0.078395
0.088114
0.047565
0.028380
-0.033819
0.041050
0.026698
0.145787
-0.237448
0.047503
-0.164420
0.004318
-0.098168
-0.081753
0.060827
0.028205
-0.086218
0.003419
0.352575
-0.123749
0.082257
0.078478
-0.382882
0.114497
0.129399
-0.033219
-0.021866
-0.053599
-0.197145
0.032080
-0.149668
-0.010479
-0.129000
-0.045417
-0.186031
-0.060685
-0.141969
-0.033676
-0.085601
0.041227
0.004749
-0.016581
-0.061018
-0.129839
0.069413
0.063321
0.032070
-0.095507
0.016126
-0.057515
0.079670
0.085233
-0.129645
0.021360
0.045560
-0.179223
-0.408002
0.073039
-0.058284
0.035246
0.028607
0.108604
0.030588
-0.039983
-0.024265
0.058582
-0.017483
0.057179
0.040726
0.217006
0.188206
-0.068911
-0.183530
-0.269496
-0.101473
0.016666
-0.126606
0.038235
-0.059599
-0.028900
0.036020
0.047049
0.073224
-0.031474
0.079567
0.120848
0.082868
0.020612
0.025010
-0.062964
0.022369
0.040450
-0.112827
0.034583
0.058565
-0.187335
-0.126470
-0.058612
-0.057918
-0.127555
-0.166341
-0.294165
-0.105056
-0.031682
0.248987
0.025535
-0.065111
0.152758
-0.109368
-0.071536
0.091496
0.170693
-0.011786
-0.049288
-0.042680
-0.071251
-0.042493
-0.096053
0.006426
0.076254
-0.109194
0.131281
0.186730
-0.114854
0.033311
0.076456
-0.089864
0.166353
0.234136
-0.010513
0.085268
0.044647
-0.013286
0.149230
0.136292
0.099574
-0.097026
-0.094170
-0.124395
0.023149
-0.066590
-0.156461
-0.189843
-0.144324
-0.221115
-0.008821
-0.039964
-0.090600
-0.008966
-0.076556
0.046421
-0.068369
0.002714
0.061349
-0.227848
-0.006361
0.213435
0.127914
0.084891
-0.073637
-0.044516
0.061550
-0.014515
-0.104114
0.118928
0.068029
-0.026119
0.052279
0.001341
-0.009004
-0.226343
0.227572
-0.091071
-0.182559
0.155827
0.004440
-0.084165
-0.082240
0.033759
-0.211634
-0.016345
-0.004415
-0.044782
0.035419
-0.197143
-0.169927
-0.042987
0.032030
-0.413806
-0.039621
-0.198416
0.060269
0.094024
-0.261594
-0.174073
-0.040742
0.186773
0.267868
0.080926
0.037303
0.193592
-0.048367
-0.092712
0.010036
-0.312955
-0.067800
-0.094753
-0.286513
0.086249
0.029804
-0.151114
-0.076106
0.130096
0.230002
-0.107489
-0.035185
0.065954
-0.092466
0.125516
0.137325
-0.044328
0.164553
-0.312847
0.096079
-0.128640
-0.119775
-0.195717
-0.018237
0.170909
0.085001
0.056277
-0.104217
0.045034
-0.079342
0.019538
0.155470
-0.145824
-0.273369
0.001031
0.000698
-0.478259
0.214496
-0.031995
-0.000948
-0.265939
0.198980
-0.036687
-0.069337
-0.014723
-0.000920
0.011197
-0.002489
0.084423
-0.375379
-0.137554
0.018440
-0.243752
-0.171520
-0.185732
-0.062000
0.186180
0.144675
-0.030102
0.070731
-0.088786
0.065024
-0.018141
-0.082850
-0.117440
-0.049173
0.020620
-0.064489
-0.061335
-0.078709
0.147828
-0.090508
-0.081588
0.004406
-0.045972
0.056184
0.169139
-0.480160
-0.024853
0.066854
-0.142827
-0.452951
-0.073049
0.050902
-0.205081
0.071911
-0.015152
0.138523
-0.251664
-0.082343
-0.025298
0.040298
-0.035806
-0.066186
-0.078580
0.080372
-0.138936
-0.028912
-0.050236
0.031887
0.054964
0.156334
-0.265767
0.022427
0.188020
-0.207377
0.060386
-0.218982
0.086856
0.003718
-0.015288
-0.165230
-0.134066
0.186681
-0.149143
-0.031098
-0.112184
0.137796
0.031334
-0.100199
-0.117100
0.051995
-0.004762
0.142213
-0.123298
-0.116493
-0.003408
-0.040203
0.069560
-0.031520
0.002051
-0.055104
0.148359
-0.047381
0.096978
0.014481
0.189739
0.030525
-0.020314
-0.051128
-0.095929
0.016733
-0.081069
0.059443
-0.078845
0.070319
-0.168836
-0.019714
0.116100
0.142803
-0.157604
0.008983
-0.208230
0.115051
0.050283
-0.056854
-0.211702
0.094822
-0.135413
-0.125953
0.000370
0.004887
-0.090672
0.028853
-0.075829
-0.078977
-0.087767
-0.038572
-0.213934
0.045817
-0.020408
-0.445661
-0.059146
0.162820
-0.105712
0.062229
0.125734
0.236320
-0.021103
-0.071725
0.184372
0.140506
0.085667
-0.079788
-0.138502
-0.054366
0.002078
0.021005
0.068116
-0.102629
-0.126481
0.029588
0.160494
0.050830
0.016742
0.013048
0.010301
-0.266186
0.013911
0.204784
0.208581
0.132481
-0.352486
0.089012
-0.098632
-0.045503
0.002083
-0.005861
-0.091543
0.139545
0.051341
0.164073
-0.203773
-0.075175
-0.203680
0.199161
-0.069987
-0.082475
0.055645
0.055668
-0.124240
0.065782
0.046637
-0.093139
0.024719
0.105050
-0.073269
0.125748
0.094348
-0.089459
0.071618
-0.081792
-0.071032
-0.019601
-0.003736
-0.079500
-0.116266
0.023641
-0.134523
-0.001864
0.082948
0.221752
0.020404
-0.016852
0.200196
0.072715
0.058279
0.099210
-0.206660
0.147642
0.125919
0.117649
0.107794
-0.099462
-0.102853
0.026007
-0.183752
0.093695
-0.033633
-0.069362
0.217193
-0.201801
0.203406
0.024518
0.125358
-0.031843
-0.358980
-0.051086
0.033800
-0.004495
0.141049
0.107340
-0.120603
-0.039578
0.131267
-0.084237
-0.188420
-0.149848
-0.046720
-0.170141
-0.028406
-0.001831
0.094719
0.028782
0.076929
0.076146
0.163784
-0.026331
0.056039
0.167144
-0.162981
-0.076176
0.120677
0.114792
0.006950
-0.055974
-0.047829
-0.175007
0.009237
0.101870
-0.189522
-0.100043
0.033711
0.088454
-0.106935
0.262836
-0.103109
0.002870
0.266267
-0.101170
0.041432
-0.036870
-0.179256
0.115448
-0.061688
0.124410
0.153541
-0.084922
-0.117983
-0.015815
0.012228
0.187859
-0.221904
-0.061223
-0.057296
-0.200120
0.214316
-0.027135
0.170990
-0.194355
-0.021357
0.039006
-0.160933
-0.109287
-0.044222
-0.106557
0.038661
0.074963
0.086345
-0.003086
0.060046
-0.115808
0.008986
0.126748
-0.131304
0.096315
-0.046293
0.035025
0.089830
-0.119189
-0.046172
-0.058025
0.058841
0.116196
-0.057921
-0.027097
0.141537
-0.034017
-0.189056
-0.122055
0.067754
-0.105185
0.045679
-0.111957
-0.182927
0.112839
0.114628
-0.113830
-0.083759
0.258174
-0.065455
-0.212189
-0.030100
0.024122
0.048321
-0.207264
-0.013257
0.174454
-0.370416
-0.086291
0.255200
-0.104877
-0.256508
-0.011183
-0.036067
0.146110
-0.102081
0.058628
0.231695
-0.076758
0.222318
-0.026883
0.232322
-0.054881
-0.010691
0.090893
-0.228307
0.044334
0.048103
0.000592
-0.068930
-0.074793
-0.025403
0.010212
0.084673
-0.118050
0.183802
0.280564
-0.167036
0.060911
0.024965
0.203333
0.079458
0.254584
0.017010
0.044110
0.059821
0.107920
-0.082273
-0.009236
0.093000
-0.264963
-0.091771
0.080149
-0.103849
-0.304816
0.006665
-0.290475
-0.054954
0.032645
-0.039320
0.031135
-0.059163
0.151884
-0.222687
-0.184386
0.048461
-0.140475
0.028345
0.012821
-0.128058
0.153133
-0.296732
-0.152851
-0.021802
-0.150466
-0.065751
-0.024246
-0.011395
-0.002129
-0.072589
0.044843
0.035507
-0.243566
-0.142451
0.005983
0.096188
-0.127333
0.007152
-0.031996
-0.067542
-0.071207
-0.062705
0.079473
-0.009870
0.069491
0.009912
0.029131
-0.088845
0.080137
-0.121824
0.199902
0.055521
0.043902
0.045491
0.048668
0.031857
-0.104021
-0.043239
-0.039053
0.039108
-0.008563
0.095814
0.069887
0.046634
0.039088
-0.033548
-0.147110
0.054575
-0.286779
0.034547
-0.092739
-0.085541
0.079642
-0.165766
-0.058599
-0.076026
0.027904
0.159026
0.216184
0.057665
-0.320631
-0.044731
-0.025260
0.142286
0.228044
-0.300692
0.286569
0.076590
0.043252
0.155206
0.023735
-0.108554
-0.199940
0.132897
-0.053536
0.003741
-0.141941
-0.048661
0.011429
0.013498
0.118907
0.225068
-0.027534
-0.167256
-0.310140
-0.126487
-0.042956
0.103485
0.069859
-0.358093
0.102471
0.054619
-0.215234
-0.219003
0.055211
-0.382937
0.034853
-0.104838
0.014258
-0.379921
-0.045830
-0.151624
0.095312
-0.108581
-0.035687
0.119450
0.102294
0.134307
0.020571
-0.107577
-0.088383
0.153293
-0.013384
0.050304
-0.246149
-0.010541
0.016052
0.108129
0.077206
-0.155838
0.099533
-0.108464
0.012845
-0.204151
-0.041536
0.024089
0.049585
0.178188
-0.077481
0.176002
-0.191225
-0.126770
0.118945
-0.082733
-0.011772
0.068430
0.020560
-0.035126
-0.061744
-0.067052
-0.147409
-0.105902
-0.003713
0.307398
-0.068641
-0.117146
0.014212
-0.035974
-0.085328
-0.123632
0.137981
0.029486
-0.206468
-0.193904
-0.086300
-0.151501
-0.074966
0.185711
0.091138
0.038861
-0.329051
0.056421
0.028560
0.101554
-0.307228
0.149483
0.006776
-0.172455
-0.113577
0.083984
-0.041499
0.071414
-0.194724
-0.023404
-0.011282
-0.034434
-0.305281
-0.008596
-0.203845
-0.191653
0.056058
0.001961
-0.128973
-0.049336
0.108191
-0.028268
-0.130440
-0.038344
0.008232
-0.076350
-0.026041
-0.056261
0.136777
-0.112469
-0.049006
0.099922
-0.125504
-0.022033
-0.027290
0.003014
0.030206
0.034430
-0.156482
0.143144
-0.457232
-0.082432
-0.074489
0.199569
0.144508
0.019638
0.078618
-0.014665
-0.181098
-0.055528
-0.119059
-0.161632
0.109010
-0.164484
0.002251
0.030885
-0.030723
-0.028844
-0.028515
-0.286216
0.092214
0.004096
-0.057537
-0.249660
-0.239158
0.204164
0.024770
-0.008618
-0.008038
0.067188
0.033927
-0.010075
0.116780
-0.108842
-0.046855
0.145066
0.027674
-0.034623
0.054888
-0.092398
0.131580
0.000741
-0.044685
0.034972
0.266717
-0.067645
-0.069527
-0.145267
0.098547
-0.016909
0.105448
-0.013457
-0.003234
-0.092682
-0.105225
-0.032161
-0.028153
-0.097095
-0.019582
0.047429
-0.058107
-0.057969
-0.001342
-0.012309
-0.085140
0.022313
0.069454
0.201542
-0.074070
-0.090733
0.129577
0.007894
-0.048302
-0.043931
-0.026767
-0.018701
0.114407
-0.237160
0.063605
0.000129
-0.051918
0.016751
0.081692
-0.175399
0.087888
0.051646
-0.078559
-0.035352
-0.080801
-0.045861
-0.274747
-0.091752
0.048769
-0.041847
0.113490
0.033049
-0.057902
0.047989
-0.127530
-0.070661
-0.121865
0.079546
-0.176546
0.042286
-0.143232
0.128822
-0.051623
0.221939
0.083728
0.038456
-0.116551
0.078025
0.218826
0.121059
0.031056
-0.013870
-0.157742
0.116352
-0.235168
0.137720
-0.194420
0.041822
-0.042343
-0.013124
-0.053756
0.028905
-0.208513
-0.009127
-0.017875
0.019173
-0.015254
0.076647
-0.007799
-0.076982
-0.217576
-0.021482
0.074774
-0.023379
-0.077520
-0.031359
0.167973
-0.038700
-0.047873
-0.040814
-0.227411
-0.116643
0.052057
-0.073685
0.140135
0.030566
0.028065
-0.050231
0.041280
0.108316
-0.132778
-0.072707
-0.028812
-0.077421
-0.165031
0.104067
-0.261046
-0.121142
0.036083
-0.284203
-0.027503
0.057807
-0.128555
0.116138
0.073578
0.242227
-0.122590
-0.002149
0.215937
-0.043386
-0.099534
0.051938
0.090864
0.118604
0.162533
-0.104764
0.260022
-0.185548
-0.160360
-0.033101
0.005222
-0.163729
-0.007900
0.092210
0.135357
-0.021177
-0.057075
0.017877
-0.128547
0.220964
-0.033790
-0.008886
-0.193201
-0.018947
-0.092243
0.128460
0.005131
-0.073916
-0.060720
-0.204882
0.049568
0.087700
-0.027129
0.026253
0.028843
0.093339
-0.001882
0.140508
0.035669
-0.066568
0.210609
-0.084863
0.141701
0.010478
-0.011013
0.095160
0.108475
-0.225721
0.009522
0.019396
-0.469544
-0.058896
-0.111643
0.032637
-0.089325
-0.049180
-0.094660
0.161879
-0.135876
0.089473
0.005623
-0.054417
0.001958
-0.139249
-0.052479
-0.033131
0.126856
0.062358
0.042974
0.021085
0.032827
-0.152349
-0.072241
0.145015
-0.148175
-0.101632
0.032501
0.028941
0.097371
0.050695
0.047949
0.010302
-0.229955
0.074265
0.052793
0.050105
0.002064
0.046668
0.084820
0.024387
-0.012117
0.036220
0.091691
0.079003
0.037838
-0.086216
0.005045
-0.185245
-0.038000
-0.029806
0.192042
-0.049845
0.075831
-0.066582
0.111933
0.068577
0.372395
-0.019879
-0.096667
0.017267
0.163423
-0.021412
0.137077
0.269436
-0.201493
-0.106548
-0.011381
-0.289797
-0.188701
-0.034970
-0.063384
-0.022411
-0.117363
0.131222
-0.080992
-0.170467
0.011161
-0.115193
-0.062399
0.034533
0.003399
-0.033625
0.048465
-0.107731
-0.047288
0.084834
0.013500
-0.023627
-0.082956
-0.164368
-0.011990
0.008573
0.130416
-0.010820
0.147495
-0.194209
-0.327985
-0.208641
0.010615
0.157637
-0.106383
-0.048521
-0.031847
0.106498
-0.028235
0.103224
-0.076097
0.027702
-0.063383
-0.173419
-0.087629
-0.065901
0.139619
-0.009682
0.295854
0.026218
0.130292
-0.039712
0.009750
0.084668
0.002911
0.011977
-0.180773
0.152229
0.088124
-0.015621
0.032763
0.108806
-0.019883
-0.033729
-0.011845
0.120380
-0.220497
-0.054862
0.110466
0.190747
-0.129963
-0.088059
0.073706
0.032057
-0.036338
-0.105359
0.101671
0.020645
-0.332300
-0.039849
0.008370
0.015691
0.102383
-0.061096
-0.025947
0.120191
-0.126345
0.079362
0.000634
-0.036054
-0.165347
0.013814
-0.070013
0.111434
-0.330417
-0.099562
0.039677
-0.240540
-0.023593
0.160869
-0.036232
-0.039717
-0.153345
0.025994
0.162232
0.012927
0.084841
-0.193278
-0.173944
0.114660
-0.079206
-0.177936
0.155936
-0.114415
-0.073463
-0.191629
0.106931
0.108637
0.005494
0.049292
0.194362
0.090523
0.051025
0.013777
-0.048445
-0.240516
-0.187531
-0.289956
0.047449
-0.001686
0.027947
0.032836
0.015525
0.134592
-0.190714
-0.092720
-0.113453
0.017108
-0.336053
-0.122800
0.113275
-0.030439
-0.091517
-0.106505
-0.152388
-0.009576
0.016127
-0.059806
-0.102870
-0.063032
0.030776
0.126746
0.010402
0.016075
-0.028185
-0.208974
-0.113824
-0.138397
-0.227558
-0.013736
-0.056004
-0.020544
-0.028207
-0.117422
-0.002069
-0.093212
-0.214910
-0.114563
0.085919
-0.052253
0.053261
-0.273635
-0.037348
0.023573
-0.155857
-0.086885
0.094148
0.036615
-0.214408
-0.161869
-0.081205
-0.209460
0.006275
-0.078127
-0.082563
-0.183675
-0.059598
0.111152
0.066172
0.004931
-0.066346
-0.136648
0.021430
-0.173412
-0.250103
-0.015553
0.197289
0.267716
0.198111
0.056382
-0.131741
0.203201
-0.016691
0.175438
-0.052377
-0.010536
-0.109281
-0.163373
-0.100414
0.053922
-0.071943
-0.146461
-0.216879
0.092645
-0.046693
0.155754
-0.021322
0.140522
-0.258072
-0.083023
0.097435
0.021061
-0.126304
-0.043420
0.109062
-0.029254
0.081924
-0.065664
0.123537
0.011207
-0.084457
0.040708
0.004499
-0.125023
0.039402
-0.238744
0.018259
-0.166861
-0.082047
-0.143602
-0.061609
-0.400855
0.089289
-0.145184
-0.009310
-0.061262
-0.009592
-0.049757
0.075000
-0.057517
0.070847
0.192962
0.077461
-0.092403
-0.089984
0.024236
-0.068799
0.187232
-0.220820
-0.059864
-0.116098
-0.097793
-0.224725
0.000296
-0.047825
-0.016114
0.141886
0.128702
-0.067245
-0.079313
0.079565
-0.128788
0.217060
-0.081940
-0.056745
-0.093269
0.074311
0.182588
0.020277
-0.049121
-0.027744
-0.148949
-0.147607
0.037446
-0.028685
-0.044346
-0.094921
-0.053985
0.035689
0.072468
-0.015107
-0.210007
-0.091305
0.179220
-0.220944
0.120199
0.094619
-0.141509
0.163648
-0.118546
-0.089100
-0.176693
0.108164
0.135953
-0.025319
-0.194110
-0.009069
-0.039041
0.037136
0.048440
-0.000200
-0.060184
-0.302404
-0.025303
0.052506
0.003750
-0.031908
0.054792
-0.057828
-0.050725
-0.086440
-0.011415
-0.123517
-0.109750
-0.107792
0.153489
-0.016661
0.115622
0.000757
-0.039946
0.174865
-0.132581
-0.028444
-0.111180
0.214687
0.132337
0.115443
-0.120563
0.210022
-0.237831
-0.065264
0.188434
-0.033193
0.068086
-0.019516
0.029886
0.052940
0.264974
-0.309676
0.002208
-0.196376
0.125108
-0.084032
-0.091389
0.117932
-0.189011
-0.115552
0.194329
0.242979
0.165413
0.196540
-0.059312
0.116186
0.000721
-0.151700
-0.165816
0.194723
0.046264
0.025528
-0.088707
0.062450
0.135994
-0.041087
-0.127941
0.263264
0.130258
-0.064341
-0.010522
-0.042216
-0.110241
-0.252698
-0.071347
-0.063198
0.223728
-0.097167
-0.190534
-0.326265
-0.060491
-0.302557
0.021231
-0.064728
0.105287
-0.033462
-0.254709
0.195801
-0.047128
-0.133273
0.092146
0.027639
0.074943
0.103720
-0.217007
-0.216522
-0.112529
-0.185903
0.102436
-0.043184
-0.014147
0.001211
0.082157
0.114964
0.134007
0.074174
0.004120
-0.132941
0.179019
0.064791
-0.192154
-0.135402
0.002470
-0.150487
-0.072206
-0.017026
0.117495
0.215982
-0.092599
0.019289
-0.002645
-0.069704
-0.002220
0.106764
-0.033270
0.096340
-0.086869
-0.025798
-0.051009
-0.061777
-0.026783
0.181131
0.087799
-0.188898
0.039327
0.234514
0.059246
-0.222163
0.114533
-0.098908
0.080147
0.048105
-0.138826
-0.254313
-0.013487
0.007742
0.055793
-0.083914
0.012956
-0.326990
-0.091582
0.094189
0.050686
0.012965
0.077629
-0.047161
0.124088
-0.007689
-0.035601
-0.153055
0.066587
-0.236235
0.192915
-0.091358
-0.135014
0.009756
0.114669
0.311531
0.034797
0.211385
0.054306
-0.087200
0.008958
-0.095170
-0.129211
0.003574
-0.107813
0.036348
-0.058374
-0.199722
0.059025
0.109766
-0.061816
-0.116675
-0.016346
-0.011135
-0.126785
0.035649
-0.227975
0.066557
0.019518
0.123619
0.057519
0.163222
0.096016
0.257478
0.034664
-0.109399
0.211192
0.163986
-0.230858
0.003740
-0.030463
-0.393338
0.164338
0.142480
0.001700
-0.176958
0.028803
0.026645
-0.078022
-0.305509
-0.177889
-0.128335
0.128044
0.017670
0.076933
-0.022597
-0.066282
-0.058476
-0.004351
-0.098613
0.145947
0.019601
0.007488
-0.209578
0.134205
0.001938
-0.055253
-0.000687
-0.005951
0.066764
0.142661
0.030762
-0.071300
-0.222414
-0.418576
-0.106153
-0.091811
-0.018754
-0.053517
0.230293
-0.105342
-0.118771
0.045747
0.024999
-0.152857
-0.009129
-0.069596
0.059787
-0.010156
0.042665
-0.101939
0.275564
0.015537
0.008402
-0.053392
0.164249
-0.201398
-0.021417
0.178377
-0.109047
0.084086
0.091861
0.077783
0.193290
0.166543
-0.257937
-0.153377
0.062310
0.151517
-0.111028
0.073894
-0.082786
-0.011517
-0.132638
0.156768
-0.214236
-0.105090
0.000923
-0.141767
0.065464
-0.002912
-0.056597
-0.036774
0.007471
0.208792
-0.169166
0.220539
-0.157846
0.132159
-0.158301
-0.188299
0.008672
-0.008334
-0.025523
-0.130370
0.022301
-0.093779
0.066844
-0.093568
0.002376
0.052200
-0.199968
0.043429
0.077251
-0.200003
-0.109394
0.082291
-0.197451
-0.267146
-0.010332
-0.028857
-0.090881
0.066169
-0.019450
0.132187
-0.110849
-0.108136
-0.226179
0.018789
0.175920
-0.083277
0.156531
0.158703
-0.009416
-0.067609
0.053403
0.022992
0.105833
0.151490
-0.047408
-0.199973
-0.053836
-0.095683
-0.119645
0.003623
-0.122280
0.000068
-0.151015
0.160526
0.121903
-0.181815
0.053213
-0.089517
-0.043272
-0.145801
-0.227027
-0.269480
-0.188434
0.035865
0.216809
0.272336
0.363857
0.107763
0.039334
0.028299
-0.102289
0.168588
-0.246721
-0.046552
0.104839
-0.073429
-0.047016
-0.004170
-0.055445
0.166619
0.059311
-0.004707
0.190955
-0.004062
-0.292158
0.121464
0.097466
-0.091372
-0.263042
0.200240
-0.065904
-0.366019
-0.096322
-0.095902
-0.029506
-0.021106
-0.242748
-0.216324
-0.101999
-0.242296
-0.213079
0.003455
-0.005386
0.060937
-0.006422
-0.026083
0.282618
0.079497
-0.047290
-0.148242
-0.037801
0.065711
0.096211
0.009571
0.164177
0.232748
-0.024432
0.244731
-0.000627
-0.089629
0.050194
-0.017470
-0.034132
-0.288928
-0.246609
0.059899
0.190784
-0.119448
-0.099024
0.007772
0.060561
0.151461
0.135418
-0.130579
0.023294
0.039540
-0.178535
-0.057850
0.066837
0.017743
-0.195060
-0.148447
-0.056944
0.017781
0.061213
-0.300423
0.184083
0.018500
-0.203688
0.035791
-0.112155
-0.044226
-0.104406
-0.194096
-0.016365
0.029328
0.000225
-0.167054
-0.088227
-0.260520
-0.032342
-0.014667
0.054238
-0.171534
-0.067130
0.153436
-0.084857
0.047973
0.101509
-0.007245
0.007075
0.141613
-0.022487
-0.251874
-0.101078
-0.024341
-0.001368
0.033194
0.112374
0.025091
-0.086283
0.186919
0.145363
0.053090
-0.059667
-0.141960
-0.003899
-0.051567
-0.115210
0.042000
0.048529
0.159379
0.195076
0.011965
0.132795
0.179634
0.100778
-0.181610
0.028042
0.010064
-0.139728
0.096820
0.092349
0.038267
-0.060892
-0.096166
-0.179963
0.086759
0.007148
-0.197589
0.155891
0.146384
-0.287169
0.030064
0.037685
-0.198396
-0.038375
-0.058295
-0.089578
-0.076436
0.122726
0.072486
-0.061670
-0.285590
-0.095140
-0.118361
0.053158
-0.025684
0.038749
0.002611
-0.292907
0.000096
-0.004142
-0.101146
0.082188
0.152827
0.110004
-0.029359
-0.116862
-0.277834
-0.232811
0.091866
-0.010583
0.077584
-0.114468
0.103753
0.068537
-0.156915
0.157047
-0.105266
0.194186
-0.096930
0.193831
0.040962
-0.011151
0.004998
0.168848
0.136742
-0.042909
0.048615
0.056692
0.137268
-0.000788
-0.016462
0.031875
0.322671
-0.233873
-0.066465
-0.077035
0.139750
0.110193
0.003530
-0.066251
-0.065012
-0.060127
0.013540
-0.046086
0.032666
0.038965
-0.130619
-0.152278
-0.135009
0.007621
0.089036
0.222137
0.121810
-0.115875
-0.170869
0.025797
0.086951
-0.113251
