-0.0370410830
-0.0526051559
-0.0740419701
0.0249787122
0.1035420820
0.1666316539
-0.0346296616
-0.0250530094
-0.1296788454
0.0820879787
0.0317004211
-0.0049284287
0.0932285935
0.0162486359
-0.0146056283
-0.0261843484
-0.0660924092
-0.0002213576
0.0663229898
0.1011735424
-0.0733549967
0.0908798054
-0.0047882805
-0.1498802900
-0.0038342653
-0.0047338689
-0.1093205065
0.0925263315
-0.0997382328
-0.4381382167
0.0475562587
0.0452337079
-0.1491498649
0.0721200407
0.0490189046
-0.0922593102
-0.2136737853
-0.0721296445
0.1732972711
-0.0615008846
0.0205165520
0.1121842563
-0.1059226170
-0.0216998085
0.0737637132
0.1058213040
-0.0906331390
-0.2913515270
0.1276087165
-0.2189508975
-0.0409740210
-0.0921187252
-0.0662964880
0.0084803700
-0.0876337215
-0.0466469601
-0.0851525217
-0.0695230812
-0.1120894179
-0.0624764152
-0.0378793813
-0.0668232292
-0.0053592999
-0.0677798912
-0.0386986211
-0.0276510399
0.0236366261
0.0220614392
0.0333683304
-0.0657953098
-0.0499490388
0.0045418264
0.0068875244
-0.0609408617
0.0636295155
-0.0612418279
-0.0492647924
-0.0266607627
-0.0442119017
-0.0450415537
-0.0700216070
-0.0865041092
0.1293519437
0.0843988508
0.0043720668
0.0303357262
0.0833495781
-0.0450949147
-0.0161242597
-0.0269152075
-0.1197965220
-0.2907158136
0.0881676823
-0.3850154877
-0.0989670157
0.1971654594
0.0670955256
-0.2250105739
-0.0423033237
0.0757038519
0.1307383776
0.1647921950
-0.0314011090
-0.0453620218
-0.1478994787
-0.0108679775
0.0790904686
-0.1533625573
-0.2854205370
-0.0225425139
-0.1168534309
-0.2080090940
0.0151705686
0.0515455492
0.0197884049
0.0352858342
0.2608067989
0.0851334408
-0.4223452508
-0.2483644187
-0.0844649971
-0.2546117008
0.0275648199
0.0886392742
0.0027598233
-0.0481314845
-0.1756558567
0.0456515402
0.0526487045
-0.0337733217
0.1989492774
0.0566585325
-0.0024572799
0.0793320760
0.0618668199
-0.1674231440
0.1011424288
0.0818284228
-0.4427054524
-0.0562802404
-0.0643926188
-0.1506891847
-0.1923174709
-0.0972939730
-0.0892837495
-0.1214938387
0.2380548716
-0.1216637120
0.0355763361
0.3010235429
-0.0461004823
-0.1425865293
-0.1117040068
-0.0313743502
0.1721718311
0.1610945016
0.0552647635
0.0216763858
0.1486117542
-0.0683682933
0.0799372792
0.0513432734
-0.1710843742
-0.1569627970
-0.0610805228
0.0303078033
-0.2463148981
-0.3137108386
0.2521290183
0.0006262368
-0.1280936450
-0.3557512164
-0.1554578245
-0.0277844165
-0.1778263003
-0.2238165438
-0.0056072678
-0.0325472392
0.0468560010
-0.1400535256
-0.2829829454
-0.0029588554
0.1146396026
-0.1471487433
-0.1399257034
-0.1060966551
-0.1591476351
-0.0535394400
0.1408414692
0.0221170820
-0.0531755500
-0.0222494919
-0.0400047041
0.0606711991
0.0935717598
-0.2551292181
-0.1424383074
0.0299703814
-0.0385042764
0.0837812945
0.0822042823
-0.0346587636
-0.0141686872
0.0985232368
-0.0044533112
-0.0683403239
0.0159205273
-0.0643233582
-0.2156846225
-0.2665413320
0.1264928132
-0.0901934505
-0.0250126906
0.0669925809
0.1400503516
0.1950027198
-0.0025086456
0.1102691442
0.0505830161
0.2100041509
0.1931725740
-0.1860354543
-0.1268104017
-0.0490079597
-0.1365634799
-0.0209884830
-0.1425003111
-0.0835126713
-0.1597412527
0.1236688569
0.1345344633
0.0067578973
0.1555140764
0.0810142457
0.0395380110
0.0675273389
0.0357709266
0.0101948818
0.0230821762
-0.1117729247
0.1018812209
0.2775132060
0.0623930767
-0.1275559217
-0.0184191726
-0.2258136719
-0.0325120427
-0.0837737620
-0.0525354072
-0.1215391010
-0.2329627573
0.3418770432
-0.0281081516
0.0124562578
-0.0822498947
-0.0154563710
-0.1584168375
-0.0383026674
-0.1588611007
-0.1245137751
0.0335465036
0.0938235968
0.0182251316
-0.0523483865
-0.1544065028
-0.1982662082
-0.0764481276
0.1212592870
0.0384614840
0.1005841345
0.0768793374
-0.0622354746
-0.1501535475
-0.0924470350
-0.0803445429
-0.0903904960
-0.1961034089
0.0324431621
-0.0979490057
-0.0558502078
-0.0080460785
-0.0102932649
-0.0169127658
0.1513551623
0.0320569314
-0.1163519472
-0.0327254906
-0.0667424873
0.0841431022
0.1746494919
-0.1627818793
0.0347416177
-0.0278958268
-0.0801289082
0.0499479771
-0.0364926197
-0.0419282801
-0.0427498892
-0.0006270898
0.0581972189
-0.0980729610
0.0330752283
-0.1080189347
-0.0390155762
-0.0333192609
-0.1528283209
0.0462530628
-0.0557020567
0.1837396324
-0.0732870474
-0.0486143157
0.0023562950
-0.0957793668
0.0747820139
0.0224209987
0.0322056003
0.2392157018
0.0589214526
0.0063468348
0.2361723185
-0.0089082355
-0.1089992747
0.0010346705
-0.0177858677
-0.0620003119
0.0019589842
-0.0372948870
-0.0154136922
0.0260320157
0.1118192151
0.2245323211
0.2911122143
0.1051584408
-0.0641037598
-0.2767600417
-0.1306861788
-0.1054669246
-0.0997608379
-0.0487416796
0.2329672873
0.0775896311
0.2128553838
-0.1233413666
0.0212283134
-0.0500840582
-0.1803854555
0.0076058907
0.1058375686
-0.0429759324
0.0943012685
0.2130788416
0.1054252014
0.0793541148
-0.0802662820
-0.0030580000
0.0666576624
-0.0455638804
0.0133503936
0.0810289383
-0.0400618017
-0.1756941229
0.0789471790
0.1135999635
-0.0857814923
0.0752373338
0.1127174571
-0.0096455496
-0.0303361546
0.0116350576
0.0390700810
-0.0592204817
0.0993695036
0.0737696812
-0.0741541386
0.0236245617
-0.1595053971
-0.0307907294
0.0148205981
-0.4247882664
-0.2819666564
-0.0047614463
-0.1154114380
-0.1180239767
-0.0130698793
-0.0180722158
0.0955080688
0.2050194591
-0.0722935051
-0.1000337452
-0.3060556948
0.0433881208
-0.0648545399
-0.2281139791
-0.0150050977
0.0895987675
0.0793329105
0.0740626603
-0.1113923490
-0.0830633491
-0.0256763380
0.0122002736
0.0917133316
-0.0305224061
-0.0869388953
0.0659110099
-0.3285777569
0.0332819261
-0.0657447129
-0.1055557802
-0.0281436574
-0.0849806294
-0.0196028817
0.3008638322
0.0231059771
-0.0218519252
0.0570055097
0.1277930290
-0.1502073258
-0.1209304556
0.0393594578
0.0574722663
0.0559780784
0.1639820933
-0.0742933527
0.0948066041
0.0538568646
-0.0559620224
0.1992977411
0.0405478291
0.1505087316
0.1258883923
0.1132392958
-0.0504098982
-0.1030648202
-0.0773581117
-0.0509885848
-0.2310808152
-0.0688629150
-0.1115356684
-0.1554237753
-0.0067488528
0.1308688372
0.0328128822
-0.2076770067
-0.0597344711
0.0230832472
-0.0812769383
0.2174139321
-0.0231535900
0.0661515146
-0.2166023701
-0.3832375109
-0.3253418207
-0.4663828611
-0.6050909162
-0.3104648292
-0.2182392925
-0.3768253922
-0.2605068982
0.1945778579
0.1530151665
-0.1435368210
0.1784653217
-0.0507431254
-0.2409760654
-0.1184920222
-0.1046475992
-0.1837868541
0.0375193097
0.0595703647
-0.0147119788
0.0081047071
-0.0733375326
-0.1154850498
0.0883874744
-0.3822254539
-0.2644544840
0.1157760397
0.2065765560
0.2096395642
0.0102896495
-0.0149232121
0.1097070947
-0.2385866344
-0.1701478064
-0.2632660270
0.0021786867
-0.0843268633
-0.0269554295
-0.1593510211
-0.1898250133
-0.0746647567
0.0523095205
-0.0125120198
-0.0351278633
-0.2262603641
-0.0061745155
-0.0040589836
-0.1623485982
-0.0690976828
-0.0736468807
0.0110217808
-0.0242373999
-0.1783409119
-0.0141767962
-0.0401577093
-0.0690230876
-0.0841209590
-0.0494414791
-0.0959399268
-0.0146682272
0.0052762865
-0.0301870760
0.0060923970
0.0122808916
0.0054265829
-0.0816622525
-0.1407832056
-0.0996949598
-0.1040788516
-0.1431550086
-0.0558131821
-0.0331476405
-0.1078920886
-0.0994840488
-0.1108950898
-0.0618416592
-0.0040749093
-0.1354791969
-0.0420910008
0.0050862678
-0.1090301871
-0.0227752011
0.0090978527
-0.0097448714
-0.0291825980
-0.0000190292
-0.0975978374
-0.0968113691
0.0317327566
0.0177901797
-0.0720062181
0.1820592731
-0.0874200389
-0.1139808595
0.0897502005
-0.0243658461
-0.1131629124
0.1661762297
-0.2895301878
-0.2305622697
0.0119890943
-0.2672964334
-0.2096934021
0.0627148747
-0.0085265478
-0.2764650285
0.0766917840
-0.2062936723
0.0072315647
0.0314083733
-0.1079277396
-0.0425232723
0.0252526831
-0.0588776581
-0.1795180142
-0.0813828856
-0.0411934704
-0.1591376066
-0.0649404973
-0.0047467132
-0.0170319919
-0.0227394346
0.3335671127
0.0196061991
-0.0542867035
-0.2670270801
-0.1855207235
-0.0809760690
-0.0578633919
-0.0266136043
0.0723135769
0.0305849519
-0.1448147446
0.0282903221
-0.3467795849
-0.0987082496
0.1177530587
-0.2033962309
0.0047524264
0.2434575558
-0.0735653862
0.0145666720
0.1034644619
-0.0471207947
-0.0838211849
0.1316074729
-0.1067815349
-0.0686596334
0.1587230563
0.0196296852
-0.0601200350
-0.1397669017
0.0561688952
-0.0836413354
-0.0712877512
-0.1593128145
-0.0444810688
0.0255208760
-0.1959182769
-0.1263990849
0.0957615450
-0.1652368754
-0.0193459373
0.0271771587
-0.2595798373
-0.2131199539
0.0123712858
-0.0051717754
-0.1333249360
-0.1730535626
-0.1134042814
-0.0766312778
-0.0270320978
-0.1553252041
-0.3859996498
-0.1900220066
-0.0185608789
0.0226057954
-0.0010301650
0.1229705065
0.1945718974
-0.0899611861
0.0811066255
0.1022901908
-0.0458749942
-0.0257042050
-0.0207975563
0.0503798351
-0.0269339252
0.0559474379
-0.0123361815
-0.1623914391
-0.1028195247
-0.2517015040
0.1306008995
0.0327160582
-0.2145840228
-0.1063246876
0.0276110265
-0.0363701694
-0.0050811889
-0.0509264953
-0.0429450385
-0.0555170625
0.0283184834
-0.0282946900
0.0161025468
0.0338922888
-0.0690101087
-0.0042539993
-0.0544702038
-0.0668523610
-0.0572545119
-0.0136732552
-0.0799380317
-0.0763910189
0.0037021027
0.0095460787
-0.0871447399
-0.0904056951
-0.0776333436
-0.0479117483
-0.0135206189
0.0049778246
-0.1558779776
-0.1500482410
0.1392104924
-0.2828095257
-0.1796364039
-0.0584743470
-0.1033170074
0.0051871487
-0.0265518427
0.1296404302
-0.0175948367
-0.2352269888
0.0271546822
-0.0580551252
-0.1466454417
0.1098982617
-0.0662527829
0.1179180890
-0.2358081192
-0.0713997856
0.0323851816
-0.0738901198
-0.1442949474
-0.0683925822
0.1674925536
0.2227973640
0.1226001084
-0.1226085275
-0.2416118979
0.0116075911
0.0366058536
-0.1733196527
0.0182531979
0.0683703572
-0.1142839044
0.0809323639
-0.1055934057
-0.0626821965
-0.0370438434
-0.0968443379
-0.1413837969
-0.1002684310
0.1001259834
-0.0262111593
0.0245067980
0.0834928304
0.0671265349
0.0997545496
0.1311287731
0.0343435220
0.1428406835
-0.0472511053
0.0984263793
0.0419216715
0.0768007264
0.0043102615
0.1486864090
-0.0551782064
-0.0918582007
-0.0566865020
-0.3472913206
-0.2366216779
-0.1315021068
-0.0449625179
0.0899800733
0.1697005033
-0.0941148102
0.0797585398
0.1420133114
-0.3492930830
-0.0172518920
-0.0646902323
-0.2097099572
0.0352539122
0.1688644588
0.0748779252
-0.0829392076
0.0184999369
-0.0662886128
-0.0895664766
0.0698784590
0.0420915931
0.0090297265
-0.3748629391
0.0520946346
0.0490166023
-0.0676141903
-0.1748448312
-0.1801543981
-0.0704280660
-0.0088115716
-0.0056579388
-0.1419016421
-0.0898123682
0.0396815985
-0.1646066755
-0.2385827303
-0.0618322641
-0.1034952998
0.1556890309
-0.2343711853
-0.0607014410
0.1519885212
0.1207100004
0.1515518278
0.2848922908
0.2445206493
0.2024372667
0.1847844571
0.0148374056
0.0134881195
-0.1869148016
-0.1647880077
-0.0610613674
-0.0220932830
0.0989151970
0.0851066187
0.1741959155
0.1694634408
0.1575926244
0.0858561844
0.1926337332
-0.0313625224
0.0298287254
0.1562876403
0.0107536754
0.0269493889
0.0285905544
-0.1602148563
0.0893064737
0.1286941916
-0.0809733421
0.0795037374
0.0404446647
-0.0365092643
-0.3013091087
-0.0131217120
0.0261782836
0.0212945808
0.1885176897
0.0582002215
-0.0393230803
-0.0022822144
-0.0689534694
0.0014495390
-0.2666695416
-0.1358792931
-0.2172344923
-0.3464502096
-0.0936945230
-0.3697655201
0.0293545686
-0.0857222080
-0.1309390068
-0.1407058686
-0.1088535637
0.2941797674
0.1768953204
-0.0636658520
0.1293456405
-0.1154233515
-0.1208868623
-0.1256988049
0.0432329066
0.1016757786
0.0041027498
-0.0542620234
-0.0092658093
0.1079981551
0.0594656765
-0.0130825145
-0.0972613096
0.0196015500
-0.1915560514
0.0247462858
-0.1529565752
0.0082323905
0.0092609189
0.1585962176
-0.0285265502
-0.0473259762
0.1637914181
0.0088404315
-0.1744362712
-0.0093074786
0.0177483428
0.0411909148
-0.0838027969
0.0191413965
-0.0754732564
-0.0894086063
-0.1136937663
0.1659773737
0.1122669503
0.0010389776
0.2011072189
0.2017604411
0.0688583404
-0.1197049916
-0.1029756293
0.2276014686
-0.1935692579
-0.2258523703
0.0846312568
-0.1984051019
-0.1613955200
-0.0667949170
0.0798007473
-0.2333180606
-0.1580391079
0.1835863739
-0.0609944016
-0.1395699233
0.0732411668
-0.1159693077
-0.1690136641
0.0015172819
0.0604830310
0.0773918107
-0.0766841918
-0.1463887841
-0.2256240696
0.0448881388
-0.3525217175
-0.2782722712
0.0847027972
0.1688634157
-0.0435710512
0.0421723574
0.1141581237
-0.0361356661
-0.0098204166
-0.1685196608
-0.2259717882
-0.2889339328
-0.0854550973
-0.1064668968
-0.2764637470
-0.2134088576
-0.2098456323
-0.2327887714
-0.2294510603
-0.2224250436
-0.1161874160
-0.1897910088
-0.2192532569
-0.1392393559
-0.2657535672
0.0326729864
0.1372097880
0.0197750237
-0.0688286051
0.1943230927
0.1136939824
-0.0542810857
0.0424365550
0.0865825787
0.0574188977
-0.0309766661
0.1256574541
-0.0476086512
-0.3281654418
0.0112715373
0.0732434466
-0.1341194510
-0.1825839877
-0.2629427314
0.1553493440
0.0037284074
-0.1850199103
0.0621937923
-0.0607515872
-0.1993955076
0.0014838302
-0.1918816119
-0.0162352957
0.0866344050
0.1707160175
0.1407178342
-0.0494515486
0.2350997478
-0.0358117968
0.0713006258
0.1616889238
-0.1989573091
0.0431126580
-0.0227199346
-0.0839727521
-0.1985099614
-0.3798819184
-0.2956262827
-0.0652101487
-0.3272687197
-0.0219750702
0.0809806734
0.1134202853
0.1363653988
0.0286468882
0.0367578901
0.0221072286
0.1091233715
-0.0640561879
-0.0459197722
0.1210274696
-0.1427711099
-0.0717012584
0.1574748158
0.1918428987
-0.0036046498
0.0497897156
0.0927751884
-0.0829876438
0.0641852319
-0.0526897311
0.0334558934
-0.1431908458
0.0343675464
0.1863589585
-0.0716058090
-0.0552777573
0.2650013864
0.0412536785
0.0105302259
0.1787988991
-0.0501657352
-0.1460025460
-0.1392878890
-0.0717958137
-0.2149278522
-0.0629253983
0.0937449038
-0.0054133446
0.0116303936
0.0466754846
0.2245044559
0.0541582778
0.0119385300
0.1409865171
-0.1351227909
-0.0184791889
0.1375060827
0.0283267181
0.1425138712
-0.1026773676
0.0396636017
0.1198513582
0.1592202485
0.0878579021
0.1977003217
0.1113244221
0.1963425428
0.0547933318
0.1630743593
0.1527334303
-0.0927403197
0.0374540128
0.1198610216
-0.2183880955
-0.0846235156
0.1410906315
-0.0879404619
-0.2368858308
0.0115767028
-0.1278940439
-0.2095125169
-0.0459758751
-0.2039750516
-0.1670520753
0.0410122238
-0.0903782248
-0.0233523697
0.2861742675
-0.0411614738
-0.0434599482
0.0233244691
-0.0436133556
-0.0432809331
-0.0562561452
-0.1324607730
-0.2695092559
-0.2460826188
-0.0168090649
-0.0244937278
-0.2042905241
0.0947481915
0.2020805031
-0.0986908898
-0.1812513322
0.0106684715
-0.1251984388
-0.1314300150
0.0661801994
-0.1098870710
0.0841332227
0.1883873492
0.0600708723
0.1030889079
0.0240587648
-0.2395720929
0.0685909688
-0.1213434711
-0.1774933040
-0.1160836071
-0.2822713852
-0.1884772032
-0.0634922758
0.1074974239
0.0914446190
-0.1066323593
0.0708838627
0.2152148932
-0.1156984046
0.0166392680
0.0826407000
0.0208544545
-0.1986677498
-0.0249622501
-0.1306613386
-0.1561922580
0.0666657165
-0.0070128273
0.0621117093
0.1523703337
-0.0289018005
-0.0125474026
0.0687935203
0.1053381041
0.0863256007
0.1377916932
-0.0408958234
-0.0433625095
0.0700322613
0.0368369594
-0.2873615026
-0.2875798047
0.0646191165
-0.1329855919
-0.0829133019
0.1814423949
0.0244503152
0.1680016816
0.1153487861
0.0974537283
-0.2807464600
-0.0203419589
-0.0942836553
-0.4569578469
0.1041253656
0.3063690364
0.1259303838
0.0824711248
-0.1264539361
0.1218238696
0.0638802499
-0.0693331957
-0.0199019704
-0.0203477312
-0.0138711240
-0.1002827808
0.1006112099
0.0017254448
-0.2512723505
-0.0811552927
-0.2106658071
-0.1326696277
-0.0338792466
-0.1216630787
-0.1023027748
0.1444600374
0.2289281785
0.0082887448
-0.0647931919
-0.0656588450
-0.1896350086
-0.1225460023
-0.0128430873
-0.1404371411
0.0130960643
0.0050895405
0.0007844758
-0.1117580608
0.0563463494
0.0081567047
0.0049937642
0.1526940614
-0.1083720326
-0.0112897977
-0.0134192612
0.0897020102
0.0686796159
0.1035002023
0.1616051197
0.0270813517
0.0521092415
0.1039194465
-0.0779251978
-0.1501724869
-0.2804241478
-0.0527296811
0.0451568328
-0.1089405417
0.0318624601
-0.1223943084
-0.1164246127
0.1887360811
0.1625014991
0.1297511011
-0.0150301475
-0.0769353434
0.0470953621
-0.2248552144
-0.1676823646
0.1141509116
0.1498334408
0.0158530790
0.1926552504
-0.2097769678
0.0026465959
0.1351633519
-0.1379472166
-0.0154037355
0.1078077480
0.1701921076
0.0773668587
0.0123785082
0.1473375857
0.0738379136
-0.1548160911
-0.0296672005
0.0672493055
0.0764712393
-0.0975797251
0.0092553962
0.0502294451
-0.0175511241
-0.1595186740
0.0176023990
-0.0039896471
-0.1581670791
-0.0129256090
-0.1704843938
-0.1942796707
-0.1383083463
0.0430651791
-0.0050325375
-0.0438258611
0.0527893864
0.0497230850
0.0205640197
0.0385662429
-0.1217153668
0.1035857797
-0.1644216180
-0.0069662337
-0.0001931375
-0.0846634209
-0.0621180721
-0.1484057903
0.0175658949
0.0442603156
-0.0010343529
-0.0340636745
0.0725465268
0.1891973317
0.0839242637
0.0527326018
-0.0411283970
-0.1599541605
-0.1358463913
-0.1399039924
-0.0055954764
-0.1567977965
0.0868040845
-0.1682478487
0.0001649028
0.1514276117
-0.2661906779
-0.1779773980
-0.1574284583
-0.1528288275
-0.0360102579
0.0124435443
-0.5239149332
0.0307228956
0.0672565922
-0.0402784348
0.0457225367
-0.0340679213
0.1014988199
0.2040736526
0.1443742067
-0.0050358661
-0.0235698055
0.0695575699
0.0908577070
-0.0555378534
-0.0915607810
-0.0198747534
0.0388034582
0.0620738231
-0.0808051229
-0.0650510341
0.0073841452
0.1532414407
-0.0427485257
-0.0819951147
0.1771868020
-0.1634108126
-0.1837853193
0.0496621467
-0.0678734928
-0.1843360513
-0.0771484599
-0.2251032889
0.0179675333
-0.0416876189
-0.0216232426
-0.0362236463
-0.2069385648
-0.3357115686
-0.0737968832
-0.0378786065
-0.2977210283
-0.0911201686
-0.1004629284
0.0978912562
-0.0170269664
0.0541149788
0.0259124693
0.1009984687
-0.1989938617
-0.0297173839
-0.1229840592
0.0452791117
-0.0119430861
0.0433595963
0.0247925650
0.0341507904
-0.0549372919
0.0293009877
-0.1553287655
0.0488643721
0.1073392928
-0.3740190566
-0.0938404128
-0.0985515192
0.1047368869
0.0099670514
-0.1799390763
0.0515474528
0.0949997678
-0.0827955231
0.1020036191
0.1530976743
-0.0565753803
0.0881745219
0.1566172540
0.1198204160
-0.2465491146
0.1258009076
0.1243414879
-0.1487922519
0.0138010010
0.0282619763
-0.2129706889
0.0993142724
0.0220088493
-0.0979688242
0.0174466986
-0.2845085561
0.0375230610
-0.0307333488
-0.2115684152
0.1086015403
0.2277380973
-0.0716370866
-0.0657423437
0.0496510528
0.0306925289
-0.1492532343
-0.0845499486
0.0879076570
-0.0214219037
-0.1060600355
0.0097049652
-0.1223668009
-0.1017296612
0.0236993097
-0.0415509045
0.0469111800
0.0254478268
0.0029093311
0.0076120575
0.1079884171
0.0179386772
-0.0615341812
0.1266109645
0.1334001422
-0.0138189876
0.0130651565
0.0814394429
-0.0230489671
-0.2602843344
-0.1256293803
-0.1510271579
-0.1346697360
-0.0474510081
-0.0181650929
-0.1793422252
-0.0725505576
0.0365561843
-0.0693008900
-0.0959028974
-0.1876786500
0.0452645160
0.0091989096
0.0896943584
0.1010353342
0.0764470100
0.0948926583
-0.0611794889
0.0342621356
0.1045339778
-0.1362618357
0.1311239600
0.0099147828
-0.1996703148
0.2075807154
0.2713354230
-0.0508664213
0.0193930231
-0.0401185974
-0.0155441808
0.0482480302
-0.0715710595
-0.0787402466
-0.1386885494
-0.1566728354
-0.3885141909
-0.1202504784
-0.0434256047
-0.4061004221
-0.1885115802
0.0418730527
-0.0548441969
0.0972251296
0.1402986497
0.0852989927
0.2640908360
-0.0830916986
-0.0265297052
0.0937518179
0.2169508487
-0.0209145155
0.1216634735
0.1700751036
0.0987671465
-0.0796677843
0.0330480747
-0.0048097782
-0.2626464069
-0.0600111559
-0.1574476063
-0.2656936646
-0.1034319401
-0.3680536449
-0.0012171362
-0.1522089243
-0.2302563190
0.0403113663
-0.0510763079
-0.2584253252
-0.1009426638
-0.0357428454
0.0696026459
0.0989719629
-0.2024221122
-0.0783826560
-0.0055589303
-0.1120891273
-0.0065404680
0.0912279934
-0.0199192055
0.1904056370
0.0467812270
0.0151984347
0.2799270451
-0.0054368107
-0.1506171525
0.0722370595
0.0737870559
-0.0902215987
-0.0502136126
0.0169057176
-0.0769485161
-0.1187923476
0.1308562160
0.0273545105
-0.0167107750
0.0717930645
-0.1256078780
-0.1065647677
-0.0522750020
0.1956356764
-0.1214439571
0.0088619953
0.1421168745
0.0759164989
0.1965156794
0.1185818389
-0.2513625622
-0.2738767266
0.1255078912
-0.0108294701
-0.1338854283
-0.1464728564
0.0609418675
0.2305398285
-0.1042871848
0.1736314595
0.0993828475
-0.0918754116
0.1237448826
0.1143530980
-0.2130498439
0.0794545338
0.1609438956
-0.1503628790
-0.0886869729
-0.1700101644
-0.0823849514
-0.0895272046
-0.0897518545
-0.0706879348
-0.3264950216
-0.3601055443
-0.3317730129
-0.2275892794
-0.0276420377
-0.0597683340
-0.1233650148
-0.0833645836
-0.0711682662
0.0213622842
-0.0416011997
0.0965751261
-0.2880433202
-0.4822170436
-0.1156008095
-0.0618331768
-0.3122697771
-0.1218935549
0.2694260180
-0.0951905102
0.1524852514
-0.2275217921
-0.1106055602
-0.0000177710
-0.2176249027
0.0446903594
0.0614381880
-0.0203484613
-0.0765855610
-0.0322968028
0.0587065592
0.0362638086
-0.0706719533
-0.0438420214
0.0178572536
0.0605694726
0.0282593146
0.0764979050
-0.1268801242
0.2279942036
0.0011619307
-0.0518825352
0.0752275363
-0.0025070072
-0.1648305953
-0.0378799103
0.1131491140
0.0176899470
0.0681103170
0.0324808583
-0.0306038260
0.3030256331
0.1668682992
0.0453036204
0.1348128766
0.0055227331
0.0888696760
-0.1641084403
-0.1944814771
-0.0864604115
-0.0252683312
0.0740912557
-0.0932546109
-0.0387091301
-0.0565321669
-0.0622097887
0.0261577927
-0.2087436169
-0.2562700212
0.0392641537
-0.1177571639
-0.0445212796
0.1965544373
-0.0146352444
0.1013687924
-0.2437443584
0.0186390597
0.1187677309
-0.3513926566
0.0155632617
0.0903095007
-0.2607536614
-0.0257359967
-0.0767426416
0.0341304913
0.0057530412
-0.1277788132
-0.0017378002
-0.0324408188
0.0384779125
0.0396652147
0.1483814567
0.1395077407
-0.1489431262
0.0351902060
-0.1251123697
-0.0368737765
0.0203242414
-0.0711371005
0.0629567355
0.0660095885
0.0538891070
-0.0387639999
0.0004415584
-0.1954346001
0.1325414926
-0.0724470466
-0.4919528067
0.0780793279
0.0828280821
-0.2996058464
-0.1301056594
0.0056884997
0.0692666769
-0.1726401150
-0.1052081212
0.1102747545
-0.1540876478
-0.0522556640
-0.0701569915
-0.0016767225
-0.1067632213
-0.1870664209
-0.0472631231
-0.1152308211
-0.0075947233
0.0691351369
-0.0580194481
-0.0581425317
-0.1319940239
0.1182547435
-0.0900395513
-0.0767309070
0.0091928588
-0.0812425241
-0.1630886495
0.0230831578
-0.0150674777
-0.2440462708
0.1166819334
-0.0475409292
0.0136127220
0.1261270791
-0.0804576054
0.1478323638
0.0933731720
-0.2083065063
-0.0285686571
-0.1925646514
-0.1385664642
-0.0865373090
-0.2096145898
-0.1198312417
-0.1509059370
-0.4198820889
-0.1819294691
-0.0345223248
-0.0346628316
-0.2036069483
-0.0341527760
0.1102103814
-0.1476915926
-0.1078350693
0.1515006572
0.0164565984
0.2460379601
0.1693759412
0.0344644636
-0.0148312012
0.1347472072
-0.1131871045
0.0076147518
-0.0221253633
-0.1179211512
-0.0695045441
0.0423869379
-0.0616583489
-0.0514712445
0.0759981573
0.0986054018
-0.0353877619
0.1152749136
0.0747494549
0.0527469516
-0.0015632971
-0.2445416451
-0.1247224510
-0.1595877558
-0.2875523567
-0.0098942257
-0.0464841463
-0.0988969803
0.3061372638
0.2466253787
-0.1819244921
0.0715342611
-0.0499543548
-0.3081860244
-0.0870430619
-0.0494932197
-0.0526088588
0.3067618608
0.1765161902
-0.0502832010
-0.0629149824
0.0635342896
-0.1051251963
-0.0339013934
-0.0816039219
-0.0993164927
0.1118504629
0.1790959239
-0.1024521589
0.0727426484
0.1333654523
-0.1184340715
0.0118899299
0.0674900562
-0.0025993416
