-0.0828556642
-0.1787616014
0.0174405053
-0.0296359826
0.1241307110
0.2275424302
0.0282358136
0.2261767238
0.2128641307
-0.1713425517
-0.0732576251
-0.2354975939
-0.0222692974
0.1353171170
-0.1229300424
-0.0097401738
0.0309937801
-0.0814655721
0.2103284448
-0.1797908247
-0.1333890408
-0.0570735224
-0.0639104694
-0.1014798433
-0.0534700453
-0.0438084379
-0.0562536642
0.0840877369
0.1503594816
-0.0502262525
0.0788820535
0.2451495528
0.0117403604
0.1395279318
0.0645118728
-0.0374085456
-0.1184544042
0.0039911382
0.0368444957
-0.2212558836
-0.2679101825
0.0240299180
-0.1191209480
0.0396336466
0.1599686146
-0.1973919272
-0.0292359684
0.1077195108
-0.1266202927
-0.0956928656
0.1424062699
-0.0267332196
-0.2012409419
-0.0134567693
-0.0084496085
0.0261785090
0.1139833406
0.0258590430
0.1196884215
0.0106980372
-0.0583388209
-0.0238533225
0.0970449597
-0.1248485446
0.0313484669
-0.0170557033
-0.2162889391
-0.0122064035
-0.1356125474
-0.0831950754
-0.0936159343
-0.2770800889
-0.0371193923
-0.1544390023
0.0533141308
0.0065598870
-0.0644029081
0.1413529068
-0.2468967140
-0.0653872415
0.1028303280
-0.3386380076
-0.3450801075
-0.0791980550
0.0279885847
-0.4350526631
-0.0730816498
0.1492703408
-0.1322431564
0.0501656644
-0.0241712034
0.0946241766
-0.0728772283
0.0661609396
0.1109237745
0.1563813090
0.0752309486
0.0583574511
0.1345185190
-0.0154868439
-0.2606630325
-0.5293362737
-0.0837107375
-0.3596894741
-0.1265097857
0.0837274939
-0.1634460539
-0.0250846203
0.0325317159
0.0215389878
-0.1488554329
0.0480955951
0.0181255415
0.1614677310
-0.2404343784
-0.0514849499
-0.0071673538
-0.1581178755
0.0224032030
-0.0307108704
-0.1275842041
-0.0809962302
-0.0686634779
-0.2087480277
0.0742023587
0.0072294660
0.0059933858
0.1764668673
0.1584299058
0.0284138266
0.0179467928
-0.0363489650
-0.3222580552
-0.2001387477
-0.4141299427
-0.0090738507
-0.0828640088
-0.1714749187
0.2008390129
0.0193174463
-0.4137606919
0.0673197880
-0.0615784861
-0.3424883783
-0.0881093442
0.0888803005
0.0069267177
-0.1598358303
-0.0030834284
-0.1650009453
0.1498376429
0.0522008613
0.0412880257
-0.1729877144
-0.0031369871
0.1490348727
-0.1719488800
0.0641756803
0.0987282917
-0.1183978096
0.2629372776
-0.0043049487
-0.1145661399
-0.0150902774
0.0678539947
-0.1211720705
0.1175781041
0.1007782966
0.0693661720
0.1281310022
0.0141910696
0.1667218357
-0.0797721744
-0.1551901251
0.0788570419
-0.0702222213
0.0436674878
-0.3613318205
0.1408315301
0.0588815920
-0.0753756389
0.0015967768
0.1374389231
-0.1939181238
0.2025718689
-0.0400256105
-0.0226741862
0.2831273973
0.0072212140
-0.1488275975
-0.1095661074
0.1503310204
-0.5349480510
-0.5043942928
0.0162053090
-0.2762782872
-0.4997136891
-0.4481295645
-0.0058079902
-0.0803780928
0.0546755753
0.0675718859
-0.1804772615
-0.0990789011
-0.1694585234
-0.3477322459
-0.1470184773
-0.0828196108
0.0753049925
0.0714984611
-0.3001244068
-0.2877656519
0.2067313194
-0.1792500764
-0.1974265873
0.0363759883
0.2333092690
0.2843358517
0.1030490398
0.1339375377
0.1993196607
0.1436782032
-0.3455622494
-0.0370500498
-0.0054632644
-0.0326736271
-0.0431281626
-0.0861236155
0.1263516545
0.1203486100
0.1486510187
0.0683880597
0.0027967019
-0.0949439332
-0.0058368109
-0.2202547938
-0.1522352248
0.1814176887
-0.1742888540
-0.1638924778
0.1915623248
-0.0161793903
-0.0515877753
0.0014120598
0.0805949196
0.0343632735
-0.0772469193
0.1648658216
-0.0501389466
0.0199435018
0.1173768640
0.1305555403
-0.3205741942
-0.2619821727
-0.0505284108
-0.1915690303
-0.1049177572
-0.0446992517
-0.1010071933
-0.0982208773
-0.1882925481
0.0587014146
-0.1776585579
-0.1646665931
-0.1146899909
-0.2304589301
-0.0381839611
0.0259177629
-0.0929851010
0.1060679033
-0.1229188740
0.1489867568
0.0885100663
0.2170294821
0.1501769572
0.0010151813
-0.1181096360
-0.1208390370
-0.0050720852
-0.1943218410
-0.2434739918
-0.1731603891
-0.0870319456
-0.0874387324
0.0301993452
-0.2001908422
-0.0539864413
-0.0534106418
0.1457249373
-0.1641833037
0.0532451011
0.0542404801
0.0952808410
0.0093618678
0.1612193584
0.0945331827
-0.1666803509
0.0621321537
0.0031224242
0.0598277263
0.0676075295
0.1440696120
0.1190651804
0.0863120854
0.0804605931
0.0234301593
-0.2475772798
-0.2472388744
-0.1823052466
-0.2347879559
-0.3419878781
-0.3320354521
-0.3094381988
0.0246608462
-0.0699016675
0.1307622641
0.0709027871
-0.1529576927
0.1823816746
0.0125113660
0.0614137687
0.2214092910
-0.1224569753
-0.1907314360
0.0255493149
-0.0492350608
0.0517981015
0.0201937836
0.1043512523
0.3029065430
0.2016158849
0.2050791383
0.1841702610
-0.0503983498
-0.0068798317
0.0896696597
-0.1066725403
0.0716943964
0.1035572663
-0.2088656873
-0.1107825935
-0.1551796943
-0.2842161059
-0.1569809914
-0.3379521072
-0.2178614438
-0.0699610412
0.0196093358
-0.0250190590
0.0353247821
0.0574328639
0.0239986759
0.1542866975
0.1958735585
0.0764767155
0.0814539939
0.1187646687
0.0725796521
-0.1135895401
0.1417816430
-0.0115349684
-0.0281305313
-0.1486043930
0.0782180205
0.1642894745
0.0310472380
0.0508368388
0.0187018625
-0.0106686084
-0.0504674725
-0.1436687261
-0.2896809578
-0.1283412427
-0.0570168085
-0.1901251376
-0.1520390362
-0.3283621669
-0.1754883677
-0.0408061072
-0.0695326775
-0.0136870025
0.0844908729
-0.0422678217
0.0728933141
0.0143263415
-0.0940437764
0.1015688479
0.1242549792
-0.0225015804
-0.0808825120
-0.0243103113
0.0198711827
0.0190155823
-0.2588945329
-0.0565337986
-0.2693386078
0.1380720735
-0.1352659464
-0.1368136108
-0.1164565459
-0.0749492720
-0.4303735793
-0.2415225804
-0.0389574915
-0.0109754605
-0.1310445964
-0.2954726219
-0.0353862643
-0.0378250368
-0.1212420985
-0.0230752062
0.0449891835
0.0403185897
0.2611281574
0.1651104838
0.0292577613
-0.1858362854
-0.1630394757
0.0174363330
0.0778341815
-0.0178963225
0.1882192343
0.0457343347
0.0575649515
-0.1602318287
-0.5345333815
-0.1606884152
-0.0555899367
-0.2519860566
0.2418347746
0.1979109943
0.0631786063
0.1834571958
0.0205893181
-0.0004335075
-0.0234299321
0.0688596219
-0.0730430484
0.1909009814
0.1370754689
-0.1319033951
-0.1842578202
-0.0769092739
-0.0819529667
-0.1736287177
-0.0462913476
-0.3411519527
-0.1246581525
-0.0544341207
-0.1066241041
0.0536460057
-0.0527163446
0.0305664241
-0.1010374427
0.0126137286
-0.0042683100
0.0209575389
0.1306426674
0.0219366793
0.2407491207
0.0763118491
0.1178152114
0.2233247161
0.1117896736
-0.0228895918
0.1472364664
0.0388878398
0.0842102170
-0.0126089202
-0.0316785984
0.0388909504
-0.0864322260
0.1302554458
0.0006543415
-0.0367337167
0.0344709381
0.0292395558
0.1061760783
0.1547612101
0.1226992682
-0.0087600695
0.1380392462
0.1260722727
0.0578589663
-0.0121906046
0.1813818067
-0.2947416604
-0.3936155140
-0.3847056627
-0.4369706810
-0.5165842175
-0.1403491348
-0.3092022836
-0.4881952703
0.1221616566
-0.0357755534
-0.0689940155
-0.0098926369
0.0684069395
0.0715799406
0.0149016185
-0.0197039302
-0.1969738752
-0.1549394131
0.0279158093
0.0113153663
-0.2225947231
0.0479684658
-0.0449581519
-0.0549048297
0.1143921539
0.1018646508
0.1318560392
-0.1531625539
-0.0888603479
0.0217023082
-0.0011319533
-0.0839183033
-0.0613251030
0.0493978895
0.0830752999
0.1061086282
0.1048343033
-0.0201082490
-0.1177680939
-0.0824312568
-0.2823796272
0.0165484063
-0.0418984741
-0.0900918320
0.0707314685
0.0271362159
-0.0234918091
-0.1347117573
0.0013999726
-0.0949019119
-0.2285243869
-0.2928012908
-0.3461028039
-0.1265244633
0.1139466986
-0.1728894413
-0.0988746732
-0.0012855362
-0.1688197553
-0.1486219913
0.1995467991
-0.2159153372
-0.1698141694
-0.0928700790
-0.1308249682
0.1112761050
-0.1778217107
-0.0359545611
0.0935861319
-0.0737158880
-0.1565547734
0.0140606798
-0.2106273174
-0.1330755204
-0.0968782902
-0.1137966886
-0.0544032753
-0.0900100544
0.0999292061
0.1219298244
-0.0209851284
-0.1000376865
-0.0174303371
-0.0931598023
-0.1407126933
0.0613403358
-0.0450206026
0.1286212206
0.0540335178
0.0300428085
-0.2154895663
-0.3769767880
0.2104970515
0.0832441449
-0.0195842311
0.0550291687
-0.2995440364
-0.2829419672
-0.1829858273
0.1086126789
-0.0530908704
0.0307659246
0.1294278949
0.0023719845
0.1310015321
-0.2060650438
0.0896165445
0.1178023964
0.2286439836
0.1275237203
0.1223346293
-0.1571158469
0.0154317478
0.1237305924
0.1251024157
0.0557046048
0.2616582513
-0.2783935368
-0.3256306648
-0.1325487345
0.1302688867
-0.0956796557
-0.0985362381
-0.0836210251
0.0392953679
-0.0700103641
0.2060098052
-0.1863857508
-0.1608881652
0.0754280537
-0.2875256538
-0.1541867554
0.1310336739
-0.1995023638
0.1395274848
0.0850738883
-0.0227120332
0.0576506928
0.0670779571
0.0825220719
0.1402909905
-0.0648017526
-0.0993159711
0.0491991304
-0.0291860681
-0.2780170441
-0.0624296181
-0.1844075322
-0.2362755239
-0.1019712314
-0.1603536308
-0.0616084300
0.1759110689
0.1864314973
-0.1052093953
-0.0094031151
0.1763230115
0.0291139968
0.0707054883
0.2834655344
0.0328172520
0.2940709293
-0.0758567229
-0.0701353177
0.2217637002
-0.1858320236
-0.1579447538
0.0821383968
-0.2513340116
-0.1630715430
0.0627557114
-0.1495959908
-0.1993679851
-0.2004649192
-0.1813266724
-0.3109088540
0.0542288721
-0.3820273876
-0.0737580359
-0.0362012275
-0.2351800501
-0.2776816487
0.1185610667
-0.2380758673
-0.1412038952
0.0724145249
-0.3504799008
0.1055567116
0.1327793896
0.1109997556
0.0814379007
0.0312056001
-0.0234561618
0.0582424663
-0.0522470623
0.2556189001
-0.0334588662
-0.0566751175
0.1233628169
-0.1060991436
0.0733230412
0.1350367367
-0.2514793575
0.0691833869
-0.0400358289
-0.1421677619
-0.0160452686
0.0416214578
-0.2227225751
-0.0867767632
-0.2118925750
-0.0524129383
0.0249678865
-0.2785702944
-0.1732877046
-0.0409105495
-0.0442601331
-0.0532130226
-0.2343557030
0.1679531783
0.0310030654
-0.0196881313
-0.0467026196
-0.1330506355
-0.0268568601
0.0530460924
-0.0684447512
0.0432662927
-0.1724711061
-0.2304725796
0.0627000704
-0.2287871391
-0.2911859155
-0.3220434785
0.0766664967
0.0967706069
0.1399899423
-0.0608569980
0.0771885291
0.0528085753
-0.0747369975
-0.0176021270
0.1364549547
0.0177956540
-0.3313781619
-0.0907960832
-0.3266550004
-0.5012010336
-0.3244699240
-0.3811384439
-0.4210901856
0.0057518850
-0.2125092000
0.0105403941
-0.2552994192
-0.1000391692
0.1464843601
0.0201325975
0.2510358095
0.2439789325
-0.0720171481
0.0933138356
0.1376007795
-0.3081624210
0.0900770128
0.0057736840
-0.1975183785
0.1652404666
0.0379780233
0.1209174469
0.0678631812
0.0346507877
-0.0611788183
0.0642481074
0.0049923756
-0.0326580517
0.1716334075
-0.0169133916
-0.0184889063
0.0106787803
-0.2337846011
-0.1291873455
-0.0311696474
-0.2742257118
-0.1464320421
-0.2883135378
-0.0963289738
0.2393753529
-0.0817675740
0.0793625489
-0.0460853502
-0.0271465033
0.0302570481
0.1528519541
0.0586979836
0.2023468316
0.2447180003
-0.0656196848
-0.1374945343
0.0797462985
-0.0485484004
-0.1223903224
0.0990427509
0.0590405688
-0.1154692173
0.1928846389
-0.1485945880
-0.1485030949
-0.1537474990
0.0254716668
-0.0020787006
-0.1985001713
-0.0260939710
0.0183594301
-0.0631347150
-0.1675734371
-0.5207671523
-0.1513977051
-0.0723401457
-0.2180160433
-0.2671683431
-0.2227860838
-0.5002263188
-0.5516137481
-0.1965336800
0.3250460923
0.2394773364
-0.1766331941
0.0785134435
0.3314339221
-0.1081341952
-0.0109797893
0.0241175126
-0.0812611207
-0.0473775715
-0.0413353667
-0.1474274397
-0.0161197949
0.1358418018
-0.1574342996
-0.1429390460
0.1436540633
-0.1091908291
-0.0237014852
-0.1536424160
-0.0711781979
-0.0679722875
-0.1100832075
-0.0596343242
-0.1730723232
-0.2526215911
0.0627542138
0.1003361642
-0.0141143752
0.1249379441
0.0398452878
0.0905070603
0.1020006984
-0.0188841298
-0.1362868547
-0.1770398170
-0.0738211647
0.1673753113
-0.3052548170
-0.2958478034
-0.0701578259
-0.2191186696
-0.0936224833
-0.0189727601
-0.0121686142
0.1055575684
-0.0137679279
0.0538480505
-0.2522227764
-0.1733918935
0.0105472459
-0.0903693438
-0.1178069860
-0.0643193200
0.0199403912
-0.0359168425
-0.0241946913
0.0945981741
-0.0019222143
-0.0687147528
-0.0916102901
-0.0175297987
-0.2638550103
-0.1052214131
-0.0829366371
-0.1753148288
-0.4119129479
-0.2020918280
-0.0454722829
-0.2889382243
-0.2666337788
-0.0218646619
-0.0857561454
-0.1467283964
-0.1001609638
-0.1419087648
-0.1857520193
0.1271004379
0.0958166942
0.0156568158
-0.0380963497
0.0677286386
-0.0486879237
-0.0087778289
0.1793000400
-0.0275108181
-0.1923438162
-0.0159075651
0.0657494292
0.0705176890
-0.2210697681
-0.0771514922
-0.1645918638
-0.1057852730
0.1944818795
-0.0953910425
-0.1408811659
-0.0106468443
0.1866128296
-0.2220680118
-0.1272311062
-0.1596039683
0.0414239764
0.0709560812
-0.1267951429
-0.0843031034
0.0235176850
0.0792215988
0.1120674461
0.2320052534
-0.1509365737
0.0564148128
0.1283036023
-0.0071626361
0.0506013669
-0.0233488325
0.0582328066
-0.1453556269
0.0004740453
-0.0200063363
0.0400371477
0.1622532308
-0.1135581359
0.1380489022
0.0362980366
0.1405526698
0.1566893011
-0.0690297335
-0.1472276002
0.0054536867
-0.0133935846
-0.0828810036
-0.0874472633
-0.1126996949
0.0858179405
-0.0249583889
-0.2459835708
0.1002758145
-0.1443441510
-0.1471429467
0.0082500763
-0.1203005165
-0.0847305804
-0.0277244095
0.0546634570
0.1232328936
0.1106327027
-0.0513275452
0.0078908186
0.0371829383
-0.0537328981
-0.1854860336
-0.0281800609
0.1531907022
-0.0002738997
0.1295964569
0.1373541951
0.0388390496
0.0810148567
-0.0552494079
0.0318740793
0.1648172885
-0.0224276390
-0.0413105115
-0.1895119101
0.0169912446
0.1115968451
-0.1729303300
-0.1739482880
-0.2311810404
-0.0808256567
-0.2241626531
-0.0690838397
-0.0698992610
-0.1065696031
0.0300122891
-0.0378417037
0.0239386838
0.1070565581
0.1165080890
0.1540086120
0.0698249266
-0.0916404575
-0.0683026165
0.0419603363
-0.1424722821
-0.2531723976
-0.0340184309
0.0272398349
-0.1538121700
0.0897979140
0.0705045462
-0.1164724752
0.1813842654
-0.3061336875
-0.1540531516
0.1164596826
-0.2229002565
-0.0410092622
0.1504126936
0.0245735254
-0.0371148512
0.0044540968
0.0617860332
0.0111610387
-0.0205811635
0.0893142074
-0.0314099640
0.0166156162
0.0341418609
-0.0348893143
0.0507134497
0.0986092389
-0.1111982092
0.1541651040
0.1838991493
0.2041657269
-0.0408822931
0.1240370795
-0.0763161182
-0.3622962534
0.0115729151
-0.0251762420
-0.1406927258
-0.0221327040
0.0678775609
0.0382986888
-0.0367197916
0.0947528183
0.1375181824
-0.2337812036
-0.0071605369
-0.2561615407
0.1218966991
0.0981756747
0.1632272601
-0.0159071069
0.1832150221
-0.1012856215
-0.1113172993
-0.1097165868
-0.1064217314
-0.3765075803
-0.2350683212
0.0342073701
-0.2432119548
-0.2670721114
-0.0309759267
-0.3320857882
-0.2608590722
0.0300643332
-0.1955472678
-0.1133633479
-0.2149403244
-0.2987350523
-0.0724435449
-0.1734321266
0.0359729156
0.0373536162
0.1046226695
-0.1538166702
-0.0485413298
-0.0643177405
-0.1786547601
-0.0330362730
0.2050086409
0.0340626575
-0.0215324238
0.1567496508
0.2676026523
0.0399099216
0.1553044915
0.0115849357
0.1094829291
0.1904162914
0.0761246085
-0.0680104271
0.0317672044
-0.1100094318
-0.0564874895
-0.0749311522
-0.2820909321
-0.1832889169
0.0210840069
-0.1018892452
-0.1875236928
-0.0169458650
-0.2638646364
-0.1618003398
-0.3704785109
-0.2037921399
-0.1816486120
-0.0905325264
0.0659816638
0.1078275293
0.0157246180
-0.0473528653
-0.0084936218
0.0142371124
-0.1310923994
-0.0554282404
-0.0610773563
-0.0980421752
0.1323100924
-0.0140316915
-0.2740893066
0.0598006472
-0.0526144765
0.0472677313
0.1092957333
-0.0848800093
0.1127563938
0.0229662564
-0.0832737461
0.0959847569
0.1761203855
-0.1139461324
0.2097634375
0.0742419735
-0.1875309944
0.1668422818
-0.1394755393
-0.1508496553
0.0830148906
-0.0820854232
-0.1773875952
0.0669003949
-0.0327650011
-0.2279894948
0.1052504331
-0.0275870617
-0.0117959399
-0.0621714927
0.3094976246
0.0114948889
0.1898790896
0.0370835327
-0.2500431240
0.0264071655
0.0769935101
-0.2056280226
0.0651186332
-0.0124153867
-0.0647193640
0.0035277079
-0.0905469656
-0.0326286182
-0.0372099578
-0.2650901377
0.1183932722
0.1154822707
0.1245339811
0.0165965389
0.0470880195
0.0253782663
-0.0870247260
-0.0758470073
-0.0010755027
-0.0879890919
0.1057340726
0.0310128033
-0.0157538075
-0.0587020330
0.1127625257
-0.0839098170
-0.1507754028
-0.2085673362
-0.0504776984
0.0944807976
-0.0468136221
-0.2095702142
-0.1331959963
-0.0600959435
-0.0054149562
-0.2926219702
-0.0736861154
-0.1905659139
-0.2359795272
-0.1437934786
-0.0175468568
-0.1975249648
0.0058849468
0.2329539657
-0.2502159476
-0.1961752474
0.0549035631
-0.0409751683
0.0052615679
0.0160265323
-0.0286832117
0.0362963006
0.0910672098
-0.0919317603
0.0506700240
0.2508510649
0.0214534979
0.0857926160
0.0160418842
0.0363401733
-0.0344307572
-0.0417200290
-0.1226356700
-0.0523616299
0.1034621149
0.0174899604
-0.4716843069
-0.2271822691
-0.1796018183
-0.3843331635
-0.1832480580
-0.0660669878
-0.0315733328
-0.0774838701
0.1448833644
0.0174173452
0.0414264947
0.0597768538
0.1542416960
0.1636904329
-0.0353924185
0.0126595078
-0.0719859079
0.1198615879
0.1234344393
0.0316455215
0.0504154377
-0.0348375700
-0.1957505494
0.0326739810
0.2406617254
-0.0004765826
-0.0553300008
-0.1916098744
-0.0225694869
0.0864319205
-0.2583005726
-0.0162770823
-0.1657083333
-0.5429336429
-0.4519167542
-0.0401770435
-0.1157956272
-0.0809693858
0.0054144189
0.1651346236
0.0255379807
-0.1584654897
-0.2257841229
-0.1540538818
-0.2510114908
0.0292781368
0.0525862165
-0.1000364572
0.1815506220
0.0338266343
-0.1661155969
-0.0458878949
0.0439505465
0.1180315986
0.0891367048
0.0713394880
0.0894306153
0.0588364974
0.1224995777
0.0441601090
0.0534544624
-0.1491630375
-0.0961187333
-0.0919571370
-0.0645409822
-0.2362102568
-0.4279618263
-0.1224689931
-0.0907322764
-0.0165009387
0.0379272774
-0.0859769583
0.0836642534
-0.0470155962
-0.1810104996
0.0494977050
-0.0993292332
-0.1527038366
0.0435396582
-0.0781515166
0.0104966275
0.0516614318
0.0292888917
-0.0406663008
0.1131766438
0.0466461219
0.1763272732
0.2142166197
0.1407736540
0.0737070069
0.0846648291
0.0524460785
0.0063826987
-0.0501563773
-0.1511547267
-0.1845578700
-0.1054847986
0.0619298406
0.0728049800
0.0290009566
-0.0416261405
-0.2107154280
-0.2595139742
-0.1724593341
-0.1383733004
-0.0218278076
-0.1124727279
-0.2632807493
-0.0576873310
0.2867561877
-0.4219161272
-0.2632969618
-0.0188453011
-0.2731972635
-0.0505440049
0.1466616690
-0.0791279897
0.1385247856
0.0244681872
-0.2419854552
0.0002507819
0.2735000849
-0.3715870678
-0.0239705574
0.0897636712
-0.0698935837
-0.0190420151
0.1735839993
-0.2893923223
-0.1614484936
0.0641646385
-0.0080301827
0.1410918832
0.0596312694
0.2044563591
0.1320054978
0.1277247816
-0.0457615145
-0.1141177192
0.0706704110
0.0527901985
-0.0944933370
0.1038038284
-0.0607179143
0.0159544442
0.0518208481
-0.4184449911
-0.2671103179
-0.2871620953
-0.0907797664
-0.1678509265
-0.1957839578
-0.3973363638
-0.1210559905
0.0467955172
0.0360730067
-0.0243978351
0.0218276139
-0.1522860676
-0.1348152608
0.0473417304
-0.0241636578
-0.3343954682
-0.2555465698
0.0700555891
-0.0689836517
-0.3399369717
0.1245247200
-0.1624254584
-0.1160547063
-0.0112033822
0.0990354493
-0.1809335500
0.0973200649
-0.0070524402
-0.2810170650
0.1716793776
-0.2369738370
-0.2407034338
0.2815069258
0.1177420989
-0.4237461090
0.2409097999
-0.2055237442
-0.1911491752
0.1395620704
-0.0940700695
-0.1273194253
-0.0510452017
0.0055655795
-0.0238184426
-0.1833374202
-0.1082116887
0.1076950431
-0.3004598320
-0.2422286868
-0.0750806257
-0.2101127803
-0.2252940536
-0.0547873974
-0.1617715657
-0.0824841037
-0.0590952523
-0.0880056247
-0.0043272013
-0.0176928677
-0.1801149100
-0.1507618278
0.0326825604
-0.3444638252
-0.3572811186
-0.1013497636
-0.2897344530
-0.0961067155
0.0425343849
-0.0488155223
-0.3678644896
-0.4184327126
-0.3290216923
-0.1821681559
-0.1288627833
-0.0817319527
-0.2451225221
-0.0695576519
0.0422470942
0.2189596146
0.2054618001
-0.0652118176
0.1119565219
-0.0399338119
-0.1445399523
0.0271957051
0.0596844666
0.1138101518
0.0234147031
-0.2878806293
-0.2117821574
-0.0290881991
-0.0252033453
-0.2836647928
0.1932309717
0.1334516853
-0.1485794336
-0.0015446743
-0.2667120397
-0.1106341183
0.0477461405
0.1775688827
0.1244372129
0.1150913388
0.0247941054
-0.0304223597
-0.0578826740
0.0445938781
0.0500567444
-0.0733820051
-0.2543680370
0.0022245515
0.0860621110
0.1803639382
-0.3359781802
-0.1883721054
-0.1050072238
-0.1966996640
-0.2897362709
-0.1391713023
-0.0152480872
0.1640371531
0.0647080913
-0.3263762295
-0.1030836627
0.0255531389
-0.2267319262
-0.3061105907
-0.1496832520
0.0787820220
0.1338484883
0.1476476938
-0.1194077879
0.0169912912
0.2453047931
0.0864456668
-0.0908892080
0.0303906854
-0.1075211093
-0.0384590141
0.1375423372
-0.3658836782
-0.1356279999
-0.0619045831
-0.3210102916
0.0207651313
-0.0389602035
-0.1502061486
-0.0745422989
-0.0516543686
-0.0341466404
0.0207162909
-0.2746868432
-0.5012362003
-0.4494516253
-0.3714212775
-0.4275511503
-0.0371178873
0.1605920494
0.0294506624
0.1507374495
-0.0507378317
-0.1437366754
-0.1282470524
-0.0738649741
0.0264881756
0.0621005595
0.0729004666
0.0206662603
0.0158179067
-0.1852668077
-0.1304829419
-0.0999436378
-0.0944156721
-0.3354729414
0.0171387289
0.0620981269
0.2958624065
0.0049571907
-0.2090460211
0.0607573539
-0.0162004866
-0.2719427049
0.2146663666
0.1006617323
0.1057640016
-0.0048340191
0.1126883700
0.1074652821
-0.0016051889
0.1531360596
0.0555983707
-0.0408909321
-0.0735923350
-0.1520501822
0.0646214858
-0.0722691342
-0.1776779443
-0.0787112862
0.0303407237
-0.1725290865
-0.0449180342
0.0231388994
-0.2281211764
-0.2095494121
-0.2008302212
0.0466841273
-0.2796019912
-0.0305876676
0.1529170871
-0.1396376342
-0.2781345844
-0.0822919831
0.1641305834
-0.0382151641
-0.0426794067
0.1120445803
-0.0249645542
-0.0231420826
0.1070100516
-0.1961289942
-0.0841487423
0.2265334874
0.1312005222
-0.1748397350
0.0862952247
-0.0756302103
-0.1096596941
-0.0316938348
-0.2268215120
-0.2729220092
0.1147227660
0.2104796916
0.0291413795
0.1975711137
0.3583989143
0.1727403700
0.2221090198
0.1765960604
0.1253594756
0.0824793950
-0.3065759838
0.0770382807
0.0013771093
-0.1690970957
-0.1667616218
0.0238233898
-0.1889821887
-0.0735477284
-0.0705910996
-0.3567375839
-0.1605376750
-0.1247426420
-0.3833210170
-0.2070681304
0.0093172528
-0.2512462437
-0.0444302373
-0.0099995108
0.0774187148
-0.1245825067
-0.1319354773
0.0423001349
0.0110683683
0.0324813090
0.1470200121
-0.1190165281
-0.0614749268
-0.1900407821
-0.1223389655
0.1826184243
0.0662430078
-0.0575814880
-0.1408022642
-0.0871377811
-0.0275096055
0.1052012295
-0.1530697644
-0.1745500565
0.1202648282
-0.0923213139
-0.1487839967
-0.0108309854
0.1068236008
0.0852298364
0.0729501098
0.1698270291
0.1614629477
0.1254434139
0.0034018622
-0.0083998917
0.0322217830
-0.0280232746
-0.0529806428
0.0959658623
0.1194791496
0.0750468597
-0.0242853779
0.0804529265
0.0146512585
0.1379554868
0.1539769620
0.1415462196
0.0306843817
0.0244109202
0.0336688347
0.0840710029
0.0911951736
-0.0243104752
0.0287546255
-0.1421614289
-0.0286394078
-0.0790566429
0.0350035131
0.0165703632
-0.0026679076
0.0136994570
-0.0565471202
0.2730831802
0.1358557940
-0.0733553618
0.1285378337
0.2166855484
0.1329153329
0.0527886450
0.1649793088
0.1561129242
-0.1411243230
0.2010848224
0.0537254475
-0.2248187810
-0.2043678164
0.0436390825
0.0394299738
-0.0175482426
0.1022311673
-0.1325146407
0.0546704419
-0.0055319322
0.1216950193
-0.0850304142
0.0085669141
0.1173274443
-0.0030055302
0.0471558422
0.0103464676
-0.2685757279
-0.0870040953
-0.2404318154
-0.2001861930
-0.0887370855
-0.1268272698
-0.1900320351
-0.0887431353
-0.0908136740
-0.0244445540
-0.0825308636
0.1424181908
0.1171147600
-0.1229782924
0.0411019996
-0.0427347161
-0.2364773303
0.0545626730
-0.0277139042
-0.0523033738
