-0.114471
0.062866
0.097115
0.086340
0.132178
0.252253
0.086997
0.069208
-0.014543
0.013210
0.099749
-0.028816
0.005731
-0.041308
0.045259
-0.073035
-0.242665
-0.199164
-0.034100
0.003273
0.101538
-0.066742
-0.073759
0.107947
0.089417
0.098672
0.260510
-0.157211
0.179121
0.129175
-0.147566
0.070653
-0.057973
-0.041066
0.084403
-0.015278
-0.549159
-0.304294
-0.064907
-0.274775
-0.245758
-0.212351
0.105679
0.066714
0.135382
-0.153353
-0.113817
-0.021530
-0.083023
-0.134145
0.040338
-0.059720
-0.063971
0.070189
-0.103530
-0.010436
0.003539
0.079356
0.115177
-0.039116
-0.135494
0.115024
0.157105
-0.238031
-0.120455
0.004689
-0.383595
-0.264779
-0.072459
-0.101086
-0.184962
0.020824
-0.198137
-0.173949
-0.377678
0.140290
0.209897
0.062246
0.019368
0.101200
0.016742
0.065986
-0.081379
-0.191697
0.008204
0.082921
-0.107091
-0.008237
-0.048420
-0.012693
0.069395
0.070871
0.073709
0.083266
0.051812
-0.052777
0.164806
-0.021234
-0.121347
0.175048
0.090613
-0.070808
0.119833
0.044974
0.049028
0.129699
-0.088779
-0.075232
-0.452866
-0.438757
-0.172350
-0.466437
-0.207433
-0.125840
-0.034645
0.063845
0.350645
-0.297222
-0.157100
0.007775
-0.031381
-0.051345
-0.155461
0.103087
0.018875
-0.002753
0.060745
0.040800
0.064382
-0.280843
-0.243959
-0.078330
0.065040
0.112495
0.234916
-0.457437
-0.197639
-0.104923
-0.190918
-0.228824
-0.107229
0.003709
-0.142062
0.146935
0.200848
-0.177305
0.045164
0.001069
-0.060313
0.136480
0.126657
-0.049090
0.094725
-0.136666
-0.086204
-0.133797
0.079012
0.221456
-0.050218
0.000236
0.208753
-0.015197
-0.096420
-0.097510
-0.050332
-0.090443
-0.015086
0.148023
0.303481
0.092641
0.210835
-0.273490
-0.204281
0.040903
-0.308266
-0.173933
-0.000360
0.012957
0.127494
0.347636
-0.230770
-0.336879
-0.300805
-0.022536
-0.381075
-0.038390
0.243558
-0.217839
0.171580
-0.053921
-0.002286
0.048249
-0.009489
0.063869
0.098394
0.044544
0.043692
0.039658
-0.235762
-0.145270
-0.185074
0.054531
0.065694
0.222789
0.293757
0.137976
0.133776
-0.285518
-0.349241
-0.093640
-0.165999
-0.100791
0.102123
-0.082452
-0.097367
-0.057380
-0.265145
-0.095914
0.039310
-0.174404
-0.268802
0.001787
0.128256
0.232316
0.138226
-0.150635
-0.210600
-0.051811
0.064039
0.047901
0.237385
0.179570
0.224495
0.130661
0.086972
0.015337
0.050298
-0.067856
-0.140888
-0.099445
0.002111
0.107168
-0.110692
0.002988
-0.049312
-0.146308
0.055862
-0.013445
0.027728
0.133873
0.229382
0.075710
-0.063926
-0.170388
-0.063775
-0.066556
-0.020258
0.077122
-0.052993
0.031670
0.114361
-0.287925
-0.038467
0.203117
-0.374478
-0.176700
-0.109769
0.017729
0.203522
0.395397
0.018760
0.088966
-0.089429
0.076107
0.149922
0.011290
0.078855
-0.032765
0.089685
-0.181557
-0.200779
-0.019504
-0.288613
-0.062385
0.073219
-0.136246
0.129614
0.207566
0.024952
0.161713
0.065082
0.025454
0.102239
-0.076335
0.180232
-0.240686
-0.125960
0.115973
0.072132
-0.049511
-0.012746
-0.147065
-0.243385
0.032828
-0.127558
-0.349832
-0.126848
0.044475
0.039605
-0.206370
-0.068413
-0.020880
-0.205707
-0.247285
-0.119832
0.123413
0.076890
0.026303
0.079941
0.117444
-0.117821
-0.037215
-0.071217
-0.015914
0.053709
0.112392
-0.173520
0.045557
0.128102
0.000031
0.053994
0.003464
-0.063570
-0.011883
0.098336
0.023746
-0.018375
0.040832
0.056684
-0.125875
0.102681
0.073089
0.132197
0.080102
0.232606
-0.022293
-0.016783
0.193841
-0.030459
-0.078194
0.122266
-0.053048
0.010489
-0.161411
-0.073237
0.191812
0.147791
-0.081309
0.141066
-0.090319
-0.118369
-0.030196
0.166031
-0.018850
0.003564
-0.045253
0.001928
0.054724
-0.226628
-0.092918
0.036605
0.142912
0.142475
0.013036
0.036039
0.067912
-0.062171
0.017207
-0.395104
-0.079366
0.117331
-0.176844
-0.140562
0.260438
-0.169566
-0.104891
0.008883
0.049338
0.021721
0.079861
-0.108656
-0.053817
0.055104
-0.091154
0.122259
0.085363
0.048199
-0.009751
0.074660
0.038915
0.195029
-0.035240
-0.055371
0.001525
-0.236356
-0.119850
-0.140463
-0.035216
-0.064769
-0.331737
-0.230420
-0.015925
-0.236423
-0.144619
-0.126641
-0.096504
-0.036552
-0.035713
-0.032237
0.044619
0.046172
-0.002576
-0.213728
0.062683
0.287780
0.209982
-0.108205
0.327782
0.133957
-0.145328
-0.268855
-0.015689
0.069353
0.069222
-0.126776
-0.199920
0.034263
-0.016372
0.038930
-0.026044
-0.019604
0.132545
-0.173327
0.021345
0.187279
-0.205081
-0.223133
0.026476
-0.027249
-0.158634
0.074114
0.097487
-0.029580
-0.018893
0.079000
0.093273
0.015715
0.088951
-0.040123
0.016548
0.191676
-0.038957
-0.056461
0.165442
0.108438
0.062220
-0.067986
-0.027697
-0.008663
0.165005
0.199446
0.082723
0.100108
0.232481
0.172738
0.008008
-0.108503
0.026204
0.149965
0.039899
0.099403
0.112383
-0.065954
0.135264
0.020091
-0.098832
-0.021687
-0.225215
-0.010816
-0.022847
-0.050901
0.029224
-0.195656
-0.089723
-0.176175
0.067817
0.122876
0.067815
-0.158088
-0.199114
-0.132283
-0.262732
-0.405316
-0.250082
0.005330
-0.074587
-0.021956
-0.096341
-0.381691
-0.043358
0.052827
-0.246418
0.006819
-0.048112
0.002971
-0.007507
0.128889
0.066416
0.026063
0.133245
0.104815
-0.238345
-0.219162
-0.124023
-0.020412
-0.237812
-0.200234
-0.051207
-0.110942
-0.175155
0.068178
-0.263427
-0.307587
-0.094641
0.041511
0.127499
-0.000580
0.019630
0.144643
-0.044163
-0.157177
-0.035168
0.005384
-0.050598
-0.054000
-0.103893
0.114542
0.138663
-0.096919
0.110471
-0.100658
0.029405
-0.047227
-0.073137
0.134769
0.232934
0.264112
-0.060847
0.004136
-0.013391
0.009235
0.072060
-0.096580
0.094579
0.084347
0.077911
0.076199
0.078320
0.026630
0.097096
0.125359
0.000508
0.001246
-0.014065
0.132911
-0.043434
-0.293486
-0.138255
-0.120378
0.015968
0.086268
0.049061
0.032847
0.147820
0.192224
-0.295243
-0.189768
-0.362342
-0.031207
-0.104855
-0.292795
0.019500
0.045986
0.140196
-0.001960
-0.081372
-0.104044
0.025058
-0.030392
-0.079745
0.050446
0.057144
0.058630
-0.136712
0.031255
-0.165012
-0.056034
0.016889
-0.065543
0.096937
0.019147
0.219514
-0.045431
-0.022125
-0.092483
0.142856
0.005520
-0.168138
-0.097877
-0.000234
-0.410407
0.037462
0.038673
0.191229
0.050358
-0.092721
0.020603
-0.001376
-0.205663
-0.032884
-0.611417
-0.635667
-0.238594
-0.495287
-0.316197
-0.190263
-0.215118
-0.087169
0.006348
0.144799
0.103492
-0.067407
0.126255
0.166212
-0.087312
0.180623
-0.223698
-0.107894
-0.142357
-0.024162
-0.152824
-0.074971
-0.171517
-0.286871
-0.009862
-0.419533
-0.322185
0.032986
-0.029331
-0.011262
-0.068135
0.086948
-0.006751
-0.005120
0.101973
-0.012778
-0.007739
0.050848
-0.041536
-0.025001
0.117468
0.002710
-0.163010
-0.002049
-0.245475
0.022729
-0.109087
-0.115112
-0.159887
-0.190556
0.144179
-0.054405
-0.041470
0.042418
0.082803
-0.021559
0.244829
0.097526
-0.102915
0.238152
0.012220
0.047210
0.146378
0.255567
0.169674
-0.000797
0.068306
0.054596
0.134045
0.139934
0.158726
0.111941
-0.145867
-0.129437
-0.119931
-0.020563
0.051807
-0.033253
0.019495
-0.092724
-0.043488
-0.203925
-0.094977
-0.262299
0.052443
-0.165320
-0.175603
0.080092
-0.138498
-0.277396
-0.160688
-0.113792
-0.047285
-0.208568
-0.150979
0.056018
-0.160705
0.004251
0.075634
-0.080134
0.095529
-0.102283
0.044680
0.085458
-0.024479
-0.076255
-0.023840
-0.033174
0.167745
-0.011756
0.078068
0.085221
-0.178548
0.214855
0.077344
0.086216
0.119235
-0.160178
-0.125508
0.185521
0.081248
-0.166397
0.116627
-0.127094
-0.105669
0.036218
0.098390
-0.145337
0.036163
0.153773
-0.067829
0.044089
0.076385
-0.047522
-0.089648
-0.313299
-0.205204
-0.399366
-0.178833
-0.025367
-0.224943
0.108305
0.133572
0.127600
0.179629
0.049884
0.083864
0.052093
0.007887
-0.007637
-0.018465
0.014034
-0.125805
0.086667
-0.011800
-0.071861
-0.044439
-0.064989
-0.213766
0.291689
-0.031331
-0.072322
0.046779
-0.115654
-0.264699
0.045953
0.134181
0.086244
0.168275
0.166386
0.130236
0.018744
0.070522
0.014765
-0.123994
0.145936
0.103398
0.016532
0.230405
0.180376
0.101471
0.117839
-0.068379
0.060983
0.075120
0.017601
0.021860
-0.006533
-0.164160
0.099335
0.120930
-0.127461
-0.094156
0.025087
-0.167693
0.007885
0.002832
-0.332748
-0.025682
0.042942
-0.037048
0.008291
-0.038939
-0.104400
0.071705
-0.148548
0.021631
0.187541
0.013551
-0.031171
0.088474
0.014360
-0.129239
0.054870
-0.132610
-0.163519
-0.034647
0.012600
-0.134340
-0.030380
-0.100788
-0.043961
-0.023769
-0.037148
-0.091238
-0.080091
-0.111614
-0.077817
-0.089220
-0.016742
-0.061619
-0.100795
-0.117952
-0.119602
-0.173857
0.011964
0.035053
0.111079
0.177034
0.093736
-0.167758
-0.241613
-0.152801
-0.027534
0.019170
0.009884
0.095899
0.106631
-0.061028
-0.094588
-0.040207
0.009201
0.143509
-0.057882
0.167265
0.108310
-0.007374
-0.121774
-0.095159
-0.168862
-0.212209
-0.076557
0.133546
0.019050
0.069559
0.128011
-0.030826
0.073865
0.038714
0.058734
-0.137059
-0.170755
0.008963
-0.271939
-0.083708
-0.041419
-0.087125
-0.049338
-0.083091
0.096559
0.024819
0.026906
-0.032352
-0.025281
0.096613
-0.078852
-0.017458
-0.111055
-0.157271
0.013903
0.046895
0.020742
0.193176
0.080149
-0.069677
-0.095875
-0.006415
-0.056743
-0.142255
-0.211393
0.085052
0.226679
0.112397
0.053094
0.139713
0.261153
0.048487
0.006799
-0.033338
-0.018819
0.008012
0.215348
0.039962
0.035075
0.170167
-0.068778
-0.099011
0.029971
-0.069968
0.036679
-0.029520
0.010701
0.041243
-0.076837
0.200602
-0.115911
-0.210180
0.183547
-0.055933
-0.347452
0.049622
-0.072031
-0.186895
-0.040529
-0.173997
-0.150914
0.029217
-0.141236
-0.051346
0.031613
-0.107541
0.058493
-0.119013
0.126899
0.108404
-0.050302
0.240246
0.294330
0.053134
0.171278
0.134620
-0.018199
-0.038758
-0.122293
-0.024734
-0.119675
-0.317326
-0.209364
-0.171146
-0.320114
0.041611
0.016745
-0.114132
0.108638
0.098622
-0.172593
0.042028
0.105726
-0.182385
0.005782
0.030636
0.025833
-0.006958
-0.004077
0.223765
-0.120054
-0.152184
-0.003974
-0.080383
-0.128117
-0.066188
-0.257258
0.058969
0.058509
-0.102187
0.115702
0.066527
0.128337
0.102488
-0.031393
0.054754
0.223936
-0.037580
-0.036468
-0.116075
-0.197490
-0.055537
-0.073525
-0.096280
0.062210
0.021515
0.064597
-0.028818
-0.069132
-0.036194
-0.201619
-0.121085
0.058724
-0.299646
-0.046489
0.161183
-0.248159
-0.038630
0.005597
-0.229727
-0.274882
0.001553
-0.091502
0.051777
0.039737
0.098612
0.183349
0.128626
0.120438
0.204869
0.009149
-0.018429
0.046996
0.119149
0.038296
-0.050395
0.010671
0.167330
0.025299
-0.258908
0.236899
-0.091206
-0.150806
0.073514
-0.088144
-0.141212
-0.000982
0.044580
0.068653
0.101306
0.069777
0.153978
0.059531
-0.198024
-0.305241
0.096620
0.021241
-0.049396
0.237175
0.107855
-0.188405
-0.044950
-0.329032
-0.294933
0.035888
0.053245
-0.028041
0.038411
0.036296
-0.078424
-0.109835
0.004859
-0.035900
0.124954
-0.008339
-0.106438
0.015086
0.043708
-0.167456
0.120454
-0.021414
-0.306062
0.196073
0.043749
-0.168789
0.201212
-0.022060
-0.246488
0.015440
-0.236968
-0.288935
0.037735
0.050121
-0.028932
0.017476
-0.090308
-0.146545
0.200910
-0.055459
-0.030869
0.091026
-0.047609
-0.090136
0.204758
0.271423
0.042681
0.195304
0.196972
-0.141576
-0.177474
-0.228794
0.014203
-0.191343
-0.137144
-0.006839
0.043191
0.024832
0.088014
-0.245386
-0.059581
-0.159422
0.012602
0.242580
0.124183
0.126892
0.253445
0.171549
-0.005082
-0.063793
0.022903
0.008730
-0.179951
-0.099905
-0.135359
-0.107976
-0.012209
0.057314
0.032459
0.071866
-0.024159
0.011495
0.064441
-0.027962
0.029770
0.122583
-0.057651
-0.014174
-0.022156
-0.315519
-0.104209
-0.164524
0.035733
0.141879
0.024486
0.001571
-0.115633
-0.066270
0.023016
-0.164612
-0.141038
0.163981
0.021875
0.104966
-0.082185
0.153600
0.378180
-0.319846
-0.195487
0.096849
-0.147416
-0.154072
-0.274851
-0.126056
0.150794
0.164146
-0.228112
0.044671
0.286665
-0.015503
0.007714
-0.079400
0.179830
-0.098825
-0.110980
0.083651
-0.059206
-0.067830
-0.082886
-0.038887
0.092775
0.040055
0.169932
0.106773
0.137349
0.255971
0.196293
0.219798
0.256825
0.087290
-0.055880
-0.109233
-0.008785
-0.025357
-0.224602
-0.292833
-0.087215
0.068732
-0.072189
-0.024439
0.034724
-0.105635
0.075145
-0.015305
0.020127
0.055546
0.023308
-0.047340
-0.030732
0.103194
0.305707
-0.106483
-0.028955
0.144923
-0.059750
-0.257020
-0.169356
0.127355
0.026653
0.165811
-0.011446
-0.003977
-0.003392
-0.050514
-0.069406
-0.068508
-0.124764
-0.081938
0.114782
0.067587
0.222753
0.021463
0.036236
0.262248
0.227887
-0.115148
-0.022784
0.192717
-0.134720
-0.219233
0.204955
-0.289856
-0.159377
0.003576
-0.117118
0.170250
0.133712
-0.080709
0.051748
0.073908
-0.129474
0.037213
0.001820
-0.023405
0.102135
0.124280
-0.221095
0.025652
-0.084503
0.297430
0.251401
0.162676
0.164620
0.117421
0.198941
0.061730
0.060289
0.022331
0.268667
0.163542
0.032326
-0.095815
0.025116
-0.062400
-0.004461
-0.100004
0.144096
-0.148185
-0.086366
0.089573
-0.004044
0.120048
-0.039251
0.030899
-0.030773
0.004797
0.042337
0.114908
-0.051712
0.031150
0.290018
0.161372
0.100309
0.137893
0.020262
0.194069
0.074742
-0.052057
-0.113454
0.142275
0.023627
0.149912
-0.008724
0.165675
0.113088
0.051016
0.180679
0.327793
-0.087912
-0.275241
0.001654
-0.177380
-0.368140
-0.091282
-0.075185
0.023391
-0.075669
-0.158426
-0.096692
-0.227996
-0.570070
-0.370985
-0.271577
-0.410952
-0.317705
0.113638
0.281262
0.069565
-0.180202
-0.271266
-0.350220
-0.026763
-0.037601
-0.048577
-0.106151
0.011903
0.035075
-0.405169
-0.101306
-0.067064
-0.151924
0.068793
0.051299
0.151387
-0.091333
-0.170170
0.003388
-0.259815
-0.230158
-0.220766
-0.293515
-0.121962
0.016416
0.179843
0.269398
-0.190507
-0.007352
0.187910
-0.170746
-0.004577
0.071993
0.099774
-0.074295
-0.010285
-0.119998
-0.243942
-0.643953
-0.016621
-0.280512
-0.609109
-0.053996
0.053467
-0.002239
-0.015386
0.100365
-0.067456
0.032807
0.038545
-0.183034
-0.245901
0.212047
0.061461
-0.230965
0.001784
0.002280
0.027033
0.143816
-0.105386
0.072724
0.000132
0.038000
0.090993
-0.056036
0.070729
-0.160432
0.028731
-0.039243
-0.205390
-0.101317
0.035044
0.143136
0.029182
-0.097178
0.267670
0.239044
-0.038916
0.020761
-0.284873
-0.155672
0.016721
0.042214
0.013953
0.225610
0.119654
0.166631
0.105485
-0.027988
-0.024758
0.179503
0.052273
-0.100190
0.152253
-0.197081
-0.143955
-0.142906
-0.089765
0.128642
-0.082533
-0.104836
-0.251355
-0.023899
-0.014520
0.019147
-0.028857
-0.036478
0.127353
-0.054690
-0.004615
-0.153890
0.105498
-0.019001
-0.115534
0.100112
0.072923
-0.010209
0.005311
0.072340
-0.023133
0.127630
0.224844
-0.120776
-0.347308
-0.070843
0.071837
-0.147708
-0.143959
0.028148
0.069679
-0.045967
-0.262143
0.012755
-0.040980
-0.011447
-0.069973
0.042087
0.067382
0.219375
0.172078
0.197462
0.004807
0.131105
0.282578
-0.043922
0.121155
0.080075
-0.054705
0.045265
0.028374
0.059637
0.203148
0.341224
-0.126845
-0.028014
0.184266
-0.214676
-0.298985
-0.394114
0.061116
0.046220
0.003489
-0.087578
-0.036621
0.063685
-0.001593
0.001611
0.003237
-0.001587
-0.063273
-0.128206
0.153171
0.144066
0.132184
-0.004393
0.094543
0.189513
0.007260
0.136413
-0.118909
0.241342
0.123814
0.129549
0.121001
0.098715
0.011349
-0.176314
-0.072371
-0.087702
-0.475631
-0.290192
-0.318130
0.064330
-0.049295
-0.351452
-0.227671
-0.123084
-0.131713
-0.126154
-0.044955
-0.049982
0.045835
0.176821
0.231366
0.073636
0.043891
0.004176
0.047076
0.012373
0.057599
-0.057991
0.006909
0.048080
-0.385201
-0.188569
0.042883
0.030581
-0.177646
-0.089656
0.133447
-0.023842
-0.113616
-0.411437
0.167117
0.283325
-0.149060
-0.218080
-0.300339
-0.159727
-0.127457
-0.149322
-0.244219
0.040832
-0.091097
-0.061414
-0.088871
-0.050308
-0.142071
-0.045349
0.123931
-0.250358
0.052406
-0.118153
-0.328802
-0.069971
-0.327908
-0.400967
-0.073502
-0.163723
-0.180688
0.011041
0.177837
-0.111596
0.026747
0.022404
0.254045
0.100057
0.052106
-0.175867
0.216874
0.027755
-0.397578
0.212957
-0.256550
-0.615194
0.150105
-0.373844
-0.097321
-0.488974
-0.082669
-0.082889
-0.100704
-0.063197
-0.012887
0.025212
-0.035645
-0.181596
-0.163118
-0.258771
-0.146180
-0.202407
0.184293
-0.326626
-0.452532
-0.223782
-0.157472
-0.175081
0.175432
-0.119077
-0.087702
0.155609
0.101454
0.089321
-0.010793
-0.187341
-0.129716
-0.305806
-0.135553
-0.149216
-0.387163
0.026572
-0.099941
0.091159
0.070011
0.139029
-0.105490
-0.343509
-0.095640
-0.086253
-0.125645
-0.124652
-0.089642
0.034419
0.119739
-0.077528
0.138464
0.130466
0.024308
0.098827
0.103725
0.118624
-0.198487
0.049104
-0.296301
0.039274
0.119478
0.207109
-0.147708
0.190975
-0.063781
0.010102
0.155074
-0.007980
-0.066777
0.094521
-0.001773
0.035996
0.055064
0.003847
-0.057713
0.064265
-0.140546
-0.152833
0.144892
-0.125534
-0.158418
0.004054
-0.110633
0.067463
0.137284
-0.011483
-0.023872
0.030267
0.089062
-0.010582
-0.031074
0.195501
0.280760
0.207279
-0.000990
0.249265
0.023588
-0.037922
0.073655
0.168343
-0.423313
-0.082754
0.028693
0.112182
-0.241782
-0.074954
0.010965
-0.131371
-0.058483
-0.054755
0.075309
0.267158
0.263128
0.107101
0.120452
0.124244
-0.015164
-0.266242
-0.347497
0.056879
0.065267
0.056789
0.000600
0.219504
0.107885
0.000833
-0.046505
-0.089685
0.011201
0.047256
-0.000019
-0.058627
-0.076850
-0.139227
-0.314249
-0.261937
-0.259806
0.034217
-0.156255
-0.343048
-0.269185
-0.328369
-0.415567
-0.089656
-0.057024
-0.294730
-0.015012
0.027778
0.171502
0.068811
0.030430
-0.046092
0.123059
0.041024
-0.063361
0.162451
0.218262
0.144335
0.283123
0.212468
0.268170
0.158271
0.218336
0.057277
-0.183775
-0.120400
0.023263
-0.037637
-0.188213
-0.124319
-0.168596
-0.239512
0.017508
-0.240559
-0.320927
-0.416025
0.207290
-0.049979
-0.207512
0.218806
-0.029088
-0.084724
-0.027309
0.044457
-0.028545
-0.068887
0.047310
-0.105176
0.011243
0.040159
0.007060
-0.137940
0.000435
-0.026954
0.071188
0.138486
0.165821
0.076875
-0.020862
0.003556
0.049051
0.090594
0.029527
0.009438
0.124918
0.177148
-0.057899
0.104767
0.234293
-0.273068
-0.464358
-0.475524
-0.318307
-0.695098
-0.482944
0.016537
-0.026659
0.117380
0.031658
0.040518
-0.004438
0.097373
0.018722
-0.115649
-0.056049
-0.044141
0.007031
-0.022653
-0.092026
-0.046129
0.229158
0.178443
0.136318
-0.001113
-0.088322
0.141454
0.310605
0.053757
-0.120834
0.114946
-0.097475
0.055428
0.123911
0.137156
0.034053
-0.318994
-0.281788
0.305857
-0.257861
-0.098899
0.182142
-0.305536
-0.079179
0.015946
-0.137309
-0.224202
-0.127268
0.036567
-0.072041
-0.325242
0.056967
0.109338
-0.285730
-0.091583
-0.388250
-0.478046
-0.558153
-0.835564
-0.591560
-0.396796
-0.091520
0.073069
-0.174907
-0.110526
0.031692
-0.288928
-0.122988
-0.112572
-0.393797
-0.118133
0.130774
0.014166
0.029804
-0.112094
-0.320300
-0.438764
-0.531913
0.003008
0.011570
-0.244795
-0.050606
0.027345
0.051641
0.041605
0.172821
0.215446
-0.041535
-0.043207
0.024003
0.069362
0.143987
0.102082
0.032542
0.170372
0.230683
0.036063
0.096777
0.236706
0.241923
0.059413
-0.081154
0.187693
0.153458
0.175471
0.008191
-0.045641
-0.115756
0.094657
0.104210
0.068575
0.055728
0.011166
0.025855
-0.011883
-0.019130
0.154215
-0.268284
-0.486954
-0.082417
-0.482926
-0.162141
0.043225
-0.045422
-0.024627
-0.023925
0.006737
0.075862
0.127929
0.082581
0.063570
0.063628
0.179998
0.061917
0.180134
0.056773
-0.080675
-0.054150
0.190726
0.000548
0.158340
0.022143
0.053774
0.124090
-0.109888
-0.028120
-0.063163
0.177448
0.161455
0.169437
-0.115231
-0.089543
0.163269
-0.100921
-0.007941
-0.030597
0.007439
0.140056
0.080632
-0.141639
-0.088884
0.112153
-0.028795
-0.095535
-0.173423
-0.077569
-0.056048
-0.154916
-0.108823
-0.103071
0.025808
-0.037730
-0.312412
-0.408858
-0.259511
-0.417582
-0.605022
0.043655
-0.049552
-0.428139
-0.398993
-0.399801
-0.084064
-0.242226
-0.257789
0.108830
-0.311342
0.077371
0.150074
-0.200715
-0.068120
0.040852
-0.221102
-0.073998
-0.098718
-0.114333
0.039083
0.029609
0.019607
-0.143751
-0.041210
0.075841
0.065822
0.179975
-0.053605
-0.106883
-0.028134
-0.144664
-0.234293
0.105651
-0.077565
-0.063656
0.078095
-0.291219
0.075884
0.004404
-0.160031
0.141731
-0.019369
-0.069319
-0.119257
0.048409
-0.049738
-0.014791
0.114375
-0.019638
0.006298
-0.043102
-0.085409
0.025148
0.110197
0.029204
-0.123324
-0.043382
0.151565
0.061909
0.029534
0.168578
0.155837
-0.037631
0.057803
0.017270
0.045646
0.188030
-0.041710
0.122774
0.246347
0.106498
0.202016
-0.181835
-0.071493
-0.118181
-0.114086
0.059068
-0.044702
-0.112992
-0.094941
0.048361
0.266651
-0.017753
0.121911
-0.072199
-0.098183
-0.110047
-0.007271
-0.105988
0.052269
-0.023062
-0.197605
-0.044808
0.108487
0.073203
-0.091603
0.166714
0.171383
-0.091541
0.130232
0.318541
0.067165
0.013783
-0.137318
-0.159272
-0.055295
-0.016587
-0.066121
0.046231
-0.043260
0.004319
-0.000159
0.258221
0.296021
-0.354228
0.084816
0.322572
-0.299382
-0.037979
0.397005
0.018205
-0.163634
-0.235635
0.075716
0.017181
-0.078301
-0.033067
0.127181
0.013985
0.041509
-0.094831
0.035092
0.064425
0.074216
0.142133
-0.060770
-0.098092
-0.129296
0.124847
0.126477
-0.116142
-0.071346
-0.018213
-0.066517
0.055491
0.084803
-0.011471
-0.151054
-0.175439
-0.159899
-0.336076
-0.052844
-0.106272
-0.523572
-0.180965
-0.013130
-0.022624
0.074990
-0.065198
-0.005937
-0.042553
-0.140844
-0.076681
0.022713
-0.109097
-0.110724
0.112644
0.187640
-0.300477
-0.057939
0.279492
-0.345433
-0.163643
0.158757
-0.062585
0.078262
-0.040049
-0.198608
0.048551
0.216350
-0.103289
-0.027252
0.191267
-0.082074
0.222563
0.287493
-0.028540
0.018084
0.234386
-0.219842
0.019424
0.126151
-0.202164
-0.007881
-0.122744
-0.160440
-0.154413
-0.191435
-0.262520
-0.052501
0.061578
0.205656
0.098819
-0.137153
-0.033828
-0.116723
-0.319317
0.230860
0.122366
0.181534
0.060796
-0.116572
-0.111519
0.242150
-0.010880
-0.023259
0.043630
0.007884
-0.001401
-0.108851
-0.282783
-0.186258
0.152632
-0.054455
0.072857
0.017433
0.061886
-0.059692
-0.194595
0.112185
0.032303
-0.434188
-0.129554
0.118688
-0.328156
-0.243649
0.258624
-0.011719
-0.059100
-0.133116
-0.056125
-0.062383
-0.035553
-0.084598
0.027469
-0.106069
-0.007011
-0.023214
-0.096708
-0.070368
-0.162086
-0.367395
0.121079
-0.003644
-0.107600
0.023563
-0.149771
-0.174889
0.046718
0.043957
0.052514
-0.060783
-0.068080
-0.087525
0.193679
-0.145857
0.156622
0.122048
-0.009450
-0.079048
-0.115435
0.153755
-0.117631
-0.081157
-0.024245
-0.173953
-0.084007
0.010008
-0.072502
-0.039916
-0.058330
-0.155157
0.048638
0.163850
0.157645
-0.186931
0.007633
-0.006988
-0.165095
0.010162
0.034227
0.082789
0.175002
0.047505
0.200122
0.168236
-0.003437
-0.060770
-0.062467
0.023042
-0.183209
-0.090637
-0.166686
0.158668
-0.005870
0.064874
0.197113
0.182001
0.157619
0.088332
-0.015605
-0.237424
-0.111256
0.009898
-0.059392
-0.144166
-0.105271
-0.033710
-0.051747
-0.109515
0.005292
0.034280
-0.041294
0.037766
0.122558
0.060079
0.012063
0.062981
0.226136
0.125696
-0.083178
0.064705
0.188415
-0.214007
-0.233766
-0.158755
0.075867
0.058069
0.066645
0.053062
0.113975
-0.011839
-0.036723
0.039085
-0.059048
-0.004334
0.024857
0.054097
0.188635
0.197891
0.104964
0.001678
-0.146694
-0.133021
0.104600
0.122663
0.010329
-0.015732
0.016754
0.050905
0.170516
0.078461
0.108954
0.271911
0.052188
0.059260
-0.005984
0.028156
-0.166184
-0.033821
0.066109
-0.175002
0.044324
-0.065294
-0.007823
-0.050672
-0.043893
0.069327
-0.053830
0.079486
0.056642
-0.020238
-0.072659
-0.018854
-0.173551
-0.178209
0.159269
-0.263455
-0.285929
0.009270
0.117488
-0.096745
-0.055377
0.118337
-0.112108
-0.288234
0.022678
-0.032504
-0.080353
-0.177832
-0.110334
-0.230723
-0.001072
-0.095495
-0.225381
0.021951
0.139149
-0.005145
0.090541
0.177684
0.134889
0.025846
0.001387
-0.132170
-0.348656
-0.197424
-0.158304
0.055436
0.160127
-0.005886
0.070083
-0.019802
0.103414
-0.005572
-0.082033
-0.099042
0.041934
0.150850
-0.128163
-0.157971
-0.060990
0.056547
-0.120271
0.030957
0.040554
0.004627
-0.183971
-0.044808
0.006648
-0.162264
-0.125032
0.129722
0.095235
-0.015306
-0.167547
-0.159933
0.122886
0.068395
-0.069121
-0.014148
0.122296
-0.213586
-0.211494
0.090159
-0.063958
0.013223
0.195711
-0.061008
-0.269422
0.107295
0.201127
-0.234788
0.028138
0.133094
-0.028059
0.032873
0.097100
0.034023
0.007841
0.158501
0.114908
-0.015545
-0.137872
-0.197193
-0.124162
-0.046546
0.024579
-0.063546
0.148191
-0.032729
0.224497
0.145662
-0.077827
0.168983
-0.130005
-0.187324
0.196204
0.124270
0.100553
0.049538
0.034041
-0.040481
0.055849
-0.102285
-0.296260
-0.200367
-0.230411
-0.247542
0.061454
0.064998
-0.007393
-0.169161
-0.111167
-0.222711
-0.211385
-0.101129
0.037202
0.168848
0.121749
0.028024
0.116403
0.108027
0.057432
-0.268923
-0.265417
-0.210895
0.250908
0.180325
-0.068450
0.295422
-0.252126
-0.197222
0.149170
0.181768
0.014113
0.032282
0.033434
-0.013799
0.014674
-0.096987
0.025503
-0.032012
-0.089899
-0.262153
0.187551
0.122085
-0.035483
0.135322
0.085679
-0.352113
0.184502
-0.178863
-0.349578
0.178661
0.210719
-0.043738
-0.020615
0.128959
0.002802
-0.214046
-0.098075
-0.204269
0.035759
0.065966
0.000314
-0.132146
-0.018128
0.033977
-0.086195
-0.243464
-0.246923
0.074001
-0.086479
-0.115423
-0.052295
-0.067991
-0.063819
-0.057153
-0.068774
0.058946
-0.180244
-0.050319
-0.010481
-0.128391
0.078569
0.021507
0.087026
0.137845
-0.046283
0.154590
-0.158780
-0.246504
-0.084531
-0.308957
-0.278760
-0.073575
-0.081521
0.123871
0.100036
-0.103785
-0.156035
-0.191010
-0.006756
-0.031786
-0.255828
0.035008
0.094186
0.012238
0.044580
-0.036783
-0.297082
-0.398751
-0.267463
-0.008168
0.129529
-0.024012
0.048926
-0.033266
0.132376
-0.085081
-0.103630
0.001487
-0.261563
-0.144922
0.081825
-0.001520
-0.129674
0.138756
-0.017480
-0.324837
0.034454
0.111417
-0.138367
0.048127
0.068863
-0.142519
-0.071990
-0.056408
0.033787
0.090886
0.095144
-0.050179
-0.035405
-0.073080
0.080852
0.078679
0.117580
0.228234
0.279531
-0.034368
0.173782
0.430004
0.177244
-0.259108
0.076679
0.106651
-0.200533
0.050024
-0.029569
0.036416
0.131356
-0.126702
0.071688
0.048110
-0.103974
0.136815
-0.029775
-0.012036
0.049176
0.275267
-0.065219
-0.026618
-0.126652
-0.045975
0.106455
0.110271
0.055096
0.114509
0.001075
-0.203413
-0.320542
-0.221926
-0.032479
-0.148785
-0.140174
0.120231
0.084749
-0.188963
0.123391
-0.020707
-0.000000
0.066350
-0.113480
0.024779
0.037959
-0.148692
-0.035464
0.011235
-0.105913
-0.049390
-0.148121
-0.166434
-0.195140
0.064449
-0.246979
-0.141125
-0.147275
-0.145793
-0.189704
-0.015456
0.072513
-0.120044
0.035227
-0.168911
0.093323
-0.053332
0.060808
-0.016515
0.115233
0.109009
0.062396
0.110127
0.206571
0.107094
0.178711
0.001677
0.030522
-0.013400
-0.027332
0.052633
0.164054
-0.169001
-0.203292
0.014584
-0.409402
0.050742
0.002826
-0.549466
-0.118448
0.060849
-0.551893
-0.397007
0.022843
-0.071636
-0.220042
0.021127
-0.117257
-0.230131
0.060577
-0.136662
-0.161380
0.251116
0.006372
-0.165078
0.254505
-0.115987
-0.411569
0.141334
-0.021863
-0.269322
-0.275253
-0.338796
-0.134178
-0.028009
-0.275989
0.058650
0.308704
-0.485060
-0.215211
0.087997
-0.241473
-0.122169
0.182174
-0.427451
-0.344968
0.160628
-0.036118
-0.223133
0.253825
0.031325
-0.080669
-0.126219
-0.149978
-0.300218
-0.312384
-0.088478
-0.092759
-0.122051
-0.046133
-0.082553
0.203134
0.064857
0.111019
0.094015
0.084237
0.093852
-0.041405
0.080146
-0.039981
-0.189465
-0.105337
-0.102721
-0.031340
-0.024986
-0.085113
-0.114411
0.053210
-0.018020
-0.170782
-0.026443
-0.165876
0.056539
-0.053925
-0.014871
0.307504
-0.139386
-0.121677
0.154789
-0.179275
-0.204691
-0.202998
0.068456
-0.111308
0.082142
-0.097345
-0.028210
0.149255
-0.045835
-0.077131
0.149338
0.059083
0.078361
-0.091267
-0.214542
-0.142583
0.089334
0.003025
0.049132
0.048377
0.124315
0.186559
0.053234
0.054523
-0.022932
0.159907
0.124709
-0.027501
0.242749
0.037910
0.081065
-0.127074
-0.152689
-0.111395
0.027157
-0.015072
-0.048452
-0.078206
-0.056093
0.053050
0.276004
0.079490
0.119845
0.139390
0.058468
0.080749
0.053668
0.024631
0.080279
0.160614
0.012998
0.175812
0.034809
0.073048
0.062927
-0.275045
-0.019841
0.144149
-0.133883
-0.031163
-0.266224
-0.027863
-0.244617
-0.146947
0.250098
-0.174579
-0.206198
-0.046096
0.018639
-0.186598
0.038719
-0.014055
-0.207140
0.092835
-0.080752
-0.261044
-0.092979
-0.338133
-0.132343
-0.065326
-0.284289
-0.082620
-0.007221
-0.059368
-0.092670
-0.124377
0.033071
-0.243972
-0.020653
0.152307
-0.158465
0.159823
0.069465
-0.281014
-0.063381
-0.305146
-0.127232
-0.023716
-0.136320
0.053728
0.101752
-0.022657
-0.105220
-0.230566
-0.023423
0.013158
-0.145149
0.107571
0.008332
0.043423
0.128414
-0.008277
0.094992
0.029084
0.152572
0.095982
0.039892
0.040925
0.155828
-0.012920
0.133995
0.022453
-0.106517
0.005312
-0.065267
-0.017722
0.012229
-0.096956
0.164547
-0.070512
0.027273
-0.098418
0.028533
0.052900
0.020804
0.019712
-0.168488
-0.033647
-0.004169
-0.008608
-0.000366
0.000244
-0.059348
-0.009974
0.013242
0.004057
0.074675
0.068019
0.080978
-0.187798
-0.020333
-0.022179
-0.097367
-0.062403
0.203532
-0.115962
0.081719
-0.026322
-0.205943
0.084158
-0.055645
-0.235712
0.057022
0.005960
-0.150684
-0.018250
0.009891
0.344786
0.046633
0.145506
0.328305
0.043678
0.163647
0.215634
0.116956
-0.333661
-0.360493
-0.112400
0.015853
-0.361917
0.042693
0.005358
-0.089463
0.029482
0.109961
0.032602
-0.160612
0.117018
0.036295
-0.036619
0.120314
0.000138
0.033461
0.143466
-0.105452
0.051918
-0.149943
-0.115357
0.026118
-0.234741
-0.251456
-0.147722
-0.068933
-0.019869
0.032096
-0.145552
-0.023965
0.038429
0.019421
0.024830
0.057278
-0.066312
-0.049898
-0.017702
0.142084
0.153359
0.033952
0.204837
0.075134
0.081280
0.068515
-0.022566
-0.023772
0.090349
0.005578
0.073016
0.082791
0.023129
0.005456
-0.167169
0.058589
0.075930
-0.098238
0.164740
0.038485
0.011863
-0.007039
0.107673
0.034995
0.021468
0.005760
0.058187
0.084178
0.082613
-0.003123
0.216254
0.183766
-0.073477
0.044064
-0.105937
-0.209962
-0.064894
-0.069983
0.037984
-0.186428
-0.027512
-0.019227
-0.129771
0.016789
0.029999
-0.181477
-0.145325
-0.030992
-0.215821
0.082076
-0.064090
-0.163589
-0.016912
-0.115859
-0.311456
-0.236418
-0.256211
-0.371768
-0.022653
-0.084235
-0.482299
-0.237445
-0.066762
-0.357415
-0.232010
0.068740
-0.352020
-0.226829
0.033944
-0.012349
-0.028844
0.024476
0.217880
-0.126592
0.098499
0.099519
0.034060
0.166657
-0.008995
-0.041715
0.125173
-0.056780
-0.011608
0.135384
0.136772
0.007680
0.036134
-0.245017
0.022013
0.140813
-0.002215
-0.181077
-0.049570
-0.074389
-0.034104
-0.000659
-0.153362
-0.042446
0.001666
-0.158195
0.005345
0.205620
0.051332
0.080400
0.122446
-0.043655
-0.095994
0.160163
0.052312
-0.064562
0.084522
-0.086841
0.031607
-0.229055
-0.036602
0.005362
-0.030579
0.066045
0.049335
0.022188
0.147938
0.011659
0.118445
-0.023852
-0.239294
0.167066
0.007328
-0.082111
0.051145
0.272829
0.028511
0.073154
-0.125124
-0.127877
-0.261207
-0.452256
-0.197452
-0.219523
-0.092579
-0.101628
0.025490
0.091499
0.090164
-0.049623
-0.027468
-0.020504
-0.095330
0.028024
-0.071153
0.115325
0.079914
0.187207
-0.004776
0.119167
0.029184
0.069037
0.120976
-0.048883
-0.026705
0.138081
-0.035522
-0.094482
-0.121408
-0.168434
-0.249241
-0.197785
-0.156725
0.070037
-0.040489
-0.203649
0.027618
0.120260
0.046103
0.066576
0.111477
0.223650
-0.249052
-0.018027
0.017355
-0.059285
-0.177142
-0.217499
0.100968
0.011115
-0.228308
0.147440
0.273175
0.544688
-0.044878
0.196488
0.203866
-0.499662
-0.205989
-0.141483
0.054484
-0.061827
0.073177
0.083396
-0.138357
-0.247228
0.210990
0.016864
-0.037427
0.079243
0.112651
0.070542
0.133496
0.163173
0.098345
0.065508
-0.249610
0.075591
-0.027554
-0.064837
-0.121489
-0.080488
-0.020452
0.165380
0.012385
0.062689
0.009090
0.108102
0.051303
0.083860
0.140371
-0.020860
0.209979
-0.161402
-0.110291
0.022956
0.083057
-0.043250
0.102028
-0.145347
-0.140075
-0.219814
-0.091065
-0.165229
-0.037759
0.071760
-0.003321
0.028403
0.060220
-0.061231
-0.170766
0.104068
0.056194
0.041161
0.131771
-0.061265
0.036776
-0.077732
-0.117618
-0.031515
-0.189710
0.031707
0.197829
0.104846
-0.073714
-0.152934
0.146313
-0.044340
-0.220106
0.323572
0.121808
-0.058206
0.013581
0.038923
0.037704
0.105438
0.192165
0.301156
0.210593
0.054717
0.200911
-0.491726
-0.240659
0.101881
-0.105252
-0.446998
-0.215973
0.206663
-0.020938
-0.196097
-0.039971
-0.020446
0.091708
0.013454
0.017627
0.053797
-0.053259
-0.065104
-0.121252
0.003915
-0.243081
-0.014606
-0.088681
-0.390346
-0.366765
0.116113
-0.072487
-0.115797
0.076818
-0.109912
0.043091
0.055045
-0.127384
-0.051741
0.047528
-0.087865
-0.155451
0.150145
-0.019345
0.001121
0.156732
-0.193582
-0.339218
0.083674
-0.158418
0.072184
0.025879
-0.069350
-0.089028
-0.137047
-0.060615
-0.021929
-0.140679
0.020778
-0.040471
-0.039296
-0.024644
0.016882
-0.079713
-0.017210
0.113407
-0.298640
-0.043587
0.083822
0.064476
0.164557
0.027632
-0.053162
0.042494
0.203975
-0.054336
-0.037648
-0.040137
0.035755
0.041517
0.113239
0.082944
-0.046983
0.089164
-0.036340
0.004949
0.026849
-0.246206
-0.115518
-0.076732
0.015149
-0.251704
-0.052120
-0.015998
0.125889
-0.134671
0.103322
0.005476
-0.076003
0.086082
0.011156
-0.194456
0.218328
0.109295
-0.089129
-0.067844
0.016150
-0.088316
0.064388
-0.021772
-0.064859
-0.091581
-0.029930
-0.034663
0.031263
-0.089013
-0.064393
0.110800
0.030255
-0.042902
0.168418
-0.015431
-0.182018
0.158002
-0.147750
-0.109521
0.190502
-0.018116
-0.316390
0.185778
0.128825
-0.130441
0.133314
0.050113
-0.197777
-0.040604
-0.065541
0.003955
-0.025778
-0.041869
-0.002638
0.196286
0.089218
-0.042072
0.092553
-0.108181
-0.226787
-0.147970
-0.062833
0.090609
-0.113521
-0.021569
0.053102
0.018129
0.283808
-0.035553
0.106349
-0.133902
-0.072123
0.057844
-0.092247
0.005305
-0.125973
-0.033700
-0.349210
-0.151763
-0.098605
-0.332814
-0.023415
-0.115315
0.052130
0.007288
-0.046588
0.031965
-0.111105
-0.119785
-0.072787
-0.331809
0.059931
0.199238
-0.010608
-0.069436
-0.214189
-0.037183
-0.015029
-0.036206
0.063658
-0.105116
-0.037210
0.103877
0.129638
-0.010749
0.015138
0.154187
0.054970
-0.113581
0.124482
0.159839
-0.326415
-0.282930
-0.074952
-0.148408
-0.201878
-0.326955
0.120857
0.069208
-0.017695
0.130633
0.293399
0.002233
-0.258708
0.073035
0.068448
-0.146099
-0.175098
-0.008466
0.124198
-0.048564
0.050084
0.089193
0.307162
-0.075730
0.181335
0.288250
0.220661
0.266754
-0.063551
0.024666
0.179177
-0.037206
-0.214288
0.003140
0.162101
0.013346
0.042950
-0.036957
-0.167206
0.037245
0.064808
-0.052728
0.339845
0.218611
0.172288
-0.016779
0.094929
0.153373
-0.086862
-0.134134
0.075131
-0.013193
0.133773
0.029588
0.000585
0.050343
-0.056092
-0.091360
0.020008
0.084839
-0.087762
0.031610
0.116407
0.022256
0.017002
-0.078803
0.140262
0.304005
0.072697
0.183787
0.059034
0.047475
0.060264
0.026498
-0.019086
-0.008072
-0.163291
-0.125837
-0.214296
-0.267381
-0.195553
-0.026663
-0.130845
-0.290085
0.163733
0.083137
-0.291749
0.129801
0.041291
-0.114180
0.282749
0.268093
0.075852
0.010976
0.065729
0.140614
-0.062702
-0.208804
-0.035730
-0.096910
-0.158486
-0.170526
-0.344100
0.012486
0.176082
0.202416
0.183516
0.084459
0.235939
0.011915
0.032732
0.024235
-0.051827
-0.233429
-0.004864
0.084991
-0.033415
0.036028
-0.047083
-0.173533
0.075255
0.150390
-0.062493
-0.057395
0.022900
0.194073
0.132343
-0.059637
0.022096
-0.069727
0.060825
0.058614
0.176647
-0.048372
-0.107415
-0.106119
0.062379
0.010504
0.061379
0.202064
0.112691
-0.081884
-0.128711
-0.073492
0.027754
0.090457
0.003381
-0.210568
-0.150599
-0.129614
0.029940
-0.088055
-0.079864
-0.098254
-0.249909
-0.026136
0.074496
0.019500
-0.172658
-0.089005
0.011089
0.041709
-0.104761
0.024821
0.161678
-0.378098
-0.311951
-0.147878
-0.007482
-0.104126
-0.186508
-0.118523
0.101409
-0.134470
-0.080999
-0.156440
-0.160078
-0.104931
-0.022085
0.080341
-0.119803
-0.227606
-0.047375
0.082803
0.057301
-0.177237
0.032038
0.127348
-0.070547
-0.076040
0.053365
-0.114599
-0.024929
-0.137709
-0.063085
-0.124042
0.082962
0.026763
-0.383245
-0.346299
-0.325107
0.089321
-0.145051
-0.208145
-0.148436
-0.041467
-0.077941
-0.403864
-0.254990
-0.007935
-0.093608
-0.200681
-0.268601
-0.262724
-0.125964
-0.074440
-0.048201
-0.108165
0.185899
0.171049
0.254467
0.119323
-0.173009
-0.080098
-0.185973
-0.170390
-0.091579
-0.152615
-0.040832
0.068998
0.047975
-0.037834
0.140586
0.031402
-0.183924
-0.168386
-0.013885
-0.015288
0.111463
-0.162927
0.017997
-0.216784
0.115651
-0.189406
-0.185048
-0.285662
-0.133884
0.036384
0.139704
0.148167
0.135353
0.202473
-0.166588
0.022616
-0.050928
-0.119163
0.026466
0.081956
0.216603
-0.263309
0.123417
-0.168330
-0.196637
0.059025
-0.069669
0.037569
0.074760
0.034028
-0.044063
0.048281
-0.188931
-0.114204
-0.218131
-0.240051
0.004091
-0.031608
-0.275598
-0.421295
0.024129
-0.012729
-0.092416
-0.050354
-0.145265
-0.003526
0.031510
-0.251313
-0.167692
0.137714
-0.159753
-0.242139
0.193202
-0.150812
0.066922
0.158744
0.002041
-0.056064
0.012276
-0.023046
-0.003962
0.119129
0.099183
0.105741
0.203320
0.021189
-0.035339
-0.082781
-0.141648
-0.009004
-0.283368
-0.339298
-0.257144
-0.328621
-0.185218
-0.010772
0.125393
-0.294358
-0.213189
0.139642
-0.171692
-0.092530
0.104344
-0.013819
-0.007967
-0.017060
-0.062821
-0.055530
-0.041517
-0.029213
-0.034339
-0.096612
-0.092862
-0.049774
-0.129224
0.009360
0.178633
0.022135
0.087635
0.121147
0.080147
0.059281
0.047605
-0.086134
0.140799
0.118100
0.045388
0.130951
0.158855
0.096470
0.020065
0.232969
0.119947
0.216124
0.185836
0.194476
0.211185
-0.006309
0.062241
-0.144471
-0.433029
0.007297
-0.145456
-0.293737
0.115753
0.046466
-0.039871
0.180451
-0.009648
-0.053082
-0.100097
-0.149387
-0.164832
-0.074187
-0.087588
-0.184240
-0.118179
0.072731
-0.175631
0.092521
-0.053180
-0.118289
-0.283719
-0.180955
0.065011
-0.015527
0.058459
0.014048
0.085090
0.177764
0.008598
-0.045111
-0.034914
0.068018
-0.047843
-0.074412
0.194054
0.019585
0.038982
0.001453
0.069801
0.078898
0.137044
0.179069
0.014189
0.110116
-0.184780
0.032712
0.137980
-0.143051
-0.144058
0.033865
-0.059592
-0.119447
-0.195519
0.210965
0.102962
-0.095409
-0.085972
0.043416
0.204545
-0.116621
-0.008289
-0.009151
-0.011601
-0.006409
0.185487
0.036605
-0.175568
-0.136211
0.091620
-0.143277
-0.199933
0.329066
-0.406303
-0.562917
-0.013197
-0.249832
-0.343556
0.009940
0.014739
0.009581
0.097547
-0.122494
-0.061753
0.156695
-0.178759
-0.274178
0.078115
0.147811
0.060457
0.170962
-0.115286
-0.252534
0.247674
-0.232230
-0.088153
0.190285
-0.059152
-0.208702
-0.013297
-0.235737
-0.330807
0.056525
-0.134769
0.006881
0.179386
-0.021461
0.079672
-0.135867
-0.035608
-0.019440
-0.067604
-0.123294
-0.083886
0.057600
0.103267
0.109667
-0.066178
0.001555
0.168078
-0.008384
0.119151
0.135615
0.057143
-0.208683
-0.274097
-0.341539
-0.200757
-0.237448
0.107910
-0.092531
-0.162085
-0.016662
-0.033934
-0.170543
0.018229
-0.036943
-0.152070
-0.046045
-0.092768
-0.154853
0.186211
0.056260
-0.210545
-0.241068
-0.067122
-0.049178
-0.223418
-0.179012
-0.189063
-0.314085
-0.021629
0.030000
-0.034399
0.027210
0.012277
0.042786
-0.132799
-0.001949
0.141200
0.104205
0.184368
-0.069685
0.067618
0.167881
0.044608
-0.278144
-0.100559
-0.210784
-0.007961
0.001395
0.258912
0.067481
0.208930
0.143644
0.116656
-0.031293
-0.095810
0.142935
0.116674
0.168462
-0.032183
0.144392
0.183117
0.061549
0.023082
-0.022294
0.087617
0.126835
0.103862
-0.141703
-0.079274
-0.128696
-0.166257
0.006154
-0.222348
0.068698
-0.073848
0.143881
0.029170
0.001512
0.086459
0.027905
0.056250
0.181534
-0.209924
-0.185894
-0.023848
-0.326197
-0.466229
-0.234616
-0.109688
-0.329654
-0.248314
0.149239
0.063305
-0.291103
0.100341
-0.193393
-0.083026
0.092186
0.158296
0.242957
0.141476
0.185094
0.147963
0.051656
0.162173
-0.068402
0.052356
-0.041841
-0.065223
-0.033024
-0.057073
-0.114844
-0.107566
0.109197
-0.023553
-0.038874
0.086511
0.159710
0.109872
-0.020759
-0.369087
-0.392253
-0.393857
-0.638710
-0.195278
-0.139578
-0.276154
0.047533
0.092467
-0.033745
-0.032038
0.008976
-0.115002
-0.018611
-0.072853
0.006589
0.164798
0.038330
-0.085624
0.105305
0.027203
-0.281336
-0.045219
-0.078878
-0.120978
-0.048163
0.004598
0.231964
-0.056450
0.029757
0.042077
0.013005
-0.069583
0.146631
-0.163839
-0.029935
0.028420
-0.247280
-0.019224
0.117633
-0.126655
0.056332
0.235121
0.155899
0.116119
0.069998
-0.001703
0.183179
0.070958
0.133955
0.073458
0.091818
0.126549
0.159421
0.120587
0.015644
-0.071654
-0.078058
-0.117373
-0.215455
0.010381
-0.190454
-0.093233
-0.025468
-0.232704
-0.217558
-0.154351
-0.219232
-0.161714
-0.108643
-0.113332
0.113488
0.148864
-0.165617
0.008084
0.110461
-0.099320
0.168859
0.055131
-0.064147
-0.119711
-0.024509
-0.052027
0.093325
0.034679
-0.013396
0.134159
-0.018649
-0.092748
0.057492
0.202740
-0.283844
0.038662
0.135131
-0.143744
0.040758
0.268450
-0.072313
0.156239
0.155179
-0.204699
-0.047962
0.084237
-0.365029
-0.200630
0.087376
-0.147732
0.006426
0.008563
-0.297578
-0.125767
0.123973
-0.385566
-0.072824
0.241549
0.075239
0.198134
0.314208
-0.160614
-0.030373
0.102396
0.220544
0.138828
-0.145474
0.338682
0.149292
0.027425
-0.179994
-0.292857
-0.303571
0.087629
-0.127572
-0.301658
0.164750
-0.051224
-0.024899
-0.024825
0.079653
0.096421
-0.046142
-0.019119
0.008643
0.000644
0.111673
0.126659
-0.119931
-0.064767
-0.170121
-0.114426
-0.072957
-0.163391
0.085936
0.030918
0.190488
-0.107324
0.094647
0.254831
0.114224
0.277737
0.181357
-0.022823
-0.077129
0.173650
-0.070797
-0.106121
-0.020544
-0.042391
-0.000397
0.083427
0.228888
0.286051
-0.000399
-0.138140
-0.073538
-0.146260
0.263185
0.076300
-0.207323
0.268516
0.141114
0.048104
-0.068236
-0.003272
-0.074958
0.044998
-0.134164
-0.148178
0.259383
0.064383
-0.016094
0.205635
-0.097129
0.029837
-0.029732
-0.104084
0.236947
-0.029893
0.055382
0.115727
-0.288834
-0.149727
-0.050164
-0.225434
-0.184849
-0.055333
-0.213844
-0.233781
-0.073350
-0.252146
-0.259349
-0.025911
-0.304792
-0.087488
0.040655
-0.006051
-0.045409
-0.327530
-0.043046
-0.053880
-0.057207
0.042745
-0.100128
-0.114224
-0.048147
-0.227565
-0.217398
-0.196425
-0.019603
-0.037125
-0.086131
-0.132354
-0.147054
0.061384
0.069821
0.138168
-0.044776
0.066569
0.168488
-0.133670
0.009967
0.058386
-0.204082
-0.035223
-0.144478
-0.322409
-0.123331
-0.218082
-0.103730
-0.153887
-0.011797
0.030034
0.218574
0.186717
-0.210401
0.199905
0.095931
-0.289300
0.057243
0.083445
-0.198776
0.040385
0.216210
-0.192681
-0.122282
0.044666
0.098129
0.051346
0.064995
-0.443961
-0.543272
-0.478720
0.090439
-0.059127
-0.044123
0.220815
0.142365
0.163189
-0.049232
0.047226
0.035374
-0.210025
-0.109201
-0.115331
-0.256706
-0.191885
-0.072847
-0.113152
-0.058967
0.047052
-0.279799
-0.128018
0.062713
0.111713
0.232032
0.133971
-0.034930
0.020364
0.035867
-0.107369
0.020167
0.057784
-0.030745
0.004570
-0.175613
-0.051632
-0.000169
0.018312
0.018994
0.021534
0.066109
-0.048824
0.089342
0.038809
-0.027243
0.074901
-0.043580
0.102146
0.120643
-0.125311
0.036666
0.245975
0.059569
0.084588
-0.421860
0.193087
-0.509240
-0.372564
-0.207447
-0.514166
-0.438546
-0.210761
0.109545
-0.017287
0.082687
0.111326
0.192038
0.173292
-0.022944
0.007669
0.030581
0.007242
0.024613
-0.045207
-0.144408
-0.088482
-0.055639
-0.119229
-0.214141
-0.109688
0.066944
0.110780
0.008574
0.015069
0.056700
0.074827
-0.040420
0.062505
0.032058
-0.150617
-0.272671
0.100776
-0.121351
-0.276561
-0.075594
-0.366271
-0.287212
-0.087514
0.068304
-0.012255
0.037058
-0.016759
-0.039945
-0.004009
0.029901
0.053372
0.223777
0.070312
0.052994
-0.137315
-0.219919
-0.061764
-0.257730
-0.377136
-0.114941
-0.231846
-0.100107
-0.000513
0.122326
-0.243747
0.037530
-0.132649
-0.291949
-0.014451
0.003219
-0.185158
0.245212
0.143335
-0.488310
0.009562
-0.117960
-0.379287
-0.176752
-0.041842
-0.019979
0.081420
0.060972
0.067691
-0.030803
-0.064213
0.075558
0.030239
-0.025523
0.113192
0.114192
-0.023741
0.121786
0.136104
0.085069
0.208746
0.258091
0.146254
0.064777
-0.004731
-0.125108
0.002052
-0.156973
-0.035516
0.063437
0.068714
0.088615
0.137028
0.195279
0.138852
0.137096
0.166136
0.095193
0.030711
0.096849
0.110024
0.107900
-0.181306
-0.025231
-0.053851
-0.279869
-0.150227
-0.250166
-0.175326
-0.124116
0.041495
0.111370
-0.047807
0.025929
0.016688
0.103427
-0.047430
0.087915
0.142607
0.103188
0.061584
0.067402
0.030339
0.088228
0.044580
0.128761
0.031475
-0.056464
-0.123270
0.043566
0.056727
-0.000185
0.041409
-0.026206
0.127489
-0.015872
0.031166
-0.167611
0.006677
0.075884
-0.041149
-0.005292
-0.125461
-0.219833
-0.108627
-0.017737
0.057863
-0.096527
-0.128403
-0.055420
-0.096815
-0.116366
-0.112022
-0.066231
0.000926
-0.112395
0.172802
0.110787
-0.019393
0.169113
0.190423
-0.001336
0.244398
0.162973
-0.092718
-0.146402
0.006902
-0.035405
-0.064244
0.129392
-0.156718
-0.125047
0.303217
-0.183475
-0.211594
-0.212170
-0.267477
-0.212721
-0.110329
-0.362999
-0.177938
0.049391
0.011011
0.102618
0.031073
-0.005327
-0.045572
-0.048195
0.031446
-0.044490
-0.110608
-0.257553
-0.109957
-0.045431
-0.298134
-0.123117
0.132043
-0.188261
0.045815
0.107200
-0.029192
0.255480
0.091311
0.220908
0.116828
0.084752
0.108301
0.104503
-0.160153
0.132551
-0.080055
-0.013505
-0.223853
-0.413589
-0.193358
-0.301375
-0.327382
-0.126605
-0.078542
-0.067856
0.080229
-0.175475
-0.050457
0.037822
-0.049777
0.102482
0.015271
-0.146022
0.128710
0.084067
0.039062
-0.101195
-0.030949
-0.159602
-0.158710
-0.202460
0.044025
0.063073
0.092391
-0.017271
-0.045814
-0.030936
0.015847
-0.019834
0.160575
0.038898
-0.014041
0.069896
-0.007249
-0.058168
0.013239
-0.032620
-0.079562
-0.018308
0.143736
0.168373
-0.017183
0.042836
0.001018
-0.017473
-0.314245
-0.177732
-0.267014
-0.040145
0.030249
0.056976
-0.026715
0.081787
0.070524
-0.138737
0.166574
-0.013135
-0.089536
0.039415
-0.009553
-0.096170
-0.128482
-0.023496
-0.006088
0.008552
0.056484
0.194124
-0.005755
0.031143
0.015768
-0.016248
0.038973
-0.107826
0.024485
-0.061763
-0.461460
-0.325955
-0.370893
-0.520542
-0.312018
-0.326903
-0.248932
-0.334561
-0.437933
0.099734
0.111670
0.004942
0.194769
0.028133
-0.043246
0.350163
0.146146
-0.087197
-0.042300
0.039381
-0.090566
0.123266
0.048948
-0.108192
0.095977
-0.054990
-0.131539
-0.040757
-0.050288
0.151949
-0.008268
-0.067307
-0.050646
-0.180342
-0.025850
-0.139834
-0.123848
0.131462
0.137799
-0.096157
0.029551
0.114279
-0.141680
0.015569
-0.064142
-0.123269
0.040261
0.088356
0.019966
-0.066133
0.092274
0.093589
0.085052
0.093407
0.095486
0.130193
0.041670
0.195139
-0.012355
-0.002099
0.013006
-0.003912
0.068570
-0.083505
-0.239703
0.049354
-0.029235
0.021025
-0.082776
-0.318536
-0.194343
0.057211
0.087786
-0.052730
-0.160417
0.040239
0.154406
-0.024583
-0.081400
0.029180
0.057644
-0.065811
-0.219273
-0.156627
-0.075449
-0.151222
-0.078871
-0.032518
-0.174959
-0.154872
0.015274
0.081543
-0.052036
-0.085828
0.042468
0.168386
-0.047646
0.185196
0.075978
-0.025574
0.069102
-0.168241
-0.148735
-0.061987
-0.041579
-0.137087
-0.120408
0.116153
-0.142501
-0.055030
-0.039637
-0.106352
-0.067661
0.024607
-0.035687
-0.054565
0.037022
0.054998
0.067974
0.138940
-0.142418
0.113116
0.028661
-0.117810
0.101017
-0.130681
-0.254326
-0.260084
-0.202953
-0.450823
-0.357453
-0.704358
-0.123582
-0.319176
-0.483336
0.086512
-0.233787
0.084402
0.098109
-0.071399
0.016147
0.065416
-0.302137
0.023741
0.038660
-0.063365
0.005527
-0.015266
-0.000975
-0.016382
-0.033199
-0.037454
-0.114903
-0.034776
0.048347
0.190140
-0.098505
-0.019849
0.109045
0.028723
0.129962
0.183826
0.017016
-0.088461
-0.021778
-0.069655
0.109567
0.198505
0.099689
0.140050
0.033516
0.002458
-0.111426
-0.028000
-0.226707
0.058592
0.024237
0.169981
0.181991
-0.107318
-0.117849
-0.044749
-0.001570
0.018293
0.005988
-0.102611
0.068985
0.032019
-0.178190
-0.167704
-0.089574
-0.069345
-0.203998
0.184925
-0.044953
0.158392
0.069806
-0.137657
-0.291527
-0.053346
-0.048573
-0.133507
-0.288594
-0.091705
-0.010039
-0.041364
0.076248
0.099990
0.059661
0.132573
0.123169
0.066184
-0.028970
0.015763
0.094428
0.051813
0.035798
0.071607
0.022875
0.262137
0.400029
0.142660
-0.011257
0.116223
-0.024334
-0.097078
0.103327
-0.232963
0.049779
0.112192
-0.189972
0.132526
-0.038661
0.115088
-0.039426
-0.042073
-0.045012
-0.251992
-0.144348
-0.095784
0.047682
-0.070931
-0.036650
-0.047744
-0.022997
-0.174851
-0.039261
0.076448
0.063308
0.005995
0.003960
-0.005629
0.010861
0.006682
0.186564
-0.047833
-0.053706
0.163761
-0.129574
-0.194000
-0.064729
-0.053311
0.060852
-0.159218
0.066282
0.038548
0.011705
-0.044860
-0.147206
0.066090
0.020717
-0.032008
0.116256
-0.120229
0.106049
-0.081374
0.123378
0.152013
-0.006601
-0.036002
0.158065
0.018310
-0.050591
0.075586
0.036493
0.165047
0.037978
0.131611
0.056617
0.089404
-0.066845
-0.004286
0.127909
-0.017520
-0.117644
-0.062736
-0.166442
-0.200483
0.046651
0.067754
-0.236539
-0.201537
-0.014749
0.122100
0.123536
0.102002
0.104993
-0.076843
-0.115256
0.008944
-0.154644
0.106703
-0.210161
-0.027567
0.166614
0.035820
0.041630
0.041916
-0.010281
0.129971
-0.048100
0.133727
0.020586
-0.010669
0.037943
0.135310
0.069407
0.024790
0.050067
0.023343
-0.050375
0.075546
0.178103
-0.153321
-0.097711
0.057278
-0.103232
-0.106685
0.018027
0.029056
-0.111389
0.084448
0.078629
0.111306
0.131364
-0.090166
-0.030413
0.070398
-0.218752
-0.009954
0.099065
0.166230
-0.116515
-0.156372
0.004928
-0.127986
-0.039931
0.167882
0.375156
0.244599
-0.053419
-0.038507
-0.114513
0.200891
-0.182735
-0.092730
0.197402
0.014826
0.002873
0.132074
0.098770
0.088368
-0.167765
-0.140953
0.100402
0.204748
0.177852
0.153802
-0.083562
-0.106619
-0.058686
-0.102483
-0.005339
-0.083871
0.214422
-0.047250
-0.001327
0.171733
0.059071
-0.169122
-0.158453
-0.257644
-0.006766
-0.039487
0.285324
0.121887
-0.010246
0.017816
-0.076306
-0.047162
-0.038991
-0.097021
-0.259321
-0.267032
-0.176738
0.130208
-0.058324
-0.104422
0.228325
-0.035545
-0.186993
-0.107318
-0.139125
-0.112658
0.012878
0.094645
-0.005913
0.054031
0.116039
-0.056174
-0.015333
-0.072703
-0.137567
0.000815
0.181190
-0.208704
-0.018051
0.198216
0.084696
-0.114877
-0.083605
-0.209044
-0.247829
-0.046685
0.016135
-0.166538
0.036042
0.166093
0.068422
0.064299
0.171188
0.004081
0.219273
0.028028
-0.053398
-0.119873
0.002737
-0.024498
-0.164857
-0.079118
0.035199
-0.061233
0.091946
0.111360
-0.123366
-0.093960
-0.046301
-0.139005
-0.011862
0.075098
0.018431
0.132537
0.018866
0.141077
0.177263
-0.112405
0.072829
0.026921
-0.080799
0.028501
0.151768
-0.166719
-0.221249
-0.130040
-0.137847
-0.244625
-0.150092
0.126721
0.070316
-0.017033
0.121558
0.114076
0.041877
-0.173285
0.019501
-0.096270
0.035754
-0.002767
-0.176344
0.032025
0.016311
-0.047336
-0.239168
-0.101977
-0.068688
-0.120737
0.133209
0.015979
0.087635
-0.111405
0.053836
0.020236
-0.018704
0.087168
0.126261
0.044305
0.104054
-0.254142
-0.226065
-0.156980
-0.130930
-0.198784
-0.159674
-0.265300
-0.008209
0.013498
-0.265935
0.003147
-0.120913
-0.233696
0.039128
0.103875
0.265230
0.284967
0.038296
0.216658
0.148089
0.067158
0.112779
0.120688
0.019156
-0.030567
-0.117603
-0.145303
0.013642
-0.015543
-0.105394
0.060144
-0.039139
0.145542
-0.071174
-0.086556
0.041111
0.022129
-0.130699
0.132317
0.153216
-0.088283
-0.097263
0.187983
-0.207423
-0.142442
-0.146098
0.069293
-0.035062
-0.200390
0.127078
-0.091062
0.132471
-0.080023
-0.228798
0.108347
0.165728
0.066724
-0.061608
0.079099
0.300994
-0.055365
-0.058458
0.070320
-0.236531
-0.333391
-0.143688
-0.096950
-0.227088
-0.192564
-0.121092
-0.157041
-0.044757
0.007302
-0.037294
-0.139990
0.205661
0.135866
-0.200293
0.089158
0.040063
0.087049
0.047269
0.304633
0.080231
-0.417675
-0.221529
0.049032
0.040558
-0.275288
-0.250959
0.054355
0.068108
-0.090605
-0.019526
-0.040805
-0.065157
0.225248
0.079360
0.207379
-0.073267
-0.135628
0.004496
0.120612
0.026787
0.020676
0.054036
-0.171319
-0.104860
-0.029167
-0.066846
-0.058030
-0.007699
0.081058
-0.051878
0.106596
-0.094925
-0.147467
0.046086
0.133929
-0.058154
-0.267615
-0.130319
-0.028245
0.175553
-0.008437
0.026407
-0.084425
0.059276
-0.045526
-0.232654
-0.049362
0.029543
0.088088
0.139276
0.122428
0.131299
0.246688
0.111876
-0.176062
-0.182618
-0.037342
0.084538
0.141363
0.240163
0.004077
0.098025
0.144706
-0.062122
-0.061038
-0.110752
-0.125672
0.099286
0.211040
-0.232814
-0.052087
0.070391
-0.446763
-0.334571
-0.138100
-0.107741
-0.083012
0.009337
-0.027121
-0.234524
-0.110514
-0.098956
-0.137201
-0.106261
-0.025487
-0.025531
0.073747
0.009633
0.091650
-0.101871
0.088318
0.098915
0.032056
0.058499
-0.160235
-0.029242
0.150257
-0.110701
-0.142837
0.123053
0.060183
-0.104864
-0.206475
-0.192223
-0.139146
0.069096
0.129565
0.171140
-0.190805
-0.006958
0.081850
-0.063107
-0.100875
0.138558
-0.018911
-0.076432
0.033598
0.130723
0.049613
0.015108
-0.077543
0.055406
0.037554
-0.022348
0.051416
-0.195070
0.110958
0.184908
0.043901
0.193437
0.036405
-0.052124
0.091906
0.005797
0.017323
0.072168
-0.007426
-0.100823
-0.014001
0.064247
-0.067334
0.210754
0.077593
-0.096845
0.041111
0.253172
0.138917
-0.158544
-0.247294
-0.063015
0.037456
0.071626
0.013318
0.078931
0.149438
0.112290
0.007178
-0.390509
-0.240180
-0.141539
-0.192230
-0.010282
-0.116114
-0.027520
-0.045434
-0.120065
-0.266799
-0.253602
0.047734
0.193212
0.156357
0.035188
0.228069
0.252888
-0.266076
-0.086619
-0.320020
0.003492
-0.321105
-0.216685
0.134570
0.092554
-0.026221
0.203164
-0.101237
-0.216417
0.106394
0.131726
-0.108772
0.159740
0.182577
-0.130798
0.101073
-0.031803
-0.063535
0.281427
0.096266
0.038534
0.024692
0.215171
0.024123
0.141176
0.000223
0.094951
0.160893
0.027605
0.034015
0.291152
0.046331
0.062254
-0.012614
-0.050962
-0.003972
-0.050603
0.081831
0.084872
0.074033
0.132002
0.144806
0.009563
-0.013423
0.025836
0.018787
-0.358737
-0.365108
0.079874
-0.065579
-0.306299
0.075983
0.036798
0.057875
-0.039628
0.018128
0.123266
0.052561
-0.088463
-0.074189
0.274727
0.157608
0.271814
-0.101632
-0.085826
0.147128
0.097271
-0.007247
-0.008225
0.040414
-0.082682
-0.060608
0.035722
-0.064868
-0.123441
0.034814
0.090121
0.010556
-0.499590
-0.667587
-0.482250
-0.460349
-0.515277
-0.410045
-0.186123
-0.095856
-0.127311
0.018535
0.112079
0.048155
0.098542
0.088688
0.081698
0.031692
0.059735
0.137646
-0.010051
-0.011369
0.004048
-0.083045
0.034477
0.042714
-0.029580
0.138839
0.124444
0.204510
-0.063015
-0.038916
0.308235
0.141776
-0.085537
0.008573
0.041780
-0.013751
0.040849
-0.151866
-0.042801
0.013583
-0.155920
0.148151
-0.243479
0.007663
0.260551
-0.002703
0.026661
0.139991
0.167472
-0.017579
0.039066
0.104351
0.150813
0.157639
-0.119173
-0.029307
-0.130178
-0.027054
-0.059741
-0.123000
-0.166254
0.000469
-0.084681
0.083199
-0.230138
-0.254681
0.089687
-0.023127
-0.112378
-0.006151
0.255986
0.138105
0.061860
0.014565
-0.002502
0.024760
0.080705
0.018190
-0.137270
0.071396
-0.050527
-0.161168
-0.631968
-0.546741
-0.085208
0.025276
0.002249
0.035081
-0.083080
0.166328
-0.007832
-0.010807
-0.108829
-0.063543
-0.166492
-0.083482
-0.073589
-0.262760
-0.263609
-0.061727
-0.173188
-0.138823
0.081744
0.065911
-0.004155
0.113149
0.124303
0.172005
0.104029
-0.171791
-0.070256
0.054944
-0.041195
0.116467
-0.186851
-0.028513
0.059306
-0.248009
-0.164700
0.049521
-0.251608
-0.300702
-0.131973
-0.304342
-0.547520
-0.186924
0.042469
0.127680
0.177172
0.054313
0.044828
0.137276
-0.009516
0.021237
0.047667
0.167030
0.157220
-0.024556
-0.068684
-0.026940
-0.021328
0.093883
-0.022472
-0.231977
-0.056075
0.099761
0.002081
0.025048
0.109174
-0.023426
-0.073015
-0.042682
0.000862
-0.041031
0.038073
-0.076654
0.006467
0.174383
0.106431
-0.096286
0.091172
0.138157
-0.008987
0.048670
0.154412
-0.010092
-0.026614
0.110982
0.014192
-0.019065
-0.044871
-0.345656
-0.054450
-0.039935
-0.310168
-0.036709
-0.290843
0.015083
-0.102644
-0.137742
-0.091603
0.036084
-0.046641
0.173306
0.257920
-0.199190
-0.186108
-0.113238
-0.116522
0.040161
0.119251
0.205205
-0.038301
0.229174
0.003179
-0.420204
-0.216961
-0.298414
0.157069
0.014001
-0.064011
-0.135293
-0.241191
-0.279043
-0.333052
-0.513565
-0.346612
-0.117929
0.026432
-0.203779
0.198034
-0.034270
-0.374068
-0.342788
-0.446212
-0.221540
0.226796
-0.083291
-0.100318
0.246786
-0.213774
-0.093581
-0.286320
-0.072786
-0.367844
-0.010936
0.125443
-0.319692
-0.167327
-0.122191
-0.165091
-0.156129
-0.059651
-0.050247
0.154847
-0.262950
-0.228753
-0.039661
-0.030601
-0.088737
0.048026
-0.065810
-0.087168
-0.090744
-0.033270
-0.250163
0.365626
0.095764
-0.265539
-0.348628
-0.336946
-0.187583
0.115983
0.189725
-0.084436
0.265335
-0.083243
-0.311658
0.132662
-0.036991
-0.055961
-0.030282
0.000925
-0.141096
0.064017
-0.090637
0.001030
-0.046680
-0.112242
0.031583
-0.016239
-0.116793
-0.111654
-0.080036
-0.069361
-0.029714
0.013890
0.022761
-0.103716
-0.024319
-0.257267
-0.193014
0.030031
-0.073387
-0.110523
-0.191070
0.173953
-0.043755
-0.151099
0.124721
0.152651
-0.010955
0.247056
-0.078925
-0.178640
-0.584761
-0.138270
0.143300
0.122002
-0.162095
0.093814
0.007716
-0.113821
-0.037163
0.072529
-0.080050
-0.162546
0.071220
0.069223
0.046837
-0.011632
-0.074898
-0.047327
-0.161432
0.036484
0.148407
0.120060
-0.206326
0.414180
0.034742
-0.050260
-0.238232
-0.228769
-0.334639
0.147882
0.061501
-0.205447
0.277808
-0.280154
-0.099980
-0.118786
-0.382074
-0.250361
0.135558
-0.089342
-0.188014
0.209207
-0.059507
-0.150819
-0.215007
-0.253046
-0.264902
0.163795
-0.147912
-0.015286
0.460984
0.092860
0.015381
-0.237412
-0.205761
-0.015725
0.027381
0.238464
-0.085334
0.319597
-0.158957
-0.059635
-0.063432
-0.106441
-0.283327
0.301970
-0.031449
-0.034975
0.362890
0.083548
-0.286990
-0.420450
-0.331104
-0.509751
-0.125169
-0.085495
0.029659
-0.084166
0.255713
-0.088406
-0.296920
-0.354934
-0.152764
0.308523
0.190604
0.059053
0.047541
-0.010364
-0.174529
-0.020599
0.081666
0.171790
0.095685
0.059461
0.082626
0.003342
-0.063849
-0.026451
-0.207490
-0.340031
-0.127174
0.093483
0.008801
-0.110954
0.031061
-0.163362
-0.193907
-0.134732
0.037404
-0.021028
0.220103
-0.113651
0.013425
-0.242813
0.295865
0.073461
-0.180679
0.021280
0.111624
-0.118450
-0.257603
-0.241583
-0.106831
-0.120226
-0.161427
-0.165001
-0.077386
-0.040075
0.157683
0.079228
0.045702
0.046028
-0.034831
-0.105882
0.027634
0.104967
0.004503
-0.010490
-0.030723
-0.143232
0.070994
-0.153380
-0.063590
0.085136
-0.012164
0.183500
-0.077011
-0.030006
-0.172619
0.114615
0.133201
-0.235753
-0.092717
-0.571758
-0.357234
-0.110153
0.002125
0.058567
0.051011
0.088518
0.187403
0.025274
0.087432
0.134366
0.151915
-0.004879
-0.411037
0.098174
0.068121
-0.312244
-0.154564
-0.252557
-0.319412
-0.063510
0.125302
-0.115660
0.114560
0.088005
0.029743
-0.019258
-0.164383
0.126869
0.119788
0.096779
-0.211679
0.063054
-0.094070
-0.061959
-0.067086
-0.260022
-0.040455
-0.133740
-0.153740
-0.177706
-0.104065
-0.245005
-0.197173
-0.410149
-0.317815
-0.011855
0.022526
0.164090
0.004250
0.080466
0.172103
0.045168
-0.100822
0.066381
0.176291
0.030978
-0.173842
-0.103273
0.118240
0.124069
-0.135188
-0.054473
0.182418
0.033138
-0.067951
-0.143880
-0.047225
0.054189
-0.112727
0.071534
0.038125
-0.018359
0.081649
-0.048338
-0.097314
-0.124672
-0.186511
-0.357544
-0.119837
-0.180645
-0.109835
-0.075193
-0.131799
0.172339
-0.018850
-0.143485
-0.089333
-0.006343
-0.065012
-0.117553
-0.170561
0.038004
-0.017410
0.002186
0.138692
0.019061
-0.057954
0.050803
0.159662
0.030518
0.048427
0.087890
-0.025478
0.004597
0.017630
-0.103204
-0.049100
-0.103119
-0.057775
-0.101202
-0.107720
0.001897
0.076634
0.060402
0.191184
0.094232
-0.038242
-0.101622
-0.011650
-0.022552
0.069549
-0.042277
0.014835
0.170662
0.007540
0.198532
0.094777
0.022906
0.044159
0.018741
0.091343
-0.003200
-0.119449
0.012501
-0.009971
0.016542
-0.090595
-0.003271
0.123853
0.020718
-0.095771
0.109690
-0.019694
-0.081907
0.109755
-0.045821
-0.219577
-0.058047
-0.007400
-0.271338
0.111377
-0.044906
-0.032691
0.055549
0.014185
-0.004118
0.053780
0.121471
0.037074
-0.076403
-0.139024
0.091306
-0.049186
0.060262
0.042317
0.168291
0.066290
0.098194
0.108238
0.133766
0.105629
0.039140
-0.042881
0.033267
0.029627
0.026393
0.000884
0.027245
0.046304
0.097115
0.107670
-0.061758
0.091082
0.103856
-0.027982
0.016174
0.257429
-0.107423
0.009323
0.007507
0.051994
0.018755
0.090495
0.086207
0.114999
0.001961
-0.049277
0.199254
0.062169
-0.076836
0.133284
0.048024
-0.113252
0.077479
0.011454
-0.046632
-0.115708
-0.081863
0.021422
0.090914
0.093881
-0.063372
-0.022439
0.049359
-0.054322
-0.120533
0.091968
-0.132219
-0.101897
-0.100204
0.088772
0.073686
-0.067663
0.042458
0.052963
-0.173256
-0.117048
0.040042
0.253033
-0.203320
-0.415570
-0.135530
-0.217602
-0.402892
-0.338310
-0.148133
-0.144099
-0.031460
-0.062042
-0.088796
0.004072
-0.310393
-0.006448
0.113005
0.001042
0.107065
0.256094
-0.021862
0.290020
0.136365
0.070878
-0.016747
-0.088299
-0.196384
-0.164140
-0.215084
-0.161149
-0.113057
-0.006788
-0.013608
0.013904
0.038700
-0.075861
-0.125145
-0.121277
-0.036106
-0.113689
0.003076
0.031496
0.166160
-0.138286
-0.056780
-0.192545
-0.030743
-0.194419
-0.186322
-0.051006
0.003102
-0.003535
0.080785
-0.271777
-0.147139
0.063982
-0.154046
-0.223995
-0.060889
-0.118963
-0.181549
0.126918
0.101164
0.141647
-0.015347
0.100192
0.103246
0.035569
0.120048
0.124397
-0.016068
-0.085524
0.144763
-0.099201
-0.034282
0.061803
0.146317
0.124193
0.207976
0.103429
-0.476325
-0.297445
-0.078752
-0.107784
0.093966
0.029530
-0.081753
0.212860
0.068554
-0.145850
-0.142578
-0.047594
-0.172410
-0.249503
-0.271495
0.014349
0.174181
0.043728
-0.257351
0.035007
0.257931
0.051323
0.137117
-0.126046
-0.155491
-0.069700
-0.300171
-0.288676
-0.248805
0.158496
-0.029139
0.087112
-0.105909
0.002427
0.116558
-0.159631
-0.047387
-0.168948
-0.059847
0.065688
-0.063932
-0.616022
0.011198
-0.161388
-0.064447
0.449109
0.004604
0.122960
0.350491
-0.017288
0.240720
-0.045482
-0.242622
0.020966
-0.514164
-0.334054
-0.072835
-0.497881
-0.361029
-0.223460
-0.212638
0.023092
0.040948
-0.020909
0.031101
0.252871
-0.108950
0.315018
0.039149
-0.012073
0.243461
-0.040254
0.009064
0.042475
-0.002351
0.016774
-0.043606
0.065829
0.114177
-0.062664
0.035756
-0.016189
-0.064374
-0.075976
-0.032639
-0.040557
0.087755
-0.056305
-0.020101
-0.009401
-0.053042
0.225203
0.086070
-0.149030
-0.094881
-0.003597
0.145159
0.131933
0.240887
-0.456001
-0.424314
-0.122033
-0.420281
-0.273285
-0.027119
-0.230261
-0.036783
0.197659
-0.194623
-0.218240
-0.015400
-0.370658
-0.161466
-0.041206
-0.134549
-0.108971
0.036085
-0.151559
-0.080650
0.076760
-0.046659
0.153117
-0.148687
-0.103448
0.087883
0.328976
-0.128380
-0.100043
-0.244323
0.011237
-0.052740
-0.172888
-0.210852
-0.207377
-0.077543
-0.043314
0.086957
0.264073
0.036199
-0.116454
-0.215894
-0.160582
-0.197127
-0.313514
0.288916
-0.034616
0.202971
-0.043285
0.089658
0.293691
0.178952
0.257605
0.059431
0.071975
-0.114867
-0.185080
0.021699
-0.231460
-0.036406
-0.015900
-0.154022
0.222451
-0.312686
-0.152434
-0.464684
-0.261427
-0.367320
0.007344
-0.247786
-0.077341
0.266220
0.091552
-0.057009
0.062766
0.100233
-0.054955
0.035007
-0.034303
0.057433
-0.101610
0.030227
0.075484
-0.185317
-0.130246
-0.095891
-0.098645
-0.150955
-0.123909
0.200570
-0.217363
-0.195541
0.112630
-0.034030
0.123137
0.279178
0.027102
0.142278
-0.195208
0.006161
0.065499
0.030410
-0.106045
-0.012325
0.070172
0.083185
0.088410
0.165099
0.135200
0.103418
0.184927
0.119088
0.167010
0.148960
-0.163505
-0.152474
0.029648
-0.221896
-0.274675
-0.056756
-0.088287
-0.014930
-0.176278
-0.404781
-0.072303
0.054127
-0.202202
-0.250768
0.088154
-0.076911
0.232585
0.240040
0.137676
0.351207
0.208694
-0.233751
-0.206932
-0.181584
-0.156932
-0.030690
0.007556
-0.162914
-0.130626
0.109465
-0.054802
0.003490
-0.041460
-0.024467
-0.070191
0.168715
0.147570
0.216587
0.315075
0.083985
-0.090756
-0.043834
0.074786
-0.069415
-0.010148
0.160080
0.023318
-0.033698
-0.077509
-0.205533
-0.007774
-0.118388
-0.020013
-0.210988
-0.232826
-0.129332
0.124698
0.215578
0.021939
-0.072216
0.121561
0.047492
-0.020357
-0.060336
0.013508
0.100035
-0.133712
-0.547059
-0.270393
-0.351953
-0.544109
-0.096793
-0.376506
-0.430397
0.263509
0.037715
0.096635
0.311145
0.154624
0.150242
-0.083178
-0.077760
-0.074665
0.078565
0.113636
0.087556
0.051781
0.058653
0.117076
-0.006671
0.103362
-0.104451
-0.131545
0.090698
0.244015
0.197612
-0.186027
-0.235190
-0.126334
-0.212199
-0.233382
-0.092583
0.051057
0.089162
0.213933
0.125553
-0.015154
-0.228850
0.147907
-0.015267
0.076003
-0.127306
0.134297
0.017719
-0.200897
-0.309522
-0.010419
-0.192768
-0.103793
-0.040731
0.072212
0.227844
0.065018
-0.006015
0.066942
0.044235
0.035389
-0.041705
0.075806
-0.081739
0.122332
0.177190
-0.379656
-0.206118
-0.114647
-0.070408
-0.115043
-0.005017
-0.026814
0.104842
0.153643
-0.252356
-0.151729
-0.279378
-0.143880
-0.325860
-0.311628
0.393662
0.126364
0.071387
-0.002017
0.038609
-0.017534
-0.043496
-0.076604
0.130556
-0.060990
0.063292
-0.063785
-0.076951
0.118246
0.053231
0.026087
-0.032024
-0.012107
0.146301
0.087565
0.171379
-0.148379
-0.127795
-0.127743
-0.284465
-0.198994
-0.317376
-0.056721
0.029742
0.129821
0.147556
0.058118
0.056399
0.148737
0.264455
0.170374
-0.017623
0.005444
0.096974
-0.084369
-0.009055
0.015215
-0.014634
-0.062337
-0.142377
-0.098044
0.023174
-0.179967
-0.160844
-0.115488
-0.294666
-0.220574
-0.112703
-0.185300
-0.039749
-0.074190
-0.002810
-0.036728
-0.123395
-0.101018
0.018464
-0.338529
-0.209569
0.116541
0.178581
0.262279
-0.019792
0.035964
0.154086
-0.165696
-0.292997
0.014366
-0.032167
0.068068
0.296545
0.075158
0.132857
0.199112
-0.043392
0.155606
0.040899
-0.033424
-0.101990
0.109605
-0.358776
-0.428723
-0.406476
-0.268152
-0.256079
-0.105989
0.049401
-0.042437
0.162762
-0.013850
-0.284295
-0.139901
-0.186068
-0.139861
-0.093564
0.089715
0.068237
0.055022
-0.054166
0.027542
0.265982
-0.116692
0.035053
0.077078
-0.040969
-0.051762
0.191247
-0.322408
-0.357972
-0.117351
-0.380689
-0.328535
-0.256612
0.163899
0.160271
0.279722
-0.065862
0.138627
-0.059900
-0.102630
-0.005713
-0.218230
-0.007569
0.058325
0.146324
-0.134111
0.021755
0.122790
-0.154752
-0.159435
-0.216692
0.194098
0.232747
0.142674
0.050663
0.002554
-0.001150
-0.540903
-0.764177
-0.256388
-0.009187
0.123112
0.253793
0.036482
-0.029598
0.081013
-0.180271
-0.194880
-0.005657
-0.355395
0.021511
0.235581
-0.102612
0.068114
0.018109
-0.016378
0.080122
-0.043449
0.075212
0.156901
0.106902
0.054052
0.011747
0.027439
0.066922
0.035188
-0.018873
-0.103508
-0.238903
0.086808
-0.393857
-0.456193
-0.102835
-0.222051
-0.260425
-0.207906
-0.218059
-0.173310
-0.015271
-0.316914
-0.374753
-0.140439
-0.146248
-0.199361
-0.149241
-0.257079
-0.339346
-0.239348
-0.085203
-0.070738
-0.377584
-0.095881
-0.304937
-0.317020
-0.049312
-0.020536
-0.089954
-0.034937
-0.110389
-0.002963
0.075720
-0.020354
0.163963
0.025954
-0.067725
-0.087135
0.061148
0.181884
-0.127569
0.107055
0.069891
0.182507
0.055025
-0.159521
-0.230666
0.196498
0.009294
0.097521
0.153167
-0.006447
0.100134
-0.029918
-0.195601
-0.235049
-0.108569
-0.122531
0.031869
-0.004735
0.007918
0.152240
-0.140202
-0.168929
-0.220879
-0.087224
-0.074473
-0.094828
-0.168120
-0.021485
-0.057166
0.049256
-0.239072
-0.181387
-0.072897
-0.344365
-0.087233
0.151390
0.024275
0.446908
-0.027125
-0.360001
-0.107317
0.150395
0.037458
-0.003645
0.081905
0.155134
-0.075001
0.156888
-0.072573
0.111831
-0.078315
-0.143608
0.010936
-0.022395
0.001299
-0.071732
-0.162328
-0.264213
-0.195955
0.220976
0.006877
0.049306
0.164237
0.044195
0.141717
-0.043555
-0.052060
0.153050
-0.136825
-0.105420
0.105763
-0.125960
-0.005872
0.109974
-0.157111
-0.111897
-0.164956
-0.036631
-0.097327
-0.074018
0.023414
0.086951
0.031203
0.049911
-0.075123
-0.115461
-0.009225
-0.203856
-0.112985
0.000296
-0.129349
-0.108494
0.044904
0.051465
0.052924
0.068184
0.136001
0.108294
-0.053819
-0.082297
0.032714
0.159940
-0.078456
-0.037586
0.097410
0.060170
-0.043353
0.161389
0.195954
0.246291
-0.153065
-0.664667
-0.643095
-0.324894
-0.713034
-0.409938
-0.066277
-0.215497
-0.087334
0.084073
0.081724
0.095370
0.084473
0.185473
0.281924
0.045100
-0.082488
0.039223
-0.079208
-0.097669
-0.025075
-0.286581
-0.143123
-0.207891
-0.507855
-0.329355
-0.218085
-0.020056
-0.271889
-0.360735
0.223259
0.014683
-0.017010
0.177915
0.058576
0.095481
0.070954
-0.116760
-0.177589
-0.043732
-0.009602
-0.088480
0.087513
0.054536
0.049907
0.048441
-0.086581
0.010307
-0.061693
-0.029031
0.096404
0.015595
-0.076648
0.057058
0.084032
-0.307133
-0.149075
-0.046029
-0.491701
-0.155731
0.006103
-0.054821
0.104988
-0.193871
-0.335032
-0.314481
0.092670
0.030057
-0.060135
0.214663
0.136562
0.048907
0.050950
-0.346495
-0.130651
-0.000931
-0.227505
-0.060815
0.080665
-0.131437
-0.057440
0.002035
0.270702
0.251871
0.040670
0.092438
0.155786
0.030974
0.142280
0.201657
0.093866
0.079337
0.173454
-0.160372
0.026134
-0.076155
0.064583
0.134656
0.115901
0.103753
0.183482
0.277735
-0.026033
0.127440
-0.048141
-0.113263
-0.102396
-0.149212
-0.014721
-0.060063
-0.087539
0.084227
0.080605
0.217456
-0.002410
0.044810
0.249135
0.095536
-0.192282
0.087449
0.109179
-0.284622
-0.151977
0.121805
-0.017067
0.008533
0.011735
0.054618
0.039838
0.116268
-0.061180
0.142444
-0.081977
-0.087181
0.034293
0.087985
0.064176
0.050671
-0.164665
0.000249
0.006188
0.062354
0.096487
0.226797
-0.060273
0.090207
0.051123
-0.053676
0.044549
-0.057260
-0.064141
-0.055496
-0.037957
-0.026742
-0.027983
-0.235715
-0.066534
-0.102763
-0.194265
-0.124927
-0.157429
-0.232332
0.053505
0.015682
-0.211674
-0.051087
0.008485
-0.129920
0.027551
0.177835
0.035706
-0.186007
-0.357065
-0.064869
-0.129364
-0.058697
0.046447
0.362595
0.184810
0.011785
-0.028687
-0.135966
-0.155702
0.133412
-0.072425
0.218095
0.117566
0.008946
0.010642
0.174913
-0.132313
-0.203035
0.219046
-0.036371
0.195661
0.137370
0.127156
-0.077251
-0.229425
-0.370604
-0.318385
-0.044488
-0.379003
-0.343905
-0.159119
-0.100634
-0.242474
-0.006873
-0.151371
-0.083113
0.209708
0.082476
0.115691
0.162270
0.157227
-0.016857
-0.126669
-0.095144
-0.054957
0.006387
0.012335
0.096480
-0.028523
0.113756
-0.025853
-0.182848
0.049781
0.029481
-0.183243
-0.034897
0.130634
-0.129375
-0.029975
0.068600
-0.030266
0.001704
-0.049088
0.066056
0.132166
0.139870
0.030314
0.105869
0.156798
0.040544
-0.223984
-0.394824
0.242042
-0.282431
-0.043998
0.155159
-0.098049
0.114648
-0.402863
-0.384037
0.115112
-0.013567
0.130684
0.019118
-0.009738
0.119094
0.120355
0.011173
0.057459
-0.055679
0.034213
0.036480
-0.001853
-0.090388
0.017852
-0.019592
-0.287427
-0.133439
0.182206
-0.038872
0.062400
0.115081
-0.021743
-0.073358
-0.201553
0.144004
0.127495
0.040466
-0.082859
0.052652
-0.023419
-0.043662
0.053144
0.005033
0.042063
-0.032637
-0.225543
-0.050054
-0.006395
-0.098035
0.006283
-0.018113
-0.017524
-0.316238
-0.636818
-0.313732
-0.365259
-0.345942
-0.121332
-0.267118
0.000854
-0.253100
0.080752
-0.369893
-0.175313
0.054635
-0.401394
-0.332198
0.159380
0.116384
0.095655
0.005573
-0.103524
0.014198
0.000067
0.153969
0.227484
-0.151255
0.010857
0.003840
-0.057423
0.046089
-0.056242
0.002778
0.007033
0.083542
0.122296
0.126948
0.185376
-0.470539
-0.666642
-0.473080
-0.105423
0.052178
0.006211
0.020025
0.126074
-0.029527
-0.028907
-0.182316
0.004897
-0.144886
-0.022892
-0.031239
0.073491
0.007561
-0.006555
0.137725
0.087136
0.085515
0.024629
0.097721
0.120377
0.034824
0.100530
0.153794
-0.031774
-0.397913
0.138242
-0.017140
-0.258641
-0.164131
-0.028253
-0.123070
-0.118869
0.084187
-0.073512
-0.324691
0.236962
0.136957
0.099555
0.215014
0.147379
0.171592
-0.378397
-0.595211
-0.286612
0.081085
0.213681
-0.036313
0.056843
0.180335
0.174995
-0.017819
-0.145903
-0.060760
-0.396466
-0.378559
-0.194143
-0.328918
-0.148756
-0.305746
-0.069289
-0.121880
-0.157251
-0.245112
-0.196193
-0.016431
-0.135650
0.058738
-0.264571
-0.289638
-0.247437
-0.542780
0.115895
-0.055516
0.171397
0.294211
0.078893
0.152590
-0.095009
-0.007572
0.152452
-0.084212
-0.035378
0.034582
0.008864
0.099610
0.027424
-0.464514
-0.652031
-0.342935
0.132524
0.177438
0.021614
0.169736
0.159325
0.065758
-0.393151
-0.405650
-0.028915
-0.072038
-0.087855
-0.157067
-0.141304
-0.165709
-0.187693
-0.021077
-0.278266
-0.369674
-0.011265
-0.114411
-0.074956
0.091515
-0.045989
-0.027599
-0.051098
-0.107583
0.034655
-0.108734
0.094466
-0.070150
0.010730
0.139638
0.028054
-0.047363
-0.041874
0.176208
0.080569
0.027041
0.085672
-0.028315
-0.188880
0.060141
0.111309
-0.009462
-0.161713
0.012311
-0.026138
-0.026109
-0.077496
-0.019081
-0.128792
0.041401
-0.152231
-0.112669
0.002464
0.020911
0.042237
-0.049277
-0.038889
-0.065859
-0.080992
-0.091561
0.027010
-0.148579
0.086769
0.251440
-0.372727
0.001272
0.161501
-0.034366
-0.243226
-0.334640
0.036386
0.089345
-0.057797
-0.006689
-0.086047
-0.276488
0.116513
0.094859
0.019755
0.030957
0.153470
0.111035
0.028356
0.124507
-0.144263
-0.116167
-0.042137
0.011706
-0.064230
0.137528
0.302032
-0.051948
-0.081471
0.024799
0.318639
0.007424
0.074257
-0.065797
-0.211670
0.169826
-0.068067
-0.355834
-0.184685
-0.225284
-0.032080
-0.046102
0.099968
0.061946
0.236225
-0.098834
0.060452
-0.106636
-0.100980
-0.226354
0.061781
-0.024958
-0.146696
0.024729
-0.181796
0.057984
-0.055959
0.034446
0.061949
0.030286
0.061476
0.025563
0.056243
0.071775
0.089870
-0.002832
-0.044386
-0.027023
0.130659
-0.067666
0.084989
0.183364
-0.073147
0.157615
0.275622
0.028078
0.008257
0.016284
-0.074395
0.134634
0.089629
0.101568
0.052132
-0.013988
0.078657
-0.042333
-0.036498
0.084475
0.205648
0.160726
0.085054
0.149013
0.022083
0.113983
-0.028483
0.191404
-0.067869
0.117262
0.168079
-0.014815
0.032226
-0.125215
-0.266261
-0.096847
0.067349
-0.203747
-0.020612
0.187509
-0.082259
-0.000149
0.080748
-0.070555
0.048420
0.098791
-0.166192
0.037389
0.049201
-0.392181
-0.283162
-0.179382
0.002178
0.076066
0.052951
0.037635
0.076255
0.023440
0.151437
-0.086088
-0.020270
0.025974
-0.020654
0.059233
0.006322
-0.165053
-0.007775
0.000676
-0.073321
-0.126563
-0.149543
-0.122839
0.043564
0.082661
0.036300
0.171272
0.062383
-0.089675
-0.084599
-0.017941
0.156023
-0.036875
-0.000547
0.185757
0.068873
-0.083391
-0.051130
0.075412
-0.110008
-0.046587
0.132794
0.150208
-0.073791
0.141072
-0.015424
-0.095705
0.072912
0.028411
-0.056385
-0.204314
0.083824
0.120282
-0.079450
-0.144248
0.162733
0.034155
-0.174602
0.007659
0.151058
-0.006524
0.061907
0.151036
0.020721
0.168366
0.204262
-0.197111
-0.019504
0.097325
-0.094107
-0.114742
-0.026170
-0.129398
-0.042905
0.183334
-0.005296
-0.042598
-0.089062
-0.229581
0.171930
0.279748
-0.040634
0.110078
0.079523
-0.063357
0.054020
-0.072860
0.113055
-0.013577
-0.012736
-0.019840
-0.010356
0.139577
-0.195509
0.014258
0.184713
-0.167212
0.005120
0.217750
-0.045351
0.023260
0.089547
-0.080743
-0.162043
0.048327
-0.104738
0.038313
0.128092
0.028518
0.057165
0.001402
-0.122704
0.034937
0.074032
-0.161502
0.149550
0.275332
-0.143608
0.050867
0.171778
-0.034816
-0.052831
0.033220
-0.142957
-0.028582
0.312711
0.059217
-0.008722
0.075768
0.039766
0.175487
-0.051552
-0.058137
0.020687
-0.007411
0.146487
0.049950
0.080397
-0.146280
-0.194058
-0.108727
0.020724
-0.193961
-0.138161
0.036934
0.032059
-0.293248
-0.079380
-0.043971
0.119599
-0.187087
-0.129605
0.125406
-0.074132
-0.052178
-0.065301
0.148440
0.077680
0.170592
0.164378
0.173494
0.143286
-0.097675
0.042195
-0.002911
-0.154652
-0.122353
0.119097
0.062424
-0.000891
0.034260
0.025921
0.138932
0.049730
-0.061740
0.016509
0.140787
-0.095624
-0.320042
-0.109251
-0.145711
0.043676
0.009106
-0.055468
0.054576
-0.023869
0.245275
-0.001233
-0.110007
0.135767
0.117320
0.048312
-0.134392
0.056053
0.140572
0.006806
-0.172933
0.089515
0.370743
0.185124
-0.040761
0.226724
-0.045404
0.146922
0.038579
-0.023682
-0.090284
-0.213917
-0.284783
-0.271393
-0.171128
0.123048
0.091733
-0.200555
-0.133794
0.041341
-0.028217
-0.188681
0.244532
0.051271
0.127644
0.070493
-0.167482
-0.133586
-0.156178
0.158294
0.016863
-0.002035
-0.008219
-0.065080
-0.203546
-0.044677
-0.040953
0.004764
-0.026286
-0.007095
0.049351
-0.177299
-0.218561
-0.174272
-0.041344
-0.172263
-0.247984
0.117913
-0.104266
-0.143578
-0.151506
-0.277310
-0.063896
-0.143338
-0.077220
-0.208041
-0.070743
-0.230078
-0.348046
-0.258608
-0.247822
0.026082
-0.301559
-0.535911
-0.148747
-0.006835
-0.023858
-0.228092
-0.067324
-0.161795
-0.077311
0.119523
0.135976
0.029008
-0.056618
0.146433
0.102328
-0.107661
-0.008620
-0.046621
-0.021560
0.096865
0.087578
-0.043325
-0.001540
0.006818
-0.076515
0.038737
0.209225
0.051374
-0.231529
-0.105963
0.185159
0.011858
0.042838
-0.179011
0.180767
0.375317
-0.112222
-0.455784
-0.226223
-0.076533
-0.158346
-0.143051
-0.424685
-0.301875
-0.255301
-0.250663
-0.375310
-0.335180
-0.145914
-0.212308
-0.384370
-0.105506
-0.158090
0.063195
-0.052352
-0.339116
-0.154634
0.109618
-0.036198
-0.007183
-0.161775
0.289935
0.223039
-0.082015
-0.101526
0.016934
0.102524
0.202884
-0.223538
0.024455
-0.107614
-0.009867
0.033074
-0.073276
-0.334032
-0.026677
0.109116
-0.070200
0.070981
-0.006508
0.179280
-0.046119
-0.053660
0.053134
-0.150326
-0.020789
0.019779
-0.002080
0.073735
0.096215
0.062880
-0.059063
-0.091234
0.087956
0.095066
0.214596
0.054634
0.070173
0.035436
-0.053285
-0.155969
-0.122648
-0.042955
0.033923
0.067537
-0.097930
0.011936
0.043265
0.076589
0.037745
-0.000928
0.019057
0.012786
0.094310
0.107077
-0.109165
0.067803
-0.156786
-0.341737
0.090038
0.124202
-0.048518
0.139863
0.004010
0.141226
0.090195
0.004993
0.032075
0.049505
0.127041
0.135754
0.055896
-0.002295
0.077089
-0.106662
0.085310
0.057225
-0.022513
0.077238
-0.021404
0.026526
0.049663
0.068017
0.019970
0.091329
-0.024224
0.008957
0.135183
0.117752
0.111450
0.062023
-0.001107
-0.221825
0.040092
0.027924
-0.131357
0.079487
-0.028277
-0.022353
0.078322
-0.106328
0.016766
0.064702
-0.038802
-0.038925
0.042982
0.018210
0.070465
-0.189350
-0.175900
-0.064500
-0.276709
-0.414943
-0.182629
-0.080405
-0.210475
-0.149016
-0.091626
-0.167175
-0.057379
-0.191397
-0.045975
-0.126956
-0.356073
-0.109507
-0.141733
-0.288966
-0.146783
-0.129185
-0.324992
-0.137221
-0.148213
-0.312496
-0.037924
-0.206194
-0.097227
-0.145535
-0.018575
0.037097
0.179517
0.025303
0.154232
0.237922
-0.071211
-0.359249
0.012360
0.137394
-0.008187
0.100742
0.033683
-0.138927
0.100894
-0.013207
-0.380568
-0.116926
-0.007275
0.106004
0.087162
-0.029771
-0.018290
-0.022905
-0.048140
0.029616
-0.285939
-0.119552
0.252328
-0.070753
0.065783
0.231819
-0.107777
0.022929
0.068690
0.172802
-0.013171
0.104167
0.274627
0.139107
-0.098166
0.026107
-0.082278
-0.134812
-0.050263
-0.265946
0.000293
0.182311
0.230048
0.019339
0.180165
0.127792
0.079230
0.005405
0.060334
-0.210472
-0.084145
-0.021236
0.034674
-0.066620
-0.142370
-0.069872
-0.020609
-0.036007
-0.023346
0.052591
0.034228
0.008837
-0.080864
0.017786
-0.152740
-0.057723
0.085473
-0.194140
-0.154723
0.137445
-0.062610
0.037250
0.198621
0.056583
0.000011
0.016264
-0.145070
-0.136340
-0.040518
-0.164413
-0.056135
0.006034
0.030529
0.052502
-0.067972
0.006479
0.074924
0.162222
0.121457
0.101395
0.163538
-0.133653
-0.162499
0.045357
-0.181735
0.002248
0.016105
-0.166207
0.036124
-0.095075
-0.023271
-0.023811
-0.080948
0.047974
0.183767
-0.006735
0.047318
0.015355
-0.114361
-0.030682
-0.032848
0.072465
-0.008350
-0.013880
0.090119
0.026827
0.009041
0.131844
0.212478
-0.079560
-0.133863
0.027372
-0.287342
0.146943
-0.061884
-0.093450
0.128364
-0.048110
-0.114301
0.092326
-0.013893
-0.007846
-0.186280
-0.101841
-0.180663
-0.099180
-0.110133
-0.131471
-0.086608
0.118867
0.074344
-0.065227
0.126694
-0.021225
0.079360
0.011120
-0.092280
-0.033469
0.006351
-0.168307
0.162636
-0.113028
-0.182747
0.007649
-0.233449
-0.170367
-0.099898
0.059131
-0.038880
0.126303
0.213380
0.157222
0.195144
-0.008805
-0.050249
0.192729
0.134403
0.059424
0.038841
0.041012
0.063287
0.125613
0.182640
0.167178
0.143203
0.006848
0.119560
0.052747
0.003676
0.202195
0.168633
0.058744
0.125913
0.124354
0.060884
0.105958
0.009765
0.126170
0.263803
0.071527
-0.031879
0.004308
0.060116
0.136760
0.156189
0.013401
0.048538
0.116514
0.114021
0.017593
-0.213888
-0.175704
-0.044209
-0.086342
-0.174211
-0.026295
0.039380
0.053183
-0.167890
-0.083350
-0.087717
-0.163344
0.021555
0.024176
-0.153628
-0.157971
-0.045218
-0.055404
0.015459
-0.109441
-0.086704
-0.108158
0.032622
-0.021674
0.128802
0.078229
-0.056164
-0.013015
-0.240108
0.006097
-0.088041
-0.159778
0.098319
0.161983
-0.130557
-0.084359
0.065382
-0.160319
-0.041765
0.184840
0.114554
0.066269
0.051416
-0.231597
0.058291
0.038384
-0.010020
-0.098778
-0.049338
-0.015448
-0.055311
0.003646
0.020621
-0.131111
0.099366
0.173533
-0.116656
-0.017125
0.100874
0.093538
0.024845
-0.019755
-0.023145
0.066464
-0.097161
0.000965
-0.016407
-0.158791
0.141013
0.031283
-0.045699
-0.028808
0.062197
0.039423
-0.005483
-0.071161
-0.158546
-0.096754
-0.368100
-0.243350
-0.083679
0.007076
-0.036763
0.023981
-0.132090
-0.092246
-0.153106
-0.054500
-0.019961
-0.067223
0.214906
0.155563
-0.209181
-0.273892
-0.140441
-0.201634
-0.226796
-0.060878
-0.009385
-0.010224
-0.044511
-0.065434
0.040875
-0.034696
-0.011811
0.150972
0.036131
0.211189
0.285761
0.149079
-0.302904
0.100788
-0.014874
-0.140797
-0.152529
0.054391
-0.052611
-0.082943
0.113765
0.144884
0.107559
0.159653
0.140180
0.211592
0.060047
0.286572
0.397442
0.252252
-0.411733
-0.339242
-0.267226
-0.018704
-0.130349
0.095311
0.139392
0.095844
0.080382
-0.002796
0.147221
0.136971
-0.130414
-0.197015
-0.040367
0.053014
0.042629
-0.015670
0.069665
0.082198
-0.060470
0.102350
-0.052212
0.030490
0.040354
0.106562
-0.029844
0.079859
0.170318
0.087972
0.105319
0.031741
0.024900
0.037330
0.057966
-0.207249
0.075842
0.018012
-0.065572
0.131215
0.160620
0.168829
0.165186
0.176240
0.070521
-0.753474
-0.606503
-0.442286
-0.613174
-0.563676
-0.504379
0.051497
0.130907
0.061506
0.021683
0.044413
-0.013665
-0.077708
-0.147761
-0.107168
-0.091205
0.113088
0.150442
0.067806
0.126461
0.015451
-0.061330
-0.097208
0.024424
0.011815
0.116038
0.241322
0.158526
-0.025161
0.060004
-0.150509
-0.153108
-0.142924
0.138035
0.033260
-0.060089
0.076332
-0.317710
-0.462547
-0.225544
-0.131093
-0.312403
-0.060130
0.034908
-0.053069
0.062880
0.035580
0.169786
0.267958
0.111027
0.039429
0.137228
0.289108
0.157382
0.028645
-0.143478
-0.114545
-0.198943
-0.307436
-0.379559
0.011430
0.148824
0.086161
-0.143399
0.019358
-0.168718
-0.084298
0.018191
-0.131356
0.133955
0.289619
0.176982
-0.117283
-0.073865
-0.113034
-0.280008
-0.060292
-0.193372
0.128187
0.116386
0.120897
-0.071763
-0.259239
-0.263736
-0.216824
-0.203630
-0.185722
-0.052640
0.097902
0.135654
-0.008151
0.068506
-0.024525
-0.180955
-0.426885
-0.203477
0.096632
0.013389
0.158305
-0.086584
-0.136205
-0.004790
0.050738
-0.018230
0.068597
-0.013253
0.000100
0.005485
0.082496
0.038650
-0.078268
-0.181812
-0.163591
-0.139769
0.136091
0.130637
0.097077
0.027721
-0.124618
-0.148158
-0.480362
-0.623635
-0.290885
-0.027270
0.097093
0.023931
0.005767
0.010398
0.072600
-0.029388
0.116382
0.117688
0.185019
0.114838
0.021061
0.037121
-0.001440
-0.004194
0.099500
-0.255870
-0.153198
-0.054004
0.107144
0.056901
-0.030800
0.177310
0.069154
0.090109
0.097539
0.077241
0.002716
0.074695
0.110954
-0.191049
0.076916
-0.016883
-0.117481
0.268656
-0.081846
-0.077965
0.180542
-0.009819
-0.014911
-0.116731
-0.002025
-0.011559
0.071818
-0.020110
0.037405
-0.008575
0.000769
-0.245241
-0.048875
0.236659
-0.191978
-0.010063
0.165549
-0.195368
-0.386273
-0.088521
-0.169330
-0.359947
-0.395918
0.027076
-0.081464
-0.149000
-0.142476
-0.043341
-0.241863
-0.033811
-0.236464
-0.283548
0.153848
0.019635
-0.086529
-0.085969
0.040914
0.119664
-0.050402
0.095605
0.279545
-0.047563
0.085519
-0.007728
-0.129180
-0.272241
-0.102748
-0.081840
-0.187104
-0.313716
-0.023812
-0.114191
-0.279496
0.308194
0.297068
0.263616
0.020896
0.061930
0.256386
-0.027044
0.015620
0.207809
0.028373
0.088487
-0.129919
-0.140422
0.188237
0.091471
-0.020904
0.072114
0.175306
0.320965
0.088955
0.047711
-0.051437
-0.136305
-0.017219
0.064710
0.034074
-0.011598
-0.163428
0.056622
-0.073804
-0.147024
-0.149447
-0.088405
-0.041356
0.180016
-0.165494
0.113403
0.188177
0.110996
0.255334
0.251380
-0.051120
-0.079218
0.086705
0.263989
0.132306
0.089849
-0.014494
0.031205
0.199514
0.023709
0.090474
0.084917
0.039573
0.086895
-0.009369
0.172167
0.119061
0.045832
0.022087
-0.007180
-0.051892
-0.070141
-0.309923
-0.197940
0.082301
-0.081727
-0.298454
-0.226984
-0.060036
-0.252696
-0.232952
-0.003914
0.021968
0.003616
-0.072916
0.068398
0.042885
-0.160531
-0.034113
0.043123
0.153777
0.032661
-0.060369
0.026293
0.121988
-0.082416
0.013533
0.196091
0.019286
-0.113743
-0.114483
0.085433
0.029720
0.036272
0.089224
0.022956
0.061295
-0.073316
0.197260
0.273225
0.187811
-0.184058
0.090184
0.311458
-0.186491
0.014455
0.167292
-0.098690
0.175468
0.208405
-0.326184
-0.029234
0.039746
-0.053692
-0.016170
0.036139
-0.037460
-0.178790
-0.145047
-0.031574
-0.020150
-0.069308
0.017744
-0.099333
0.117517
-0.400560
-0.295094
-0.057444
-0.164050
-0.405723
-0.060280
-0.104915
-0.333430
-0.063272
0.063079
0.245143
0.181997
0.050989
0.197874
0.316316
-0.135698
-0.200562
0.175059
-0.022534
0.103807
0.203086
0.040176
-0.121205
0.130186
-0.053676
-0.067475
0.033543
-0.150666
-0.173767
0.036608
-0.143123
-0.103708
-0.180902
0.022409
-0.065983
-0.230569
-0.184986
-0.108574
0.068469
0.056912
-0.060193
-0.194711
0.010099
0.026966
0.012930
0.017099
0.064989
0.011217
-0.035303
0.102268
0.063742
0.080878
0.060124
0.078623
0.013677
-0.055670
0.109943
-0.031065
-0.016814
0.083375
-0.065298
-0.121062
-0.102279
-0.315176
-0.239108
0.058545
-0.245736
-0.497531
-0.177115
-0.144740
-0.276512
-0.143346
-0.088895
0.046556
0.265643
-0.093514
-0.109259
0.097948
0.005559
-0.074368
0.000471
-0.011847
0.036978
0.097792
0.087879
0.041248
-0.003385
-0.193654
-0.124185
-0.006156
-0.006101
0.040163
0.035931
-0.071054
-0.044368
0.095779
-0.064427
-0.142074
0.031929
0.042926
-0.081428
-0.045871
0.195435
0.057612
-0.155795
0.103657
0.157441
-0.000160
0.060550
-0.091848
0.080269
-0.059096
-0.041951
-0.007426
0.107425
0.005410
-0.050269
-0.035806
-0.097511
-0.133970
0.207063
-0.054069
-0.144535
0.013086
0.075781
-0.151627
0.161585
0.033993
0.066796
0.047422
0.131959
0.040069
0.031269
0.090085
-0.034750
0.250688
0.038311
0.195478
0.057578
-0.107174
-0.108612
0.022468
-0.240903
-0.369457
-0.110222
-0.002740
-0.104815
0.005620
-0.114498
-0.012922
0.023130
-0.097315
0.015136
0.263000
0.074955
0.048003
0.013627
-0.016937
-0.135272
0.161249
0.018282
-0.246191
0.048332
0.092882
-0.173263
0.062133
0.100992
-0.182877
0.123591
-0.152868
-0.154323
-0.144531
0.060794
0.099490
-0.049983
-0.292921
-0.073502
-0.315835
-0.319750
-0.333418
0.005520
0.152552
-0.013090
0.320534
0.379649
0.376209
0.016799
0.164859
0.211424
-0.085350
0.115719
0.244827
-0.212425
-0.195634
-0.029096
0.249948
-0.111747
-0.201209
0.101491
-0.034265
-0.100404
0.172595
-0.212597
-0.110910
0.031557
-0.269581
-0.202324
0.072566
0.000327
0.079653
-0.008305
0.020598
-0.064216
0.003392
0.110920
-0.006508
-0.099524
-0.043564
0.144385
-0.085162
-0.117767
0.003794
0.176538
-0.032413
0.114331
-0.105962
-0.004118
-0.076196
-0.073800
0.102590
0.024330
-0.067722
-0.122252
-0.023770
0.136398
0.084014
0.102270
0.100972
-0.212850
0.016984
0.257040
-0.177409
-0.104625
-0.134289
-0.098324
-0.091589
-0.370836
-0.086843
-0.127628
0.358680
0.123199
-0.102335
-0.009375
-0.016972
0.039289
-0.030320
-0.075276
0.058391
0.056720
-0.065591
0.055319
0.087249
-0.003394
-0.150451
0.171638
-0.084042
-0.259791
-0.033617
-0.105330
-0.183951
-0.071924
0.051089
0.113993
-0.337996
-0.156684
-0.060539
-0.308598
-0.117868
-0.179080
-0.560127
-0.265084
-0.157903
-0.181089
-0.023967
-0.114036
-0.051697
0.067806
-0.209331
-0.208602
0.320045
0.198957
-0.377969
0.076341
-0.143632
-0.107134
-0.132509
-0.309413
0.092976
0.046100
0.187569
0.053657
-0.032375
-0.015129
-0.273609
-0.072631
-0.094976
-0.043990
0.283900
0.175295
-0.328837
-0.042089
0.012223
0.040972
-0.063530
-0.250693
0.132581
0.025318
0.252770
0.137439
-0.071038
-0.081494
0.082575
0.037470
0.019123
-0.234761
-0.178359
0.010879
-0.008914
-0.021611
-0.052489
0.210689
0.100940
0.214159
0.091592
0.045454
-0.084761
0.031031
-0.030689
0.128380
0.047309
-0.101885
-0.061800
-0.204697
-0.049809
-0.153362
-0.136252
0.038301
0.040243
0.016667
0.057723
0.032049
-0.016409
-0.340526
-0.066203
-0.031449
-0.205245
-0.110847
0.289983
0.134383
0.081753
-0.015497
0.119708
-0.095867
-0.185929
-0.028198
-0.094776
-0.088839
-0.055483
-0.109623
-0.219371
-0.364838
-0.108416
-0.040864
-0.200088
-0.132375
0.075850
0.047896
0.048515
-0.269634
-0.074092
-0.062959
-0.247489
-0.021826
0.010922
0.033147
0.078057
0.090442
-0.309941
-0.065743
-0.174759
-0.194166
-0.136895
-0.056404
-0.054518
-0.130448
-0.171831
-0.007513
-0.110563
-0.075553
0.006011
-0.011092
-0.103553
-0.262525
-0.099415
-0.020523
0.043000
0.245557
0.003020
-0.040973
-0.068386
-0.223436
-0.139343
-0.111928
-0.339344
0.329201
-0.003348
-0.155964
0.027588
0.150502
-0.005569
0.090743
0.265837
0.111601
0.161431
-0.063632
-0.090469
0.080090
-0.304234
0.097746
-0.039315
-0.010049
0.061248
0.029788
-0.145815
-0.056144
0.151090
-0.102217
-0.042552
0.089857
0.008259
-0.027304
-0.089249
-0.173382
0.012558
-0.358405
0.049783
0.124218
-0.285373
0.095653
0.124920
0.163395
-0.021456
0.019483
0.093367
-0.107933
-0.074255
0.166133
-0.087191
-0.112684
0.131030
-0.080803
-0.058072
0.062354
-0.063822
0.035368
0.247389
0.021563
0.109233
-0.000250
-0.077574
0.016579
0.006939
-0.020892
0.004186
0.179968
0.117649
0.178110
0.190736
-0.028554
-0.134098
-0.418279
-0.027155
-0.018575
-0.138794
0.096276
-0.126359
0.091025
0.115217
0.277179
0.168732
-0.171946
0.027150
0.268606
0.118660
0.019820
0.095790
0.134032
0.076617
0.121878
-0.059089
-0.034516
0.081844
0.010849
0.045538
0.059764
0.164884
0.159294
0.023069
0.041137
-0.067388
0.177123
0.002371
-0.130843
-0.095717
0.184098
0.143295
0.127440
0.119806
-0.023516
0.152895
0.014415
-0.005648
-0.238215
-0.198157
-0.134226
-0.440532
-0.504143
-0.181001
-0.253597
-0.012696
-0.095340
0.090105
-0.201104
-0.096709
-0.153430
-0.156960
-0.202088
-0.080196
-0.106506
-0.075967
-0.049473
0.020077
-0.027156
0.044766
0.166072
0.121967
0.098482
0.168581
0.016971
0.108659
-0.054893
-0.164271
0.030092
0.016737
-0.404601
0.077714
-0.133893
-0.380484
0.275307
0.201282
0.080830
0.085085
0.139582
-0.065317
-0.208836
0.082538
0.063066
0.036482
0.006468
0.223728
0.064009
0.064342
-0.089641
0.023506
-0.039030
-0.073305
-0.125599
0.128211
-0.035170
-0.175920
-0.004096
-0.186380
-0.275627
-0.141244
-0.282855
0.178337
0.143933
-0.096709
0.070240
0.172687
-0.099220
0.233307
0.256026
-0.002419
-0.005850
-0.065037
-0.034368
-0.269814
-0.110810
-0.164984
-0.230431
-0.168984
-0.126316
-0.086887
-0.067880
-0.282021
0.156413
-0.135045
-0.240504
0.027357
-0.271019
-0.050565
0.096396
0.153461
-0.086885
0.270798
-0.089249
-0.196252
0.067696
-0.287790
-0.164944
0.075771
-0.055654
-0.124848
-0.081678
-0.060392
-0.159741
0.046551
0.035720
0.075088
-0.088300
-0.203574
-0.115173
-0.042667
-0.084847
-0.180678
-0.021818
-0.037597
-0.251899
-0.136831
0.114678
-0.208747
0.026433
-0.126082
-0.189785
-0.301083
-0.358344
0.036748
-0.079504
0.060756
0.006523
-0.001734
0.068490
0.199302
0.189092
0.227197
0.206187
0.106727
0.101839
0.052551
0.179167
0.182158
-0.247976
0.285846
-0.126265
-0.183193
0.031242
0.014937
0.006817
0.133368
0.004401
-0.104806
0.107991
0.039574
-0.141595
-0.032046
0.092737
0.231942
0.068584
0.084405
0.213519
0.012649
-0.054895
-0.178173
0.141313
-0.021531
-0.052992
0.061749
0.014878
0.148204
0.090499
0.088036
0.138248
-0.240727
0.049060
-0.026095
-0.378144
-0.094338
0.108110
0.057979
0.040429
-0.053896
-0.077419
-0.028691
0.129696
-0.089060
-0.043637
-0.015217
0.066327
0.303999
0.174761
-0.008574
0.092348
-0.015405
-0.003657
-0.098900
-0.056941
0.202169
0.156881
-0.056190
-0.031063
-0.115318
-0.097994
0.099801
0.083343
-0.020925
0.320345
0.114830
0.014138
-0.023711
-0.194115
0.120262
-0.162384
-0.031655
0.128183
-0.055275
0.187315
0.187670
0.157597
-0.004393
-0.132970
0.086545
0.180841
0.151317
0.381560
0.018480
-0.024906
-0.032519
-0.104518
0.149141
-0.086643
-0.024412
0.007773
-0.256958
-0.156757
-0.001249
-0.361000
-0.427271
-0.230963
-0.209976
-0.350929
-0.275564
-0.066074
-0.116928
-0.057514
0.048778
-0.057760
0.245186
0.008633
-0.004287
0.156247
-0.046180
0.053899
-0.130656
0.081726
-0.074472
0.167648
0.031203
-0.013212
0.125436
0.051460
-0.027320
0.005814
0.007831
-0.061948
-0.087095
0.043350
-0.071169
-0.120649
0.048362
0.020931
-0.074708
-0.002813
-0.085680
-0.041039
-0.013527
0.010542
-0.005907
-0.152343
0.110105
0.022568
-0.187384
0.046548
0.086314
-0.084028
-0.043312
0.001477
0.052535
-0.113621
-0.014211
0.181498
0.070454
0.149770
0.121505
0.086288
0.033170
0.026426
0.114102
-0.082799
0.041417
0.199397
0.177222
-0.017585
0.045093
0.121770
0.088746
0.116179
0.140817
0.172483
-0.077460
-0.136335
0.110413
0.046581
-0.189914
0.057372
-0.109206
-0.436028
-0.055698
-0.262300
-0.178355
-0.191670
-0.070568
-0.134558
0.013656
0.065873
0.187526
-0.034520
0.139746
0.004776
0.021436
-0.023645
-0.061494
-0.000409
-0.007043
0.018854
-0.026965
0.082312
0.165353
-0.085758
0.166953
0.082107
0.095252
0.087083
0.159684
0.027847
0.029829
-0.081782
-0.015960
0.007599
0.139237
0.034533
-0.078783
0.003509
0.016229
-0.090334
0.038861
-0.127901
0.118929
-0.056740
-0.075748
0.097326
0.005978
0.027208
0.069903
-0.004205
0.045432
-0.029937
0.124171
0.144194
0.020839
-0.028682
0.059652
-0.199915
0.000432
-0.133627
-0.164904
-0.000426
-0.193088
-0.240743
0.021994
-0.065659
-0.072933
0.031338
-0.072999
-0.225890
-0.182643
-0.267826
-0.199886
-0.062795
-0.057412
0.015696
-0.028619
-0.162042
-0.103949
-0.341315
-0.101808
-0.069374
-0.085108
-0.213133
-0.166335
-0.230375
-0.096461
0.002452
0.039545
-0.034793
0.015026
-0.058565
0.060168
0.084384
0.165075
0.032195
-0.037621
0.210732
-0.071343
-0.138980
0.096769
-0.022494
-0.066389
-0.219747
-0.116219
0.039037
-0.017661
0.010237
0.076349
0.015710
-0.191085
-0.338325
-0.083396
-0.062007
-0.226944
-0.400888
0.134208
-0.236715
-0.187562
-0.080207
-0.299342
-0.128327
-0.091399
-0.247667
-0.088632
-0.162227
-0.347968
-0.208949
0.036232
0.138821
0.156880
0.087142
0.051255
-0.131958
0.028217
-0.184212
-0.261173
0.072556
-0.037430
0.028041
0.059994
-0.145815
0.080581
-0.122922
-0.005845
0.041357
-0.116035
-0.011338
0.086399
-0.039569
0.094483
0.117048
0.088543
0.185984
-0.052085
0.046242
-0.079193
-0.015864
-0.204295
-0.142661
-0.347582
0.106349
0.019474
0.077399
0.151223
-0.032759
0.014989
-0.005504
-0.061627
-0.085230
0.127894
-0.077777
0.216407
0.139192
-0.004100
0.093516
0.068890
0.035837
-0.037127
0.192425
0.137881
-0.003575
0.069137
-0.151415
-0.089794
-0.018996
-0.108476
-0.207518
0.024649
0.016957
0.184122
-0.212740
-0.111740
0.059575
-0.054808
-0.188700
-0.018674
0.195972
0.061920
0.134192
-0.259497
-0.203859
-0.051777
-0.366295
-0.280306
-0.144605
-0.188183
-0.232220
-0.096644
0.057861
-0.029420
0.004736
-0.033155
0.064964
0.035778
0.072452
0.073777
-0.032681
-0.263200
-0.238843
0.058107
-0.070252
-0.327283
-0.132451
-0.125227
-0.275232
-0.151681
-0.069917
-0.051212
0.128381
-0.124102
-0.035582
0.075746
0.047881
0.049384
-0.007670
0.104582
0.038570
-0.097003
0.094583
-0.033542
-0.067356
-0.016846
0.033693
0.061706
-0.035655
0.002998
0.015424
0.048534
-0.069219
-0.001177
-0.163059
-0.043785
0.061282
-0.007369
-0.090460
-0.065213
0.009454
-0.042802
0.136729
0.157083
0.085288
0.181249
0.019514
0.099381
0.217947
-0.047444
0.059745
0.082027
0.117083
0.121903
0.151205
-0.046275
-0.034562
-0.037165
-0.122288
-0.123086
0.003229
0.126500
0.018727
0.060425
0.045467
-0.017029
-0.037104
0.019488
-0.068082
-0.043879
0.050774
-0.160743
-0.126131
0.020879
-0.169026
-0.093014
-0.104932
-0.210647
-0.112932
0.105635
0.136288
0.162800
-0.227476
-0.297732
-0.076793
-0.071209
-0.080144
-0.109398
-0.058759
0.174440
0.182929
-0.095602
-0.128964
-0.112292
-0.006924
-0.079014
-0.137805
-0.046796
-0.113805
-0.179328
0.018639
0.040833
-0.012621
-0.023831
0.045218
-0.071886
0.098927
0.141537
0.057680
-0.075231
-0.045032
0.048222
-0.090895
0.076502
-0.018641
0.183760
0.053992
0.000985
-0.075566
-0.044029
0.060977
-0.000690
0.029832
-0.066719
0.034535
-0.055603
0.010223
-0.215387
-0.314568
-0.046270
-0.268954
-0.420543
-0.512074
0.011984
-0.026631
-0.103330
0.089341
0.056847
-0.087706
-0.179892
-0.156610
-0.156562
0.074242
-0.203855
-0.184625
0.308649
0.160941
0.191064
-0.206188
-0.188838
-0.275237
-0.011498
-0.012317
-0.071137
-0.131160
-0.066695
-0.149554
0.041162
0.054097
-0.104938
0.116811
0.234050
0.055469
-0.047431
-0.186705
-0.039211
-0.215268
-0.180500
-0.318363
-0.091003
-0.105654
-0.153900
0.173954
0.102081
0.064838
0.174307
0.056800
0.125638
0.130219
0.187383
0.105904
-0.001780
-0.172528
-0.100014
-0.259957
-0.319394
-0.220212
-0.023115
-0.190335
-0.179387
0.048273
-0.188605
-0.115969
0.020124
-0.235946
-0.265180
-0.029206
-0.038727
-0.121219
-0.040033
-0.140183
-0.130973
-0.101289
-0.316991
-0.116331
-0.067098
-0.136083
0.006399
-0.149527
-0.257294
0.041062
-0.248860
0.008076
0.110801
-0.166875
-0.000874
0.187410
-0.057188
-0.018736
0.015058
0.054499
0.079088
0.277210
0.007305
0.139328
0.111180
-0.100616
-0.037932
0.149061
0.247048
0.032591
0.067243
0.032028
-0.067864
0.029352
0.153218
-0.040325
0.233316
0.114855
0.028822
0.079321
0.125831
0.063821
-0.029603
0.127182
0.004868
-0.086013
-0.004631
0.105281
-0.050819
0.024952
-0.016900
0.075139
0.119581
0.009813
0.065048
0.158589
-0.016225
0.000650
-0.072096
-0.125612
-0.150422
0.190101
0.301822
-0.072310
0.212195
0.231260
0.012325
0.098292
-0.138401
-0.109643
-0.081440
-0.119285
0.020024
0.083534
0.019088
0.063831
-0.021533
-0.150328
-0.141509
-0.104060
-0.000477
0.057609
-0.113639
-0.041737
0.151688
-0.144130
-0.130334
-0.256263
0.108652
0.182487
0.150091
-0.169433
-0.013513
0.050121
-0.353005
-0.323650
-0.259534
0.038469
0.060892
0.123141
0.155956
0.043660
-0.031395
0.093541
-0.110619
-0.102948
-0.044719
0.044566
0.152232
-0.048248
-0.101032
0.132296
-0.009806
0.025445
-0.043200
0.013767
-0.009708
0.020191
-0.078011
0.009432
0.053728
-0.244304
-0.172270
-0.114881
0.057836
0.153481
0.130417
-0.112463
-0.073249
-0.018418
-0.187765
-0.229493
-0.145429
0.275924
0.107274
0.272874
0.067394
0.071371
0.007123
-0.232849
-0.348094
-0.353787
0.031918
0.180548
0.153422
-0.018213
-0.046770
0.035755
0.014304
0.008793
-0.067035
0.081946
0.022887
0.002756
-0.072181
0.045908
-0.064448
-0.026060
0.018023
-0.028553
-0.099249
0.127522
0.021824
0.125227
0.096671
0.102689
0.054540
-0.096156
-0.059437
0.026026
0.066418
-0.082860
0.033969
-0.090396
-0.098286
-0.147362
-0.263563
-0.152993
0.044737
0.095999
0.121311
0.152963
0.093465
0.160328
-0.146514
-0.169072
-0.153038
0.115495
0.237016
0.261519
-0.023208
0.101388
0.008601
-0.336380
-0.483839
-0.416906
0.158075
0.190252
0.101431
0.065173
0.202946
0.087622
0.036062
-0.154215
-0.035021
0.065979
0.260586
0.049421
0.054150
0.056567
0.025298
-0.249245
-0.207971
-0.391001
-0.063011
-0.011213
0.072465
-0.002321
-0.131478
0.004053
0.173546
0.094084
0.059969
-0.019294
0.004109
0.117226
0.017663
0.003555
0.085964
-0.041143
-0.008065
0.068578
-0.139296
-0.018842
0.109955
-0.151824
-0.152945
-0.064270
-0.026851
-0.072556
0.029580
-0.262963
-0.065799
0.046152
0.010549
0.156102
0.038975
0.015376
-0.142601
-0.023485
-0.059166
0.107996
0.168624
0.090891
-0.029963
0.214303
-0.046771
0.021381
0.031689
0.044652
0.072497
-0.026116
0.063195
0.084340
0.045387
-0.087564
-0.166417
-0.042292
0.054477
0.168393
-0.000169
0.069984
0.099575
0.071637
-0.184381
-0.125589
-0.080161
-0.069831
-0.038816
-0.150556
0.104297
0.009953
0.069781
0.057759
-0.034421
0.030599
-0.161538
-0.056966
0.022005
-0.073246
-0.108879
0.027636
-0.203731
-0.401519
-0.228130
0.045014
0.020252
-0.049255
-0.010228
-0.042751
-0.001558
-0.157339
-0.080716
-0.103461
0.138383
0.160581
0.254103
0.155503
0.048881
0.087657
-0.242426
-0.253916
-0.218298
0.075918
-0.133211
-0.410099
-0.147104
-0.308233
-0.365519
-0.123195
-0.295782
-0.166743
0.265637
0.208913
-0.034149
0.163016
0.066087
-0.334618
0.269629
0.087594
-0.017452
-0.076509
-0.340981
-0.033568
-0.053695
-0.158829
-0.066151
-0.245655
-0.097857
0.094800
0.237576
0.219311
0.050028
0.100336
0.000042
-0.197471
0.186115
0.031351
-0.007677
-0.329683
-0.229912
-0.175616
-0.268697
-0.441490
-0.327329
-0.603340
-0.601237
0.001733
-0.003240
-0.315327
-0.149276
-0.100687
-0.442774
-0.165382
-0.025575
-0.112883
0.049962
-0.470284
-0.424934
-0.177613
-0.154530
-0.369292
-0.291416
-0.186716
-0.395449
-0.326545
0.120616
-0.091099
0.154116
0.053971
-0.233431
-0.066070
-0.020184
-0.119151
0.017932
0.322136
-0.031537
0.017840
0.039617
0.024801
-0.011059
-0.185568
0.006452
-0.034917
0.071388
0.072359
0.076806
-0.026327
0.092013
0.149605
-0.076817
-0.002619
0.025776
-0.476219
-0.102852
0.229902
-0.213092
-0.006554
0.111114
-0.326135
-0.057831
0.138676
0.154602
-0.203506
-0.034503
-0.009918
-0.100810
-0.193022
0.048829
-0.194716
-0.295426
0.267954
0.120726
-0.014699
0.249843
-0.032798
-0.128013
0.260894
-0.189105
0.030806
-0.140617
-0.129583
0.039517
-0.254955
-0.157475
