-0.04598668962717056
-0.0758790671825409
-0.04035142809152603
-0.026883229613304138
-0.06649880856275558
0.025935932993888855
0.022783219814300537
-0.06247677654027939
0.06461480259895325
-0.09954942762851715
0.03498378396034241
-0.12138478457927704
-0.12399023026227951
0.11227811872959137
0.08188918232917786
-0.08484858274459839
-0.029028497636318207
-0.06046546250581741
-0.06059343367815018
0.01569753885269165
-0.0009150505065917969
-0.0923718512058258
-0.09635058045387268
0.04522158205509186
-0.06606587767601013
-0.10888783633708954
0.0077562034130096436
0.003052756190299988
0.11836804449558258
-0.10372407734394073
0.024477645754814148
-0.03371118754148483
0.09315285086631775
0.022705689072608948
0.07793357968330383
0.13749630749225616
0.08000867068767548
-0.09689351916313171
0.06788772344589233
0.11582426726818085
-0.01829788088798523
-0.11611983925104141
-0.060163430869579315
0.0740746259689331
-0.05097319185733795
0.11430703103542328
-0.011954084038734436
0.1321576088666916
0.010956436395645142
0.08403629064559937
-0.018006540834903717
0.009487465023994446
0.056927695870399475
0.10712361335754395
0.05718030035495758
0.04406477510929108
0.10765542089939117
0.05019611120223999
-0.09078709036111832
-0.014367327094078064
-0.089284747838974
-0.027390427887439728
-0.019669361412525177
-0.12964299321174622
0.021747171878814697
-0.1327580362558365
-0.07328550517559052
0.08537058532238007
-0.12336908280849457
-0.09700588881969452
-0.06809219717979431
-0.11643484234809875
-0.05996103584766388
-0.09239567816257477
-0.08500941842794418
-0.107940673828125
0.036561936140060425
0.07096241414546967
0.0258634090423584
-0.007892265915870667
0.03987377882003784
-0.01426631212234497
0.10576319694519043
-0.06987185776233673
0.04674112796783447
0.012364178895950317
0.0253751277923584
0.13367582857608795
0.03557436168193817
0.017663776874542236
-0.08646513521671295
-0.07306856662034988
0.05714799463748932
-0.06277812272310257
0.015590310096740723
-0.09161491692066193
0.10645310580730438
-0.06476406008005142
0.038607239723205566
-0.008783698081970215
0.04743252694606781
-0.06527692079544067
-0.09095513820648193
-0.10760721564292908
-0.07083254307508469
-0.01165655255317688
0.10523109138011932
0.005837857723236084
-0.058656588196754456
-0.12486148625612259
-0.0016727149486541748
-0.05508429557085037
0.050681233406066895
-0.003339022397994995
-0.026002958416938782
0.08760350942611694
-0.11348211765289307
-0.07066512852907181
0.08965124189853668
-0.12024318426847458
-0.016947269439697266
-0.01649663597345352
-0.09615269303321838
-0.1256685107946396
0.010840222239494324
-0.07033877819776535
-0.05133715271949768
0.06171292066574097
0.022817105054855347
-0.0017669200897216797
0.04230488836765289
-0.047864995896816254
0.07379952073097229
0.11487747728824615
0.050126418471336365
-0.126509889960289
-0.0614229291677475
0.11775709688663483
-0.11220379918813705
0.07089285552501678
-0.013747334480285645
0.05357380211353302
-0.026729367673397064
-0.08047299087047577
0.047860488295555115
0.07042133808135986
-0.11900747567415237
0.02529565989971161
0.013689592480659485
0.10262519121170044
0.08450400829315186
-0.017714641988277435
0.1279238909482956
-0.13320982456207275
0.028273984789848328
-0.024129383265972137
0.12322492897510529
0.015560388565063477
0.12365658581256866
0.0371282696723938
-0.09649632126092911
0.06496939063072205
0.012042462825775146
-0.05420132726430893
-0.04549989104270935
0.11592020094394684
0.08315463364124298
-0.05638009309768677
0.048512235283851624
0.06343081593513489
0.0006512850522994995
0.1173112541437149
-0.00864391028881073
-0.05617736279964447
0.05634254217147827
0.06084561347961426
0.05949759483337402
0.037817299365997314
0.08900482952594757
-0.04988720268011093
0.13214455544948578
-0.01649077981710434
0.117315873503685
-0.13233987987041473
0.022839277982711792
0.024012938141822815
0.13347552716732025
-0.08398179709911346
-0.03023281693458557
-0.06646610051393509
0.11517654359340668
0.0012723356485366821
-0.09890715777873993
0.11002355813980103
-0.08418761938810349
-0.12118617445230484
-0.06658992171287537
0.03896152973175049
0.054266780614852905
-0.06663282960653305
0.12016211450099945
0.018032535910606384
-0.10039018094539642
-0.10995129495859146
-0.04447402060031891
-0.13070935010910034
0.1359514445066452
-0.13100163638591766
-0.0653543770313263
0.015405669808387756
0.01926097273826599
-0.05722203105688095
-0.12850238382816315
0.09517581760883331
0.04288816452026367
-0.05671750009059906
-0.04775749891996384
0.07666434347629547
-0.09666568040847778
-0.12597930431365967
-0.0003865659236907959
0.10490496456623077
-0.10967166721820831
-0.09382174909114838
0.0577063262462616
0.007935866713523865
0.11813707649707794
0.010472148656845093
-0.030812174081802368
-0.012669533491134644
0.06466692686080933
-0.08146119117736816
0.024171337485313416
0.11820246279239655
-0.03871717303991318
0.07672972977161407
0.13428394496440887
0.12980635464191437
-0.02136629819869995
0.09366896748542786
-0.06590151786804199
-0.05973590165376663
0.11653576791286469
-0.06441902369260788
0.10939335823059082
0.026362314820289612
-0.03264161944389343
-0.0907907783985138
-0.030522868037223816
0.08533468842506409
0.013514101505279541
0.01460312306880951
-0.08499375730752945
-0.05452784150838852
-0.030353382229804993
-0.10823708027601242
0.015017196536064148
-0.04599159210920334
-0.10383233428001404
-0.008404403924942017
-0.10343454778194427
-0.10641276836395264
-0.12095034122467041
-0.08633038401603699
-0.09878353774547577
-0.03240526467561722
0.015207231044769287
-0.1081128641963005
-0.024256527423858643
-0.0919455736875534
0.08719058334827423
0.02293984591960907
-0.040131986141204834
0.044434428215026855
0.027807697653770447
-0.0914425253868103
0.09510259330272675
-0.0855313241481781
-0.08881210535764694
-0.06638485938310623
-0.12209230661392212
0.058051928877830505
0.008363038301467896
-0.10412535071372986
-0.09815666824579239
-0.08677440881729126
-0.12285395711660385
-0.02816033363342285
-0.10192730277776718
0.04219381511211395
0.12449581921100616
-0.0026818811893463135
0.0004049241542816162
-0.06895077973604202
0.01744900643825531
0.08983626961708069
-0.09193819761276245
-0.015411533415317535
0.07039138674736023
0.07640288770198822
0.12664593756198883
-0.07559272646903992
0.11923177540302277
0.08804263174533844
-0.12124734371900558
0.011558592319488525
-0.1002616286277771
-0.058731675148010254
-0.05314238369464874
-0.1374506652355194
0.07240365445613861
-0.08600988984107971
0.04368552565574646
-0.04835616797208786
-0.10513997077941895
-0.021470539271831512
0.09580245614051819
0.01496855914592743
-0.0055264681577682495
0.08062787353992462
0.03628714382648468
-0.0337085947394371
0.04621972143650055
-0.06133290380239487
-0.08114217221736908
0.07069355249404907
0.13247992098331451
0.04418465495109558
-0.10462605953216553
0.07935968041419983
-0.13703972101211548
-0.04041556268930435
0.08346128463745117
0.01893620193004608
-0.12862689793109894
0.04423384368419647
-0.1251603662967682
-0.04434249550104141
0.08780722320079803
-0.04950612783432007
0.07937933504581451
-0.04668762534856796
0.1378086358308792
0.09551908075809479
-0.04717972129583359
-0.12917308509349823
-0.13781116902828217
-0.08055268228054047
-0.13162663578987122
0.023703306913375854
0.07495661079883575
0.04637204110622406
0.13098226487636566
-0.03688546270132065
0.10627427697181702
0.03138425946235657
-0.044254377484321594
-0.10545662045478821
0.10730570554733276
0.015580371022224426
-0.08525900542736053
0.052223846316337585
-0.06663770228624344
-0.12029800564050674
-0.013618513941764832
0.12000294029712677
0.10313208401203156
0.10580530762672424
-0.04770037531852722
-0.0540570393204689
-0.022120870649814606
0.04835541546344757
0.11364136636257172
0.09580692648887634
-0.030580654740333557
-0.1369548887014389
-0.04487799108028412
-0.018587805330753326
-0.12062613666057587
0.04930303990840912
0.044820770621299744
-0.12745076417922974
-0.08691161870956421
0.008325621485710144
0.11356224119663239
0.06701798737049103
-0.12971344590187073
-0.011695444583892822
0.022582367062568665
-0.021163441240787506
0.0335155725479126
-0.025830499827861786
-0.045355938374996185
0.08605234324932098
-0.023363396525382996
0.05659513175487518
0.1109696626663208
-0.10506044328212738
-0.08227900415658951
0.0955716222524643
0.04850921034812927
-0.015533216297626495
-0.08073161542415619
-0.11113373190164566
0.13200952112674713
-0.028717316687107086
-0.036483727395534515
0.031683892011642456
-0.10844480991363525
-0.023100413382053375
-0.10231894254684448
-0.0649297684431076
0.06351976096630096
-0.03198108822107315
0.06574037671089172
0.027956128120422363
0.04969681799411774
-0.019892878830432892
-0.03862250596284866
-0.0377078503370285
0.010313913226127625
-0.12422697991132736
0.07638061046600342
0.05573613941669464
0.03453223407268524
-0.011772021651268005
-0.09328128397464752
0.11914609372615814
-0.13196396827697754
-0.08425882458686829
-0.046180106699466705
0.1243564635515213
0.13742603361606598
0.0803825706243515
0.09094434976577759
0.04491277039051056
-0.13261322677135468
0.06100533902645111
-0.011975377798080444
0.07784250378608704
-0.10411538183689117
-0.1268257051706314
-0.01992107927799225
-0.10535095632076263
-0.041587963700294495
-0.10921576619148254
0.13364489376544952
0.08808471262454987
0.09098899364471436
0.004262760281562805
-0.09421643614768982
0.043749287724494934
0.1324082463979721
0.09269683063030243
-0.1322876513004303
0.10090981423854828
-0.11285156011581421
0.09396819770336151
-0.03139156103134155
0.0835466980934143
-0.06688560545444489
0.1328810304403305
-0.13139547407627106
-0.11432428658008575
0.04538340866565704
-0.13000738620758057
-0.07230915129184723
0.09576787054538727
0.01435019075870514
-0.10298657417297363
-0.10366037487983704
0.0955115407705307
0.03371533751487732
0.039293959736824036
0.12338675558567047
-0.016216881573200226
-0.054169707000255585
-0.13397133350372314
-0.048250019550323486
-0.10113067924976349
-0.020196132361888885
-0.12207447737455368
0.07163062691688538
0.1265483945608139
0.024241626262664795
0.016267120838165283
-0.08286415040493011
-0.0743374451994896
-0.02885979413986206
-0.09410150349140167
0.039400115609169006
-0.006767183542251587
0.10537807643413544
-0.01422136276960373
0.013279959559440613
0.10604716837406158
0.02902132272720337
0.11864213645458221
-0.09268182516098022
0.048626214265823364
-0.06591494381427765
0.06565390527248383
-0.10731248557567596
-0.014540046453475952
-0.08892368525266647
-0.11758707463741302
0.12920360267162323
0.10385480523109436
-0.09380986541509628
0.046527475118637085
0.10376174747943878
-0.07700718194246292
-0.09560492634773254
0.001453503966331482
0.13493739068508148
-0.04643995314836502
0.02483724057674408
0.0802958607673645
0.033046215772628784
0.019125565886497498
-0.06448976695537567
-0.034285351634025574
0.07319140434265137
-0.08167371898889542
-0.05561093986034393
0.04900561273097992
0.11282218992710114
0.06747114658355713
0.07201923429965973
-0.07489590346813202
0.11149506270885468
-0.11538553237915039
-0.02294231206178665
0.04205505549907684
-0.10056247562170029
0.13198013603687286
-0.10529650002717972
0.11660595238208771
-0.10372713208198547
0.1083034873008728
0.09740617871284485
-0.08156059682369232
0.0173557847738266
0.12419028580188751
0.06877908110618591
-0.11729602515697479
0.06430201232433319
-0.008543357253074646
-0.08101828396320343
0.013002529740333557
0.006646394729614258
0.09561015665531158
-0.11310384422540665
-0.12605521082878113
-0.024958953261375427
-0.06496905535459518
0.1325017362833023
0.06516829133033752
-0.03820277750492096
-0.09575559198856354
0.03976921737194061
-0.10749596357345581
0.0660419911146164
-0.0561198815703392
0.00449119508266449
0.135028675198555
0.01667557656764984
-0.02454517036676407
0.02163282036781311
0.027943521738052368
0.0001773238182067871
0.0011633485555648804
0.1012563705444336
-0.06033144146203995
-0.0005879402160644531
0.0358821302652359
-0.09515732526779175
-0.09123361110687256
0.08797398209571838
-0.09955614805221558
0.10635285079479218
0.08527456223964691
0.10061173141002655
-0.0196831151843071
0.09700703620910645
0.040175750851631165
0.01333644986152649
-0.03660474717617035
-0.05942751467227936
0.08605945110321045
-0.0921538919210434
0.07247337698936462
0.005144387483596802
-0.07711313664913177
-0.11336129158735275
0.03068488836288452
-0.11319209635257721
-0.10932892560958862
0.027661263942718506
-0.05575957149267197
-0.10419339686632156
0.057752132415771484
0.06045167148113251
0.0864550918340683
0.05474741756916046
-0.04622945934534073
-0.1350754201412201
0.12604697048664093
0.07694379985332489
0.013084590435028076
0.005350366234779358
0.015314862132072449
-0.06416555494070053
-0.01243811845779419
0.005836501717567444
-0.022045783698558807
0.008838683366775513
-0.0015431046485900879
-0.06864222884178162
0.01936723291873932
-0.03927738219499588
0.028857097029685974
0.07317718863487244
0.004483059048652649
-0.11567480117082596
0.06549158692359924
0.05504773557186127
0.11939506232738495
0.005675211548805237
-0.0724494606256485
0.12640772759914398
0.02286982536315918
-0.00788809359073639
0.0741180032491684
-0.09819967299699783
-0.1124536469578743
-0.02956833690404892
-0.047292619943618774
-0.11324441432952881
0.0646417886018753
0.05379287898540497
-0.1003861054778099
-0.015112854540348053
0.1269293576478958
0.02137550711631775
-0.015653841197490692
0.12705565989017487
0.13689200580120087
-0.02369152009487152
-0.010617852210998535
-0.10711314529180527
-0.07790116965770721
-0.016640067100524902
0.038193851709365845
-0.07002828270196915
0.1215709000825882
0.09446470439434052
0.13391248881816864
-0.0023262053728103638
-0.1135869175195694
0.07688349485397339
-0.10606653988361359
0.006455406546592712
0.062191396951675415
0.023247763514518738
-0.0934595912694931
-0.12882530689239502
0.06544864177703857
0.1308416873216629
0.10878349840641022
0.03683874011039734
-0.062426403164863586
0.06723611056804657
-0.09192454814910889
0.04755586385726929
0.08830904960632324
-0.10117693990468979
0.024449318647384644
0.13789527118206024
-0.012395069003105164
-0.10540209710597992
0.12849067151546478
-0.01684391498565674
0.10169555246829987
-0.06339593976736069
0.04317516088485718
0.12314553558826447
0.036305010318756104
0.08576169610023499
0.09079639613628387
0.10059212148189545
-0.01941157877445221
0.0865030437707901
0.13230670988559723
0.02340000867843628
0.12838180363178253
0.053179800510406494
0.043373048305511475
-0.08602368086576462
-0.08485950529575348
-0.03412424772977829
0.07768091559410095
-0.03901565819978714
-0.11636120080947876
0.11773674190044403
0.08169840276241302
-0.013260997831821442
-0.12276504933834076
-0.04224807024002075
-0.06559481471776962
-0.07419062405824661
-0.08148138970136642
0.10421231389045715
-0.059740111231803894
0.07657618820667267
-0.04244335740804672
-0.0013754963874816895
-0.0791720300912857
0.05147285759449005
0.0030388981103897095
-0.0660628154873848
-0.09433130919933319
0.08159415423870087
-0.07675974071025848
0.07820107042789459
0.04188308119773865
-0.020335286855697632
-0.06361532211303711
-0.033255621790885925
0.10032753646373749
0.015169113874435425
-0.03233961760997772
0.03215159475803375
0.10699847340583801
0.12684713304042816
0.0965501219034195
-0.06705582141876221
-0.03231049329042435
-0.11848030984401703
-0.10421228408813477
0.02234107255935669
0.013893425464630127
0.13703055679798126
0.13392193615436554
0.12814702093601227
0.11358650028705597
-0.07984453439712524
-0.005586564540863037
-0.12300381064414978
0.01075059175491333
-0.10710255056619644
0.04496900737285614
-0.033906713128089905
-0.1313670426607132
0.12898267805576324
0.088933065533638
0.1226060539484024
-0.0430319607257843
0.02552919089794159
-0.12072942405939102
-0.03352224826812744
-0.12177728116512299
0.06375239789485931
0.009066224098205566
-0.1125076413154602
-0.08584875613451004
-0.11382291465997696
0.034302130341529846
0.04356442391872406
0.09015949070453644
0.041584014892578125
0.09800267219543457
0.06969887018203735
-0.04937605559825897
-0.04965640604496002
-0.052972860634326935
-0.010081008076667786
-0.09157496690750122
-0.12731270492076874
-0.053242579102516174
0.07917897403240204
0.039940282702445984
-0.01220761239528656
0.10900869965553284
0.006129845976829529
-0.03939284384250641
-0.055662572383880615
-0.016781657934188843
-0.005840688943862915
-0.12297277897596359
0.12764377892017365
-0.12985292077064514
-0.11015447974205017
-0.11824846267700195
0.10573983192443848
0.07449525594711304
-0.057663120329380035
0.0005938708782196045
0.0027854591608047485
0.07047316431999207
-0.03409130871295929
0.07621113955974579
-0.1263088434934616
-0.01659703254699707
0.08423855900764465
-0.05839327722787857
-0.01572241634130478
0.12016557157039642
0.08090904355049133
-0.0633724182844162
0.0023240745067596436
-0.09475959837436676
0.12453977763652802
-0.0409550741314888
-0.009081855416297913
-0.10677758604288101
-0.026609621942043304
0.07789841294288635
0.10001856088638306
0.04635605216026306
-0.012830793857574463
-0.022701017558574677
0.024907752871513367
-0.09738846868276596
-0.011358201503753662
-0.12703126668930054
0.05432534217834473
0.07557864487171173
-0.06404377520084381
0.022843435406684875
0.03349082171916962
-0.10011319071054459
-0.10931050777435303
0.05411830544471741
0.10472342371940613
0.08613982796669006
0.13529635965824127
-0.05573979765176773
-0.11993743479251862
-0.042182356119155884
0.05989904701709747
-0.07661785185337067
0.12447948753833771
0.04905948042869568
0.08122114837169647
0.11942465603351593
0.07291293144226074
0.002308174967765808
0.015125423669815063
-0.08311116695404053
-0.1234344020485878
0.07543531060218811
0.05825175344944
-0.021740064024925232
-0.12981446087360382
-0.04722028970718384
-0.11761214584112167
-0.1126764789223671
0.0929727703332901
0.07680462300777435
0.040564849972724915
-0.03850753605365753
-0.0013542026281356812
-0.0019033104181289673
