-0.0882951096
-0.0041018273
0.1677640080
0.1594476104
0.0759527683
-0.1023956016
-0.1047197059
-0.0632684454
0.0080602020
0.1103102416
0.1126600057
0.1262382269
-0.0392565653
-0.1085555926
-0.1803255081
0.0624623224
-0.0948716402
-0.1308793426
0.0401647724
-0.0044392650
0.1201873198
-0.1374597996
-0.0933312327
-0.1966458857
0.0890216306
0.0446186140
0.0438892655
-0.0912513509
-0.2453602999
-0.2641121745
-0.0695889443
-0.1980944574
-0.0000968981
0.0179305039
0.0095358789
-0.0133570293
-0.2402014285
0.0307357404
-0.0462783203
-0.2130725682
-0.2755039036
-0.0048972913
0.0882285088
0.0134194503
0.0100623751
-0.1843446344
-0.1150454283
-0.0566659085
-0.1880651563
-0.1097231656
-0.0872590095
0.1842949688
0.1150458753
0.1706993133
0.2490458786
0.1453179121
-0.2889472544
0.0723431706
-0.2200614810
-0.2689834535
-0.1251593977
-0.1547517478
0.1335221380
0.0032985050
-0.0104658641
-0.2984327078
-0.0084842034
-0.3132326603
0.0227358229
-0.3973667324
-0.2505261302
0.1541712135
-0.0216538776
-0.0217738226
-0.1271143556
0.0520046800
-0.0067944489
0.0767499506
-0.0842216387
-0.1626086831
0.1467875391
-0.1122451872
0.0541244224
-0.0356562622
-0.1018179059
-0.0252182279
0.1510875076
-0.1489642560
-0.0134348543
0.1301334947
0.0952928513
-0.2057760209
0.1320756823
0.0331650078
-0.1918385923
0.2236329764
-0.0386906564
-0.1664228439
0.2862336636
0.0516063087
-0.0533458591
-0.1134304702
-0.0215406772
-0.0545896702
0.0256830212
-0.1261477619
-0.0044370671
-0.0160465781
-0.2441126853
-0.4203240573
-0.0182358567
-0.3273012042
-0.1226300225
-0.0844107047
-0.0870295539
-0.1248881146
-0.0581606068
-0.1723396331
-0.0069059944
-0.0788993612
-0.1024331525
-0.0525535531
-0.1267613620
0.0073203743
0.0797332823
0.0254604779
0.0224003848
-0.0131541854
0.1973858476
-0.0431542695
-0.1093088463
0.0422300473
0.0176914893
-0.0900999382
-0.0067732013
-0.0050807968
-0.0393857844
-0.0498980843
0.1492938697
-0.2042654902
-0.0796848759
0.2191234380
0.0663890094
-0.2959753275
0.1059178337
0.1271790713
-0.0307317954
-0.1878509969
0.1126127765
-0.1606227010
-0.4037618935
-0.1914723665
-0.0783899426
0.0182176027
-0.0736415833
-0.0803145692
0.0029094901
-0.1607225388
-0.2226956934
0.1437667906
-0.0526494570
-0.0426362939
0.1160756722
-0.3417567015
0.0194812603
-0.3741283417
0.0692116320
0.2263966501
0.1103679985
0.2352234423
-0.1938993186
-0.1054731011
-0.0837863013
0.2456536889
-0.1869986802
0.0325456150
0.0316450447
0.0038446803
-0.0310974903
-0.0864825323
0.0951773673
-0.0040939660
0.0228728652
-0.0534096435
-0.1625478119
0.0927843526
-0.1863206029
0.1733856499
0.0666665137
-0.0521766469
0.0385015346
-0.2040638924
0.0295352824
-0.2092172801
-0.2169527709
-0.0712786019
-0.3773747981
-0.2002803087
-0.0683936998
-0.0721934736
-0.3504709899
-0.1698056459
-0.0769021660
-0.2547198832
-0.1534036696
0.0382493958
-0.0880324170
0.0693364441
-0.0365366749
0.1032520235
-0.1256163418
-0.2108931243
0.0348824188
-0.0035945473
-0.0216000304
0.1158814579
0.1783974767
-0.2891849577
-0.4813309312
0.1629570127
0.2992668748
-0.0796932653
-0.2411219180
-0.0163288508
0.0477110930
-0.1951500028
0.1297995448
0.2016561627
-0.0661159530
-0.2097383738
-0.0826662555
0.1983725727
-0.0539745353
-0.1612038612
-0.1130910665
-0.1135866866
0.0988281965
0.0631880388
-0.0134227145
-0.3193132579
-0.0447277203
0.1992299110
0.1059714109
-0.0852178559
-0.1339811832
-0.0765742138
-0.1206162423
-0.1770770997
-0.1130050719
-0.0276338160
-0.0679351017
-0.0573193990
-0.0968332589
-0.2230921239
-0.3190015852
-0.3553436399
-0.2986239791
-0.3027867973
-0.3487770557
-0.0884252489
-0.1294938177
-0.2631804049
-0.4062961936
-0.1711635739
-0.4339526296
-0.3142994940
-0.1210543960
-0.1389686912
-0.2369389534
-0.1620078087
-0.0934910774
-0.1236115545
-0.0130339218
-0.0363419242
0.1589195281
0.1644204110
-0.0171278268
0.1378390044
-0.2419939190
-0.1872514039
-0.0938453898
-0.0437049605
0.1154734120
0.1363548934
0.1119763106
0.1577513516
0.0301223490
-0.2011817247
-0.2716957629
-0.0322915316
-0.0030572994
-0.0256529916
0.1304619759
0.1947706789
-0.1340916902
0.0761412904
-0.0014621697
0.0013798955
-0.1791519970
-0.1732481420
0.3254607618
-0.0024814298
-0.2661487758
-0.0221731011
0.1783222854
0.1071598232
-0.0147994719
0.2522529066
-0.1383111924
-0.2784736753
-0.1721429676
0.0921295658
0.1613953859
-0.0718635246
0.1713617444
-0.1964002401
0.0954252928
0.2235678583
0.1065967083
-0.0517339408
-0.2754178047
-0.0499041192
0.0457626469
-0.0955532193
0.1274074018
-0.0379745178
-0.0845677108
0.1246527880
0.0345263518
0.0490262732
0.0067256717
-0.0442265905
-0.0539512783
0.0472957566
-0.0895519406
-0.0585394241
0.0171881989
0.0255817790
0.0342960469
-0.1133667156
-0.0346897468
0.1001845151
-0.0111391386
-0.0905713066
-0.1676020026
0.1198977455
-0.0270790327
0.0352314562
0.0233085286
0.0578420162
0.0582907796
-0.1149827540
0.0552313253
0.0746050626
0.0052081370
-0.0141746765
-0.0057945503
0.0465107001
0.0294795949
0.0520831011
0.0979550257
-0.0438156016
0.0219545271
-0.0635864735
0.1173802018
-0.0348743014
-0.0081330733
-0.0635844395
-0.0195558909
0.0958203226
-0.0079862075
0.1023006439
-0.0700499713
-0.0570406727
-0.0249248296
-0.1077335328
0.0263747312
-0.0059576328
-0.0696960241
0.0225739311
-0.1235178411
0.0569244362
0.0892874151
-0.2790089250
0.1928235739
-0.0257616024
-0.1941901892
0.1251111478
0.1656936109
-0.1747666597
-0.0454826280
0.0413327478
-0.4624288678
0.0636700690
0.0991642475
-0.2319726348
0.0905381665
-0.1765461862
0.0291744508
0.0167194791
-0.1756786257
0.0690882429
0.0640484989
0.0326645635
-0.0328126475
0.0069914507
0.1529808342
-0.1353228539
0.0877836868
0.1832790375
-0.1478475481
-0.0849298164
0.1818306595
-0.1731023937
-0.1917282045
0.2392770052
0.0148155494
-0.1055744514
0.2451360673
-0.1470174491
-0.1446515769
0.2911090553
-0.1629567742
0.1140601039
-0.0161345340
0.0507851243
0.1151779816
-0.0703562647
0.0297864806
-0.0992230773
-0.0394403674
-0.1460942626
-0.2279714793
0.0166580621
0.0546860397
-0.1963104159
0.0091656363
0.0888986662
-0.2516770959
0.0753353387
0.0783171430
0.0366511531
-0.0923951343
-0.1485753357
-0.0033044054
-0.0919923484
0.0483363792
-0.1002457365
-0.0939510912
-0.1208251119
0.0723396838
-0.0412678495
0.0170349069
-0.0177731011
-0.1854087263
-0.0486747772
-0.1155978143
-0.2249692231
0.1105648950
-0.0021110685
0.1538585573
0.0804340541
-0.3271220624
0.1988562644
0.0884674564
-0.4377884567
-0.3010655940
0.0831642747
-0.2400223762
-0.2265245020
0.1410687119
0.2755019963
-0.4573745728
-0.1889953017
0.2419217974
-0.1406774670
-0.1518397480
0.0738188699
0.1347765326
-0.1052566767
-0.1252449155
0.0843412951
-0.0194288734
-0.2249705642
-0.0272551998
0.1402565390
-0.0190316197
-0.0913643837
-0.0540251844
0.0451707803
0.0022562405
-0.0922023952
-0.0156389549
-0.0496233739
-0.1048938558
-0.0558493696
-0.0623175316
-0.0928584859
-0.1144894436
-0.0912791342
0.0087903580
0.0744106323
-0.0425132401
-0.0330143906
-0.0376840904
-0.0052269669
-0.0581715405
0.0352729484
-0.0791152418
-0.0924772546
0.0725322589
0.0880846083
-0.0376164801
0.0997165442
-0.1088414267
-0.1829638183
-0.0271155238
-0.2272346616
0.0268734377
0.0505545326
0.1287111342
0.1662760973
0.0644610971
-0.0520473570
-0.0275534801
0.0129084345
-0.1173222810
-0.0200339798
-0.0875591263
-0.0263153743
0.0549938902
-0.0902705118
-0.0509988777
-0.1220781207
0.0641567931
-0.1083318815
0.0376292281
-0.1091527790
-0.0942425057
0.2026550323
-0.0838240162
-0.3712961674
-0.1192044765
0.1220119596
-0.1371532083
-0.2792933285
0.1740064174
0.1796905100
0.0159911774
0.0448874459
0.2263960987
0.1023100317
-0.1894010603
-0.1149082333
0.1521019042
0.0158405863
-0.1221229807
-0.2492668182
-0.1761722118
-0.0988511816
0.0786785558
-0.1609720141
-0.4856885076
-0.0929181650
0.1447046548
-0.0011649493
-0.2428078204
-0.0447736792
-0.0557070673
-0.0457657613
0.0003672663
-0.1041361764
0.0664986819
0.0004398648
-0.0714122429
0.1152804047
-0.1433961838
-0.0795599297
0.0444918722
-0.0635269806
0.0128720989
0.2451316416
-0.0067705219
0.1880128980
0.0902554095
0.0388090722
-0.0408992022
-0.0035868334
0.0517850108
-0.0949643627
0.0869513154
-0.0451646298
0.0802875534
-0.0105275009
0.0496085621
-0.0018441019
0.0243581142
0.0076543782
0.0436531119
0.0423537195
-0.1660256684
-0.0681646615
-0.0535560660
-0.0505452901
0.0811232999
0.1721903980
-0.1047789156
-0.1293224990
0.0046542957
-0.0479000099
0.0334911123
-0.0633033216
-0.0480634645
0.0574542470
0.0322930813
-0.0874601230
0.0852720439
0.0164622236
-0.1061671600
0.0728439540
0.1238748580
0.2075942904
0.0752914622
-0.1134732142
0.1542970240
-0.0263701752
0.0159530807
-0.1040349081
0.0332246795
-0.0121683758
-0.0100765182
-0.0937662721
0.0537151061
0.0787958205
-0.0925958529
0.1142517403
0.1147993356
0.1256870180
0.0105483886
-0.0437205620
0.0001102178
-0.0585364029
-0.0485169403
0.0686216578
0.0913397893
0.0355402753
-0.0330195092
0.1132657900
-0.0697064996
0.0641275644
-0.0199727695
0.1841917187
-0.0023742956
-0.2334711403
0.0843374953
-0.1154121384
-0.4048337936
0.0801922530
0.1075765565
-0.1625697315
0.0975302979
0.1686349809
-0.2243848741
0.2552461624
0.0799254477
-0.2580479085
-0.0984992534
0.0381384678
-0.0646150261
0.2181363553
0.1870391518
-0.0926777795
0.0605530366
-0.0330148004
-0.2994228899
0.0986707807
-0.0236751009
0.2110866159
-0.0087441141
-0.1130919382
-0.0031305521
-0.1966156214
-0.2262654603
-0.0343326814
-0.0362518765
0.0601188652
0.1574617922
0.0897346288
0.0651807562
0.0387256742
0.1713755280
0.0050855596
0.0552532151
0.1187344939
0.0086481618
0.2444237918
-0.0153986868
0.0635157153
0.0141125778
-0.0162345767
-0.0479786918
-0.0203871932
0.0424205586
0.1180178598
0.1510842890
-0.0222571157
0.1288307905
-0.0077295536
0.0641268939
0.1874731332
-0.0080375141
0.0463094078
0.1552782357
0.0354438871
0.0158600956
0.2063371688
-0.0086801415
0.2063745707
0.1603093296
-0.1004960313
0.0434583761
0.0163151398
0.1704409122
0.1187712327
0.1298553646
0.0356622338
0.0111258635
0.1109743491
-0.0114344833
-0.0270471815
0.0109342262
-0.0040380820
-0.0671678856
-0.0105601912
-0.0734293684
-0.0533778369
-0.0652436465
-0.0878588781
0.0590016991
-0.0503582880
-0.0602283143
-0.0035252518
0.0297537874
-0.0148842772
-0.0330298468
-0.1276487708
-0.1708058864
-0.0482620187
-0.0776248500
-0.1976869255
-0.0267125610
0.0100149112
0.0621881075
-0.0702708811
-0.0205885619
-0.0452095792
-0.0122322934
-0.0653763637
-0.0750364214
0.0982856005
-0.1374126375
0.0855153278
-0.0491675697
-0.0489075556
-0.0582872108
0.0877209678
-0.2087122649
-0.1777307391
0.1118927822
-0.0922343582
-0.0904394984
0.0348352864
-0.1243858039
0.0728849918
0.0722773075
-0.0190601535
-0.0008680350
-0.1204851270
-0.1015865505
-0.0353115499
-0.0464076512
-0.0190009400
-0.0387893431
0.1549799293
0.0125619099
-0.1925386339
0.0403857864
-0.0716296509
-0.0815352723
0.0150348824
-0.0273612719
-0.1689832211
-0.0185047500
-0.0478010699
-0.1567101032
0.0897977501
-0.1759933978
0.0218494162
0.0755746514
-0.0510691553
-0.0533618405
-0.0676477700
-0.1123783886
-0.0304940529
0.0580393821
0.0364522487
0.0117876250
0.0394717306
0.0561865680
0.0442931242
0.0325412154
0.0360861383
0.0856409743
-0.0255642608
0.0286879689
0.0011864112
-0.0219638254
-0.0992665067
-0.0613000952
0.1597718745
0.1434247047
0.0198368300
-0.0852069259
0.1290675551
0.2126452774
-0.1433879435
-0.3319415152
-0.2064910829
0.1293339729
0.1910483092
0.1296954006
-0.1173845306
-0.0123395380
0.0867708847
-0.1912277043
-0.2888600230
-0.1663219035
0.0183122568
-0.1791069955
-0.0191401001
-0.1122133583
-0.0071401093
0.1635546833
-0.0100969234
-0.0485858135
-0.1097374931
-0.0900539979
0.0172186736
0.0431778170
0.0709525719
0.0070810360
0.0396565124
-0.1707024723
-0.2313695997
-0.3682895005
0.1597911865
0.0201804601
0.0036443633
0.0692734495
-0.1271755844
0.0729576349
-0.1987270266
-0.1344289482
-0.1037562042
