0.1127946377
-0.0103407092
0.0116774412
0.1119733155
-0.0322174877
-0.0229945648
-0.1740408093
-0.1659142971
-0.2199875414
-0.2499994338
-0.0839011595
-0.0229585804
0.1194097549
-0.2512826920
-0.0699392185
-0.0621764734
0.0368180163
-0.0082795797
-0.0097780954
0.0274690632
0.1050127298
-0.1312917024
0.0276414528
0.0801792964
0.0172350761
-0.0606366508
-0.0495832898
0.0621495098
-0.0056517436
0.0060780635
-0.1971285492
0.1786637306
-0.0830120295
0.2047339678
0.0580154918
-0.1210831031
0.2590662241
0.2048949748
0.1440130472
0.0826554596
-0.0363736451
-0.1175937802
0.0084712971
-0.1347693056
-0.1794363707
-0.0791864991
-0.1118782982
-0.0780104473
0.0925333574
0.1274564415
-0.2372530997
-0.2021649182
0.1843773574
0.0133460248
-0.2749456167
0.0342860296
-0.1202227995
-0.1069883853
-0.0506449789
0.0196604989
-0.0743187219
-0.0056361705
-0.0476443730
-0.0062033869
0.0252225567
-0.0062033688
0.0161047820
0.0795062929
0.2067114264
0.1270354241
-0.2325435430
0.0476249829
-0.3394275010
0.0929835141
-0.3447015882
-0.2444574684
0.0502477065
-0.1132065505
-0.2129816860
-0.1665514261
0.0213785972
0.1662845761
-0.0541274212
-0.0127048744
0.1417497844
-0.1303819269
-0.1361221969
-0.1853985935
0.0347378552
-0.0185515583
0.0916144624
-0.2082950622
0.0708352551
-0.2457428277
0.0789319202
0.0954816490
0.0077411802
-0.0470851883
-0.0068931356
-0.2405771017
-0.1699859500
-0.0274948943
-0.0317321979
0.0335530639
-0.2118258923
-0.0583304353
-0.0228354856
-0.0346846879
0.0287542697
-0.1420303881
-0.1082771719
-0.0838349760
-0.1171184033
-0.0481543802
-0.0117663117
-0.4454930425
-0.2966446579
0.0165315252
0.0419445634
-0.0537063368
0.0051665218
-0.2974693179
-0.0306333024
-0.0272051543
-0.1077660769
-0.2138587534
-0.2194413394
-0.0712398738
0.2326405942
-0.0508259349
0.0259518698
0.0557439625
0.0258674063
-0.0610940456
-0.1567996293
-0.0337323807
0.0437265784
-0.0069337585
0.0033112851
-0.1966324300
0.0414735153
-0.0410873294
-0.1585929990
0.0362689383
0.0935128704
0.1116162911
-0.0501915216
-0.0556452125
0.1099912897
-0.2582254410
-0.0861670896
-0.1569533795
-0.0411824957
-0.0220375843
0.0056803473
-0.2231870741
-0.0422956198
-0.2165158689
-0.0423009172
-0.2262341976
0.0079755522
0.2455403656
-0.0874072164
0.2611384988
-0.1726226956
0.0032976528
-0.0625341460
-0.0526488610
0.0818449408
0.0237400793
-0.0000364279
0.0926664770
-0.2218841910
-0.1614080667
0.0417428575
-0.0742054433
-0.1342236996
-0.1103307158
-0.0385469571
-0.2058061957
-0.2585596740
0.0626499578
-0.0884704962
-0.0758483335
0.0345855542
0.1565284431
-0.0009901394
-0.0417844057
-0.1046730354
-0.2781612277
-0.0406940468
-0.0221374352
-0.3045662642
0.0380315296
0.0229105167
0.0254156981
-0.0053054537
0.0091202827
-0.1645366699
-0.1359414160
-0.0918582901
-0.0183810461
0.0387441851
-0.1052892059
0.1412973106
-0.0825195462
-0.1216084287
-0.0666708723
0.1264637560
0.2639535069
-0.0508014224
0.0207978860
-0.0128582437
-0.0281992573
-0.0366682075
0.0194942374
-0.0343730338
0.0051894267
0.0646437258
0.0354361720
0.0157861430
-0.2221317440
0.1338059604
-0.0489835814
-0.1478610784
-0.0286696646
-0.1773420125
0.1507452279
-0.1170075089
-0.0196836591
0.0952736661
0.0603844970
0.0557632148
0.0901155621
0.0245363303
-0.1739540994
-0.0618470795
0.0515828058
-0.0770110190
0.0274542384
-0.0805793926
-0.1296238154
-0.1612212360
-0.0117650582
-0.2951778471
0.0818454400
-0.2826259732
0.2685574293
-0.0270031914
-0.0040138508
-0.0662105978
0.0268396139
-0.0771021247
0.0105041899
-0.0309373271
0.0489763878
-0.0637822151
-0.0683506802
0.0342014097
0.0865296647
-0.0112333614
-0.1348499358
-0.1246058419
-0.1927814484
0.0851434693
0.2290088981
0.1505746245
-0.1224896982
0.0430355556
0.0694609806
-0.0118542230
0.1253217310
0.0150246881
0.2513425648
-0.0068414309
-0.0775827765
-0.0856851563
-0.0215938613
0.0064049503
0.3943356574
-0.0164519846
-0.0289017707
0.1429037154
0.1450650245
-0.0224542022
-0.1394193470
-0.1367341280
0.0306866597
-0.0900289938
-0.0010528167
-0.1293323934
-0.0200366769
0.0672944188
0.1438282579
-0.1423041523
0.2802832723
-0.3426451981
0.0008609069
-0.0996108279
-0.1349957883
-0.1041259989
-0.0853234231
0.0787832737
0.0887430683
-0.0665685162
0.0112449061
-0.0038220161
0.0709678605
0.1326734424
0.0105406614
-0.4729693532
0.1259628236
0.1510478556
0.0052497312
0.0937634408
-0.0237826407
-0.0598948486
-0.2099604458
-0.0607773662
-0.0799323320
-0.0658320710
0.0091894288
0.0210049488
0.0896867663
0.1179014817
-0.0783349872
0.1931870431
-0.3493155539
-0.1286549270
0.0017465719
-0.1563983858
-0.1452005357
-0.0028972412
0.1202729121
-0.0034063801
0.0390077047
-0.0662834197
0.0664649457
0.0128937056
-0.0305891428
-0.0328361876
-0.2560516298
-0.0756735131
0.1820950210
-0.0233556908
-0.0118862102
-0.0748977810
-0.0856993869
0.1209025308
0.0252663065
0.0481912270
-0.0799334347
-0.0419404767
-0.0630474389
0.1250591278
0.1597065777
0.1985031068
0.0157428216
-0.2063969672
-0.1115523651
-0.0150609184
-0.0964133143
0.1676572561
-0.0203319788
-0.0907723308
-0.3141192794
0.0182264801
0.0582225956
0.0130611481
-0.0484573282
-0.0569350794
-0.1130895838
-0.3614457250
0.0379874445
-0.2660976946
0.0600132160
0.1170785725
-0.1452446431
0.1021989882
-0.0656480938
-0.0372332036
-0.0266854651
-0.0962805450
0.0519370399
-0.2272551060
0.0126416925
0.0005094442
0.0782082081
-0.0155560849
-0.1380005926
0.0697572455
-0.2535205185
-0.2413826138
-0.2474203557
-0.0623899512
-0.1753620058
0.0789787546
0.0101368362
0.1047263965
0.0827735662
-0.0826789513
-0.0448402539
0.0133348731
-0.0189817175
0.0059656766
-0.0551524237
-0.3503525853
-0.2421163172
-0.0226491168
0.0025803095
0.0569750741
-0.0937839597
-0.0713477358
-0.0092511401
-0.1120437309
-0.0234494340
-0.0568314195
-0.0302598029
-0.0351714715
-0.0089890389
-0.1027998105
-0.0421084836
-0.2849354446
-0.2410584092
0.1283062845
-0.0398975946
0.1057616845
-0.1098030061
-0.2736988664
-0.1358110756
0.0599353351
0.1189470813
0.1131396443
-0.1606937051
0.0351559035
-0.2472559065
-0.2812572122
0.1185937896
-0.5324541330
0.0816194937
0.0846682191
-0.0082262233
-0.0190541390
-0.0198385511
-0.0246259589
-0.1328392178
-0.0126335425
0.0915418863
-0.0377207883
0.0072443075
-0.0236605555
0.3434984982
0.1868437380
-0.0069819666
-0.1151196137
-0.0829708576
-0.4012653530
0.1260940135
-0.1083825827
-0.0299849398
0.1221793666
-0.2245688587
-0.0515124612
-0.2459354550
-0.0186395328
0.1576275527
-0.0424343348
-0.0527872667
-0.0513990410
0.1530404836
0.1618201584
-0.3482632041
-0.0321177058
0.1759020388
0.0005766973
-0.0065894588
-0.1349845529
-0.0971688554
0.0026263637
0.0936394408
0.0279248264
0.1582580060
-0.0916480422
-0.0279058460
0.0758517236
0.0842862055
-0.2134317458
0.0831281170
-0.1521300972
-0.0644320026
0.1084240824
-0.2613727748
-0.1710981429
0.1185215488
0.0016267009
-0.0305105038
-0.0190400686
0.0192954652
0.2406070679
-0.3338858187
0.1764595509
0.0410915874
-0.3276778162
0.1774272174
-0.0766639337
0.0065099862
0.0824706927
0.0003208779
-0.0964415222
-0.1866546720
-0.1081962660
-0.2647667229
0.1068217829
0.0571077876
0.0085462322
-0.0282235947
0.1843870431
0.2574948370
-0.0390092470
-0.0513598435
-0.1010638699
-0.0099781100
-0.1113095954
-0.0241770111
-0.0020564399
-0.1544849426
0.1233714521
-0.1144839227
0.0446130335
0.0725555271
-0.0451299027
-0.0465589240
0.2450750917
0.1610443592
-0.1341157258
0.0770801380
0.0262693521
0.0129607823
-0.0670375079
-0.2662061751
-0.1020125225
0.1236451641
0.1625130475
-0.1338951290
-0.0046347762
0.0959857777
-0.0465441495
-0.0580666699
-0.0278265867
0.2127787322
0.0281471796
-0.2028941661
0.0674939826
0.1968148053
0.1215054095
0.0238136984
-0.5286391377
-0.1264133006
0.0406287462
0.3215423226
-0.0402936712
0.0232103951
-0.0804531127
-0.0250815321
0.2360958159
0.0522364452
-0.0146339713
0.1853604019
0.0754026175
-0.0550918207
-0.2029368281
0.1555685848
-0.0831941366
-0.0829372033
-0.0532524697
-0.4080350399
0.1399193406
0.0733004510
-0.0295493454
-0.0191903766
-0.0855301246
0.1189708114
-0.2943030894
-0.2198305577
-0.2000686973
-0.0375966579
-0.1157719791
-0.0585549027
0.0169568304
-0.2566575110
-0.0463447124
-0.1835995764
-0.0548469909
-0.0465008207
0.0611138418
-0.0713321120
-0.2240927219
-0.0290398989
-0.1948179901
-0.0908578038
0.0306125805
0.2192187756
0.1075396538
-0.2207783461
0.1277832836
-0.1010750160
0.1403223425
-0.0819419771
-0.0060730157
-0.0988776237
-0.1300502121
0.1080410033
-0.2055379450
-0.0676922798
0.0357918739
0.0011153206
-0.1666236520
0.1368771046
-0.0348467417
0.1524852514
0.0024616197
-0.0896866992
-0.0414715484
0.2325901538
0.1218612343
0.0337680764
-0.0380982719
-0.1221920401
-0.2755469978
-0.0394690521
0.1213348433
0.1176823527
0.1931992918
-0.1323928088
0.1858681142
0.1018933803
0.0410917588
-0.0129884081
-0.1720446050
-0.0372917615
0.1319180876
-0.0240684077
-0.0132976854
0.1230126098
-0.0208948404
0.1662679315
-0.0329174772
-0.1013237014
0.1275334954
-0.0565724224
-0.0989746526
-0.0502266474
-0.1110212430
-0.1405261904
-0.0943283513
0.3415810168
-0.0017598125
-0.1945867836
-0.0562365241
-0.0658013895
-0.0446952432
-0.0112175494
0.0405661091
-0.1570207626
-0.0622559488
-0.0352376811
0.0436542518
-0.0491876379
-0.0276721269
-0.0179136992
-0.0230510980
0.0357825272
0.0361116789
-0.0313365087
-0.2185777128
0.0935913548
-0.0418734141
-0.0850042477
-0.0969466269
-0.0879625455
-0.0169542152
-0.0598458163
0.0379925966
0.1761156023
-0.0702586770
0.0059297103
-0.0843906179
0.2698678374
0.0648913234
0.0411616452
-0.0499404892
-0.0147007192
-0.3678219020
-0.0500777923
-0.0129619241
-0.0116577502
-0.0334814973
0.1033193171
-0.0590488501
0.0653588846
-0.0809145197
-0.0304069612
-0.1996886432
-0.0731873065
-0.0243386123
-0.0167104732
-0.0257821213
-0.1240479723
-0.1764884740
0.0201922413
-0.0734333098
-0.0304053482
0.0162946358
0.0526625589
0.0028791921
-0.1680679619
0.0989953279
0.0861228034
0.0225525014
0.1140020192
0.0946961865
-0.3172746003
-0.0420779362
0.0189057142
-0.1459048688
-0.1993454099
0.0178033579
-0.0491422974
-0.0555284321
-0.1368325949
0.0686422214
-0.1554650068
-0.1122537106
-0.1535256803
0.0442292914
-0.0729440749
-0.0703666732
0.0117393956
-0.3598217070
0.2966758311
-0.2355234474
0.0503706709
-0.0194647834
-0.1104422882
-0.1259739399
0.0779474303
-0.1988130659
0.0844814852
-0.0236300360
0.0035191816
-0.0427375659
0.1649763882
-0.0077572563
-0.0036426918
-0.0012613862
0.1137282997
-0.1115718186
0.0744740069
-0.1572765410
0.0124068540
-0.1668620110
-0.2091987133
0.0895152912
-0.1445741802
-0.0656346008
-0.0776564628
0.0050938572
0.0083204983
-0.2855047882
-0.2258467227
0.0069132396
0.0973813459
-0.0474342778
0.1153228655
-0.0090050371
0.0039068493
0.0468023680
0.0325674415
-0.0505147688
-0.1185645536
0.0776773095
0.1483165473
-0.0016196585
-0.0315155685
-0.0716057569
-0.3496904075
-0.0043969811
0.0030069461
0.1573957354
0.1598267257
-0.2183736265
0.1351171881
-0.0236326829
0.0379951559
-0.0993249416
-0.1161187291
-0.0909001529
0.1966787428
-0.0977882817
0.0341528431
0.0425942689
-0.1630292386
-0.0931649134
0.0997134447
-0.1149371192
-0.0430838093
0.0657438710
0.0196539983
0.1333608329
0.0239190143
-0.0220268108
-0.0736999214
-0.1486988366
0.1721473187
0.0567075200
0.0931886286
-0.1277730167
0.1340817511
0.1324516088
0.2250028849
-0.0155002773
-0.0932186767
-0.1656066179
0.3924555480
0.0648745820
0.0627131164
0.0268295985
0.0293100104
-0.0581355914
0.0166729819
-0.1542542577
-0.0325015001
0.2190684974
0.1196220815
0.0275580958
-0.0876950026
-0.0278697163
-0.0795099214
-0.0833621472
0.0679219589
0.0022947975
-0.0591135770
0.0260970648
-0.1468240768
0.0219164137
-0.0888626799
-0.0417684428
-0.0920493752
0.1346647888
0.0199127365
-0.0458131768
-0.0396399684
-0.2258838415
0.0634447187
-0.1520477235
-0.2064614147
0.0007547163
-0.0952599347
0.0794012100
-0.0479974300
-0.0466722734
0.0759448186
0.0243738685
-0.0679644197
-0.0467746370
-0.0529847480
-0.0726809949
0.0882040411
-0.0819859579
-0.1009833589
0.0089976890
-0.2419643700
0.1085954234
0.0569852516
0.0968984067
0.0724411681
0.1028269827
-0.0129953958
-0.0732703954
0.0648045316
-0.0298146307
0.0910032988
0.3129211962
0.0588207990
0.0133723849
-0.0265618861
-0.0780094713
0.1195388660
-0.1219293624
-0.0224280767
-0.0279815290
-0.0738247111
-0.1243194640
-0.1072646976
-0.1312325448
0.1114105508
-0.0422679745
-0.2251256853
-0.0135184526
0.0687026381
-0.1235928014
-0.2611629069
0.0011117455
0.0149936629
0.0120440805
0.0693986788
0.2256623507
0.0242738798
-0.0039919508
0.0976839960
0.1455433965
-0.0727335066
0.0656084716
0.1522024572
0.0568987764
-0.0598640069
-0.1190933585
-0.1332765669
0.0586906224
-0.2464500219
0.0057349587
0.0147784930
-0.0926917866
-0.1053762957
0.0606600977
0.0297771115
0.0265704840
0.0571693778
0.0517939255
-0.1706328392
-0.2172752917
0.2279284149
-0.1553604156
-0.0819362104
-0.1934528500
0.0377501957
0.0081345215
0.2143720537
0.1833369434
-0.0174123347
-0.0684388727
0.1281728297
0.1081298441
0.2200811505
-0.1210522354
0.0194036141
0.0704375356
0.0151907559
0.0748014674
0.0324342363
-0.2198244035
0.2437650561
0.0248134471
0.0142906820
-0.0358739048
-0.0175321940
-0.1033272892
0.1719644815
-0.0032376838
0.2565163970
0.0912005603
-0.0288708508
0.0037549702
0.3661407828
-0.1739041805
-0.3166334331
0.1995480806
-0.0035855158
-0.1785548180
-0.0423657149
0.1127666906
0.0730652958
0.0598156899
-0.0489090160
-0.0721520111
-0.0346406661
-0.1373141706
-0.1686755270
-0.0406445153
0.0159368478
-0.0921569541
-0.1861310601
-0.0502032638
-0.1903032362
-0.0425069295
-0.0370002389
-0.1891520023
-0.0410371460
-0.0398987569
-0.1186606959
-0.0974674970
-0.0056171375
-0.0352066867
0.0627917796
-0.1117775515
0.1613584906
0.0950204134
0.0021234048
-0.0332637653
0.0799064562
-0.0201013386
-0.0523670614
0.3143632412
-0.1276461780
-0.3391193449
0.1224861145
-0.0367344692
-0.2286937982
-0.1800216287
0.0518284403
0.3592318892
0.0432457514
0.1136939973
0.0589358248
-0.1162839308
0.0622524023
-0.1341737062
0.0501550548
0.0069377874
-0.0222194940
-0.0353371575
-0.0831867978
-0.0097279577
0.2183449268
-0.0159927066
0.1319126189
0.0069221752
0.1189669520
-0.1600453109
0.0687018558
-0.0275600981
-0.0452776998
-0.1564654708
-0.0902456641
-0.1259651929
-0.0850012451
-0.0244274829
0.0780845508
-0.0426664203
-0.1742957234
0.0304602105
0.0914238542
-0.0010079182
-0.0144836744
-0.0706020594
-0.2508497536
-0.1245762706
0.0832445621
-0.0050672204
-0.0928376392
-0.0288610067
0.0276083983
0.1709605157
0.1707836986
0.0391993895
-0.1608965695
0.0383663736
0.0766119212
-0.1598898321
-0.0678055659
0.0278416388
0.0594877899
0.1511913389
0.0503138974
0.0906018913
0.1355283111
-0.0202001072
0.1393477619
-0.2161205560
-0.0906431973
0.0899696946
0.0704202652
-0.2098445892
0.1175523698
-0.2795349360
-0.0722567439
-0.0885220543
-0.1766425222
-0.1361957341
0.0913446173
0.1762458831
0.0352633595
0.0954168588
0.1511645615
0.0180868208
-0.2339197844
-0.0802483559
-0.1505066007
-0.0291329715
0.0226651989
-0.0203013457
-0.0081273355
0.0342949107
0.3714107573
0.1005735695
0.0372602008
-0.1125116870
0.0486945361
-0.0398452878
-0.1032735780
-0.1789179444
0.0760004148
0.0580428317
-0.0269890167
0.0012997598
-0.0377529562
-0.0225328431
0.0312095359
0.0191427842
0.1323093176
-0.2326498330
0.0476048328
0.0229538698
-0.0608562343
0.0444123484
0.1059610546
-0.0167198367
-0.0078033311
-0.1819852442
0.0686768666
0.0749732926
-0.0923957974
-0.2817051709
-0.0019426558
-0.0626749322
-0.0235564075
0.0407764427
-0.2945567071
-0.2362237871
0.1156404093
-0.0391202569
0.1369223148
0.0337874815
-0.0698350966
-0.1074641272
0.0894641504
-0.0571013577
-0.0017041774
0.1926107854
-0.0470040590
-0.0596600473
-0.1280478984
-0.0697982013
-0.0805096701
0.0269381423
0.0514973626
-0.1847182363
0.2007135004
0.0088938000
-0.0480011515
-0.0445244908
0.1142963544
0.0095391339
0.0995652601
0.0061122486
-0.1564904302
0.0504467413
0.2070232034
-0.0944958031
-0.0876922831
-0.2328548133
-0.1444168389
-0.1735252440
-0.0598039441
-0.0648947880
-0.1225078627
0.0816705897
-0.0735783130
-0.0295383781
0.0424214713
-0.0571717322
-0.0192656573
-0.0068233465
0.1032802016
0.1141405851
-0.0072510005
0.0388735607
0.0002100436
0.1118151173
0.2290875316
-0.0212685298
-0.1280023307
-0.0875279307
-0.1016023308
-0.0047841854
0.0094549479
-0.0661656559
-0.1483694315
-0.0364547186
-0.0398911089
-0.1452086717
0.0150635028
-0.1337310821
0.0038386760
-0.1240487397
0.0752846077
-0.1310103387
-0.0059976750
0.1480449736
0.2350968719
-0.0054788324
0.0004083382
-0.0347162709
-0.1293099076
-0.0321432464
0.0727732182
-0.0916037038
0.0869323462
0.0224068984
0.0411563329
-0.0555543192
0.1350983828
0.0121877687
0.0714363679
-0.0953106433
-0.1815277338
-0.1303712130
0.2142340392
0.0105993738
0.0462727658
-0.0708767772
-0.0138302203
-0.1559707969
-0.0139863743
0.0096715409
0.0478366204
-0.1918392926
0.0444109291
-0.1247303486
-0.0954392701
0.0875979438
-0.0113318944
0.0487142093
0.0632956699
0.0128672011
-0.0438782051
-0.0783293620
-0.0645290762
-0.1145520210
0.0259107109
0.0159545764
0.1495045722
0.1009621248
-0.0313300341
-0.0208869465
0.2001399696
0.0786366537
-0.0256627686
-0.0181450434
-0.0234322213
0.1152433902
-0.1514199227
-0.2207767814
-0.0828519538
0.0466242693
0.0488865227
-0.0162041001
0.0769095793
-0.1114961654
0.0076702097
-0.0785310566
-0.1100696623
-0.0129666822
0.1675953865
0.0554608032
0.0060352958
-0.2193999738
0.1492613256
-0.1694032103
0.0348994955
-0.1534727216
0.1780450493
-0.1258815527
-0.2205588967
-0.0101255290
0.1640369296
-0.0204837229
-0.0998321325
-0.1680002064
-0.0615346879
-0.2271554768
0.0973700285
0.0044465587
0.1145005897
-0.0084813656
0.1079285890
-0.1393480301
-0.0667491183
-0.1028543934
-0.1928760558
-0.0550869666
0.0107299779
-0.1542748809
-0.1560210735
0.1461502612
0.0899759084
0.0845805481
-0.0826694965
-0.0109640043
-0.0336431749
-0.1808530539
-0.0307734460
-0.1205535457
0.0156831127
-0.0375886559
-0.0624782667
0.0328172147
-0.2025646269
0.0972107500
0.1310707182
0.0904557407
-0.2402112931
0.0994673595
0.0782238245
0.0858946145
-0.1352241188
-0.1773177385
0.1663780659
-0.0220141243
-0.0012547185
-0.0193293709
0.1137115732
-0.1135022640
-0.0009174352
-0.0880597532
0.1406152993
-0.0893054754
0.1140055731
0.0230057649
-0.0401132107
-0.2531009614
0.0943122506
-0.2632541656
0.0101037333
0.0070693027
0.0989435911
-0.1743718982
-0.1899510920
-0.1890011281
0.0269904193
-0.1150456741
0.0890209675
-0.2219386995
-0.0916485637
0.0807430446
0.1162616611
0.0195095241
0.1071087569
-0.1530372053
0.1745485365
-0.1879197359
-0.0040065073
-0.1019418463
0.0174103212
0.0502827913
0.0554799847
0.1313720495
0.0629506633
0.2935482860
0.0843410641
-0.0296030156
0.1950174421
-0.0627797320
0.0525756739
-0.0884662867
0.0641920120
0.1125013977
-0.1046297327
-0.0443579331
0.0803796276
-0.1606208533
-0.0890878886
-0.0678721294
0.0915897712
-0.3110179305
-0.0968959853
-0.0325892940
-0.1053991243
-0.0600128323
0.0640392154
0.0115421992
0.1652288139
-0.0243431311
0.0038804715
0.0883027315
0.1780914366
0.1270050108
0.0263238065
-0.1002149656
-0.0195737705
0.1362027377
-0.1955791414
0.0742610246
-0.0269807018
-0.0309850052
0.2501781285
-0.1330775619
0.1277563274
-0.0080688400
0.1274462044
-0.0617448278
-0.1093222871
-0.1153036803
0.0112651410
-0.1006798372
0.0749441460
-0.0661012381
-0.0057598115
-0.0387281962
-0.0402444452
0.0007490668
-0.0762671903
-0.0266611259
-0.0929764509
-0.0608054064
-0.0713748410
-0.1708090603
-0.0505456775
0.1702183485
0.0077969925
0.2015947998
0.1131905317
0.0902611315
0.0099270185
0.0274594761
0.1162080169
0.0056885281
0.0413463451
-0.1077662930
-0.2576017976
-0.1055280268
-0.1701798439
-0.0143368654
-0.0137490332
0.1515803635
-0.1289377213
-0.0876342058
-0.1889035553
0.0570218153
0.1128716469
0.1550467312
-0.0247046184
0.1200568751
0.1880519837
-0.1131294891
0.0238857865
0.0596194305
0.1693485379
0.1919127405
0.0517617203
0.1415981352
0.1176019311
0.0594104081
0.1180061400
-0.0062567727
0.0078189727
0.0674242228
0.1203007624
-0.4024067819
-0.0929702893
0.0679252297
-0.0497807041
-0.2312734872
-0.0114207165
-0.0876132697
0.3258541524
-0.1841153949
0.1017421037
0.0785640851
0.0786314011
-0.0133625763
0.0307228565
0.2339770347
0.1042821184
0.0158848558
0.0343359858
-0.1192651689
-0.2421981990
0.0084598502
0.1563823670
-0.1494236290
0.0386152267
0.1561346054
0.2679909170
-0.0874728411
0.1480310559
0.0580658577
-0.0374667197
-0.0253411178
0.0011712825
-0.0565748066
-0.0178198833
0.1152787283
0.0591826737
-0.2711690962
-0.0285090767
0.0043323748
-0.0024148759
-0.0738606751
-0.2693226635
-0.1187009290
-0.1671238095
-0.0394661538
0.1115205735
-0.0603497401
0.0724218637
-0.0526947342
-0.0580016859
0.0702727288
-0.0308090355
0.0684032440
0.1450556666
-0.0803333074
0.0069029247
-0.1093174368
0.0635219887
-0.0125575028
0.0645980760
0.0710460171
-0.2439868450
-0.1696759611
0.1241983101
0.3295453489
-0.0388278849
0.1078470200
-0.1463290453
-0.1505344808
0.1686269343
-0.1608208865
-0.0339691266
-0.0481637381
-0.0467532314
-0.0272320397
-0.2068231553
-0.0605672002
-0.0489293076
0.0498637334
-0.2444270849
-0.0179212783
-0.0046924800
-0.0246111751
-0.1155115440
-0.2623803020
0.0680275708
0.0464069955
0.1034645289
-0.1659065783
-0.0565010533
-0.0034111051
-0.0684467927
-0.0115577020
-0.0736406967
0.2142220736
-0.0367565975
-0.0667050406
-0.0265657622
-0.1331904382
0.0194430128
0.0174522772
-0.0101001319
-0.0295681972
-0.2639050484
0.1572045982
0.0120462524
0.2765599489
0.0744784847
-0.2243861854
-0.0057969936
-0.0406728983
0.2051803321
-0.1867458522
-0.2750913799
-0.0453241281
-0.0437673293
0.0604701266
-0.0676817000
0.0602523759
0.1103832573
0.0687893927
0.0070421831
-0.2840761542
-0.0304833036
0.0291118547
0.1123266593
-0.2528544664
0.0075344369
0.1554026902
-0.1360875070
0.0990365446
0.1355860233
-0.1025671139
-0.1081274003
0.2175801545
0.0451276116
0.0938825905
0.1519092172
-0.0614883378
-0.0995115638
-0.0358294696
-0.0000824203
-0.0473750234
-0.2547816932
-0.0325087234
-0.2154358774
0.1636603028
0.5001907945
-0.2331269383
0.1068362743
-0.1194240674
0.0752441883
-0.1847919971
0.1029602215
0.1637899578
-0.0111782867
-0.0173231438
0.1110178381
-0.0006471620
-0.1149235219
-0.0379500203
0.0133222807
-0.2246418893
0.1453256309
-0.1611479670
-0.0430345610
0.0109988078
0.0743246973
0.0596871339
0.1866043806
0.0225183647
0.0350136533
-0.1291810274
0.3016017675
-0.0225358475
-0.0736434236
-0.3233834207
0.1618048102
-0.2739925683
0.0067736334
0.0737640634
0.0828791782
-0.2266692370
0.2254912406
-0.0067816949
-0.0296797082
-0.0857165530
0.1738403589
-0.1066348925
0.0867980421
-0.1296380758
0.2146416605
-0.0339034684
-0.0823518932
-0.1372915804
-0.1691962630
0.0033198944
-0.0373962447
0.0804280862
0.2236990333
-0.2168235928
-0.0071334331
0.0508766361
-0.0762004480
0.0487075485
0.0973961279
0.1669721901
0.0077517061
-0.0325325243
0.1603994817
0.0218970347
0.1929676831
-0.1474488974
-0.0385120548
0.0093007740
-0.1732415110
0.0016501736
-0.2819555104
-0.0723644271
-0.0660943910
0.1064137444
0.1282278150
0.0122378906
0.0279468391
-0.0001728538
0.0013667649
-0.0803595632
-0.2289986759
-0.1401581615
0.1543546617
0.0586499013
0.1322325468
0.0368545204
0.1139576659
0.0147333229
0.0475105420
-0.1695870310
0.0960461721
0.1596897095
-0.1333124936
0.0462653562
-0.0302844308
-0.1880830824
-0.0353834964
0.0686354265
0.1622352898
-0.1663305461
0.1699156761
0.1691962332
-0.0212383643
-0.0538296923
0.0653550625
-0.0573655665
0.1774518639
0.2607794404
0.1996732205
-0.0656471699
-0.0280202832
-0.1689893901
-0.1130675375
-0.0600876659
0.0373105742
0.0571035892
-0.0482011400
-0.2851186395
-0.0998187736
0.0115643963
0.1722425818
-0.1180943027
-0.0064632902
-0.2332833707
0.1697703898
-0.0036594237
-0.0589403845
-0.0949946642
-0.0822890252
-0.0577078797
-0.0686688572
-0.0473116338
-0.1075858027
-0.0405238383
-0.2052544355
-0.0057954635
-0.0552187599
0.0435498543
0.1818210185
0.0511942431
-0.0183031540
0.0662043095
0.0368356705
-0.3087596595
-0.1278689951
-0.0180408359
0.2905609310
-0.0013113359
-0.0436646491
0.0719425082
0.0147995586
0.1346422583
0.1206117868
0.1579665691
-0.0814375058
-0.0270903632
-0.0681044012
0.1076073796
-0.0076033650
-0.1628276408
0.0739040300
-0.0335080586
0.1953573674
-0.1546892226
0.1490719318
0.0251218602
0.0276742075
0.0105955629
-0.2790421844
0.2190089524
0.2654975057
0.0641803071
0.1239266843
-0.2045472115
-0.0950281322
-0.2548348606
0.2770757973
0.0884135440
-0.2243654430
-0.2020981759
0.0794009417
-0.0599894412
0.0299429521
0.0269649047
-0.1812593639
-0.1485227644
-0.0607025288
-0.0668890253
0.1255609542
-0.0481665768
-0.1083927676
-0.1608723104
-0.0367934369
-0.0166271497
-0.1938998401
0.0108968401
-0.2943240404
-0.0822489634
-0.0160859339
0.0001085516
-0.0151227294
0.0505745895
0.0594060272
0.0754690245
0.0361987203
0.0092710312
-0.0306905471
-0.2544323206
-0.1828801334
-0.0305608436
-0.3604412973
-0.0139293242
0.1555789411
0.1547728777
-0.1677299142
-0.0392485037
-0.0296926312
-0.0829481035
-0.2238077670
0.1435489655
-0.2127056718
-0.1347473711
-0.1793257594
-0.1699223369
0.2990305126
0.0208925027
-0.3484144211
0.0257590804
0.0964269042
0.0504424870
-0.1546981782
-0.0031366968
-0.3203139305
0.0644529760
0.0840088278
0.0338677764
0.1352448910
-0.2997916937
-0.0355460010
-0.1882914752
0.0487740450
-0.0567524731
-0.0120691517
0.0927117467
-0.0282888357
-0.0985375196
0.0999197736
0.0137496544
0.0600398444
-0.0835039094
0.0264809132
0.0389534123
0.1195191517
-0.0096730012
0.0536731444
0.0357204452
-0.1268707365
-0.1382476985
0.0878607109
-0.1645630002
0.0654788837
0.0509464443
-0.0372508988
-0.0018243245
-0.1934649050
0.3070263565
0.0267256275
-0.0088174865
-0.0388744734
-0.0779424831
0.0025011578
-0.1843474656
-0.0430312380
-0.0438601971
0.1607099771
-0.0212137364
-0.0829495937
-0.0016661237
-0.1909624189
-0.0942611471
-0.0475358441
-0.0170183703
0.0729794279
0.1851371229
0.0214949716
-0.2035991848
-0.1551288813
-0.0502820984
0.0810400099
-0.0266126245
-0.0446815304
-0.0750938281
0.2772418559
0.0807778537
-0.1374630183
0.0228365678
-0.2496817112
-0.0036053632
0.0294055697
0.2353881299
0.0211281944
-0.3811241090
0.0160484258
-0.0916910395
-0.0683703572
-0.0281393286
0.2261542678
-0.1274016201
0.0624398030
-0.1167151406
-0.0069872700
-0.0764191076
0.1191854924
0.0246302597
0.1449909359
0.0172317196
0.0207099859
0.0060360269
0.0376618542
-0.1503938884
-0.0574583486
0.0845490247
-0.1842073649
0.0930288732
-0.0328106806
-0.0151659707
0.0748728365
-0.0420454964
-0.1431244016
0.0993917882
0.1527158469
0.1113444269
0.0876958370
-0.0121604642
0.0259562414
-0.0818758905
-0.0505308136
0.0851709768
-0.1209996268
0.0319423191
0.1221643016
0.0501419939
-0.2348919958
0.0018792718
0.0227883048
-0.0646805316
0.0835767910
0.1584161371
-0.1224669814
-0.0981199592
0.0515004843
-0.2041253448
-0.0786634088
0.0881198794
-0.1364417523
0.2111488432
-0.0547221527
0.0852745175
0.0776882917
0.0516355410
0.1023359075
0.1253161728
0.0718224123
0.1860014498
0.0812247843
-0.2502706647
-0.1739879847
-0.2485933453
0.0638236701
-0.0140620023
0.0420794748
-0.0039062686
0.0981298462
-0.1534022838
-0.0813392922
-0.0936454386
0.0776890963
0.1123147756
0.1735345870
0.3977496624
-0.0128988605
0.0260368846
-0.0843306780
-0.0598589890
-0.2025500387
-0.3777320385
0.0964995995
-0.1740276366
0.1121596694
0.0744969398
-0.0389230140
0.1397517174
0.1690738946
-0.1067600027
-0.1996044070
0.0338495001
0.1652412266
-0.0963953882
-0.0315708108
0.0831977725
-0.0822397247
0.2990248203
-0.1649771333
0.0317114368
-0.1884873211
0.1185517162
-0.1403615922
0.0489496887
0.0240903273
0.1777939349
-0.0589572862
-0.2424605787
-0.0902404338
0.3849451840
-0.1224748865
0.1166395545
-0.0869058296
-0.1179327890
0.0546493642
0.0097790621
-0.1797443777
0.0381516032
0.1789933741
-0.0486487187
0.2113799751
0.1132286340
-0.0721060261
-0.2755314410
0.0110425008
0.1445585042
0.0047385134
0.0718454272
-0.2343543023
0.0846191645
-0.0677289665
0.1281096339
0.1059355810
-0.0263942461
-0.0475873016
-0.0818129554
-0.0554728284
0.0394444056
-0.0137066003
0.0556354225
-0.1017516553
-0.0411469601
-0.0471812934
0.1483293474
-0.0165887587
0.0692359582
-0.0190000571
-0.0816784054
0.1253833026
0.0222199224
-0.0665393174
0.1790071428
-0.0452556163
0.1109845489
-0.0579573810
0.0196442399
0.0685003847
0.0588252693
0.0511303060
0.0935339853
0.2304484993
0.1209445596
0.0365686007
-0.0123654297
-0.2263170183
0.0710717589
-0.1733755320
0.0396751165
0.2178163677
0.1001436487
0.1617998928
-0.0204739124
0.1956904233
-0.0706544891
-0.0544262342
-0.0146928625
0.1199439615
-0.0358588211
-0.1596423239
0.1303063184
0.0192766599
0.0074874843
-0.1493638009
-0.2539610267
0.0932426080
-0.0348009095
0.1834670007
-0.0295092817
-0.0113749765
0.1441426575
-0.0287337787
-0.0540461093
0.1786910146
-0.0728199631
0.3145000637
0.0487035401
0.0790624619
-0.2428902239
-0.0387377329
-0.0772046074
-0.1014049798
0.0380712152
-0.1841900945
0.1341147870
-0.1875077635
-0.0184259899
-0.0374675021
-0.1094553024
0.2975082695
-0.2308026254
0.0265279356
0.0389166512
0.0312762111
-0.0308081917
-0.2630504966
-0.0039948639
-0.2299417257
0.0829171762
0.1578182727
0.0089027593
0.0678245351
0.0043546096
-0.0455573201
-0.1021642163
0.0306942072
-0.1624966562
0.0288297273
0.0172007568
-0.1285525262
-0.0444108807
-0.1094416454
-0.0216818321
0.0189476516
-0.3048979044
0.2866062820
0.0724019483
0.1472376734
-0.0537096001
0.0488173589
-0.0258140769
0.0394845195
-0.1472351551
-0.0319727659
-0.2275992781
0.1415073872
-0.1270803362
-0.1572200954
-0.1417897791
0.0218158979
-0.1199162975
0.0924539044
0.0498087332
0.1364206672
-0.0159417409
0.0022361623
-0.2224926054
-0.0107832002
0.1531157643
-0.1168176010
0.1977963746
-0.0641527697
0.0713107511
0.1551846564
-0.1003938988
-0.0649141222
0.0522235408
-0.0156650357
0.2636475563
-0.1713785529
0.0390530601
0.0867737010
-0.0239679683
0.2466548234
-0.1537987143
0.0267379601
-0.0103101116
0.1119645312
0.0143846972
-0.1118510142
-0.0033637655
-0.2695999146
-0.1356062889
0.1091366485
-0.0064882166
-0.1345178187
0.0190287475
-0.0112506151
-0.3043932617
-0.0596639626
-0.1741308421
0.1391130239
0.0244244691
-0.2114169300
-0.0397301242
-0.0480200388
0.0495433100
0.2293573767
0.0291123781
0.1117099896
0.1918600053
0.1218821704
0.0130946999
0.2084500939
0.1600728929
0.1071674302
-0.1636083871
0.0288795922
-0.1472325772
0.2019712627
-0.0863971114
-0.2549507618
0.1110449955
0.0040903362
-0.1924413443
0.0446514487
-0.0256557465
0.2317919731
-0.0377270281
-0.1634255797
-0.1866921186
0.0516039319
-0.0697379187
0.0461507142
0.2430784255
-0.0841008499
-0.1146400496
0.0803820342
-0.0773894414
-0.1018118635
-0.1256722808
-0.0624687485
-0.3933322132
0.0315828249
-0.0070158904
-0.0926200226
-0.4005293548
-0.1378982514
0.0668797791
-0.0353312008
0.0586490333
-0.0382584594
0.0654977560
0.0028627210
-0.1658229679
-0.0847707540
-0.0561168827
0.0572199747
0.2018598765
0.0532211438
-0.0004658711
-0.0167273339
-0.2706847489
-0.0685949922
0.0432060510
-0.0462945551
0.0140640996
-0.0207485575
0.0448051132
-0.1274038404
0.0745185986
0.0212944802
0.1080498174
-0.1863998622
0.1165422276
-0.2151488066
-0.0240694974
0.1871158481
0.0234236512
0.2025970668
-0.1538718492
0.1534527987
-0.0043865130
-0.0361423008
-0.1322715282
0.0019729538
0.0273082033
-0.2350419760
0.1103410572
0.2183517665
0.0438739136
0.2823990285
-0.2578367889
-0.0236006565
-0.0331526361
-0.0398944169
-0.1583363414
-0.1411441267
-0.0437540188
0.0538290255
-0.0704001561
0.0408306196
0.0407675318
-0.0556522012
0.0616824217
0.0278880559
-0.1459439844
0.0890326202
-0.0339197405
-0.3510757387
-0.0064609041
-0.0990012065
-0.1230195761
0.0922033787
0.0848367438
-0.1190254763
0.0147277284
0.0715326816
-0.0270773340
0.1542777419
-0.0293291304
-0.0090198340
0.0532522649
0.0045486516
-0.0750884041
-0.0477694534
-0.2883278131
-0.2141085118
-0.0074560465
-0.0053131538
-0.0000134689
0.2386413068
-0.0247849505
-0.2400421947
0.0876214653
0.0770042911
0.1104997620
-0.1495522857
0.1527462453
0.0784447640
0.2249841690
0.0501287580
-0.1421880573
0.0838592798
0.0717350990
0.0933800936
0.1284677088
-0.0695420057
-0.2235126346
0.2072637379
-0.0393440463
-0.0108860852
0.0823336914
0.1847835332
0.1304758042
0.0283422470
-0.3650116324
0.0709580928
-0.0848605558
-0.0429850146
-0.2183602601
-0.0114588300
0.0200173575
-0.0390315615
0.0371181630
0.0108756507
-0.1122970954
0.1304730475
-0.1841078550
-0.0145200789
0.0485535190
-0.1026451439
-0.0053187371
-0.0007256359
-0.1421918720
-0.1138701662
-0.1989042312
-0.0223609433
-0.0144785168
0.0734526217
-0.0414533727
0.2198078185
-0.0968989357
-0.2534231544
-0.0026872170
0.0231585652
0.0698273703
0.1285340786
-0.0735424086
-0.0023539169
-0.3063479960
0.0440538377
-0.0373886377
0.0344022140
-0.0141278412
-0.1013956144
0.1130702496
-0.2903575301
0.0063977214
-0.1282078028
-0.0823908001
-0.0345493779
0.1322301328
-0.0537160449
0.1835975498
-0.0349462405
0.1642696559
0.0757981166
0.0187601745
-0.1861391664
-0.1106766388
-0.0380687341
-0.1547331810
-0.3668816388
0.1526382864
-0.0246242080
0.1125680804
0.0791105703
0.0296049640
0.1564473063
-0.2939222157
-0.0958211645
-0.1692627519
0.1769859642
-0.1198303327
0.0865596384
-0.1052360311
0.1323854327
-0.1890934557
0.1965520829
-0.0211786274
-0.1476742178
0.0015362751
0.1235548928
-0.1771848649
0.0864745602
0.0258512683
0.1577680111
0.0794083104
-0.2683745921
-0.0536512770
-0.0281401724
0.1127071530
0.0441445298
-0.0755820498
-0.0486128367
-0.1017604023
-0.1086547598
0.1759026051
0.0010347420
-0.0064823036
0.1018974259
0.0339622013
0.0062473603
-0.1036471874
0.1042964831
0.1417911053
-0.3918491602
0.0400346071
-0.0040205074
0.0549732149
-0.1543645114
-0.0962824225
-0.0649164915
-0.0987761915
-0.0604775213
0.0212117247
-0.0476379357
0.0306138247
-0.0701170042
0.0095834536
-0.1403074712
-0.0243931245
-0.1416455209
0.1096914187
0.0108099440
0.0217839815
-0.1010723710
0.1171304658
-0.1317654997
0.0174142346
0.0790414810
0.0315251835
0.1491776258
-0.1163016632
-0.2024359703
-0.1793509275
0.0337503962
-0.0290542208
-0.0586876646
-0.1474377662
0.0351754613
-0.0863098651
-0.1481649280
-0.0869727358
0.1687156260
-0.1106560454
0.0887991413
0.0105120856
-0.0839353204
0.0074061346
0.1349585056
0.0316444971
-0.1824403852
-0.2119714767
-0.0679551139
0.0816938728
-0.0315994509
-0.0371231213
-0.0084174396
-0.0783711597
-0.0991400629
-0.0323351398
-0.1067860797
0.0359906964
0.1717724949
0.0123663340
-0.0132425800
0.0842751339
0.0610276051
0.0799504817
-0.0426460952
0.0186294354
-0.2107240558
-0.0381423384
-0.0609241426
0.1308216304
0.0061502233
-0.0005529280
-0.0094993785
-0.2445475310
-0.0049020583
0.0755770952
0.0731234923
-0.0305905789
0.0142769637
-0.2304759920
-0.0842074901
-0.1352002919
-0.1198173240
0.1774922460
0.0692718774
-0.1408714652
0.0294535570
0.1813892573
-0.1232487559
-0.1910924911
0.1221089289
0.0523805469
-0.0304191746
-0.0214628093
-0.0371858291
0.0461039841
-0.0304942392
-0.2515532970
0.1926852912
-0.1917755604
0.0925929919
-0.2294552475
0.1393335015
-0.1332572252
0.0861017480
0.1683292985
0.0471616089
0.0145670259
-0.0490508229
0.1849508286
0.1028434932
-0.1819325089
-0.0889228657
0.0167571884
0.1739039719
-0.0116312634
0.0580488145
0.0545427613
0.0240420979
-0.1071136966
0.0262400210
0.0887929648
0.1209531650
-0.0185417794
-0.0411565863
0.1303448975
0.0775516406
-0.0937322006
0.0590546019
-0.0207220092
-0.1714756340
-0.0231363289
0.0067353556
0.0141607113
0.0304902233
0.1507557333
0.1212172732
0.0450042151
-0.0205110535
-0.0491278358
-0.1335548609
0.1216517687
-0.0210628361
-0.1001919806
-0.0853784531
0.0915971920
0.0063109635
-0.2525281608
-0.0773572773
-0.1274588406
0.3099030554
0.0271695908
0.1382628232
-0.1149116158
-0.1643454432
0.0115651283
0.0381207541
0.0327470340
-0.1734382063
-0.0549281761
0.0904600769
0.3762691617
0.0636959448
-0.2902961969
-0.2166810185
0.0476311371
-0.0195458457
0.1310016364
-0.0261979382
0.0490439944
0.1485732496
0.0023751359
0.0754455701
-0.1007345691
-0.2211574316
-0.2275586277
0.1494044065
-0.0867949352
0.2978661060
-0.0457479544
-0.2302971631
-0.1303393692
-0.2956672311
-0.1126505062
0.0601124540
-0.0432733595
-0.1889883131
0.0661489442
-0.0114596914
-0.3789559007
0.1073732227
-0.1665803939
-0.0204743426
-0.0108446106
-0.1877540201
-0.1754772067
-0.3365925848
-0.0207710024
0.1046337411
-0.0736575276
0.0761729330
0.1768335551
0.1666059643
-0.0906383097
-0.0058671329
0.1275276095
-0.0823479891
-0.2519705892
-0.0086369729
0.0570979714
0.1074299514
-0.0077097365
-0.0314271599
-0.0337545723
0.1323151290
-0.0008987579
0.0783787370
0.0532925762
0.0571724698
-0.0008816596
-0.1058861241
0.2045020759
-0.0797888935
-0.1984935552
-0.0018227927
0.2125640213
0.1312123984
0.0123899961
0.0740580186
-0.0369048640
-0.0879847929
-0.0528594814
0.0709270164
-0.1287431270
0.1167191714
-0.0200677644
-0.0497988164
-0.0153384591
-0.0118494062
-0.2367736101
0.1551409960
-0.0803264752
-0.0705180690
-0.0755630136
-0.0906867683
-0.1515060812
-0.1731687337
-0.0607812889
-0.0468261354
-0.1446252614
-0.2469438910
0.0487879999
0.0067568389
-0.4904621243
-0.1463658959
-0.2381081134
-0.1039790213
-0.0474877357
-0.1147939414
-0.0348392054
-0.0969716534
-0.0287156571
0.2962642610
-0.1354483813
-0.0394067355
0.1148693785
0.1101215556
-0.0943414643
0.2043629140
0.0809297040
0.2451236099
-0.1925415993
-0.0789529905
-0.0762930363
0.0809535757
0.0721049160
0.1517834663
-0.0356714800
0.1497577429
0.1799820513
0.1351511627
0.0598360263
0.0268362090
-0.1755282134
-0.1361279339
-0.0752323642
0.2039144933
-0.1548032165
-0.1056727916
0.2076369375
0.0155845862
-0.0887697488
-0.0642475709
-0.0669570640
0.0439503118
0.1144004986
0.0463746786
-0.2126740068
-0.0280295834
0.0041373852
-0.0356460661
0.2057332695
0.0367228240
-0.2150273174
-0.1222604066
-0.0066666347
-0.0821429938
-0.0890436620
0.2165066451
-0.2956314981
-0.0634634867
0.1490876824
-0.2411115468
-0.0442078486
0.0362317562
0.0412672572
0.0254905447
-0.3334056139
-0.0462847911
-0.2043716908
-0.0174410678
-0.0132222977
0.0240606200
0.0463303700
-0.4195621312
0.1441976875
-0.0523569994
-0.1666944474
0.0060311509
0.2221478075
-0.1566743255
0.1403740346
0.1347298771
-0.0003579838
0.0686737597
-0.1318938583
0.0420223624
0.0956223831
0.0324840918
-0.0894139260
0.0045127920
0.1710601300
-0.0341516174
0.1285040379
-0.0097901234
0.0355676636
0.0032964388
0.0226885378
0.0178770684
-0.0323120393
0.0416638441
-0.0243348144
0.0054188962
-0.0203721561
0.2162573785
-0.1750028282
0.1371854693
0.0178248063
0.1391456872
0.0267360061
-0.0570394285
-0.0098123904
-0.0742980391
-0.0154756485
-0.2013757974
-0.0528457351
-0.2142359763
-0.0296601281
-0.1796922833
-0.0888814107
0.1144493446
-0.1249257699
0.1700242460
-0.2781338394
0.1397305280
0.0741914511
-0.1325945854
-0.0143648135
-0.0167695414
-0.0601492822
0.0079594236
-0.2535904646
-0.3004376292
-0.1028357521
0.0394559167
-0.0344286710
0.0726626366
0.1785655022
-0.1485681981
-0.0357684754
-0.0326573029
-0.0587373078
-0.0094573274
0.0040999027
-0.1225497127
0.1737596542
-0.0724924281
0.1496709287
0.0886609405
-0.0622762963
0.0290654972
0.1178887859
-0.0471082777
-0.1061657816
0.0404305421
0.1535809040
0.0735850036
0.2142827511
0.2346650064
0.0371451192
-0.0329978205
-0.2449364215
0.0434641168
-0.1330400705
-0.0437154472
-0.0702236071
0.0661462992
0.2008393407
0.1227246895
-0.1165016294
-0.0917320624
0.0376352072
0.0770631284
-0.0206249189
-0.1171551943
0.0420628041
-0.0555252247
0.0214180332
0.1220192835
-0.0601802245
-0.0964259431
-0.0741837397
-0.0375492163
-0.0602765530
-0.0338822864
-0.0705114156
0.2282064408
-0.1225628853
0.0176444147
0.0210966859
0.0676440522
0.1095540971
0.1499517113
0.0517132170
-0.0354982577
-0.1162715033
0.0445791073
0.1000505239
0.0202081706
0.0136610316
-0.1815049350
0.1941819936
-0.2460701019
0.0908279866
-0.4642952383
-0.2781093121
0.1280876249
0.1903044879
0.1159573048
0.0032836725
-0.1882344782
0.0390844569
-0.0359704122
-0.1209531054
-0.1630329490
-0.2359803021
-0.2065217495
0.0244112629
-0.2762615085
0.1058474705
0.1864835173
0.0335805416
0.0201952718
0.2191165388
0.1640909165
-0.1678343862
-0.1053506061
-0.1969284713
0.1223281845
0.1323121041
-0.0349472277
-0.0292767305
0.0665538386
-0.2323612422
-0.0087208301
0.0248573888
-0.1030480266
-0.1238521785
0.0021693064
0.0271821301
-0.0859353393
0.0272727497
0.1478958279
-0.2254189700
-0.0866470709
0.0341317132
-0.0344235115
-0.0461408868
0.1515428275
-0.1856265068
0.0419300571
-0.1377738714
-0.0147950249
0.2003718913
-0.0983477607
0.0623460151
0.1239344180
-0.0212774687
-0.0068274345
0.0688287094
-0.0697935969
0.0332036465
-0.1501295567
-0.0546382070
-0.1586404294
0.0479075275
-0.0712094232
0.0149449008
-0.1024913713
0.0018271126
0.1774750203
0.1847292632
0.1164391190
0.0856371149
0.0799608082
0.1727552414
0.1097965240
-0.1146195903
0.0031343515
0.0952926949
-0.0373128541
0.0024529400
-0.0368918255
-0.0936476141
0.0343816057
0.0397970639
-0.1126859412
0.1509531736
0.1229275540
-0.1144665107
-0.3022933602
-0.3265830576
0.2072350830
0.1570079625
0.0081186155
-0.0256426558
-0.0872498155
-0.1293297410
0.0858338103
-0.1661094874
0.0152970385
0.1012118459
0.1502052844
-0.0306949057
0.0748246908
-0.0028279922
0.0939623117
-0.0471631512
-0.1929494888
-0.1567263901
0.0772435144
-0.0764405280
-0.0625659451
-0.0349576958
0.0424164534
-0.0054783560
0.1521834284
-0.1236206666
-0.0533502661
0.0445612520
-0.0045794747
0.0398111716
-0.0586283281
-0.1288802922
-0.0113749783
0.0292284712
0.0804631785
-0.0495807678
-0.1236013249
0.0489869714
-0.0619593076
0.0079737669
-0.2724910378
-0.2852913439
-0.0674042478
-0.0102209281
-0.0490403548
0.0518360734
-0.0285255667
0.1971905231
0.0175301600
-0.0289446656
-0.0165625419
-0.1560109556
0.0963824913
0.1150298640
0.1971482784
-0.3175674975
0.0277189426
0.2005790174
-0.0220243353
0.0335452072
0.1836349070
0.0737032294
0.2342663407
-0.0112178586
0.0294802152
0.1677277684
-0.1163881272
0.0451091714
-0.1879072040
-0.2337783426
-0.1209275872
0.0528888553
-0.1293945312
-0.0248939618
0.2111456990
0.0298374370
-0.0162980612
-0.0214310121
0.0899517611
0.0687486455
0.0025063353
0.0794528499
-0.2045434713
0.0565384664
0.1177037209
0.0431815460
0.0497173890
-0.0796769112
0.1542986482
-0.2422902882
0.0657919049
0.0054316777
-0.0881158113
-0.0180880241
0.0018367444
0.0857193619
0.1488988250
-0.3196802735
-0.0354256853
-0.0025852427
0.0608202964
-0.0895991549
-0.0082581453
-0.2068516165
0.3255884647
0.1985816360
0.1169404685
-0.0389047861
-0.2042712271
0.1529507339
-0.1407867372
-0.0015051620
-0.0189014338
-0.0775521025
-0.0814315006
0.2456270605
-0.0651231408
0.0484400056
0.0033789387
-0.0838597715
0.0734966919
-0.0920688584
-0.0059619234
-0.0507305376
0.0245094262
0.3132246733
0.0183188710
-0.0633310378
0.1530989408
0.0975295305
0.0966511965
0.1405688673
-0.0475665368
0.2669483721
-0.0601807162
-0.0593659393
0.1288930476
-0.0000767611
0.1512622088
-0.2534427345
0.2157934159
-0.0391695835
-0.0310057215
0.0821703747
0.2557904422
-0.1049663275
0.0462407358
0.1491598487
0.1125134602
-0.0446600839
-0.2991439402
-0.0105026690
-0.1529839337
0.0088778688
0.0085389344
-0.0058128801
-0.1874146312
-0.0029816255
-0.0316847861
-0.0858318284
-0.0091546318
-0.0551493727
-0.1794213802
-0.0068582962
-0.2304856032
-0.2041621506
-0.1874523908
-0.2467637360
0.2433463335
0.1363210380
0.0106544262
-0.1907193810
0.0333671421
-0.0637547597
0.2179549634
0.0216982644
0.0285071805
-0.1228540614
-0.2304717898
-0.0432390608
0.0584782176
0.1218230054
-0.0624235980
-0.0122770537
0.1302543879
-0.0091371601
0.0712043718
0.1421192884
0.0192428976
0.1501887739
0.1139327884
-0.2412038147
0.1225386709
-0.0526354648
-0.0393963642
0.0905715078
0.2392039001
0.1935065985
-0.1379660070
-0.0207684543
0.1067751572
-0.1036231592
-0.0057064067
-0.0571170151
0.1132472679
-0.0049351458
-0.0253880601
0.0884090886
0.1837715209
-0.1951890439
0.2420038432
-0.1168898568
0.0027982646
0.0743480399
0.0788291171
-0.1762410849
-0.1597155333
-0.0602286719
0.0456459671
0.0850566775
-0.1362124979
-0.0114713311
-0.0685870498
-0.1756207496
0.0489547700
0.0655237585
-0.1408134699
-0.0396573655
-0.1589227617
-0.1476805508
-0.4725499451
-0.0913544744
0.1272979230
-0.0624312013
-0.0025903026
0.0732183978
-0.1412011385
0.0841203108
0.1812874973
0.0488003194
-0.2503188252
-0.1360519826
-0.0917565376
0.0719205365
0.1371697932
0.0450898558
-0.0442982465
0.2358870655
-0.0203116704
-0.0276392475
0.1126561239
0.1344854087
0.0553129874
0.0419311896
-0.0074661956
-0.2625991702
-0.0063388040
-0.0254215933
-0.2910614312
0.0226407200
0.2370623499
0.0701904148
-0.0054728757
-0.0045253206
0.0207647365
0.0496230498
0.0766900405
-0.2347376943
0.0239587929
-0.0110722752
0.2197312862
0.0980932415
0.0960233286
-0.2500316501
0.0672650635
0.0363548584
0.0423528925
0.1347727180
-0.0099045318
-0.0342979096
-0.1399019212
-0.1219271868
-0.1028471142
0.1463925391
0.0217344910
-0.0483555943
-0.0297178626
-0.2052407712
0.0562949516
0.1533864588
-0.0245189779
0.0085861050
-0.0605082661
0.0354957357
-0.1938004196
0.0204108171
0.0615699366
0.1523641497
-0.1145340055
0.1240376309
0.0261623785
0.2006880790
0.0905179232
0.1389828920
0.1039452255
-0.0302990284
-0.1454299986
-0.0572448112
0.0507248789
0.0399231650
0.1220557392
0.0590404309
0.0269945636
0.1272374988
0.1589363813
0.1553363204
0.0335686468
-0.2005015314
0.0010865643
-0.2342479825
-0.0927507132
-0.1683618277
-0.1272604316
0.0136685092
0.0984049365
-0.0517581813
0.0417891629
0.0915439501
-0.0434421152
0.0686954185
-0.0873976350
-0.1636423469
0.0409496427
-0.0228724722
0.0353302769
-0.1176126599
0.2753421068
0.0006143446
0.1115521267
0.1061957553
-0.2194190174
0.1140616909
0.1905238628
-0.1841299087
0.0491852649
-0.0060106446
-0.1976155490
0.2027032226
-0.1558158696
0.0511120968
-0.0362240374
0.0064524943
-0.0595308580
0.2936307192
0.0510205105
0.0455230512
0.0800274685
0.1808693558
0.0226789024
0.0909781530
-0.1116234660
0.1364023834
-0.0534116402
0.0439885780
0.0424521342
0.0587456599
-0.0011340147
0.2446737140
0.0858697146
-0.1132273898
-0.1788464636
0.0350366831
-0.1156723946
0.1023793444
0.0590137988
-0.1358006597
0.0486595742
0.0325315297
-0.0233794600
0.0700859055
0.0441643633
-0.2151697129
0.1524711996
0.1154230535
-0.0804307237
-0.0582505986
-0.1076277420
0.0790548101
0.0368515998
-0.1172491610
-0.0544903427
-0.0953734741
0.2837549448
-0.0993998498
-0.0136796180
-0.0599922836
-0.0892743617
-0.0364257433
0.0563261583
-0.1754844785
-0.0667185560
-0.0827278197
0.0881469771
0.0427048504
-0.1929162443
-0.0155824414
0.0880763456
-0.2102461010
-0.2069236934
-0.0896204337
0.1394565552
0.1242294982
0.3160912991
-0.0890041590
-0.0223748479
-0.1769026518
-0.1475876868
-0.0809749439
-0.0599506572
-0.0835276395
0.0056086006
0.1013571545
-0.0800904781
0.1880263090
-0.1158048362
-0.3202452362
0.2489892691
0.0603845492
-0.0047764820
0.1827786714
-0.0113053732
-0.0601590239
-0.2035469711
-0.2163181901
0.0131830806
-0.0932312831
-0.1484548301
-0.0740770921
0.2222556472
0.0052480963
0.0808403045
-0.0882662609
0.0219322890
-0.0066686003
0.1286677271
-0.0333439000
-0.0000157323
0.1925916672
-0.0785494447
0.0701688379
-0.0041370378
0.0184354763
0.1084378287
-0.0913329199
-0.0995237455
-0.0705379695
-0.1944943964
0.1591145694
-0.0619016290
-0.1494097710
-0.1049034894
0.0091678090
0.0734602436
-0.2147469968
-0.1274455488
0.1573487669
-0.1587668359
0.1264826059
-0.0353069082
-0.1357481629
0.0376922861
0.1129404604
-0.3290757835
-0.0213446859
-0.0694200471
-0.0655268431
0.2208938152
-0.0473303609
-0.0354865976
-0.1816420108
-0.1952557415
-0.0621498972
-0.2742178440
0.0073913052
-0.0735591352
0.0729407147
0.0787191093
0.0189424101
0.0082167620
-0.1858689338
0.1382807642
0.0668152422
0.1954591721
0.0283726659
-0.1220059693
-0.0621951632
0.0226243827
-0.1022682637
0.0148324063
-0.1736659557
0.0443651043
0.0060763834
0.1345713288
0.1837316453
-0.0566291846
0.1353772134
-0.1663025916
0.1554118842
-0.0147924535
-0.3270024955
-0.3969388306
-0.1699100435
-0.1318554133
-0.0330100730
-0.0972993746
-0.0538193360
0.1163319796
-0.0866854712
0.0585993156
-0.0700104684
-0.1910542399
0.0502779074
0.0657243654
0.0905535668
-0.2981052697
-0.0161772929
0.0816483349
0.0157182943
0.0259609427
-0.0485964939
0.0945389494
-0.0811402351
0.0162104871
-0.0684763566
-0.3421124220
-0.1867620498
0.0556067117
-0.2329293191
-0.2277647406
0.0174756702
0.0964549556
0.0026658301
-0.0299062394
0.0112073245
-0.0718582496
-0.0650847182
0.0025318936
-0.0061126244
-0.1728399098
0.1359438896
0.0877222642
-0.0267507583
-0.0984736234
-0.0753294677
0.0494360551
0.1194623783
0.0245130863
-0.0424741060
-0.1659534127
0.1852671355
0.0053041624
-0.2150550783
-0.1259337962
0.1251657754
-0.0063040340
0.0732778907
0.0015777291
-0.2834111154
0.0925419852
0.0910882056
0.0110346060
-0.2784884274
-0.1760338396
0.0337565206
0.0788418129
0.0117354030
-0.0283480547
-0.0528849140
0.1064387783
0.0221099369
0.1821145564
-0.1183376759
-0.0747237056
-0.1092651859
0.1415663958
0.0933264419
0.1121331081
-0.0712885484
0.0825700909
-0.0180373397
0.0483077504
0.1599233150
0.1336379945
0.1779110283
-0.2813845277
0.0452869423
0.0535847060
0.0730664134
-0.0742537230
-0.0867898911
0.0198866166
0.0115648257
0.0048264503
0.0090200165
-0.0209263787
0.0091625676
-0.0405821912
-0.0993671641
0.0440962762
0.1126189008
0.0199920647
-0.0053041545
-0.1093340591
-0.1953900307
0.1176100299
-0.2193169743
-0.1063035280
-0.1071052775
-0.0153468419
-0.0395232886
0.0489807688
-0.0149532706
0.1065043509
0.0297435708
-0.0074487212
-0.1811322421
0.0750072077
0.0050135576
0.0684388280
0.0143675655
-0.4684847295
0.0062221331
-0.1670604944
0.0008878236
0.0627232790
0.1911885142
-0.0987188816
0.0154164918
0.0531730615
0.0007990784
0.0945308208
0.0437476076
-0.0289062671
0.0175079685
0.1437299401
0.2975257933
-0.0230586268
0.0317768306
-0.0698976740
0.0586198643
-0.0437622815
-0.1217198819
0.0543581955
0.0114310347
-0.0429333299
0.1743453741
-0.0085286694
0.0522076562
0.0345960744
-0.0028548739
0.0637624860
-0.1354374886
0.1156660318
-0.0431075767
-0.1007512882
-0.0146556301
0.0518151224
0.0600503124
0.0093005281
-0.0363241881
-0.0206821710
-0.1853091866
-0.0312992036
-0.1095360816
-0.3069370389
0.0067138798
0.1780477911
0.0175356511
-0.2330280095
-0.2081431150
0.0169905983
-0.3189225197
-0.0744555667
-0.0928489342
-0.0528845042
0.1694492847
0.1413746625
-0.0160193350
-0.1289655417
-0.1427022219
-0.3014320731
-0.0109647112
-0.0148121854
0.0254164375
-0.3699681163
0.1469215304
-0.1794027984
-0.0229309201
0.0326872990
0.1578078568
-0.1532763094
-0.0486121252
-0.0500164740
0.1267888099
-0.1817387044
0.2314232439
-0.2852803171
0.1128765717
0.0656396970
0.0925227106
-0.1076815277
0.0274402350
0.0101376753
-0.1424146444
0.0466100462
-0.1860672086
0.2364492118
-0.0036277396
0.0990005136
0.0473400541
0.1326519549
0.0329206027
-0.1437053382
-0.0322055668
-0.0523237847
-0.1368343830
-0.2533118427
-0.2845154405
-0.1198019609
0.0047621662
-0.0726093799
-0.2775408030
0.1448540390
0.0656983852
0.0383777209
-0.0578344017
0.0655433238
-0.1565075964
0.0647072643
-0.0183766875
-0.0844731629
-0.0926998630
-0.2795786560
-0.3145333529
-0.0266104024
-0.2866311371
-0.1158228144
-0.1175185740
0.0075214379
0.2096716315
0.0766925141
0.0298707299
-0.0642175376
-0.3609170020
0.0757133290
0.0205686614
-0.1111783460
-0.0778712779
-0.1388835013
0.2119724900
-0.2746317089
0.0103944195
0.0778432190
0.0159363244
-0.0806137398
0.0812336802
-0.1711650193
-0.1410720795
-0.0237334166
-0.1156022921
-0.1501063406
-0.0504077040
-0.0787512362
-0.1801316440
-0.0080420896
-0.1064247787
-0.1646547616
-0.0793933421
0.1366422176
-0.0325670950
-0.1076841503
0.0336522833
-0.0613642745
0.0975220352
0.0409163795
0.1117261201
0.1379664689
0.0822229683
0.2674414814
-0.0953539461
-0.1224125847
0.0474231727
0.0875023752
-0.0663246140
-0.1214862019
0.0249465015
0.0728186518
-0.2194976658
0.0411327630
0.0500225388
-0.0317288712
0.2378973663
0.0521155410
-0.0015205707
-0.0102019776
0.0151607906
-0.1174380407
-0.0335865095
-0.1687560678
-0.1598409265
-0.0832340941
-0.0170521159
-0.2361049801
0.0997745022
0.0903123468
0.0752914697
0.1135773510
-0.3515025675
-0.1623958647
0.0167052671
-0.0865502656
0.0560653545
-0.0795283243
-0.1921801418
-0.0865708366
0.0100549571
0.0885548666
0.0829237849
-0.0421546623
0.1124870852
0.1810221225
-0.1128321812
-0.2380335033
-0.0754863098
-0.1337308586
0.0183303971
0.0829131454
-0.0779657140
-0.2295498550
-0.0206841007
-0.0334339850
-0.0806599557
0.0155193321
-0.1200176775
-0.1494253874
-0.0046935305
0.1399579495
0.0999595076
0.0223347191
0.1260253191
0.0273382794
0.0903970823
-0.0966138691
-0.1397720575
0.1781035513
-0.1484028846
0.0981125608
-0.0597321764
-0.0615946501
0.0637202635
-0.2955530286
-0.0380871445
0.0263258759
0.0293742940
-0.0748572201
0.2066870183
-0.1143939644
-0.0284722503
-0.0215674229
0.0340701081
-0.1323950589
0.0986721441
-0.0177837182
-0.0530058481
-0.1560284644
-0.0154580977
-0.1430431455
0.1369176209
-0.0459457822
0.1387712210
0.0944797918
-0.2989165783
-0.1446978599
0.1707213521
-0.0447061323
-0.0432894416
-0.1710351110
-0.0505271554
-0.1270995438
-0.0479898155
0.1732931733
0.3491846025
-0.0178360119
-0.0514559001
0.1360419393
0.1139393374
-0.0802364051
-0.0575898178
-0.1922219992
-0.0075285477
-0.1116207093
0.0434729904
0.0511707403
-0.0700212196
0.0947514251
-0.1126210690
0.1816362888
-0.0354349650
0.0772054568
-0.0323439352
0.0133792181
0.1689452231
-0.0865882114
-0.0408563465
-0.2444355190
0.1581415385
-0.1036335379
-0.1632572711
0.0804341584
-0.2224118114
0.0746646002
-0.1081772894
-0.0536739044
0.1069648489
0.0669419914
0.1127229929
0.0281812083
-0.1125926673
-0.1285369694
0.1691082567
-0.3050743639
0.0119631337
-0.1132736951
0.1257900745
-0.0839282647
0.0242353696
-0.4293513000
-0.1553878486
0.0262928102
-0.2146548629
-0.0197440553
-0.1680122763
0.1380161345
0.0428866632
-0.2147731185
-0.1006388813
-0.1531069726
0.2247761488
-0.1250040233
-0.0983416736
-0.3261449933
-0.0110769076
0.0424480252
-0.0810633078
0.0686084628
0.0032730424
0.0047263927
0.0293606278
0.0233388785
0.2025699764
-0.1088540405
0.2346932292
-0.0223594029
0.1377076954
0.1423222125
-0.0869715735
0.0526233539
-0.0462494865
0.0025612297
-0.0992312282
-0.0318115763
-0.1966291666
-0.0612929910
0.0001302562
-0.1620255560
0.0625185221
-0.4103906751
-0.1596899778
-0.2705433667
0.0103047695
-0.0002982992
-0.2262365520
0.0485546701
0.0415191129
-0.0474928953
-0.0022553348
-0.1189121008
-0.2366954684
0.0728647709
-0.0624970160
-0.0105224848
-0.2587313056
-0.1525398493
0.1855469793
-0.0947002098
0.0064089373
-0.3174091876
0.1709214151
0.0408242121
0.0751378238
-0.2546234727
-0.2019324452
0.2272230983
0.0305246636
0.2227618247
-0.0619778782
-0.0220228247
-0.1300379932
-0.2013984770
-0.3306471109
-0.0434823707
-0.0571510531
-0.0072492128
0.2221605778
-0.2856909335
-0.0545568429
0.1611519158
0.0482676253
-0.0780565888
0.1240228117
-0.1536403894
-0.0367108174
-0.2527364194
-0.0123892035
-0.0933735892
-0.1349027902
0.1979359537
0.2284925282
0.0008330932
-0.0661872774
-0.0886879265
-0.0581161194
-0.1876814216
0.0663853288
-0.0896408409
-0.1542926878
-0.0884503499
0.0028295608
-0.0976294801
0.1670098007
-0.0453078672
0.1350115091
-0.1282173991
0.1256381273
-0.4607052505
-0.3777292073
-0.0737347156
0.0472461320
-0.0525337346
0.1282263398
-0.2004444599
-0.2673144341
-0.1857302338
-0.1599787921
-0.0328577459
-0.3169992268
0.2431908548
-0.0652756542
-0.1416647285
-0.0346168019
-0.1675667167
-0.0978824869
-0.0538838059
0.2167931348
-0.1008757502
-0.3894560933
0.1063589528
0.0500428900
-0.1542920470
0.0988187268
-0.1933066696
0.1194164753
-0.0155078713
-0.1896527708
0.3430587053
0.0224575065
-0.0678750128
0.3090801835
-0.0343185328
-0.0328674465
0.0825078934
0.0086310217
0.1283424497
-0.3628000319
0.0801898688
0.0239248350
0.4562737942
0.0767531767
0.1009366065
-0.1199368089
-0.0350581780
0.2374174148
-0.1914836913
-0.2039436698
-0.0061548422
-0.0666829422
0.0084469020
-0.1178612486
-0.1710609794
0.0815493688
-0.0201922487
0.0159147922
0.1794080287
-0.3040825129
0.0128299110
0.1390223652
0.1329396665
-0.2645861506
-0.0790663809
0.1319840699
0.0314524733
-0.0269678291
0.1609530896
-0.0912404805
0.0400153771
0.0251523610
-0.3040746450
-0.0020673133
-0.0908441618
0.2415131778
0.3978839219
-0.2285322249
-0.1284258068
-0.0017148707
-0.3086701334
-0.0734790340
-0.1758107096
-0.1261590421
0.1343764961
0.1582838148
0.1450645924
0.3459917307
0.1459917277
-0.0986831114
0.1592620015
-0.2283145934
-0.1437021196
0.1071728468
-0.0151705369
-0.0358728655
-0.0794627443
-0.0813257024
0.2249545902
0.1670749635
-0.1903245002
-0.0573067777
0.0060521439
-0.1476594508
-0.2095836848
-0.1776162535
0.0472115763
0.0598172657
0.1951274276
0.0923362672
0.1141062528
-0.1581122428
0.2227834910
0.0896073282
0.1146375388
0.0088268807
0.0379749313
0.0557701215
-0.3671454489
0.0115829315
-0.0154416328
0.0056531355
-0.0609483421
-0.0264742598
-0.1638489664
-0.0973125398
0.2194724083
-0.1333544701
-0.3144839406
0.1362428665
-0.0603510104
-0.0554339327
-0.0038222165
0.0590284504
-0.0569459647
-0.1066885069
-0.1042381153
-0.0209199172
-0.0344233401
0.1233478710
-0.0100334324
-0.1581662893
0.0069766245
-0.0118269315
-0.1615882665
-0.0098454347
0.1380719841
-0.2161493301
-0.1233446822
0.0546529666
0.1707151830
0.0878629014
0.0141908359
-0.1114425883
-0.0359242633
-0.1541125625
-0.0626543239
-0.0737472847
-0.0423378721
0.0754747391
-0.0946021080
-0.1230550706
0.1184580401
0.0085893711
0.0984789953
0.1008393019
0.0201490074
-0.0693738535
0.0320582204
-0.2521112263
0.0718052089
0.0705972165
0.1332256645
0.2248788625
0.2331428528
0.0904455259
-0.0637914836
0.1397231817
0.0039453744
0.0768195540
0.2413614243
-0.1149197742
-0.2308805287
-0.0114357248
0.0460245274
0.0044676913
-0.0411144532
-0.0933163166
-0.1292023659
-0.3017110527
0.1291162521
-0.0093684355
-0.2985346615
-0.0575270355
-0.1375588924
-0.0466930121
0.1642047316
-0.1347639859
-0.0934843346
-0.1252005249
-0.0448340252
-0.0042202384
-0.0328487903
0.0598692670
-0.3071571290
-0.1806645691
-0.1918030083
-0.0237063076
-0.1951773316
-0.0609993637
-0.0894465446
-0.1247041076
0.1554648131
-0.1353049278
0.0484437495
-0.1352989823
-0.1132847369
0.0236886907
0.0303987470
-0.1918853968
-0.0018109835
-0.2069241107
0.0999626592
0.0647250265
-0.0459629968
-0.1154761687
0.1487559080
0.0774792284
0.1592899859
0.0923129693
0.1116359308
-0.0597235113
-0.0002524776
0.1673107892
0.0492745824
-0.0490163527
0.0376888067
-0.0432248898
0.2636130750
-0.0728954971
-0.0538960509
-0.0369431488
0.0030189520
-0.0704775825
0.0871905014
0.0589543171
0.0433175601
-0.0570145063
-0.2372750640
-0.0195193216
-0.0846647397
-0.2258653939
-0.2635729909
-0.0568207279
0.0445970260
-0.0089018317
-0.2078845352
-0.0052597518
-0.0394422077
-0.0091269128
0.0814091265
-0.0657913461
-0.0594655350
0.1366875023
-0.1608654857
0.0516705178
-0.0716230869
0.0043741004
-0.1412578821
-0.1200001240
-0.0916286632
-0.0126773156
-0.2709507346
-0.1482411325
0.0580493659
-0.2006582320
0.0532349534
-0.0590824708
0.1369118094
-0.0854324624
0.0433091149
0.1866042912
-0.0333684534
-0.0370494165
-0.2048837095
0.1740318239
-0.1247176602
0.1098694876
-0.0976838768
-0.1412962973
0.2233330160
-0.0191643275
-0.0072556552
-0.0705195740
0.1937994063
-0.1342342794
0.0986433253
0.0745308697
-0.0098420251
0.1973118782
-0.0553672090
0.1503826231
0.1197098047
-0.1561736763
-0.2091730535
-0.2642640769
-0.1533360332
-0.1173917651
0.1615596861
-0.1856599152
-0.0082889888
0.0432415120
0.1098604426
-0.0030941255
0.0448403694
-0.1042697802
-0.3015531301
-0.0330563262
0.0749847516
0.0555708930
-0.0532674715
0.1907342076
-0.1052242517
0.0321845338
0.3183521628
0.1214949563
0.0275339745
0.0395263880
-0.4341467023
-0.0085347909
-0.0351785310
-0.2225055546
0.1005997360
-0.1110812128
0.1460379362
0.0065292972
-0.2345990241
-0.0835490227
-0.1807209253
-0.0346170329
-0.0688189790
0.2298001200
0.2139614820
0.0294049978
0.2250003815
0.1524566263
0.0084093912
0.0833530426
-0.0362258852
0.1135497764
0.1429723799
-0.2104587406
-0.0463422313
0.0557953566
0.3173294365
-0.2190146595
-0.0141732469
-0.1860793233
0.0510042720
0.0052800528
0.1390040368
0.0102956099
-0.0976418778
0.0252054241
0.0855196863
0.2718207240
0.1385888159
-0.1366959959
-0.1125470549
-0.0850051641
0.0467460603
-0.0715447366
0.0915880725
0.1278198510
-0.0341711789
0.2546215951
-0.2685407698
0.0313031375
-0.1756534129
-0.1234145686
-0.3211742342
-0.2193635255
0.0756466463
0.0039509204
-0.2423592657
0.0251941308
0.0052554128
-0.1939817220
0.1796609163
0.0774801448
-0.0255342349
0.1861560494
-0.2245621234
0.0443997495
0.0038872780
-0.1941588968
-0.0318094678
-0.0258773435
-0.0166046526
0.0384663753
-0.0638300553
-0.0813730210
0.1325895041
-0.2250409871
0.0417805091
-0.0073932889
0.3150498569
0.1975897849
0.1452491730
0.0056006233
0.0076867081
-0.1873891652
0.0246946737
-0.0066825757
-0.0112273376
-0.0567249320
-0.0784456283
-0.3671383560
0.1115404591
-0.0654711872
0.1738256067
-0.1758988053
0.1073646471
0.0541987754
0.0992756188
-0.0408312678
0.0682932511
-0.0413896292
-0.0449397452
0.1684216708
0.0479462966
-0.0463862307
-0.1089127585
-0.0469991565
0.2146310806
0.0139535172
-0.1444866955
0.1645384729
-0.1664749682
0.0507868156
-0.0912978277
0.0119744139
0.0352736786
-0.2397532016
-0.0870039240
-0.2472599298
0.0337368734
-0.1043195799
-0.0154798040
0.1633166522
-0.0495174751
0.0456050336
0.1789820492
-0.0510580204
-0.1707393080
-0.0455011651
-0.1472067833
0.0127150789
0.0128470547
-0.0000275976
-0.0256407931
-0.2634787261
0.1527272910
-0.0027413864
-0.0062389444
-0.3717122078
-0.0973754600
0.0978523046
0.0492113307
0.0250383243
0.0391835943
0.0020647799
0.0461714938
-0.3640416861
0.1257430017
-0.1159079373
-0.0432037339
-0.0292706098
-0.0982007086
0.1022615731
0.1375678182
-0.0381912701
0.1465684175
-0.1463290453
-0.1285384744
0.0735433549
0.0572463870
0.0017858240
-0.0527775213
-0.1768477857
0.0498707369
-0.2395311445
0.0463729315
0.1404818147
0.1469068527
-0.1360594183
0.0654648989
-0.1616259366
-0.0534592681
-0.0866329819
0.2057943046
0.0160447042
-0.2149806619
-0.1112789810
-0.1302336454
-0.0138268415
-0.1445457041
-0.2740435302
-0.1487618834
-0.2581541240
0.0757911429
0.1686178297
0.0011152521
-0.0992339104
0.0466910675
-0.1733558774
-0.0716184527
-0.0045228023
-0.1940215379
-0.0002417099
0.0623908229
-0.0323539153
-0.0047580935
0.0592280515
0.2070455551
-0.0090718614
-0.1102749556
0.0130215734
-0.1284105182
-0.0565631688
-0.0631667227
-0.1293114424
-0.0054826168
0.0707645342
-0.2456387728
-0.0275109299
0.1956831515
-0.2302042693
0.0637837797
-0.0454098210
-0.0656442940
0.2337557822
-0.0124369580
0.1079130247
0.0092885839
0.0280226730
-0.1192935929
0.3781934977
0.1928466856
-0.1736796647
0.0949669406
0.0093086092
-0.1083612368
0.0397369415
0.0280674379
-0.0358930677
-0.1780588925
-0.0269215498
0.0482799709
0.1401400417
-0.1037188619
-0.1023880169
-0.1005837768
0.0131461639
0.1270883977
0.1291732192
-0.0423810668
0.0252465345
-0.1429166496
0.0304457955
0.1849215329
-0.2957200706
-0.0624354593
-0.2631017864
0.0560688674
-0.0752175301
-0.0869089887
-0.0827722624
-0.1250793487
0.0391629748
0.0265796371
0.0952464044
-0.2885389328
0.1058217809
0.1522893906
-0.0037935651
-0.0157479867
0.0651540011
0.0551468767
-0.2027806193
-0.1094526127
0.0024466764
-0.0507651605
-0.1808537692
0.0188263711
-0.0369841047
0.0865225121
-0.0395739712
-0.0000126787
-0.0073961164
0.0989915058
-0.1082892939
0.1588780135
-0.1492048651
-0.0655835718
-0.3049109280
-0.0132965194
0.0206964370
-0.0352982245
-0.1509890109
0.0027153853
0.1649492532
0.0297416374
0.0108609796
-0.0337784253
0.1856122464
-0.0662393421
0.1854829639
0.0481086150
0.0164919458
-0.3968426883
0.1510698199
-0.0642983690
-0.0332182609
0.0237447210
-0.0405591950
-0.0945002213
0.0232627224
0.0293298233
0.1107083187
-0.0845598355
-0.0773569196
-0.1021350101
0.0086179404
0.1185392141
-0.1458125412
-0.2683243752
-0.1529707462
-0.2154801339
0.1596512794
-0.1837173104
-0.2561610341
0.0757261738
-0.0498992614
0.2370594144
0.0951618180
-0.0747783333
0.0386240147
0.1530371159
0.0552980714
0.0506402180
-0.0997332931
0.0098263836
-0.0064732516
0.1906702816
0.0209823716
-0.0416186452
-0.0598958544
-0.1891898364
0.0235866979
0.0493245050
-0.3329634070
0.0685271174
-0.1415058225
-0.0410876162
0.0676843226
-0.1873628348
-0.3141235113
-0.0011663372
-0.2357367426
-0.0839834586
-0.0312390942
-0.0052504558
-0.1856115162
0.0424715169
0.0505922921
0.0458472818
0.1025277674
0.0277607515
0.0971886069
0.0269394331
0.0940483660
-0.0227213223
0.0006076221
-0.1153377816
0.0019071045
-0.0024743765
-0.0053257579
0.0055249678
-0.1479443014
-0.0697262064
0.0256422479
-0.0117659131
0.0631117225
0.1163399592
0.0999747142
-0.1080558822
0.0090244999
0.0098279202
-0.0355558880
-0.2295759916
-0.1138160080
-0.1190476641
-0.1693862528
0.1496169567
-0.1037513241
0.1995054483
0.0253853332
0.2711117864
-0.1396849155
-0.2455940098
-0.0840208158
0.2150230110
-0.0459857322
-0.0140618375
-0.1576144844
-0.0660591200
-0.0976548865
0.1302533448
0.0081661837
0.0080892639
-0.0812398791
0.0796850175
-0.0823168382
0.1227831915
-0.0863004923
0.0389078408
0.1690437943
0.0744706392
0.0611145422
-0.1952110529
-0.0774302930
-0.0112186680
-0.1851775795
0.0730846524
-0.0208259355
-0.0153188100
0.1719118208
0.0146149592
-0.2171923220
0.0819649696
0.1901742518
0.1534746885
-0.1190954447
0.0355756171
-0.1819632053
-0.0498116724
0.1755966097
-0.2703221440
-0.0370656997
-0.0842927769
-0.1024248824
-0.2330844253
-0.1342798471
-0.0137663502
-0.1330414116
-0.0903632417
-0.0438806489
0.0194879808
0.0113462228
-0.2058701813
0.0021469451
-0.0320627168
-0.1221385747
-0.1450705826
-0.0110228965
0.0815683454
0.0702902153
-0.2620719075
0.0711382926
0.0719579533
-0.0876795053
0.1354341805
-0.0858657211
0.1390011758
-0.2502737939
0.0287144817
0.0600653030
0.0622385107
-0.1588449329
-0.1404013038
-0.1044278294
0.1120611727
-0.0040797922
0.1973505020
-0.0122257033
-0.2203136832
-0.0219646599
0.2728250623
-0.0831652507
-0.0073857289
-0.0554143749
0.0271403119
-0.0557174608
0.0326375403
-0.0374723971
0.0980211049
-0.0786751285
-0.0316236913
0.0412552767
-0.0213693138
-0.0150723858
0.1815916151
-0.0382090136
-0.0409948416
0.0313736312
0.0709458515
-0.0946940258
0.2074232399
-0.2274028957
-0.2160502076
0.0746151432
-0.0825361684
0.0776128545
-0.1685136855
-0.0356286392
0.1359531581
0.0102576008
0.1259291023
-0.0249634720
0.1414254755
-0.0504253171
0.0051748892
0.1395852566
0.0771769881
-0.0222729836
0.0132157775
-0.1289723068
-0.3683266640
-0.0695275739
-0.1484210044
-0.0548040234
-0.3257426620
-0.0073211296
0.1337197274
0.0485678837
-0.0669850260
-0.1827150583
0.1162655503
-0.1393220574
-0.1628095806
0.0390250832
0.0413322747
-0.2350099683
-0.2000519484
0.0962383822
0.2727075815
-0.0360248014
0.0794085935
0.0241754502
0.0712605566
0.1219436452
-0.1610822976
-0.3270108104
-0.1655087918
-0.0171367694
0.0964271948
-0.1322987974
-0.0236921292
0.0854711086
-0.0288013183
0.0318031460
0.1643192768
-0.0724508539
0.0446115546
-0.2054967880
0.1010278314
-0.0908220708
0.0280928221
-0.3146026134
0.1278338730
-0.1380795389
0.0749301836
-0.0812256485
-0.2110609263
0.0214096103
0.1668418646
-0.0282777175
-0.1494939476
-0.2429507077
-0.2181158513
-0.1736755669
0.2146441936
0.0486259982
0.0907492563
-0.0562836118
0.0402868688
0.0801131651
-0.1764282733
0.0318512172
-0.1228892207
-0.0241035782
-0.0431016982
-0.1411935240
-0.0054079765
-0.0205289125
0.0551573075
-0.2166110277
0.1854494363
-0.0689065233
-0.0600738078
-0.0877859294
-0.0888992324
0.0197950173
0.0001836106
-0.0234305914
-0.0166189428
-0.1823662221
-0.2775923014
-0.1093367115
0.1459743679
0.0494069979
-0.2515789866
0.0478033982
0.0763259232
0.0766136050
0.0439270027
-0.0719080716
-0.2073359489
0.0079817828
0.0485477783
-0.0235141292
0.0571926087
-0.0086546382
0.0403287895
-0.0897942930
0.0146268448
-0.0831547305
0.0709728524
-0.2232377082
-0.0651397482
0.0617826954
0.0651416034
-0.1276432127
0.2064559758
0.2016579807
0.1192743629
-0.1637251377
-0.2156376094
0.1621036679
-0.0233126953
-0.2296279073
0.0749068260
-0.1321428567
-0.0798455998
-0.0333037563
0.0355584398
-0.0853955895
0.0222006571
-0.0581839755
0.0475179330
0.0419571325
-0.0009276927
-0.0274035521
-0.2289781272
0.0544130765
-0.0228863563
-0.1034051552
0.0884761587
0.0204099528
0.0191578884
-0.0954152793
0.0464768596
-0.2183606625
0.0597009435
0.0350078866
-0.1240833029
0.0988627672
-0.2554134429
-0.0556068830
-0.0574618727
-0.1098380536
-0.2505537570
-0.1862642020
0.0800141171
-0.0367095061
-0.2009051889
-0.0352676474
0.0443022437
0.0054599070
0.0433571376
-0.0832382068
0.0400914960
0.0110943783
0.0887012482
-0.0166099221
-0.1035691500
-0.0330395363
0.0018457193
0.1906332821
-0.0941552594
0.1302654743
0.2010391504
-0.0707224607
0.0487193614
-0.0670796186
0.2558247149
-0.0188233890
0.0498625636
0.0085051563
0.1192274317
-0.0659512505
0.0019759801
-0.0180685166
0.0711705089
0.0492898561
-0.1328282356
0.0390732698
0.1000414938
0.0302635487
-0.1473892629
0.0064343028
0.1395702958
-0.1263407618
-0.0182495881
-0.0135862501
-0.1178363264
0.0264443606
-0.1529904902
0.1850107759
-0.0423537008
-0.1963641047
-0.0806297734
0.3610262871
-0.0659819171
-0.1182703897
0.0781288370
-0.1315415949
-0.0772374347
0.0117892297
-0.1062628925
0.1415937841
-0.0913874507
0.0166608319
-0.0606747828
0.1174227521
-0.1448787004
-0.1562110037
-0.0415683389
0.0176249295
-0.0810241774
0.0420517102
-0.0247357283
-0.0201831646
0.1908702105
0.0494137295
0.1377136260
-0.0509005003
0.0697173625
0.0487917960
-0.3305914700
0.0461095981
0.0750813559
0.0269139670
-0.2460473031
0.0226146653
0.0441800766
-0.0643341243
-0.0686434656
0.1545825303
0.1336751580
-0.0014861873
0.0986502618
0.1500775516
0.0446700826
-0.0137140192
0.0941927806
-0.1146863326
0.0421089865
0.1672409326
-0.0523424931
0.2661756873
-0.0774551705
0.1431225687
-0.0269230306
-0.0712519661
0.0835131630
0.0955727473
0.0937969387
0.1758103222
-0.0488983914
-0.0131623028
-0.0657447949
-0.1058360115
0.1776692718
0.0880667642
0.1999197453
0.0364307053
-0.0526609458
-0.0508376583
0.0603340194
-0.0841966867
-0.0719055012
0.0687053800
0.0154087748
0.0518825576
0.1214196607
-0.0404054224
0.0603050068
0.2197661102
-0.1166551709
-0.1462991238
-0.0644296557
-0.0174074024
0.0620030463
0.0890597478
0.1988729388
-0.1203799620
0.1363497525
-0.0279490370
-0.1297595054
-0.0822589844
0.1129370034
-0.0079479022
-0.0837171599
0.0525210015
0.0871958807
-0.1247633621
-0.0953897983
-0.0442574248
-0.1259000003
-0.0539900176
-0.1078135148
0.2592515349
-0.1402250230
-0.0423504040
0.0389660671
0.2837023437
0.1084286422
0.1364693642
-0.0610707551
0.0145856114
-0.0102768205
0.1847942770
-0.2931019366
-0.1774600148
0.1977431327
-0.1099413335
0.0589996614
-0.0856945366
0.2085037231
0.2623566091
-0.0273155104
-0.0561935157
0.1023276001
-0.0009075864
-0.1402073652
0.1338953525
-0.3943859637
-0.2094327211
-0.1735612154
0.1156757921
0.1610147208
-0.0944219008
-0.0358890109
-0.0707886741
-0.0074304231
-0.0211202353
-0.1931644529
-0.1931996047
0.1253050268
-0.0271618143
-0.0647475868
0.1052051932
-0.0507927984
0.1539494991
0.1585638672
0.0354659669
0.0802254230
0.1939908117
-0.1016805321
0.1744309068
0.0602788217
0.0071015037
-0.0575916395
0.0069265636
-0.0608634613
0.1371783167
-0.1366561055
0.0455887914
0.1090441570
-0.1053581163
-0.0471569747
-0.0067902151
-0.0890362933
0.0314875916
0.0106576188
-0.0905648842
0.0387564451
0.1576289982
0.2869431078
0.1953182220
-0.0592592284
0.1904342473
0.1346401721
0.0526954047
-0.0539428629
0.0902309790
0.1942471862
-0.0523314476
-0.0774328187
-0.1805026084
0.0630394965
-0.0390821584
0.0717668533
0.0875090212
-0.0038992355
0.0221060589
0.0791737810
-0.0472418480
0.1864518523
-0.1469408572
-0.1636701226
-0.2394616306
-0.1601632535
-0.1128238067
0.0474292487
0.0331481099
-0.1882296354
-0.0647861138
0.0559492260
-0.0878519192
-0.2184485346
-0.1327586174
0.1228861958
-0.0802341923
-0.0569926612
-0.1665320396
-0.0849213526
0.1054435670
0.1657483578
-0.0178265385
0.0915630236
-0.0213417597
-0.1901109517
-0.0228988566
0.1277641356
0.2266913801
-0.0376711637
0.0359254517
-0.0725646839
-0.0092396243
-0.2296476513
-0.1424387991
0.0708746538
-0.1371203363
0.1845874190
0.0761549026
0.0010249092
-0.2003698498
-0.1769736558
-0.0004066495
0.1077413559
0.2181743979
0.2591382861
0.1280102432
0.1297963411
0.0005035087
0.0299232788
0.0333425030
-0.1940755844
-0.2340093106
-0.1447662860
-0.1729629487
-0.0719178170
-0.2816483676
-0.1551337540
-0.1311094165
-0.0174889863
-0.0847732946
-0.0140146771
-0.0164308734
-0.0846944600
0.0021937930
-0.0810707435
-0.1491041780
-0.1836342216
-0.1328666210
0.0379357301
-0.2149910331
-0.1227375641
0.1539249122
0.0697676688
-0.0188354310
0.0222970862
-0.1946675330
0.3515776992
-0.0967002138
-0.0546718165
0.0093166111
-0.0288783219
-0.1316848099
-0.1943898797
-0.1017160788
-0.0602372102
-0.0101306858
-0.0523111597
0.0132747507
0.0452718325
0.1939985305
-0.0169091914
0.0337475352
0.0235618651
-0.0028689662
-0.0897039324
0.1560565531
0.0009174328
-0.0639771521
0.2029709071
-0.2092401832
0.1127996519
0.0037468118
0.0473943539
-0.0233302359
-0.0455454029
-0.2137140036
-0.0006055035
-0.1038453057
0.3056347072
0.0289509352
0.1060335860
-0.0316639021
-0.1457887590
0.2182951421
-0.1276134253
-0.0908499286
0.0206278786
-0.0336680859
-0.0284679737
-0.2747912109
0.0811871514
-0.1750637740
0.2908292711
-0.3316033185
0.1056285053
-0.2436023802
-0.0563679487
-0.0253882390
-0.0759892240
-0.1079841405
-0.1381779313
-0.0306191742
-0.2151918560
-0.0887082517
-0.2783526480
-0.0486767925
0.1888732612
0.2115518898
0.0277775899
-0.0959052891
0.1785161048
0.1809880584
-0.0813536867
0.0478365049
-0.0189321283
-0.1378724724
-0.3300750852
-0.0355170667
-0.2915612459
-0.0273971483
0.0687483177
-0.0968617201
-0.1245914027
0.1612511128
-0.1553887129
0.0331961587
0.0725304708
0.0311422609
0.0137399277
0.0012703215
0.2924546897
-0.0532036126
-0.0801848322
-0.2116668820
0.0645924062
0.0020704619
0.1324115098
-0.0952850282
-0.1498924643
-0.0817089677
0.0592087470
-0.0817775950
0.0943963602
0.1733968556
0.1669505835
0.1638885140
-0.1774880439
0.1055730209
0.0360872336
-0.2817587256
-0.0408772752
-0.1141552627
-0.1363110542
0.1154426113
0.1241893321
-0.0550193861
0.1652514338
-0.0891812816
0.2028892934
0.1363386512
-0.0940414965
-0.0337490067
-0.0533834584
0.1993930638
-0.0530790277
-0.2918518782
0.0784494057
-0.0189361274
0.1251815706
-0.1519035697
-0.1719767153
0.0910763219
-0.1175963655
-0.1543185115
-0.1166297495
-0.0253439192
0.1889167726
-0.0245898627
-0.0257169828
-0.1648176014
-0.1797673702
-0.0667553544
0.1256078333
0.0328731574
0.0360917002
-0.0235289130
-0.0168751962
0.0761700273
0.0399914645
0.2035803050
-0.0268021338
-0.0622427724
-0.0381650701
0.0453994051
-0.0009532208
-0.0353812315
0.0545008071
0.0051812036
0.0117397169
0.0134380693
0.0835266039
-0.0694791451
-0.1221658513
-0.0277710594
-0.0588802993
-0.1465025544
0.2907378972
-0.0219222717
0.0897023976
-0.1231528223
-0.0098459478
0.1602315903
-0.0848968625
-0.1066272408
-0.0467277355
-0.0743654817
-0.0984978154
0.0574590154
0.1294523776
-0.1189631447
0.2355119437
-0.1014024094
-0.0723946020
-0.1535076350
-0.1086263731
0.0070034396
-0.0293589551
-0.1683147401
0.1562474072
0.0641929880
-0.2002456039
0.0093183173
-0.0076798485
-0.1395913064
-0.0883980468
0.1312392950
-0.0056583378
0.0045943186
-0.2639957666
0.0808088630
-0.1856683940
-0.0299349073
0.0577433817
-0.1231413186
-0.3135654032
-0.0241978634
-0.1133555174
-0.0385745429
0.0275585335
-0.1833043098
-0.0797993168
-0.0448044240
0.0874020085
0.1362464726
-0.1507913619
0.0981449783
0.0264809653
0.0951476246
-0.0933237076
0.0109879635
-0.0410553738
-0.1440866292
0.0179935321
-0.1663284898
0.0864518359
-0.2851178348
-0.0481903404
0.0419704840
-0.0288643446
-0.0572686717
0.2259326875
0.0594329722
-0.1041200981
0.0074438187
0.0482337922
0.1140492111
0.1555604041
-0.1547281593
0.1821660101
-0.0547044910
-0.1306823790
0.1182702556
0.0325658396
-0.0147255296
0.0867680311
-0.0443871841
-0.1797697395
0.1694284827
-0.3001577258
-0.0113262804
-0.0082321176
-0.0947517455
0.1768222451
-0.1595691293
-0.1413183361
0.2078100294
-0.0443545878
0.0426948778
-0.0012821483
0.0053962311
-0.2884728909
0.1026280522
0.0059036273
-0.0924284011
-0.1597633511
-0.0779496953
-0.0188273769
0.0866218060
0.2391989529
-0.0637084171
0.0314742252
-0.0680098608
-0.2246749252
0.0578855313
-0.0105272252
-0.0994238853
0.0679685324
0.2118329555
0.0311767496
-0.1262864321
0.0926809013
0.0059478409
0.1619284898
0.0560984798
-0.2173923850
-0.2030680031
-0.0746607557
0.0225031581
-0.0726020262
-0.1164699942
-0.0666064471
0.3009455800
-0.1583008170
0.1617165506
-0.2011204362
-0.0290364753
-0.0457875319
-0.0386397429
0.1676547974
-0.0696265996
0.0346345641
-0.0291087106
-0.1724328548
0.0502318107
-0.1445594132
-0.0080122761
-0.1134154499
-0.0922145844
0.0827596709
0.0657180101
0.0459017009
-0.1641941071
0.1462368816
-0.0030657235
-0.0383362211
-0.1470710337
-0.0466419831
-0.1243453398
-0.0291002057
0.1745942384
-0.2343896627
0.0617530011
0.0363990255
-0.0693943202
0.0566898435
0.0797246546
0.2088413090
-0.0783530623
0.3767918050
0.0075203106
0.0150385760
-0.1046296507
0.0118910391
-0.1027562767
0.0286410954
0.0475749187
0.0611733608
0.0669430569
-0.0551601611
-0.2983928919
0.1647196561
0.0950461924
-0.1157902852
-0.1051249430
-0.0696391165
-0.2853702009
0.1370431483
-0.1155137718
-0.0014719685
-0.0407920405
-0.1064038798
0.1956959814
0.2209235877
-0.1678656340
0.0316384621
-0.0837397277
-0.2089972347
-0.0277359951
-0.0508088842
0.0678408593
-0.0582203083
0.1469045579
0.0663991347
0.0154251149
-0.2240849286
-0.1796648055
0.2847578824
-0.1369540989
0.0569883250
0.0278591812
0.0834569559
-0.0046209302
0.0914084539
0.2022110671
0.0143843191
-0.0425117910
0.0320845768
0.0248890687
-0.1606287509
-0.0500530414
0.2009405941
0.0534503683
-0.2879776657
-0.0498437323
0.0229642633
-0.1469598114
0.0242482815
0.0031028136
-0.0803586021
-0.0871875137
-0.1283930987
0.0013054103
0.1965474933
0.0232253801
0.0075899740
0.2551653683
-0.2903095782
0.0683488026
0.1270926744
-0.0410611890
-0.0583041944
0.0094024613
-0.1233254969
0.2141455710
-0.0142533872
-0.1482345909
0.0515144467
-0.0891688690
-0.1399540305
0.0192923453
-0.0667028055
0.0156121785
0.0211029034
-0.1272205114
-0.0215743631
0.0686085597
0.0050776121
0.0897672549
-0.0123753110
0.0305279642
0.0606656112
0.0968487114
0.0903847367
0.1891811788
0.0163325630
-0.1148551330
-0.0257160477
0.0714866444
-0.1328207999
-0.0688567087
0.1402302235
-0.2233410627
-0.1362960637
-0.2809241414
0.0842776150
-0.0145607693
-0.1022195294
-0.0596902408
-0.1409323663
-0.1058595031
-0.2982032895
-0.0296182912
-0.0884974375
-0.1006438360
0.1629843265
-0.1088017002
-0.1336034685
-0.0671497732
-0.1577578634
-0.0986744165
0.0164604243
0.2226911783
0.0145537779
-0.1041180268
0.0396875143
-0.0329393633
0.0068279207
0.0310477037
0.0367151760
0.0623135641
-0.1301022023
-0.0357671157
0.1197305173
0.0037213515
-0.0125227105
0.2119454592
-0.3767774105
0.1173994914
0.1341440678
0.0493549630
0.0874870196
-0.0936112776
-0.0677358881
-0.0971113443
-0.1755080372
-0.1667836905
-0.0937296078
-0.3989701569
-0.0676264539
-0.0302428994
-0.0863355324
0.0973341390
-0.0772554502
0.0086781364
0.0442993157
-0.0027923833
0.1550572962
0.0659145713
0.0833005160
-0.0603746362
-0.0323102027
0.1390378773
0.0887159333
-0.2838629782
0.2807218134
-0.1410870254
0.0412307717
-0.0048447680
0.0823935494
-0.0011783709
0.0790908709
-0.0209120978
0.0884244516
-0.0840420797
-0.0397111177
-0.0367764793
-0.2741696835
-0.0420468748
0.2017087489
-0.0312908851
-0.2978734076
-0.1066775844
-0.1739198267
0.0049646739
0.1247627214
0.2755189538
-0.2838521600
-0.1054445952
0.0429972000
-0.1057642102
0.1774874926
0.0813983530
0.0011219300
0.0854058862
-0.0439294577
0.1900445372
0.0332786925
-0.0477310121
-0.0976166651
-0.0582951270
-0.3533813059
-0.0958954394
0.0678825155
0.0256026033
0.0177668054
0.1700166911
-0.3143052757
-0.0360541046
-0.0515555665
-0.2324307859
0.1179468632
-0.3118863106
0.0327444896
0.0172844809
-0.0625614598
-0.1304991692
-0.2396153063
-0.0073938654
-0.0627082363
0.0005835103
0.0822164044
0.0658331439
0.1862649620
-0.2815948427
-0.0364651792
0.1682008356
-0.2102748156
-0.2899217308
0.0264086779
0.1924998015
0.0456197783
-0.1910950243
0.1845299751
0.0225619283
0.3192915022
-0.0574327148
0.1172691807
0.0573051013
-0.1820702702
-0.0102394372
-0.1744678766
-0.0420416929
0.0022096606
0.0642216876
-0.0669116527
0.0232456028
-0.0980855450
-0.0445411690
0.1060264483
-0.0199994408
-0.0025464781
-0.1142692119
0.0637135357
-0.0896979049
0.0412521735
0.0118171507
0.0214209557
-0.1868980676
-0.1362328082
-0.1368637234
-0.1364262849
0.0127625391
0.0948767737
-0.1447415501
-0.3591308594
0.1653606743
0.1308813691
0.2083397061
-0.0132318158
-0.1034393981
-0.1075396836
0.1828529239
0.1215670854
0.1002833396
-0.1659030765
-0.1358384192
0.1743704975
0.0056007113
0.1081353277
-0.2601671219
-0.3674076498
-0.0711681619
-0.1293663979
-0.0717822537
0.1352500767
0.1374341697
0.1089548916
0.2376614809
-0.3098413050
0.1918871999
-0.1927157640
-0.0539590269
0.0401533656
0.1158018187
0.1481987685
-0.2148349583
0.0456726588
-0.0798088685
0.0771405771
-0.1042333618
0.0954336748
0.0792924240
0.0042483471
-0.0340535231
-0.0675262511
0.0245546475
-0.0532287583
0.0576161109
-0.1137277931
0.0580577478
0.0050110123
-0.1176372096
0.1115276143
0.2085914761
-0.0674412251
-0.2079214603
0.1315412670
-0.0894788578
0.1834116876
0.0024844850
0.0062403795
-0.0728344172
-0.1071320698
-0.0054963743
0.1046232432
-0.0279480070
0.1455559283
0.0716517493
-0.2573297620
0.0716046467
0.1376185864
0.0444656350
0.0010923463
-0.1632592529
-0.1305138171
-0.1191088557
0.2383625954
-0.0265882481
-0.0151298186
-0.3721616566
0.1270823181
-0.1793347299
0.0151817258
-0.3416264951
-0.2555819750
0.0927782059
-0.1131367907
-0.0616354123
0.1737598330
0.2294797897
0.0272903070
-0.1880872101
-0.0358187184
0.1247497052
-0.1719255149
-0.3284798861
0.0460081510
-0.0004428175
-0.0363515317
0.0438942723
-0.0780804604
-0.0026503247
0.0246841423
-0.0606891140
-0.1340187639
0.1250766367
0.0785601437
-0.0126756309
0.1615647376
-0.0673096403
-0.0326458327
-0.0218453966
-0.3017183244
0.1580192298
-0.1520617008
-0.0411086194
-0.0417942405
0.1130292341
-0.0509298407
0.0770930499
-0.0850463882
-0.0348209813
-0.0924687758
-0.0445497595
-0.0616936795
-0.0409842134
-0.1794929653
-0.1427123100
0.0677406937
0.0213752445
-0.1067903042
0.1028857753
-0.0517348312
0.2382754385
0.0835324377
0.0784780383
0.0179552529
0.0544962026
0.0988330618
-0.1263718903
0.0852084160
-0.0244428813
-0.2397467792
-0.2546326518
-0.0131122619
0.0658114552
0.0974587724
-0.2215351611
-0.2124478370
0.0858034194
-0.0893813893
-0.0074429717
0.0144968545
0.1757880002
0.0807646066
-0.2460100800
0.1042063460
0.0782012492
-0.1481210142
-0.0850696638
0.0335882679
-0.1049635783
-0.1311774552
-0.0188781861
-0.0434726365
-0.0422244221
-0.0293667484
-0.0271654539
-0.0579698496
-0.0400027521
0.0439318046
0.0061166738
0.1400334090
0.0215331018
0.1224042922
0.0125883101
0.1817039847
0.4068917930
-0.0892977118
-0.0611286722
-0.0085216705
-0.1004520580
-0.1253378391
-0.0321984366
-0.1329636872
-0.1031637713
-0.0678528771
-0.0058912472
0.0213981569
-0.0067364355
0.1013381332
-0.4084609449
0.0862963945
-0.0647260696
0.1585768461
0.0910672322
0.0048457133
0.0504771248
-0.1705343425
0.0564536415
-0.0657692924
0.1191493124
0.1489779949
0.1468127072
-0.2127385139
0.1246364042
-0.2122033536
0.0574595556
0.0118341325
-0.1080093533
-0.0536545366
-0.0947807431
-0.2482287586
0.2312466502
-0.2601163387
0.1052256301
-0.0031786966
-0.1139935330
0.0987365097
-0.0904826894
-0.1535140574
-0.1447650641
0.0899114385
-0.0922551677
-0.0439438969
0.1734360307
0.0396361984
0.0129223494
-0.1650736630
-0.1752625555
0.0711876303
0.1399461776
-0.0593204312
-0.1205066666
0.2137318701
-0.0153997634
-0.0502818897
0.0073921052
-0.1501321495
0.1348375529
0.0939223394
0.1825322509
-0.1574402153
-0.1889103353
0.0768611208
-0.0550289266
0.0601588078
0.1498662680
-0.1462247968
-0.1453592181
0.0855907574
-0.0136119146
0.0014686212
-0.0934549496
-0.0509367064
-0.1066462174
-0.0494091511
0.0099937981
0.1882815361
-0.0789123699
-0.2075350583
-0.0153331747
0.0267647207
0.1688738912
-0.0280420240
-0.0594749674
0.1562854946
-0.1090325043
-0.0512877256
0.0025122962
0.0259230882
-0.0564449206
-0.0355939604
0.2971989810
-0.2048143148
-0.1229170933
-0.0315931067
0.1644331962
-0.1948876679
-0.1881246269
-0.0772833750
-0.0250282660
-0.0482133739
0.0070656105
-0.0240256861
-0.1930914670
0.0357782729
0.0630748123
0.0127638672
-0.1004158258
0.0751622245
-0.0956736133
-0.1392266750
-0.0467937253
0.0564643182
0.0975081772
-0.1967449039
0.0248099081
0.0021489419
0.0001782074
0.0881610587
-0.2611544132
-0.1866518259
0.1002406850
-0.1967070997
-0.1309216470
-0.1964367479
-0.0709155723
0.1004460156
0.1750735343
0.0982138664
0.1302803755
-0.0482141189
-0.1658915579
0.2706975937
-0.0028543442
-0.0353696682
0.1291093677
-0.2507439256
0.0344663225
0.0335989967
-0.0257421955
0.2138960063
0.1843686104
-0.2731019855
0.2265945375
-0.1216830909
-0.0741936490
-0.0679692775
-0.1956303120
0.0780327693
-0.1405932009
-0.0877220780
0.0819376707
-0.1709989011
0.0693988949
-0.0181157831
-0.0205988362
-0.0421037227
0.0568809435
0.0673506036
-0.1688833088
-0.0709719062
-0.1240968555
0.1271510422
0.2933075130
0.0665188953
-0.2003421932
0.0877524242
0.1345983893
-0.2079485506
-0.0911222100
-0.0786338076
-0.2399612367
0.0398012027
-0.1032042876
-0.0023198365
-0.0539613552
0.0170010328
0.0714639276
-0.2450633049
-0.2640364766
0.1563853174
-0.0244549531
0.0185048953
0.1540688425
0.1680216789
0.1319149882
-0.2686394453
0.1460611671
-0.0523123518
-0.1798362434
0.0230925232
0.1486348212
-0.1751521826
0.3895356357
-0.0079843113
0.1556064636
0.1339803338
0.0544409938
-0.0048800032
0.0390783884
-0.1481132507
-0.1164598688
-0.0039509581
-0.0307196286
0.1350340545
0.0829549581
-0.2152691483
0.1340933591
-0.1282296479
0.2779085040
0.0245641153
-0.0778608546
-0.1565256417
-0.0393512063
-0.1213450581
-0.0290206373
0.0990915969
-0.2562195063
0.1053228676
0.0286669210
0.0325752497
0.0595780946
-0.1745837033
-0.0537595972
-0.1057531759
0.0749385133
0.2270280570
0.1228258908
0.0222113431
-0.1836505532
0.0466634743
-0.0292303301
0.0077504534
-0.3807036877
0.1238090396
-0.0947892293
0.1833223104
-0.1546335369
0.0744688958
-0.0224019550
-0.0154701835
0.0010246760
-0.1468138546
-0.0466418304
0.0279818512
0.0022663965
-0.0722296014
0.0630017221
0.2582198083
0.1866849661
-0.2457530648
0.1249359027
-0.1084407121
-0.0042381273
0.0240909476
0.1729293764
-0.2155281454
-0.0171548594
0.0123858266
0.1323059201
0.1452353448
-0.0090155005
-0.0410739891
-0.0927243084
-0.1661541313
-0.0694487020
0.1305777878
0.0230123755
-0.1627348214
0.0190720540
-0.0346469730
0.3113010228
-0.1132091656
0.1898493618
-0.0273339991
-0.0521545559
-0.1052268073
0.1717324257
-0.0932492092
-0.0761590451
-0.0941604152
-0.1445866525
0.1053254828
-0.0981068164
0.1183746532
-0.1356122494
-0.2901110351
0.0118231084
0.1712105572
0.1220427006
0.1647350341
0.0663162842
0.0566675067
-0.2625832558
-0.0509720966
0.1013121754
0.1651280224
-0.0671224147
0.1825797409
-0.0851680189
0.0750911236
0.0703758299
-0.0108422320
-0.1896133125
0.1057013795
-0.0155392475
-0.0028848443
-0.0437509082
0.0435936674
-0.0044011204
-0.2325432748
0.1804350466
0.1117924824
0.3192848265
-0.0799895152
0.0645545274
0.0375555195
-0.2401723862
-0.0182616189
0.1547226906
-0.2242947966
-0.1539134532
0.1491269469
-0.0868971422
0.1223406419
0.0552161783
-0.0175477546
-0.0352713540
0.0149407517
-0.1499537975
-0.0609504841
0.0021723083
-0.1646729261
0.1970788389
-0.1951977760
0.2285869867
-0.1197995618
0.1419454366
-0.0733252317
-0.0436151735
0.0196679588
0.0438755006
-0.0937597528
0.1367928386
-0.0401157849
-0.1460591853
-0.1670829952
-0.0732947290
0.1651068628
-0.1008700654
-0.1092345864
-0.0408691205
0.0997374952
-0.0440303087
0.0338930860
0.2440111637
0.2250590324
0.0476225242
-0.1094145626
0.2801524699
0.0481684692
0.0616663620
0.2736961842
0.0396981090
-0.0155480597
-0.2413382679
0.0134986937
-0.0578234233
0.1263059527
-0.0989725888
0.0721302778
-0.3030821979
0.0689283982
0.0228151586
-0.0704864562
0.1037190259
0.1072960570
0.3609621823
-0.2588760555
0.0012545459
-0.3171722889
-0.1637781411
-0.1641963273
0.3914660811
-0.2009092271
0.1014637053
0.1915454566
-0.0538622439
-0.0348719656
-0.0280055720
-0.0031175213
-0.0200162698
-0.0677826330
-0.1441200823
-0.1151249483
-0.0143467104
0.1577674598
0.0800908059
-0.3910373747
0.1364214420
-0.0086026927
0.0188508704
-0.2558896840
-0.0988872722
-0.0623359680
-0.0642704368
0.0868321359
-0.1430564672
0.0498046838
-0.2899383008
-0.1091035903
0.0199126080
0.2160338014
0.1735685170
-0.0475169681
0.0833113641
-0.0388914160
0.0182157308
0.0813135579
0.0445052460
0.0872130468
-0.2261246890
-0.0151837515
0.2186732292
-0.4902649522
-0.1051110998
0.1376381665
-0.0836560130
0.0350407735
-0.0298767388
-0.0032091201
-0.0122622857
-0.1004931182
-0.0655844063
-0.0437448584
-0.0510625839
0.0549355894
-0.0000314016
-0.0747125968
-0.0409630239
0.0250236336
0.1199016199
-0.1329019517
0.1433643848
-0.2261619270
-0.0841821432
-0.2401191592
0.0923561677
-0.1786630154
-0.0845971256
0.1012209803
-0.0735234618
0.0133434962
0.0190334152
-0.0064860824
0.0302636754
-0.2138630599
-0.1065869927
-0.0377830379
-0.0220421832
0.2293760180
-0.0032903000
-0.2507923543
0.0348666050
-0.0417918973
0.1607593447
-0.0146950344
-0.0292136706
-0.0963034630
0.0428298824
0.1036625430
-0.0024870555
-0.0616454966
-0.1215016022
-0.0237942506
0.1733870953
0.1363527179
-0.1152478904
-0.1910374463
0.1154060811
-0.0547721758
-0.1202006266
0.0738787875
-0.0420866422
0.1198210493
-0.3235429525
0.1388328373
0.1347764134
-0.2726465464
-0.1558978558
0.2356909513
-0.0552736633
-0.1809790730
-0.0092923241
0.0046465220
0.0096803056
-0.1446969658
-0.0799131989
-0.0202404317
-0.1659401953
0.0165672041
0.0313680880
0.0437159613
-0.0724477097
-0.0188717954
0.2316657007
0.0828801692
0.1310998201
-0.2094813883
-0.0059186039
0.0473654531
0.1097012907
0.0087945042
0.0629017204
0.2654988170
0.0410135314
-0.0425247364
0.0561675914
-0.0220053010
0.0354798064
-0.4076426327
-0.2486425191
0.0117207058
0.0016189283
0.0565193929
-0.0895581916
0.0697094351
0.0345737375
-0.1710908711
0.1695284545
-0.0055672317
0.1024784446
-0.0708995536
0.1848851293
-0.0140465563
0.1595247537
-0.1207961440
-0.1138451621
-0.0155824674
-0.1647842079
-0.2742673457
-0.1604103446
-0.3568385839
0.1845299006
-0.1508010030
-0.1494906247
-0.1062462777
-0.0129274987
-0.1722911000
-0.1692330986
0.0258362684
0.0235033203
-0.0030916361
0.2050237209
-0.0759966671
0.1175014675
-0.1655507684
-0.1561711431
-0.0299259163
-0.0779380500
-0.0334939063
-0.0322499946
-0.0742371976
-0.0064104754
-0.2334398478
0.0308930259
0.1887861639
-0.0717180669
-0.0639976561
0.0456414074
-0.1084546670
0.0123941777
0.0727437958
-0.0610312782
0.1548377872
-0.3255141973
0.0694640875
-0.1836065203
-0.3779850602
0.2068739831
0.0652990267
-0.0277170707
-0.0365313329
-0.1757301539
-0.1758031249
-0.0287329741
-0.0351167880
-0.0121092768
0.0175120551
0.0807689801
0.0841992572
-0.1033456624
-0.0424836427
0.0174591579
-0.0890589207
-0.0301813092
0.2146198452
-0.0379537232
0.0591574907
-0.0259941816
0.2289246917
0.0016315258
0.0271867681
0.0752038583
-0.0120808985
-0.4875889719
-0.1337174475
-0.0294848066
0.1969004720
-0.0693461969
-0.0883310810
0.1136643887
-0.0648259893
-0.0542294569
-0.2375542969
0.0759705529
0.1410313249
0.0828549638
0.0372056402
-0.2004965693
0.0467266254
-0.0734171495
-0.2236884087
-0.0058141616
-0.1020908058
0.0700730234
-0.4380267262
-0.0116266804
0.0120444242
-0.0051430441
-0.4052240252
-0.1468338370
0.0684098974
0.0340185948
-0.2749831676
-0.1779921949
-0.3249474764
-0.2700711191
0.2645764947
0.2768292427
0.0227891598
0.0477092713
-0.1794412136
-0.0595615804
0.0958307385
0.0029139305
-0.0240412392
0.1971747875
-0.1420349628
-0.2886173427
-0.0296056084
-0.0370971672
-0.0017826528
0.1939274967
-0.1064512581
-0.1022339910
-0.0662981644
-0.0086716460
0.0245116800
-0.0757899135
0.0735134259
-0.0406375974
-0.0861512646
-0.1014324501
-0.0274531804
0.0723168775
0.0376062840
0.1128796786
-0.0217782129
-0.1863030642
0.1451347470
-0.1555819660
-0.1056617126
-0.0030213138
0.0198925044
0.0430398248
0.0977340788
-0.2701673806
0.1170899197
0.0666263402
-0.0979100838
0.1083655581
0.1017294452
-0.0893337429
0.2417539060
-0.0005933898
0.0253508538
-0.0088807074
0.0313941278
0.0568397418
-0.2213165760
-0.1405729502
0.0458616130
0.0338802151
-0.3948459029
0.1530411988
-0.2015630901
0.2204949558
-0.0924829692
-0.0328884386
-0.0182095915
-0.2842126787
-0.1163266674
0.2570892870
0.1735272110
0.0335009061
0.0966792703
-0.2040675282
0.2622056305
-0.0120966788
-0.0004255881
0.1100251973
-0.0544168539
-0.3672667742
-0.1243526340
-0.0321379565
0.2425871640
-0.0842936635
-0.3407254517
0.0969391689
-0.1734919846
0.0967857093
-0.0159943197
-0.0331810042
-0.0337461047
-0.0277688336
-0.1891081184
0.1385004520
-0.0070540514
0.0357070044
0.1932576448
0.2134720683
0.0543174595
-0.1750697643
-0.1697618067
-0.3034957945
-0.1569119543
-0.0975618884
0.0821188763
-0.0582727045
0.0647064745
-0.0940537378
0.1599060595
0.0402205661
-0.1699951291
-0.0208816268
0.1975659132
-0.1602876335
0.0578461252
0.1401089430
-0.0808151290
-0.0433506183
0.0162818842
0.0374783538
-0.1461946368
-0.0902752355
0.0910014659
0.0013573200
-0.4504030049
-0.0587930903
0.2130477726
0.1841605902
-0.5399263501
0.0864256844
-0.0719572902
-0.1350015551
-0.1316047311
0.2000700831
0.0959243029
-0.1455140263
0.2284194231
-0.1560516208
0.3120466471
-0.0144378738
-0.0228328127
0.0266708396
-0.1518538445
-0.2032376081
0.0875533596
-0.0020592981
0.1316664070
0.0400592908
-0.0776874423
0.1243476942
0.0719580576
0.2981411219
-0.0007770199
-0.1481446326
-0.0928189829
0.1875894666
-0.0609905757
0.0721000507
-0.0312824622
0.1157402769
0.0036534702
0.1217537746
-0.0915167704
0.0581252985
-0.2079520822
-0.3380816877
0.0512481369
0.2965438366
-0.1743929535
0.1693774760
0.0282790437
-0.0556754805
0.1144734249
0.1241771206
-0.3048984408
-0.1613472849
0.1693902612
-0.1321355850
0.0717665777
-0.2064496726
-0.0266234074
0.0178293008
0.0073708119
0.1314052492
0.0474738590
0.0279511586
0.0276560057
0.0137440441
-0.3447588682
0.2857159078
0.2144399285
0.1501909047
-0.2308319360
0.2387735248
-0.1177548692
-0.2326232195
0.0441767760
0.2515424788
0.1414640397
-0.1182826534
0.1043937802
-0.2065553516
0.0192222483
0.0520903617
-0.0269445181
-0.0774631128
-0.1518698186
-0.1031191424
-0.1433154792
0.0139266625
0.0041541224
0.0625254586
-0.0821231231
0.1356699765
-0.1223676950
0.1839786619
-0.0543376245
-0.0896282122
-0.0942996889
-0.0388952233
0.1713187546
0.0424438007
-0.1071305797
0.1045494974
-0.0663187131
0.0259555653
0.0138096344
-0.1834350824
0.0705989897
-0.0729037151
0.0999452993
0.1243738234
0.0405530557
-0.0395761132
0.0878119394
0.2070687115
0.2736999094
0.1511505693
-0.2634681463
-0.2345067859
0.2097740471
-0.1608904600
0.0277291033
-0.0839553624
-0.1273952723
-0.0174493827
0.1202852055
0.1053931788
0.0645014495
0.0454678424
-0.0048395293
0.0192766748
-0.2736716866
-0.0617872588
0.3267388940
0.1687554270
-0.2800734937
0.0014980895
-0.3174706995
-0.1302473545
-0.0471515059
0.4466937482
0.4587625563
-0.0918180048
-0.0721913651
-0.0661976337
-0.1472357512
0.0502965786
0.0199154224
-0.1027112678
-0.2558497488
-0.2338336557
-0.0257970598
0.0272017159
0.1547580510
-0.0965067223
-0.2428094298
0.0330654234
-0.0707406402
0.1311836541
-0.1225102842
-0.0365001820
-0.2453011423
-0.0637021065
0.1037150770
-0.0470856987
-0.1823269427
-0.1418185830
-0.1096403748
0.0958315730
0.1937789917
0.0206207316
-0.0872014910
-0.0149711985
-0.1222459301
-0.0894993991
0.0605503432
-0.0151059218
0.0944437832
-0.1710452288
0.0460188799
-0.0740862638
-0.3595061898
-0.3033381701
0.1535159945
-0.1680772156
-0.0100630457
0.1544396579
0.0799790174
0.0217603855
0.0234978311
0.0016884631
0.0234137774
-0.1976981163
0.1757610589
0.0165628865
-0.2246159911
-0.0910122469
0.0031739718
0.1565943360
-0.3447146118
0.1191834882
-0.2128605694
-0.0705870241
0.0205948949
0.2059032172
0.1107941568
-0.1469279677
0.1113010123
-0.1809658706
-0.1858105212
-0.0209820941
-0.0472105779
-0.0287443586
-0.2291401327
-0.2327526510
-0.2667416334
0.0258675832
0.2221276313
-0.0880828723
-0.0859406590
-0.1222207397
-0.1400750279
0.0491456464
-0.1165682599
0.0288218390
-0.1625835449
0.1869845241
0.1415230483
-0.1635863036
0.1465781778
-0.3558031917
-0.0926611722
0.0291829854
0.1222656146
0.0018808745
-0.0982305035
0.0958710238
0.0879062265
-0.0350458547
-0.0667886585
0.0382463038
0.1348825246
0.0424933545
0.0284230728
0.3861302733
-0.1266876906
-0.1221468151
0.0143236686
-0.1016576439
-0.1437609047
0.2659925222
-0.0950500891
-0.0146470703
0.2000107616
-0.1305568665
0.0707108751
-0.1802338064
0.0882430747
-0.0302830562
0.1110342145
0.0853394046
0.1052049175
-0.0820316449
-0.0424828269
0.1379604042
-0.4169480205
0.1985338628
0.0478586964
-0.0702097118
0.0648048148
-0.1438770443
0.2162403464
0.0199560709
-0.0167401023
0.1061881483
-0.0045832642
-0.0205714926
-0.1943157613
-0.3298425674
-0.1138880253
0.0196017511
0.0998340324
-0.1438854635
-0.0535077006
-0.1801441461
0.0133757442
-0.0578423589
-0.1712166220
-0.0962931812
-0.0944997668
0.0922037289
0.0837482288
0.1575751305
-0.1840504408
-0.2777051330
-0.0556742735
0.0411133915
-0.2222918123
0.0051758038
-0.1544291228
0.0744531676
0.0108490279
-0.0694457814
-0.0461302064
-0.0959174111
-0.0689487606
-0.1996853054
-0.1041686460
-0.2084939331
0.2283394188
0.0146076428
0.1680327356
-0.1544457525
-0.1102912351
0.1164491698
0.1329901069
-0.0919303447
-0.1220765710
0.0477656312
-0.0717102066
-0.2898030579
-0.0082284026
0.0085882815
0.0220714286
0.0609866641
-0.0880241096
0.0696423426
-0.0283196196
-0.1764935553
0.0883886069
-0.1044674292
0.0665847436
-0.1281283498
-0.0283691119
0.0907314271
-0.0130232004
-0.2082866579
0.1528997570
-0.0260672551
-0.0146776680
-0.0429536179
-0.1325847656
-0.0534899496
-0.0497701913
-0.0119176405
-0.2322228104
0.1832553148
0.0275905952
-0.0649150684
-0.1905367076
0.1378924698
-0.0447363108
-0.2718578577
0.0972648039
-0.1389711499
-0.1015484482
-0.0264871977
-0.0278726071
-0.0734850913
0.0878275707
0.0167871062
-0.1407338679
-0.1633733511
-0.0082707908
0.0285570230
0.1597600132
0.1827129424
-0.0564243160
0.0484601334
-0.3161986768
-0.1774793863
0.0635876432
0.0023426618
0.2085030079
-0.1946934760
-0.0286949053
-0.1307182759
0.2343451679
-0.1924033761
-0.0790264681
-0.0090476079
-0.0134797245
-0.1788828820
-0.2018773258
-0.1174582243
0.0610678531
0.0195629075
0.0630587786
0.1289149076
0.2805398405
-0.0513628647
-0.1456976682
-0.2021389902
-0.0997201577
-0.3135986924
0.2538917065
0.0581382588
-0.1088899225
0.0552096330
-0.0477456078
-0.2992563844
0.2485185117
0.0335292518
-0.0703871623
0.0438527092
-0.0916124955
-0.1610532850
-0.1283859909
-0.0434866548
0.0248322282
0.1851638854
0.0353090987
0.0383957848
-0.3291382194
-0.0834411606
-0.0925890729
0.1480825245
0.1688128263
0.0611469261
-0.1248331517
-0.1239640936
-0.1424697787
0.0325162932
0.0815674812
0.1794241518
0.0017305881
-0.2754620612
-0.0118643921
-0.3036438525
-0.1109308675
0.0745829195
0.0228103288
0.0466090888
0.0093740588
-0.1709810942
0.0484036505
0.2211769521
-0.0355262831
-0.0181030761
0.1357920915
0.0821489319
0.1164593175
0.0482966565
0.0197349619
0.0715858713
0.0555570535
0.1957866848
-0.2812773883
-0.1263952851
0.1104463041
-0.0358057395
-0.0521028899
0.1013309807
-0.0927731320
0.2231666148
-0.2499518692
-0.1904603392
-0.0716606528
-0.2197106928
0.0299944300
0.1276388317
0.1204480007
-0.0861545801
0.0932730660
-0.2146117687
0.0219662990
0.0279571861
-0.0660826787
0.1094477475
0.0294114314
-0.1700505018
-0.1781082600
0.0166441612
0.0492731743
0.0809233040
-0.2971935570
0.0996313915
-0.0996508822
0.0285468195
-0.0532610565
0.0644261837
-0.1706458330
-0.0267012529
0.0355185866
-0.1091299430
-0.0844141096
0.2696656585
0.1317262053
0.3372440934
0.0341015793
-0.2767699957
-0.1016012728
-0.2977309525
-0.1634909064
-0.1057097092
0.0468182266
-0.1662395895
0.1457147002
-0.1705015451
-0.3217366934
0.4087052047
-0.0800691471
-0.1013311073
0.1847589612
0.0090055633
0.1947041005
-0.1467918605
-0.1548129469
-0.0722558647
-0.1235916615
0.0084400037
-0.2550762892
-0.1925235391
0.0053393431
0.0021903403
-0.0143877119
0.0517743938
0.0845788643
0.1937148571
-0.3610688746
-0.1900286078
0.0805496275
-0.2706618905
-0.1203398108
0.3579815030
0.0812360123
-0.2200631797
0.0616951622
0.1111526042
0.0204771031
0.0552978478
-0.0122382250
0.0427775569
-0.0826671347
