-0.061126
-0.189785
-0.168946
-0.001854
-0.023435
0.002735
-0.051157
-0.087593
-0.153959
-0.090794
-0.166442
-0.030580
-0.299334
-0.200039
-0.061547
0.082305
0.016366
0.097072
0.051412
-0.029237
0.126347
0.021596
0.038802
0.085288
-0.337594
-0.302672
-0.254890
-0.182088
-0.074556
-0.070234
0.076666
0.130738
0.211930
0.053779
0.128075
0.257125
0.098074
-0.022751
0.099715
-0.022223
-0.246170
-0.227574
0.111225
-0.067472
-0.027494
-0.057103
-0.017220
-0.014515
-0.032552
-0.023694
0.081474
0.131506
-0.050883
0.053965
-0.053435
-0.175165
-0.090900
0.058440
-0.089153
-0.218910
-0.124887
-0.235388
-0.295514
0.017461
-0.073938
0.040403
0.151691
0.099722
0.243692
0.095029
-0.139307
0.182605
-0.058743
-0.298845
-0.220188
-0.019370
0.028476
0.013863
-0.056115
0.047256
0.137359
-0.044780
-0.007664
0.038502
-0.300611
0.011203
-0.175085
0.076684
0.226595
-0.030224
-0.182050
-0.120190
-0.317878
-0.334242
-0.450116
-0.421023
0.110168
0.122718
0.017993
0.013548
0.008590
-0.134722
-0.029531
0.031408
-0.247459
-0.018721
-0.054777
-0.201944
0.058409
0.103897
-0.009881
-0.037908
-0.071341
-0.204788
-0.067656
-0.224815
-0.189742
0.162459
0.060195
-0.056993
-0.064770
-0.053532
-0.006738
0.187944
0.162219
0.169522
-0.060987
0.046794
0.096368
-0.468749
-0.071286
0.183770
-0.142066
0.185763
-0.074795
0.111621
0.054717
-0.062146
-0.105853
-0.247852
-0.216238
0.093720
0.014631
-0.028077
-0.185688
-0.142430
0.080578
-0.038016
-0.025953
0.010693
-0.117802
-0.027508
-0.029810
0.008930
-0.148205
-0.037311
-0.024678
-0.177120
0.035669
-0.023461
-0.122881
-0.113204
-0.140688
-0.056408
-0.146524
-0.013841
0.052644
-0.171362
0.200182
0.310604
0.145609
-0.077792
-0.155031
-0.036312
-0.001452
-0.161619
-0.074781
0.085190
-0.054340
-0.008861
-0.253656
0.053988
0.087073
0.263437
0.074542
0.022200
-0.013360
0.058970
-0.265998
-0.123731
-0.400212
-0.359888
-0.264306
-0.235722
-0.182709
0.244273
-0.031848
0.103529
0.064972
-0.119789
0.021395
-0.059435
-0.149933
-0.148228
-0.035813
-0.057029
-0.114046
-0.364975
-0.156505
-0.138359
-0.225047
-0.234976
0.210605
-0.194482
0.011990
0.131630
0.024330
0.154783
-0.090718
-0.181180
0.144488
-0.137858
-0.013608
0.078401
-0.155853
-0.055929
-0.098619
-0.291611
-0.136194
-0.058450
-0.235672
0.082697
-0.088562
0.134263
-0.055837
-0.133158
0.031694
0.007936
0.006335
0.028025
0.233821
0.082280
0.197215
0.221608
0.098783
-0.030784
0.180082
0.259935
0.026137
0.143592
0.282277
-0.095819
0.048052
0.096494
-0.040429
0.035184
0.089487
0.090825
0.125759
0.026338
-0.041642
-0.107761
0.007626
-0.167526
0.138755
-0.121424
-0.128749
0.148601
-0.157688
0.105357
0.033046
0.187527
-0.002030
-0.005098
0.086721
0.004153
-0.081357
0.011326
0.002278
0.341538
0.165973
0.013684
0.211705
0.091041
-0.043059
-0.220953
-0.246914
-0.253537
-0.075758
0.101774
0.122228
-0.188250
-0.086989
0.074254
-0.338674
-0.212092
0.154920
0.007612
-0.016898
-0.084983
-0.136771
-0.256326
-0.119745
-0.158286
-0.270785
-0.172963
0.022135
0.102609
-0.039211
-0.127535
-0.011330
-0.038948
-0.182029
-0.127260
0.040890
0.151406
0.189193
0.031031
0.075799
-0.142372
-0.113029
-0.247145
-0.323473
-0.212195
-0.110031
0.263684
-0.246505
-0.027989
-0.054711
-0.096463
-0.127779
-0.015242
-0.285128
0.127117
0.027594
-0.186840
0.037804
-0.010206
-0.231794
-0.226893
-0.052034
-0.004955
0.041484
0.115320
-0.156971
0.138746
0.150393
-0.014727
0.075264
0.096490
-0.138263
-0.148186
-0.465846
-0.028666
-0.147329
-0.343629
-0.208347
-0.372305
-0.366485
-0.059512
-0.049527
0.081449
0.079547
-0.186842
0.101622
-0.177895
-0.122990
0.039316
-0.131135
0.019985
0.147630
-0.006556
-0.040770
0.131064
0.101065
0.108279
0.031283
0.088589
0.062390
-0.007733
0.046758
-0.097267
-0.123608
-0.021022
-0.024167
-0.140790
0.013974
-0.005778
-0.169771
-0.011764
0.230482
0.105641
0.049198
0.103088
0.037092
0.076979
-0.000424
-0.070252
0.120081
0.077801
0.017985
0.009628
0.025906
-0.051228
-0.171740
-0.009221
0.041405
-0.082782
-0.113035
-0.069218
-0.069072
0.002213
-0.108145
-0.090046
0.288802
-0.032917
-0.265658
0.008279
-0.105724
-0.403104
0.158755
-0.318344
-0.095904
-0.112396
0.053438
-0.030696
-0.021434
0.051654
-0.076128
-0.009529
0.012677
-0.066678
-0.122849
-0.082172
-0.136120
-0.245735
-0.204637
0.000314
-0.096593
0.030270
-0.026125
-0.105411
-0.079158
0.021504
-0.055770
0.000931
-0.145515
-0.015185
0.190207
0.061381
0.065142
-0.097820
-0.049489
0.289224
-0.094337
-0.670313
0.261079
0.078106
0.094955
0.038150
-0.513470
-0.036186
-0.134880
-0.536417
-0.076193
0.079439
-0.216618
-0.097864
-0.177300
-0.153630
-0.277081
0.195842
0.064647
-0.047474
-0.065351
-0.159142
-0.110611
0.119987
-0.243734
0.088408
0.035500
-0.258727
-0.046327
0.144132
-0.105439
-0.078377
-0.138883
-0.048215
-0.440783
-0.162062
-0.075343
-0.213324
-0.429641
0.146471
-0.067023
0.188968
0.101990
-0.134817
0.001860
-0.125476
0.013180
0.102465
-0.045950
0.007655
0.003644
-0.152115
-0.314798
0.153131
0.081936
0.144257
0.237069
0.059656
0.106904
0.299374
-0.029637
0.189476
0.139030
0.021402
0.128759
0.254983
0.025338
-0.052945
-0.195356
-0.331744
-0.080296
0.165986
-0.132248
-0.047016
0.319728
0.206023
0.084192
0.086778
0.208580
0.055564
0.044072
0.172967
0.269821
-0.194924
-0.278584
-0.067366
-0.075437
-0.143682
0.002961
-0.062051
-0.009802
0.089242
-0.024208
-0.103750
0.177054
0.060803
-0.061599
-0.035777
0.074559
0.078123
0.096026
0.060018
-0.003101
-0.007736
0.042813
0.155597
0.077991
0.161170
-0.102034
-0.151551
0.076906
0.073194
-0.062143
0.126841
0.117181
0.027262
-0.154070
-0.169449
0.033839
0.036003
0.074455
0.042227
-0.062695
0.065185
0.054183
-0.144716
0.001425
-0.004043
-0.067251
0.023219
0.097400
0.063343
-0.081706
-0.086223
0.026334
-0.035094
-0.213488
-0.133804
-0.076089
-0.310746
-0.324489
-0.216628
-0.212391
-0.102991
-0.310730
0.034520
-0.161049
-0.058076
0.221765
0.119597
-0.049156
0.127102
-0.103647
-0.158682
-0.032149
-0.107067
-0.053546
-0.133491
0.059205
0.098425
0.197023
-0.079612
-0.127327
0.079128
-0.005203
-0.372403
-0.111172
-0.142458
0.030044
-0.149830
0.017932
-0.081357
-0.087363
0.022337
-0.188267
-0.002082
-0.325108
-0.250405
-0.194192
-0.435103
-0.156130
-0.206077
0.368023
0.120020
0.013230
0.064540
-0.138372
-0.089767
0.009676
-0.196763
-0.175617
0.032442
0.076082
-0.020442
0.132529
-0.105524
-0.175989
-0.032030
-0.195517
-0.220375
-0.254290
-0.214842
-0.356800
-0.338722
-0.013258
-0.313651
-0.190858
0.100408
-0.120105
-0.065644
0.045236
0.030057
0.012335
0.125315
0.083138
0.052483
0.167264
0.056711
-0.115072
-0.115152
-0.231107
-0.231296
-0.000860
-0.175756
0.013517
-0.017841
-0.329191
0.132296
-0.033038
-0.116600
-0.245043
-0.074867
-0.205856
-0.293647
0.047644
-0.177885
-0.041202
-0.038930
0.052319
-0.033889
0.006055
0.025423
0.067177
0.064721
0.148243
0.127206
0.018843
0.024585
0.187854
-0.128009
-0.157174
-0.104745
-0.328278
-0.178344
-0.351927
-0.286673
0.053668
-0.183351
-0.058537
0.106309
0.021370
-0.016940
-0.115534
0.169559
0.152098
0.172850
0.003525
0.021808
0.190723
0.266896
0.081828
0.151747
0.094036
0.113489
0.079652
-0.023637
-0.249398
-0.127268
-0.187594
-0.178258
-0.246577
-0.276378
-0.241591
-0.008961
0.272636
0.027448
0.129018
-0.113971
-0.134345
-0.053776
-0.062109
0.089732
-0.004073
-0.187983
-0.533840
-0.251021
-0.250513
-0.173009
0.002640
-0.002713
-0.275270
-0.035222
-0.404406
-0.130355
-0.049897
-0.330286
0.205522
-0.050557
-0.382718
0.217988
-0.487921
0.069242
-0.009438
0.173298
0.045346
-0.042742
0.107103
0.069536
0.042297
0.076482
-0.085777
-0.121432
0.005870
-0.423714
-0.060820
0.002659
0.153923
0.208065
0.149124
0.294351
0.186770
0.208078
-0.156224
0.097896
-0.206116
-0.180323
-0.205999
-0.347819
-0.105613
-0.263363
-0.127335
-0.204891
-0.196410
-0.085266
0.098926
-0.047903
-0.145742
0.043652
0.067612
0.095098
-0.028049
-0.155351
-0.077088
-0.081968
-0.037842
-0.048893
0.065239
-0.009983
0.090284
0.026408
0.020428
0.041299
0.234404
-0.020763
-0.006358
0.117964
-0.181626
-0.194895
-0.056235
0.075873
-0.171553
0.105935
-0.087483
0.014796
-0.075162
0.032687
-0.261841
-0.095885
-0.040561
-0.105074
0.062700
0.056020
0.067942
-0.310682
-0.350541
-0.361411
-0.157479
-0.262685
-0.113031
-0.098676
-0.098922
-0.082755
-0.100953
-0.067003
0.213930
-0.032906
-0.246010
-0.055314
-0.013205
-0.049816
-0.200464
-0.177879
0.015104
-0.144900
-0.040514
0.025822
-0.100105
-0.131848
0.205415
-0.083128
-0.023005
-0.005253
-0.288798
0.111528
-0.124450
-0.119342
0.055443
0.016836
0.054729
-0.169210
-0.066999
-0.086148
0.008677
0.122127
-0.035328
0.051380
-0.180172
0.051443
-0.072475
0.048225
0.013526
0.079791
0.170432
-0.014897
-0.118929
-0.054155
-0.106608
0.128851
0.141162
-0.090394
0.321922
0.226145
0.073927
0.187302
0.220197
0.141107
-0.076593
0.240951
-0.239871
-0.070159
-0.259816
-0.286090
-0.124533
-0.317739
-0.053507
-0.128562
-0.058168
-0.293003
0.006940
-0.144996
-0.023839
0.162978
0.018593
0.074455
-0.195398
-0.314749
-0.217837
-0.058026
-0.060725
-0.216885
0.100205
-0.228580
-0.030692
0.021942
0.128407
0.011521
0.003877
-0.204444
0.061725
-0.045357
-0.070311
-0.070026
-0.050646
0.128127
-0.164856
-0.124009
0.237718
-0.219958
-0.038827
0.121407
-0.044921
-0.077409
-0.136071
-0.128309
-0.236092
-0.396484
-0.079403
0.176129
-0.227578
0.094231
0.184659
-0.073763
0.018881
0.141186
0.025324
-0.044533
0.068050
0.191445
-0.052088
-0.000866
0.206771
0.040651
-0.156101
0.071267
0.050992
-0.043387
0.082308
0.120834
-0.035726
-0.028748
0.019217
-0.161917
-0.147568
-0.085320
-0.190599
-0.087261
-0.028305
-0.115218
-0.468665
-0.175626
-0.030189
-0.156914
-0.149980
0.027595
-0.173599
-0.147805
0.170318
-0.046535
-0.501053
0.178692
-0.125356
-0.213156
0.032481
-0.048334
-0.176727
0.059853
-0.005502
-0.040707
0.038501
0.009512
-0.040300
0.104004
0.061079
0.143157
0.082262
-0.025856
0.029721
0.109875
0.049982
0.071527
0.237996
-0.088706
0.025715
-0.142866
-0.086066
-0.148740
-0.083221
-0.070978
0.171205
0.075215
0.015378
0.292994
-0.086111
-0.178386
0.061183
0.299280
-0.171666
0.018764
0.063076
-0.189808
-0.283907
-0.008789
0.058157
-0.095630
0.182163
0.091944
-0.069340
0.039272
-0.210322
-0.088069
-0.017759
-0.198973
-0.018399
-0.227392
-0.315853
-0.029259
-0.145621
-0.144535
-0.097906
0.021233
0.068467
-0.064813
0.119355
0.076754
-0.012169
-0.067690
0.040241
0.104539
0.138433
0.027963
-0.090759
0.278083
-0.109098
0.076916
-0.394208
0.071103
0.123348
0.005065
0.056027
0.023300
0.064777
-0.146415
0.057563
-0.053303
-0.199670
0.151583
0.254911
0.004342
0.037492
-0.024355
-0.062012
0.032911
0.031500
0.037069
0.090284
-0.167034
-0.066725
-0.325451
0.205244
-0.052872
-0.123308
0.228276
-0.066618
-0.038656
0.116693
-0.083758
-0.377485
0.048524
-0.114124
-0.310452
0.158621
-0.050079
-0.094030
-0.381277
0.091520
0.137740
-0.133189
0.051749
-0.261194
-0.073867
0.017985
-0.002265
0.080452
-0.053854
0.052881
-0.047246
-0.087520
0.042786
-0.082445
-0.037669
0.019487
0.059876
-0.074723
0.023536
-0.027336
-0.075810
0.014179
-0.000878
0.100202
-0.029858
0.051878
-0.202201
-0.241138
0.001486
-0.077518
-0.036942
0.036076
-0.039389
0.192920
-0.258756
0.033052
-0.019241
-0.108498
0.055466
0.111409
0.032866
0.116568
0.087745
-0.132274
-0.026113
-0.080786
0.002735
-0.011160
-0.090169
-0.043972
-0.071463
-0.078969
0.142518
0.047764
0.063643
-0.162159
-0.003716
0.084509
-0.109252
-0.094436
-0.094722
0.042430
0.139132
-0.128940
0.043019
0.015149
-0.051449
0.084209
-0.029746
0.220287
-0.109586
-0.018045
-0.007760
-0.273849
-0.153827
0.045440
-0.094972
-0.078858
-0.066297
0.141885
0.136232
0.172429
0.080296
0.033730
0.026918
-0.023190
-0.029417
-0.165314
0.106549
0.014624
-0.020903
0.096660
-0.078097
-0.166131
0.069739
0.056138
0.054228
0.154937
-0.070066
-0.121600
0.191233
0.171064
-0.019638
0.265702
0.031794
-0.117627
-0.121565
0.221476
0.024411
0.003676
0.171859
0.255140
-0.131019
-0.055473
0.065057
0.045548
0.021932
-0.006380
-0.186261
-0.146073
-0.109711
0.030953
-0.048979
-0.038338
0.019836
-0.036683
-0.173146
0.035583
0.074321
-0.043312
0.122824
0.168986
0.007399
0.146268
0.170311
0.208494
0.152077
0.020467
-0.005922
-0.066879
-0.139420
0.029405
0.172642
0.071081
-0.087196
-0.038421
-0.016355
-0.074385
-0.049632
-0.048355
0.012828
0.177257
0.094916
0.170137
-0.052119
-0.230722
-0.110021
0.062634
-0.058583
-0.166562
-0.056348
0.031460
0.056676
-0.001017
-0.130457
-0.278144
0.022505
0.030199
-0.147127
-0.305318
-0.260236
-0.273039
-0.086378
0.187069
-0.101040
-0.103577
-0.086870
0.068815
0.070765
0.139069
0.281603
0.130827
0.076974
0.276768
0.078621
0.127851
-0.029272
-0.099344
0.078433
0.248402
-0.107659
-0.014406
0.087750
-0.060131
-0.063741
0.180872
-0.073338
-0.165046
-0.042820
0.074182
0.049089
0.056270
-0.182429
-0.008573
0.020044
0.028130
-0.096112
-0.284117
0.025460
-0.112324
-0.158601
-0.018316
-0.008782
-0.207589
-0.026431
-0.109018
-0.116285
-0.000556
-0.264504
-0.010000
0.088583
0.006930
-0.053071
-0.004712
-0.002637
-0.182864
0.087531
0.010910
0.325857
-0.027761
-0.163392
-0.022223
-0.177524
-0.040672
0.105700
-0.201429
-0.272248
-0.141833
-0.102803
-0.114210
-0.051023
-0.096387
-0.380211
-0.425456
0.149580
-0.019545
0.009736
0.358610
0.190630
0.066153
-0.046127
-0.122761
-0.068794
-0.172162
-0.120359
0.112776
-0.157231
-0.288391
-0.075413
-0.146005
-0.116522
-0.075127
0.081874
0.099150
0.039947
0.010639
-0.088328
-0.106250
0.025067
0.041002
-0.256648
0.094777
0.049832
0.205065
0.100154
-0.011120
0.234770
0.084003
0.059566
0.122122
-0.118624
0.069603
0.093028
0.031578
-0.074113
-0.075419
-0.015274
0.110727
0.033767
0.068599
-0.064746
0.082739
0.051004
0.047528
-0.153386
-0.049688
-0.089499
0.078985
-0.164324
0.060540
0.001825
-0.055041
0.050706
0.023624
0.000073
0.005781
-0.013836
0.031945
-0.079631
-0.047917
0.204517
0.067614
0.077284
0.273872
0.197920
0.347367
-0.029750
0.225837
0.329843
-0.176983
-0.110757
0.035230
0.071686
0.053930
0.093301
-0.000757
-0.213851
-0.179189
0.186196
0.023689
0.063259
0.016805
-0.150606
-0.221230
-0.014977
-0.300368
0.014975
0.114942
-0.013885
-0.042207
0.049307
0.051227
0.174220
-0.174167
-0.008209
0.199821
-0.173257
0.166416
-0.029622
-0.028589
-0.060580
0.047472
0.148274
0.054695
-0.157721
0.102248
0.073742
-0.034546
-0.303444
-0.135629
0.050269
-0.520907
-0.218860
-0.154807
-0.197120
-0.226748
-0.261225
-0.121285
0.112472
-0.254062
-0.334928
-0.058429
0.133608
-0.182966
-0.109675
0.435924
-0.133373
-0.145903
-0.183645
-0.201667
-0.216197
-0.202790
0.112617
-0.156232
-0.084953
0.037293
-0.080836
-0.147917
-0.091796
0.017996
-0.051598
-0.112598
0.034923
-0.109677
0.061495
-0.075529
-0.092824
-0.122281
-0.338364
-0.353585
0.039307
-0.310136
-0.149225
-0.094481
-0.246695
-0.167626
0.121304
0.177940
0.101746
0.011808
-0.131860
-0.285335
-0.040085
0.062234
-0.369338
-0.025309
0.081344
-0.054246
-0.076032
0.136518
0.140172
-0.009248
-0.256340
0.057412
-0.105250
-0.363980
-0.059633
0.013667
0.006149
-0.005516
-0.058601
-0.118938
-0.010266
-0.297582
-0.178272
-0.054946
0.038002
-0.146744
-0.035284
-0.180574
0.040983
-0.130959
-0.087163
0.010770
-0.136446
-0.229910
-0.051062
-0.200603
-0.052803
0.078886
0.047836
0.040925
-0.041839
-0.056015
0.083823
-0.040479
-0.106218
-0.027488
-0.018076
-0.393360
-0.147655
-0.084394
-0.101256
-0.192626
-0.196217
-0.167623
0.113766
0.072414
-0.084102
0.028185
-0.048111
-0.008968
0.079489
0.140172
0.098916
-0.174045
-0.003768
-0.147216
-0.044232
0.038387
0.161935
-0.133635
0.021325
0.032398
0.129049
0.133698
0.025465
-0.187415
0.019668
-0.111232
-0.145102
-0.021173
-0.075267
0.063896
-0.026708
-0.189613
0.324640
0.029766
0.026015
0.141375
0.005484
-0.118472
-0.249731
-0.303191
-0.206894
-0.147608
-0.098574
-0.273232
0.059264
-0.228126
0.068513
-0.153025
-0.035176
-0.230183
-0.177191
-0.040881
-0.120599
-0.052345
0.107761
0.128564
-0.319101
-0.246721
0.057589
-0.044579
-0.149763
-0.180215
-0.124729
-0.120326
-0.162857
0.189293
0.134902
-0.056080
-0.099470
0.189264
0.204444
-0.359784
-0.139749
0.132678
0.008636
0.102062
-0.003589
-0.054565
-0.067358
-0.185842
0.113334
-0.041490
-0.159654
-0.204838
-0.071624
-0.025720
-0.120804
-0.232142
-0.026004
-0.035525
-0.024565
-0.019161
-0.161912
-0.124557
-0.495655
-0.122312
-0.334793
-0.217909
-0.007377
-0.028835
-0.044286
0.012348
0.038417
-0.036343
-0.013775
0.171843
0.130334
0.047691
-0.181957
0.114176
-0.069800
-0.116911
-0.053946
0.053184
-0.129810
-0.230491
0.321130
-0.019402
-0.098583
0.077225
-0.089751
0.004905
-0.261079
-0.095924
-0.062052
-0.106590
0.172165
-0.020548
-0.066520
-0.024124
0.080700
-0.042182
-0.033959
0.107522
-0.030923
-0.051225
-0.071075
-0.105412
-0.133883
0.142078
-0.012824
-0.052469
-0.034441
0.119631
0.058291
-0.071725
-0.076715
-0.254628
0.081692
0.144308
-0.007977
0.044776
-0.178581
-0.089618
-0.119237
-0.169582
-0.127988
0.036068
-0.346993
-0.355967
-0.296540
-0.095695
0.091214
0.093619
0.118693
0.075801
-0.023373
-0.131609
-0.120816
-0.231532
-0.107734
-0.435226
-0.163123
0.139564
0.159559
0.048561
-0.010702
0.161310
0.252785
0.003132
0.007563
0.156577
-0.200118
-0.207303
0.149425
0.033725
-0.272761
0.079182
-0.170509
-0.121704
-0.095334
-0.132629
0.043153
0.024789
0.056431
0.044769
-0.102827
-0.034131
-0.116666
-0.397387
0.033933
-0.079969
-0.245512
-0.085787
0.046438
-0.349797
-0.339881
-0.027052
-0.337477
-0.156623
0.071022
0.107615
-0.245789
0.155863
0.322350
-0.290205
-0.033658
0.046222
0.007402
-0.081916
0.014328
-0.327640
-0.123290
0.309928
-0.099879
-0.122933
0.265286
-0.258742
-0.215094
-0.080640
-0.259710
-0.349771
-0.189034
-0.240936
-0.237500
-0.272263
-0.048170
0.032000
0.117076
-0.212703
-0.039425
0.068107
-0.202977
0.007825
-0.156021
0.018521
-0.270297
-0.055077
0.079679
-0.131319
-0.323045
0.272240
-0.262348
-0.274659
-0.086742
-0.138732
0.091608
0.012135
-0.083783
0.052748
-0.089643
0.032831
-0.086613
0.019875
-0.192577
-0.016249
0.148438
-0.152236
0.104360
0.227949
-0.000146
-0.020924
0.086365
-0.030283
-0.053959
-0.002639
-0.221376
0.058746
-0.133095
-0.219727
0.100778
-0.241962
-0.036583
0.030560
-0.473734
-0.264148
0.001741
-0.626604
-0.550895
0.081544
-0.040858
0.260838
-0.063335
-0.239770
-0.006407
-0.094096
-0.209432
0.251717
0.118273
-0.028224
-0.080480
-0.086557
0.018543
0.023592
0.162343
-0.093638
0.221036
0.140585
-0.092716
0.114626
-0.079872
-0.027327
-0.015384
0.047716
0.004571
0.042968
0.096831
0.041963
-0.394017
0.032937
-0.132264
-0.388114
-0.167612
0.019634
-0.271274
-0.210831
0.023814
0.011526
-0.039926
-0.030704
0.094211
-0.035466
-0.149625
0.088514
-0.054086
0.036644
-0.194623
-0.062868
-0.174777
0.078408
0.109020
-0.207588
-0.211384
0.062151
0.177443
-0.219639
-0.160680
-0.121156
-0.388608
-0.321634
0.102814
-0.043763
-0.098037
0.124400
0.158497
0.116659
0.016768
0.107976
0.059045
0.013905
0.046390
-0.003998
-0.028631
-0.376220
-0.249702
-0.102395
-0.069373
-0.085008
-0.182725
-0.227651
-0.133818
-0.204981
-0.090504
-0.360822
0.002859
0.120697
-0.122994
0.029081
0.431992
0.207923
0.094612
-0.147781
-0.243784
-0.289891
-0.098202
-0.354217
-0.078161
0.114472
-0.144943
0.167768
0.276337
-0.091644
-0.053854
-0.097224
-0.037357
0.087403
0.223837
-0.055994
-0.241184
-0.109379
-0.053670
-0.260816
-0.076488
-0.017881
-0.180066
0.139586
-0.004698
-0.144514
0.014406
-0.013377
-0.117552
0.085477
-0.005410
0.106272
0.157668
-0.019743
-0.069741
0.031886
-0.172991
-0.127526
0.139380
-0.190686
-0.184845
-0.156017
-0.288336
-0.141045
0.174113
0.074921
-0.292532
-0.307495
-0.085655
-0.387828
-0.380239
-0.192021
0.391287
0.089051
-0.015898
-0.108364
-0.092829
-0.198214
0.064534
0.111212
-0.113362
-0.092323
0.001041
0.019532
0.024946
-0.002592
-0.016667
-0.177569
0.088608
-0.182934
0.182193
0.039064
-0.052861
0.063747
0.118438
0.143099
-0.037676
0.099199
-0.100864
-0.018536
0.098695
0.105947
-0.023941
-0.014717
0.050236
0.203992
0.079495
-0.046095
-0.149048
0.100699
0.096796
0.016831
0.050927
0.010976
-0.048895
-0.042221
0.108765
-0.130789
0.257799
-0.251784
-0.244332
0.076807
-0.043240
-0.372542
0.087870
-0.256727
-0.282147
-0.025025
-0.037718
-0.230202
-0.040645
-0.079796
-0.449180
-0.276927
-0.109458
0.147924
0.085369
0.100107
0.065663
-0.103803
-0.155271
0.004079
-0.095710
-0.079384
0.055862
-0.022368
-0.029589
0.026684
0.079969
-0.057234
-0.258854
-0.223188
-0.110356
-0.019449
-0.085402
-0.135825
0.016217
-0.032116
0.028652
0.211929
0.280451
0.034580
-0.265943
-0.123358
0.041473
-0.126147
-0.040386
0.130212
-0.308334
0.005080
0.033914
-0.071717
-0.111836
-0.068594
-0.133026
-0.030077
-0.077204
0.056923
0.146299
0.025895
-0.094974
0.023534
-0.035490
-0.023396
-0.066662
-0.034000
-0.050969
-0.034952
0.199101
0.065655
0.218615
0.079544
0.031148
0.042486
0.186727
0.032252
0.169646
0.015321
-0.400279
-0.159696
-0.193398
-0.255019
-0.012643
0.054253
-0.027151
-0.033864
-0.224259
-0.108497
-0.039251
-0.396310
-0.028337
0.121492
0.028622
0.096613
-0.090228
-0.406113
-0.079900
-0.073580
-0.031077
-0.084770
0.030811
-0.037237
0.033110
-0.002553
0.026960
0.023094
0.076304
0.073542
-0.227811
-0.113665
0.008013
-0.028947
0.100683
0.144040
-0.241132
0.164507
0.122494
0.088349
0.054586
0.110750
-0.177173
-0.019294
-0.199297
-0.125670
-0.122167
-0.025618
-0.259464
-0.382482
0.012506
-0.028254
-0.276913
0.034546
-0.285522
-0.037853
0.098424
0.003906
-0.049219
-0.003765
0.040902
-0.153430
-0.257374
0.083199
0.037105
-0.038182
-0.052948
0.093645
0.199798
0.023751
0.151914
-0.194876
0.008765
-0.133502
0.095482
0.050174
-0.051049
0.165454
0.059237
-0.030395
-0.056848
0.146987
-0.374441
-0.088548
-0.026048
-0.217747
-0.133747
0.044394
-0.413302
-0.159540
-0.217937
-0.051340
-0.008160
0.119639
-0.160686
-0.277716
0.005687
0.052874
-0.230882
0.015129
0.003667
-0.142186
0.073478
0.014229
-0.012814
0.052245
0.110733
-0.019127
0.036134
0.027705
0.055335
0.136622
0.087287
-0.038892
0.116955
-0.070659
-0.057018
-0.000677
0.061411
-0.120343
0.031430
-0.079175
0.102523
0.071479
-0.258706
-0.054552
0.214346
0.105668
0.040021
-0.008615
0.027627
-0.114994
-0.217666
0.035973
-0.111397
-0.017514
-0.181528
-0.299698
0.084001
-0.411681
-0.376697
-0.099296
0.045237
-0.103608
-0.431581
-0.370767
-0.042886
-0.376394
-0.236374
-0.189413
-0.191263
-0.273022
-0.128419
0.199083
0.192484
0.022690
-0.083604
0.111648
0.115623
-0.130483
-0.075246
-0.027891
0.176891
0.058210
0.058795
0.142518
0.062421
0.158746
0.244204
0.214188
0.168207
-0.005049
0.038982
0.013745
-0.169275
-0.268477
-0.120820
-0.182793
-0.114692
-0.251730
-0.109303
-0.108923
0.081034
-0.236428
-0.153289
-0.100199
0.098276
0.102176
-0.230607
0.104296
0.242130
0.204732
0.081662
-0.020604
-0.148237
-0.207001
-0.282141
-0.051209
-0.135807
0.091501
0.068976
-0.047720
-0.180628
-0.108690
-0.019037
-0.166926
-0.114263
-0.026950
0.018047
-0.170517
-0.112456
-0.281471
-0.303792
-0.126082
-0.215686
-0.203864
-0.053838
0.144945
0.025080
-0.415953
0.103364
-0.173421
-0.218232
0.162314
-0.303234
0.037829
0.205563
0.094039
-0.059429
-0.000527
0.070765
-0.128162
-0.242928
0.060966
0.100298
0.115876
-0.206595
0.057586
-0.162626
-0.216819
0.168102
-0.013816
-0.299819
0.051991
-0.134148
0.110759
-0.208956
-0.200914
-0.127351
-0.040737
0.006083
0.052516
-0.052342
-0.025352
-0.015250
-0.097882
0.090766
-0.015758
-0.337850
0.142922
0.247376
-0.133818
0.016811
0.060690
-0.247055
-0.005138
-0.170988
-0.059884
0.094845
-0.085907
0.222017
0.070528
0.110910
-0.354040
-0.267673
-0.184035
-0.321791
-0.343985
-0.152336
0.260193
-0.038401
-0.040298
0.171225
-0.004129
-0.109120
0.149810
0.120819
0.056964
0.182671
0.067164
-0.062452
0.067623
0.074930
0.019103
-0.166501
-0.019490
0.130348
0.171997
0.165363
0.001380
-0.119371
-0.134168
-0.127160
-0.209004
-0.341669
-0.354762
-0.106543
-0.098221
-0.033482
-0.040004
-0.179477
0.023531
0.077925
0.072145
-0.067691
0.324388
-0.037496
-0.099481
0.270271
-0.036421
-0.202551
0.242244
-0.071616
-0.155504
0.002938
0.208872
0.111979
0.124903
-0.006695
0.057006
0.074799
0.026544
0.061504
-0.069099
-0.046967
-0.069992
-0.010704
0.023603
-0.040987
-0.053226
0.069038
-0.099716
-0.022416
-0.153692
0.008170
-0.267585
-0.287266
-0.090735
-0.436289
-0.447019
0.049927
0.306604
0.165432
0.169521
-0.006313
0.028903
-0.174995
-0.043310
-0.130446
0.053694
0.132537
-0.076773
-0.134947
0.067072
-0.047817
-0.037424
0.053671
0.145947
-0.027860
0.005930
-0.485001
-0.249516
-0.010703
-0.166824
-0.062008
-0.119533
0.075758
0.078442
0.357333
0.081352
0.070418
-0.056149
-0.232025
-0.229138
0.044190
-0.092657
-0.255506
-0.176009
0.037080
0.049065
-0.324166
-0.150958
0.015931
-0.073579
-0.022392
0.192519
0.040285
0.151457
0.131152
0.086210
0.068235
-0.058050
-0.139989
-0.346642
0.025247
-0.048258
0.004563
0.030898
-0.013938
-0.249532
-0.174638
-0.024670
-0.048547
-0.073672
-0.163491
0.067427
-0.016275
0.076332
-0.034810
-0.090836
0.039720
-0.004328
0.138832
-0.156943
-0.067169
-0.337576
0.054687
-0.229746
-0.345344
-0.114485
-0.220648
-0.175280
-0.243473
-0.117488
-0.078406
-0.369584
-0.418763
-0.079519
-0.013461
0.095211
0.242667
0.048792
-0.149914
-0.305744
0.024355
-0.312553
-0.296030
0.066305
-0.446473
-0.332964
0.039959
0.029635
0.122117
0.009707
-0.095971
-0.051977
-0.148998
-0.053318
0.089751
-0.034201
-0.059758
-0.441151
-0.224139
-0.324175
-0.347595
0.085397
-0.171589
-0.081073
0.098264
0.190766
-0.121195
0.162747
0.104783
-0.227084
0.041233
0.056497
-0.139878
0.112578
0.042720
-0.150607
-0.103012
0.028219
0.005049
-0.070318
0.008803
-0.020899
-0.132437
0.036429
0.145319
-0.042760
0.036163
0.033721
0.168922
0.093493
0.089367
0.157110
-0.214909
-0.347923
-0.133255
0.333088
-0.426694
0.169002
0.196337
0.106266
0.047853
-0.000478
0.031441
0.097237
-0.005573
0.085314
-0.283848
0.042737
0.234941
0.056927
-0.014443
0.108116
-0.059929
-0.027082
-0.168394
-0.341280
-0.161386
-0.112132
0.170574
0.083939
0.291327
-0.014564
0.109508
0.002835
-0.398448
-0.384154
-0.199780
-0.147518
0.041389
0.189687
-0.326935
-0.084904
0.106448
-0.505194
-0.215620
0.108698
0.235243
0.132451
-0.019596
0.017672
-0.059973
-0.154963
-0.264882
-0.049125
-0.446107
0.027212
0.074914
-0.039157
0.127666
-0.017251
-0.205974
0.011042
0.009415
-0.110303
-0.099252
0.072081
0.089547
-0.051461
0.145074
-0.003823
0.045632
0.102313
0.033224
-0.072861
0.062677
0.097217
-0.092294
0.021690
0.199238
0.032091
0.133980
0.095172
-0.146539
-0.227098
0.017081
-0.355908
-0.153282
-0.361175
-0.494257
-0.083832
-0.503623
-0.222623
-0.024945
-0.089291
-0.248275
-0.293548
-0.473200
-0.076236
-0.514729
-0.115949
0.015304
0.048568
-0.060686
0.023360
0.001078
0.036672
0.041595
0.041469
-0.071085
0.209117
0.122589
-0.037563
0.125289
-0.064875
-0.224086
0.001724
-0.004545
-0.108439
-0.191466
-0.127116
-0.033079
-0.182002
0.005442
-0.051197
-0.169822
0.077904
0.075534
0.398872
0.547643
-0.290481
-0.078547
0.156051
-0.246079
0.154482
0.155114
-0.285849
0.004475
0.089938
0.325391
-0.075515
-0.135647
-0.106262
0.049339
-0.084045
-0.033981
0.167640
0.126866
0.185356
-0.188515
0.012824
0.174927
-0.168966
-0.039049
0.005240
-0.024965
-0.061058
0.109905
0.103882
0.076245
0.140709
0.151913
0.156885
0.166366
-0.003659
0.189329
0.010861
-0.080562
-0.060984
-0.085811
-0.053844
0.113786
0.229765
-0.135697
-0.111163
0.029026
-0.140234
-0.132043
-0.175876
-0.051866
-0.227423
-0.006089
0.081523
-0.181636
-0.044547
-0.264290
-0.103641
0.058883
-0.201895
-0.147607
0.224872
-0.159337
-0.106767
0.057467
-0.168425
0.146340
0.089998
-0.302460
0.025592
0.168925
-0.139971
-0.103919
0.146335
-0.168797
-0.105460
-0.174972
0.168487
-0.076336
-0.239413
-0.066944
0.115947
-0.201141
-0.147685
0.110317
-0.011689
-0.140193
0.004694
-0.258699
0.052082
-0.111801
-0.234644
0.110028
-0.024691
0.065090
0.181296
0.038378
-0.203082
-0.146498
-0.335527
-0.334945
0.028827
-0.151281
-0.258911
0.183499
0.067249
-0.030628
-0.003475
0.066928
0.121573
-0.199850
-0.039849
0.012288
-0.273823
0.087782
-0.022009
0.106097
0.056884
-0.268703
-0.025817
-0.010449
-0.157664
-0.052056
-0.113730
0.035265
0.200804
0.184537
0.132022
-0.000919
-0.200920
-0.191253
0.464462
0.026038
-0.294265
0.139348
-0.004391
-0.090610
0.265155
0.145187
-0.087490
-0.340206
-0.022476
-0.032496
-0.061448
-0.132872
-0.155610
0.012232
-0.010146
-0.095528
-0.307414
-0.070872
0.006638
-0.221212
-0.067219
-0.008624
-0.211333
0.109708
0.178162
-0.196006
0.063368
0.034160
-0.375363
-0.339168
-0.064264
0.050840
-0.247441
-0.257474
0.192422
0.131499
0.011160
-0.171608
-0.098963
-0.123132
-0.015573
0.059019
-0.253440
-0.290416
0.065099
-0.335984
0.034359
-0.206758
-0.163283
-0.397315
-0.246093
0.015330
-0.281989
-0.084841
0.070642
-0.214749
-0.327891
-0.035034
-0.442548
-0.287157
0.083582
-0.156342
-0.099460
-0.116292
-0.248096
-0.181650
-0.215010
-0.063888
-0.008406
-0.188201
0.306566
0.197470
-0.051795
-0.037664
0.050749
0.127573
0.164849
0.006502
-0.149953
0.053929
-0.135670
-0.113810
-0.015125
0.031830
0.181287
0.049672
0.009120
0.105526
-0.014213
-0.441616
-0.118665
-0.072554
0.076434
0.185289
-0.180172
0.087599
0.274694
-0.096194
-0.028972
-0.035730
0.077587
-0.056157
0.175810
-0.362298
-0.173284
-0.065441
-0.359514
-0.173193
-0.120017
-0.202802
-0.015810
-0.129202
0.094269
-0.050547
-0.208319
-0.108651
-0.118499
0.058558
-0.173975
-0.320625
-0.017417
-0.543683
-0.510636
-0.072521
-0.144213
-0.322139
-0.424300
-0.170795
-0.022017
0.160241
-0.208291
-0.134333
0.004791
-0.113725
0.208447
-0.180064
0.206255
-0.124947
-0.226399
-0.003713
0.059638
0.031188
-0.023770
0.014867
-0.083812
0.058258
0.151377
0.043279
-0.070038
-0.189114
-0.118786
0.008057
0.036886
-0.134599
0.072412
-0.045196
0.124386
-0.196668
0.137624
0.292092
-0.466552
-0.288659
-0.057111
-0.270506
-0.157160
0.314575
-0.069049
0.076818
-0.073611
0.008459
0.014307
-0.413326
-0.070006
0.106768
-0.007109
0.018376
-0.277530
-0.175089
0.014032
-0.183421
-0.305759
-0.105482
-0.223154
-0.105089
-0.050517
-0.231320
-0.187570
-0.055829
-0.215909
0.137733
-0.129188
-0.046508
-0.400862
-0.320863
-0.128905
0.265541
0.260134
-0.268800
-0.009547
-0.292386
-0.137823
0.023472
0.052759
0.130341
0.185748
-0.108084
0.085108
-0.117152
0.116968
-0.016616
0.071158
0.133940
-0.004782
-0.171572
0.124230
0.173989
-0.029056
0.225085
0.218149
0.109129
-0.060892
0.022982
-0.426589
-0.108200
0.463429
-0.127590
0.037925
-0.028501
-0.234213
0.198853
-0.090915
-0.465694
-0.075225
-0.045082
-0.112757
0.117776
-0.233601
-0.096987
0.032136
-0.006933
-0.212683
-0.070638
-0.244625
-0.506070
-0.037178
-0.171253
-0.263758
-0.101072
0.171583
-0.011231
0.170646
0.144428
0.120811
-0.235548
-0.174773
-0.116345
-0.099308
0.115056
-0.077825
0.134885
0.145561
-0.136111
-0.488123
-0.004402
0.124923
-0.163273
-0.223550
0.227286
-0.174656
-0.316695
0.084030
0.300284
-0.064527
-0.050237
0.215164
-0.159052
0.043821
-0.300915
0.001330
-0.291793
-0.233990
-0.022618
0.096934
-0.067190
0.140037
0.002681
-0.007066
-0.034858
-0.240686
0.083908
0.064439
-0.051235
-0.160207
-0.217043
-0.154996
-0.062679
-0.002408
-0.028587
0.264875
0.133842
0.105516
-0.097031
-0.104315
-0.057920
0.004859
0.178558
0.318922
-0.142319
-0.292035
-0.244483
0.108856
0.006815
-0.435817
-0.132593
-0.146151
-0.336279
0.045504
-0.345827
-0.338332
-0.253422
0.098596
0.066410
-0.181286
-0.427097
0.214001
-0.306739
-0.236339
-0.230540
0.065812
0.174253
-0.266460
-0.025070
-0.071184
-0.242555
0.243670
0.138554
-0.130894
0.064537
-0.065424
-0.188394
0.014984
0.156763
-0.053347
0.107234
-0.281466
-0.082565
-0.127206
-0.218757
-0.382831
-0.185980
-0.266734
-0.305834
-0.033536
0.159622
0.247776
-0.051762
-0.156995
-0.098416
-0.301931
-0.194748
-0.053591
-0.210521
-0.386915
-0.190862
0.084679
0.057986
-0.294108
-0.050364
-0.120662
-0.031772
0.111790
0.154497
0.128874
0.041592
-0.115221
0.000012
0.064054
0.090163
-0.102375
0.042155
-0.183789
-0.085814
0.176584
-0.018480
0.105623
-0.073439
0.238271
0.070154
-0.126763
-0.046890
-0.259067
-0.215884
-0.313018
-0.556140
0.112210
-0.097764
-0.426033
-0.312637
-0.073102
-0.007742
-0.110192
-0.084631
0.116049
0.080660
0.035780
0.056753
0.018119
-0.289449
0.543070
-0.106854
-0.365013
0.262518
-0.005423
-0.069139
0.242353
-0.021995
0.015137
0.002032
-0.009828
0.031293
0.021439
-0.122425
-0.010805
-0.100626
-0.219413
0.050059
0.065000
-0.379268
0.066559
0.104493
-0.020215
-0.171468
-0.007547
-0.008588
-0.340797
-0.473599
0.245572
-0.045053
-0.239131
0.105561
-0.056160
-0.371803
-0.191882
-0.050410
0.096608
-0.130058
-0.203821
0.226694
-0.167569
-0.145179
0.107496
-0.176882
-0.186316
-0.358514
-0.128680
0.016723
-0.103162
-0.035614
-0.014445
-0.179051
0.215270
0.148622
0.017221
0.158414
0.123352
-0.116608
-0.163529
0.003411
-0.279877
-0.049250
-0.210457
-0.212066
0.080756
0.033655
-0.082353
0.168340
0.146261
0.228450
-0.408705
0.326618
0.251941
-0.064798
-0.002217
-0.190211
-0.220445
-0.049500
-0.051215
0.011183
-0.090841
0.162347
-0.137618
-0.015082
0.068524
-0.042918
-0.074391
0.055596
-0.025582
0.119091
-0.011489
0.060045
0.220773
-0.096327
0.090563
-0.048972
-0.063946
0.048523
0.187489
-0.226739
-0.005256
0.211047
-0.158762
-0.055769
-0.309203
-0.199826
0.217345
-0.045132
-0.166559
-0.102672
-0.212455
0.152316
-0.015505
-0.135846
-0.151970
0.406532
-0.215318
-0.178976
-0.263735
0.058695
-0.175708
0.068874
-0.038467
-0.074060
0.327024
-0.158634
-0.027804
-0.162759
-0.127998
-0.027088
0.036801
0.027972
-0.021961
0.018479
-0.035089
0.197107
0.028260
0.232816
0.201325
-0.062257
0.135467
-0.087317
0.078429
0.132653
-0.220496
0.158881
-0.018878
-0.410165
-0.169450
-0.169405
-0.281926
-0.248296
0.079977
0.220027
-0.507987
-0.135262
0.187865
-0.484984
-0.189818
-0.117588
-0.227683
-0.387458
-0.226274
-0.020394
-0.112069
-0.141396
0.174532
0.185227
0.273709
-0.143502
-0.134810
-0.158392
-0.186046
0.002571
-0.139031
0.030297
-0.111392
0.044464
0.138215
0.070387
0.090177
-0.181135
0.016914
0.024534
-0.080517
0.030647
-0.089355
-0.146191
0.043465
0.064791
-0.309920
-0.171079
-0.104386
-0.204048
-0.076875
0.036696
0.082358
0.121801
0.098898
0.074885
0.054714
0.154821
-0.241121
-0.416318
-0.243128
0.108721
-0.018100
0.189975
0.102037
-0.166598
-0.124249
-0.166444
-0.473765
-0.194248
-0.211929
-0.192792
0.027073
-0.035006
-0.283672
-0.137633
-0.144042
-0.021567
0.200997
-0.269482
0.187520
0.166973
-0.082451
0.151964
0.174766
-0.187826
0.094862
0.095891
0.053194
0.181190
0.062206
-0.073767
-0.110399
-0.023529
-0.294522
-0.364754
-0.589344
-0.026098
-0.113561
-0.036079
-0.081137
-0.114270
-0.053349
-0.164944
-0.143267
-0.261978
-0.116824
0.025741
-0.076225
-0.026436
-0.061424
-0.136431
0.105330
-0.069719
0.141581
0.081904
-0.200574
-0.070503
0.066680
-0.228096
-0.200072
0.152331
-0.035151
-0.170576
0.192130
-0.053670
-0.081264
0.024545
-0.076778
-0.134986
0.178597
0.025489
-0.044261
0.108934
0.053069
0.132988
-0.106478
0.038167
0.194248
-0.130770
-0.199421
0.031452
0.033387
0.105967
0.078836
-0.145040
0.081414
0.270706
-0.144274
-0.078655
0.150377
0.112540
0.031653
-0.185235
0.016791
0.005981
-0.328954
-0.003454
0.175911
-0.041303
-0.191329
0.005578
0.172421
0.049189
-0.008920
-0.020763
0.135282
-0.068493
0.001253
-0.056569
-0.253391
-0.169326
0.073468
-0.100096
0.118392
-0.096635
0.018912
0.120223
-0.062744
-0.015723
-0.010464
-0.038745
-0.193895
-0.240652
-0.003795
-0.049886
0.118883
0.144683
0.104613
-0.075746
0.076341
0.003187
-0.082726
-0.111394
-0.120111
0.018765
0.123387
-0.083319
0.139250
0.133856
0.044546
-0.074749
0.587136
0.186066
0.021417
-0.150296
-0.002183
0.077991
-0.048724
-0.019566
-0.075159
0.210941
-0.015441
0.244503
0.079652
-0.240466
-0.036176
-0.008753
0.002450
0.259454
-0.390940
-0.187999
0.082371
0.024838
0.078524
0.015024
-0.323338
-0.144169
-0.087251
-0.472311
-0.276846
-0.128520
0.054331
-0.019029
-0.113281
0.144293
0.001809
-0.106358
0.128834
0.110480
0.026887
0.061613
0.151334
0.000856
0.209320
0.301237
0.109560
0.114595
0.271710
0.188577
-0.188423
-0.162507
-0.033785
0.002589
-0.172756
-0.197931
0.183564
0.049589
0.026634
-0.016556
0.016727
0.076103
-0.150103
-0.221602
0.059369
-0.098937
-0.021042
0.003876
-0.077800
-0.183238
-0.193466
-0.021311
-0.270865
-0.058283
0.131838
-0.003952
0.051101
0.230557
0.175691
0.088906
-0.055681
-0.123445
-0.042832
-0.218202
-0.330001
-0.326507
0.012119
0.021900
-0.143718
0.001732
0.019900
0.132986
-0.104060
-0.107804
0.002363
-0.177552
-0.317549
0.055641
-0.234022
-0.227596
-0.076194
-0.180077
0.056468
0.232640
0.062342
0.028003
0.135090
0.143466
0.036306
0.101592
-0.036551
-0.065686
-0.034086
0.017751
-0.100104
0.034299
0.062783
-0.069039
0.077778
-0.350106
-0.138321
-0.077483
0.144318
0.207030
0.209102
-0.006315
0.181555
0.126030
-0.144278
-0.061490
0.056399
0.055453
0.043454
0.164649
-0.353369
-0.311551
-0.234946
-0.032860
-0.199677
-0.074228
-0.102375
0.084719
0.087867
-0.290091
0.142473
0.292282
-0.062063
0.179017
0.041869
0.063937
0.084834
-0.121779
-0.195070
-0.115891
-0.056816
-0.219359
-0.183559
0.002579
-0.311710
-0.128434
0.013753
-0.006511
-0.057204
-0.261172
-0.015396
-0.079263
0.042763
0.334311
0.209209
0.233761
-0.069736
-0.054803
0.189723
-0.274522
-0.208679
-0.316154
-0.030428
-0.415987
-0.250848
0.195711
0.022567
-0.149760
0.107874
0.198026
0.096989
-0.321281
-0.121398
0.000109
-0.275319
-0.133521
0.141108
-0.039094
0.072120
0.060108
-0.021805
0.062986
0.149965
-0.015577
0.013733
-0.024184
-0.154191
-0.278837
-0.181763
-0.093255
0.089989
0.090299
-0.184737
-0.103942
-0.112028
-0.051932
-0.042079
0.084076
-0.010241
-0.037285
0.041674
0.005349
-0.299846
-0.073683
-0.047969
-0.031545
0.022451
-0.021871
0.177917
0.137216
-0.063762
0.137155
0.005607
-0.381392
-0.380122
-0.402946
-0.049277
0.096597
0.233843
0.170817
0.052651
-0.110272
0.081517
0.161318
-0.118943
-0.020033
-0.107912
0.058738
-0.038762
-0.007911
0.009946
0.106833
0.096516
-0.031716
-0.325286
-0.528746
-0.261097
-0.014549
-0.208696
-0.270831
0.012477
0.084372
-0.158149
-0.152116
0.055309
-0.087381
-0.153666
-0.032029
0.044059
-0.077213
-0.107057
-0.117713
0.298136
0.286702
0.179576
0.324672
-0.198996
0.110562
0.211871
0.067324
-0.247984
-0.014972
-0.310739
0.120382
-0.268899
-0.072750
0.007096
-0.345048
-0.183389
-0.111847
-0.093714
-0.003095
0.123403
-0.212537
-0.042427
-0.034159
-0.063829
0.052331
-0.032384
0.087366
-0.240238
-0.039770
-0.132852
-0.064179
0.028484
0.073889
0.119333
-0.002657
0.409173
0.293302
-0.339743
0.243258
0.214500
0.023756
-0.063351
0.156190
0.078051
-0.032542
-0.086313
-0.028931
-0.162169
-0.202917
-0.193450
-0.127923
-0.098241
-0.026638
-0.114666
-0.164785
-0.476859
-0.158659
-0.303246
-0.531257
0.263897
0.075771
-0.190740
-0.161369
-0.095455
-0.048972
-0.221867
-0.259529
-0.235990
0.213078
-0.114130
-0.298383
-0.104368
-0.058739
-0.259778
0.196406
-0.016668
-0.213716
0.138894
0.105057
0.123960
-0.158778
-0.211219
-0.153312
-0.347624
-0.293793
-0.333515
0.340910
0.161458
-0.122560
-0.004008
-0.242859
-0.139720
-0.211603
-0.024218
0.131274
-0.096101
0.191905
0.030704
-0.035102
0.111335
-0.095749
-0.001446
0.075092
-0.142028
0.021197
0.076921
0.053961
-0.021795
0.001591
0.022199
-0.117815
-0.267353
-0.153422
-0.036463
-0.186829
-0.265464
0.074266
-0.078995
-0.024258
0.094295
-0.033407
-0.085375
0.188740
0.124766
0.041712
0.174641
0.058553
0.020290
0.140784
-0.089687
-0.180909
0.075441
-0.338123
-0.270628
0.049744
-0.117616
-0.102447
0.089241
0.268229
0.189656
-0.113021
0.145828
0.205653
0.031854
-0.143475
-0.162948
0.059082
-0.357685
-0.036548
-0.253884
-0.226156
-0.026881
-0.216897
-0.221327
0.095196
0.156879
0.075008
0.238495
0.053387
-0.007590
0.031524
0.096158
0.059903
-0.058986
-0.132216
0.091187
-0.064754
-0.232199
-0.198292
0.000064
0.147596
-0.039190
0.121200
0.186788
-0.225602
0.202231
0.053783
-0.117272
-0.205687
-0.193739
-0.036281
0.083970
-0.066588
-0.225747
0.060854
-0.205407
-0.125061
-0.152901
-0.167049
-0.274625
-0.150791
0.095271
-0.074991
-0.152431
0.139168
-0.100204
-0.130017
0.186126
0.149321
0.172183
-0.003074
0.164396
0.124318
-0.181173
-0.297202
-0.081959
-0.055072
0.065728
-0.094682
-0.014790
-0.251893
-0.319807
-0.259185
0.088962
0.161727
-0.174324
-0.291616
-0.165908
-0.000317
-0.100251
-0.076488
-0.082594
-0.093262
-0.094287
-0.200818
0.084214
0.121854
-0.230790
-0.212969
-0.106322
-0.049381
-0.096758
0.007097
-0.343477
-0.066060
0.118901
-0.170979
0.048522
0.368915
0.069983
-0.430205
0.035885
0.264103
-0.002067
-0.099390
0.025396
-0.410788
-0.081754
0.281340
-0.044564
-0.337113
-0.027889
-0.000025
-0.070267
0.090322
-0.026893
-0.136076
0.287963
-0.081208
-0.214235
-0.136127
-0.034207
-0.048551
-0.111063
-0.398581
0.120420
-0.129769
-0.169166
0.028327
-0.116586
-0.039720
-0.053750
-0.026688
-0.118005
0.112288
-0.069820
0.061171
0.209859
-0.058696
0.105375
0.082930
-0.033154
0.147108
0.125892
0.012360
-0.092253
-0.015517
-0.003029
-0.241842
-0.033267
-0.133902
0.050157
0.144721
-0.320700
0.099722
0.219742
0.013181
0.012350
0.016635
0.099745
0.022030
-0.054862
-0.201201
-0.168897
0.170738
-0.322405
-0.310716
0.184048
-0.202467
0.157054
0.131324
-0.366939
-0.244082
-0.142954
0.155614
-0.024796
-0.302278
-0.055020
0.145931
0.085203
0.171992
0.078731
0.074663
0.161473
0.012693
0.094710
-0.029711
0.053766
-0.006264
-0.060188
-0.020220
-0.157625
-0.032494
-0.205417
-0.086937
-0.138612
-0.194525
-0.388012
-0.092307
0.090594
-0.162346
-0.118289
-0.063182
-0.038697
-0.168316
0.089977
0.070084
-0.226603
-0.047531
-0.090561
-0.073848
-0.077330
0.199587
-0.167746
-0.028544
0.148462
-0.048673
0.125104
0.041119
0.157874
0.035454
-0.191192
0.295227
0.117585
-0.079516
0.071324
-0.131882
0.025818
0.044806
0.022160
-0.026252
-0.170505
-0.104234
-0.039825
-0.048002
-0.078128
-0.142049
-0.237413
0.057497
0.103268
-0.128197
0.158582
0.172885
0.048044
0.049429
0.091323
0.131910
-0.102391
-0.379801
-0.023772
-0.084728
-0.139253
-0.030198
0.080141
-0.027333
-0.081873
-0.090176
0.205428
-0.296946
-0.080204
0.107760
0.103476
-0.073775
-0.130411
-0.051652
0.185194
0.025385
0.105936
-0.018825
0.077127
-0.146806
-0.305362
-0.008118
0.012475
-0.163021
-0.190791
-0.065766
-0.322023
0.022638
-0.076644
0.032541
0.247427
-0.187790
-0.073434
-0.119988
-0.093585
0.001596
-0.109406
0.007679
0.057723
-0.025382
-0.160601
-0.140179
-0.055388
-0.140128
0.006293
-0.053283
-0.034562
-0.395469
-0.515427
-0.284731
0.080648
-0.034293
0.001045
-0.047418
-0.142668
0.035444
-0.004372
-0.081080
-0.294131
0.066268
-0.014403
-0.312353
-0.128187
0.021336
-0.112521
-0.196104
-0.220664
0.101070
-0.065906
0.113881
-0.048463
-0.238659
-0.132119
0.022342
-0.213964
-0.172823
-0.209748
-0.055634
0.116273
-0.105149
0.231434
0.161718
0.047658
0.090214
-0.056315
0.169276
0.020040
-0.266677
0.308501
0.046946
-0.233462
0.091372
-0.352583
-0.390574
-0.180168
-0.051011
0.138658
-0.087637
-0.073178
0.194891
-0.286123
-0.245169
-0.085298
0.088196
-0.052818
-0.233700
0.115996
0.259874
-0.094233
0.129123
0.054178
-0.103003
-0.099484
0.052340
0.041656
0.013359
0.143069
-0.018755
0.223418
0.088935
-0.065350
-0.004807
0.112941
0.022183
-0.070206
0.172755
0.118107
-0.111546
-0.328354
-0.128179
0.249084
0.130050
-0.038279
0.260250
0.033050
-0.212003
-0.048446
-0.194236
-0.393541
-0.182978
0.099123
-0.072465
-0.282815
-0.156682
-0.207589
-0.243017
-0.250546
-0.120146
-0.162015
0.219798
0.155781
0.109847
0.044104
0.107143
-0.122691
-0.135048
0.130526
0.026492
-0.053213
-0.003433
-0.006102
-0.047243
-0.076615
0.069824
0.007109
0.009691
-0.308575
-0.243970
0.028568
0.017667
0.127060
-0.199333
0.001888
0.185410
0.042711
0.027395
-0.003835
-0.165631
0.062661
-0.206782
-0.242081
0.118070
-0.393692
-0.276696
-0.072492
0.227458
-0.060193
-0.138557
0.065006
-0.121083
0.158677
-0.229426
0.217414
-0.161522
-0.099025
-0.005002
-0.054426
-0.101552
-0.225880
-0.153007
-0.298448
0.058944
-0.086241
-0.299975
0.020963
-0.133455
0.166526
-0.188018
-0.431141
-0.154661
-0.279233
-0.033050
0.084453
0.032391
-0.231522
0.043806
0.084700
0.025571
0.081018
0.180871
-0.334695
-0.028494
-0.129947
-0.208022
-0.476866
0.011600
0.278020
-0.032446
-0.030148
-0.370377
-0.275256
-0.059627
-0.082212
-0.278281
-0.475187
-0.009290
-0.139044
-0.270942
0.014125
0.054017
0.101451
-0.052961
0.026832
0.017539
-0.121416
0.003969
-0.126444
0.227394
0.206806
0.036410
-0.110069
0.063906
-0.080341
-0.082083
0.063527
-0.074570
-0.286004
0.029139
-0.286600
-0.371556
0.029132
0.009073
-0.384954
-0.068815
-0.056692
0.038642
0.027895
-0.104751
0.035050
0.056929
-0.148780
0.167637
0.008927
0.016531
-0.172515
-0.048167
0.094210
-0.096672
0.138146
0.164578
-0.152857
-0.070605
0.217566
-0.306949
0.106650
0.303634
-0.211991
0.114665
0.321174
-0.291377
-0.142964
0.040691
0.234984
0.054358
0.206573
-0.060110
-0.393242
-0.207386
-0.147120
-0.237050
-0.142691
-0.356023
-0.245364
0.060910
-0.000147
-0.092505
0.082502
0.092558
0.055673
0.099295
0.070960
0.210309
0.056731
-0.283029
-0.114493
0.139558
-0.359647
-0.022614
0.100904
-0.104692
-0.251201
0.162775
-0.089542
0.065953
0.120304
0.125576
0.151330
0.142523
0.070353
0.008185
0.143057
-0.063379
-0.010225
0.000946
-0.231381
-0.206512
-0.308917
-0.038888
-0.038999
0.055333
-0.063018
-0.103663
0.004590
-0.008144
-0.111105
-0.058604
0.018727
0.130025
0.248394
-0.268361
-0.219787
-0.359526
0.134549
-0.158289
-0.169792
-0.155810
-0.156311
-0.147936
-0.342802
-0.227735
-0.264828
-0.184371
-0.254978
-0.044609
-0.569942
-0.399447
-0.510915
-0.172509
0.028511
0.148036
0.055912
-0.023126
0.252947
0.099487
-0.048181
0.005794
0.065870
0.197347
0.319648
-0.282984
-0.032296
-0.012410
-0.129446
0.024038
-0.189205
-0.047297
-0.053776
-0.176931
-0.130262
-0.167895
0.076699
-0.366099
0.053726
-0.275548
-0.247897
0.263239
-0.247817
0.018394
0.240600
-0.263343
-0.027735
0.110575
0.185506
-0.206239
-0.029423
0.049253
-0.037286
-0.164962
-0.035709
-0.169551
-0.086338
-0.325710
0.074398
0.140902
-0.149348
0.147758
0.239373
0.005622
0.160592
-0.214015
-0.272430
0.116792
-0.055520
-0.113209
-0.032254
-0.054630
0.121553
0.019561
0.127938
-0.138170
-0.138241
-0.111249
-0.116071
0.141119
0.155124
0.065961
-0.117617
-0.174565
0.061877
-0.587837
-0.339564
-0.131456
-0.450205
-0.069514
-0.147605
-0.039722
0.101773
0.129789
-0.141250
-0.074583
0.096970
0.062986
0.044958
0.055908
-0.155087
-0.225270
-0.094176
0.119412
-0.024167
-0.055169
0.098862
0.097567
0.072291
0.159315
-0.071329
0.130994
0.034545
0.213617
0.247601
-0.108831
-0.151441
-0.087718
-0.115174
0.058865
-0.018264
-0.249681
-0.286978
0.007787
0.298705
0.116468
-0.013411
-0.316326
-0.333346
-0.142347
0.014256
-0.004520
-0.182432
0.027516
-0.125187
-0.060409
-0.155070
-0.296663
0.069750
-0.312752
0.090412
-0.191422
0.263114
-0.011187
-0.013303
-0.107577
-0.101418
0.016382
-0.132504
-0.210406
0.105594
0.056898
-0.058833
0.118356
0.058666
-0.041897
-0.216279
-0.299576
-0.110972
-0.162658
-0.280765
-0.015054
-0.039000
-0.113107
-0.460245
-0.334627
-0.291372
-0.251387
-0.360706
-0.072669
0.082288
-0.019256
-0.255125
-0.115473
-0.064505
-0.205448
0.034235
0.040107
-0.020584
0.076639
-0.017585
0.050616
-0.069995
0.013881
-0.252714
-0.097906
-0.030140
-0.281925
-0.040022
0.210506
-0.014655
-0.156926
-0.136488
0.043596
0.140200
-0.100967
0.029180
0.004800
0.150388
-0.249042
0.039419
-0.075059
-0.255216
-0.024638
0.021867
0.038635
0.208953
-0.000346
0.116894
0.003750
0.057638
0.035629
0.151801
0.234639
-0.001411
0.053358
-0.111067
-0.056572
0.110213
0.046393
-0.096219
0.041145
0.064134
-0.233250
-0.033673
0.175330
-0.305402
-0.096743
0.006244
-0.290501
-0.303744
-0.125876
0.134220
0.047726
-0.076150
0.241593
0.255874
0.061070
0.157921
0.042698
-0.047563
-0.001724
0.187920
-0.071371
-0.264421
-0.182936
-0.188102
-0.130849
-0.211660
-0.105375
0.097242
-0.107500
0.066359
0.109123
0.148743
-0.023006
0.060656
0.007455
0.002058
-0.245651
-0.206651
-0.108843
-0.052524
0.043917
-0.099183
-0.074442
-0.021004
0.084529
-0.106131
-0.057676
-0.266763
0.058958
0.100558
0.035116
0.107891
0.132608
0.058204
-0.094126
-0.084564
-0.007576
-0.283808
-0.014638
-0.042423
-0.167888
-0.045542
-0.375057
0.060915
-0.290250
-0.045155
-0.160437
-0.089454
-0.346814
-0.108410
0.119966
-0.064062
-0.184664
-0.096320
-0.136194
-0.251770
-0.222125
-0.248426
0.075435
0.091747
0.185659
0.045143
0.050547
0.096010
-0.229040
-0.158084
-0.006249
-0.380498
-0.041708
-0.215779
-0.312777
-0.187860
-0.344984
-0.200961
0.131003
-0.081375
-0.045952
0.147353
-0.074572
-0.072096
-0.082798
-0.172735
-0.077884
-0.237995
-0.204175
-0.338808
-0.220868
-0.005905
-0.181704
-0.138631
-0.157888
0.021807
-0.081330
0.004520
-0.060618
0.103819
0.157936
-0.215307
-0.121038
0.093055
-0.154901
-0.193967
0.002597
0.055123
0.085253
0.121192
0.089693
0.045091
0.128283
0.151543
0.006330
0.088294
0.216427
0.155407
-0.017472
0.068922
-0.040508
0.013806
-0.022872
-0.128737
-0.020675
0.050652
-0.115536
-0.067350
-0.308025
-0.041917
-0.338441
-0.094423
-0.320186
-0.375635
0.077452
-0.109254
-0.345818
0.090633
-0.190944
-0.378555
-0.035662
-0.057023
-0.017830
-0.006811
-0.052970
0.022798
-0.005686
-0.058159
-0.056993
-0.104882
-0.006055
-0.002130
-0.100627
0.086718
0.014525
0.029829
0.003467
-0.066478
-0.041871
-0.071553
0.017226
-0.099796
0.007510
0.009597
0.055288
-0.044800
-0.046712
-0.424800
0.052255
0.095958
-0.175046
-0.341957
-0.188692
0.181010
-0.125388
0.050902
0.058920
0.133296
-0.205623
-0.160679
-0.143704
-0.412404
-0.255977
-0.125757
-0.164243
-0.152427
-0.096520
-0.355850
-0.244783
-0.015382
-0.001672
-0.197202
0.064421
-0.033063
0.076971
-0.006984
-0.003978
0.237194
0.159000
0.145904
-0.132855
-0.185354
-0.133380
-0.293972
0.064425
-0.184055
-0.018586
-0.059007
0.072435
0.070300
0.086413
-0.220013
0.146115
0.032383
0.087682
-0.184053
-0.365754
0.012557
-0.075110
-0.187177
-0.090517
-0.247516
-0.228668
-0.234415
0.052946
0.133755
0.166414
-0.173429
0.034353
0.053331
0.099086
0.299848
0.122233
-0.052678
-0.160570
-0.000410
0.055319
0.056932
0.095551
-0.047152
-0.075613
-0.174744
-0.070255
0.154655
-0.015191
-0.073808
0.029031
0.039576
-0.096314
0.010164
-0.271446
-0.271732
-0.335599
-0.275802
-0.475887
-0.245429
-0.292468
0.090513
-0.217062
-0.012136
0.095447
-0.014903
0.074250
-0.123140
0.098454
0.235452
-0.196981
-0.226357
-0.088146
-0.043117
-0.053450
0.050800
0.124616
0.148735
0.257227
-0.178333
0.000400
-0.008071
-0.285033
-0.033630
-0.089596
-0.043202
-0.073676
0.142207
0.062055
-0.038401
0.008945
0.002131
0.030471
0.017202
0.035278
0.158204
0.071144
-0.218560
-0.048424
0.043531
0.095817
-0.145392
-0.159859
0.332331
0.195865
0.105796
-0.081164
0.098872
-0.096664
-0.560086
-0.354689
-0.436175
-0.230503
-0.093564
-0.243778
0.212557
-0.088924
-0.095987
0.055986
-0.156220
-0.020804
0.087157
-0.117295
0.042215
-0.043242
-0.015324
-0.022784
-0.220765
-0.161856
-0.240885
-0.032867
0.001241
-0.051028
-0.203645
-0.094447
0.048781
0.127975
0.144831
0.130508
0.050798
0.129561
0.148582
-0.018471
-0.057382
0.178816
0.002247
-0.085834
0.072098
0.032633
-0.132036
0.079442
0.045460
-0.242354
-0.029387
0.029959
-0.277305
-0.217904
0.286333
0.070535
-0.062474
-0.129045
0.063825
-0.224815
-0.074262
-0.208548
-0.224803
0.266569
0.100192
0.168556
-0.016789
-0.207786
-0.110705
-0.060767
-0.132591
0.039277
-0.138416
-0.200960
0.023228
-0.085603
-0.269472
-0.046826
-0.054837
-0.149132
-0.304063
-0.075948
-0.019895
-0.126246
-0.023734
-0.065561
-0.067227
-0.269172
-0.033067
-0.055999
-0.036526
0.311715
0.014244
0.034551
-0.216088
-0.101698
0.116715
-0.135527
0.067093
-0.107830
-0.162878
-0.125447
0.055091
0.008680
-0.067033
-0.257309
-0.088867
-0.045764
-0.202574
0.055642
0.058231
0.079558
0.040438
-0.047557
0.066496
0.230679
0.089273
0.048420
-0.092950
0.030265
-0.076452
0.185160
0.068696
-0.073542
0.118498
0.066959
-0.126992
0.001463
-0.028613
-0.074750
-0.024715
-0.164802
0.055244
0.005596
-0.127311
0.144515
-0.090465
-0.123541
-0.174052
0.076249
-0.034352
-0.210983
-0.108537
-0.155786
0.121522
0.029191
0.165141
-0.265953
-0.190586
-0.242272
-0.280403
-0.030428
-0.220312
-0.099306
0.025697
-0.088991
0.070950
-0.119626
-0.195517
-0.082563
-0.398671
-0.284494
-0.311267
-0.228294
-0.073042
-0.057290
-0.095065
-0.126074
-0.042417
-0.064139
0.001508
0.052304
-0.153396
-0.219408
0.090897
-0.037523
0.123078
0.021834
-0.124272
0.030937
0.167185
-0.081476
-0.053239
-0.166191
-0.084850
-0.097335
-0.457241
-0.062146
-0.249236
-0.196220
0.004834
0.002747
-0.575068
-0.329000
-0.323061
-0.079184
-0.328105
-0.052794
-0.128821
-0.414299
-0.061331
0.105172
0.242313
0.098559
-0.093136
-0.002582
0.018617
-0.284342
-0.109878
-0.285313
0.037121
0.002016
-0.035893
0.020433
-0.278748
-0.056845
0.055819
0.181350
0.049082
0.109131
0.052804
-0.109052
-0.011244
0.108189
-0.123211
0.221932
0.303693
0.239185
-0.110334
0.172654
0.059851
-0.213195
-0.146082
-0.294774
-0.164465
0.052162
-0.082581
-0.089648
-0.075786
0.080868
0.067973
-0.043092
-0.084611
0.007872
-0.090880
-0.236212
0.005219
0.187127
0.088070
0.141385
0.055918
-0.048515
0.050379
-0.000181
-0.043473
0.213332
0.090317
0.016141
0.060875
-0.090291
0.096220
-0.062604
-0.164206
-0.127835
-0.027923
-0.014805
-0.371416
-0.098614
-0.220627
-0.272825
-0.110218
0.006742
-0.269805
-0.015417
0.177854
-0.052254
-0.065170
0.095628
0.202207
0.199982
0.187277
0.275244
0.108020
0.127310
0.181508
0.031519
0.017492
-0.046886
-0.102230
-0.055789
-0.063361
-0.009631
-0.235918
-0.080240
-0.064093
-0.051375
-0.076210
-0.014833
0.112051
-0.042805
-0.014397
0.019041
-0.036193
0.069625
0.203308
0.093804
0.157855
0.179430
0.207818
0.254976
0.435868
0.341667
-0.075243
-0.017682
-0.085947
-0.215581
-0.061997
-0.105806
-0.221655
-0.102810
0.033973
-0.286275
-0.176891
-0.142889
-0.030863
-0.234205
0.097724
-0.173876
-0.011359
0.135790
-0.057219
-0.092054
0.143613
0.009663
-0.320314
-0.236595
-0.035162
-0.016636
-0.210977
-0.290391
-0.085026
-0.140643
-0.082332
-0.221374
-0.306412
0.001294
-0.006185
0.007984
0.164171
-0.047787
0.010102
0.101261
0.033427
0.122944
-0.113699
-0.157323
0.224387
-0.001831
0.001054
-0.078199
0.083250
0.154305
0.070014
0.140432
-0.196289
-0.036521
-0.076504
-0.315364
-0.186009
0.067306
-0.091854
0.109568
-0.039661
-0.142178
-0.087564
0.017977
0.032935
0.095162
0.116542
0.079669
-0.219592
-0.086033
0.059846
0.044990
0.004910
0.032516
0.016693
-0.132771
-0.007440
-0.047152
-0.250344
-0.113008
0.010168
-0.211418
-0.030327
-0.003625
-0.130955
-0.077689
-0.096097
-0.035075
-0.069988
-0.269580
0.058275
0.142020
0.053587
0.053726
-0.067038
0.078632
-0.107328
-0.184234
-0.142071
-0.004298
-0.246224
-0.304716
-0.249088
-0.266024
-0.216881
0.015227
0.090523
0.137336
0.147592
0.102948
0.001511
0.055257
0.066671
0.031551
-0.100782
-0.284517
-0.223868
-0.102564
-0.445521
-0.319406
0.241126
0.031969
0.006840
-0.137028
0.135352
0.141430
-0.160823
-0.012250
0.042690
-0.199136
-0.219325
-0.246682
0.224886
0.248902
-0.016909
0.117432
-0.110202
0.126062
-0.088643
0.369428
-0.040234
0.103020
-0.091414
0.168478
0.024011
-0.265244
0.117022
-0.045237
-0.078409
-0.051722
-0.058252
0.087478
0.223168
0.148613
0.215329
0.179035
-0.420058
-0.132062
0.058751
-0.324451
-0.207251
-0.005526
-0.342488
-0.119279
-0.131201
-0.178674
-0.157059
-0.048643
0.129842
0.115269
-0.131782
-0.156797
-0.308317
0.125132
-0.173310
-0.255567
0.247002
0.086454
0.072390
0.097925
0.057626
0.032573
-0.019947
-0.055003
-0.173486
-0.036816
-0.095312
-0.052479
0.075273
0.008867
-0.200685
-0.192757
0.182345
0.105515
-0.087175
0.028122
0.020408
-0.017319
-0.062749
-0.110055
-0.234065
-0.027241
-0.064201
-0.111451
0.000352
0.182423
-0.016705
-0.100591
-0.245325
0.028540
0.003091
0.002883
-0.096248
0.364928
0.161608
-0.139041
0.312976
0.202682
-0.018512
0.295969
0.193492
0.226608
-0.269297
-0.259732
-0.180262
-0.476642
-0.247068
-0.348016
-0.267869
0.144077
-0.154137
-0.087582
0.028122
-0.005553
-0.023055
0.090082
-0.337467
-0.022952
0.246282
0.014302
0.248337
0.177277
0.000099
0.021862
-0.092844
-0.038730
-0.275835
-0.268856
-0.338326
-0.091037
-0.156698
-0.078223
-0.082410
0.041646
-0.050182
0.057026
-0.057205
-0.001744
-0.040923
-0.086159
-0.029344
0.022621
-0.308849
-0.222818
-0.003770
-0.102565
0.231839
0.090219
-0.106218
-0.034908
-0.014913
-0.038615
-0.160169
-0.131936
-0.083050
-0.259633
-0.032978
-0.246522
-0.043019
0.047689
-0.110144
-0.030738
0.246050
-0.004658
-0.075316
0.059058
0.056762
-0.378462
0.073141
0.005030
-0.132079
0.037300
0.049386
-0.087322
-0.103002
-0.040897
-0.046032
0.042724
0.060036
-0.049918
-0.022326
0.047098
-0.179053
-0.204215
-0.097580
0.006394
-0.142049
-0.004589
0.062331
-0.201456
-0.071266
0.035441
-0.292334
-0.478551
-0.044412
-0.202433
-0.623531
0.115930
-0.205014
-0.409425
-0.147979
-0.172180
-0.114673
-0.303016
-0.085557
0.087852
-0.308203
0.209135
0.054172
-0.262855
0.248073
0.067857
0.131709
0.113596
0.054185
0.125810
-0.256718
-0.203846
0.208570
0.026130
-0.020626
0.237641
-0.113255
0.090475
0.071591
-0.136024
-0.073431
-0.094370
-0.007724
0.033552
0.017472
-0.010468
0.002551
-0.210444
0.018874
0.096883
-0.051093
-0.028076
-0.187230
0.165929
-0.188435
-0.020481
0.128722
-0.088253
-0.048302
0.045592
0.197177
-0.014986
-0.072804
0.170249
0.005569
-0.155014
-0.176504
0.002639
-0.095366
-0.023394
0.167877
0.122676
-0.007213
0.190350
0.143921
0.082612
0.230099
-0.048264
-0.107646
-0.260904
-0.157653
0.024478
-0.010183
-0.364884
0.192914
0.116118
-0.301005
-0.095646
-0.278399
-0.041379
-0.236155
-0.199074
-0.056587
0.046918
-0.208696
-0.313043
0.305914
0.134950
-0.154344
-0.012604
0.077103
-0.215514
0.058934
-0.089623
-0.015605
-0.413465
-0.056409
-0.102045
-0.051971
-0.131542
-0.141876
0.192490
-0.008194
0.142567
0.066160
-0.033746
-0.021422
0.052264
-0.051947
-0.016576
0.145531
0.055130
0.042731
-0.163086
0.005483
0.295069
-0.078961
-0.175263
-0.211907
-0.179283
-0.275307
0.103298
0.180571
-0.110641
0.084428
-0.055646
-0.263348
-0.178539
0.238759
0.277245
0.106733
0.091491
0.064698
-0.067116
0.070743
0.014742
-0.249453
0.019517
-0.030307
-0.041150
-0.176337
0.335342
0.067953
-0.333961
0.038568
0.350813
0.001194
-0.275477
-0.098077
-0.036744
0.048710
0.215235
0.154628
0.042950
0.066810
-0.202407
-0.266241
-0.176587
-0.178034
-0.038201
0.282180
-0.446493
-0.062647
0.069869
-0.219034
-0.041277
-0.017505
0.033876
0.089220
0.241935
-0.215509
0.017801
0.057857
-0.047268
0.207209
0.116156
0.058367
0.093336
0.262834
-0.046504
-0.040236
0.220558
-0.193172
-0.087017
0.114424
-0.120984
-0.282522
0.103110
-0.228752
-0.226475
-0.036132
-0.205718
-0.194834
0.135378
-0.200873
-0.412498
0.122072
-0.099371
-0.304178
-0.011054
0.111137
-0.054435
0.104845
0.053726
-0.126211
0.069987
-0.266846
-0.198532
-0.025366
-0.161439
-0.330849
0.005782
-0.081784
-0.047673
0.041291
-0.146947
-0.093399
0.026784
0.046889
0.071798
-0.089115
0.073836
0.085578
0.130274
0.239402
0.178472
-0.042004
0.040015
0.066771
-0.105048
0.081814
-0.116639
0.022580
0.076135
-0.034395
-0.188950
0.077012
-0.073364
-0.413336
-0.067317
-0.063301
-0.195580
-0.031457
0.053599
-0.108017
0.134040
0.102088
-0.049761
-0.074087
-0.063140
-0.069775
0.010948
0.064393
-0.035791
0.229721
0.081365
0.000960
0.074525
0.019819
0.135682
-0.283715
-0.150588
-0.089218
0.000233
-0.138539
-0.051545
0.101947
0.157444
-0.349773
0.195665
0.135385
-0.137674
-0.035887
0.095347
-0.269752
-0.106422
0.020004
0.171087
-0.242529
-0.348902
-0.092667
-0.134278
-0.248405
-0.036484
-0.114279
-0.138345
0.154390
-0.230018
-0.066112
0.316069
-0.212974
-0.277786
0.080463
0.108276
0.028029
-0.061783
0.081371
-0.202240
-0.178226
0.012827
-0.026037
0.048650
-0.222952
-0.176149
-0.002674
-0.004404
0.106705
0.183348
0.026481
0.110308
0.119050
0.056281
-0.009942
0.069164
0.070179
-0.052925
-0.048442
0.069639
0.027312
-0.121850
-0.036600
0.076394
0.091488
0.171497
-0.007565
0.118135
0.187398
-0.140597
0.115349
0.117335
0.054796
0.042517
-0.007881
-0.156256
-0.079711
-0.093799
-0.297294
0.053683
-0.227185
-0.060794
0.106852
-0.222865
-0.040957
0.301877
-0.172809
-0.094718
0.254127
-0.190188
-0.185488
-0.145765
0.201767
0.108450
-0.079903
0.048845
0.079774
-0.023998
0.105567
-0.136325
-0.253376
0.058028
-0.092935
0.007435
-0.005807
0.015372
-0.013819
0.015679
0.018679
0.066130
-0.030517
-0.000063
-0.085270
-0.101391
0.066758
0.018727
-0.118433
-0.145209
-0.079500
0.056294
-0.164758
-0.131926
0.062214
0.154790
0.088875
0.108311
-0.146338
0.198532
0.169041
-0.146718
0.057815
0.207604
-0.207218
0.032211
-0.119545
-0.072086
0.188478
-0.153147
0.111398
-0.079448
0.210862
-0.049472
-0.403796
-0.113935
-0.177694
-0.129527
0.284684
0.125415
-0.097376
0.224856
-0.025392
-0.111797
-0.177914
-0.013575
0.161145
-0.223143
-0.114777
0.065318
-0.169646
0.027004
-0.003582
0.140604
0.054727
-0.060268
0.029754
0.045331
-0.167302
0.040811
0.054174
-0.206866
-0.080904
0.166425
0.099378
-0.133491
0.215307
0.045660
-0.271105
0.280050
-0.146059
-0.047492
0.011999
-0.213284
0.133737
0.067928
0.089276
0.188555
0.108791
-0.057515
-0.136656
-0.110589
0.044060
-0.339538
-0.257825
0.112925
-0.031256
0.001251
0.123648
-0.146596
0.147320
0.140457
-0.114337
0.104451
0.342000
-0.149884
-0.010734
0.317454
-0.134863
-0.208771
-0.080395
-0.207474
-0.060141
-0.256445
-0.197863
-0.163877
-0.167168
0.380768
0.144056
0.208399
0.071493
0.052529
0.112813
0.023504
-0.172176
-0.268784
0.089994
-0.083648
-0.160186
-0.015884
-0.151214
-0.081212
-0.123201
-0.304672
-0.373846
-0.072235
-0.095743
-0.027746
-0.075276
-0.160698
0.099561
-0.030685
-0.309379
0.064807
-0.124753
0.034527
-0.006680
-0.298763
-0.257732
-0.196162
0.052592
-0.125579
-0.328036
-0.098648
-0.173403
-0.168987
-0.142681
-0.146152
-0.232090
0.041241
-0.062444
-0.023211
-0.123346
-0.149740
-0.050338
-0.120491
-0.052255
-0.064765
-0.187592
-0.127657
0.121892
0.032702
-0.092803
0.059311
0.085926
0.004170
0.165348
0.025051
0.114897
0.050705
0.017303
0.031129
0.184403
0.180467
-0.031509
0.234231
-0.447121
-0.312520
-0.134055
-0.239666
-0.058652
0.097743
0.027884
-0.046996
0.055345
0.168228
0.100949
0.144831
0.072227
-0.023776
0.241196
-0.132197
-0.222401
-0.062941
-0.143233
-0.017086
-0.114497
-0.245354
-0.206501
-0.100307
-0.249721
-0.136919
-0.331877
-0.094364
-0.230622
-0.126845
-0.161696
-0.149002
-0.031309
-0.201627
0.029794
-0.019899
-0.332730
-0.082828
-0.110360
-0.021576
-0.096319
0.053882
0.020868
-0.001073
-0.013670
-0.361248
-0.145226
-0.087624
0.094168
0.131795
0.007262
0.015425
0.029299
0.031527
0.007565
0.080181
-0.118868
0.053520
-0.222809
-0.066214
-0.409203
-0.408760
-0.179680
-0.213739
-0.332608
-0.348047
-0.109305
-0.080201
0.158612
-0.015665
-0.005492
0.096791
0.149636
-0.122808
-0.034780
0.131522
-0.107974
-0.287932
0.105720
0.048543
0.010504
-0.045938
-0.033072
-0.048130
0.028520
0.029403
0.055965
-0.045444
-0.011866
0.181790
0.173366
0.011028
-0.010137
0.139607
0.143476
0.267435
0.106449
-0.144805
0.095988
0.149633
0.227704
0.049205
0.012001
0.299892
0.182334
-0.091679
0.020677
0.067140
-0.163821
-0.136195
0.013517
-0.055550
-0.050891
0.139001
-0.047858
-0.017617
0.090328
-0.158948
-0.372158
-0.148715
0.172819
0.097332
-0.242642
0.226597
0.055121
-0.156574
0.031463
0.082798
-0.104753
-0.008645
0.047833
0.018670
0.079276
0.174037
0.104698
-0.071259
-0.131019
0.042566
0.045335
-0.160163
-0.177466
-0.031558
0.028866
0.071111
0.256561
0.182284
0.162003
-0.048183
0.074758
0.044365
0.016617
-0.234980
-0.226032
-0.337988
-0.169318
-0.190851
-0.049178
0.370512
0.098747
0.073158
-0.013194
-0.052212
-0.082580
-0.214660
-0.259002
0.138138
-0.092467
-0.153408
0.012566
-0.099305
0.069847
0.067368
-0.012519
0.118157
0.142549
-0.284337
-0.581418
-0.202653
-0.056005
-0.251761
-0.194856
0.027949
-0.087067
-0.139166
0.153190
0.183771
-0.196865
-0.017187
0.126735
0.079329
0.217173
0.220356
0.066932
0.069796
-0.140131
-0.039847
0.125484
-0.058563
-0.253182
0.136874
0.217864
-0.016151
0.158036
-0.190023
-0.102597
0.084411
-0.093235
-0.079257
-0.085055
-0.138132
0.033289
-0.203936
-0.162406
-0.020650
-0.023499
-0.052782
-0.039251
0.028757
0.053485
-0.263471
-0.148059
0.111296
-0.196608
-0.303189
-0.194295
-0.194539
-0.092853
-0.285349
-0.180322
-0.069125
-0.121148
-0.120129
-0.002259
0.099218
0.077332
0.147737
0.082817
0.071227
0.040006
-0.178952
0.145523
0.101074
0.153655
-0.298441
-0.157270
-0.128050
-0.092348
-0.236011
-0.021141
0.052222
-0.139365
-0.142271
-0.271357
-0.122257
-0.139609
0.127029
-0.092654
-0.018258
0.298380
0.110335
0.101886
0.027891
-0.047938
-0.102874
-0.325808
0.184513
-0.308910
-0.385500
-0.068979
-0.313133
-0.201333
-0.035674
0.033526
-0.022460
-0.050668
-0.152295
-0.163020
-0.114636
-0.118109
-0.293542
-0.382173
-0.077849
0.181230
0.131921
0.161105
-0.046952
0.034374
-0.091111
-0.169017
-0.018808
0.119043
0.062768
-0.080568
-0.029850
0.147355
0.052089
0.020148
-0.005730
0.047816
0.048264
-0.206517
-0.153882
-0.438338
-0.312089
-0.106684
-0.043592
0.107340
0.215799
0.124197
-0.403838
-0.240503
-0.116207
-0.282670
-0.070298
-0.187422
-0.186090
-0.058983
0.048232
0.021832
-0.150850
0.011156
-0.062808
-0.065755
0.077471
0.032873
0.114306
-0.038533
-0.068916
0.037381
0.067337
-0.302996
-0.123836
-0.028119
-0.184543
-0.168462
-0.113208
0.275152
0.138699
0.086878
0.006769
-0.062024
0.128159
-0.350844
-0.385590
0.064872
-0.007125
-0.021012
-0.033647
-0.399805
-0.168470
-0.043671
-0.286739
-0.337363
-0.036335
0.138249
0.102250
0.113218
-0.036851
0.116758
-0.062347
-0.022892
-0.031428
-0.167293
0.045439
-0.025813
0.100562
0.019051
0.181818
0.086382
-0.062118
0.016659
-0.059981
-0.007894
-0.151764
0.022382
-0.076303
-0.030348
-0.010223
0.090673
-0.035717
0.109965
-0.235233
-0.075975
0.087124
-0.123933
-0.107171
-0.468412
-0.451531
-0.202847
-0.375771
-0.217806
-0.175212
-0.368648
-0.040202
-0.195412
-0.455953
-0.143322
-0.112724
-0.322403
0.041898
-0.046003
-0.047106
0.072119
0.080246
0.041216
0.077676
0.040495
0.032620
-0.070626
-0.112007
-0.022429
-0.037694
-0.208603
-0.213834
-0.066483
-0.138377
-0.053035
-0.255623
-0.188379
-0.127568
0.019316
0.064239
-0.053764
-0.012627
-0.081232
-0.053546
0.008605
-0.046687
-0.093480
0.238666
0.064488
0.102569
0.325267
-0.023735
-0.237686
-0.057172
0.046147
0.161083
0.090147
-0.009694
0.104741
0.026255
-0.137357
-0.026957
-0.215707
-0.159414
-0.238579
-0.070742
0.056286
-0.026272
-0.056867
0.091856
0.016611
0.002910
0.027670
-0.169637
0.018962
0.088246
0.040214
0.052826
0.012822
0.027081
-0.292534
-0.183072
0.479986
-0.077859
-0.314833
0.123379
0.198532
-0.080464
-0.398607
-0.092491
-0.155142
-0.037790
0.141677
-0.335909
-0.224798
-0.101441
-0.085935
-0.125539
-0.093403
0.073122
-0.001608
-0.162714
-0.198935
-0.026312
-0.156788
0.138085
0.220733
-0.031208
-0.240756
-0.157889
-0.098182
-0.160421
0.038747
-0.031093
-0.014282
0.156983
0.242172
0.062966
-0.085529
-0.160307
-0.107610
-0.190833
0.011099
-0.335511
-0.298239
-0.143426
-0.272988
-0.241287
0.226825
0.037778
0.053030
-0.062387
-0.026109
0.161312
-0.015562
-0.212582
-0.022917
0.239090
0.190178
0.244227
0.044315
-0.097962
-0.040081
0.062735
0.123487
0.030591
0.024778
0.139313
0.056752
0.142486
-0.168060
-0.099512
-0.311958
-0.298158
-0.158530
-0.144765
0.107736
-0.067392
-0.165470
0.207890
0.137800
0.038565
0.047373
0.021531
-0.133725
-0.233927
0.025042
-0.202987
-0.157541
-0.166187
-0.053058
-0.179495
-0.157031
0.013614
-0.070012
0.080855
0.121222
-0.177513
-0.098011
0.034961
-0.020095
0.038776
-0.230095
-0.117137
-0.209338
-0.477181
-0.367619
-0.275059
-0.290865
0.050170
-0.145636
-0.328202
-0.260092
-0.236484
-0.007040
-0.048347
0.078195
-0.150928
0.032612
-0.002538
-0.195190
0.066259
0.105596
-0.328849
-0.331868
0.145370
0.164150
0.019524
0.056166
-0.046497
-0.436839
-0.227894
-0.103424
-0.109403
-0.463659
-0.114682
0.016669
-0.276656
0.044673
0.060052
0.059856
-0.006175
0.042605
0.189302
0.114321
0.009587
-0.322769
-0.176587
-0.163900
-0.050213
-0.021160
-0.142009
-0.344090
0.123819
0.205417
0.280076
-0.327081
0.011502
0.162125
-0.125475
-0.260657
0.339580
-0.083454
-0.161909
0.189098
0.093855
0.042347
-0.129017
-0.084049
-0.055382
-0.093325
-0.033248
0.068222
0.077562
0.102498
-0.002582
0.084437
-0.078651
-0.175638
-0.222906
0.039333
0.065174
0.176230
-0.076666
-0.319205
0.039482
-0.067815
-0.311287
-0.203314
0.043552
0.044280
-0.096189
0.082911
0.072549
0.081944
-0.192740
-0.143707
0.040498
-0.193569
0.103746
0.053256
-0.149482
-0.225469
-0.121999
-0.115398
-0.087657
-0.157797
-0.188728
-0.164105
-0.154319
-0.120889
-0.005046
0.076107
0.040300
0.068180
0.074477
-0.217343
-0.258101
-0.126150
-0.251002
-0.074158
0.181860
-0.055306
-0.104211
0.030738
0.120167
-0.121477
0.018279
0.017064
0.060406
-0.112062
0.094881
0.019693
0.121703
0.156206
-0.123806
-0.296895
-0.070938
-0.058158
-0.138134
0.224152
0.200439
0.125891
0.133590
-0.038934
0.177771
-0.138833
-0.596653
-0.212310
0.074297
0.007139
-0.170568
0.128163
0.022750
0.159656
-0.075562
-0.020278
0.237567
-0.201558
-0.140273
0.148902
0.053758
-0.205972
-0.321059
0.161667
-0.198871
-0.181134
0.051332
-0.117268
-0.111674
0.036493
0.070590
0.067671
0.010837
-0.207969
0.151918
-0.343335
-0.249829
0.015787
-0.056266
-0.106056
-0.026307
-0.191155
0.122740
-0.015807
-0.062868
0.005464
-0.133188
-0.465270
-0.240316
0.006433
-0.188926
0.013382
-0.393353
-0.297117
-0.080911
-0.275592
0.128288
-0.144079
0.035848
0.176406
-0.017990
-0.093582
0.184852
0.182235
0.047337
-0.020986
-0.380390
-0.161955
0.176924
-0.005509
-0.084853
0.236713
0.230387
0.059024
-0.207755
-0.180169
-0.173248
-0.348611
-0.222723
-0.135825
-0.342213
-0.299190
-0.368986
-0.017432
0.035192
0.026984
-0.067187
-0.176119
-0.161653
-0.139876
-0.087460
-0.113387
0.064440
0.165450
-0.112045
-0.191176
0.048172
0.028622
-0.117534
-0.018314
0.005582
-0.184327
-0.057944
-0.052093
-0.056157
-0.130868
-0.237364
-0.043599
-0.071303
0.092031
0.213987
-0.021750
-0.302158
0.168819
0.009121
-0.104135
-0.277292
0.095559
0.029668
0.030223
-0.163314
-0.015842
0.117195
-0.084432
-0.171675
-0.125241
-0.305978
-0.158294
-0.136282
0.070069
-0.050829
-0.258377
0.048491
0.040704
-0.050154
-0.116170
-0.109286
-0.091392
-0.291890
-0.251521
0.028253
0.030030
-0.084305
0.023920
0.019116
-0.239774
-0.065263
-0.034608
-0.033630
-0.119723
-0.213224
-0.273844
-0.157457
0.047240
0.223782
-0.200547
-0.196740
-0.147087
-0.291865
-0.178061
-0.344138
0.095145
0.164981
-0.035439
0.083136
0.054232
0.202123
0.168748
0.129405
0.142478
0.035968
-0.034068
0.008372
-0.210481
0.062406
-0.279150
-0.043149
0.017559
-0.197398
0.218746
-0.161135
-0.398029
-0.048977
-0.197599
-0.352823
0.001812
0.036518
-0.069796
-0.096318
-0.247068
-0.164208
0.033828
0.269199
0.308911
-0.077788
0.083345
-0.031992
-0.230149
-0.051163
0.027646
-0.090241
-0.229867
-0.250744
0.017186
-0.313690
-0.333180
0.368047
0.003187
-0.163205
-0.105763
-0.066128
-0.020215
0.142689
0.108798
0.079166
0.152748
-0.002524
-0.042193
-0.064014
0.116592
0.072545
0.031201
0.163188
0.060973
-0.101278
-0.047935
0.156908
0.194268
0.054759
0.236720
0.024426
-0.395306
-0.147586
0.191746
0.092192
-0.151490
0.113256
-0.204362
-0.153476
-0.030695
0.140813
-0.206102
0.112193
0.263091
0.079627
0.089723
0.018955
0.083743
-0.179140
-0.233950
-0.032005
0.098110
-0.159707
-0.412466
-0.078660
-0.105746
-0.141346
-0.070908
-0.088129
-0.314975
0.094081
0.227597
0.130379
-0.045891
-0.064203
-0.084897
-0.123511
-0.443826
-0.138664
-0.035875
0.012514
-0.454884
-0.068347
-0.087673
0.066852
-0.049981
-0.012876
0.011331
-0.001088
-0.013157
0.067864
0.082414
0.070693
0.180969
-0.029218
0.085156
0.261313
-0.100630
-0.134431
0.075448
0.069188
0.036426
0.050162
-0.099331
-0.249187
-0.151323
0.021243
-0.308849
-0.380594
-0.059079
-0.292013
-0.315779
-0.050450
0.387181
-0.151495
-0.026870
-0.141829
-0.003005
-0.125076
0.028581
0.042284
-0.130148
-0.073600
-0.062846
-0.131237
-0.155123
-0.034395
0.083014
-0.023490
-0.074691
0.120444
0.137919
0.087447
0.012884
-0.017252
0.000138
-0.040523
0.014620
-0.042404
-0.327242
-0.119989
-0.303980
-0.101350
0.057995
0.104657
0.174980
0.005577
-0.151604
0.105397
-0.041123
-0.094917
0.060698
-0.002265
-0.201802
-0.151824
0.028841
0.048228
-0.016416
0.129548
0.060481
-0.012232
0.105883
0.006995
0.106933
-0.006819
-0.047326
0.075853
0.068918
-0.010927
-0.060256
-0.050820
-0.058247
0.072127
0.069300
0.043607
-0.059492
0.115724
0.004225
-0.045308
-0.011038
0.157481
-0.163033
-0.134868
-0.337829
-0.241498
-0.208748
-0.237590
-0.047977
0.364440
0.053737
0.014042
0.059703
0.012498
0.146317
-0.186264
-0.270946
-0.292367
-0.310724
0.020626
0.002991
-0.076368
0.028751
-0.066214
0.033328
0.079201
-0.190427
-0.238706
-0.317638
0.097017
-0.072766
-0.061450
-0.142245
-0.067111
-0.043747
-0.035717
0.017378
0.010068
0.078991
-0.046134
-0.008478
-0.040867
0.098492
-0.176369
-0.130683
0.067660
0.133533
-0.195953
-0.108488
-0.091767
-0.023139
0.067221
0.161178
0.030459
-0.043920
0.140751
-0.155261
0.094663
0.047664
0.119718
0.063502
0.261693
0.132320
-0.015614
-0.066500
-0.041721
-0.020411
0.088691
0.044047
-0.179068
0.009532
0.261156
-0.024806
0.101666
0.073505
-0.017188
0.026434
-0.239566
-0.284237
-0.238209
-0.195281
-0.079339
0.034363
-0.204681
-0.303781
-0.066779
-0.231971
-0.265355
-0.191342
0.127132
0.090342
0.141015
-0.057107
-0.168045
0.052720
-0.512423
-0.349745
-0.085406
-0.081559
-0.183673
-0.060128
-0.515171
-0.120406
-0.116914
-0.247348
-0.324381
0.066906
0.029476
0.148866
0.323091
0.009815
-0.072056
-0.129679
-0.066487
-0.220035
-0.375512
0.052656
0.164601
0.014579
-0.013938
0.017998
0.122262
-0.076436
-0.026291
0.128752
0.097066
-0.177971
0.167896
-0.128878
-0.132025
-0.144673
-0.508618
-0.384002
-0.482541
0.000050
-0.136087
-0.098851
-0.120718
0.098430
0.216928
-0.080781
-0.115506
0.064824
0.206281
0.165578
0.025957
0.049136
-0.102877
-0.066619
0.107794
0.016971
0.179874
0.248241
0.199297
0.071776
-0.092604
-0.033804
0.048163
-0.032571
-0.116435
-0.066470
0.053382
-0.211367
-0.199844
-0.115135
-0.045621
0.186281
0.076313
-0.086769
0.138436
-0.076947
-0.189495
-0.042161
-0.171642
0.163910
0.105423
-0.179421
-0.120966
-0.082893
0.136542
-0.004823
0.054345
0.060404
0.186523
0.121210
-0.154412
-0.116219
-0.048316
-0.122846
-0.211550
-0.093502
-0.038169
-0.047147
-0.196962
0.015567
0.193698
-0.052020
0.070013
0.061511
-0.074535
-0.228314
-0.236459
0.057113
-0.167036
-0.139248
-0.207815
0.064131
0.012263
0.061480
0.043618
0.024426
0.064553
0.023610
0.100349
0.045999
0.018430
-0.183841
-0.341830
-0.083050
-0.142755
-0.033601
-0.037581
-0.040341
-0.190538
0.071071
0.072682
-0.045842
-0.261386
-0.174208
-0.247903
-0.268315
-0.415892
-0.193167
0.048432
-0.048724
0.134614
-0.279411
-0.303803
0.120869
0.279207
-0.182467
0.198139
0.144834
-0.077040
0.154043
-0.242748
-0.027088
-0.027252
-0.080840
0.006087
0.078094
0.152182
0.022361
0.239896
-0.270013
-0.289871
-0.088189
-0.452021
-0.184519
-0.140298
-0.132800
-0.019592
-0.006612
0.064924
0.252120
0.127056
-0.312546
-0.476094
-0.136981
-0.094270
-0.418239
-0.172841
0.006873
-0.190552
-0.161312
-0.117291
-0.133206
-0.170272
0.070418
0.046922
-0.065760
0.228769
0.472301
0.303693
0.165070
0.060748
0.069237
0.151904
0.074921
0.113900
-0.013603
-0.078448
-0.029965
0.073237
0.023816
0.117120
0.210549
0.064213
0.117175
0.012077
-0.178061
-0.082229
-0.109971
-0.229742
-0.259221
0.122836
0.039847
0.038235
0.160603
0.011214
0.020224
-0.095781
-0.053645
-0.153351
0.137955
0.055889
-0.052098
-0.193139
-0.162111
-0.321985
-0.017049
0.150225
-0.052822
0.011788
0.198540
0.235033
-0.300987
-0.097354
0.093298
-0.301118
-0.283312
0.008415
-0.077196
-0.047460
0.069433
0.100152
0.101750
-0.101209
-0.181137
0.034711
-0.241653
0.002332
-0.160184
-0.124129
-0.304817
-0.184121
-0.121898
-0.251247
-0.245283
-0.038583
0.034923
0.095115
0.248493
0.037895
0.000521
-0.037738
-0.026622
-0.305152
0.040014
0.091028
-0.191825
0.000700
-0.006811
-0.050897
-0.070793
0.156639
-0.290325
0.008040
0.032910
-0.099431
-0.179191
0.219808
0.105596
-0.061454
-0.201059
-0.282034
-0.174008
-0.198251
-0.124213
-0.207042
-0.296382
-0.193817
-0.295242
-0.040944
-0.020150
-0.331845
0.223711
-0.080764
-0.106543
-0.391570
-0.247157
-0.195166
-0.318089
-0.256804
-0.093052
0.061789
-0.030215
0.156649
0.177376
0.131122
0.016118
0.048224
-0.094228
-0.120616
0.096472
-0.055037
-0.233656
-0.059889
-0.112221
-0.084313
-0.168065
-0.269215
-0.277923
-0.043488
-0.280059
-0.034895
-0.092637
0.121234
-0.092915
0.063343
0.113335
0.043164
0.069261
0.125639
-0.072131
-0.109902
0.122339
0.280088
-0.280646
0.033479
0.022659
-0.043579
-0.005734
0.113142
-0.123171
-0.167220
-0.287753
-0.054307
-0.048754
-0.050634
-0.403048
-0.331387
-0.284416
-0.020927
-0.057934
-0.027597
0.053504
-0.020704
0.058028
0.080048
0.124113
-0.014189
-0.013422
-0.175241
0.002341
-0.152064
-0.063768
-0.205825
-0.359543
-0.124659
-0.365520
-0.236061
-0.155221
0.069620
-0.107392
-0.153850
-0.247437
-0.023617
-0.023674
0.078645
-0.116221
-0.174389
-0.107966
-0.152971
-0.151960
-0.424077
-0.103488
-0.229413
-0.082381
-0.010380
-0.012884
-0.061560
-0.097514
-0.112547
-0.003869
-0.038163
0.052172
0.077989
0.053581
0.198086
0.122361
0.051332
-0.016545
0.133987
0.048673
0.011737
0.030112
-0.113415
-0.111202
-0.006460
-0.545176
-0.313508
-0.205507
-0.333067
-0.158217
-0.171440
0.016440
0.175292
-0.194941
0.118667
-0.001698
0.179137
0.040966
-0.008189
-0.199983
0.040058
0.086338
0.051644
-0.169527
-0.163673
0.113489
0.046860
-0.056577
0.018927
-0.196152
-0.372046
-0.207235
-0.467487
-0.401355
-0.366322
-0.030344
-0.124236
0.116220
0.121656
0.067933
0.064351
-0.135617
-0.120461
-0.141453
-0.004584
0.045473
-0.136558
-0.112031
0.117832
0.348202
-0.057081
-0.530006
0.137037
0.075990
-0.050185
0.183048
-0.082581
-0.240533
-0.307138
-0.202196
-0.080384
0.010950
0.099996
0.135417
0.194306
-0.023538
-0.081345
-0.239876
-0.090120
0.080101
-0.026845
0.080083
0.251671
0.165784
0.008361
-0.209522
-0.190303
0.025975
-0.051870
0.053340
0.145720
0.086579
-0.109696
0.073851
0.054019
-0.003636
0.168693
-0.084294
-0.059288
0.218371
0.140852
0.087987
-0.151881
-0.212317
0.057790
-0.282394
0.033268
0.057720
0.148278
-0.133451
0.004432
0.045881
-0.306719
0.056545
-0.128770
-0.184764
0.028449
-0.045072
-0.263335
-0.056071
-0.299727
-0.054678
0.111512
-0.190249
-0.095458
-0.103146
0.130261
0.023544
0.068965
-0.010856
0.059537
0.015278
-0.047644
-0.093171
-0.076824
0.110977
-0.118731
-0.001633
-0.061483
0.017396
-0.058706
0.014730
0.157567
0.059943
-0.053139
0.051828
-0.006369
-0.303220
-0.014957
0.045900
-0.128230
0.186334
0.190863
-0.231705
-0.225303
-0.108389
0.057668
-0.119954
-0.112957
-0.058955
0.070850
-0.112166
-0.292644
-0.130553
-0.087093
0.017216
0.092638
0.020719
0.033076
-0.189002
-0.086989
0.156600
-0.038075
0.078573
-0.067472
-0.243858
-0.111234
-0.020411
-0.203359
-0.012874
-0.285382
0.053889
0.338114
-0.166125
-0.011275
-0.076014
-0.220706
-0.201251
-0.286195
-0.265666
-0.336102
0.004749
0.003770
-0.122826
-0.088451
-0.128585
-0.241099
0.021498
-0.069194
-0.305607
-0.053194
0.190325
0.016899
0.098758
0.113343
0.222116
0.145324
0.242597
0.214462
0.066464
-0.172272
-0.234832
-0.024909
-0.171638
0.121064
0.172362
-0.062672
-0.077923
0.104201
0.067623
0.072491
0.031351
-0.131690
-0.009850
0.044124
-0.023316
0.068440
-0.009444
-0.123557
0.063778
-0.102963
-0.010884
0.074238
-0.032925
0.169622
0.189049
-0.020256
0.008921
-0.193882
-0.393990
-0.086605
-0.241711
-0.188246
-0.139180
0.038500
0.052141
0.028103
-0.005115
0.153282
0.150961
0.177907
0.044743
0.014594
-0.084890
-0.078097
-0.055434
0.077376
0.047154
-0.043498
0.180273
0.051605
-0.061973
-0.199306
-0.006087
-0.149699
-0.226553
-0.102384
-0.142859
-0.236769
0.086804
-0.047785
-0.100186
0.182318
-0.101619
0.157327
0.111855
-0.115672
-0.034940
0.135030
-0.157645
0.019586
0.098750
0.102292
0.132345
0.186824
0.191138
0.150357
0.004701
0.207407
0.174739
-0.016690
-0.002240
0.116259
-0.018683
0.118533
0.062910
-0.041648
0.205418
0.219889
0.005331
-0.070344
-0.142887
0.015053
-0.104782
-0.308599
-0.115986
-0.081595
-0.055029
-0.060238
0.206368
0.037934
0.007425
0.044861
-0.081592
0.043419
0.010933
-0.099035
0.013450
0.132402
-0.108951
-0.259713
0.063170
-0.016973
-0.233636
0.092756
-0.076357
-0.098677
0.229891
0.242727
-0.080848
0.083357
0.115011
-0.023620
-0.010899
0.117184
-0.269286
-0.076774
-0.133768
-0.216567
-0.206686
-0.173734
-0.340518
-0.222703
-0.220569
-0.065259
0.092085
-0.001678
-0.085221
0.083754
-0.015050
-0.062640
-0.028214
0.029016
-0.163672
-0.077969
-0.151446
-0.215261
-0.114546
-0.066610
0.059125
-0.160878
-0.134075
0.054434
-0.063289
0.024080
0.042742
-0.061206
0.205768
-0.063603
-0.154435
0.080857
-0.056895
-0.095650
-0.197356
-0.202427
-0.135112
-0.001015
-0.053345
-0.107750
-0.081026
-0.321354
-0.014097
-0.096569
-0.125494
-0.094123
0.043338
-0.002667
-0.207480
-0.201027
-0.155569
0.019892
-0.068072
0.082363
0.095046
0.096220
0.035112
0.024062
-0.034508
-0.057824
-0.005067
0.137767
0.221978
-0.191378
-0.057259
0.164895
-0.243739
-0.088827
0.034430
0.141185
0.064197
-0.111721
0.024945
-0.223695
-0.279994
0.233853
-0.014616
-0.070013
-0.212237
-0.182840
0.029590
-0.120311
-0.061999
0.067724
-0.150365
0.033368
0.216410
0.124712
0.085583
0.336155
0.070682
0.007679
0.084854
0.082321
0.267667
0.122445
-0.064386
-0.095880
-0.161619
-0.155952
-0.134653
-0.187970
-0.013250
-0.101736
-0.004636
-0.080305
-0.301879
-0.095518
-0.172439
-0.369808
-0.080537
-0.137137
-0.033497
-0.121510
-0.125455
-0.014179
-0.044487
-0.015108
-0.056598
-0.048687
-0.121183
-0.150891
-0.138390
0.158439
0.137613
0.085133
0.107101
-0.193997
-0.239917
0.016531
-0.122359
-0.063943
-0.166992
-0.093747
-0.027191
-0.084457
-0.255961
-0.107095
-0.047261
-0.035768
0.193483
-0.010327
0.017647
0.004702
0.155068
0.118197
-0.032715
0.045814
0.185387
0.029591
-0.055562
0.027560
-0.059306
0.023756
0.006675
-0.115979
0.081115
-0.047251
0.026917
0.093796
0.177817
0.039967
0.003492
0.033440
-0.178290
-0.161328
-0.219004
-0.123858
-0.067693
0.076643
-0.155854
0.058450
0.149965
0.069678
-0.167970
0.127527
-0.351888
-0.157604
-0.182558
-0.188362
-0.173424
0.031679
0.010200
-0.103091
-0.075546
0.252363
0.075163
0.144289
-0.031436
0.059816
0.157879
0.069211
0.077532
0.015248
0.094320
0.196696
0.188574
0.035862
0.039162
0.052560
-0.099132
0.047537
0.075494
-0.157218
0.059089
-0.017139
0.174295
0.011564
0.033864
0.081392
0.032232
0.096205
0.031708
0.070730
-0.147673
-0.152571
-0.096911
0.123847
0.157118
-0.154038
-0.150233
0.093516
0.124724
-0.017015
-0.076637
-0.006379
-0.001377
-0.156929
0.234926
0.009344
-0.106155
-0.060367
0.031708
-0.034809
-0.011094
0.054665
0.067505
0.055162
-0.006644
0.093082
-0.014968
-0.153308
-0.231836
-0.011491
0.038741
0.126208
-0.091914
-0.229563
0.035106
0.030181
0.041318
0.089738
-0.146894
-0.030097
-0.001738
0.124999
0.077724
0.082584
-0.143186
-0.215544
0.018509
0.329236
-0.089987
-0.069852
0.044645
-0.318185
-0.142894
0.031034
-0.062645
0.028303
-0.239392
-0.340592
-0.327296
0.084540
-0.099611
-0.192049
0.134417
0.007622
-0.092942
-0.020796
-0.089870
-0.110885
-0.078806
-0.174221
-0.361437
0.004338
0.012200
0.053958
-0.151676
-0.073523
-0.073109
0.013950
-0.152757
-0.033930
-0.007630
0.006465
-0.187995
-0.173362
-0.146583
-0.169088
-0.125422
-0.420826
0.026130
0.075579
-0.004893
-0.129088
-0.255236
-0.378712
-0.150505
-0.054087
0.099073
0.314082
-0.000026
0.069818
0.060401
0.121400
0.185155
0.109209
0.033986
0.105073
-0.131331
-0.063443
-0.095902
-0.069408
0.073151
-0.081660
-0.127393
0.048371
0.113770
0.008941
-0.088186
0.189834
-0.365949
-0.019111
-0.169736
-0.432572
-0.051177
-0.164819
-0.432117
-0.271086
-0.155405
-0.117671
0.191310
0.104846
-0.044590
-0.190196
-0.023852
-0.013629
0.206322
-0.015548
-0.030096
-0.063528
0.040761
-0.046510
-0.144888
0.012940
0.038201
-0.057568
-0.027210
-0.122881
-0.220932
0.007922
0.115070
-0.248506
-0.073227
-0.060222
-0.082700
0.024291
0.077666
-0.077860
0.002859
-0.004810
0.179570
-0.031966
-0.124725
-0.123584
0.016082
0.116478
-0.011600
0.064019
0.184960
0.066092
0.035404
0.126098
-0.080390
-0.127147
-0.079796
0.038580
-0.152734
-0.088964
0.004220
-0.136191
-0.119794
-0.038830
-0.111134
-0.175130
-0.213321
-0.054881
-0.016322
-0.200656
-0.108670
-0.198346
-0.067201
0.160336
-0.042505
0.116022
-0.123709
-0.174938
0.030484
0.100411
0.125898
0.015900
-0.029571
0.150435
-0.061451
-0.080245
0.171745
0.036067
0.025521
0.037219
-0.313613
0.178047
-0.116686
-0.116720
0.051418
-0.104749
-0.371549
-0.115187
0.053711
-0.024576
0.134532
-0.312474
0.202493
-0.062996
-0.287486
0.098870
-0.024985
-0.146078
-0.044210
0.095821
0.278434
-0.039253
-0.028294
-0.219641
0.078976
0.009376
-0.093026
-0.052884
-0.150157
-0.146945
-0.042896
-0.224190
-0.186971
-0.199706
-0.022162
0.073124
-0.145277
0.002230
0.014559
0.065344
0.219307
0.087042
0.080498
0.144830
0.135574
-0.202791
-0.093833
0.006220
0.000646
-0.013692
-0.039172
-0.027352
-0.413955
-0.048837
-0.147420
-0.227034
0.043862
-0.125179
0.165428
0.176419
0.091777
0.051496
-0.034356
-0.033651
0.028765
0.108783
-0.083498
-0.090156
0.025356
-0.185728
-0.146183
-0.289246
-0.142106
-0.385421
-0.034808
-0.205993
-0.064417
0.103284
-0.068259
-0.002544
0.043487
-0.131906
0.000584
-0.158610
0.067898
-0.075526
-0.223092
-0.104652
0.001301
-0.025716
0.040448
0.029602
0.221681
0.017234
0.152450
0.290122
0.142594
0.209467
0.140614
-0.038264
-0.112707
-0.146117
0.000372
-0.021477
-0.236996
-0.052623
-0.005785
-0.172692
-0.093906
0.078831
-0.061703
0.036591
-0.071083
-0.156547
-0.042893
0.006333
0.175044
0.010903
-0.088823
0.100761
-0.060868
0.057913
0.118074
0.202017
-0.034062
-0.149445
-0.361422
-0.329728
-0.567707
-0.314496
-0.332044
-0.217815
-0.065059
-0.128261
-0.374572
-0.230471
-0.032531
-0.278091
0.228421
-0.024385
-0.343271
-0.238669
-0.285864
-0.031558
-0.081653
0.076677
-0.059695
-0.015524
-0.203706
-0.048273
-0.219292
-0.061988
0.312679
0.073473
-0.085466
-0.048203
-0.112543
0.024383
0.034894
-0.078685
-0.131873
0.128636
-0.135004
-0.170261
-0.024888
0.110450
-0.084282
-0.090751
-0.123421
0.212616
0.323604
0.092468
0.078141
0.106813
0.137605
0.088648
0.058473
-0.038017
-0.095976
-0.226869
0.091563
-0.038977
-0.099007
0.061699
0.040731
-0.119477
0.104802
-0.036071
0.126568
0.120291
0.158847
-0.138015
0.010502
-0.057518
-0.115273
-0.145727
-0.153575
-0.262400
0.037961
0.088258
-0.125666
0.056882
-0.151804
-0.149304
-0.243558
-0.111580
-0.006904
-0.254907
-0.111174
-0.127315
-0.051762
0.009549
0.085266
0.102310
0.004248
-0.008435
-0.160487
-0.122141
-0.243335
-0.141686
-0.159059
-0.170389
-0.220022
-0.182837
-0.226794
0.053912
0.067731
-0.292063
0.113943
0.049367
-0.022135
0.176314
-0.073481
-0.117650
0.135987
-0.086375
-0.550002
-0.042314
-0.359591
-0.500602
-0.290370
-0.515463
-0.583286
0.198740
0.057519
-0.011049
0.048718
-0.177461
-0.210079
-0.108796
0.138997
-0.169105
0.203844
0.092909
-0.530121
0.298667
-0.089701
-0.002651
-0.030135
0.107399
0.345695
-0.228433
0.117918
0.145048
-0.090613
-0.028455
-0.088233
-0.254750
-0.143543
0.114292
-0.148289
-0.171543
-0.355439
0.129126
-0.322980
-0.236151
-0.136643
-0.141486
-0.053571
-0.019953
0.118295
0.066436
-0.082334
0.067550
-0.177422
0.015313
-0.002381
-0.186700
0.126352
0.186822
0.183842
-0.081739
0.097303
0.193404
-0.033438
0.246067
0.031513
-0.116373
-0.103695
-0.194143
0.004136
0.054486
0.040810
0.075030
0.113096
-0.085494
0.035230
0.096534
0.261909
-0.113172
-0.078748
-0.095835
0.095719
0.086009
-0.140604
-0.151607
0.267167
0.243100
0.005060
0.105800
0.008261
0.131177
0.107263
0.239578
-0.223783
-0.209203
0.113058
0.119247
0.064587
-0.125233
-0.095747
-0.077455
-0.191727
-0.169578
-0.077242
-0.064820
0.049849
-0.116649
-0.255818
-0.073420
-0.215602
-0.063088
-0.177455
0.079016
0.120313
-0.042141
0.017713
0.129377
0.108104
0.134191
-0.046098
0.063321
-0.031680
0.016421
0.024521
0.094165
-0.071811
0.299715
0.236193
-0.138649
0.030232
-0.024162
0.129791
0.032781
0.205178
0.095623
0.218857
0.142871
-0.030062
-0.362155
-0.133190
-0.191877
-0.080867
-0.227354
-0.460451
-0.189694
-0.149150
0.182919
-0.088555
0.073915
0.056024
0.044197
0.019455
0.046711
0.063842
0.219502
0.161458
-0.062053
-0.038372
0.046869
0.046207
0.095460
0.014891
-0.010671
0.077358
0.148577
-0.245717
-0.162048
-0.459127
0.154130
-0.212382
-0.227100
-0.454169
-0.345864
-0.115603
0.000809
0.097480
0.112509
-0.016730
0.154518
-0.012770
0.124870
0.076010
-0.113860
-0.164402
-0.107765
-0.239318
-0.066251
-0.098286
0.395620
-0.110930
0.046587
-0.005375
0.048082
0.180484
-0.028790
0.114020
0.010630
-0.216176
-0.207812
-0.151084
0.247699
-0.083221
-0.190404
-0.004279
-0.074992
-0.106341
0.076095
-0.004600
0.189699
-0.058526
-0.040262
0.110621
0.058333
0.066988
-0.005633
-0.071995
-0.194540
-0.134705
0.051053
-0.133900
-0.108009
0.061344
-0.295858
-0.144262
-0.123752
-0.181128
-0.172074
0.070843
0.133487
-0.162160
-0.107615
0.064719
-0.131241
-0.118002
-0.090571
-0.464392
-0.197539
0.030247
-0.051300
-0.224032
0.032569
-0.019683
0.167334
0.000380
0.081202
0.030969
-0.107413
-0.019581
-0.134019
-0.050331
-0.109712
-0.039150
-0.163490
-0.171506
-0.211326
-0.586061
-0.175986
-0.230347
0.028078
-0.101933
-0.162813
0.235722
0.079532
-0.410266
-0.283068
-0.003822
0.029329
0.104866
-0.001609
-0.049768
-0.103183
0.007238
0.198923
-0.172204
-0.118492
0.130033
-0.357884
0.119161
0.065128
0.139321
0.192886
-0.181246
-0.215150
-0.104148
-0.158577
-0.312997
-0.107574
-0.358392
-0.025262
-0.390030
-0.111552
0.172475
-0.191696
0.111433
-0.036502
0.129816
0.046944
0.112277
0.103383
-0.009549
0.058416
0.191756
-0.141501
-0.067905
-0.116565
-0.234104
-0.242776
-0.124553
0.033801
-0.165439
-0.115284
-0.136283
-0.020750
0.087786
0.291013
-0.050694
0.026370
-0.002319
-0.048223
-0.093198
0.041235
-0.041739
-0.260360
0.176804
0.058202
-0.265510
0.043177
-0.222765
-0.017763
-0.123569
-0.005288
0.129560
-0.042545
-0.037862
-0.037297
-0.130185
-0.181660
0.015763
0.113742
-0.163837
0.096025
0.104803
-0.103186
-0.006853
-0.168823
0.236316
0.011537
-0.241247
0.028130
-0.104579
-0.033165
0.148882
0.088209
0.182821
0.143815
0.065833
-0.085714
-0.086805
-0.224735
-0.053636
-0.050305
-0.217575
0.040900
0.104488
0.168235
-0.039393
0.162456
0.205608
-0.078468
0.142202
-0.056249
-0.086506
0.271924
-0.015183
0.087695
0.146523
-0.219607
0.038080
-0.029245
-0.022054
-0.009866
-0.104139
-0.060911
-0.194277
-0.020252
0.088353
-0.178761
0.114342
0.122535
-0.158073
0.101315
0.178073
0.081399
-0.013586
-0.085898
-0.060155
-0.080525
-0.197246
0.099366
0.096965
0.045617
-0.077527
-0.186775
-0.134047
-0.031057
-0.121953
0.057837
0.225859
0.135824
0.098499
0.052230
0.241585
-0.121431
0.006029
-0.078072
-0.363856
-0.161237
-0.388548
-0.410114
-0.050642
-0.337062
-0.468632
-0.101967
0.068215
0.202397
0.196403
0.212384
-0.102109
0.082597
-0.021158
-0.185343
-0.038819
-0.139613
-0.142575
0.376714
-0.026608
0.063764
-0.062329
-0.002372
0.008431
0.046082
0.184198
0.197080
0.036754
-0.026894
0.014243
-0.157155
0.060430
0.060171
-0.222173
0.064113
0.071901
0.081794
0.003538
-0.027820
0.212069
-0.085107
-0.172776
-0.137965
0.177679
-0.005626
0.179570
-0.004303
0.061506
-0.038441
0.174679
0.084262
-0.075184
0.021698
0.128651
0.060197
-0.422757
-0.178046
-0.185789
-0.120324
-0.118203
-0.146600
-0.061639
-0.302955
-0.188687
0.133810
0.091124
-0.093247
-0.167102
-0.099811
-0.154009
-0.380422
-0.440125
-0.091014
0.221669
0.252122
0.049847
0.084239
-0.173321
0.091858
-0.272193
-0.142484
-0.247466
-0.132734
-0.100071
-0.296232
-0.268455
-0.155685
-0.071385
0.086006
-0.093165
0.131916
0.142197
0.163145
-0.133061
-0.027495
-0.147155
-0.221079
0.007766
0.016830
0.129423
-0.477646
-0.221829
-0.181475
-0.139560
-0.056139
0.115265
0.252798
0.143244
0.080504
0.061359
-0.138975
-0.008840
-0.017475
-0.148374
-0.170694
0.078837
-0.034952
0.170606
-0.161494
-0.002787
-0.179917
-0.220927
0.044981
0.021647
0.017092
-0.160267
0.263304
0.204390
-0.263039
0.043719
0.037451
-0.323230
-0.143153
-0.133133
-0.057412
-0.009396
0.156648
0.037346
-0.100957
0.099686
-0.044398
-0.182717
0.121665
-0.092863
-0.130810
0.061386
0.086031
-0.089121
0.114969
0.051177
-0.021949
-0.004424
-0.014128
0.078478
-0.250372
-0.157810
-0.086760
0.022149
0.028625
-0.066478
-0.047595
0.064673
-0.072186
-0.045221
-0.113685
-0.236935
0.028122
-0.020120
-0.106804
-0.067674
-0.228893
-0.141201
0.018838
-0.161291
-0.286566
0.099110
0.033784
-0.327653
0.091188
-0.138754
0.012617
0.171078
0.051308
0.018425
-0.085099
-0.245388
0.059430
-0.067893
-0.346383
-0.090127
-0.092094
0.073852
0.196100
-0.314536
-0.073388
0.040171
-0.317346
0.037771
0.256611
0.081324
0.084932
-0.034878
0.043286
0.068455
0.081121
0.126532
0.052634
0.148318
-0.171852
-0.072371
-0.243073
0.069424
0.120737
-0.012791
-0.138147
-0.113070
-0.130351
-0.177137
-0.247209
0.048900
-0.021148
-0.469618
0.068672
-0.258534
-0.137855
-0.183262
0.111136
0.032576
-0.520679
-0.073788
-0.026851
-0.207888
0.128691
-0.272966
-0.154337
0.331957
0.110168
-0.200217
0.240771
-0.000257
-0.177123
-0.119847
-0.290203
-0.264205
0.035742
-0.099412
0.023771
0.258500
0.149991
-0.000931
0.326913
0.224749
0.120100
0.009431
-0.029989
0.084409
-0.007325
-0.129031
0.277036
0.174043
-0.050474
0.269027
0.309397
0.231828
0.060564
0.212955
0.127229
0.078935
0.068028
-0.088494
-0.013076
-0.002412
-0.132860
0.000654
0.064020
-0.002217
-0.023902
0.049505
0.084276
0.040309
-0.310681
-0.143125
0.059121
-0.123581
-0.149145
-0.100431
0.063036
-0.013673
0.114042
0.008348
0.133942
-0.071876
-0.181136
0.077380
-0.022900
-0.167938
-0.099594
-0.214809
0.225975
-0.084487
-0.286482
-0.108775
-0.297952
-0.207296
-0.214726
-0.098772
-0.176459
0.204497
0.260427
0.164698
-0.038180
0.255125
0.020079
-0.260425
0.139607
-0.210193
-0.096302
-0.004292
0.043078
-0.131393
-0.016424
-0.000117
0.001949
-0.031041
-0.053124
0.129489
0.157446
0.041178
-0.053965
-0.150582
0.093753
-0.314632
-0.501488
0.088130
0.147472
0.002175
-0.314467
0.117903
0.024641
-0.234943
0.051535
0.000816
0.032702
-0.108966
0.223223
0.039602
0.027261
-0.275684
-0.118755
0.027577
-0.068128
0.087548
0.142137
-0.056080
0.205861
0.153073
-0.066156
-0.061497
-0.249001
-0.113363
-0.062063
-0.391473
-0.145389
-0.505970
-0.174919
0.170193
-0.255030
-0.061136
0.101213
-0.350677
-0.239952
-0.018413
0.143682
-0.219333
-0.166097
-0.000860
-0.103704
-0.087671
0.019435
-0.113921
-0.006294
-0.167444
-0.142032
0.109133
-0.381254
-0.023566
0.226907
-0.046595
0.033520
0.057657
-0.301904
-0.051160
-0.550862
-0.309356
-0.185870
-0.507402
-0.168770
-0.076303
0.123782
0.075110
-0.339929
-0.227706
0.070021
0.021385
-0.218710
0.029681
-0.029079
-0.139167
-0.102372
0.249391
-0.202302
-0.025859
-0.213144
-0.320932
-0.261537
-0.287218
0.275443
0.070206
0.167057
0.146362
0.127250
-0.067809
-0.133980
0.171833
0.175219
0.273870
0.212596
0.022552
-0.114204
-0.044963
0.084320
-0.042159
-0.225658
0.044935
-0.028376
0.068769
0.104890
0.038274
0.051440
0.154095
0.046964
-0.138594
-0.254287
-0.149442
0.045840
-0.284694
-0.205519
-0.129408
-0.055482
0.065819
0.005586
-0.099012
0.112602
-0.477208
0.047299
-0.166780
-0.196116
-0.200093
-0.249989
-0.381739
-0.202475
-0.032119
-0.039732
-0.006434
-0.079241
0.111766
-0.063375
-0.226701
-0.119761
-0.027713
-0.076088
0.101246
0.096386
-0.081047
-0.356395
-0.017084
0.167510
-0.491705
0.068136
-0.013787
-0.132372
0.034085
0.050731
-0.297904
-0.079272
-0.063477
0.030071
-0.213080
-0.125186
-0.038050
-0.158991
-0.206525
-0.108563
-0.016227
-0.081762
-0.196385
0.147897
-0.046668
0.048720
-0.015480
-0.123000
-0.046841
0.044506
-0.030497
-0.144674
0.131269
-0.092471
-0.331442
-0.030243
0.173430
-0.106665
-0.297264
0.102649
0.133731
0.007109
0.092381
0.186080
-0.234521
-0.094727
0.125374
-0.019066
-0.114536
-0.002256
0.282332
0.074491
0.211916
-0.032537
0.072122
-0.106997
-0.106646
0.043961
0.138339
0.023466
0.165876
0.214245
0.145594
0.075382
-0.115319
-0.120980
-0.086189
-0.095912
0.212004
0.134051
-0.208696
0.076330
-0.026225
0.040854
-0.111951
0.005071
-0.058884
-0.271341
-0.003483
0.219363
-0.015764
-0.158968
-0.047792
-0.095850
-0.448919
-0.191218
-0.137288
-0.324270
0.062597
0.066666
-0.190266
-0.239615
-0.014712
0.127791
0.220717
0.112594
-0.188078
0.152734
0.048656
0.000087
-0.083078
-0.168835
-0.111677
0.073176
-0.145955
-0.076401
-0.205099
-0.056669
-0.085231
0.100867
0.007925
-0.174003
-0.155446
-0.042178
0.254205
0.238773
0.000981
-0.205875
0.113429
0.226957
-0.256066
-0.150110
0.185635
-0.220071
-0.305010
0.143215
0.015396
-0.151132
-0.063280
0.201630
-0.078444
-0.051487
-0.109028
-0.036796
-0.119056
-0.142703
0.096992
-0.247980
-0.088037
-0.067165
-0.104261
-0.100466
0.083249
0.088480
0.087275
0.066282
-0.086498
0.081911
0.033432
0.168838
-0.061052
-0.202950
0.110930
0.005608
0.043247
-0.105870
0.014213
0.017335
-0.198839
0.094741
0.087379
-0.115907
-0.153157
-0.074306
-0.059211
-0.070450
-0.277042
0.026837
0.112509
0.160086
0.010779
0.107041
0.267289
-0.403436
-0.130795
-0.114608
-0.088849
0.198795
0.103676
-0.031060
-0.253877
-0.120420
-0.442420
-0.078920
-0.084779
-0.118825
0.003917
0.088875
-0.113414
-0.048933
-0.086544
-0.010941
-0.038202
-0.101819
-0.050743
0.133327
0.249816
-0.176049
0.029146
0.034506
0.174028
-0.104249
-0.167740
-0.054915
-0.140422
0.340369
0.035635
-0.408829
-0.059436
0.145462
-0.056996
-0.276034
0.183162
0.144489
-0.048553
0.148936
0.250295
0.071063
-0.062113
-0.018670
-0.096539
-0.237838
-0.063131
-0.150716
0.321445
-0.035657
-0.149979
-0.036522
-0.009042
-0.026759
0.086402
-0.124957
-0.378266
0.145439
0.257857
0.086275
-0.076866
0.177145
0.204872
-0.064265
0.037755
0.031762
-0.171153
-0.184248
0.089945
-0.319387
-0.012103
-0.121663
-0.019710
-0.057889
0.042193
-0.082145
-0.028836
0.132489
-0.053099
0.034617
0.130028
-0.252691
0.008352
-0.023188
-0.195515
-0.204996
0.173810
-0.125237
0.138461
-0.081593
-0.083826
-0.137539
-0.268110
0.081353
0.079243
-0.108067
-0.031066
0.102970
-0.062143
-0.041914
-0.031546
-0.112104
-0.048146
-0.121347
0.086759
-0.144090
-0.111971
0.533727
0.075177
-0.010681
0.147994
0.208563
-0.018360
0.024140
-0.128656
-0.102336
-0.162387
-0.058668
-0.032002
-0.107713
-0.148360
-0.277750
0.046704
-0.239474
-0.092664
0.069005
0.081270
0.064238
-0.032559
0.127620
-0.039346
0.170002
0.111806
-0.057922
-0.045940
0.038553
-0.023323
-0.048184
-0.137277
0.093945
0.026177
-0.129507
-0.114273
0.055193
-0.211896
-0.003554
0.117983
-0.481209
-0.166503
-0.240151
-0.230089
-0.397889
-0.340859
0.028574
0.043449
0.144263
-0.210941
-0.063787
0.014358
-0.170667
-0.242164
-0.127169
0.214833
0.040784
0.082496
-0.052894
-0.082007
0.021225
-0.139321
-0.223370
0.146594
-0.007430
-0.237771
-0.036948
0.161250
-0.160484
-0.179223
0.038100
0.118306
-0.135539
0.038175
0.016371
0.227479
0.030854
-0.042351
0.106416
-0.067014
-0.058954
0.111590
-0.223691
0.042276
0.029183
-0.090077
0.001922
-0.211039
-0.012859
0.167555
-0.137735
0.300715
-0.039252
-0.301732
-0.024860
0.011982
0.007042
-0.294826
-0.136906
0.132247
0.094691
0.052549
-0.435589
0.037544
0.192490
-0.004455
-0.035886
-0.164704
0.211510
-0.027147
-0.141312
-0.109926
0.131720
-0.257099
-0.145930
-0.290284
-0.154611
0.286223
0.006255
0.080266
-0.073364
-0.036353
0.116620
0.219920
-0.378557
-0.115126
0.031285
0.207769
0.107205
-0.111798
0.244077
0.146468
-0.003063
0.056585
0.118274
-0.061200
-0.089472
-0.007503
0.013562
-0.148369
-0.094851
-0.068164
0.025157
0.021410
-0.059293
-0.142876
-0.058849
0.144620
-0.043017
0.092101
-0.278675
-0.133075
0.039622
-0.243822
0.101362
-0.140626
-0.124422
0.000308
0.092020
0.083092
0.003629
0.098051
0.169716
-0.073687
-0.105020
0.155461
-0.188923
0.134789
0.227846
-0.279184
-0.359581
0.005403
0.266509
0.112154
-0.027062
0.162871
0.077769
-0.016594
-0.055888
0.024765
0.057297
-0.001642
-0.179780
-0.321738
-0.133808
-0.334183
-0.160130
0.148527
-0.177240
-0.466800
-0.105602
-0.001866
0.045333
-0.252466
0.078144
0.107526
-0.074286
-0.191945
0.091498
-0.055353
-0.146144
0.097546
-0.221450
0.338169
0.046459
-0.099427
0.042169
0.258318
-0.091101
-0.144146
0.099461
-0.340315
-0.040605
-0.125312
-0.015576
0.076571
-0.176365
-0.119435
0.001953
0.113031
0.105589
-0.126412
0.048686
0.033633
-0.260657
-0.132948
-0.151694
0.004080
0.165298
0.050976
-0.425362
0.093629
0.232821
-0.273070
-0.067933
-0.107503
-0.032090
-0.090804
-0.017215
0.116549
0.216044
-0.242309
0.027595
0.084164
-0.046882
-0.170082
-0.087916
-0.161682
-0.298337
-0.084179
-0.024346
-0.319219
0.106889
0.141076
-0.117480
-0.218345
-0.069975
0.149426
0.062176
-0.160317
-0.049737
0.032582
0.136032
-0.191378
-0.319487
0.150999
0.003881
-0.157833
0.135309
0.008293
-0.203256
-0.036467
-0.084404
0.111007
-0.252406
-0.164263
0.015282
-0.044557
-0.082870
0.051469
-0.259927
-0.258016
0.288385
0.028389
-0.192355
-0.013216
-0.134110
0.002337
-0.068285
-0.053793
-0.077880
0.028491
-0.302642
-0.123149
-0.116991
-0.055950
0.016609
0.022755
0.188289
0.232288
0.154844
-0.056764
0.056522
0.075871
-0.011785
0.089855
0.115005
-0.319370
-0.213688
-0.258437
-0.108027
-0.477287
-0.266204
0.159752
-0.079910
-0.126274
0.130751
0.019193
-0.065935
0.126261
-0.019627
-0.019111
0.023108
0.011118
0.006224
-0.026903
0.015148
-0.053462
-0.316282
-0.211934
0.050301
-0.315666
-0.212212
-0.102362
-0.269198
-0.164348
-0.193849
-0.272208
0.105814
0.229626
-0.025012
0.026581
0.375277
0.071059
0.027797
0.025914
-0.367113
-0.539830
-0.338612
-0.083644
-0.061350
