-0.004156216979026794
0.0770813524723053
-0.046821944415569305
-0.06930727511644363
0.033278122544288635
-0.03977161645889282
0.07562372088432312
0.11305306851863861
-0.10013510286808014
-0.11082550883293152
0.13250114023685455
-0.0781714916229248
0.07407720386981964
0.13798098266124725
0.10272909700870514
-0.0074780285358428955
0.010845750570297241
-0.018876545131206512
0.021450459957122803
0.07990676164627075
0.07304981350898743
-0.11976215243339539
0.010773658752441406
-0.10682319104671478
-0.0459500327706337
-0.040246494114398956
-0.1358243077993393
-0.024334512650966644
-0.05971148610115051
-0.09998176991939545
-0.07697592675685883
-0.12319238483905792
-0.03152453154325485
0.01724189519882202
-0.08394879847764969
-0.09257648885250092
-0.07856575399637222
-0.026162877678871155
-0.015690267086029053
0.018457040190696716
0.08942197263240814
-0.06195773184299469
0.1359131783246994
-0.10962313413619995
0.09912677109241486
-0.13645854592323303
-0.0909990668296814
0.044737592339515686
-0.10564213991165161
-0.06132616102695465
0.08266915380954742
-0.06767690181732178
-0.06941681355237961
0.08989661931991577
0.008923009037971497
0.09168516099452972
-0.10442419350147247
-0.0023010671138763428
-0.0732802078127861
-0.010498210787773132
-0.01769229769706726
-0.08487161248922348
-0.13655920326709747
-0.10972319543361664
0.0014539659023284912
-0.050185419619083405
-0.01740698516368866
-0.0710349753499031
0.09293641149997711
0.04828466475009918
-0.13434717059135437
-0.040446095168590546
-0.026266291737556458
0.12515626847743988
0.059910714626312256
-0.10816366970539093
-0.11965132504701614
-0.10260827094316483
-0.0104207843542099
-0.023083172738552094
0.008932724595069885
-0.027739115059375763
0.03882220387458801
-0.07584406435489655
-0.0022586584091186523
0.10902880132198334
0.07119409739971161
-0.10705585777759552
-0.04348312318325043
0.0039039403200149536
0.09092490375041962
-0.0897708535194397
0.043684959411621094
0.04303547739982605
0.09629155695438385
-0.0693528801202774
-0.10114748775959015
-0.000506967306137085
0.08112207055091858
-0.030883677303791046
0.06577815115451813
0.08225224912166595
-0.027122974395751953
0.027025878429412842
0.007759034633636475
0.08975306153297424
-0.10101120173931122
-0.0704139992594719
0.13302825391292572
-0.08202780783176422
0.08092720806598663
-0.05228632688522339
0.0282914936542511
-0.11348165571689606
-0.1309516280889511
0.07702429592609406
0.09997324645519257
0.10074503719806671
0.13095159828662872
-0.09082894772291183
-0.10349078476428986
-0.06012476980686188
0.06404173374176025
-0.023792505264282227
0.11646653711795807
0.0006180852651596069
-0.08341504633426666
0.07388006150722504
0.04188068211078644
0.1072506308555603
-0.028626002371311188
0.12331162393093109
-0.11531877517700195
0.11223410069942474
-0.06442060321569443
-0.0028993189334869385
-0.1328403651714325
0.06021524965763092
-0.05200519412755966
-0.023188598453998566
-0.09115776419639587
-0.08439107239246368
-0.08160402625799179
0.1293758600950241
-0.03326203674077988
-0.06907773017883301
0.040855467319488525
0.09306292235851288
-0.00022767484188079834
-0.08866354078054428
0.004121467471122742
-0.057437099516391754
-0.06747901439666748
-0.11122553795576096
-0.035870179533958435
0.025507047772407532
0.012940213084220886
-0.05013487488031387
-0.10719461739063263
-0.0770617425441742
-0.0451417937874794
-0.02048010379076004
0.03333672881126404
-0.13758432865142822
-0.0810457319021225
0.11697481572628021
-0.11420132219791412
-0.11156652867794037
0.10533684492111206
-0.06934257596731186
0.07573705911636353
0.0788659155368805
0.08106386661529541
0.1315421611070633
0.015059247612953186
-0.026478633284568787
0.1019708663225174
-0.11619818955659866
-0.07674525678157806
-0.03503534942865372
-0.1119123250246048
0.018162056803703308
0.07847066223621368
0.08863307535648346
0.07854144275188446
0.12759263813495636
-0.020524851977825165
-0.09878917038440704
0.10373260080814362
0.06828129291534424
0.06889085471630096
0.04989852011203766
0.08752463757991791
0.086973637342453
0.021939963102340698
-0.006937965750694275
-0.00936223566532135
-0.018032968044281006
-0.13063794374465942
0.07165569067001343
-0.04133453220129013
0.06914633512496948
-0.07224544882774353
0.04399608075618744
-0.11659114062786102
0.1352834850549698
-0.05408971756696701
-0.04617852717638016
0.11521472036838531
-0.0005834996700286865
-0.05467180162668228
0.0017913728952407837
-0.048570677638053894
0.012868747115135193
-0.06717822700738907
0.1064462959766388
0.09953485429286957
0.05238853394985199
-0.053711503744125366
0.05268843472003937
0.05796511471271515
0.07778561115264893
0.04070526361465454
0.01289522647857666
0.03434671461582184
-0.05437006801366806
-0.04579442739486694
-0.1279374659061432
-0.047813862562179565
-0.0008491724729537964
0.13583408296108246
0.09031009674072266
-0.10941004008054733
-0.03211379051208496
0.019017308950424194
0.1266704648733139
0.014013171195983887
0.09858410060405731
0.07779021561145782
-0.044654831290245056
-0.09162445366382599
0.051372230052948
-0.00841592252254486
0.10120794177055359
0.12138791382312775
-0.13793699443340302
-0.11516974866390228
-0.028894342482089996
-0.007605105638504028
-0.12250161170959473
0.07068486511707306
-0.07614477723836899
-0.12589482963085175
-0.11322470009326935
-0.05786055326461792
0.03570269048213959
-0.1146700531244278
-0.03826996684074402
-0.08097758889198303
0.04123137891292572
-0.0983571857213974
-0.05826672911643982
-0.10708741843700409
-0.08025851845741272
-0.011720821261405945
0.0722215324640274
-0.08133065700531006
0.06751218438148499
-0.032887645065784454
0.136085644364357
0.05519759654998779
-0.006258442997932434
0.004362434148788452
-0.09090761840343475
0.11577601730823517
-0.011562883853912354
0.012858107686042786
0.07352818548679352
0.02589230239391327
0.04874895513057709
0.00726279616355896
0.09205813705921173
0.1304527372121811
-0.1355334371328354
0.13409192860126495
-0.10366948693990707
-0.0864933654665947
0.02044348418712616
-0.013631872832775116
0.11754502356052399
0.05630955100059509
0.011727467179298401
-0.09483528137207031
-0.06727184355258942
-0.044036515057086945
0.07573504745960236
0.04270245134830475
-0.026065804064273834
-0.05915778875350952
-0.11768493056297302
0.1247439831495285
-0.02015891671180725
-0.13226887583732605
0.13491173088550568
-0.04841947555541992
-0.12902559340000153
0.07993791997432709
-0.12058895081281662
0.07922743260860443
0.12800751626491547
-0.10153280943632126
0.0936770886182785
-0.08593128621578217
0.0439285933971405
0.012788325548171997
-0.134659543633461
0.009660318493843079
-0.04021747410297394
-0.13542421162128448
0.0846773087978363
-0.045877017080783844
-0.0058040618896484375
0.056917041540145874
0.04652129113674164
-0.09466002881526947
-0.05107609182596207
-0.13201816380023956
-0.06345122307538986
-0.09396553784608841
-0.03180590271949768
0.05222098529338837
-0.11254557967185974
0.05216948688030243
-0.018890008330345154
0.10256052017211914
-0.06759266555309296
0.08321824669837952
0.05980460345745087
-0.05320585519075394
0.031739071011543274
0.03225149214267731
0.1340489536523819
-0.006337419152259827
-0.07185723632574081
0.13681940734386444
-0.11988876760005951
-0.028493694961071014
-0.1275610327720642
0.011098891496658325
-0.09455414116382599
0.015257596969604492
-0.0031129270792007446
-0.009672954678535461
0.031353265047073364
0.13544057309627533
-0.12169251590967178
-0.04373142123222351
-0.0995291918516159
-0.011335939168930054
-0.06375536322593689
0.0777520090341568
-0.025859065353870392
0.060514599084854126
-0.12601318955421448
0.12254630029201508
-0.0636632964015007
-0.08384257555007935
-0.019857242703437805
0.12179417908191681
0.11500443518161774
-0.02636474370956421
-0.1365310102701187
-0.04930064082145691
0.05865904688835144
0.006713196635246277
-0.01356494426727295
0.03699582815170288
-0.00995771586894989
0.028465330600738525
0.12217734754085541
-0.03293134272098541
0.04318341612815857
0.0254296213388443
-0.000616610050201416
0.06010867655277252
0.0054858773946762085
0.05293935537338257
0.030079945921897888
-0.07456274330615997
-0.12222827225923538
-0.10877639055252075
-0.0023307204246520996
0.12470249831676483
-0.1291738748550415
0.13419859111309052
0.1209513396024704
-0.011776328086853027
-0.09457677602767944
-0.07209300249814987
-0.1302952617406845
-0.045903705060482025
0.06800436973571777
-0.040163807570934296
0.12884707748889923
0.13126946985721588
0.11040650308132172
0.032135963439941406
-0.00015340745449066162
0.12496434152126312
0.010280340909957886
-0.06615521758794785
0.03088557720184326
0.09016035497188568
-0.11072675883769989
-0.03852918744087219
0.0211247056722641
0.010753348469734192
-0.028476350009441376
0.08186222612857819
0.10502417385578156
0.08625029027462006
-0.1004972904920578
-0.0706246867775917
-0.11436758935451508
-0.005820512771606445
0.06920872628688812
-0.005785167217254639
0.048018068075180054
-0.13736972212791443
-0.047136515378952026
0.0783773809671402
-0.13043847680091858
0.027986988425254822
-0.04925081878900528
0.1377355009317398
-0.030469797551631927
-0.008639469742774963
0.06347669661045074
0.08327174186706543
-0.06589312851428986
-0.10715368390083313
-0.06292404979467392
-0.1251813918352127
-0.13434621691703796
-0.11303882300853729
0.0944431871175766
-0.03044334053993225
-0.06079168617725372
-0.10254015773534775
0.040887653827667236
-0.12023193389177322
0.002934187650680542
-0.136313796043396
-0.05397191643714905
0.06340676546096802
0.023843929171562195
0.057855576276779175
-0.11248618364334106
0.07224035263061523
-0.13062618672847748
0.07979126274585724
0.008157521486282349
-0.09705238044261932
0.009022682905197144
0.009656041860580444
0.005869284272193909
0.06276097893714905
-0.09358982741832733
-0.03666289150714874
0.031484782695770264
0.08734695613384247
0.09525956213474274
-0.08679266273975372
-0.09222042560577393
-0.03006233274936676
-0.05193950980901718
0.053557321429252625
0.07868701219558716
0.017491713166236877
-0.07213291525840759
0.10735805332660675
0.0020752400159835815
0.1131652444601059
-0.105133555829525
0.10021816194057465
-0.09619448333978653
-0.030813060700893402
-0.09136240184307098
-0.10418523848056793
0.048337191343307495
-0.04630172252655029
-0.1201992928981781
-0.06315741688013077
0.02755962312221527
0.015097349882125854
-0.008418947458267212
-0.11755044758319855
0.12841938436031342
0.02923378348350525
0.052138060331344604
-0.11546644568443298
0.04578201472759247
-0.07956484705209732
0.13484598696231842
-0.07546930760145187
0.13548271358013153
-0.09395971894264221
-0.12520945072174072
-0.08868460357189178
-0.08325716853141785
-0.03134763240814209
0.052009835839271545
-0.012911617755889893
-0.07776665687561035
0.11579088866710663
-0.03252681344747543
0.11931635439395905
0.023913532495498657
0.0359882116317749
-0.05697639286518097
-0.1269700974225998
0.028946921229362488
0.00015291571617126465
0.045768171548843384
0.05642238259315491
0.10296854376792908
0.02602924406528473
-0.054458118975162506
-0.02024143934249878
-0.07603691518306732
-0.051621489226818085
-0.028249703347682953
-0.12721118330955505
0.08470712602138519
0.05934682488441467
0.0750712901353836
0.06255795061588287
-0.10999821126461029
0.065827876329422
-0.11186642199754715
-0.09325818717479706
0.13180668652057648
0.13637055456638336
0.11245511472225189
0.09248708188533783
0.12264780700206757
-0.07009343802928925
0.13657961785793304
0.02871909737586975
-0.11355236917734146
0.13175712525844574
0.07301269471645355
-0.09752710163593292
0.09257136285305023
0.0744214802980423
-0.016455896198749542
-0.07440058887004852
-0.01494935154914856
0.0015582144260406494
0.136787548661232
-0.12194512784481049
0.09890380501747131
0.0522882342338562
-0.038806647062301636
0.11467553675174713
-0.06229671835899353
-0.014723919332027435
-0.03767725080251694
0.11059869825839996
0.055294424295425415
0.0944327861070633
-0.1188950389623642
0.09879091382026672
-0.057300738990306854
0.03609949350357056
-0.02739865332841873
0.08668769896030426
-0.08450295031070709
0.11239822208881378
0.08462449908256531
0.0411645770072937
0.0429036021232605
0.014653071761131287
0.08450058102607727
0.07401569187641144
0.13784314692020416
0.09185412526130676
-0.06481140851974487
-0.046341896057128906
-0.02611374855041504
-0.13669376075267792
0.03523083031177521
0.09894226491451263
0.05803340673446655
-0.04157690703868866
-0.11740606278181076
0.137104794383049
-0.09410226345062256
0.009640678763389587
-0.10207465291023254
-0.12521418929100037
0.12386305630207062
-0.11055885255336761
-0.10812931507825851
0.08471521735191345
0.06337593495845795
-0.05452010780572891
-0.1269528567790985
0.011316388845443726
0.0487121045589447
-0.053499169647693634
-0.10600510984659195
0.045126527547836304
-0.0058613121509552
-0.06366457790136337
-0.05722545087337494
-0.04881690442562103
-0.032681889832019806
-0.10943178832530975
0.007176518440246582
-0.006972938776016235
-0.0018126368522644043
-0.04226958751678467
-0.09833945333957672
0.06977419555187225
-0.07320772111415863
0.1030125766992569
0.041392579674720764
0.10654869675636292
0.04244138300418854
0.08962784707546234
-0.05346998572349548
0.08994512259960175
-0.09434118121862411
-0.10095308721065521
0.10281452536582947
-0.04102920740842819
-0.04740343987941742
0.12586568295955658
0.11874033510684967
-0.1268022209405899
-0.018982701003551483
-0.11980114132165909
0.11181561648845673
0.056021690368652344
-0.11120282858610153
0.1301140934228897
-0.037727825343608856
0.1296456903219223
0.08989763259887695
-0.10532476752996445
0.0525595098733902
0.04628780484199524
-0.09462840855121613
-0.12336737662553787
-0.07042985409498215
0.08167670667171478
0.06976820528507233
-0.10728652775287628
-0.005521401762962341
-0.041503891348838806
0.06626509130001068
-0.12412898987531662
-0.09765338897705078
0.08488312363624573
-0.04420219361782074
0.06320571899414062
-0.08975712954998016
0.017712503671646118
0.07470127940177917
-0.007441610097885132
0.11894737184047699
0.10534171760082245
0.08690614998340607
-0.016039587557315826
0.07380636036396027
0.12864740192890167
-0.11732297390699387
0.08686657249927521
-0.08598442375659943
0.006797626614570618
0.13285039365291595
-0.0035645514726638794
-0.04929228127002716
-0.064611054956913
-0.12768840789794922
-0.06181884557008743
0.0675259679555893
0.04419027268886566
0.021953880786895752
-0.059083133935928345
0.006933256983757019
0.041599348187446594
0.07006852328777313
-0.008663266897201538
0.039181098341941833
0.0906006246805191
-0.061011821031570435
-0.11721432209014893
-0.11707773804664612
0.0489160418510437
0.08001741766929626
0.0968199074268341
0.025700226426124573
0.049642786383628845
-0.08121936768293381
0.10704569518566132
-0.12651775777339935
-0.1047707200050354
0.12264551222324371
0.04300764203071594
0.08209776878356934
0.01881168782711029
-0.015181757509708405
0.1256391555070877
0.04635322093963623
0.05975824594497681
0.09876866638660431
0.02706463634967804
0.05592024326324463
0.01674140989780426
-0.007452726364135742
0.07801146805286407
-0.07667747139930725
-0.126084566116333
0.02217194437980652
-0.12163469940423965
0.02082166075706482
-0.038659922778606415
0.08198569715023041
0.12147222459316254
-0.04936773329973221
0.009720966219902039
0.05422326922416687
0.1296238750219345
-0.12661509215831757
-0.08078643679618835
-0.13752961158752441
-0.12890128791332245
-0.0303778275847435
-0.1347036361694336
0.12195675075054169
0.13513581454753876
0.04358552396297455
-0.028368651866912842
-0.03402698040008545
0.115780308842659
0.12949196994304657
-0.03510112315416336
-0.035487398505210876
-0.0028400570154190063
0.08488072454929352
0.05238954722881317
0.01663614809513092
-0.07095761597156525
0.02058042585849762
-0.028945080935955048
-0.10912337154150009
0.09941534698009491
0.036213383078575134
0.13503213226795197
0.10121510922908783
0.024496838450431824
0.08848772943019867
0.12086845934391022
0.06343437731266022
0.05570533871650696
-0.07652103900909424
-0.11475912481546402
-0.09679881483316422
0.08007615804672241
-0.08883191645145416
0.07636427879333496
0.008025109767913818
0.019483909010887146
-0.014799892902374268
0.08819763362407684
0.08099529147148132
-0.07929742336273193
-0.09371104836463928
-0.07265698909759521
0.07393442094326019
-0.06565368175506592
0.10051755607128143
0.08781702816486359
-0.1350088268518448
-0.0065281689167022705
0.015665262937545776
-0.01641812175512314
-0.13084416091442108
-0.023182906210422516
-0.05527152866125107
-0.05937144160270691
-0.02782842516899109
0.0998334288597107
-0.1208573579788208
0.08357962965965271
0.07052145898342133
0.11134086549282074
0.0615902841091156
-0.094894640147686
-0.006015270948410034
0.07508257031440735
-0.09343031048774719
0.1370019167661667
0.056551456451416016
0.03310297429561615
0.04318460822105408
0.1293969303369522
-0.06463925540447235
0.02345256507396698
0.015246585011482239
0.0001507103443145752
-0.024275414645671844
0.018962666392326355
-0.08182090520858765
0.05556464195251465
0.0143776535987854
0.0883607566356659
-0.022909142076969147
0.04650203883647919
-0.07239022850990295
0.08017730712890625
-0.02938298135995865
-0.07613234221935272
-0.01912790536880493
0.07161380350589752
0.11089664697647095
-0.003627672791481018
-0.11774171888828278
-0.1374262124300003
-0.12966690957546234
-0.12035848200321198
-0.07288199663162231
0.07911691069602966
-0.01180519163608551
0.12510015070438385
-0.021510884165763855
-0.04942340403795242
-0.029717788100242615
-0.11171726882457733
-0.01996300369501114
-0.10883855074644089
-0.03995542228221893
0.0036294758319854736
-0.09938198328018188
-0.06549320369958878
-0.030413299798965454
0.08408969640731812
0.026894450187683105
-0.11953075975179672
0.06289581954479218
-0.11635030806064606
-0.12913398444652557
-0.10521546006202698
0.1352277547121048
-0.017745114862918854
-0.04798892140388489
-0.029990829527378082
-0.10156430304050446
0.012005940079689026
-0.00254976749420166
0.04519397020339966
-0.004911452531814575
